SVM-light Version V5.01-TK-1.2
5 # kernel type
3 # kernel parameter -d 
1 # kernel parameter -g 
1 # kernel parameter -s 
1 # kernel parameter -r 
empty# kernel parameter -u 
0.4 # kernel parameter -L 
1 # kernel parameter -T 
T # kernel parameter -C 
1 # kernel parameter -F 
1 # kernel parameter -S 
1.000000 # kernel parameter -D 
3 # kernel parameter -N 
S # kernel parameter -V 
S # kernel parameter -W 
0 # highest feature index 
16237 # number of training documents 
1752 # number of support vectors plus 1 
0.7973315 # threshold b, each following line is a SV (starting with alpha*y)
-0.13879210676437347959932822050177  |BT| (NP (NP (NNPS Indonesians))(NP (NP (NN search)(NNS hotels)))) |ET| 
-0.87594423483743821812197438703151  |BT| (NP (NNP Cheney)(NN chief)) |ET| 
-0.33226587859544620684459914627951  |BT| (S (S (S (VP (NP (NN ambassador)))))(, ,)('' '')(NP (NN commission)(NN chairman))) |ET| 
-0.44270028407561268224412742711138  |BT| (NP (NNP U.S.)(NNP Ambassador)(NNP Richard)(NNP Holbrooke)) |ET| 
-0.28280725392264560724697730620392  |BT| (S (NP (NP (NNP CAIRO)(, ,)(NNP Egypt))(PRN (-LRB- -LRB-)(NP (NNP AP))(-RRB- -RRB-)))(PP (NP (CD _))(IN In)(NP (NP (PRP$ his)(JJ foreign)(NN policy)(NN debut))(PP (IN as)(NP (NP (NNP Syria)(POS 's))(NN president)))))) |ET| 
1  |BT| (NP (NP (NNP Syria)(POS 's))(ROOT (S (NP (NP (NNP CAIRO)(, ,)(NNP Egypt))(PRN (-LRB- -LRB-)(NP (NNP AP))(-RRB- -RRB-)))(PP (NP (CD _))(IN In)(NP (NP (PRP$ his)(JJ foreign)(NN policy)(NN debut))(PP (IN as)(NP (NP (NNP Syria)(POS 's))(NN president)))))))) |ET| 
1  |BT| (NP (NNP Egyptian)(NNP President)) |ET| 
1  |BT| (NP (NNP Egyptian)(NNP Foreign)(NNP Minister)) |ET| 
1  |BT| (NP (JJ Syrian)(NN leader)) |ET| 
1  |BT| (NP (PRP$ his)(NN nation)) |ET| 
-1  |BT| (NP (NNP French)(NNP Foreign)(NNP Minister)) |ET| 
1  |BT| (VP (VBN IMUnified)(, ,)(NP (NP (NN coalition))(VP (VBN formed)(PP (IN by)(NP (NP (NNP AT&T)(, ,)(NNP ExciteAtHome))))))) |ET| 
-0.1831665613905854028686803758319  |BT| (NP (PRP$ his)(NN father)) |ET| 
1  |BT| (NP (NNP Russian)(NNP Foreign)(NNP Minister)) |ET| 
-1  |BT| (NP (NNP Serbian)(NNP President)) |ET| 
1  |BT| (NP (NP (NNP Iran)(POS 's))(JJ only)(JJ Jewish)(ROOT (S (NP (NP (NNP TEHRAN)(, ,)(NNP Iran))(PRN (-LRB- -LRB-)(NP (NNP AP))(-RRB- -RRB-)))(NP-TMP (CD __)(NN N))(NP (NP (NP (NNP Iran)(POS 's))(JJ only)(JJ Jewish)(NN legislator)))))) |ET| 
-0.07649713450438891393368123772234  |BT| (S (NP (NP (NNP Iran))(PRN (-LRB- -LRB-)(NP (NNP AP))(-RRB- -RRB-)))(NP-TMP (CD __)(NN N))(NP (NP (NP (NNP Iran)(POS 's))(JJ only)(JJ Jewish)(NN legislator)))) |ET| 
1  |BT| (NP (NNP Yugoslav)(NNP President)) |ET| 
-1  |BT| (NP (NNP Yugoslav)(NNP President)) |ET| 
1  |BT| (NP (PRP$ his)(NN league)) |ET| 
-0.22262882401709160884450966477743  |BT| (NP (PRP$ his)(NN colleague)) |ET| 
1  |BT| (NP (NNP Mexico)(NNP President)) |ET| 
-0.50934341355756740377103142236592  |BT| (S (SBAR (S (NP (PRP he))(VP (VBD spoke))))(, ,)(NP (NNP Russian)(NNP Foreign)(NNP Minister))) |ET| 
1  |BT| (NP (PRP$ his)(NN group)) |ET| 
-0.13027603906717569182127647309244  |BT| (NP (NP (NNP New))(NP (DT the)(NNP Nasdaq)(NNP Stock)(NNP Market))) |ET| 
1  |BT| (S (NP (PRP he))(VP (VBD deserted)(NP (DT the)(JJ Egyptian)(NN army)))) |ET| 
-0.67492333543145910379479346374865  |BT| (VP (NP (NNS judges))(SBAR (IN that)(S (NP (PRP he))(VP (VBD deserted)(NP (DT the)(JJ Egyptian)(NN army)))))) |ET| 
1  |BT| (NP (NP (NNP Security))(SBAR (S (NP (JJ fact-finding)(NN team))))) |ET| 
-0.064776759979503051312121897353791  |BT| (S (NP (PP (NP (NN league))))(VP (VBD __)(SBAR (S (NP (NP (DT a)(JJ centralized)(NN ownership))(VP (VBN mimicked)(PP (IN by)(NP (DT every)(JJ new)(NNS sports)(NN league))))))))) |ET| 
1  |BT| (NP (PRN (-LRB- -LRB-))(ROOT (S (`` ``)(S (NP (PRP We))(VP (VBP 're)(VP (VBN prepared)(, ,)(SBAR (IN if)(S (NP (NN need))(VP (VB be))))(, ,)(S (VP (TO to)(VP (VB take)(NP (PRP$ our)(NN case))(ADVP (RB back))(PP (TO to)(NP (DT the)(NP (PRN (-LRB- -LRB-)(NP (NNP U.S)(. .))(-RRB- -RRB-))(NNP Supreme)(NNP Court))))))))))))) |ET| 
-0.47933906512240298525284742936492  |BT| (S (`` ``)(S (NP (PRP We))(VP (VBP 're)(VP (VBN prepared)(, ,)(SBAR (IN if)(S (NP (NN need))(VP (VB be))))(, ,)(S (VP (TO to)(VP (VB take)(NP (PRP$ our)(NN case))(ADVP (RB back))(PP (TO to)(NP (DT the)(NP (PRN (-LRB- -LRB-)(NP (NNP U.S)(. .))(-RRB- -RRB-))(NNP Supreme)(NNP Court))))))))))) |ET| 
1  |BT| (NP (NP (NP (NNS members)))(PP (IN of)(NP (DT a)(JJ parliamentary)(NN committee)))) |ET| 
-0.87095796466972275062801145395497  |BT| (S (NP (NP (NP (NNS members)))(PP (IN of)(NP (DT a)(JJ parliamentary)(NN committee))))(VP (VBD urged)(NP (DT the)(NN government)))) |ET| 
1  |BT| (S (PP (NP (PP (NP (NN state)))))(NP (NNP Senate))) |ET| 
-0.21832678045640829811446792518836  |BT| (SINV (NP (NNP Bill))(VP (, ,)(PP (ADVP (RB also))(IN on)(NP (NNP FNC)))(, ,)(VBD said)(`` ``)(SBAR (S (NP (DT the)(NNP Bush)(NN campaign)))))) |ET| 
1  |BT| (SBAR (WHADVP (WRB where))(S (NP (PRP he))(VP (VBD was)(NP (DT a)(JJ former)(NN assistant))))) |ET| 
-0.43542859870229033703026289003901  |BT| (NP (PRP he)) |ET| 
1  |BT| (VP (PP (NP (NNS players)))(PP (IN in)(NP (NP (DT the)(NN class))))) |ET| 
-0.062231500228861591494933236390352  |BT| (NP (NP (NN company))(VP (VBN based)(PP (IN in)(NP (NP (DT the)(NN state)))))) |ET| 
1  |BT| (S (NP (PRP he))(VP (VBD guided)(NP (NNP Boise)(NNP State)))) |ET| 
-0.70445995993949495073138677980751  |BT| (SBAR (WHADVP (WRB where))(S (NP (NNP Michele)(NNP Roy)))) |ET| 
1  |BT| (S (NP (NP (NNP Jim))(, ,)(NP (NP (DT a)(JJ first-round)(NN choice))(PP (IN of)(NP (NP (DT the)(NNP San)(NNP Francisco)(NNPS 49ers))(PP (IN in)(NP (CD 1997))))))(, ,))(VP (VBD was)(VP (VBN selected)(PP (IN by)(NP (NP (DT the)(NN Maniax))))))) |ET| 
-0.16950947405161087555569565665792  |BT| (S (NP (NP (NN quarterback)(NNP Jim)(NNP Druckenmiller))(, ,)(NP (NP (DT a)(JJ first-round)(NN choice))(PP (IN of)(NP (NP (DT the)(NNP San)(NNP Francisco)(NNPS 49ers))(PP (IN in)(NP (CD 1997))))))(, ,))(VP (VBD was)(VP (VBN selected)(PP (IN by)(NP (NP (DT the)(NN Maniax))))))) |ET| 
1  |BT| (SBAR (WHADVP (WRB where))(S (NP (PRP he)))) |ET| 
-0.018983235437414869295480457367375  |BT| (SINV (VP (NP (NP (NNP Taliban)(POS 's))(NNP Interior)(NNP Minister)(NNP Abdul)))(, ,)(NP (NNP Razzak)(NNP Akhund))) |ET| 
1  |BT| (NP (NP (CD one))(VP (VBN aligned)(PP (IN with)(NP (DT each)(NN party))))) |ET| 
-0.51097786183617266431156167527661  |BT| (NP (NP (NNS independents))(, ,)(NP (NP (CD one))(VP (VBN aligned)(PP (IN with)(NP (DT each)(NN party)))))) |ET| 
1  |BT| (NP (NNP French)(NNP Foreign)(NNP Minister)(NNP Hubert)(NNP Vedrine)) |ET| 
-0.62065217519655635491915290913312  |BT| (NP (NNP Egyptian)(NNP Foreign)(NNP Minister)(NNP Amr)(NNP Mussa)) |ET| 
1  |BT| (NP (NP (NNP Steve))(, ,)(NP (NP (NN R)))) |ET| 
-0.41987803045264748824649814196164  |BT| (NP (JJ German)(NN market)(NN leader)) |ET| 
1  |BT| (S (NP (CD two))(VP (VBP have)(NP (NP (DT a)(JJ combined)(NN membership))))) |ET| 
-0.065089000832658353012938334813953  |BT| (S (NP (NNS officers))(VP (VBD carried)(PRT (RP out))(NP (JJ random)(NN identification)(NNS checks))(, ,)(S (VP (VBG looking)(PP (IN for)(NP (NN separatist)(NNS leaders))))))) |ET| 
1  |BT| (NP (NP (NN government))(: -)(NP (JJ controlled)(NN creditor)(NNS banks))) |ET| 
-0.21030211086504330131319306929072  |BT| (S (NP (NP (NN government))(: -)(NP (JJ controlled)(NN creditor)(NNS banks)))(VP (VBD named)(NP (NP (CD 52)(ADJP (RB financially)(JJ weak))(NNS companies))))) |ET| 
1  |BT| (NP (NP (NNS officials))(PP (IN of)(NP (DT the)(NN judiciary)))) |ET| 
-0.31709220876163701774430592195131  |BT| (NP (NP (NNS hotels))(PP (IN for)(NP (NNS Americans)))) |ET| 
1  |BT| (NP (NP (NNP Nixon))(, ,)(VP (VBN drawn)(PP (IN with)(NP (NN deep-set))))(, ,)(NP (JJ malevolent)(NNS eyes))(, ,)(NP (NP (CD five)(RB o'clock))(NP (NP (NN shadow))(CC and)(NP (PRN (, ,)(SBAR (WHADVP (WRB when))(S (NP (PRP he))(VP (VBD was)(NP (NP (NN vice)(NN president))(PP (IN in)(NP (NP (NNP Eisenhower)(POS 's))(NN administration)))))))))))) |ET| 
-0.10672720268242152918958254304016  |BT| (NP (ADJP (NNP Phoenix))(NN radio)(NN station)(ROOT (S (NP (ADJP (NNP Phoenix))(NN radio)(NN station)(NNP KMVP))))) |ET| 
1  |BT| (NP (NP (NN director))(PP (IN of)(NP (NP (DT the)(ADJP (ADJP (JJ nonpartisan))(, ,)(ADJP (NNP Washington))(: -)))(VP (VBN based)(NP (NP (NNP Center))(PP (IN for)(NP (NNP Immigration)(NNPS Studies)))))))) |ET| 
-0.001478533304763156308592186860551  |BT| (S (NP (NNP Herblock)(NNS targets))(, ,)(ADVP (RB however))(, ,)(VP (VBD were)(ADVP (IN as))(VP (VBN favored)(PP (IN as)(NP (NP (NNP Nixon))(, ,)(VP (VBN drawn)(PP (IN with)(NP (NN deep-set))))(, ,)(NP (JJ malevolent)(NNS eyes))(, ,)(NP (NP (CD five)(RB o'clock))(NP (NP (NN shadow))(CC and)(NP (PRN (, ,)(SBAR (WHADVP (WRB when))(S (NP (PRP he))(VP (VBD was)(NP (NP (NN vice)(NN president))(PP (IN in)(NP (NP (NNP Eisenhower)(POS 's))(NN administration)))))))))))))))) |ET| 
1  |BT| (SBAR (WHNP (WDT which))(S (VP (VBZ runs)(SBAR (S (NP (DT the)(CD two)(VBG leading)(JJ messaging)(NNS services))(VP (VBP __)(SBAR (S (NP (NN ICQ)(CC and)(NN AIM))(VP (VBP _)(PP (IN with)(NP (QP (CD 140)(CD million))(NNS users)))))))))))) |ET| 
-0.13865131695962476521266637519147  |BT| (VP (PP (NP (PP (NP (NNP EU)(NN summit)))))(PP (IN in)(NP (DT this)(JJ French)(NN resort)(NN city)))) |ET| 
1  |BT| (SINV (NP (NNP Bill))(VP (, ,)(PP (ADVP (RB also))(IN on)(NP (NNP FNC))))) |ET| 
-0.24097918217802960505480314168381  |BT| (SINV (NP (NN commentator)(NNP Bill)(NNP Kristol))(VP (, ,)(PP (ADVP (RB also))(IN on)(NP (NNP FNC))))) |ET| 
1  |BT| (VP (PP (NP (PP (NP (PP (NP (PRP$ its)(NN merger)))))))(PP (IN with)(NP (NNP Time)(NNP Warner)))) |ET| 
-0.023404744985797906742241991651099  |BT| (SINV (S (VP (NP (NN brand))))(, ,)('' '')(VP (VBD said))(NP (NP (NNP Rod)(NNP Eddington))(, ,)(NP (NP (NNP British)(NNPS Airways)(POS '))(ADJP (RB recently)(VBN appointed))(JJ chief)(NN executive)))) |ET| 
1  |BT| (NP (NP (NNP SEC)(POS 's))(ROOT (S (NP (NP (DT The)(NN panel)(NN discussion))(, ,)(SBAR (WHNP (WP$ whose)(NN focus))(S (VP (VBD was)(PP (IN on)(NP (DT the)(NN disclosure)(NN issue))))))(, ,))(VP (VBD was)(VP (VBN sponsored)(PP (IN by)(NP (NP (NNP Fund)(NNP Democracy))(, ,)(NP (NP (DT a)(NN fund)(NN shareholder)(NN advocacy)(NN group))(VP (VBN founded)(PP (IN by)(NP (NP (NNP Mercer)(NNP Bullard))(, ,)(NP (NP (DT a)(JJ former)(NN lawyer))(PP (IN for)(NP (NP (DT the)(NNP SEC)(POS 's))(NN enforcement)(NN division))))))))))))))) |ET| 
-1  |BT| (NP (NP (NNP Kostunica)(POS 's))(ROOT (S (S (NP (NP (NNP Kostunica)(POS 's))(NN team)))))) |ET| 
1  |BT| (NP (NP (NN professor))(PP (IN of)(NP (NP (NNS economics))(PP (IN at)(NP (NP (DT the)(NNP University))(PP (IN of)(NP (NP (NNP Texas))(PP (IN at)(NP (NNP Austin)))))))))) |ET| 
-0.5806068506828343522840896184789  |BT| (NP (NP (NNP Steve))(, ,)(NP (NP (DT a)(NN professor))(PP (IN of)(NP (NP (NNS economics))(PP (IN at)(NP (NP (DT the)(NNP University))(PP (IN of)(NP (NP (NNP Texas))(PP (IN at)(NP (NNP Austin))))))))))) |ET| 
1  |BT| (NP (NP (NNP Rodriguez)(POS 's))(ROOT (S (NP (NP (DT The)(NNPS Mariners))(, ,)(NP (NP (NP (NNP Rodriguez)(POS 's))(NN team))))))) |ET| 
-0.083054873230582193510684874127037  |BT| (NP (NP (NP (NNP Chancellor)(NNP Gerhard)(NNP Schroeder)(POS 's))(NN call))(PP (IN for)(NP (JJ ordinary)(NNS Germans)))) |ET| 
1  |BT| (S (NP (NP (NNS friends))(PP (IN in)(NP (NNP Congress))))(VP (VBD impeached)(NP (NP (NNP Justice)(NNP Samuel)(NNP Chase))(PP (IN in)(NP (CD 1804))))(, ,)(SBAR (NP (RB just)(NNS months))(IN after)(S (NP (NP (PRP he))(CC and)(NP (PRP$ his)(NNS colleagues)))(VP (VBD had)(VP (VBN declared)(SBAR (IN that)(S (NP (NP (DT an)(NN act))(PP (IN of)(NP (NNP Congress)))))))))))) |ET| 
-0.3494296279522193238165073125856  |BT| (S (PRN (-LRB- -LRB-))(NP (NP (NNP __)(NNP Gov.)))) |ET| 
1  |BT| (NP (NP (NNP Eisenhower)(POS 's))(ROOT (S (NP (JJ Few)(NNP Herblock)(NNS targets))(, ,)(ADVP (RB however))(, ,)(VP (VBD were)(ADVP (IN as))(VP (VBN favored)(PP (IN as)(NP (NP (NNP Nixon))(, ,)(VP (VBN drawn)(PP (IN with)(NP (NN deep-set))))(, ,)(NP (JJ malevolent)(NNS eyes))(, ,)(NP (NP (CD five)(RB o'clock))(NP (NP (NN shadow))(CC and)(NP (PRN (, ,)(SBAR (WHADVP (WRB when))(S (NP (PRP he))(VP (VBD was)(NP (NP (NN vice)(NN president))(PP (IN in)(NP (NP (NNP Eisenhower)(POS 's))(NN administration)))))))))))))))))) |ET| 
-0.23792807165668605762220977339894  |BT| (S (NP (NNS targets))(, ,)(ADVP (RB however))(, ,)(VP (VBD were)(ADVP (IN as))(VP (VBN favored)(PP (IN as)(NP (NP (NNP Nixon))(, ,)(VP (VBN drawn)(PP (IN with)(NP (NN deep-set))))(, ,)(NP (JJ malevolent)(NNS eyes))(, ,)(NP (NP (CD five)(RB o'clock))(NP (NP (NN shadow))(CC and)(NP (PRN (, ,)(SBAR (WHADVP (WRB when))(S (NP (PRP he))(VP (VBD was)(NP (NP (NN vice)(NN president))(PP (IN in)(NP (NP (NNP Eisenhower)(POS 's))(NN administration)))))))))))))))) |ET| 
1  |BT| (NP (NP (NNP Zhonghe))(PP (IN of)(NP (NP (DT the)(JJ Chinese)(NN Academy))(PP (IN of)(NP (NNPS Sciences)))))) |ET| 
-0.88823109061980920486689683457371  |BT| (NP (NP (NNS backers))(PP (IN of)(NP (NP (DT the)(JJ pro-democracy)(NN leader))))) |ET| 
1  |BT| (S (NP (NN campaign))(, ,)(PP (VBG according)(PP (TO to)(NP (NNS aides))))) |ET| 
-1  |BT| (S (NP (NNP Gore)(NN campaign))(, ,)(PP (VBG according)(PP (TO to)(NP (NNS aides))))) |ET| 
1  |BT| (NP (NP (NNS members))(PP (IN of)(NP (NP (NNP Congress))))) |ET| 
-1  |BT| (NP (NP (NN librarian))(PP (IN of)(NP (NNP Congress)))) |ET| 
1  |BT| (NP (NNP Gore)(NN campaign)) |ET| 
-0.046595755287488049845023851958103  |BT| (NP (NNP President)(NNP Gore)) |ET| 
1  |BT| (NP (NP (NN president))(PP (IN of)(NP (NNP Russia)))) |ET| 
-1  |BT| (NP (NP (NN president))(PP (IN of)(NP (NP (NP (NNP Tabasco)))))) |ET| 
1  |BT| (NP (NNP Yugoslav)(NNP President)(NNP Vojislav)(NNP Kostunica)) |ET| 
-0.24602605032162627729519499553135  |BT| (NP (NNP AT&T)(CC and)(NNP ExciteAtHome)) |ET| 
1  |BT| (NP (NP (NN executive))(PP (IN of)(NP (NP (NNP Morningstar)(NNP Inc))))) |ET| 
-1  |BT| (NP (NNP Bush)(NN campaign)(NNS officials)) |ET| 
1  |BT| (NP (NP (NNP Cory))(, ,)(SBAR (WHNP (WP who))(S (VP (VBD was)(PP (IN at)(NP (NP (DT a)(NN team)))))))) |ET| 
-1  |BT| (SBAR (WHNP (WP who))(S (VP (VBD was)(PP (IN at)(NP (NP (DT a)(NN team))))))) |ET| 
1  |BT| (NP (JJ Democratic)(NNP Vice)(NNP President)(NNP Al)(NNP Gore)) |ET| 
-0.23857181792401427333771835037624  |BT| (NP (NN director)(NNP Terry)(NNP Don)(NNP Phillips)) |ET| 
1  |BT| (NP (NP (NN attorney)(POS 's))(ROOT (SINV (S (SBAR (IN If)(S (VP (VBN convicted))))(, ,)(NP (PRP he))(VP (VBZ faces)(NP (NP (DT a)(NN maximum))(PP (IN of)(NP (NP (NP (CD one)(NN year))(PP (IN in)(NP (DT the)(NN county)(NN jail))))(CC and)(NP (DT a)(ADJP ($ $)(CD 1,000))(NN fine)))))))(, ,)(VP (VBD said))(NP (NP (DT a)(NN spokesman))(PP (IN for)(NP (NP (DT the)(NNP Arapahoe)(NNP County)(NN district)(NN attorney)(POS 's))(NN office))))))) |ET| 
-1  |BT| (NP (NP (NNP Arapahoe))(ROOT (SINV (S (SBAR (IN If)(S (VP (VBN convicted))))(, ,)(NP (PRP he))(VP (VBZ faces)(NP (NP (DT a)(NN maximum))(PP (IN of)(NP (NP (NP (CD one)(NN year))(PP (IN in)(NP (DT the)(NN county)(NN jail))))(CC and)(NP (DT a)(ADJP ($ $)(CD 1,000))(NN fine)))))))(, ,)(VP (VBD said))(NP (NP (DT a)(NN spokesman))(PP (IN for)(NP (NP (DT the)(NNP Arapahoe)(NNP County)(NN district)(NN attorney)(POS 's))(NN office))))))) |ET| 
1  |BT| (NP (JJ Republican)(NNP George)(NNP W.)(NNP Bush)) |ET| 
-0.072615057642836308704481496079097  |BT| (NP (NP (JJ Republican)(NNP George)(NNP W.)(NNP Bush))(CC and)(NP (NNP Democrat))) |ET| 
1  |BT| (NP (NP (NNP Arizona))(CC and)(NP (NNP Dallas)(NNPS Cowboys)(NN quarterback))) |ET| 
-0.03392128470489874647597616785788  |BT| (NP (NP (NNP Pacific))(PP (IN in)(NP (NNP San)(NNP Francisco)))) |ET| 
1  |BT| (S (NP (NNP Schumacher))(VP (VBZ has)(NP (NP (DT a)(NN contract))(PP (IN with)(NP (DT the)(JJ Italian)(NN team)))))) |ET| 
-0.7776376597719556471588475687895  |BT| (S (NP (PRP$ its)(NN voting)(NN weight))(VP (VBD increased)(S (VP (TO to)(VP (VB reflect)(NP (PRP$ its)(NN position))(PP (IN as)(NP (NP (DT the)(NNP EU)(POS 's))(JJS biggest)(NN nation)))))))) |ET| 
1  |BT| (SBAR (WHNP (WP who))(S (VP (VBP work)(PP (IN for)(NP (NP (DT those))(CC and)(NP (NP (JJ other)(ADJP (RB financially)(JJ shaky))(NNS companies)))))))) |ET| 
-0.38253147341967452810251870687352  |BT| (NP (NP (NNS workers))(SBAR (WHNP (WP who))(S (VP (VBP work)(PP (IN for)(NP (NP (DT those))(CC and)(NP (NP (JJ other)(ADJP (RB financially)(JJ shaky))(NNS companies))))))))) |ET| 
1  |BT| (S (NP (NNP Jody))(VP (VBD paced)(NP (NNP Ferrari)))) |ET| 
-0.56780176711128993449761992451386  |BT| (NP (NNP Ferrari)) |ET| 
1  |BT| (NP (NP (NN state)(NN health))(CC and)(NP (JJ environmental)(NNS experts))) |ET| 
-0.54724990381726934529638128879014  |BT| (S (NP (NP (NN state)(NN health))(CC and)(NP (JJ environmental)(NNS experts)))(VP (MD would)(VP (VB meet)(PP (IN with)(NP (NNP Army)(NNS officials)))))) |ET| 
1  |BT| (SBAR (WHNP (WP who))(S (VP (VBD failed)(S (VP (TO to)(VP (VB produce)(NP (NP (DT a)(VBG winning)(NN season))(PP (IN in)(NP (NP (CD four-plus)(NNS years))(PP (IN at)(NP (NNP Rutgers)))))))))))) |ET| 
-0.18445601296316149753096169661148  |BT| (NP (NP (NNP Terry))(, ,)(SBAR (WHNP (WP who))(S (VP (VBD failed)(S (VP (TO to)(VP (VB produce)(NP (NP (DT a)(VBG winning)(NN season))(PP (IN in)(NP (NP (CD four-plus)(NNS years))(PP (IN at)(NP (NNP Rutgers))))))))))))) |ET| 
1  |BT| (NP (NNP Army)(NNS officials)) |ET| 
-0.98805214833788013173432318581035  |BT| (NP (NNP Senate)(NNS candidates)) |ET| 
1  |BT| (SBAR (WHNP (WP who))(S (VP (VBD won)(NP (NNS titles))(PP (IN in)(NP (CD 1994)(CC and)(CD 1995)))(PP (IN with)(NP (NNP Benetton)))))) |ET| 
-0.021176604290816074260828116848643  |BT| (NP (NP (NN star))(SBAR (WHNP (WP who))(S (VP (VBD won)(NP (NNS titles))(PP (IN in)(NP (CD 1994)(CC and)(CD 1995)))(PP (IN with)(NP (NNP Benetton))))))) |ET| 
1  |BT| (NP (NP (NNP Nokia)(POS 's))(NNP Chief)(ROOT (S (`` ``)(S (NP (NP (DT The)(NNS opportunities))(PP (IN in)(NP (DT the)(NN future))))(VP (VBP are)(ADJP (JJ enormous)(SBAR (IN as)(S (NP (PRP we))(VP (VBP enter)(NP (DT an)(JJ unprecedented)(NN time))(SBAR (WHADVP (WRB when))(S (NP (NP (NN mobility))(, ,)(NP (NN Internet))(, ,))(VP (VBN digitized)(S (NP (NP (NNS media))(CC and)(NP (JJ other)(NN content)))(VP (MD can)(VP (VB be)(VP (VP (VBN combined))(CC and)(VP (VBN become)(S (ADJP (JJ available))))))))(PP (TO to)(NP (RB almost)(NN anyone)))(, ,)(ADVP (RB anytime)(CC and)(RB anywhere)))))))))))(, ,)('' '')(NP (NP (NNP Nokia)(POS 's))(NNP Chief)(NNP Executive))))) |ET| 
-0.18483976356632803028645639642491  |BT| (NP (NP (NNP Nokia)(POS 's))(NNP Chief)(NNP Executive)(ROOT (S (`` ``)(S (NP (NP (DT The)(NNS opportunities))(PP (IN in)(NP (DT the)(NN future))))(VP (VBP are)(ADJP (JJ enormous)(SBAR (IN as)(S (NP (PRP we))(VP (VBP enter)(NP (DT an)(JJ unprecedented)(NN time))(SBAR (WHADVP (WRB when))(S (NP (NP (NN mobility))(, ,)(NP (NN Internet))(, ,))(VP (VBN digitized)(S (NP (NP (NNS media))(CC and)(NP (JJ other)(NN content)))(VP (MD can)(VP (VB be)(VP (VP (VBN combined))(CC and)(VP (VBN become)(S (ADJP (JJ available))))))))(PP (TO to)(NP (RB almost)(NN anyone)))(, ,)(ADVP (RB anytime)(CC and)(RB anywhere)))))))))))(, ,)('' '')(NP (NP (NNP Nokia)(POS 's))(NNP Chief)(NNP Executive)(NNP Jorma)(NNP Ollila))))) |ET| 
1  |BT| (NP (NP (NNP Gary))(PP (IN of)(NP (NNP Toledo)))) |ET| 
-1  |BT| (NP (NP (NNS members))(PP (IN of)(NP (DT the)(NNP Milosevic)))) |ET| 
1  |BT| (SBAR (WP$ whose)(S (NP (NNS candidates)))) |ET| 
-0.5123147053743452028484739457781  |BT| (SBAR (WP$ whose)(S (NP (NNS breadwinners)))) |ET| 
1  |BT| (NP (NP (NNP Britain)(POS 's))(JJ top)(NN law)(NN enforcement)(ROOT (SINV (`` ``)(S (NP (PRP It))(VP (VBZ is)(NP (NP (DT a)(NN reform))(SBAR (WHNP (WDT which))(S (, ,)(PP (IN in)(NP (PRP$ my)(JJ personal)(NN view)))(, ,)(VP (VP (VBZ is)(ADJP (RB long)(JJ overdue)))(CC and)(VP (VBZ is)(ADVP (RB only))(ADJP (JJ right)(PP (IN for)(NP (NP (DT a)(NN country))(SBAR (WHNP (WDT that))(S (VP (VP (VBZ has)(NP (NP (DT a)(NN history))(PP (IN of)(NP (NN reform)))))(CC and)(VP (JJ challenging)(NP (NN prejudice))))))))))))))))(, ,)('' '')(VP (VBD said))(NP (NP (NNP Home)(NNP Secretary)(NNP Jack)(NNP Straw))(, ,)(NP (NP (NNP Britain)(POS 's))(JJ top)(NN law)(NN enforcement)(NN officer)))))) |ET| 
-0.33682490486725580325355622335337  |BT| (S (PP (NP (NN state)(NN law)))(NP (PRP he))) |ET| 
1  |BT| (VP (NP (NNS workers))(PP (IN at)(NP (NP (DT the)(NN paper))))) |ET| 
-1  |BT| (NP (NP (NN group))(VP (VBN founded)(PP (IN by)(NP (NP (NNP Mercer)(NNP Bullard))(, ,)(NP (NP (DT a)(JJ former)(NN lawyer))(PP (IN for)(NP (NP (DT the)(NNP SEC)(POS 's))(NN enforcement)(NN division)))))))) |ET| 
1  |BT| (NP (NN state)(NN representative)) |ET| 
-1  |BT| (NP (NN player)(NN representative)) |ET| 
1  |BT| (NP (NP (NNS Lawmakers))(PP (IN in)(NP (NP (DT the)(NNP House))(PP (IN of)(NP (NNPS Commons)))))) |ET| 
-0.3821914261458388417658227353968  |BT| (S (S (NP (NP (NNS Lawmakers))(PP (IN in)(NP (NP (DT the)(NNP House))(PP (IN of)(NP (NNPS Commons))))))(ADVP (RB overwhelmingly))(VP (VBD approved)(NP (DT the)(NN bill))(NP-TMP (RBR earlier)(DT this)(NN year))))(S (NP (NP (DT the)(NNP House))(PP (IN of)(NP (NNPS Lords)))))) |ET| 
1  |BT| (NP (NN XFL)(NN player)) |ET| 
-1  |BT| (NP (NN state)(NN prison)) |ET| 
1  |BT| (NP (NP (NN league))(VP (VBN organized)(PP (IN by)(NP (NP (NNP NBC))(CC and)(NP (DT the)(NNP World)(NNP Wrestling)(NNP Federation)))))) |ET| 
-0.50334952002484678601490486471448  |BT| (NP (NP (NNP NBC))(CC and)(NP (DT the)(NNP World)(NNP Wrestling)(NNP Federation))) |ET| 
1  |BT| (NP (NN prison)(NNS doctors)) |ET| 
-1  |BT| (NP (NP (NN union))(VP (VBG representing)(NP (NN editorial)(NNS workers))(PP (IN at)(NP (NP (DT the)(NN paper)))))) |ET| 
1  |BT| (NP (NP (NP (NN effort))(PP (IN between)(NP (DT the)(NNP Bush)(NN campaign))))(CC and)(NP (DT the)(NNP Republican)(NNP National)(NNP Committee))) |ET| 
-1  |BT| (S (NP (NP (NP (NP (NN effort))(PP (IN between)(NP (DT the)(NNP Bush)(NN campaign))))(CC and)(NP (DT the)(NNP Republican)(NNP National)(NNP Committee)))(, ,))(VP (VBD was)(VP (VBN named)(NP (NP (NN chairman))(PP (IN of)(NP (DT the)(JJ inaugural)(NN committee))))))) |ET| 
1  |BT| (VP (PP (NP (NP (NNP Rutgers))(NNS sports)))(SBAR (S (NP (NP (NN information)(NN director)))))) |ET| 
-0.1071906821081328731182225055818  |BT| (NP (NP (NNP New))(JJ 12th)(ROOT (S (NP (DT The)(NNP Associated)(NNP Press))(VP (VBZ has)(VP (VBN called)(NP (NNS winners))(PP (IN in)(NP (NP (QP (NP (DT all))(CC but)(NP (CD two)))(NNP House)(NNS races))(: :)(NP (NP (NP (NNP New)(NNP Jersey)(POS 's))(JJ 12th)(NN district)))))))))) |ET| 
1  |BT| (NP (NP (NN chairman))(PP (IN of)(NP (DT the)(NNP SEC)))) |ET| 
-0.011076768388498470230274506320711  |BT| (S (PP (NP (PP (NP (PRP$ his)(NN career)))))(NP (NP (QP (CD __)(CD 20)))(PP (IN with)(NP (NP (DT the)(NNPS Pirates))(PP (ADVP (NP (RB nearly)(DT a)(NN decade))(RB ago))(IN in)(NP (CD three)))))(VP (VBG losing)(NP (NP (NNP National)(NNP League)(NNP Championship)(NNP Series))(CC and)(NP (CD three)))(PP (IN with)(NP (DT the)(NNPS Giants)))(PP (IN in)(NP (DT a)(CD 1997)(NN division)(NN series)(NN sweep)))(PP (IN by)(NP (DT the)(NNP Florida)(NNPS Marlins)))))) |ET| 
1  |BT| (VP (NP (NP (NP (SBAR (WHNP (WP who)))))(NNS coaches))(NP-TMP (NP (DT the)(NNP Arizona)(NNPS Rattlers)))) |ET| 
-0.1011205931046276207396772406355  |BT| (WHNP (WP who)) |ET| 
1  |BT| (NP (NP (NN union))(VP (VBG representing)(NP (NN editorial)(NNS workers)))) |ET| 
-1  |BT| (NP (NN school)(NNS officials)) |ET| 
1  |BT| (NP (NP (NN quarterback))(SBAR (WHADVP (WRB when))(S (NP (NP (DT the)(NNP University))(PP (IN of)(NP (NNP Oklahoma))))))) |ET| 
-0.59072634689225389514888320263708  |BT| (ROOT (S (VP (VP (SBAR (S (VP (VP (S (VP (VP (SBAR (S (NP (NP (NNS officials))(CC or)(NP (DT the)(JJ local)(NNS officials)))(VP (VBP check)(NP (DT the)(NN air)(NN quality))))))))))))))(. .)('' ''))) |ET| 
1  |BT| (NP (NN school)(NNS officials)) |ET| 
-0.9763432403128859959906549192965  |BT| (NP (NN army)(NNS generals)) |ET| 
1  |BT| (S (NP (NP (NNS Enforcers))(, ,)(PP (IN with)(NP (NP (DT the)(JJ last)(NN pick))(PP (IN of)(NP (DT the)(JJ first)(NN round)))))(, ,))(VP (VBD nabbed)(S (VP (VBG running)(PRT (RB back))(NP (NP (NNP John)(NNP Avery))))))) |ET| 
-0.13699511412680165367561357925297  |BT| (S (NP (NP (NNS Enforcers))(, ,)(PP (IN with)(NP (NP (DT the)(JJ last)(NN pick))(PP (IN of)(NP (DT the)(JJ first)(NN round)))))(, ,))(VP (VBD nabbed)(S (VP (VBG running)(PRT (RB back)))))) |ET| 
1  |BT| (NP (NN state)(NNP Senate)) |ET| 
-0.35358850649830364520909142811433  |BT| (NP (NN neighbor)(NNP Mexico)) |ET| 
1  |BT| (NP (NAC (NNP Bank))(NN policy)(ROOT (S (PP (IN In)(NP (NP (DT a)(JJ wide-ranging)(NN report))(PP (IN on)(NP (NP (DT the)(NN outlook))(PP (IN for)(NP (DT the)(JJ troubled)(NN economy)))))))(, ,)(NP (DT the)(NAC (NNP Bank)(PP (IN of)(NP (NNP Japan))))(NN policy)(NN board))))) |ET| 
-1  |BT| (NP (NP (NN head))(PP (IN of)(NP (NP (NN state))))) |ET| 
1  |BT| (NP (NP (NNP Yugoslavia)(POS 's))(ADJP (RB newly)(VBN elected))(ROOT (NP (NP (NP (NNP BELGRADE)(, ,)(NNP Yugoslavia))(PRN (-LRB- -LRB-)(NP (NNP AP))(-RRB- -RRB-)))(NP (NP (CD __))(SBAR (S (NP (NP (NNP Slobodan)(NNP Milosevic)(POS 's))(NNS plans)(S (VP (TO to)(VP (VB remain)(ADJP (JJ active))(PP (IN in)(NP (NNS politics)))))))(VP (MD could)(VP (VB spell)(NP (NN trouble))(PP (IN for)(NP (NP (NP (NNP Yugoslavia)(POS 's))(ADJP (RB newly)(VBN elected))(NN president)))))))))))) |ET| 
-0.019654850360366703243553132551824  |BT| (SINV (S (VP (VP (VP (PP (NP (NP (NP (NNP Taliban)(POS 's))(JJ supreme)(NN leader))(NP (NNP Mullah)(NNP Mohammed)(NNP Omar))))))))(, ,)(VP (VBD said)(NP (NP (DT the)(NNP Taliban)(POS 's))(NNP Interior)(NNP Minister)))) |ET| 
1  |BT| (NP (NP (NN association))(PP (IN of)(NP (JJ retired)(NN army)(NNS generals)))) |ET| 
-0.82595839972527751449149491236312  |BT| (NP (NP (NNP Germany)(POS 's))(ROOT (S (NP (NP (JJ Many))(PP (IN of)(NP (NP (NNP Germany)(POS 's))(NNS neighbors))))))) |ET| 
1  |BT| (NP (NP (NNS policemen))(PP (IN in)(NP (NP (PRP$ his)(NN republic))))) |ET| 
-0.058113109680497210263183660572395  |BT| (NP (NP (NNS policemen))(PP (IN in)(NP (NP (PRP$ his)(NN republic))))) |ET| 
1  |BT| (NP (NP (NNP Serbia)(POS 's))(ROOT (S (CC But)(NP (NNP Milosevic))(VP (VBZ appears)(S (VP (TO to)(VP (VB retain)(NP (JJ enough)(JJ residual)(NN power))(S (VP (TO to)(VP (VB block)(NP (NP (NP (NNP Kostunica)(POS 's))(NNS reforms))(CC and)(NP (NN __)(NN N)))(PP (IN through)(NP (NP (NNS proxies))(SBAR (WHNP (WP who))(S (ADVP (RB still))(VP (VBP control)(SBAR (S (NP (NP (NNP Serbia)(POS 's))(NN police))))))))))))))))))) |ET| 
-0.13674678746658763817123372064088  |BT| (NP (JJ Democratic)(NN lawyer)(NNP David)(NNP Fisher)) |ET| 
1  |BT| (NP (NP (NN head))(PP (IN of)(NP (NP (DT an)(JJ influential)(NN group))))) |ET| 
-0.97492974556433498189988995363819  |BT| (NP (NP (NN head))(PP (IN of)(NP (NP (DT an)(JJ influential)(NN group))(PP (IN of)(NP (NNS economists)))))) |ET| 
1  |BT| (SBAR (WHNP (WP who))(S (ADVP (RB still))(VP (VBP control)(SBAR (S (NP (NP (NNP Serbia)(POS 's))(NN police))))))) |ET| 
-0.55581862405326831755303373938659  |BT| (NP (NP (NNS proxies))(SBAR (WHNP (WP who))(S (ADVP (RB still))(VP (VBP control)(SBAR (S (NP (NP (NNP Serbia)(POS 's))(NN police)))))))) |ET| 
1  |BT| (NP (NP (NN chairman))(PP (IN of)(NP (PRP$ his)(JJ inaugural)(NN committee)))) |ET| 
-1  |BT| (NP (NP (PP (NP (NN campaign))))(CC and)(NP (NP (NN chairman))(PP (IN of)(NP (PRP$ his)(JJ inaugural)(NN committee))))) |ET| 
1  |BT| (S (NP (NNP Rutgers))(VP (VBD was)(NP (CD 4-29))(PP (IN in)(S (NP (NNP Big)(NNP East)))))) |ET| 
-1  |BT| (NP (NNP SEC)(NNP East)) |ET| 
1  |BT| (NP (NP (NNP San))(JJ left)(ROOT (S (CC And)(PP (IN with)(NP (NP (NN career)(NNS totals))(PP (IN of)(NP (NP (CD 494)(NNS homers))(CC and)(NP (CD 471)(VBN stolen)(NNS bases))))))(, ,)(NP (NP (NNS Bonds))(, ,)(NP (NP (DT the)(NNP San)(NNP Francisco)(NNP Giants)(POS '))(JJ left)(NN fielder)))))) |ET| 
-1  |BT| (NP (NP (NN XFL)(NN player))(VP (VBN selected)(NP (CD __))(PP (IN by)(NP (DT the)(NNP Xtreme))))) |ET| 
1  |BT| (VP (PP (NP (NP (NNPS Securities))(CC and)(NP (NNP Exchange)(NNP Commission))))(NP-TMP (JJ official))) |ET| 
-0.46512115997910452591668217792176  |BT| (NP (NNP President)(NNP Carter)) |ET| 
1  |BT| (NP (NP (NN player))(VP (VBN selected)(NP (CD __))(PP (IN by)(NP (DT the)(NNP Xtreme))))) |ET| 
-0.72861667849508915395517760771327  |BT| (NP (NP (NN league))(VP (VBG telling)(NP (PRP us)))) |ET| 
1  |BT| (NP (NP (NNS members))(PP (IN of)(NP (NNP Congress)))) |ET| 
-0.098403880774783278329032043529878  |BT| (S (NP (NNS officials))(VP (VBD told)(NP (NP (NNS members))(PP (IN of)(NP (NP (NNP Congress))))))) |ET| 
1  |BT| (NP (NP (JJ Democratic))(CC and)(NP (NNP National)(NNP Action)(NNP Party)(NNS representatives))) |ET| 
-1  |BT| (S (NP (NP (JJ Democratic))(CC and)(NP (NNP National)(NNP Action)(NNP Party)(NNS representatives)))(VP (TO to)(VP (VB resign)(NP (PRP$ their)(NNS spots))(PP (IN on)(NP (DT the)(JJ electoral)(NN council)))))) |ET| 
1  |BT| (NP (NP (NN legislature))(PP (IN of)(NP (NP (NNP Serbia))))) |ET| 
-0.86820175424081824644417793024331  |BT| (NP (NP (NN regime))(PP (IN of)(NP (NNP Yugoslav)))) |ET| 
1  |BT| (NP (NNS people)(S (VP (TO to)(VP (VB fill)(NP (JJ low-skilled)(NNS jobs))(PP (IN in)(NP (NNS farms))))))) |ET| 
-0.64915243226415175747945340845035  |BT| (SBAR (WHNP (WDT which))(S (VP (VBZ has)(VP (VBN been)(VP (VBN dominated)(PP (IN by)(NP (NP (DT the)(NN nation))))))))) |ET| 
1  |BT| (NP (NP (NN regime))(PP (IN of)(NP (NNP Yugoslav)(NNP President)(NNP Slobodan)(NNP Milosevic)))) |ET| 
-0.56306648618045462839631909446325  |BT| (NP (NNP Yugoslav)(NNP President)(NNP Slobodan)(NNP Milosevic)) |ET| 
1  |BT| (SBAR (WHNP (WDT which))(S (VP (VBZ has)(VP (VBN been)(VP (VBN dominated)(PP (IN by)(NP (NP (DT the)(NN nation)(POS 's))(NN president)))))))) |ET| 
-0.57269274459597485638084890524624  |BT| (NP (PP (NP (NNP PRI)))(, ,)(SBAR (WHNP (WDT which))(S (VP (VBZ has)(VP (VBN been)(VP (VBN dominated)(PP (IN by)(NP (NP (DT the)(NN nation)(POS 's))(NN president))))))))) |ET| 
1  |BT| (NP (PRP$ his)(NNS teams)) |ET| 
-1  |BT| (NP (PRP$ his)(NNS players)) |ET| 
1  |BT| (NP (NP (NN sheriff)(POS 's))(ROOT (S (`` ``)(S (S (IN So)(NP (PRP they))(VP (VP (VBD walked)(PP (IN in)(NP (RB here))))(CC and)(VP (VBD found)(NP (DT a)(NN custodian)))))(, ,)(CC and)(S (NP (PRP she))(VP (VBD called)(NP (NP (DT some)(JJ other)(NNS people))(SBAR (WHNP (WP who))(S (VP (VBD called)(NP (NP (DT the)(NN sheriff)(POS 's))(NN department)))))))))))) |ET| 
-0.11312667399862540162924773312625  |BT| (S (S (NP (NNP U.S.)(NN unemployment))(VP (VBZ is)(PP (IN at)(NP (NP (PRP$ its)(JJS lowest))(PP (IN in)(NP (CD three)(NNS decades)))))))(CC and)(S (NP (EX there))(VP (VBP are)(NP (JJR fewer)(NNS people)(S (VP (TO to)(VP (VB fill)(NP (JJ low-skilled)(NNS jobs))(PP (IN in)(NP (NNS farms)))))))))) |ET| 
1  |BT| (NP (PRP$ its)(NNS players)) |ET| 
-0.14976055388311515503829696172033  |BT| (NP (PRP$ its)(NNS people)) |ET| 
1  |BT| (NP (PP (NP (PP (NP (NNP Mika)))))(PP (IN of)(NP (NNP McLaren)))) |ET| 
-0.064469301573575416020034367647895  |BT| (NP (PP (NP (PP (NP (NN champion)(NNP Mika)(NNP Hakkinen)))))(PP (IN of)(NP (NNP McLaren)))) |ET| 
1  |BT| (NP (NP (NNP EU)(POS 's))(JJS biggest)(ROOT (S (NP (NP (NNP Germany))(, ,)(NP (NP (PRP$ its)(NN population)(JJ swollen))(PP (TO to)(NP (QP (CD 82)(CD million)))(PP (IN by)(NP (NN reunification)))))(, ,))(VP (VBZ wants)(SBAR (S (NP (PRP$ its)(NN voting)(NN weight))(VP (VBD increased)(S (VP (TO to)(VP (VB reflect)(NP (PRP$ its)(NN position))(PP (IN as)(NP (NP (DT the)(NNP EU)(POS 's))(JJS biggest)(NN nation))))))))))))) |ET| 
-0.15106281948700639450322569246055  |BT| (NP (NP (NNP Joni))(, ,)(NP (NP (DT a)(NN policy)(NN analyst))(PP (IN at)(NP (NP (DT the)(NNP National)(NNP Center))(PP (IN for)(NP (NNP Public)(NNP Policy))))))(CC and)(NP (NP (JJR Higher)(NN Education))(PP (IN in)(NP (NNP San)(NNP Jose))))) |ET| 
1  |BT| (NP (NN state)(NNP Supreme)(NNP Court)) |ET| 
-1  |BT| (NP (JJ Democratic)(NN state)) |ET| 
1  |BT| (VP (NP (PRP$ their)(NNS spots))(PP (IN on)(NP (DT the)(JJ electoral)(NN council)))) |ET| 
-0.84563419621048063756774126886739  |BT| (SBAR (WHNP (WP who))(S (VP (VBD called)(NP (NP (DT the)(NN sheriff)(POS 's))(NN department))))) |ET| 
1  |BT| (NP (JJ Democratic)(NN lawyer)) |ET| 
-0.65823209830429818545383113814751  |BT| (NP (NP (NN lawyer)(NNP David))(ROOT (S (NP (NP (NNP NFL)(NN lawyer)(NNP David))(JJ Proper))))) |ET| 
1  |BT| (SBAR (WHNP (WP who))(S (VP (VBZ works)(PP (IN at)(NP (NNP Go)))))) |ET| 
-0.33672259356824674192409929673886  |BT| (NP (NN family)(NN man)) |ET| 
1  |BT| (NP (NNP NFL)(NNS first-rounders)) |ET| 
-0.42751254006841166166452694596956  |BT| (NP (NNP Bamyan)(NN province)) |ET| 
1  |BT| (NP (NN board)(NN spokesman)) |ET| 
-1  |BT| (SINV (VP (NP (NNP NFL)(NNS first-rounders)))(NP (NP (NNP Mike)(NNP Croel)))) |ET| 
1  |BT| (S (NP (NNS players))(VP (VBD had)(VP (VP (VBN come)(PP (IN from)))(CC and)(VP (VBN gone)(PP (TO to)(NP (JJ professional)(NNS leagues))))))) |ET| 
-1  |BT| (S (NP (NNP MLS)(NNS players))(VP (VBD had)(VP (VP (VBN come)(PP (IN from)))(CC and)(VP (VBN gone)(PP (TO to)(NP (JJ professional)(NNS leagues))))))) |ET| 
1  |BT| (NP (NP (CD 54))(VP (VBG attending)(NP (NP (NP (JJ four-year)(JJ public)(NNS institutions)))))) |ET| 
-0.07246041039431563857142748474871  |BT| (NP (NP (CD 54))(VP (VBG attending)(NP (NP (NP (JJ four-year)(JJ public)(NNS institutions))(, ,)(NP (NP (CD 27)(NN percent))(PP (IN at)(NP (JJ four-year)(JJ private)(NNS schools)))))))) |ET| 
1  |BT| (S (NP (NNP Snyder))(VP (MD will)(VP (NP (NN coach)(NNP Arizona)(NNP State))))) |ET| 
-0.82791910721659189853482985199662  |BT| (NNP Arizona) |ET| 
1  |BT| (NP (NP (NP (NP (CD 27))(PP (IN at)(NP (JJ four-year)(JJ private)(NNS schools)))))(NP (NP (CD 1)(NN percent))(PP (IN at)(NP (JJ private)(JJ two-year)(NNS schools))))) |ET| 
-1  |BT| (NP (NP (NP (NP (CD 27))(PP (IN at)(NP (JJ four-year)(JJ private)(NNS schools)))))(NP (NP (CD 1)(NN percent))(PP (IN at)(NP (JJ private)(JJ two-year)(NNS schools))))) |ET| 
1  |BT| (NNP Arizona) |ET| 
-1  |BT| (NNP Arizona) |ET| 
1  |BT| (NP (NP (NNP Iran)(POS 's))(JJ 290-seat)(ROOT (SINV (`` ``)(S (NP (PRP I))(VP (VBP call)(PP (IN on)(NP (NP (DT the)(JJ Muslim)(JJ religious)(NNS leaders))(CC and)(NP (NP (DT the)(NNS officials))(PP (IN of)(NP (DT the)(NN judiciary)(S (VP (TO to)(VP (VB pay)(NP (JJR more)(NN attention))(PP (TO to)(NP (NP (DT the)(NNS rights))(PP (IN of)(NP (JJ non-Muslim)(NNS families)))))(ADVP (IN as)(RB far)(SBAR (IN as)(S (NP (NP (NNS issues))(PP (JJ such)(IN as)(NP (NP (NN blood)(NN money))(CC and)(NP (NP (DT the)(NNS verdicts))(PP (IN of)(NP (DT the)(NNS courts)))))))(VP (VBP are)(ADJP (VBN concerned))))))))))))))))(, ,)('' '')(VP (VBD said))(NP (NP (NNP Maurice)(NNP Motamed))(, ,)(NP (NP (DT the)(JJ sole)(JJ Jewish)(NN representative))(PP (IN in)(NP (NP (NNP Iran)(POS 's))(JJ 290-seat)(NN parliament)))))))) |ET| 
-0.060729410013477341800935960236529  |BT| (NP (NP (NN house)(NN southwest))(PP (IN of)(NP (NNP Santiago)))) |ET| 
1  |BT| (NP (PRP$ his)(NN company)) |ET| 
-0.32619221523653552097243846219499  |BT| (NP (PRP$ his)(NN country)) |ET| 
1  |BT| (NP (NP (NN lawyer))(PP (IN for)(NP (NP (DT the)(NNP SEC)(POS 's))(NN enforcement)(NN division)))) |ET| 
-0.35446795730231550614064417459304  |BT| (NP (NP (NN spokesman))(PP (IN for)(NP (DT the)(NNP GOP)))) |ET| 
1  |BT| (NP (PRP$ his)(NN administration)) |ET| 
-1  |BT| (NP (PRP$ his)(NN lawyer)) |ET| 
1  |BT| (NP (NP (NN nation)(POS 's))(ROOT (S (NP (DT The)(JJ presidential)(NN loss))(VP (VBN set)(PRT (RP off))(NP (NP (DT a)(NN battle))(PP (IN for)(NP (NP (NN control))(PP (IN of)(NP (DT the)(NNP PRI)))(, ,)(SBAR (WHNP (WDT which))(S (VP (VBZ has)(VP (VBN been)(VP (VBN dominated)(PP (IN by)(NP (NP (DT the)(NN nation)(POS 's))(NN president))))))))))))))) |ET| 
-0.65089497921699512872351078840438  |BT| (NP (NP (NN everyone))(SBAR (WHNP (WP who))(S (VP (VBZ works)(PP (IN at)(NP (NNP Go))))))) |ET| 
1  |BT| (NP (NNP GOP)(NNP Rep)) |ET| 
-1  |BT| (DT The) |ET| 
1  |BT| (NP (NP (NN president))(PP (IN at)(NP (NNP AOL)))) |ET| 
-1  |BT| (NP (NP (NN association))(PP (IN of)(NP (JJ retired)(NN army)))) |ET| 
1  |BT| (NP (NP (NNP Bush)(CC and)(NNP Gore))(ROOT (S (NP (DT The)(NP (NNP Bush)(CC and)(NNP Gore))(NNS campaigns))))) |ET| 
-0.067352795012463384516365749732358  |BT| (NP (NNP Bush)(CC and)(NNP Gore)) |ET| 
1  |BT| (NP (JJ Israeli)(NN army)) |ET| 
-0.97029830067102940116541276438511  |BT| (NP (JJ Israeli)(NN border)) |ET| 
1  |BT| (NP (NP (PRP$ his)(NN base))(PP (IN on)(NP (NP (DT The)(NNP Washington)(NNP Post))))) |ET| 
-0.039506771931224177185626444952504  |BT| (VP (PP (NP (NP (NNPS Securities))(CC and)(NP (NNP Exchange)(NNP Commission))))(NP-TMP (JJ official)(NNP Thursday))(PP (IN at)(NP (NP (DT a)(NN panel))(VP (VBN sponsored)(PP (IN by)(NP (DT a)(NN fund)(NN shareholder)(NN advocacy)(NN group))))))) |ET| 
1  |BT| (NP (JJ Israeli)(NN border)(NN policeman)) |ET| 
-1  |BT| (NP (NP (NNP Duncan)(POS 's))(ROOT (S (NP (NP (NNP Duncan)(POS 's))(NNS lawyers))))) |ET| 
1  |BT| (NP (NP (NN group))(VP (VBN founded)(PP (IN by)(NP (NP (NNP Mercer)(NNP Bullard)))))) |ET| 
-0.97174246414823450823661232789163  |BT| (NP (NP (NN shareholder)(NN advocacy)(NN group))(VP (VBN founded)(PP (IN by)(NP (NP (NNP Mercer)(NNP Bullard)))))) |ET| 
1  |BT| (NP (NP (NNP Northwest)(POS 's))(ROOT (S (PP (IN In)(NP (NP (DT the)(NN appeal))(VP (VBD acted)(PP (IN on)(NP (NNP Monday))))))(, ,)(NP (NP (NNP Northwest)(POS 's))(NNS lawyers))))) |ET| 
-0.050113941337616374482877290574834  |BT| (NP (NP (NN airline))(PP (IN in)(NP (NP (NNS terms))(PP (IN of)(NP (NN passenger)))))) |ET| 
1  |BT| (NP (JJ French)(NNP President)) |ET| 
-1  |BT| (NP (JJ Republican)(NNP Rep)) |ET| 
1  |BT| (NP (JJ Palestinian)(NN representative)) |ET| 
-0.73020233503461984270188622758724  |BT| (NP (JJ Jewish)(NN representative)) |ET| 
1  |BT| (VP (NP (NP (PP (NP (NN group)))))(PP (IN for)(NP (NN state)(NN utility)(NN labor)(NNS unions)))) |ET| 
-0.73501222005446509299986246332992  |BT| (VP (NP (NP (NP (NN head))(PP (IN of)(NP (DT an)(NN umbrella)(NN group)))))(PP (IN for)(NP (NN state)(NN utility)(NN labor)(NNS unions)))) |ET| 
1  |BT| (NP (JJ Republican)(NN nominee)) |ET| 
-0.77780396909613958023044233414112  |BT| (NP (JJ Republican)(NN nominee)) |ET| 
1  |BT| (NP (NP (NN head))(PP (IN of)(NP (DT an)(NN umbrella)(NN group)))) |ET| 
-0.095749488066240021066910514946358  |BT| (NP (NP (NN city))(PP (IN of)(NP (NNP Korhogo)))) |ET| 
1  |BT| (NP (NNP Milosevic)(NN regime)) |ET| 
-1  |BT| (NP (NNP Senate)(NN district)) |ET| 
1  |BT| (NP (NP (NNS leaders))(PP (IN of)(NP (NNP Europe)))) |ET| 
-0.87809422361264788392531954741571  |BT| (NP (NP (NNS people))(PP (IN of)(NP (NNP Serbia)))) |ET| 
1  |BT| (NP (NNP Democrat)(NNP Al)(NNP Gore)) |ET| 
-1  |BT| (NP (NNP Democrat)(NNP Al)(NNP Gore)) |ET| 
1  |BT| (NP (NP (NN secretary))(PP (IN of)(NP (NN state)))) |ET| 
-0.59778958572855378506005763483699  |BT| (NP (NP (NN group))(PP (IN of)(NP (NN area)))) |ET| 
1  |BT| (NP (NP (NNP British))(ADJP (RB recently)(VBN appointed))(JJ chief)(ROOT (SINV (`` ``)(S (S (NP (NP (NNS Thanks))(PP (TO to)(NP (NP (NN everyone))(SBAR (WHNP (WP who))(S (VP (VBZ works)(PP (IN at)(NP (NNP Go))))))))))(, ,)(NP (PRP it))(VP (VBZ is)(ADVP (RB now))(NP (DT a)(JJ leading)(JJ European)(NN brand))))(, ,)('' '')(VP (VBD said))(NP (NP (NNP Rod)(NNP Eddington))(, ,)(NP (NP (NNP British)(NNPS Airways)(POS '))(ADJP (RB recently)(VBN appointed))(JJ chief)(NN executive)))))) |ET| 
-0.021656077627572802024591425151812  |BT| (NP (JJ French)(NN resort)(NN city)) |ET| 
1  |BT| (NP (NP (NN group))(PP (IN of)(NP (NP (JJ undecided)(NNS voters))(VP (VBN recruited)(PP (IN by)(NP (NP (NNP NBC)))))))) |ET| 
-0.25775653325238773172500827968179  |BT| (NP (NP (NN group))(PP (IN of)(NP (NP (JJ undecided)(NNS voters))(VP (VBN recruited)(PP (IN by)(NP (NP (NNP NBC))(PP (IN in)(NP (NP (NNP Tampa)))))))))) |ET| 
1  |BT| (NP (JJ Republican)(NNP Todd)(NNP Staples)) |ET| 
-1  |BT| (NP (JJ Democratic)(NNP Vice)(NNP President)) |ET| 
1  |BT| (NP (NP (NNS Representatives))(PP (IN of)(NP (NP (NNP Rally))(PP (IN of)(NP (DT the)(NNPS Republicans)))))) |ET| 
-0.0078104360504833714173855696571991  |BT| (NP (NNS backers)) |ET| 
1  |BT| (NP (JJ Democratic)(NNP Rep)) |ET| 
-0.4638312981898631282007272602641  |BT| (NP (NN border)(NN policeman)) |ET| 
1  |BT| (SINV (VP (PP (NP (NP (NN director))(PP (IN of)(NP (NNP Road)(CC &)(NNP Track))))))(NP (NP (NN magazine)))) |ET| 
-1  |BT| (SINV (VP (PP (NP (NP (NN director))(PP (IN of)(NP (NNP Road)(CC &)(NNP Track))))))(NP (NP (NN magazine))(PP (IN in)(NP (NNP Newport)(NNP Beach))))) |ET| 
1  |BT| (NP (NNP Scottish)(NNS judges)) |ET| 
-1  |BT| (NP (NNP Arab)(NNS leaders)) |ET| 
1  |BT| (NP (NP (NP (NNP SEC)(POS 's))(NN division))(PP (IN of)(NP (NN investment)(NN management)))) |ET| 
-0.95447825424964827245588594450965  |BT| (NP (NP (NNP Michigan)(POS 's))(JJ 8th)(ROOT (S (PP (IN In)(NP (NP (NNP Michigan)(POS 's))(JJ 8th)(NNP District)))))) |ET| 
1  |BT| (NNP Arab) |ET| 
-0.68162791623113461181304728597752  |BT| (NP (NNP Arab)(NN world)) |ET| 
1  |BT| (NP (NP (NNP Germany)(POS 's))(JJS highest)(ROOT (S (PP (IN On)(NP (NNP Friday)))(, ,)(NP (NP (JJ interior)(NNS ministers))(VP (VBG meeting)(PP (IN in)(NP (NNP Berlin)))))(VP (VBD delayed)(NP (DT a)(NN decision))(PP (IN on)(S (VP (VBG seeking)(NP (DT a)(NN ban))(PP (IN before)(NP (NP (NNP Germany)(POS 's))(JJS highest)(NN court)))))))))) |ET| 
-0.52864326562820795896158188043046  |BT| (NP (NP (NN vice))(PP (IN in)(NP (NP (NNP Eisenhower)(POS 's))(NN administration)))) |ET| 
1  |BT| (NP (NNP Bush)(NN camp)) |ET| 
-1  |BT| (NP (NNP Bush)(NN spokesman)) |ET| 
1  |BT| (NP (NP (NNP EU)(POS 's))(JJ policy-setting)(ROOT (S (SBAR (IN Although)(S (NP (DT every)(NN nation))(VP (VBZ is)(VP (VBG fighting)(S (VP (TO to)(VP (VB maximize)(NP (PRP$ its)(NN voice))(PP (IN in)(NP (DT the)(VBN reformed)(NN union))))))))))(, ,)(NP (JJ other)(NNS leaders))(VP (VBP believe)(SBAR (S (NP (NN summit)(NN success))(VP (VBZ hinges)(PP (IN on)(S (VP (VBG resolving)(NP (NP (DT the)(NN wrangle))(PP (IN between)(NP (NNP Paris)(CC and)(NNP Berlin))))(PP (IN over)(SBAR (WHNP (WP who))(S (VP (VBZ controls)(NP (DT the)(RBS most)))))))))(NP (NP (NNS votes))(PP (IN in)(NP (NP (DT the)(NNP EU)(POS 's))(JJ policy-setting)(NNS councils))))))))))) |ET| 
-0.18038305688123715264659097101685  |BT| (S (SBAR (S (NP (NN nation))(VP (VBZ is)(VP (VBG fighting)(S (VP (TO to)(VP (VB maximize)(NP (PRP$ its)(NN voice))(PP (IN in)(NP (DT the)(VBN reformed)(NN union))))))))))(, ,)(NP (JJ other)(NNS leaders))(VP (VBP believe)(SBAR (S (NP (NN summit)(NN success))(VP (VBZ hinges)(PP (IN on)(S (VP (VBG resolving)(NP (NP (DT the)(NN wrangle))(PP (IN between)(NP (NNP Paris)(CC and)(NNP Berlin))))(PP (IN over)(SBAR (WHNP (WP who))(S (VP (VBZ controls)(NP (DT the)(RBS most)))))))))(NP (NP (NNS votes))(PP (IN in)(NP (NP (DT the)(NNP EU)(POS 's))(JJ policy-setting)(NNS councils))))))))) |ET| 
1  |BT| (NP (NNP Bush)(NN campaign)) |ET| 
-0.79800953240953087508557928231312  |BT| (NP (NP (PRP$ his)(NN indictment))(PP (IN of)(NP (DT the)(JJ 85-year-old)(NN general)))) |ET| 
1  |BT| (NP (NNP EU)(NNS leaders)) |ET| 
-1  |BT| (NP (NNP EU)(NNS governments)) |ET| 
1  |BT| (NP (NP (PRP$ its)(NN acquisition))(PP (IN of)(NP (NNP Honeywell)))) |ET| 
-1  |BT| (NP (NP (NP (NN team)(POS 's))(NN bid))(PP (IN for)(NP (NNP Rodriguez)))) |ET| 
1  |BT| (S (NP (PRP they))(VP (VBP are)(VP (VBN allied)(PP (IN with)(NP (DT the)(JJ ultranationalist)(NNP Radical)(NNP Party)))))) |ET| 
-0.96731994604233983992003231833223  |BT| (SBAR (WHADVP (WRB where))(S (NP (PRP they))(VP (VBP are)(VP (VBN allied)(PP (IN with)(NP (DT the)(JJ ultranationalist)(NNP Radical)(NNP Party))))))) |ET| 
1  |BT| (NP (NP (NN spokesman))(PP (IN for)(NP (NP (DT the)(NNP Arapahoe)(NNP County)(NN district)(NN attorney)(POS 's))(NN office)))) |ET| 
-1  |BT| (NP (NP (NN president))(PP (IN of)(NP (NP (NN government))))) |ET| 
1  |BT| (SBAR (WHNP (WP who))(S (VP (VBP work)(PP (IN for)(NP (NP (DT those))))))) |ET| 
-0.58917672464734116566376087575918  |BT| (NP (NP (NNS workers))(SBAR (WHNP (WP who))(S (VP (VBP work)(PP (IN for)(NP (NP (DT those)))))))) |ET| 
1  |BT| (NP (NP (NN house))(PP (IN of)(NP (NN parliament)))) |ET| 
-0.68475053130271690271513307379792  |BT| (NP (NP (NN son))(PP (IN of)(NP (NN ex-dictator)))) |ET| 
1  |BT| (NP (NP (NN government))(: -)(VP (VBN run)(SBAR (S (NP (NNS media)))))) |ET| 
-0.39882283372789673059344295324991  |BT| (NP (NP (NP (NNP Syria)(POS 's))(NN government))(: -)(VP (VBN run)(SBAR (S (NP (NNS media)))))) |ET| 
1  |BT| (NP (NP (NN expert))(PP (IN at)(NP (NP (DT the)(JJ American)(NN Museum))(PP (IN of)(NP (NP (JJ Natural)(NN History))))))) |ET| 
-0.83751883890051592729264484660234  |BT| (NP (NP (NN expert))(PP (IN at)(NP (NP (DT the)(JJ American)(NN Museum))(PP (IN of)(NP (NP (JJ Natural)(NN History))(PP (IN in)(NP (NNP New)(NNP York)))))))) |ET| 
1  |BT| (NP (NP (NNP Indonesia)(POS 's))(JJ reformist-minded)(ROOT (S (NP (NP (NNP Indonesia)(POS 's))(JJ reformist-minded)(NNP President))))) |ET| 
-0.68253488467985068410825988394208  |BT| (NP (NP (NNP Indonesia)(POS 's))(JJ reformist-minded)(NNP President)(ROOT (S (NP (NP (NNP Indonesia)(POS 's))(JJ reformist-minded)(NNP President)(NNP Abdurrahman)(NNP Wahid))))) |ET| 
1  |BT| (NP (NP (NN chairwoman))(PP (IN of)(NP (NP (NNS operations))(PP (IN for)(NP (NNP Victory)(CD 2000)))))) |ET| 
-0.99084215848963375083968685430591  |BT| (NP (NP (NN chairman))(PP (IN of)(NP (NNP Victory)(CD 2000)))(, ,)(NP (NP (DT the)(JJ joint)(NN effort))(PP (IN between)(NP (DT the)(NNP Bush)(NN campaign))))) |ET| 
1  |BT| (NP (NP (NNP Britain)(POS 's))(NN Labor)(ROOT (S (NP (NP (NNP LONDON))(PRN (-LRB- -LRB-)(NP (NNP AP))(-RRB- -RRB-))(SBAR (WHNP (NP (CD __))(PP (IN After)(NP (CD three))))(S (VP (VBZ defeats)(PP (IN in)(NP (NP (DT the)(NNP House))(PP (IN of)(NP (NP (NNPS Lords))(, ,)(NP (NP (NNP Britain)(POS 's))(NN Labor)(NN government))))))))))))) |ET| 
-0.95628679366241964299177880093339  |BT| (NP (NP (NNP Britain)(POS 's))(ROOT (S (NP (NP (NNP LONDON))(PRN (-LRB- -LRB-)(NP (NNP AP))(-RRB- -RRB-))(SBAR (WHNP (NP (CD __))(PP (IN After)(NP (CD three))))(S (VP (VBZ defeats)(PP (IN in)(NP (NP (DT the)(NNP House))(PP (IN of)(NP (NP (NNPS Lords))(, ,)(NP (NP (NNP Britain)(POS 's))(NN Labor))))))))))))) |ET| 
1  |BT| (S (NP (NN BA))(VP (VBD set)(PRT (RP up))(S (VP (VB Go))))) |ET| 
-0.21852887652171681942547820653999  |BT| (S (NP (NN BA))(VP (VBD set)(PRT (RP up))(S (VP (VB Go)(SBAR (WHADVP (WRB when))(S (NP (JJR smaller)(NNS rivals)))))))) |ET| 
1  |BT| (NP (NP (NNP Player))(PP (IN in)(NP (DT the)(NNP National)(NNP League)))) |ET| 
-0.96912037124349803551837112536305  |BT| (NP (NP (NN spokesman))(PP (IN for)(NP (NP (DT the)(NNP Arapahoe)(NNP County))))) |ET| 
1  |BT| (NP (NP (NNP Ouattara)(POS 's))(ROOT (S (NP (NP (NP (NNP Ouattara)(POS 's))(NN party)))))) |ET| 
-1  |BT| (NP (NP (NNP Bush)(POS 's))(ROOT (S (NP (NP (NP (NNP Bush)(POS 's))(NN wife)))))) |ET| 
1  |BT| (NP (NP (NN chairman))(PP (IN of)(NP (DT the)(JJ inaugural)(NN committee)))) |ET| 
-0.3521528695390589991376373291132  |BT| (NP (NP (NNP Jeanne))(PP (IN of)(NP (NNP Texas)))) |ET| 
1  |BT| (NP (NNP Bush)(NNP Cabinet)) |ET| 
-0.67070075978999632582144840853289  |BT| (NP (NNP Governor)(NNP Bush)) |ET| 
1  |BT| (NP (NP (NNS lawyers))(PP (IN for)(NP (NNP Copley)))) |ET| 
-0.30740010774037074270381708629429  |BT| (NP (NP (NNS Bonds))(, ,)(NP (NP (DT the)(NNP San)(NNP Francisco)(NNP Giants)(POS '))(JJ left)(NN fielder))) |ET| 
1  |BT| (NP (NNP Texas)(NNP Senate)) |ET| 
-1  |BT| (NP (NNP Texas)(NNP Senate)) |ET| 
1  |BT| (NP (NP (NN head))(PP (IN of)(NP (NP (NP (NNP Bush)(POS 's))(JJ legal)(NN team))))) |ET| 
-1  |BT| (NP (NP (NN member))(PP (IN of)(NP (NP (NNP Pinochet)(POS 's))(JJ legal)(NN team)))) |ET| 
1  |BT| (NP (NN government)(NN spokesman)) |ET| 
-0.55224420578843913531841280928347  |BT| (NP (NN Labor)(NN government)) |ET| 
1  |BT| (NP (NP (NNP NHL)(POS 's))(JJ winningest)(ROOT (S (NP (NP (-LRB- -LRB-)(NN AP)(-RRB- -RRB-))(ADJP (NP (CD _))(NP (NP (NP (DT The)(NN wife))(PP (IN of)(NP (NNP Patrick)(NNP Roy))))(, ,)(NP (NP (NP (DT the)(NNP NHL)(POS 's))(JJ winningest)(NN goalie))))))))) |ET| 
-0.31765390520557457154637859275681  |BT| (NP (NP (-LRB- -LRB-))(ADJP (NP (CD _))(NP (NP (NP (DT The)(NN wife))(PP (IN of)(NP (NNP Patrick)(NNP Roy))))(, ,)(NP (NP (NP (DT the)(NNP NHL)(POS 's))(JJ winningest)(NN goalie)))))) |ET| 
1  |BT| (NP (PRP$ his)(NN football)(NN team)) |ET| 
-1  |BT| (NP (NNP Kostunica)(NN camp)) |ET| 
1  |BT| (NP (NP (NNPS Mets)(POS '))(ROOT (S (S (S (NP (PRP He))(VP (VBZ 's)(ADJP (JJ due)(S (VP (TO to)(VP (VB break)(PRT (RP out))(PP (IN with)(NP (NP (DT a)(NN barrage))(PP (IN against)(NP (DT the)(NNPS Mets)))))))))))(: ;)(RB then)(S (ADVP (RB again))(, ,)(NP (NP (DT the)(NNPS Mets)(POS '))(NNS pitchers))))))) |ET| 
-0.30590865365500730099768134095939  |BT| (S (S (NP (PRP He))(VP (VBZ 's)(ADJP (JJ due)(S (VP (TO to)(VP (VB break)(PRT (RP out))(PP (IN with)(NP (NP (DT a)(NN barrage))(PP (IN against)(NP (DT the)(NNPS Mets)))))))))))(: ;)(RB then)(S (ADVP (RB again))(, ,)(NP (NP (DT the)(NNPS Mets)(POS '))(NNS pitchers)))) |ET| 
1  |BT| (NP (NNP Texas)(NN governor)) |ET| 
-0.95180108600300705745667073642835  |BT| (NP (NP (PRP$ his)(NN record))(PP (IN as)(NP (NNP Texas)(NN governor)))) |ET| 
1  |BT| (NP (NP (NN country)(POS 's))(VBN elected)(ROOT (S (NP (DT The)(NNP Parliament)(NNP Act))(VP (VBD was)(VP (VBN created)(S (VP (TO to)(VP (VB ensure)(SBAR (IN that)(S (NP (NP (DT the)(NN will))(PP (IN of)(NP (NP (DT the)(NN country)(POS 's))(VBN elected)(NNS lawmakers)))))))))))))) |ET| 
-0.76347977219362994638629515975481  |BT| (S (NP (PRP He))(VP (VBD claimed)(PP (IN for)(NP (DT the)(NNP Supreme)(NNP Court))))) |ET| 
1  |BT| (NP (NP (NNP Gallup)(POS 's))(NN executive)(ROOT (SINV (S (NP (NP (DT The)(NNP Gallup)(NN polling)(NN organization))(, ,)(VP (VBN assigned)(PP (IN by)(NP (NP (DT the)(NNP Commission))(PP (IN on)(NP (NNP Presidential)(NNS Debates)))))(S (VP (TO to)(VP (VB recruit)(NP (NNS questioners))))))(, ,))(VP (VP (VBD started)(PP (IN with)(NP (NP (DT a)(JJ random)(NN sample))(PP (IN of)(NP (NP (DT all)(VBN registered)(NNS voters))(PP (IN in)(NP (NP (NNP St.)(NNP Louis))(CC and)(NP (PRP$ its)(NNS suburbs)))))))))(, ,)(CC and)(ADVP (RB then))(VP (VBN screened)(PRT (RP out))(NP (NP (DT all))(PP (CC but)(NP (`` ``)(JJ uncommitted)(NNS voters)))))))(, ,)('' '')(VP (VBD said))(NP (NP (NNP Frank)(NNP Newport))(, ,)(NP (NP (NNP Gallup)(POS 's))(NN executive)(NN editor)))))) |ET| 
-0.084905945148337935712845592206577  |BT| (NP (NP (NN BA))(PP (IN of)(S (VP (ADVP (RB unfairly))(VBG subsidizing)(S (VP (VB Go))))))) |ET| 
1  |BT| (S (NP (PRP He))(VP (VBD obtained)(NP (DT a)(JJ fake)(JJ Moroccan)(NN passport))(PP (IN before)(S (VP (VBG joining)(NP (NP (DT the)(NNP Palestine)(NNP Popular)(NNP Struggle)(NN Front)))))))) |ET| 
-0.47232017755951605231246048788307  |BT| (VP (NP (JJ Moroccan)(NN passport))(PP (IN before)(S (VP (VBG joining)(NP (NP (DT the)(NNP Palestine)(NNP Popular)(NNP Struggle)(NN Front))))))) |ET| 
1  |BT| (NP (NP (NN effort))(PP (IN between)(NP (DT the)(NNP Bush)(NN campaign)))) |ET| 
-1  |BT| (NP (NP (NNS members))(PP (IN of)(NP (DT a)(NNP Bush)(NNP Cabinet)))) |ET| 
1  |BT| (NP (JJ congressional)(NN commission)) |ET| 
-0.51318484916671514017849631272838  |BT| (NP (NP (NNP Gore)(POS 's))(NN press)(ROOT (S (CC And)(NP (NP (NP (NNP Gore)(POS 's))(NN press)(NN secretary)))))) |ET| 
1  |BT| (NP (VP (SBAR (S (VP (SBAR (S (VP (VP (VP (PP (NP (NN leader))))))))))))(PP (IN of)(NP (DT a)(NN minority)(NN government)))) |ET| 
-0.049840602242949727518350755417487  |BT| (ROOT (S (VP (SBAR (S (VP (VP (SBAR (S (VP (VP (NP (PP (NP (PP (NP (NN sector))))))(PP (TO to)(NP (NN filter)))(PP (IN through)(PP (TO to)(NP (DT the)(NN household)(NN sector)))))))))))))(. .))) |ET| 
1  |BT| (NP (NP (NNS guards))(PP (IN from)(NP (DT the)(NNP Border)(NNP Patrol)))) |ET| 
-0.38671841196790635031277361122193  |BT| (NP (NP (NN wire))(, ,)(VP (VBN watched)(PP (IN over)(IN by)(NP (NP (JJ uniformed)(NNS guards))(PP (IN from)(NP (DT the)(NNP Border)(NNP Patrol))))))) |ET| 
1  |BT| (NP (NP (NNP Norway)(POS 's))(NNP Foreign)(NNP Minister)(ROOT (S (NP (NP (NP (NP (NNP Norway)(POS 's))(NNP Foreign)(NNP Minister)(NNP Thorbjoern)(NNP Jagland))))))) |ET| 
-1  |BT| (NP (NP (NNP Norway)(POS 's))(NNP Foreign)(ROOT (S (NP (NP (NP (NP (NNP Norway)(POS 's))(NNP Foreign)(NNP Minister))))))) |ET| 
1  |BT| (SBAR (WHNP (WP who))(S (DT both)(VP (VBD went)(PP (TO to)(NP (DT the)(NNP San)(NNP Francisco)(NNPS Demons)))))) |ET| 
-1  |BT| (S (DT both)(VP (VBD went)(PP (TO to)(NP (DT the)(NNP San)(NNP Francisco)(NNPS Demons))))) |ET| 
1  |BT| (NP (NP (NNP NBC)(POS 's))(ROOT (S (NP (NP (NP (NNP NBC)(POS 's))(NNP Tim)(NNP Russert)))))) |ET| 
-1  |BT| (NP (JJ Italian)(NN team)) |ET| 
1  |BT| (NP (NP (NP (NN owner))(PP (IN of)(NP (DT the)(NNP Chicago)(NNPS Sun-Times))))(CC and)(NP (NP (DT the)(NNP Daily)(NNP Southtown)))) |ET| 
-0.45286129657811258208965909943799  |BT| (NP (NP (NP (NN owner))(PP (IN of)(NP (DT the)(NNP Chicago)(NNPS Sun-Times))))(CC and)(NP (NP (DT the)(NNP Daily)(NNP Southtown))(PP (IN in)(NP (NNP Tinley)(NNP Park))))) |ET| 
1  |BT| (NP (PRP$ their)(NN team)) |ET| 
-0.75972544164495692253780134706176  |BT| (NP (PRP$ their)(NN home)) |ET| 
1  |BT| (NP (NNP Tabasco)(NNP Gov.)) |ET| 
-1  |BT| (NP (NNP Illinois)(NNP Copley)) |ET| 
1  |BT| (NP (NNS people)(S (VP (TO to)(VP (VB fill)(NP (JJ low-skilled)(NNS jobs))(PP (IN in)(NP (NNS farms)(, ,)(NNS restaurants)(CC and)(NNS factories))))))) |ET| 
-0.52444556557675059416112617327599  |BT| (NP (NP (NN governor)(POS 's))(ROOT (S (PP (IN As)(NP (NP (NN news))(PP (IN of)(NP (NP (NNP Friday)(POS 's))(NN ruling)(NN spread)))))(, ,)(NP (JJ pro-Gore)(NNS demonstrators))(VP (VBD began)(S (VP (TO to)(VP (VB congregate)(PP (IN outside)(NP (NP (DT the)(NN governor)(POS 's))(NN mansion)))))))))) |ET| 
1  |BT| (NNP Copley) |ET| 
-0.71436000594826642995371912547853  |BT| (NP (NNP Minister)(NNP Hubert)(NNP Vedrine)) |ET| 
1  |BT| (NP (NP (NN professor))(PP (IN of)(NP (NP (JJ political)(NN science))(PP (IN at)(NP (NP (NNP Rice)(NNP University))))))) |ET| 
-1  |BT| (NP (NP (NN professor))(PP (IN of)(NP (NP (JJ political)(NN science))(PP (IN at)(NP (NP (NNP Rice)(NNP University))(PP (IN in)(NP (NNP Houston)))))))) |ET| 
1  |BT| (NP (NNP Spanish)(NNP Foreign)(NNP Minister)) |ET| 
-0.16068722114707845172176803316688  |BT| (NP (NNP Tabasco)(NNP Gov.)(NNP Roberto)(NNP Madrazo)) |ET| 
1  |BT| (NP (NP (CD 10))(PP (IN of)(NP (NP (VBG spying))(PP (IN for)(NP (NNP Israel)))))) |ET| 
-0.17129262027343106211674239602871  |BT| (S (NP (NNP Supreme))(VP (VBD were)(VP (VBN named)(PP (TO to)(NP (NP (DT the)(ADJP (RB congressionally)(VBN appointed))(JJ electoral)(NN commission))))))) |ET| 
1  |BT| (NP (NNP U.N.)(NN member)) |ET| 
-1  |BT| (NP (NNP Oldsmobile)(NN division)) |ET| 
1  |BT| (NP (NP (NNP Carnegie))(VP (VBN established)(PP (IN in)(NP (CD 1904)))(PP (IN by)(NP (NNP Andrew)(NNP Carnegie))))) |ET| 
-0.39938870487653743701628172857454  |BT| (NP (JJ non-Muslim)(NNS families)) |ET| 
1  |BT| (NP (PRP$ their)(NN division)) |ET| 
-0.95916084980240201574019920371938  |BT| (NP (PRP$ their)(NN candidate)) |ET| 
1  |BT| (S (NP (NNP State))(VP (VBZ has)(VP (VBN agreed)(PP (TO to)(NP (DT a)(NN contract)))(PP (TO to)(NP (NN coach)(NNP Arizona)(NNP State)))))) |ET| 
-0.059729025585707334888851960386091  |BT| (S (NP (NP (NNS ministers))(VP (VBG meeting)(PP (IN in)(NP (NNP Berlin)))))(VP (VBD delayed)(NP (DT a)(NN decision))(PP (IN on)(S (VP (VBG seeking)(NP (DT a)(NN ban))(PP (IN before)(NP (NP (NNP Germany)(POS 's))(JJS highest)(NN court)))))))) |ET| 
1  |BT| (NP (NP (JJ Democratic)(NN vice))(NP (JJ presidential)(NN candidate))) |ET| 
-0.40688952054875948682877151441062  |BT| (NP (NP (JJ Democratic)(NN vice))(NP (JJ presidential))) |ET| 
1  |BT| (NP (NP (NNP Republican))(ROOT (S (NP (NP (NP (NNP George)(NNP W.)(NNP Bush)(POS 's))(JJ environmental)(NN record))(PP (IN with)(NP (NP (PRP$ his)(NN visit))(PP (PP (TO to)(NP (NP (DT this)(NN battleground)(NN state))(NP (DT the)(NN day))))(PP (IN after)(NP (NP (NNP Gore)(CC and)(NNP Republican))(NNP Bush)))))))))) |ET| 
-1  |BT| (NP (NP (NNP Gore)(CC and)(NNP Republican))(ROOT (S (NP (NP (NP (NNP George)(NNP W.)(NNP Bush)(POS 's))(JJ environmental)(NN record))(PP (IN with)(NP (NP (PRP$ his)(NN visit))(PP (PP (TO to)(NP (NP (DT this)(NN battleground)(NN state))(NP (DT the)(NN day))))(PP (IN after)(NP (NP (NNP Gore)(CC and)(NNP Republican))(NNP Bush)))))))))) |ET| 
1  |BT| (NP (NNP NFL)(NN lawyer)) |ET| 
-1  |BT| (NNP Boise) |ET| 
1  |BT| (NP (NP (NN state)(POS 's))(JJ main)(NN food)(NN supply)(ROOT (S (NP (PRP It))(VP (VBD found)(S (NP (PRP him))(ADJP (JJ guilty)(PP (IN of)(S (VP (VBG enriching)(NP (PRP himself))(PP (IN through)(NP (NP (DT a)(NN property)(NN deal))(PP (IN with)(NP (NP (DT the)(NN state)(POS 's))(JJ main)(NN food)(NN supply)(NN agency)))))))))))))) |ET| 
-0.69262614082616491550936643761816  |BT| (S (NP (PRP him))(ADJP (JJ guilty)(PP (IN of)(S (VP (VBG enriching)(NP (PRP himself))(PP (IN through)(NP (NP (DT a)(NN property)(NN deal))(PP (IN with)(NP (NP (DT the)(NN state)(POS 's))(JJ main)(NN food)(NN supply)(NN agency)))))))))) |ET| 
1  |BT| (NNP Boise) |ET| 
-0.44540566030071859771055642340798  |BT| (NP (NNP Spanish)(NNP Foreign)(NNP Minister)(NNP Josep)(NNP Pique)) |ET| 
1  |BT| (NP (NP (NN venture))(PP (IN of)(NP (DT the)(NNP World)(NNP Wrestling)(NNP Federation)))) |ET| 
-1  |BT| (NP (NP (NN place))(PP (IN of)(NP (DT the)(JJ biblical)(NN patriarch)))) |ET| 
1  |BT| (NP (NNP Senate)(NNP Foreign)(NNP Relations)(NNP Committee)) |ET| 
-0.29566718954416887354952336863789  |BT| (NP (NP (PP (NP (NNP GOP))))(: -)(S (VP (JJ controlled)(NP (NNP Senate)(NNP Foreign)(NNP Relations)(NNP Committee))))) |ET| 
1  |BT| (NP (NP (NNP Taliban)(POS 's))(NNP Interior)(ROOT (SINV (`` ``)(S (NP (DT The)(NNS prisoners))(VP (VBP are)(VP (VBG being)(VP (VBN released)(PP (IN as)(NP (NP (DT a)(NN gesture))(PP (IN of)(NP (NN kindness)))))('' '')(PP (IN by)(NP (NP (NP (DT the)(NNP Taliban)(POS 's))(JJ supreme)(NN leader))(NP (NNP Mullah)(NNP Mohammed)(NNP Omar))))))))(, ,)(VP (VBD said)(NP (NP (DT the)(NNP Taliban)(POS 's))(NNP Interior)(NNP Minister)))))) |ET| 
-0.5967984650114617206639877622365  |BT| (SINV (S (NP (NNS prisoners))(VP (VBP are)(VP (VBG being)(VP (VBN released)(PP (IN as)(NP (NP (DT a)(NN gesture))(PP (IN of)(NP (NN kindness)))))('' '')(PP (IN by)(NP (NP (NP (DT the)(NNP Taliban)(POS 's))(JJ supreme)(NN leader))(NP (NNP Mullah)(NNP Mohammed)(NNP Omar))))))))(, ,)(VP (VBD said)(NP (NP (DT the)(NNP Taliban)(POS 's))(NNP Interior)(NNP Minister)))) |ET| 
1  |BT| (NNP Arapahoe) |ET| 
-1  |BT| (NP (NNP Texas)(NN ranch)) |ET| 
1  |BT| (VP (PP (NP (PP (NP (NNS workers)))))(PP (IN at)(NP (NP (NNP Korea)(NNP Electric)(NNP Power)(NNP Corp.))))) |ET| 
-0.047335044673300893935952160518355  |BT| (NP (NP (CD 54))(VP (VBG attending)(NP (NP (NP (JJ four-year)(JJ public)(NNS institutions))(, ,)(NP (NP (CD 27)(NN percent))(PP (IN at)(NP (JJ four-year)(JJ private)(NNS schools)))))(, ,)(NP (NP (CD 17)(NN percent))(PP (IN at)(NP (JJ two-year)(NN community)(NNS colleges))))(CC and)(NP (NP (CD 1)(NN percent))(PP (IN at)(NP (JJ private)(JJ two-year)(NNS schools))))))) |ET| 
1  |BT| (NP (NNP Texas)(NN governor)) |ET| 
-0.063290656285123425561778276460245  |BT| (NP (NP (NP (NNP Mexico)(POS 's))(JJ embattled)(VBG ruling)(NN party))(, ,)(NP (NP (NNP Manuel)(NNP Andrade)))) |ET| 
1  |BT| (NP (NP (NNP Fucheng))(CC and)(NP (NP (NNP Zhonghe)(NNP Zhou))(PP (IN of)(NP (NP (DT the)(JJ Chinese)(NN Academy))(PP (IN of)(NP (NNPS Sciences))))))) |ET| 
-0.69342601890649258056242842940264  |BT| (NP (NP (NNS clusters))(PP (IN of)(NP (CD 368)))) |ET| 
1  |BT| (NNP New) |ET| 
-0.24950851388165939948038385409745  |BT| (VP (NP (NNP New))(PP (IN at)(NP (DT a)(JJ closed)(NN hearing)))(PP (IN at)(NP (NP (DT the)(JJ Attica)(NN state))))) |ET| 
1  |BT| (NP (NP (NNS members))(PP (IN of)(NP (NN congress)))) |ET| 
-0.41904289841159636509360097988974  |BT| (NP (JJ Iranian)(NNS Jews)) |ET| 
-0.76696105819004756209977813341538  |BT| (NP (NP (NN middle))(PP (IN of)(NP (NN town)))) |ET| 
1  |BT| (VP (PP (NP (NNS supporters)))(PP (IN in)(NP (NNP Congress)))) |ET| 
-0.10824322251114426585161254479317  |BT| (VP (NP (NN court))(PP (IN by)(NP (DT a)(ADJP (NNS two-thirds))(JJ congressional)))) |ET| 
1  |BT| (NP (NP (NN court))(PP (IN of)(NP (NNS appeals)(NN panel)))) |ET| 
-1  |BT| (NP (NP (PP (NP (NNP Bush)(NN campaign))))(CC and)(NP (DT the)(NNP Republican)(NNP National)(NNP Committee))) |ET| 
1  |BT| (NP (NNP MLS)(NNS players)) |ET| 
-1  |BT| (NP (NP (CD 20))(PP (IN of)(NP (NNP MLS)(NNS players)))) |ET| 
1  |BT| (S (S (VP (PP (NP (NP (NN state))))))(: -)(S (VP (VP (VB run)(NP (NP (NN power)(NN company))))))) |ET| 
-0.22927770792443558089956923140562  |BT| (NP (NNP CBS)(NN anchor)(NNP Dan)(NNP Rather)) |ET| 
1  |BT| (NP (NP (CD 1))(PP (IN at)(NP (JJ private)(JJ two-year)(NNS schools)))) |ET| 
-1  |BT| (NP (NP (NP (CD 17))(PP (IN at)(NP (JJ two-year)(NN community)(NNS colleges))))(NP (NP (CD 1)(NN percent))(PP (IN at)(NP (JJ private)(JJ two-year)(NNS schools))))) |ET| 
1  |BT| (NP-TMP (NP (NNP Arizona))(PP (IN of)(NP (DT the)(NNP Arena)(NNP Football)(NNP League)))) |ET| 
-1  |BT| (VP (NP (NP (NP (SBAR (WHNP (WP who)))))(NNS coaches))(NP-TMP (NP (DT the)(NNP Arizona)(NNPS Rattlers))(PP (IN of)(NP (DT the)(NNP Arena)(NNP Football)(NNP League))))) |ET| 
1  |BT| (NP (NP (CD 17))(PP (IN at)(NP (JJ two-year)(NN community)(NNS colleges)))) |ET| 
-0.014824576801065858511208261916181  |BT| (SINV (S (VP (VP (VP (PP (NP (NP (NN leader))(NP (NNP Mullah)(NNP Mohammed)(NNP Omar))))))))(, ,)(VP (VBD said)(NP (NP (DT the)(NNP Taliban)(POS 's))(NNP Interior)(NNP Minister)))) |ET| 
1  |BT| (NP (NP (NP (NN State)))(CC and)(NP (NNP Army)(NNS officials))) |ET| 
-1  |BT| (NP (NNP U.N.)(NNS arms)) |ET| 
1  |BT| (NP (NP (NNP Frank))(PP (IN of)(NP (DT the)(NNP Chicago)(NNP White)(NNPS Sox)))) |ET| 
-0.48210537759376714816994535794947  |BT| (NP (NP (NN region))(PP (IN of)(NP (NP (JJ northern)(NNP Italy))))) |ET| 
1  |BT| (NP (NNP U.N.)(NNS arms)(NNS inspectors)) |ET| 
-1  |BT| (NNP Chicago) |ET| 
1  |BT| (NP (NP (NN president))(PP (IN of)(NP (NNP Serbia)))) |ET| 
-0.60721447251579308002078505523968  |BT| (NP (NP (NN army))(PP (IN of)(NP (NNS lawyers)))) |ET| 
1  |BT| (NNP Chicago) |ET| 
-0.061961598247347149381880626606289  |BT| (NP (NNS farms)(, ,)(NNS restaurants)(CC and)(NNS factories)) |ET| 
1  |BT| (NP (NP (NN justice))(PP (IN of)(NP (DT the)(NNP Supreme)(NNP Court)))) |ET| 
-0.63712802463709694578142261889298  |BT| (NP (NP (NN majority))(PP (IN of)(NP (DT the)(CD 189)(NNP U.N.)(NN member)))) |ET| 
1  |BT| (NP (NP (JJ Democratic))(JJ national)(ROOT (S (CC But)(NP (NP (NP (NNP Gore)(POS 's))(NNS surrogates))(, ,)(PP (VBG including)(NP (NP (PRP$ his)(VBG running)(NN mate))(, ,)(NP (NNP Sen.)(NNP Joseph)(NNP Lieberman))(, ,)(CC and)(NP (NP (NP (DT the)(JJ Democratic)(NNP National)(NNP Committee)(POS 's))(JJ national)(NN chairman))))))))) |ET| 
-0.060057723322981093616590442252345  |BT| (NP (NP (NN base))(PP (IN for)(NP (NP (JJ low-fare)(NNS carriers))))) |ET| 
1  |BT| (NP (NP (NP (NN director))(PP (IN of)(NP (DT the)(JJ gay)(NNS rights)(NN group))))(NP (NNP Stonewall))) |ET| 
-1  |BT| (NP (NP (NN director))(PP (IN of)(NP (DT the)(JJ gay)(NNS rights)(NN group)))) |ET| 
1  |BT| (NP (NNP Republican)(NNP Mike)(NNP Rogers)) |ET| 
-0.68260725874243188826540063018911  |BT| (NP (NP (JJ Serbian)(NN parliament))(NP (NN president))) |ET| 
1  |BT| (NP (NP (NN coach))(PP (IN of)(NP (NP (DT the)(NNPS Patriots)(CC and)(NNPS Colts))))) |ET| 
-0.24184745678968966320354638810386  |BT| (NP (NP (NNP Copley))(VP (VBG blocking)(NP (NP (DT the)(NN sale))(PP (IN of)(NP (NP (DT The)(NNP News)(NNP Sun))))))) |ET| 
1  |BT| (NP (JJ Egyptian)(NN army)) |ET| 
-0.55011258995390344139764238207135  |BT| (NP (JJ Egyptian)(NN delegation)) |ET| 
1  |BT| (NP (NP (NNP Taliban)(POS 's))(JJ supreme)(ROOT (SINV (`` ``)(S (NP (DT The)(NNS prisoners))(VP (VBP are)(VP (VBG being)(VP (VBN released)(PP (IN as)(NP (NP (DT a)(NN gesture))(PP (IN of)(NP (NN kindness)))))('' '')(PP (IN by)(NP (NP (NP (DT the)(NNP Taliban)(POS 's))(JJ supreme)(NN leader))))))))))) |ET| 
-0.45682831743268326185614114365308  |BT| (S (NP (NNS prisoners))(VP (VBP are)(VP (VBG being)(VP (VBN released)(PP (IN as)(NP (NP (DT a)(NN gesture))(PP (IN of)(NP (NN kindness)))))('' '')(PP (IN by)(NP (NP (NP (DT the)(NNP Taliban)(POS 's))(JJ supreme)(NN leader)))))))) |ET| 
1  |BT| (NP (NP (JJ Democratic)(NN vice))(NP (NP (JJ presidential)(NN candidate)))) |ET| 
-0.050609041534037335630102916184114  |BT| (NP (NNP Justice)(NNP William)(NNP H.)(NNP Rehnquist)) |ET| 
1  |BT| (NP (NP (NN pick))(PP (IN of)(NP (DT the)(NNP Miami)(NNPS Dolphins)))) |ET| 
-1  |BT| (NP (NP (NN clerk))(PP (IN in)(NP (DT an)(NNP Army)(NNPS Reserves)))) |ET| 
1  |BT| (NP (JJ German)(NN police)) |ET| 
-0.057948474387492621140438586735399  |BT| (NP (JJ German)(NN magazine)) |ET| 
1  |BT| (NP (NP (NN clerk))(PP (IN in)(NP (DT an)(NNP Army)(NNPS Reserves)(NN office)))) |ET| 
-1  |BT| (NP (NN police)(NN headquarters)) |ET| 
1  |BT| (VP (VBN IMUnified)(, ,)(NP (NP (NN coalition))(VP (VBN formed)(PP (IN by)(NP (NP (NNP AT&T)(, ,)(NNP ExciteAtHome)(, ,)(NNP Microsoft))))))) |ET| 
-0.37150666306175189612659437443654  |BT| (NP (NP (NN vote-getter))(, ,)(NP (NP (NNP Frank)(NNP Thomas))(PP (IN of)(NP (DT the)(NNP Chicago)(NNP White)(NNPS Sox))))) |ET| 
1  |BT| (NP (NN hospital)(NN spokeswoman)) |ET| 
-1  |BT| (NP (NNP Embassy)(NN spokeswoman)) |ET| 
1  |BT| (NP (NNP Dortmund)(NNS authorities)) |ET| 
-0.75312071320489759607141877495451  |BT| (NP (NP (NN coach))(NP (NP (JJ former)(NN head)(NN coach)))) |ET| 
1  |BT| (NP (NNP Hewlett-Packard)(NN spokeswoman)) |ET| 
-0.49624463312318145558066362355021  |BT| (NP (NNP Hewlett-Packard)(NN spokeswoman)(NNP Jeannette)(NNP Weisschuh)) |ET| 
1  |BT| (NP (NP (NAC (NNP University))(NN paleobiologist))(NP (NP (NNS specialists)))) |ET| 
-1  |BT| (NP (NAC (NNP House))(ROOT (S (NP (NAC (NNP House)(PP (IN of)(NP (NNPS Commons)(NN speaker))))(NNP Michael)(NNP Martin))))) |ET| 
1  |BT| (NP (NNP Embassy)(NN spokeswoman)(NNP Lela)(NNP Margiou)) |ET| 
-0.75570295536640363920355412119534  |BT| (NP (NN spokeswoman)(NNP Lela)(NNP Margiou)) |ET| 
1  |BT| (NAC (NNP House)(PP (IN of)(NP (NNPS Commons)(NN speaker)))) |ET| 
-0.95627364301504513832696829922497  |BT| (S (NP (NNP Republican)(NNP Mike)(NNP Rogers))(VP (VBD was)(VP (VBG leading)(NP (NP (NNP Democrat)(NNP Dianne)(NNP Byrum)))))) |ET| 
1  |BT| (SBAR (WHNP (WP who))(S (VP (VBD founded)(NP (DT the)(NN motorcycle)(NN magazine))))) |ET| 
-0.31130818327877163298467166896444  |BT| (NP (NP (NNP Joseph))(, ,)(SBAR (WHNP (WP who))(S (VP (VBD founded)(NP (DT the)(NN motorcycle)(NN magazine)))))) |ET| 
1  |BT| (NP (NNP Democrat)(NNP Dianne)(NNP Byrum)) |ET| 
-0.39880812414562272216755900444696  |BT| (NP (NNP Gov.)(NNP Bill)(NNP Owens)) |ET| 
1  |BT| (NP (NP (NN state)(POS 's))(JJ 100,000-strong)(NN police)(ROOT (S (NP (DT The)(JJ Serbian)(NN presidency))(VP (VBZ has)(NP (NP (JJ sweeping)(NNS powers))(, ,)(PP (VBG including)(NP (NP (JJ direct)(NN control))(PP (IN over)(NP (NP (DT the)(NN state)(POS 's))(JJ 100,000-strong)(NN police)(NN force)))))))))) |ET| 
-0.4497508285532449967547563574044  |BT| (S (NP (JJ Serbian)(NN presidency))(VP (VBZ has)(NP (NP (JJ sweeping)(NNS powers))(, ,)(PP (VBG including)(NP (NP (JJ direct)(NN control))(PP (IN over)(NP (NP (DT the)(NN state)(POS 's))(JJ 100,000-strong)(NN police)(NN force)))))))) |ET| 
1  |BT| (NP (NNP U.S.)(NNP District)(NNP Judge)) |ET| 
-0.29573016279086483670823781721992  |BT| (NP (NNP Judge)(NNP Blanche)(NNP Manning)) |ET| 
1  |BT| (NP (NP (NN commission)(POS 's))(ROOT (S (NP (DT The)(NP (NNP Bush)(CC and)(NNP Gore))(NNS campaigns))(VP (VP (VBD did)(RB not)(VP (VB talk)(PP (TO to)(NP (DT each)(JJ other)))(PP (ADVP (RB directly))(IN about)(NP (NP (DT the)(NN possibility))(PP (IN of)(NP (NN postponement)))))))(, ,)(CC but)(VP (VBD went)(PP (IN through)(NP (NP (NP (DT the)(NN debate)(NN commission)(POS 's))(NN director))))))))) |ET| 
-0.66920063635406679125594564538915  |BT| (S (NP (NNS campaigns))(VP (VP (VBD did)(RB not)(VP (VB talk)(PP (TO to)(NP (DT each)(JJ other)))(PP (ADVP (RB directly))(IN about)(NP (NP (DT the)(NN possibility))(PP (IN of)(NP (NN postponement)))))))(, ,)(CC but)(VP (VBD went)(PP (IN through)(NP (NP (NP (DT the)(NN debate)(NN commission)(POS 's))(NN director))))))) |ET| 
1  |BT| (NP (JJ parliamentary)(NN committee)) |ET| 
-1  |BT| (NP (JJ nine-member)(JJ inaugural)(NN committee)) |ET| 
1  |BT| (NP (NP (NNP Don))(PP (IN of)(NP (NP (NNP DJB)(NNPS Associates)(NNP LLC))))) |ET| 
-1  |BT| (NP (NP (NNP Don))(PP (IN of)(NP (NP (NNP DJB)(NNPS Associates)(NNP LLC))(PP (IN of)(NP (NNP Irvine)))))) |ET| 
1  |BT| (NP (JJ Republican)(JJ presidential)(NN nominee)) |ET| 
-0.18211502507663046568353593102074  |BT| (NP (PP (NP (NP (NN section))(PP (IN of)(NP (DT the)(NNP Gulf)(NNP Coast)(NNP Research)(NNP Laboratory)))))(PP (IN in)(NP (NNP Mississippi)))) |ET| 
1  |BT| (NP (NP (NN president))(PP (IN of)(NP (NP (DT the)(NNP American)(NNP Council))(PP (IN on)(NP (NP (NNP Education))))))) |ET| 
-0.21618163517959521069400352644152  |BT| (NP (NP (NN lawyer))(PP (IN for)(NP (NP (DT the)(NNP SEC))))) |ET| 
1  |BT| (NP (PRP$ his)(JJ nine-member)(JJ inaugural)(NN committee)) |ET| 
-0.062372715092490871313657407881692  |BT| (NP (PRP$ his)(NN country)(NN house)) |ET| 
1  |BT| (NP (NP (NN anlayst))(PP (IN for)(NP (NNP Merrill)(NNP Lynch)))) |ET| 
-1  |BT| (NP (NP (NN campus))(PP (IN of)(NP (NNP Washington)(NNP University)))) |ET| 
1  |BT| (NP (NP (JJS most))(VP (VBG representing)(NP (NP (NNS unions))(CC and)(NP (JJ political)(NNS parties))))) |ET| 
-0.67575129511339271370928827309399  |BT| (NP (NP (NNS members))(PP (IN of)(NP (PRP$ his)))) |ET| 
1  |BT| (NP (NP (NN organization))(PP (IN of)(NP (CD 60)(NNP Washington)(NNS journalists)))) |ET| 
-0.3860134835885320470083570398856  |BT| (NP (NP (NN organization))(PP (IN of)(NP (CD 60)(NNP Washington)))) |ET| 
1  |BT| (NP (PRP$ their)(NNS users)) |ET| 
-0.57198918590022351793322741286829  |BT| (NP (PRP$ their)(NNS counterparts)) |ET| 
1  |BT| (NP (NP (NN biologist))(PP (IN at)(NP (NP (DT the)(NNP University))(PP (IN of)(NP (NNP North)(NNP Carolina)))))) |ET| 
-0.5043150971494096967973064238322  |BT| (NP (NP (NN president))(PP (IN of)(NP (NP (DT the)(NNP American)(NNP Council))(PP (IN on)(NP (NP (NNP Education))(, ,)(NP (NP (DT an)(NN umbrella)(NN group)))))))) |ET| 
1  |BT| (NP (PRP$ his)(NNP Federalist)(NNP Party)) |ET| 
-1  |BT| (NP (NP (NNP John))(VP (VBN appointed)(NP (NP (NNS members))(PP (IN of)(NP (PRP$ his)(NNP Federalist)(NNP Party)))))) |ET| 
1  |BT| (S (NP (NNP Peter))(PRN (, ,)(PP (IN of)(NP (DT the)(NN group)(NN OutRage))))) |ET| 
-0.81634500412484012343838912784122  |BT| (NP (NP (NN station)(POS 's))(JJ first)(JJ permanent)(ROOT (S (NP (NP (DT The)(NN station)(POS 's))(JJ first)(JJ permanent)(NN crew))))) |ET| 
1  |BT| (NP (NP (NNP John))(PP (IN of)(NP (NNP Coldwell)(NNP Banker)(NNP American)(NNP Spectrum)))) |ET| 
-0.19432715297203340121257042483194  |BT| (S (NP (NNP Peter))(PRN (, ,)(PP (IN of)(NP (DT the)(NN group))))) |ET| 
1  |BT| (NP (NP (NN representative))(PP (IN in)(NP (NP (NNP Iran)(POS 's))(JJ 290-seat)(NN parliament)))) |ET| 
-0.36266775161906200652950360563409  |BT| (NP (NP (NNP Indonesia)(POS 's))(JJ second-largest)(ROOT (S (S (NP (NP (NP (NN consulate))(PP (IN in)(NP (NP (NNP Indonesia)(POS 's))(JJ second-largest)(NN city))))))))) |ET| 
1  |BT| (NP (NAC (NNP University))(ROOT (S (NP (NP (NNP Larry)(NNP Martin))(, ,)(NP (DT a)(NAC (NNP University)(PP (IN of)(NP (NNP Kansas))))(NN paleontologist)))))) |ET| 
-0.63524281149893635500802702154033  |BT| (NP (NP (NN government))(PP (IN of)(NP (DT a)(NN minority)(NN government)))) |ET| 
1  |BT| (S (NP (NP (NNP Herblock)(POS 's))(JJ first)(NP (JJ full-time)(NN cartoonist)(POS 's))(NN job))(VP (VBD was)(PP (IN on)(NP (DT the)(NNP Chicago)(NNP Daily)(NNP News))))) |ET| 
-0.19214586455978202583771974332194  |BT| (S (NP (NP (NN cartoonist)(POS 's))(NN job))(VP (VBD was)(PP (IN on)(NP (DT the)(NNP Chicago)(NNP Daily)(NNP News))))) |ET| 
1  |BT| (NP (NP (NN choice))(PP (IN of)(NP (NP (DT the)(NNP San)(NNP Francisco)(NNPS 49ers))))) |ET| 
-1  |BT| (NP (NP (NNP Democratic)(NNP Party))(NP (DT the)(NNP Republican)(NNP Party))) |ET| 
1  |BT| (NP (NP (NNS fighters))(VP (VBG belonging)(PP (TO to)(NP (DT the)(NN opposition)(NN alliance))))) |ET| 
-1  |BT| (NP (NP (NNS voters))(VP (VBN recruited)(PP (IN by)(NP (NP (NNP NBC)))))) |ET| 
1  |BT| (NP (NP (NN league)(POS 's))(ROOT (S (S (NP (PRP It))(VP (VBZ 's)(NP (NN incentive)(NN pay))))(CC and)(S (NP (DT that))(VP (VBZ 's)(ADJP (JJ fine)(PP (IN with)(NP (NP (QP (XS (IN at)(JJS least))(CD one)))(PP (IN of)(NP (NP (DT the)(NN league)(POS 's))(NNS coaches))))))))))) |ET| 
-0.15486098120947899836608030454954  |BT| (S (NP (CD Two))(VP (VBD were)(NP (NNS soldiers)))) |ET| 
1  |BT| (NP (NP (NN league))(VP (VBN organized)(PP (IN by)(NP (NP (NNP NBC)))))) |ET| 
-0.3863257405952157386153089646541  |BT| (NP (NN opposition)(NN alliance)) |ET| 
1  |BT| (NP (NP (NN secretary-general))(PP (IN of)(NP (DT the)(NNS organizations)))) |ET| 
-1  |BT| (NP (NP (NN director))(PP (IN of)(NP (NP (DT the)(NNS fisheries))))) |ET| 
1  |BT| (NP (NN airport)(NN manager)) |ET| 
-0.94783163871432263292149400513154  |BT| (NP (NP (NNP Iran)(POS 's))(JJ only)(ROOT (S (NP (NP (NNP TEHRAN)(, ,)(NNP Iran))(PRN (-LRB- -LRB-)(NP (NNP AP))(-RRB- -RRB-)))(NP-TMP (CD __)(NN N))(NP (NP (NP (NNP Iran)(POS 's))(JJ only)(JJ Jewish)))))) |ET| 
1  |BT| (NP (NP (NN director))(PP (IN of)(NP (NP (DT the)(NNS fisheries)(NN section))))) |ET| 
-1  |BT| (NP (NP (NN analyst))(PP (IN at)(NP (NN research)(NN group)))) |ET| 
1  |BT| (SBAR (WHNP (WDT that))(S (VP (VBD owned)(S (NP (NNP Road)(CC &)(NNP Track)))))) |ET| 
-1  |BT| (NP (NP (NN company))(SBAR (WHNP (WDT that))(S (VP (VBD owned)(S (NP (NNP Road)(CC &)(NNP Track))))))) |ET| 
1  |BT| (NP (NP (NN analyst))(PP (IN at)(NP (NN research)(NN group)(NNP Gartner)))) |ET| 
-0.33797411615965627929014658548112  |BT| (NP (NP (NN base))(PP (IN for)(NP (NP (JJ low-fare)(NNS carriers))(VP (VBG operating)(PP (IN in)(NP (NNP Britain))))))) |ET| 
1  |BT| (S (NP (NNP Georgia))(VP (VBD fired)(NP (NN football)(NN coach)))) |ET| 
-0.25036910847036275562516038917238  |BT| (NP (NP (NP (NNP Norway)(POS 's))(NNP Foreign)(NNP Minister)(NNP Thorbjoern)(NNP Jagland))(CC and)(NP (NNP Mladjan)(NNP Dinkic))) |ET| 
1  |BT| (NP (NP (NNP Indonesia)(POS 's))(JJ legal)(ROOT (S (NP (NP (NNS Critics))(PP (IN of)(NP (NP (NNP Indonesia)(POS 's))(JJ legal)(NN system))))))) |ET| 
-0.95461868544536554459511989989551  |BT| (NP (NP (NNS Critics))(PP (IN of)(NP (NP (NNP Indonesia)(POS 's))(JJ legal)(NN system)))) |ET| 
1  |BT| (NP (JJ Giant)(NNS teammates)) |ET| 
-0.45655025462228993049507153045852  |BT| (NP (PRP$ his)(JJ Giant)(NNS teammates)) |ET| 
1  |BT| (NP (NP (NNS members))(PP (IN of)(NP (PRP$ his)(NNP Federalist)(NNP Party)))) |ET| 
-1  |BT| (NP (NP (NN director))(PP (IN of)(NP (NP (DT the)(NNS fisheries)(NN section))(PP (IN of)(NP (DT the)(NNP Gulf)(NNP Coast)(NNP Research)(NNP Laboratory)))))) |ET| 
1  |BT| (NP (PRP$ their)(JJ public)(NNS employees)) |ET| 
-0.49235399922957945317847361366148  |BT| (NP (JJ Chinese)(NNS researchers)) |ET| 
1  |BT| (NP (NP (NN section))(PP (IN of)(NP (DT the)(NNP Gulf)(NNP Coast)(NNP Research)(NNP Laboratory)))) |ET| 
-0.28164938314619303305619268940063  |BT| (NP (NP (NNS fisheries)(NN section))(PP (IN of)(NP (DT the)(NNP Gulf)(NNP Coast)(NNP Research)(NNP Laboratory)))) |ET| 
1  |BT| (NP (NNP Republican)(NNP Mark)(NNP Kennedy)) |ET| 
-0.4359547933743855852029014386062  |BT| (S (NP (NNP Republican)(NNP Mark)(NNP Kennedy))(VP (VBD won)(NP (DT a)(JJ 150-vote)(NN decision))(PP (IN over)(NP (JJ four-term)(JJ Democratic)(NNP Rep))))) |ET| 
1  |BT| (NP (NP (NN winner))(PP (IN of)(NP (NP (NP (DT the)(VBN disputed)(NN governor)(POS 's))(NN race))(PP (IN for)(NP (JJ oil-rich)(NNP Tabasco)(NN state)))))) |ET| 
-1  |BT| (NP (NP (NN winner))(PP (IN of)(NP (NP (NP (DT the)(VBN disputed)(NN governor)(POS 's))(NN race))(PP (IN for)(NP (JJ oil-rich)(NNP Tabasco)))))) |ET| 
1  |BT| (NP (NP (NNP Jeb))(JJ gubernatorial)(ROOT (S (NP (CD Four)(JJ other)(NN committee)(NNS members))(VP (VBD raised)(NP (QP (IN at)(JJS least)($ $)(CD 100,000)))(PP (IN for)(NP (NP (NNP Bush)(POS 's))(NN campaign)))(: :)(NP (NP (NP (NNP Bill)(NNP DeWitt))(CC and)(NP (NNP Mercer)(NNP Reynolds)))(, ,)(NP (NP (NNS co-chairs))(PP (IN of)(NP (NP (DT the)(ADJP (JJ Ohio-based))(NN investment)(NN firm))(PP (IN of)(NP (NNP Reynolds)(, ,)(NNP DeWitt)(CC and)(NNP Company))))))(: ;)(NP (NP (NNP Brad)(NNP Freeman))(, ,)(NP (DT a)(NNP California)(NN investor)))(: ;)(CC and)(NP (NP (NNP Florida)(NN developer)(NNP Al)(NNP Hoffman))(, ,)(SBAR (WHNP (WP who))(S (VP (VBD was)(NP (NP (NP (NN finance)(NN chairman))(PP (IN for)(NP (NP (NNP Jeb)(NNP Bush)(POS 's))(JJ gubernatorial)(NN campaign)))))))))))))) |ET| 
-0.44966828790015311856365087805898  |BT| (S (NP (NN committee)(NNS members))(VP (VBD raised)(NP (QP (IN at)(JJS least)($ $)(CD 100,000)))(PP (IN for)(NP (NP (NNP Bush)(POS 's))(NN campaign)))(: :)(NP (NP (NP (NNP Bill)(NNP DeWitt))(CC and)(NP (NNP Mercer)(NNP Reynolds)))(, ,)(NP (NP (NNS co-chairs))(PP (IN of)(NP (NP (DT the)(ADJP (JJ Ohio-based))(NN investment)(NN firm))(PP (IN of)(NP (NNP Reynolds)(, ,)(NNP DeWitt)(CC and)(NNP Company))))))(: ;)(NP (NP (NNP Brad)(NNP Freeman))(, ,)(NP (DT a)(NNP California)(NN investor)))(: ;)(CC and)(NP (NP (NNP Florida)(NN developer)(NNP Al)(NNP Hoffman))(, ,)(SBAR (WHNP (WP who))(S (VP (VBD was)(NP (NP (NP (NN finance)(NN chairman))(PP (IN for)(NP (NP (NNP Jeb)(NNP Bush)(POS 's))(JJ gubernatorial)(NN campaign)))))))))))) |ET| 
1  |BT| (NP (NP (NNP EU)(POS 's))(NN executive)(ROOT (S (NP (NP (NNS Suggestions))(PP (IN of)(NP (NN compromise))))(VP (VBD appeared)(PP (IN on)(NP (NP (DT the)(JJ contentious)(NN issue))(PP (IN of)(SBAR (WHADJP (WRB how)(JJ many))(S (NP (NP (NNS seats))(NP (DT each)(NN nation)))(VP (VBZ has)(VP (PP (IN on)(NP (NP (NP (DT the)(NNP EU)(POS 's))(NN executive)(NN body))))))))))))))) |ET| 
-0.88629384367748709205869772631559  |BT| (S (NP (NP (NN nation)))(VP (VBZ has)(VP (PP (IN on)(NP (NP (NP (DT the)(NNP EU)(POS 's))(NN executive)(NN body))))))) |ET| 
1  |BT| (NP (NP (NN attorney))(PP (IN for)(NP (NNP MLS)))) |ET| 
-0.69258028341974120500879052997334  |BT| (NP (NP (NN marketplace))(PP (IN for)(NP (NN small-business)))) |ET| 
1  |BT| (NP (JJ French)(NNP Prime)(NNP Minister)) |ET| 
-0.61080272764811727181921696683276  |BT| (NP (JJ French)(NNP Prime)(NNP Minister)(NNP Lionel)(NNP Jospin)) |ET| 
1  |BT| (NP (NP (NN product))(PP (IN for)(NP (NP (NNP Yahoo)(. !))))) |ET| 
-0.44586138609620390438337267369207  |BT| (NP (NP (NN spokesman))(PP (IN for)(NP (NP (DT the)(NNP Arapahoe)(NNP County)(NN district)(NN attorney))))) |ET| 
1  |BT| (NP (NN small-business)(NNS buyers)(CC and)(NNS sellers)) |ET| 
-0.90986207611168701259174440565403  |BT| (NP (NN hospital)(NNS officials)(CC and)(NNS police)) |ET| 
1  |BT| (NP (NP (NN head))(PP (IN of)(NP (DT the)(NNP Democratic)(NNP Party)))) |ET| 
-0.19473642278351024903493282636191  |BT| (NP (NP (NNS parts))(PP (IN of)(NP (NNP Yugoslavia)))) |ET| 
1  |BT| (NP (JJ Indonesian)(NNS officials)) |ET| 
-1  |BT| (NP (JJ Indonesian)(NNS regions)) |ET| 
1  |BT| (VP (PP (NP (NP (NNS representatives))(PP (IN of)(NP (DT the)(NNP Joint)(NNP Congressional)(NNP Committee)))))(PP (IN on)(NP (NNP Inaugural)(NNPS Ceremonies)))) |ET| 
-0.69020244596402047232430732037756  |BT| (S (NP (NNS members))(VP (VBD met)(NP-TMP (NNP Wednesday))(PP (IN with)(NP (NP (NNS representatives))(PP (IN of)(NP (DT the)(NNP Joint)(NNP Congressional)(NNP Committee)))))(PP (IN on)(NP (NNP Inaugural)(NNPS Ceremonies))))) |ET| 
1  |BT| (NP (JJ Indonesian)(NNS lawmakers)) |ET| 
-1  |BT| (NP (JJ Indonesian)(NNP West)(NNP Timor)) |ET| 
1  |BT| (NP (NP (NNS co-chairs))(PP (IN of)(NP (NP (DT the)(ADJP (JJ Ohio-based))(NN investment)(NN firm))))) |ET| 
-0.73214425633592705722207938379142  |BT| (SBAR (WHNP (WP who))(S (VP (VBZ has)(NP (ADJP (RB close)(JJ personal))(NNS ties))(PP (TO to)(NP (NP (DT the)(NN chief)(NN justice))(PP (IN of)(NP (DT the)(NNP Supreme)(NNP Court)))))))) |ET| 
1  |BT| (NNP West) |ET| 
-0.17008596890174954019414599315496  |BT| (NP (JJ Palestinian)(NNS territories)) |ET| 
1  |BT| (NP (NN police)(NNP Chief)) |ET| 
-0.28313372504762202019890082738129  |BT| (NP (NN police)(NNP Chief)(NNP James)(NNP Vohs)) |ET| 
1  |BT| (NP (JJ Palestinian)(NN leader)) |ET| 
-0.32200535179161038357165125489701  |BT| (NP (NN leader)(NNP Gen.)) |ET| 
1  |BT| (NP (PRP$ our)(NNS courts)) |ET| 
-0.37469289477059097848155033716466  |BT| (NP (PRP$ our)(NNS martyrs)) |ET| 
1  |BT| (NP (PRP$ his)(NN campaign)) |ET| 
-0.10107703342133866897256666561589  |BT| (NP (NP (PRP$ his)(NN campaign))(CC and)(NP (JJ Democratic))) |ET| 
1  |BT| (NNP Palestine) |ET| 
-1  |BT| (NNP Palestine) |ET| 
1  |BT| (NP (NP (JJ Democratic))(ROOT (S (S (VP (VBG Tearing)(PRT (RP up))(NP (NP (DT a)(NN copy))(PP (IN of)(NP (DT the)(JJ electoral)(NN law))))))(, ,)(NP (NP (JJ Democratic)(NN Revolution)(POS 's))(NNP Lorena)(NNP Villavicencio))))) |ET| 
-0.23217482647996259825795561937412  |BT| (NP (NP (NN police)(NNS raids))(PP (IN of)(NP (NP (DT an)(JJ alleged)(JJ Palestinian))))) |ET| 
1  |BT| (NP (JJ Egyptian)(NNP President)) |ET| 
-1  |BT| (NP (NP (NN wife))(PP (IN of)(NP (JJ Egyptian)(NNP President)))) |ET| 
1  |BT| (NP (NP (NN president))(PP (IN of)(NP (NP (NN government)(NNS affairs))(PP (IN for)(NP (NNP ExciteAtHome)))))) |ET| 
-0.9356666864715004194863468001131  |BT| (NP (NP (NN government)(NNS affairs))(PP (IN for)(NP (NNP ExciteAtHome)))) |ET| 
1  |BT| (NP (JJ Republican)(NNS stalwarts)) |ET| 
-0.55568633985106086203842323811841  |BT| (NP (NP (JJ Republican)(NNS stalwarts))(VP (VBG hauling)(NP (DT a)(JJ reluctant)(NNP GOP)))) |ET| 
1  |BT| (NP (NP (NNP Gary))(PP (IN of)(NP (NP (NNP Western)(NNP Michigan))))) |ET| 
-1  |BT| (NP (NNP Bush)(NNS officials)) |ET| 
1  |BT| (NP (NN MLS)(NNS owners)) |ET| 
-0.88765470865755835561117237375583  |BT| (NP (NN RV)(NNS owners)) |ET| 
1  |BT| (NP (NNP Nielsen)(NNS executives)) |ET| 
-0.61779903104746713982109440621571  |BT| (VP (NP (PRP$ their)(JJ obvious)(NN dismay))(PP (IN with)(NP (NP (NNP Friday)(POS 's))(CD 4-3)(NN state))(NP (NP (NNP Supreme)(NNP Court))))) |ET| 
1  |BT| (NP (NN Company)(NNS officials)) |ET| 
-0.12989388954551317478802729965537  |BT| (NP (JJ American)(JJ public)) |ET| 
1  |BT| (NP (NP (NN chairman))(PP (IN for)(NP (NP (NNP Jeb)(NNP Bush)(POS 's))(JJ gubernatorial)(NN campaign)))) |ET| 
-0.87873306899726566498998181486968  |BT| (NP (NP (NP (NN chairman))(PP (IN for)(NP (NP (NNP Jeb)(NNP Bush)(POS 's))(JJ gubernatorial)(NN campaign))))(NP (NP (NN chairman)))) |ET| 
1  |BT| (NP (NNP GOP)(JJ national)(NN committeewoman)) |ET| 
-0.57852086218740494949486219411483  |BT| (NP (NNP GOP)(JJ national)(NN committeewoman)(NNP Julie)(NNP Finley)) |ET| 
1  |BT| (NP (NP (NNP Yugoslavia)(POS 's))(ADJP (RB newly)(VBN elected))(ROOT (S (`` ``)(S (NP (PRP We))(VP (VBP have)(NP (NP (DT a)(JJ strong)(NN interest))(PP (IN in)(S (VP (VBG supporting)(NP (NP (NP (NNP Yugoslavia)(POS 's))(ADJP (RB newly)(VBN elected))(NNS leaders)))))))))))) |ET| 
-0.71886211207532557665444983285852  |BT| (S (`` ``)(S (NP (PRP We))(VP (VBP have)(NP (NP (DT a)(JJ strong)(NN interest))(PP (IN in)(S (VP (VBG supporting)(NP (NP (NP (NNP Yugoslavia)(POS 's))(ADJP (RB newly)(VBN elected))(NNS leaders)))))))))) |ET| 
1  |BT| (PP (NP (NN state))(NP (NP (NNP Supreme)(NNP Court)))) |ET| 
-0.21532836694545320899152329729986  |BT| (NP (NP (NN state))(PP (IN of)(NP (NP (NNP Florida))))) |ET| 
1  |BT| (NP (NNP Senate)(NNP Armed)(NNPS Services)(NNP Committee)) |ET| 
-0.69763175836627067116779699063045  |BT| (NP (PRP$ his)(NNP Senate)(NNP Armed)(NNPS Services)(NNP Committee)) |ET| 
1  |BT| (NP (NP (NN director))(PP (IN for)(NP (DT the)(VBG ruling)(NN party)))) |ET| 
-0.55724531905755569916038894007215  |BT| (NP (NP (NN marketplace))(PP (IN for)(NP (NN small-business)(NNS buyers)(CC and)(NNS sellers)))) |ET| 
1  |BT| (NP (NP (JJS most))(VP (VBG representing)(NP (NP (NNS unions))))) |ET| 
-0.84259298620481770658585674027563  |BT| (NP (NN labor)(NNS unions)) |ET| 
1  |BT| (NP (NP (NN chairman))(PP (IN of)(NP (NNP Victory)(CD 2000)))) |ET| 
-0.32054989983353293636625380713667  |BT| (NP (NP (NP (NNS co-chairs))(PP (IN of)(NP (NP (DT the)(ADJP (JJ Ohio-based))(NN investment)(NN firm))(PP (IN of)(NP (NNP Reynolds)(, ,)(NNP DeWitt)(CC and)(NNP Company))))))(: ;)(NP (NP (NNP Brad)(NNP Freeman)))) |ET| 
1  |BT| (NP (NN fishery)(NNS scientists)) |ET| 
-0.39521537631469139117967870333814  |BT| (NP (JJS most)(NNPS Palestinians)) |ET| 
1  |BT| (NP (NP (NP (NN analyst))(PP (IN at)(NP (NP (DT the)(NNP National)(NNP Center))(PP (IN for)(NP (NNP Public)(NNP Policy))))))(NP (NP (JJR Higher)(NN Education)))) |ET| 
-0.45199665857824589121349845299846  |BT| (NP (NP (NP (NN analyst))(PP (IN at)(NP (NP (DT the)(NNP National)(NNP Center))(PP (IN for)(NP (NNP Public)(NNP Policy))))))(CC and)(NP (NP (JJR Higher)(NN Education))(PP (IN in)(NP (NNP San)(NNP Jose))))) |ET| 
1  |BT| (NP (JJ 15-member)(NNP European)(NNP Union)) |ET| 
-0.56415761575318845721938032511389  |BT| (NNP European) |ET| 
1  |BT| (NP (NP (NN strategist))(PP (IN for)(NP (NP (NNP A.G.)(NNP Edwards))(CC &)(NP (NNPS Sons)(NNP Inc))))) |ET| 
-1  |BT| (NP (NP (NN court))(PP (IN under)(NP (NNP Chief)(NNP Justice)))) |ET| 
1  |BT| (NP (NP (NNP Gore))(ROOT (S (NP (DT The)(NP (NNP Bush)(CC and)(NNP Gore))(NNS campaigns))))) |ET| 
-0.5828078910271821122535129688913  |BT| (NP (NP (NNP Cheney)(POS 's))(VBG examining)(ROOT (S (NP (NP (DT The)(JJ 59-year-old)(NNP Cheney)(POS 's))(VBG examining)(NN physician))))) |ET| 
1  |BT| (NP (NP (NN court))(PP (IN under)(NP (NNP Chief)(NNP Justice)(NNP Roger)(NNP B.)(NNP Taney)))) |ET| 
-0.4095703379264269416992760852736  |BT| (PP (NP (NN state))(NP (NP (NNP Supreme)(NNP Court)(NN ruling))(VP (VBG favoring)(NP (NNP Democrat)(NNP Al)(NNP Gore))))) |ET| 
1  |BT| (NP (NP (NNP Indonesia)(POS 's))(JJ first)(ADJP (RB democratically)(VBN chosen))(ROOT (S (PP (IN As)(NP (NP (NP (NNP Indonesia)(POS 's))(JJ first)(ADJP (RB democratically)(VBN chosen))(NN head))))))) |ET| 
-0.85455467288231912181828420216334  |BT| (NP (NP (NP (NNP Indonesia)(POS 's))(JJ first)(ADJP (RB democratically)(VBN chosen))(NN head))(PP (IN of)(NP (NP (NN state))))) |ET| 
1  |BT| (NP (NNP Democrat)(NNP Joseph)(NNP Lieberman)) |ET| 
-0.96919022974842028439468322176253  |BT| (NP (NNP Sen.)(NNP Joseph)(NNP Lieberman)) |ET| 
1  |BT| (NP (NN state)(NNP Sen.)) |ET| 
-0.36839388761948443917759732357808  |BT| (NP (NNP Justice)(NNP Roger)(NNP B.)(NNP Taney)) |ET| 
1  |BT| (NP (NP (NN ex-Leader))(PP (IN of)(NP (DT the)(NNPS Lords)))) |ET| 
-0.47532824384671895634468796743022  |BT| (NP (NP (NN ex-Leader))(PP (IN of)(NP (DT the)(NNPS Lords)(NNP Baroness)))) |ET| 
1  |BT| (NP (NNP Republican)(NNP Dick)(NNP Cheney)) |ET| 
-0.52764545071752133598153022830957  |BT| (NP (JJ favorite)(NNP Dick)(NNP Butkus)) |ET| 
1  |BT| (NP (NP (NN chief))(PP (IN of)(NP (NNP South)(NNP Jakarta)(NNP Prosecution)(NNP Office)))) |ET| 
-0.54725259452997077058711283825687  |BT| (NP (NNP Jakarta)(NNP Prosecution)(NNP Office)) |ET| 
1  |BT| (NNP General) |ET| 
-1  |BT| (NNP General) |ET| 
1  |BT| (NNP College) |ET| 
-1  |BT| (NNP College) |ET| 
1  |BT| (NNP Social) |ET| 
-1  |BT| (NNP Social) |ET| 
1  |BT| (NNP College) |ET| 
-0.54365307781562699496191726211691  |BT| (NP (NP (NN taxiway))(PP (IN at)(NP (NP (DT the)(NN airport))))) |ET| 
1  |BT| (NNP Colorado) |ET| 
-0.57265485652334735533486309577711  |BT| (NP (NN state)(NNS prosecutors)) |ET| 
1  |BT| (NP (NP (NN co-chairman))(PP (IN of)(NP (NP (DT the)(NNP RNC)(NN gala))))) |ET| 
-0.22730432777754250306401218040264  |BT| (NP (NP (NN chief))(PP (IN of)(NP (NNP South)(NNP Jakarta)))) |ET| 
1  |BT| (NP (NN member)(NNS states)) |ET| 
-0.75440518200615080957049940479919  |BT| (NP (NNP U.N.)(NN member)(NNS states)) |ET| 
1  |BT| (NP (NP (NN specialist))(PP (IN with)(NP (DT the)(NNP National)(NNP Marine)(NNPS Fisheries)(NNP Service)))) |ET| 
-0.56373520385367803520182405918604  |BT| (NP (NP (NN chairman))(PP (IN of)(NP (NNP Victory)(CD 2000)))(, ,)(NP (NP (DT the)(JJ joint)(NN effort))(PP (IN between)(NP (DT the)(NNP Bush)(NN campaign))))(CC and)(NP (DT the)(NNP Republican)(NNP National)(NNP Committee))) |ET| 
1  |BT| (NP (NNP Texas)(NNP House)) |ET| 
-1  |BT| (NP (NNP Texas)(NNP Gov)) |ET| 
1  |BT| (NP (NNP U.N.)(NNPS Sanctions)(NNP Committee)) |ET| 
-1  |BT| (NP (JJ military)(NN party)) |ET| 
1  |BT| (NP (NNP Texas)(NNP Gov)) |ET| 
-0.70373548502066274323851757799275  |BT| (NP (JJ Republican)(NN nominee)(NNP Texas)) |ET| 
1  |BT| (NP (PRP$ his)(ADJP (RB badly)(VBN shaken))(NN party)) |ET| 
-0.91688742579029391954748007265152  |BT| (NP (PRP$ his)(NN ability)(S (VP (TO to)(VP (VB rally)(NP (PRP$ his)(ADJP (RB badly)(VBN shaken))(NN party)))))) |ET| 
1  |BT| (NP (JJ Democratic)(NN state)(NNP Sen.)) |ET| 
-0.58107690847649817733611143921735  |BT| (NP (JJ Democratic)(NN state)(NNP Sen.)(NNP Ellen)(NNP Anderson)) |ET| 
1  |BT| (NP (NP (NN nation)(POS 's))(JJS highest)(ROOT (S (S (VP (VBG Writing)(PP (IN for)(NP (DT the)(CD three)))))(, ,)(NP (NNP O'Connor))(VP (VBD said)(SBAR (S (NP (DT the)(NN case))(`` ``)(VP (VP (VBZ presents)(NP (NP (DT an)(JJ important)(NN issue))('' '')(SBAR (WHNP (WDT that))(S (VP (VBZ has)(VP (VBN divided)(NP (JJ federal)(NNS appeals)(NNS courts))))))))(CC and)(VP (MD should)(VP (VB be)(VP (VBN resolved)(PP (IN by)(NP (NP (DT the)(NN nation)(POS 's))(JJS highest)(NN court))))))))))))) |ET| 
-0.52917074626673965553891321178526  |BT| (S (NP (NNP O'Connor))(VP (VBD said)(SBAR (S (NP (DT the)(NN case))(`` ``)(VP (VP (VBZ presents)(NP (NP (DT an)(JJ important)(NN issue))('' '')(SBAR (WHNP (WDT that))(S (VP (VBZ has)(VP (VBN divided)(NP (JJ federal)(NNS appeals)(NNS courts))))))))(CC and)(VP (MD should)(VP (VB be)(VP (VBN resolved)(PP (IN by)(NP (NP (DT the)(NN nation)(POS 's))(JJS highest)(NN court))))))))))) |ET| 
1  |BT| (NNP LA) |ET| 
-1  |BT| (NNP LA) |ET| 
1  |BT| (NP (NP (NNP Tabasco)(POS 's))(JJ electoral)(ROOT (S (NP (NNP Diaz))(VP (VBD accused)(NP (NP (DT the)(NN president))(PP (IN of)(NP (NP (NP (NNP Tabasco)(POS 's))(JJ electoral)(NN institute))))))))) |ET| 
-0.84640940987575374876428213610779  |BT| (S (NP (NNP Diaz))(VP (VBD accused)(NP (NP (DT the)(NN president))(PP (IN of)(NP (NP (NP (NNP Tabasco)(POS 's))(JJ electoral)(NN institute))))))) |ET| 
1  |BT| (NNP Division) |ET| 
-0.73208476578467762685420439083828  |BT| (NP (NP (NNP Solomon)(POS 's))(ROOT (S (S (NP (NP (NNP Solomon)(POS 's))(NNS lawyers)))))) |ET| 
1  |BT| (NP (NP (NNS representatives))(PP (IN of)(NP (JJ several)(JJ progressive)(NNS organizations)))) |ET| 
-0.39949329101863995106214133556932  |BT| (S (NP (NP (NNS representatives))(PP (IN of)(NP (JJ several)(JJ progressive)(NNS organizations))))(VP (VBP are)(VP (VBG making)(NP (PRP$ their))))) |ET| 
1  |BT| (NP (NP (NN nation)(POS 's))(ROOT (S (NP (PRP He))(VP (VBZ has)(VP (VBN taken)(NP (NNS steps))(S (VP (TO to)(VP (VP (VB modernize)(NP (NP (PRP$ his)(NN nation)(POS 's))(NN bureaucracy))))))))))) |ET| 
-1  |BT| (NP (NP (PRP$ his)(NN nation)(POS 's))(ROOT (S (NP (PRP He))(VP (VBZ has)(VP (VBN taken)(NP (NNS steps))(S (VP (TO to)(VP (VP (VB modernize)(NP (NP (PRP$ his)(NN nation)(POS 's))(NN bureaucracy))))))))))) |ET| 
1  |BT| (NP (PRP$ their)(JJ combined)(NN business)) |ET| 
-0.80399390021169647724263995769434  |BT| (NP (PRP$ His)(JJ leftist)(NN coalition)) |ET| 
1  |BT| (NP (NP (NNP Bush)(POS 's))(ROOT (S (NP (CD Four)(JJ other)(NN committee)(NNS members))(VP (VBD raised)(NP (QP (IN at)(JJS least)($ $)(CD 100,000)))(PP (IN for)(NP (NP (NNP Bush)(POS 's))(NN campaign))))))) |ET| 
-1  |BT| (S (NP (NN committee)(NNS members))(VP (VBD raised)(NP (QP (IN at)(JJS least)($ $)(CD 100,000)))(PP (IN for)(NP (NP (NNP Bush)(POS 's))(NN campaign))))) |ET| 
1  |BT| (NP (PRP$ His)(JJ first)(NN team)) |ET| 
-0.64011783516371401070443880598759  |BT| (NP (PRP$ its)(JJ substantial)(NN customer)) |ET| 
1  |BT| (NP (NP (NN president))(PP (IN of)(NP (NP (NP (NNP Tabasco)(POS 's))(JJ electoral)(NN institute))))) |ET| 
-1  |BT| (NP (NP (NN chairman))(PP (IN for)(NP (NP (NNP Jeb)(NNP Bush))))) |ET| 
1  |BT| (NP (PRP$ its)(JJ legal)(NN department)) |ET| 
-0.72811334929939031113121927774046  |BT| (NP (NP (NNP Giants)(POS '))(JJ spacious)(ROOT (S (PP (IN In)(NP (NP (NP (DT the)(NNP Giants)(POS '))(JJ spacious)(NN clubhouse))))))) |ET| 
1  |BT| (NP (NP (NN spokeswoman))(PP (IN for)(NP (DT the)(NNP Tuscaloosa)(NNP County)(NNP Emergency)(NNP Management)(NNP Agency)))) |ET| 
-0.57065379855018272259314926486695  |BT| (NP (NP (NNP Debbie))(, ,)(NP (NP (NN spokeswoman))(PP (IN for)(NP (DT the)(NNP Tuscaloosa)(NNP County)(NNP Emergency)(NNP Management)(NNP Agency))))) |ET| 
1  |BT| (NP (NP (NNS citizens)(POS '))(ROOT (S (NP (NNP Clement))(VP (VBD said)(SBAR (S (NP (NP (DT the)(NN counter-demonstration)(NN __))(VP (VBN organized)(PP (IN by)(NP (NP (NNS citizens)(POS '))(NNS groups))))))))))) |ET| 
-0.4449416495626394296714067877474  |BT| (S (NP (NNP Clement))(VP (VBD said)(SBAR (S (NP (NP (DT the)(NN counter-demonstration)(NN __))(VP (VBN organized)(PP (IN by)(NP (NP (NNS citizens)(POS '))(NNS groups))))))))) |ET| 
1  |BT| (NP (NNS people)(S (VP (TO to)(VP (VB fill)(NP (JJ low-skilled)(NNS jobs))(PP (IN in)(NP (NNS farms)(, ,)(NNS restaurants))))))) |ET| 
-0.96935885796714527096185065602185  |BT| (NP (NN league)(NN president)(NNP Basil)(NNP DeVito)) |ET| 
1  |BT| (NP (NP (NN researcher))(PP (IN at)(NP (DT the)(NNP Dauphin)(NNP Island)(NNP Sea)(NNP Lab)))) |ET| 
-0.64612546005564708284651942449273  |BT| (NP (NP (NN researcher))(PP (IN at)(NP (DT the)(NNP Dauphin)(NNP Island)(NNP Sea)(NNP Lab)))(PP (IN in)(NP (NNP Alabama)))) |ET| 
1  |BT| (NNP Notre) |ET| 
-0.99634195046201479151193325378699  |BT| (NNP Notre) |ET| 
1  |BT| (NNP El) |ET| 
-1  |BT| (NNP El) |ET| 
1  |BT| (NNP Secret) |ET| 
-0.88590259250334146834404691617237  |BT| (NP (PRP$ his)(NNP Secret)(NNP Service)) |ET| 
1  |BT| (NNP Cycle) |ET| 
-1  |BT| (NNP Cycle) |ET| 
1  |BT| (NNP Federal) |ET| 
-1  |BT| (NNP Federal) |ET| 
1  |BT| (NNP Geneva) |ET| 
-1  |BT| (NNP Geneva) |ET| 
1  |BT| (NNP Dale) |ET| 
-1  |BT| (NNP Dale) |ET| 
1  |BT| (NNP Dow) |ET| 
-1  |BT| (NP (PRP$ its)(NN population)) |ET| 
-0.5119688640316349959036301697779  |BT| (NP (JJ Mexican)(NNS workers)) |ET| 
1  |BT| (NP (PRP$ its)(NNP Oldsmobile)(NN division)) |ET| 
-0.30262031398577016183537580218399  |BT| (S (NP (PRP it))(VP (MD will)(VP (VB phase)(PRT (RP out))(NP (PRP$ its)(NNP Oldsmobile)(NN division))))) |ET| 
1  |BT| (NP (JJ Israeli)(NNS soldiers)) |ET| 
-0.30993512827346125781957653089194  |BT| (NP (NP (NN family))(PP (IN of)(NP (JJ democratic)(NNS nations)))) |ET| 
1  |BT| (NP (JJ Syrian)(NN president)) |ET| 
-0.4944919791940578512878801120678  |BT| (S (NP (JJ Syrian)(NN president))(ADVP (RB rarely))(VP (VBD traveled)(ADVP (RB abroad)))) |ET| 
1  |BT| (NP (NP (PRP$ its)(NN number))(PP (IN of)(NP (NP (NN premium)(NNS passengers))))) |ET| 
1  |BT| (NP (NP (NNS Lawyers))(PP (IN for)(NP (DT the)(NNP Chicago)(NNP Newspaper)(NNP Guild)))) |ET| 
-0.47537747887086934106548596901121  |BT| (NP (NP (NNS supporters))(PP (IN outside)(NP (DT the)(NN court)(NN building)))) |ET| 
1  |BT| (NP (NNP EU)(NNS nations)) |ET| 
-0.4443935507739653623104914004216  |BT| (NP (NNP Herblock)(NNS targets)) |ET| 
1  |BT| (NP (NP (NN head))(PP (IN of)(NP (DT the)(JJ liberal)(NNP Yabloko)(NN faction)))) |ET| 
-0.7249788044150211607785649903235  |BT| (NP (NP (NN head))(PP (IN of)(NP (DT the)(JJ liberal)(NNP Yabloko)))) |ET| 
1  |BT| (NP (NNP Florida)(JJ high)(NN court)) |ET| 
-0.90241831925119797563894508130034  |BT| (NP (NNP Belgrade)(JJ political)(NN analyst)) |ET| 
1  |BT| (NP (NP (NN venture))(PP (IN of)(NP (DT the)(NNP World)(NNP Wrestling)(NNP Federation)(CC and)(NNP NBC)))) |ET| 
-0.51626171878787152635936763545033  |BT| (S (NP (NP (NP (NN venture))(PP (IN of)(NP (DT the)(NNP World)(NNP Wrestling)(NNP Federation)(CC and)(NNP NBC))))(, ,))(VP (VBZ features)(NP (DT some)(JJ former)(NNP NFL)(NNS first-rounders)))) |ET| 
1  |BT| (NP (PRP$ his)(NN division)) |ET| 
-0.67891376542046333320001849642722  |BT| (NP (PRP$ my)(NN grandson)) |ET| 
1  |BT| (NP (NP (NNS Members))(PP (IN of)(NP (DT the)(NN opposition)(JJ Democratic)(NNP Revolution)(NNP Party)))) |ET| 
-0.2671364264821493583745848354738  |BT| (NP (NP (JJS Most))(PP (IN of)(NP (DT the)(JJ civilian)(NNS victims)))) |ET| 
1  |BT| (NP (PRP$ my)(NN party)) |ET| 
-0.6218365632683727772800352795457  |BT| (NP (PRP$ our)(NN organization)) |ET| 
1  |BT| (NP (NP (NN owner))(PP (IN of)(NP (DT the)(NNP Chicago)(NNPS Sun-Times)))) |ET| 
-0.68794568836835068292856476546149  |BT| (NP (NP (NN community))(PP (IN of)(NP (NNS nations)))) |ET| 
1  |BT| (NP (NNP GOP)(NN challenger)) |ET| 
-0.85187716566596694001134437712608  |BT| (NP (NNP Yabloko)(NN faction)) |ET| 
1  |BT| (NP (NP (NN attorney))(PP (IN for)(NP (NNP Copley)))) |ET| 
-0.43912540830638402411523202317767  |BT| (NP (NNP GOP)(NN challenger)(NNP Dick)(NNP Zimmer)) |ET| 
1  |BT| (NP (JJ Libyan)(JJ secret)(NNS agents)) |ET| 
-0.87688457256108642834391275755479  |BT| (NP (JJ Muslim)(JJ religious)(NNS leaders)) |ET| 
1  |BT| (NP (JJ Indonesian)(NN security)(NNS forces)) |ET| 
-0.21348799418576080988430021534441  |BT| (VP (NP (PRP$ their)(NN division)(NN series))(PP (IN against)(NP (NP (DT the)(NNPS Mets))))) |ET| 
1  |BT| (NP (JJ Military)(NNS leaders)) |ET| 
-0.36690189384480520473630349442828  |BT| (NP (JJ European)(NNS countries)) |ET| 
1  |BT| (NNP Dallas) |ET| 
-1  |BT| (NNP Dallas) |ET| 
1  |BT| (NP (PRP$ its)(JJ affiliated)(NNS stations)) |ET| 
-0.82617630301934819048170766109251  |BT| (NP (NP (DT Some))(PP (IN of)(NP (PRP$ its)(JJ affiliated)(NNS stations)))) |ET| 
1  |BT| (NNP Dallas) |ET| 
-1  |BT| (NP (NNP Dallas)(NN suburb)) |ET| 
1  |BT| (NP (NP (NN coach))(PP (IN of)(NP (NP (DT the)(NNPS Patriots))))) |ET| 
-0.44741414330819262445970707631204  |BT| (NP (NP (NN acre))(PP (IN of)(NP (NN land)))) |ET| 
1  |BT| (NP (NNP Ex-Maryland)(NN quarterback)) |ET| 
-0.74898054249706069729342061691568  |BT| (NP (NP (NNP Phillips)(CC and)(NNP Harold))(ROOT (S (NP (NP (NP (NNP Phillips)(CC and)(NNP Harold))(NNP R.)(NNP Evensky)))))) |ET| 
1  |BT| (NP (NP (NN director))(PP (IN of)(NP (NP (NP (DT the)(NNP SEC)(POS 's))(NN division))(PP (IN of)(NP (NN investment)(NN management)))))) |ET| 
-0.075530621410130116544223710661754  |BT| (NP (NP (NN president))(PP (IN of)(NP (NP (NP (NNP Tabasco)(POS 's))(JJ electoral)(NN institute))(PP (IN of)(S (VP (VP (VBG favoring)(NP (DT the)(NNP PRI))))))))) |ET| 
1  |BT| (NP (NNP Bavaria)(NNP Interior)(NNP Minister)) |ET| 
-0.4039839174048660552784895116929  |BT| (NP (NNP Minister)(NNP Thorbjoern)(NNP Jagland)) |ET| 
1  |BT| (NP (NP (NNS officials))(PP (IN of)(NP (DT both)(NNS campaigns)))) |ET| 
-0.51052967946228478002268502677907  |BT| (NP (NP (NNS campaigners))(PP (IN for)(NP (NP (NN equality))(PP (IN of)(NP (DT the)(NNS sexes)))))) |ET| 
1  |BT| (NP (NP (NNP Britain)(POS 's))(ROOT (S (NP (NP (NP (NNP Britain)(POS 's))(NNP High)(NNP Court)))))) |ET| 
-1  |BT| (NP (NP (NNP Gore)(POS 's))(ROOT (S (CC But)(NP (NP (NP (NNP Gore)(POS 's))(NNS surrogates)))))) |ET| 
1  |BT| (NP (NP (NN commander))(PP (IN of)(NP (DT the)(NNP Army)(NNP Material)(NN Command)))) |ET| 
-0.81369896775887140538685571300448  |BT| (NP (PP (NP (NP (NNP John))))(, ,)(NP (NP (NN commander))(PP (IN of)(NP (DT the)(NNP Army)(NNP Material)(NN Command))))) |ET| 
1  |BT| (NNP Border) |ET| 
-0.41151418419916008240022620157106  |BT| (NP (PRP$ its)(JJ neo-communist)(NNS allies)) |ET| 
