SVM-light Version V5.01-TK-1.2
5 # kernel type
3 # kernel parameter -d 
1 # kernel parameter -g 
1 # kernel parameter -s 
1 # kernel parameter -r 
empty# kernel parameter -u 
0.4 # kernel parameter -L 
1 # kernel parameter -T 
T # kernel parameter -C 
1 # kernel parameter -F 
1 # kernel parameter -S 
1.000000 # kernel parameter -D 
3 # kernel parameter -N 
S # kernel parameter -V 
S # kernel parameter -W 
0 # highest feature index 
16237 # number of training documents 
3369 # number of support vectors plus 1 
-0.22432615 # threshold b, each following line is a SV (starting with alpha*y)
-1  |BT| (NP (NNP CAIRO)(, ,)(NNP Egypt)) |ET| 
-1  |BT| (NP (NP (NNP Syria)(POS 's))(ROOT (S (NP (NP (NNP CAIRO)(, ,)(NNP Egypt))(PRN (-LRB- -LRB-)(NP (NNP AP))(-RRB- -RRB-)))(PP (NP (CD _))(IN In)(NP (NP (PRP$ his)(JJ foreign)(NN policy)(NN debut))(PP (IN as)(NP (NP (NNP Syria)(POS 's))(NN president)))))))) |ET| 
-1  |BT| (NP (NNP Egyptian)(NNP President)) |ET| 
-1  |BT| (NP (NP (NNP Assad))(, ,)(PP (IN on)(NP (NP (PRP$ his)(JJ first)(NN trip))(ADVP (RB abroad))))) |ET| 
-1  |BT| (NP (NNP Egyptian)(NNP Foreign)(NNP Minister)) |ET| 
0.058428875198957175296499144678819  |BT| (NP (NN candidate)(NNP Raul)(NNP Ojeda)) |ET| 
1  |BT| (NP (NP (NN everyone))(SBAR (WHNP (WP who))(S (VP (VBZ works)(PP (IN at)(NP (NNP Go))))))) |ET| 
1  |BT| (S (NP (NP (JJ Many))(PP (IN of)(NP (PRP$ his)(JJ Giant)(NNS teammates))))(ADVP (RB hardly))(VP (VBP talk)(PP (TO to)(NP (PRP him))))) |ET| 
0.3294332949453838699227503639122  |BT| (S (NP (NP (NNP CAIRO)(, ,)(NNP Egypt))(PRN (-LRB- -LRB-)(NP (NNP AP))(-RRB- -RRB-)))(PP (NP (CD _))(IN In)(NP (NP (PRP$ his)(JJ foreign)(NN policy)(NN debut))(PP (IN as)(NP (NP (NNP Syria)(POS 's))(NN president)))))) |ET| 
0.27633063420174996949185697303619  |BT| (NP (NNP Egyptian)(NNP President)(NNP Hosni)(NNP Mubarak)) |ET| 
-1  |BT| (NP (NP (NNP Japan)(POS 's))(JJ central)(ROOT (NP (NP (NP (NNP TOKYO))(PRN (-LRB- -LRB-)(NP (NNP AP))(-RRB- -RRB-)))(NP (NP (CD __))(PP (PP (NP (NP (NP (NP (NNP Japan)(POS 's))(JJ central)(NN bank)))))))))) |ET| 
1  |BT| (NP (NP (PRP$ his)(JJ first)(NN trip))(ADVP (RB abroad))) |ET| 
-1  |BT| (NP (NP (NN world)(POS 's))(JJ first)(ROOT (S (NP (NP (NP (NNP CAIRO)(, ,)(NNP Egypt))(PRN (-LRB- -LRB-)(NP (NNP AP))(-RRB- -RRB-)))(PP (NP (CD __)(CD Ten))(IN of)(NP (NP (DT the)(NNP Arab)(NN world)(POS 's))(JJ first)(NNS ladies))))))) |ET| 
0.26499283985309268762975420941075  |BT| (NP (NP (NNP James))(, ,)(NP (NP (DT the)(JJ senior)(NNP U.S.)(NN official)))) |ET| 
-1  |BT| (NP (PRP$ his)(JJ 79-year-old)(NN father)) |ET| 
1  |BT| (NP (NP (NNP Arab)(NN world)(POS 's))(JJ first)(ROOT (S (NP (NP (NP (NNP CAIRO)(, ,)(NNP Egypt))(PRN (-LRB- -LRB-)(NP (NNP AP))(-RRB- -RRB-)))(PP (NP (CD __)(CD Ten))(IN of)(NP (NP (DT the)(NNP Arab)(NN world)(POS 's))(JJ first)(NNS ladies))))))) |ET| 
-1  |BT| (NP (NP (NNP Iran)(POS 's))(JJ only)(JJ Jewish)(ROOT (S (NP (NP (NNP TEHRAN)(, ,)(NNP Iran))(PRN (-LRB- -LRB-)(NP (NNP AP))(-RRB- -RRB-)))(NP-TMP (CD __)(NN N))(NP (NP (NP (NNP Iran)(POS 's))(JJ only)(JJ Jewish)(NN legislator)))))) |ET| 
0.32292700801289903056456864760548  |BT| (S (NP (NN court))(VP (VBD dismissed)(NP (JJ other)(NN corruption)(NNS charges))(PP (IN against)(NP (PRP$ his)(JJ 79-year-old)(NN father))))) |ET| 
-1  |BT| (NP (NP (DT a))(PP (IN in)(NP (NP (CD one))))) |ET| 
1  |BT| (NP (NP (NNP Iran)(POS 's))(JJ only)(ROOT (S (NP (NP (NNP TEHRAN)(, ,)(NNP Iran))(PRN (-LRB- -LRB-)(NP (NNP AP))(-RRB- -RRB-)))(NP-TMP (CD __)(NN N))(NP (NP (NP (NNP Iran)(POS 's))(JJ only)(JJ Jewish)))))) |ET| 
-1  |BT| (NP (NNP CAIRO)(, ,)(NNP Egypt)) |ET| 
0.57860512574841460597951936506433  |BT| (NP (NP (NP (NNP Mercer)))(, ,)(NP (NP (NNS co-chairs))(PP (IN of)(NP (NP (DT the)(ADJP (JJ Ohio-based))(NN investment)(NN firm)))))) |ET| 
-1  |BT| (VP (NP (PP (NP (NP (DT a))(CC and)(NP (NN daughter)))))(PP (IN in)(NP (DT another)))) |ET| 
1  |BT| (NP (NNP Jordan)(, ,)(NNP Egypt)) |ET| 
-1  |BT| (NP (NNP Amman)(, ,)(NNP Jordan)) |ET| 
0.34557587605200584812692454761418  |BT| (S (S (VP (PP (NP (PP (NP (NNP Mubarak)))))))(, ,)(NP (NNP Egyptian)(NNP Foreign)(NNP Minister))) |ET| 
-1  |BT| (S (S (VP (PP (NP (NNP Chicago)))))(, ,)(NP (NP (NNP Herblock)))) |ET| 
0.15975111369877270650619038860896  |BT| (NP (NNP France)(, ,)(NNP Jordan)) |ET| 
-1  |BT| (NP (PP (NP (NNS countries)))(, ,)(PP (VBG including)(NP (NNP Jordan)(, ,)(NNP Egypt)))) |ET| 
-1  |BT| (NP (NP (NNP Kostunica)(POS 's))(ROOT (S (S (NP (NP (NNP Kostunica)(POS 's))(NN team)))))) |ET| 
-1  |BT| (NP (NP (NNP Mexico)(POS 's))(JJ embattled)(VBG ruling)(ROOT (S (NP (NNP VILLAHERMOSA)(, ,)(NNP Mexico)(-LRB- -LRB-)(NNP AP)(-RRB- -RRB-))(PP (NP (CD _))(IN In)(NP (NP (DT an)(JJ important)(NN victory))(PP (IN for)(NP (NP (NP (NNP Mexico)(POS 's))(JJ embattled)(VBG ruling)(NN party))))))))) |ET| 
1  |BT| (NP (PP (NP (NNS countries)))(, ,)(PP (VBG including)(NP (NP (CD one))))) |ET| 
-1  |BT| (S (NP (NNP France)(, ,)(NNP Jordan)(CC and)(NNP Yemen))(VP (VBD sent)(NP (NNS planes)))) |ET| 
0.66800331637767618175871575658675  |BT| (S (NP (NNP VILLAHERMOSA)(, ,)(NNP Mexico)(-LRB- -LRB-)(NNP AP)(-RRB- -RRB-))(PP (NP (CD _))(IN In)(NP (NP (DT an)(JJ important)(NN victory))(PP (IN for)(NP (NP (NP (NNP Mexico)(POS 's))(JJ embattled)(VBG ruling)(NN party))))))) |ET| 
-1  |BT| (NP (NP (CD one))(PP (IN of)(NP (PRP$ his)(NNP Pirate)(NNS teammates)))) |ET| 
0.23942114617038845469920715913759  |BT| (NP (NNP France)(, ,)(NNP Jordan)(CC and)(NNP Yemen)) |ET| 
-1  |BT| (NP (NP (NNP Rodriguez))(CC and)(NP (NN agent)(NNP Scott)(NNP Boras))) |ET| 
0.032254510696639544786723519109728  |BT| (VP (PP (NP (PRP him)))(PRN (, ,)('' '')(S (NP (NP (CD one))(PP (IN of)(NP (PRP$ his)(NNP Pirate)(NNS teammates))))))) |ET| 
-1  |BT| (NP (PRN (-LRB- -LRB-))(ROOT (S (`` ``)(S (NP (PRP We))(VP (VBP 're)(VP (VBN prepared)(, ,)(SBAR (IN if)(S (NP (NN need))(VP (VB be))))(, ,)(S (VP (TO to)(VP (VB take)(NP (PRP$ our)(NN case))(ADVP (RB back))(PP (TO to)(NP (DT the)(NP (PRN (-LRB- -LRB-)(NP (NNP U.S)(. .))(-RRB- -RRB-))(NNP Supreme)(NNP Court))))))))))))) |ET| 
0.31786581293666504866024524744716  |BT| (NP (NN agent)(NNP Scott)(NNP Boras)) |ET| 
-1  |BT| (NP (PP (NP (NNS countries)))(, ,)(PP (VBG including)(NP (NNP Jordan)(, ,)(NNP Egypt)(CC and)(NNP Lebanon)))) |ET| 
0.25866977963911857996137655391067  |BT| (S (`` ``)(S (NP (PRP We))(VP (VBP 're)(VP (VBN prepared)(, ,)(SBAR (IN if)(S (NP (NN need))(VP (VB be))))(, ,)(S (VP (TO to)(VP (VB take)(NP (PRP$ our)(NN case))(ADVP (RB back))(PP (TO to)(NP (DT the)(NP (PRN (-LRB- -LRB-)(NP (NNP U.S)(. .))(-RRB- -RRB-))(NNP Supreme)(NNP Court))))))))))) |ET| 
-1  |BT| (S (NP (NN president))(ADVP (RB rarely))(VP (VBD traveled)(ADVP (RB abroad)))) |ET| 
0.077316846738389441440197913379961  |BT| (S (NP (NNS owners))(VP (VBD conspired)(PP (IN with)(NP (DT the)(NNP U.S.)(NNP Soccer)(NNP Federation))))) |ET| 
-1  |BT| (NP (NP (NNS commissions))(PP (IN with)(NP (JJ key)(NNS countries)))(, ,)(PP (VBG including)(NP (NP (CD one))))) |ET| 
1  |BT| (S (NP (JJ Syrian)(NN president))(ADVP (RB rarely))(VP (VBD traveled)(ADVP (RB abroad)))) |ET| 
-1  |BT| (NP (JJ Syrian)(NN president)) |ET| 
1  |BT| (NP (NP (NNS commissions))(PP (IN with)(NP (JJ key)(NNS countries)))) |ET| 
-1  |BT| (NP (NP (NNS counterparts))(PP (IN in)(NP (JJR more)(JJ liberal)(NNS countries)))) |ET| 
0.23027878058885539735989311793674  |BT| (S (PP (NP (NNP Bernie)))(, ,)(VP (VBD met)(PP (IN at)(NP (NP (NNP Centre)(NNP College))(PP (IN in)(NP (NP (NNP Danville)))))))) |ET| 
-1  |BT| (NP (NP (JJ NICE))(, ,)(NP (NP (NNP France)))) |ET| 
0.77293544639447819832867025979795  |BT| (NP (NP (PRP$ their)(NNS counterparts))(PP (IN in)(NP (JJR more)(JJ liberal)(NNS countries)))) |ET| 
-0.92810609665224452768939045199659  |BT| (NP (PRP$ their)(NNS campaigns)) |ET| 
0.40233798641615803326487821323099  |BT| (NP (NP (NNP Jim))(, ,)(NP (NP (DT a)(JJ first-round)(NN choice))(PP (IN of)(NP (NP (DT the)(NNP San)(NNP Francisco)(NNPS 49ers)))))) |ET| 
-1  |BT| (NP (NP (NNP Steve))(, ,)(NP (NP (NN R)))) |ET| 
0.80093064928221435749833290174138  |BT| (VP (ADVP (NN home))(NP (NP (NNP Wednesday))(PP (IN against)(NP (NNP Nashville))))) |ET| 
-1  |BT| (S (NP (NP (NNS officers))(PP (IN with)(NP (NN sniffer)(NNS dogs))))(VP (VBD searched)(NP (DT the)(NNS premises)))) |ET| 
0.24501368664635492233827562813531  |BT| (NP (NN coach)(NNP Dirk)(NNP Koetter)) |ET| 
-1  |BT| (NP (NP (NNP SEPANG))(, ,)(NP (NP (NNP Malaysia)))) |ET| 
0.071186408886346350111118397308019  |BT| (VP (NP (PRP$ their)(NN session))(SBAR (IN as)(S (NP (NP (NNS police)(NNS officers))(PP (IN with)(NP (NN sniffer)(NNS dogs))))(VP (VBD searched)(NP (DT the)(NNS premises)))))) |ET| 
-1  |BT| (NP (JJ Palestinian)(NN security)(NNS officials)) |ET| 
0.61727518722755458924211779958569  |BT| (NP (PP (NP (NNS neighbors)))(, ,)(PP (VBG including)(NP (NNP France)))) |ET| 
-1  |BT| (NP (PP (NP (NNS countries)))(, ,)(PP (VBG including)(NP (NNP Jordan)))) |ET| 
1  |BT| (NNP Chicago) |ET| 
-1  |BT| (NNP Chicago) |ET| 
0.22965676586065089659349780504272  |BT| (VP (NP (NNS officials))(S (VP (TO to)(VP (VB close)(ADVP (NP (DT the)(JJ preliminary)(NNS results))(RB early))(S (VP (TO to)(VP (VB benefit)(NP (NNP Andrade))))))))) |ET| 
-1  |BT| (VP (PP (NP (VP (PP (NP (PP (NP (NNP Lanviara))))))))(, ,)(PP (IN near)(NP (NNP Korhogo)))) |ET| 
1  |BT| (NP (NN school)(NNS officials)) |ET| 
-1  |BT| (NP (NN school)(NNS officials)) |ET| 
0.18648020839089024525137006094155  |BT| (VP (PP (NP (VP (PP (NP (NP (NN village))(PP (IN of)(NP (NNP Lanviara))))))))(, ,)(PP (IN near)(NP (NNP Korhogo)))) |ET| 
-1  |BT| (NP (NP (NNS supporters))(PP (IN of)(NP (NNP Pinochet)))) |ET| 
1  |BT| (NP (JJ Palestinian)(NN command)(NNS centers)) |ET| 
-1  |BT| (NP (NNP TEHRAN)(, ,)(NNP Iran)) |ET| 
1  |BT| (NP (NP (NNS supporters))(PP (IN of)(NP (NNP Suharto)))) |ET| 
-1  |BT| (NP (NP (CD 10))(PP (IN of)(NP (NP (VBG spying))(PP (IN for)(NP (NNP Israel)))))) |ET| 
0.070597267635662430684817536530318  |BT| (S (NP (NNP TEHRAN)(, ,)(NNP Iran))(NP (NP (NP (NNP Iran))))) |ET| 
-1  |BT| (S (PP (NP (NP (NP (NP (NN everyone)(RB else))))))(NP (PRP he))) |ET| 
0.70448686147679318025893735466525  |BT| (NP (NP (NP (DT The))(PP (IN in)(NP (NNP Aurora))))(, ,)(NP (NP (DT The)(NNP Beacon)(NNP News))(PP (IN in)(NP (NNP Aurora))))(CC and)(NP (NP (DT The)(NNP Herald)(NNP News))(PP (IN in)(NP (NNP Joliet))))) |ET| 
-1  |BT| (NP (NP (NNPS Jews))(PP (IN in)(NP (NNP Iran)))) |ET| 
0.72478652178631475244685589132132  |BT| (VP (PP (NP (PP (NP (NNS owners)))))(PP (IN through)(NP (NP (VBG recording)(NNS houses))))) |ET| 
-1  |BT| (NP (NP (NN WARREN))(, ,)(NP (NP (NP (NNP Mich.))))) |ET| 
0.72549487625725728179304496734403  |BT| (NP (NP (JJ terrorist)(NN attack))(PP (IN in)(NP (NNP Denmark)))) |ET| 
-1  |BT| (NP (JJ Palestinian)(JJ terrorist)) |ET| 
0.0053808798225516152324843233145657  |BT| (NP (NP (NNP Stanley))(, ,)(NP (NP (NN president)))) |ET| 
-1  |BT| (NP (NP (NN president))(PP (IN of)(NP (NNP Russia)))) |ET| 
1  |BT| (NP (JJ Palestinian)(JJ terrorist)) |ET| 
-1  |BT| (NP (JJ Palestinian)(JJ terrorist)(NN base)) |ET| 
1  |BT| (NP (NP (NN city))(PP (IN of)(NP (NNP Korhogo)))) |ET| 
-1  |BT| (NP (NP (NN journalist))(PP (IN in)(NP (NP (DT the)(JJ northern)(NN city))(PP (IN of)(NP (NNP Korhogo)))))) |ET| 
1  |BT| (NP (JJ terrorist)(NN base)) |ET| 
-1  |BT| (NP (NP (JJ Democratic)(NN vice))(NP (NP (JJ presidential)(NN candidate)))) |ET| 
0.096282728227259306574836728032096  |BT| (VP (NP (NN division)(NN series))(PP (IN against)(NP (NP (DT the)(NNPS Mets))(PP (IN in)(NP (NNP San)(NNP Francisco)))))) |ET| 
-1  |BT| (S (NP (PRP He))(VP (VBD admitted)(S (VP (VBG carrying)(PRT (RP out))(NP (NP (DT a)(JJ terrorist)(NN attack))(PP (IN in)(NP (NNP Denmark)))))))) |ET| 
1  |BT| (NP (NP (JJ Democratic)(NN vice))(NP (JJ presidential))) |ET| 
-1  |BT| (NP (JJ Javanese)(NN city)) |ET| 
0.092225273030101223570298429876857  |BT| (S (NP (PRP he))(VP (VP (MD would)(ADVP (RB quickly))(VP (VB give)(PRT (RP up))(NP (NN power))))(, ,)(CC but)(VP (VBZ has)(ADVP (IN since))(VP (VBN exchanged)(NP (PRP$ his)(JJ military)(NN uniform))(PP (IN for)(NP (DT a)(JJ snappy)(NN suit)))))(CC and)(VP (VBD rallied)(NP (JJ several)(JJR smaller)(NNS parties))))) |ET| 
-1  |BT| (NP (NP (NNS protesters))(, ,)(NP (NP (NP (JJ many))))) |ET| 
1  |BT| (NP (NP (JJ Javanese)(NN city))(PP (IN of)(NP (NNP Solo)))) |ET| 
-1  |BT| (NP (NP (NN heart))(PP (IN of)(NP (NNP Jerusalem)))) |ET| 
0.50935818900765483796533317217836  |BT| (ROOT (S (VP (NP (PP (NP (SBAR (S (VP (NP (PRP$ its)(JJ first)(JJ presidential)(NN election))(PP (IN since)(NP (PRP$ its)(NN creation)))(PP (IN in)(NP (CD 1929))))))))))(. .))) |ET| 
-1  |BT| (S (NP (NP (FW Ljeka))(, ,)(NP (CD 29))(, ,))(VP (VBD pulled)(NP (DT a)(NN gun)))) |ET| 
1  |BT| (NP (NP (NN representative))(PP (IN in)(NP (NP (NNP Iran))))) |ET| 
-1  |BT| (NP (NP (NNS centers))(PP (IN of)(NP (NP (NNP Milosevic))))) |ET| 
0.1129985284742693052439932444031  |BT| (S (S (VP (VP (PP (NP (NNS courts))))))(, ,)('' '')(NP (NP (DT an)(NN association))(PP (IN of)(NP (JJ retired)(NN army)(NNS generals))))) |ET| 
-1  |BT| (S (NP (NNP Rutgers))(VP (VBD was)(NP (CD 4-29))(PP (IN in)(S (NP (NNP Big)(NNP East)))))) |ET| 
1  |BT| (NP (NP (NNS Critics))(PP (IN of)(NP (NP (NNP Indonesia))))) |ET| 
-1  |BT| (NP (NP (NN legislature))(PP (IN of)(NP (NP (NNP Serbia))))) |ET| 
0.11179256573059569157546633277889  |BT| (S (NP (NNP Rutgers))(VP (VBD was)(NP (CD 4-29))(PP (IN in)(S (NP (NNP Big)(NNP East))(VP (VB play)(PP (IN during)(NP (NP (NNP Shea))))))))) |ET| 
-1  |BT| (NP (NP (NNP BANDA))(, ,)(NP (NP (NNP Indonesia)))) |ET| 
0.8892169881764617755948165722657  |BT| (S (NP (PRP they))(VP (VBD articulated)(NP (NP (DT the)(NNS positions))(PP (IN of)(NP (PRP$ their)(NNS campaigns)))))) |ET| 
-1  |BT| (S (NP (PRP they))(VP (VP (VBD walked)(PP (IN in)(NP (RB here)))))) |ET| 
0.31163122887377503467121186986333  |BT| (NP (NP (NNP Serbia))(, ,)(NP (NP (NNP Yugoslavia)))) |ET| 
-1  |BT| (NP (NP (CD one))(PP (IN of)(NP (DT the)(NNS prisoners)))) |ET| 
0.25590476929880429102226457871438  |BT| (S (NP (PRP they))(VP (VP (VBD walked)(PP (IN in)(NP (RB here))))(CC and)(VP (VBD found)(NP (DT a)(NN custodian))))) |ET| 
-1  |BT| (NP (NP (NN sheriff)(POS 's))(ROOT (S (`` ``)(S (S (IN So)(NP (PRP they))(VP (VP (VBD walked)(PP (IN in)(NP (RB here))))(CC and)(VP (VBD found)(NP (DT a)(NN custodian)))))(, ,)(CC and)(S (NP (PRP she))(VP (VBD called)(NP (NP (DT some)(JJ other)(NNS people))(SBAR (WHNP (WP who))(S (VP (VBD called)(NP (NP (DT the)(NN sheriff)(POS 's))(NN department)))))))))))) |ET| 
1  |BT| (NP (NP (CD one))(PP (IN of)(NP (NP (NNP Milosevic))))) |ET| 
-1  |BT| (NP (NP (NNP Rania))(PP (IN of)(NP (NP (NNP Jordan))))) |ET| 
1  |BT| (SBAR (WHNP (WP who))(S (VP (VBD called)(NP (NP (DT the)(NN sheriff)(POS 's))(NN department))))) |ET| 
-1  |BT| (SBAR (WHNP (WP who))(S (VP (VBD vandalized)(NP (DT the)(NN tomb))))) |ET| 
1  |BT| (NP (NP (NN market))(PP (IN in)(NP (NP (DT the)(NN heart))(PP (IN of)(NP (NNP Jerusalem)))))) |ET| 
-1  |BT| (NP (NP (NN hamlet))(PP (IN near)(NP (NP (DT the)(NN city))(PP (IN of)(NP (NNP Aosta)))))) |ET| 
1  |BT| (NP (NP (NNP Rochester)(NN journalist))(SBAR (WHNP (WP who)))) |ET| 
-1  |BT| (NP (NP (NNP Yugoslavia)(POS 's))(ADJP (RB newly)(VBN elected))(ROOT (NP (NP (NP (NNP BELGRADE)(, ,)(NNP Yugoslavia))(PRN (-LRB- -LRB-)(NP (NNP AP))(-RRB- -RRB-)))(NP (NP (CD __))(SBAR (S (NP (NP (NNP Slobodan)(NNP Milosevic)(POS 's))(NNS plans)(S (VP (TO to)(VP (VB remain)(ADJP (JJ active))(PP (IN in)(NP (NNS politics)))))))(VP (MD could)(VP (VB spell)(NP (NN trouble))(PP (IN for)(NP (NP (NP (NNP Yugoslavia)(POS 's))(ADJP (RB newly)(VBN elected))(NN president)))))))))))) |ET| 
1  |BT| (NP (NP (NN hamlet))(PP (IN near)(NP (NP (DT the)(NN city))))) |ET| 
-1  |BT| (NP (NP (NN market))(PP (IN in)(NP (NP (DT the)(NN heart))))) |ET| 
0.2199047508552754159882880458099  |BT| (S (NP (NP (NNP Slobodan))(NNS plans)(S (VP (TO to)(VP (VB remain)(ADJP (JJ active))(PP (IN in)(NP (NNS politics)))))))(VP (MD could)(VP (VB spell)(NP (NN trouble))(PP (IN for)(NP (NP (NP (NNP Yugoslavia)(POS 's))(ADJP (RB newly)(VBN elected))(NN president))))))) |ET| 
-1  |BT| (S (NP (NNS players))(VP (VBP have)(S (VP (TO to)(VP (VB drive)(PP (IN by)(NP (NP (PRP it))))))))) |ET| 
1  |BT| (NP (NP (NN bodyguard))(PP (IN of)(NP (NP (DT the)(NN secretary-general))(PP (IN of)(NP (DT the)(NNS organizations)))))) |ET| 
-1  |BT| (NP (NP (CD One))(PP (IN of)(NP (DT those)(JJ difficult-to-dislodge)(NNS judges)))) |ET| 
0.41130196862226492404701616578677  |BT| (VP (PP (NP (NNP Gore)))(S (VP (TO to)(VP (VB delegate)(NP (DT the)(NNS attacks))(PP (TO to)(NP (PRP$ his)(NNS aides))))))) |ET| 
-1  |BT| (VP (NP (NP (NP (SBAR (WHNP (WP who)))))(NNS coaches))(NP-TMP (NP (DT the)(NNP Arizona)(NNPS Rattlers)))) |ET| 
0.17026356297971192987894539783156  |BT| (S (NP (NP (CD One))(PP (IN of)(NP (DT those)(JJ difficult-to-dislodge)(NNS judges))))(VP (VBD was)(NP (NP (NNP John)(NNP Marshall))))) |ET| 
-1  |BT| (NP (NP (NN professor))(PP (IN of)(NP (NP (JJ political)(NN science))(PP (IN at)(NP (NP (NNP Rice)(NNP University))))))) |ET| 
0.23866298941336488992348563442647  |BT| (VP (NP (NP (NP (NP (NP (NNP Dallas)))(SBAR (WHNP (WP who)))))(NNS coaches))(NP-TMP (NP (DT the)(NNP Arizona)(NNPS Rattlers)))) |ET| 
-1  |BT| (S (NP (NNS tourists))(VP (VBP leave)(NP (NP (DT the)(NN country))))) |ET| 
1  |BT| (NP (NP (NN professor))(PP (IN of)(NP (NP (JJ political)(NN science))(PP (IN at)(NP (NP (NNP Rice)(NNP University))(PP (IN in)(NP (NNP Houston)))))))) |ET| 
-1  |BT| (NP (NP (JJ American))(PP (IN of)(NP (NP (JJ Natural)(NN History))(PP (IN in)(NP (NNP New)(NNP York)))))) |ET| 
0.37706569528003897051604553780635  |BT| (S (NP (JJ American)(NNS tourists))(VP (VBP leave)(NP (NP (DT the)(NN country))))) |ET| 
-1  |BT| (S (NP (NNP Jody))(VP (VBD paced)(NP (NNP Ferrari)))) |ET| 
0.87618564296349177311640232801437  |BT| (NP (NP (NN expert))(PP (IN at)(NP (NP (DT the)(JJ American)(NN Museum))(PP (IN of)(NP (NP (JJ Natural)(NN History))(PP (IN in)(NP (NNP New)(NNP York)))))))) |ET| 
-1  |BT| (NP (NP (NN expert))(PP (IN at)(NP (NP (DT the)(JJ American)(NN Museum))(PP (IN of)(NP (NP (JJ Natural)(NN History))))))) |ET| 
1  |BT| (NP (NNP Ferrari)) |ET| 
-1  |BT| (NP (NP (NNP BAGHDAD))(, ,)(NP (NP (NNP Iraq)))) |ET| 
1  |BT| (NP (JJ presidential)(NN candidate)) |ET| 
-1  |BT| (NP (NP (JJ Democratic)(NN vice))(NP (JJ presidential)(NN candidate))) |ET| 
0.19154376770301573262855754364864  |BT| (NP (NNP Kuwait)(, ,)(NNP Lebanon)) |ET| 
-1  |BT| (S (NP (NP (NP (NP (NNS backers))(PP (IN of)(NP (NNP Pinochet))))))(VP (VBP want)(NP (NP (NNP Guzman))(VP (VBN ousted)(PP (IN from)(NP (DT the)(NN case)))))(, ,)(S (VP (VBG claiming)(SBAR (S (NP (PRP he))(VP (VBZ has)(VP (VBN acted)(PP (IN in)(NP (NP (DT an)(ADJP (JJ arbitrary)(CC and)(JJ irregular))(NN manner))(SBAR (WHNP (IN that))(S (VP (VBZ violates)(NP (NP (NNP Pinochet)))))))))))))))) |ET| 
0.13839901358222927996166617958806  |BT| (NP (NP (JJ Democratic)(NN vice))(NP (NP (JJ presidential)(NN candidate))(NP (NNP Joseph)(NNP Lieberman)))) |ET| 
-1  |BT| (NP (JJ presidential)(NN palace)) |ET| 
1  |BT| (NP (NP (NNS activists))(PP (IN in)(NP (NP (NNP Indonesia))))) |ET| 
-1  |BT| (S (S (VP (NP (VP (NP (NP (PP (NP (NNP San)))))))))(, ,)(NP (NNP Calif.))) |ET| 
0.33684943123896954331186748277105  |BT| (NP (NP (NN police)(NNS raids))(PP (IN of)(NP (NP (DT an)(JJ alleged)(JJ Palestinian)(JJ terrorist))))) |ET| 
-1  |BT| (NP (NP (NN biologist))(PP (IN at)(NP (NP (DT the)(NNP University))(PP (IN of)(NP (NNP North)(NNP Carolina)))))) |ET| 
0.37322697334511389932742986275116  |BT| (S (S (S (VP (NP (NN ambassador)))))(, ,)('' '')(NP (NN commission)(NN chairman))) |ET| 
-1  |BT| (NP (NP (NNP FRANKFURT))(, ,)(NP (NP (NNP Germany)))) |ET| 
1  |BT| (NP (NP (NN marketplace))(PP (IN for)(NP (NN small-business)))) |ET| 
-1  |BT| (NP (NP (JJ many))(PP (IN in)(NP (DT the)(NNP Kostunica)(NN camp)))) |ET| 
1  |BT| (NP (NP (NNP North))(, ,)(NP (NP (NNP Germany)))) |ET| 
-1  |BT| (NP (NP (NNP AUSTIN))(, ,)(NP (NP (NNP Texas)))) |ET| 
1  |BT| (NP (NP (NN son))(PP (IN of)(NP (NN ex-dictator)))) |ET| 
-1  |BT| (S (X (NP (NP (NN son))(PP (IN of)(NP (NN ex-dictator)))))(NP (NNP Suharto))) |ET| 
0.06490584049630199192648660755367  |BT| (S (NP (NNP BROWNSVILLE)(, ,)(NNP Texas)(-LRB- -LRB-)(NNP AP)(-RRB- -RRB-))(PP (NP (CD __))(IN In)(NP (NN speech)))(PP (IN after)(NP (NN speech)))(, ,)(NP (NNP Mexico))) |ET| 
-1  |BT| (NP (JJ American)(NNS tourists)) |ET| 
0.32622967164239502491085431756801  |BT| (NP (PP (NP (NN region)))(, ,)(PP (VBG including)(NP (DT the)(VBG raging)(NNP Po)(NNP River)))) |ET| 
-1  |BT| (NP (NP (NNP NABLUS))(, ,)(NP (NP (NNP West)(NNP Bank)))) |ET| 
0.55769835332975015163015086727683  |BT| (NP (JJ American)(NNS people)) |ET| 
-1  |BT| (VP (PP (NP (NNS teachers)(, ,)(NNS students)(CC and)(NNS parents)))(PP (IN during)(NP (NP (DT a)(NN photo)(NN opportunity))(PP (IN at)(NP (NP (PRP$ his)(NN residence))))))) |ET| 
0.075641475885611736407199146015046  |BT| (NP (NP (JJ Palestinian)(NN representative))(, ,)(NP (NNP Nasser)(NNP Al-Kidwa))) |ET| 
-1  |BT| (NP (NP (NNP CONYERS))(, ,)(NP (NNP Ga))) |ET| 
0.36085965789062862674185794276127  |BT| (NP (NP (PRP$ His)(JJ leftist)(NN coalition)(NNS controls))(NP (NP (CD 46))(PP (IN of)(NP (NP (CD 178)(NNS seats))(PP (IN in)(NP (DT the)(JJ federal)(NN parliament))))))) |ET| 
-1  |BT| (S (NP (NP (NNS Enforcers))(, ,)(PP (IN with)(NP (NP (DT the)(JJ last)(NN pick))(PP (IN of)(NP (DT the)(JJ first)(NN round)))))(, ,))(VP (VBD nabbed)(S (VP (VBG running)(PRT (RB back))(NP (NP (NNP John)(NNP Avery))))))) |ET| 
1  |BT| (NP (NP (NNP Russia))(, ,)(NP (NNP Egypt))) |ET| 
-1  |BT| (S (NP (VP (PP (NP (PP (NP (NP (PP (NP (NNS people))))))))))(VP (VBN opposed)(PP (TO to)(NP (DT the)(NNS sanctions)))(PP (IN from)(NP (NP (NNP Russia))(, ,)(NP (NNP Egypt)))))) |ET| 
0.36987386560368706867052424058784  |BT| (S (NP (NP (NNS Enforcers))(, ,)(PP (IN with)(NP (NP (DT the)(JJ last)(NN pick))(PP (IN of)(NP (DT the)(JJ first)(NN round)))))(, ,))(VP (VBD nabbed)(S (VP (VBG running)(PRT (RB back)))))) |ET| 
-1  |BT| (NP (NP (NNP Nixon))(, ,)(VP (VBN drawn)(PP (IN with)(NP (NN deep-set))))(, ,)(NP (JJ malevolent)(NNS eyes))(, ,)(NP (NP (CD five)(RB o'clock))(NP (NP (NN shadow))(CC and)(NP (PRN (, ,)(SBAR (WHADVP (WRB when))(S (NP (PRP he))(VP (VBD was)(NP (NP (NN vice)(NN president))(PP (IN in)(NP (NP (NNP Eisenhower)(POS 's))(NN administration)))))))))))) |ET| 
0.22827570699097496365048698407918  |BT| (NP (NP (NN plaintiff))(PP (IN against)(NP (NNP Pinochet)))) |ET| 
-1  |BT| (VP (PP (NP (PP (NP (PP (NP (PP (NP (NN area)))))))))(PP (IN at)(NP (NP (NNP Heritage)(NNP High)(NNP School))))) |ET| 
0.16806961236984188645671167705586  |BT| (S (NP (NNS hitters))(ADVP (RB sometimes))(VP (VBP wallow)(PP (IN through)(NP (DT a)(NN slump)))(SBAR (IN as)(S (NP (PRP$ their)(NN team)))))) |ET| 
-1  |BT| (S (NP (NP (NNP Carnahan))(, ,)(NP (NP (DT a)(NNP Democrat))(SBAR (WHNP (WP who))(S (VP (VBD was)(VP (VBG running)(PP (IN for)(NP (DT the)(NNP Senate))))))))(, ,))(VP (VBD campaigned)(PP (IN with)(NP (NNP Gore))))) |ET| 
0.933157374252030491490472741134  |BT| (VP (PP (NP (PP (NP (PP (NP (NP (NNS students))(PP (IN in)(NP (DT a)(JJ common)(NN area)))))))))(PP (IN at)(NP (NP (NNP Heritage)(NNP High)(NNP School))))) |ET| 
-1  |BT| (NP (NP (NNS students))(PP (IN in)(NP (DT a)(JJ common)(NN area)))) |ET| 
0.65430338287758349480327524361201  |BT| (SBAR (WHADVP (WRB where))(S (NP (DT a)(JJ black)(NN man))(VP (VBD was)(VP (VBN dragged)(PP (TO to)(NP (PRP$ his)(NN death)))(PP (IN from)(NP (DT a)(NN pickup)(NN truck))))))) |ET| 
-1  |BT| (NP (PP (NP (PP (NP (NNP Persian)))))(, ,)(PP (JJ such)(IN as)(NP (JJ conservative)(NNP Saudi)(NNP Arabia)))) |ET| 
1  |BT| (NP (NP (NN rifle))(PP (IN on)(NP (NP (NNS hundreds))(PP (IN of)(NP (NP (NNS students))(PP (IN in)(NP (DT a)(JJ common)(NN area)))))))) |ET| 
-1  |BT| (NP (NP (NN park))(PP (IN in)(NP (NP (DT the)(NN shadow))(PP (IN of)(NP (DT an)(NN oil)(NN refinery)))))) |ET| 
0.36997228584019037356256376369856  |BT| (NP (NP (NNP Mich.))(PRN (-LRB- -LRB-)(NP (NNP AP))(-RRB- -RRB-))(SBAR (S (NP (NP (NP (CD _))(NP (DT A)(NN drug)(NN suspect)))(VP (VBG being)(VP (VBN booked)(PP (IN at)(NP (NN police)(NN headquarters))))))))) |ET| 
-1  |BT| (S (NP (PRP He))(VP (VBD traveled)(PP (TO to)(NP (NNP Houston))))) |ET| 
0.29029699988411644673291789331415  |BT| (S (NP (NNP Szczaranski))(VP (VBZ has)(VP (VBN been)(VP (VBN criticized)(PP (IN by)(NP (NNP Pinochet)(NNS supporters)))(PP (IN in)(NP (NNP Congress))))))) |ET| 
-1  |BT| (S (NP (NP (NNP Solomon))(, ,)(NP (RB then)(CD 15))(, ,))(VP (VBD opened)(NP (NN fire))(PP (IN with)(NP (NP (DT a)(JJ sawed-off)(NN rifle))(PP (IN on)(NP (NP (NNS hundreds))(PP (IN of)(NP (NP (NNS students))(PP (IN in)(NP (DT a)(JJ common)(NN area))))))))))) |ET| 
0.064118311097398905662458901133505  |BT| (S (NP (NNP United))(VP (VBD announced)(NP (NNS plans))(NP-TMP (DT this)(NN fall))(S (VP (TO to)(VP (VB step)(PRT (RP up))(NP (NN border))))))) |ET| 
-1  |BT| (VP (VP (NP (PP (NP (SBAR (WHNP (WP who))(S (VP (VBD was)(VP (VBN married)))))))))(CC and)(VP (VBD had)(NP (CD two)(JJ young)(NNS daughters)))) |ET| 
0.27846609306810676809362803396652  |BT| (S (NP (NP (NNP Solomon))(, ,)(NP (RB then)(CD 15))(, ,))(VP (VBD opened)(NP (NN fire))(PP (IN with)(NP (NP (DT a)(JJ sawed-off)(NN rifle))(PP (IN on)(NP (NP (NNS hundreds))(PP (IN of)(NP (NP (NNS students)))))))))) |ET| 
-1  |BT| (S (NP (NP (NNS Representatives))(PP (IN of)(NP (NP (NNP Rally))(PP (IN of)(NP (DT the)(NNPS Republicans))))))(VP (VBD set)(PRT (RP out))(PP (IN on)(NP (NP (NNS motorbikes)))))) |ET| 
0.39156312589419983716254591854522  |BT| (VP (NP-TMP (JJ official)(NNP Thursday))(PP (IN at)(NP (NP (DT a)(NN panel))(VP (VBN sponsored)(PP (IN by)(NP (DT a)(NN fund)(NN shareholder))))))) |ET| 
-1  |BT| (S (PP (PP (NP (NN shuttle))))(, ,)(NP (NNP Michael)(NNP Lopez-Alegria))) |ET| 
0.55198842263439162891813793976326  |BT| (S (NP (NP (NNS Representatives))(PP (IN of)(NP (NP (NNP Rally))(PP (IN of)(NP (DT the)(NNPS Republicans))))))(VP (VBD set)(PRT (RP out))(PP (IN on)(NP (NP (NNS motorbikes))(NP-TMP (NNP Saturday))(S (VP (TO to)(VP (VB urge)(NP (NP (NNS villagers))(PP (IN in)(NP (NP (DT the)(NN party)))))))))))) |ET| 
-1  |BT| (NP (NP (NN party)(POS 's))(JJ northern)(ROOT (S (NP (NP (NNS Representatives))(PP (IN of)(NP (NP (NNP Rally))(PP (IN of)(NP (DT the)(NNPS Republicans))))))(VP (VBD set)(PRT (RP out))(PP (IN on)(NP (NP (NNS motorbikes))(NP-TMP (NNP Saturday))(S (VP (TO to)(VP (VB urge)(NP (NP (NNS villagers))(PP (IN in)(NP (NP (DT the)(NN party)(POS 's))(JJ northern)(NN stronghold))))))))))))) |ET| 
1  |BT| (S (NP (PRP He))(ADVP (RB instead))(VP (VBD sent)(NP (DT a)(JJ legal)(NN team)))) |ET| 
-1  |BT| (S (NP (NNP Schumacher))(VP (VBZ has)(NP (NP (DT a)(NN contract))(PP (IN with)(NP (DT the)(JJ Italian)(NN team)))))) |ET| 
1  |BT| (S (NP (NP (NNS Representatives))(PP (IN of)(NP (NP (NNP Rally))(PP (IN of)(NP (DT the)(NNPS Republicans))))))(VP (VBD set)(PRT (RP out))(PP (IN on)(NP (NP (NNS motorbikes))(NP-TMP (NNP Saturday))(S (VP (TO to)(VP (VB urge)(NP (NP (NNS villagers))(PP (IN in)(NP (NP (DT the)(NN party)(POS 's))(JJ northern)(NN stronghold))))))))))) |ET| 
-1  |BT| (NP (NNS people)(S (VP (TO to)(VP (VB fill)(NP (JJ low-skilled)(NNS jobs))(PP (IN in)(NP (NNS farms))))))) |ET| 
0.37968215605175426041739683569176  |BT| (NP (NN coach)(NNP Ron)(NNP Meyer)) |ET| 
-1  |BT| (NP (NP (NN bodyguard))(PP (IN of)(NP (NP (DT the)(NN secretary-general))))) |ET| 
1  |BT| (NP (NNP Texas)(NNP Gov)) |ET| 
-1  |BT| (NP (NNP Texas)(NNP Gov)) |ET| 
1  |BT| (NP (NP (NN president))(PP (IN of)(NP (NP (NN government))))) |ET| 
-1  |BT| (NP (NP (NN president))(PP (IN of)(NP (NP (NN government)(NNS affairs))(PP (IN for)(NP (NNP ExciteAtHome)))))) |ET| 
0.93001127284816820228741107712267  |BT| (NP (NP (NNS women))(PP (IN in)(NP (NP (DT some)(NNS parts))(PP (IN of)(NP (DT the)(NNP Persian)(NNP Gulf)))))(, ,)(PP (JJ such)(IN as)(NP (JJ conservative)(NNP Saudi)(NNP Arabia)))) |ET| 
-1  |BT| (NP (NP (NN chairman))(PP (IN of)(NP (DT the)(NNP SEC)))) |ET| 
0.081340960642063864227679914620239  |BT| (SBAR (S (NP (NNP SEC))(VP (VBD had)(RB not)(VP (VBN applied)(NP (JJ similar)(NNS rules))(PP (TO to)(NP (DT the)(ADJP (QP ($ $)(QP (CD 7)(CD trillion))))(JJ mutual)(NN fund)(NN industry))))))) |ET| 
-1  |BT| (S (NP (NNP Lieberman))(ADVP (RB also))(VP (VBD was)(VP (VBG traveling)(PP (TO to)(NP (NNP Baltimore)))))) |ET| 
1  |BT| (NP (NP (NN state))(PP (IN of)(NP (NNP Texas)))) |ET| 
-1  |BT| (NP (NN state)(NN representative)) |ET| 
1  |BT| (NP (NP (NN government)(NNS affairs))(PP (IN for)(NP (NNP ExciteAtHome)))) |ET| 
-0.21093779772691118035155000143277  |BT| (NP (NP (NNS parts))(PP (IN of)(NP (NNP Yugoslavia)))) |ET| 
0.70611014163425456224842946539866  |BT| (S (PP (NP (NN state)(NN law)))(NP (PRP he))) |ET| 
-1  |BT| (SBAR (WHADVP (WRB where))(S (NP (PRP he)))) |ET| 
1  |BT| (NP (NP (NN campus))(PP (IN of)(NP (NNP Washington)(NNP University)))) |ET| 
-1  |BT| (VP (NP (NP (NN acre))(PP (IN of)(NP (NN land))))(PP (IN about)(NP (NP (DT a)(NN mile))(PP (IN from)(NP (NP (NP (DT the)(NNS Broncos)(POS '))(NN training)(NN camp))))))) |ET| 
0.46049818272204373625910989176191  |BT| (SBAR (WHADVP (WRB where))(S (NP (PRP he)))) |ET| 
-1  |BT| (SBAR (WHADVP (WRB where))(S (NP (PRP he)))) |ET| 
0.30963818684301536166003643302247  |BT| (FRAG (NP (PP (NP (NN Palestinian))))(S (NP (JJ Israeli)))) |ET| 
-1  |BT| (VP (PP (NP (PP (NP (PP (NP (PRP$ its)(NN merger)))))))(PP (IN with)(NP (NNP Time)(NNP Warner)))) |ET| 
1  |BT| (NP (NNP Pinochet)) |ET| 
-1  |BT| (NP (NP (ADJP (ADJP (NNP Washington))(: -)))(VP (VBN based)(NP (NP (NNP Center))(PP (IN for)(NP (NNP Immigration)(NNPS Studies)))))) |ET| 
0.56897967430898988006049421528587  |BT| (S (NP (NNP Taliban))(VP (VBD took)(NP (NP (NN control))(PP (IN of)(NP (NP (NNP Afghanistan)(POS 's))(JJ central)(NNP Bamyan)(NN province)))))) |ET| 
-1  |BT| (S (PP (NP (PP (NP (NN state)))))(NP (NNP Senate))) |ET| 
1  |BT| (NP (NP (NNS members))(PP (IN of)(NP (DT the)(NNP Milosevic)))) |ET| 
-1  |BT| (NP (NP (NNS parts))(PP (IN of)(NP (DT the)(NNP Persian)(NNP Gulf)))) |ET| 
0.9825784627931908321585297017009  |BT| (S (X (NP (PP (NP (NN ex-dictator)))))(NP (NNP Suharto))) |ET| 
-1  |BT| (NP (NP (PP (NP (SBAR (S (NP (NN anyone)))))))(, ,)(ADVP (RB even))(NP (NP (DT those)))) |ET| 
0.49110373156518338788600885891356  |BT| (NP (NP (NNP Jon))(, ,)(NP (NP (NN vice)(NN president)))) |ET| 
-1  |BT| (NP (NP (NN base))(PP (IN for)(NP (NP (JJ low-fare)(NNS carriers))))) |ET| 
1  |BT| (NP (NNP BELGRADE)(, ,)(NNP Yugoslavia)) |ET| 
-1  |BT| (NP (NNP BELGRADE)(, ,)(NNP Yugoslavia)) |ET| 
1  |BT| (NP (NP (NN chairman))(PP (IN for)(NP (NP (NNP Jeb)(NNP Bush))))) |ET| 
-1  |BT| (NP (NP (PP (NP (NP (NNP National))(PP (IN for)(NP (NNP Public)(NNP Policy))))))(CC and)(NP (NP (JJR Higher)(NN Education))(PP (IN in)(NP (NNP San)(NNP Jose))))) |ET| 
1  |BT| (NP (PRP$ its)(NN population)) |ET| 
-1  |BT| (NP (PRP$ its)(NN coach)) |ET| 
0.75350370941242050815134234653669  |BT| (S (NP (NP (PP (NP (NNP Serbia))))(, ,)(NP (NNP Milan)(NNP Milutinovic))(, ,))(VP (VBZ is)(NP (NP (CD one))(PP (IN of)(NP (NP (NNP Milosevic)(POS 's))(JJS closest)(NNS cronies)))))) |ET| 
-1  |BT| (NP (NP (NNP Bush)(POS 's))(ROOT (S (NP (NP (DT That))(SBAR (S (VP (VBD was)(NP (NP (DT a)(NN reference))(PP (TO to)(NP (NP (JJ former)(NNP Vice)(NNP President)(NNP Dan)(NNP Quayle))(, ,)(SBAR (WHNP (WP who))(S (VP (VBD was)(VP (VBN renowned)(PP (IN for)(NP (PRP$ his)(JJ verbal))))))))))))))(VP (VBZ slips)(SBAR (IN while)(S (VP (VBG serving)(PP (IN under)(NP (NP (NNP Bush)(POS 's))(NN father)))))))))) |ET| 
0.079470415008615180596507343580015  |BT| (SBAR (WHNP (WDT which))(S (ADVP (RB recently))(VP (VBD announced)(SBAR (S (NP (PRP$ its)(NN coach))))))) |ET| 
-1  |BT| (S (NP (NNP JAKARTA))(, ,)(X (NP (NP (NNP Indonesia))))) |ET| 
1  |BT| (NP (NP (NP (NNP Bush)(POS 's))(NN favor))(PP (IN in)(NP (NNP Seminole)))) |ET| 
-1  |BT| (S (NP (SBAR (S (VP (NP (PP (NP (SBAR (WHNP (WP who))(S (VP (VBD was)(VP (VBN renowned)(PP (IN for)(NP (PRP$ his)(JJ verbal))))))))))))))(VP (VBZ slips)(SBAR (IN while)(S (VP (VBG serving)(PP (IN under)(NP (NP (NNP Bush)(POS 's))(NN father)))))))) |ET| 
0.32348647836934946164788584610505  |BT| (NP (NP (NNP Montenegro))(, ,)(NP (NP (NNP Yugoslavia)))) |ET| 
-1  |BT| (NP (NP (NNP Montenegro))(, ,)(NP (DT the)(JJR smaller)(JJ Yugoslav))) |ET| 
0.090151965968064753931265897790581  |BT| (S (NP (NNP Parkhurst))(ADVP (RB later))(VP (VBD merged)(PP (IN with)(NP (NP (DT another)(NN company)))))) |ET| 
-1  |BT| (S (S (VP (SBAR (S (VP (PP (NP (NNP Washington))))))))(: -)(S (S (VP (VBN based)(S (NP (NNP AT&T)(NNP Wireless))))))) |ET| 
0.91621388822188210010466491439729  |BT| (NP (NP (NP (NNP Socialist))(NNP Party))(PP (IN of)(NP (NP (NNP Montenegro))(, ,)(NP (DT the)(JJR smaller)(JJ Yugoslav))))) |ET| 
-1  |BT| (NP (NP (NP (NNP Socialist))(NNP Party))(PP (IN of)(NP (NP (NNP Montenegro))))) |ET| 
0.13971049345371977512542116528493  |BT| (S (S (VP (SBAR (S (VP (PP (NP (NNP Redmond)(, ,)(NNP Washington))))))))(: -)(S (S (VP (VBN based)(S (NP (NNP AT&T)(NNP Wireless))))))) |ET| 
-1  |BT| (SBAR (WHNP (WDT which))(S (VP (VBZ runs)(SBAR (S (NP (DT the)(CD two)(VBG leading)(JJ messaging)(NNS services))(VP (VBP __)(SBAR (S (NP (NN ICQ)(CC and)(NN AIM))(VP (VBP _)(PP (IN with)(NP (QP (CD 140)(CD million))(NNS users)))))))))))) |ET| 
1  |BT| (NP (NP (NN state))(PP (IN of)(NP (NP (NNP Florida))))) |ET| 
-1  |BT| (SINV (VP (PP (NP (NP (NN director))(PP (IN of)(NP (NNP Road)(CC &)(NNP Track))))))(NP (NP (NN magazine)))) |ET| 
1  |BT| (NP (PP (NP (NP (NNP Germany)(POS 's))(NNS neighbors)))(, ,)(PP (VBG including)(NP (NNP France)))) |ET| 
-1  |BT| (NP (NP (PP (NP (NNP Matamoros))))(, ,)(NP (NNP Mexico))) |ET| 
1  |BT| (SINV (VP (PP (NP (NP (NN director))(PP (IN of)(NP (NNP Road)(CC &)(NNP Track))))))(NP (NP (NN magazine))(PP (IN in)(NP (NNP Newport)(NNP Beach))))) |ET| 
-1  |BT| (NP (NP (NN oasis))(PP (IN of)(NP (NP (NN stability))(PP (IN amid)(NP (NP (DT the)(NN unrest))(SBAR (WHNP (WDT that))(S (VP (VBZ plagues)(NP (NP (RB much))(PP (IN of)(NP (NNP West)(NNP Africa)))))))))))) |ET| 
0.2907945669383228404214492002211  |BT| (NP (NP (NNP Chicago))(NP (NP (JJ former)(NN head)(NN coach)))) |ET| 
-1  |BT| (VP (NP (NP (PP (NP (NN group)))))(PP (IN for)(NP (NN state)(NN utility)(NN labor)(NNS unions)))) |ET| 
1  |BT| (NP (NP (NP (NNP Rosalinda))(PP (IN of)(NP (VBG neighboring)(NNP Matamoros))))(, ,)(NP (NNP Mexico))) |ET| 
-1  |BT| (NP (NP (NNP Rosalinda))(PP (IN of)(NP (VBG neighboring)(NNP Matamoros)))) |ET| 
0.86942723741005167870099512583693  |BT| (NP (NN state)(NN utility)(NN labor)(NNS unions)) |ET| 
-1  |BT| (NP (NP (NNP Chicago))(NP (JJ favorite))) |ET| 
1  |BT| (NP (NP (NN group))(PP (IN of)(NP (NN area)))) |ET| 
-1  |BT| (NP (NP (NN secretary))(PP (IN of)(NP (NN state)))) |ET| 
0.72422803876750929674699364113621  |BT| (VP (PP (NP (NNP Matamoros)))(PP (TO to)(NP (NNP North)(NNP Carolina)))) |ET| 
-1  |BT| (NP (NNP Bush)(NNP Cabinet)) |ET| 
1  |BT| (NP (NP (NN wife))(PP (IN of)(NP (JJ Egyptian)))) |ET| 
-1  |BT| (NP (NP (NN wife))(PP (IN of)(NP (JJ Egyptian)(NNP President)(NNP Hosni)(NNP Mubarak)))) |ET| 
0.33333032027909481609384556577425  |BT| (NP (NP (NNP Chicago))(NP (JJ favorite)(NNP Dick)(NNP Butkus))) |ET| 
-1  |BT| (NNP North) |ET| 
1  |BT| (NP (JJ Egyptian)(NNP President)(NNP Hosni)(NNP Mubarak)) |ET| 
-1  |BT| (NP (JJ Egyptian)(NNP President)) |ET| 
1  |BT| (NNP North) |ET| 
-1  |BT| (S (NP (NNP Snyder))(VP (MD will)(VP (NP (NN coach)(NNP Arizona)(NNP State))))) |ET| 
1  |BT| (NP (NP (NN wife))(PP (IN of)(NP (JJ Egyptian)(NNP President)))) |ET| 
-1  |BT| (NP (NP (NN wife))(PP (IN of)(NP (NNP Patrick)(NNP Roy)))) |ET| 
0.058021232247752768662607536498399  |BT| (S (NP (NNP Lieberman))(ADVP (RB also))(VP (VBD was)(VP (VBG traveling)(PP (TO to)(NP (NNP Baltimore)))(ADVP (RB later))(PP (PP (IN in)(NP (DT the)(NN day)(S (VP (TO to)(VP (VB attend)(NP (NNP Democratic)(NNP Party)(NNS fund-raisers)))))))(CC and)(PP (ADVP (RB then))(TO to)(NP (NP (NNP New)(NNP York))(PP (IN for)(NP (NP (DT an)(NN appearance))(NP-TMP (NNP Thursday))(PP (IN on)(NP (DT the)(JJ daytime)(NN talk-show)))))(`` ``)(NP (NP (NNP Live))(PP (IN With)(NP (NNP Regis))))(, ,)('' '')(VP (VBN followed)(PP (IN by)(NP (DT a)(NN speech)))(PP (TO to)(NP (NP (DT the)(NN League))(PP (IN of)(NP (NNP Conservation)(NNPS Voters)))))))))))) |ET| 
-1  |BT| (SBAR (WHADVP (WRB where))(S (NP (DT the)(NNS bomblets)))) |ET| 
1  |BT| (NP (NNP SEC)(NNP East)) |ET| 
-1  |BT| (NP (VP (SBAR (S (VP (SBAR (S (VP (VP (VP (PP (NP (NN leader))))))))))))(PP (IN of)(NP (DT a)(NN minority)(NN government)))) |ET| 
1  |BT| (VP (NP (NN area))(SBAR (WHADVP (WRB where))(S (NP (DT the)(NNS bomblets))))) |ET| 
-1  |BT| (S (NP (NNS surrogates))(, ,)(PP (VBG including)(NP (NP (NNS members))))) |ET| 
0.63213722641544378699762773976545  |BT| (S (NP (NNS officers))(VP (VBD carried)(PRT (RP out))(NP (JJ random)(NN identification)(NNS checks))(, ,)(S (VP (VBG looking)(PP (IN for)(NP (NN separatist)(NNS leaders))))))) |ET| 
-1  |BT| (VP (PP (NP (NP (NN center))))(PP (IN in)(NP (NP (NNP North)(NNP Rhine-Westphalia))))) |ET| 
1  |BT| (S (NP (NNS surrogates))(, ,)(PP (VBG including)(NP (NP (NNS members))(PP (IN of)(NP (NNP Congress)))))) |ET| 
-1  |BT| (NP (NP (NNS members))(PP (IN of)(NP (NNP Congress)))) |ET| 
0.1705548782874483915161789582271  |BT| (VP (PP (NP (NN campaign)))(: :)(NP (NP (NP (NNP Bill)(NNP DeWitt))))) |ET| 
-1  |BT| (NP (NN area)(NNS voters)) |ET| 
1  |BT| (NP (NP (NNS members))(PP (IN of)(NP (DT a)(NNP Bush)(NNP Cabinet)))) |ET| 
-1  |BT| (S (NP (NNS members))(VP (VBD raised)(NP (QP (IN at)(JJS least)($ $)(CD 100,000)))(PP (IN for)(NP (NP (NNP Bush)(POS 's))(NN campaign)))(: :)(NP (NP (NP (NNP Bill)(NNP DeWitt)))))) |ET| 
1  |BT| (NP (NP (NN group))(PP (IN of)(NP (NN area)(NNS voters)))) |ET| 
-1  |BT| (NP (NP (NN head))(PP (IN of)(NP (DT the)(NNP Democratic)(NNP Party)))) |ET| 
1  |BT| (S (NP (NN committee)(NNS members))(VP (VBD raised)(NP (QP (IN at)(JJS least)($ $)(CD 100,000)))(PP (IN for)(NP (NP (NNP Bush)(POS 's))(NN campaign)))(: :)(NP (NP (NP (NNP Bill)(NNP DeWitt)))))) |ET| 
-1  |BT| (NP (PRP$ his)(NN group)) |ET| 
1  |BT| (NNP Arizona) |ET| 
-1  |BT| (NNP Arizona) |ET| 
1  |BT| (NP (PRP$ his)(NN country)) |ET| 
-1  |BT| (NP (PRP$ his)(NN country)(NN house)) |ET| 
0.10835336802228012764715003868332  |BT| (S (NP (NNP Mark))(VP (VBD told)(NP (DT the)(NNP New)(NNP York)(NNP State)(NNP Parole)(NNP Board))(PP (IN at)(NP (DT a)(JJ closed)(NN hearing)))(PP (IN at)(NP (NP (DT the)(JJ Attica)(NN state)(NN prison)))))) |ET| 
-1  |BT| (S (NP (PRP He))(ADVP (RB later))(VP (VP (VBD quit)(S (VP (TO to)(VP (VB spend)(NP (NP (DT a)(NN year))(VP (VBG traveling)(PP (IN in)(NP (NNP Europe))))))))))) |ET| 
1  |BT| (NP (NN country)(NN house)) |ET| 
-1  |BT| (NP (NN government)(NN spokesman)) |ET| 
1  |BT| (NP (NP (NN base))(PP (IN for)(NP (NP (JJ low-fare)(NNS carriers))(VP (VBG operating)(PP (IN in)(NP (NNP Britain))))))) |ET| 
-1  |BT| (NP (NP (NN president))(PP (IN at)(NP (NNP AOL)))) |ET| 
0.76582745554727837955510949541349  |BT| (SINV (VP (NP (NNP Israeli)))(NP (NN government)(NN spokesman))) |ET| 
-1  |BT| (S (NP (NNP Wahid))(VP (VBD made)(NP (DT an)(JJ official)(NN visit))(PP (TO to)(NP (NNP Cuba))))) |ET| 
0.98071467023051184241921873763204  |BT| (NP (NNP State)(NNP Senate)(NNS candidates)) |ET| 
-1  |BT| (NP (NNP State)(NNP Senate)) |ET| 
0.073504992248828032730401105254714  |BT| (S (NP (NNP George))(VP (MD will)(VP (VB be)(NP (NN president))))) |ET| 
-1  |BT| (S (NP (NN minister))(VP (MD must)(VP (VB be)(NP (NNP Montenegrin))))) |ET| 
1  |BT| (NP (NNP Texas)(NNP Senate)) |ET| 
-1  |BT| (NP (NNP Texas)(NNP Senate)) |ET| 
0.090651777701049235380637014714011  |BT| (S (NP (PRP He))(VP (VBD obtained)(NP (DT a)(JJ fake)(JJ Moroccan)))) |ET| 
-1  |BT| (NP (NP (NN state))(PP (IN in)(NP (DT the)(NN country)))) |ET| 
0.3098705895354459394219759360567  |BT| (NP (NNP President)(NNP Wahid)) |ET| 
-1  |BT| (NP (NNP Russian)(NNP President)) |ET| 
1  |BT| (NP (NP (NN taxiway))(PP (IN at)(NP (NP (DT the)(NN airport))))) |ET| 
-1  |BT| (NP (NP (CD 54))(VP (VBG attending)(NP (NP (NP (JJ four-year)(JJ public)(NNS institutions)))))) |ET| 
1  |BT| (NP (NP (NNS wells))(PP (IN in)(NP (NN state)))) |ET| 
-1  |BT| (NP (NP (NNS members))(PP (IN of)(NP (NN congress)))) |ET| 
1  |BT| (S (NP (PP (NP (NNS undergraduates))))(VP (VBP __)(NP (NP (CD 54)(NN percent))(VP (VBG attending)(NP (NP (NP (JJ four-year)(JJ public)(NNS institutions)))))))) |ET| 
-1  |BT| (S (NP (PP (NP (NNS undergraduates))))(VP (VBP __)(NP (NP (CD 54)(NN percent))))) |ET| 
1  |BT| (NP (NP (NN regime))(PP (IN of)(NP (NNP Yugoslav)(NNP President)))) |ET| 
-1  |BT| (NP (NP (NN regime))(PP (IN of)(NP (NNP Yugoslav)(NNP President)(NNP Slobodan)(NNP Milosevic)))) |ET| 
0.013472536496230723412903529379037  |BT| (S (NP (NNP Iraq))(VP (MD must)(VP (VB eliminate)(NP (NP (PRP$ its)(NNS weapons)))))) |ET| 
-1  |BT| (NP (PRP$ its)(NNS weapons)) |ET| 
0.67364451814961578968166122649563  |BT| (NP (NNP Yugoslav)(NNP President)(NNP Slobodan)(NNP Milosevic)) |ET| 
-1  |BT| (NP (NNP Yugoslav)(NNP President)(NNP Vojislav)(NNP Kostunica)) |ET| 
1  |BT| (NP (PRP$ its)(NNS competitors)) |ET| 
-1  |BT| (SBAR (WHNP (WP who))(S (VP (VBD failed)(S (VP (TO to)(VP (VB produce)(NP (NP (DT a)(VBG winning)(NN season))(PP (IN in)(NP (NP (CD four-plus)(NNS years))(PP (IN at)(NP (NNP Rutgers)))))))))))) |ET| 
0.041163080568606014164600992444321  |BT| (NP (NP (NNP Joe))(, ,)(NP (NP (DT a)(JJ senior)(NN editor))(PP (IN at)(NP (NNP Road)(CC &)(NNP Track))))) |ET| 
-1  |BT| (S (NP (NNP Lieberman))(VP (MD will)(VP (VB be)(VP (VBN dispatched)(PP (TO to)(NP (NP (NP (NNP Texas))))))))) |ET| 
0.43862463058143186245274591783527  |BT| (NP (NP (NN candidate))(VP (VBN given)(NP-TMP (NN time))(PP (IN at)(NP (NP (DT the)(NN debate)(POS 's))(NN start)(S (VP (TO to)(VP (VB say)(NP (DT a)(JJ few)(NNS words))(PP (IN about)(NP (NP (NNP Carnahan))))))))))) |ET| 
-1  |BT| (NP (NP (NNP Cory))(, ,)(SBAR (WHNP (WP who))(S (VP (VBD was)(PP (IN at)(NP (NP (DT a)(NN team)))))))) |ET| 
0.14534360250691874538730985477741  |BT| (S (NP (NNP General))(VP (MD would)(VP (VB condemn)(`` ``)(NP (NP (DT the)(JJ excessive)(NN use))(PP (IN of)(NP (NN force))))(PP (IN by)(NP (DT the)(JJ Israeli)(JJ occupying)(NNS forces)))))) |ET| 
-1  |BT| (SINV (VP (PP (NP (PP (NP (NNP Road))))))(NP (NP (NN magazine))(PP (IN in)(NP (NNP Newport)(NNP Beach))))) |ET| 
1  |BT| (SBAR (WHNP (WP who))(S (VP (VBD was)(PP (IN at)(NP (NP (DT a)(NN team))))))) |ET| 
-1  |BT| (NP (NNP Florida)(NNP Supreme)(NNP Court)) |ET| 
1  |BT| (NP (NP (NN librarian))(PP (IN of)(NP (NNP Congress)))) |ET| 
-1  |BT| (NP (NP (NNP Iran)(POS 's))(JJ 290-seat)(ROOT (SINV (`` ``)(S (NP (PRP I))(VP (VBP call)(PP (IN on)(NP (NP (DT the)(JJ Muslim)(JJ religious)(NNS leaders))(CC and)(NP (NP (DT the)(NNS officials))(PP (IN of)(NP (DT the)(NN judiciary)(S (VP (TO to)(VP (VB pay)(NP (JJR more)(NN attention))(PP (TO to)(NP (NP (DT the)(NNS rights))(PP (IN of)(NP (JJ non-Muslim)(NNS families)))))(ADVP (IN as)(RB far)(SBAR (IN as)(S (NP (NP (NNS issues))(PP (JJ such)(IN as)(NP (NP (NN blood)(NN money))(CC and)(NP (NP (DT the)(NNS verdicts))(PP (IN of)(NP (DT the)(NNS courts)))))))(VP (VBP are)(ADJP (VBN concerned))))))))))))))))(, ,)('' '')(VP (VBD said))(NP (NP (NNP Maurice)(NNP Motamed))(, ,)(NP (NP (DT the)(JJ sole)(JJ Jewish)(NN representative))(PP (IN in)(NP (NP (NNP Iran)(POS 's))(JJ 290-seat)(NN parliament)))))))) |ET| 
0.22123035235782426144446333182714  |BT| (S (NP (PP (NP (NNS undergraduates))))(VP (VBP __)(NP (NP (CD 54)(NN percent))(VP (VBG attending)(NP (NP (NP (JJ four-year)(JJ public)(NNS institutions))(, ,)(NP (NP (CD 27)(NN percent))(PP (IN at)(NP (JJ four-year)(JJ private)(NNS schools)))))(, ,)(NP (NP (CD 17)(NN percent))(PP (IN at)(NP (JJ two-year)(NN community)(NNS colleges))))(CC and)(NP (NP (CD 1)(NN percent))(PP (IN at)(NP (JJ private)(JJ two-year)(NNS schools))))))))) |ET| 
-1  |BT| (S (S (VP (PP (NP (NP (NN state))))))(: -)(S (VP (VP (VB run)(NP (NP (NN power)(NN company))))))) |ET| 
0.29849753449683502637412857438903  |BT| (NP (NNPS Patriots)(CC and)(NNPS Colts)) |ET| 
-1  |BT| (S (NP (NP (NNP University))(PP (IN of)(NP (NNP Oklahoma))))(VP (VBD won)(NP (DT the)(NNP Orange)(NNP Bowl))(ADVP (RB there)))) |ET| 
0.23508458078771185539856958257587  |BT| (S (S (VP (NP (NN gun))(ADVP (IN out)(PP (IN of)(NP (PRP$ his)(NNS pants))(NP-TMP (NNP Wednesday))))(NP-TMP (NN night))))(CC and)(S (NP (NP (NN shot)(NN Detective))))) |ET| 
-1  |BT| (S (NP (PP (NP (NNP Egypt))))(, ,)(PP (IN for)(NP (NN example)))(, ,)(NP (JJ avid)(NN campaigning))(VP (VBD helped)(S (NP (NNS women))(VP (VB reverse)(NP (NP (NNS laws))(SBAR (WHNP (WDT that))(S (VP (VBD prevented)(NP (PRP them))(PP (IN from)(S (VP (VP (VBG obtaining)(NP (NN divorce)))(CC and)(VP (VBG traveling)(ADVP (RB abroad))(PP (IN without)(NP (NP (PRP$ their)(NNS husbands)))))))))))))))) |ET| 
1  |BT| (NP (NP (NNP Vojislav))(PP (IN in)(NP (NNP Belgrade)))) |ET| 
-1  |BT| (NP (NP (NN group))(PP (IN in)(NP (NNP Yugoslavia)))) |ET| 
0.79014084709358933800160684768343  |BT| (S (NP (NNP Colorado)(NNS players))(VP (VBD showed)(NP (JJ unified)(NN support))(PP (IN for)(NP (NNP Roy))))) |ET| 
-1  |BT| (S (NP (NNP Syria)(CC and)(NNP Egypt))(VP (VBD were)(VP (VBG planning)(S (VP (TO to)(VP (VB send)(NP (NNS planes)))))))) |ET| 
1  |BT| (NP (NP (NN quarterback))(SBAR (WHADVP (WRB when))(S (NP (NP (DT the)(NNP University))(PP (IN of)(NP (NNP Oklahoma))))(VP (VBD won)(NP (DT the)(NNP Orange)(NNP Bowl))(ADVP (RB there)))))) |ET| 
-1  |BT| (NP (NP (NN quarterback))(SBAR (WHADVP (WRB when))(S (NP (NP (DT the)(NNP University))(PP (IN of)(NP (NNP Oklahoma))))))) |ET| 
1  |BT| (S (NP (NNP Yemen))(VP (VBD sent)(NP (NNS planes))(PP (TO to)(NP (NNP Baghdad))))) |ET| 
-1  |BT| (S (NP (NP (NN plant))(VP (VBG belonging)(PP (TO to)(NP (DT the)(NN firm)))))(VP (VBZ has)(ADVP (RB already))(VP (VBN been)(VP (VBN sold)(PP (TO to)(NP (NP (DT a)(NN consortium)))))))) |ET| 
1  |BT| (NP (NP (NN group))(PP (IN of)(NP (NNS economists)))) |ET| 
-1  |BT| (VP (VP (PP (NP (NP (NNS supporters))(PP (IN of)(NP (NNP Bush))))))(CC and)(VP (VBG running)(NP (NN mate)(NNP Dick)(NNP Cheney)))) |ET| 
0.51133703434820376720892909361282  |BT| (S (NP (VP (PP (NP (NN firm)))))(VP (VBZ has)(ADVP (RB already))(VP (VBN been)(VP (VBN sold)(PP (TO to)(NP (NP (DT a)(NN consortium)))))))) |ET| 
-1  |BT| (S (NP (NNS men))(VP (VBD died)(ADVP (RB later))(PP (IN at)(NP (DT a)(NN hospital))))) |ET| 
0.52486081422602648416386728058569  |BT| (NP (NN mate)(NNP Dick)(NNP Cheney)) |ET| 
-1  |BT| (NP (PRP$ its)(NNS suburbs)) |ET| 
0.30709509755859581980885764096456  |BT| (NP (NP (NN league))(, ,)(NP (NP (DT a)(JJ joint)(NN venture))(PP (IN of)(NP (DT the)(NNP World)(NNP Wrestling)(NNP Federation))))) |ET| 
-1  |BT| (NP (NP (NN director))(PP (IN of)(NP (NP (NP (DT the)(NNP SEC)(POS 's))(NN division))(PP (IN of)(NP (NN investment)(NN management)))))) |ET| 
0.72483981135245456606241987174144  |BT| (NP (NP (NNP St.))(CC and)(NP (PRP$ its)(NNS suburbs))) |ET| 
-1  |BT| (SBAR (WHADVP (WRB where))(S (NP (PRP he))(VP (VBD was)(NP (DT a)(JJ former)(NN assistant))))) |ET| 
1  |BT| (NP (NP (NNP Germany)(POS 's))(ROOT (S (NP (NP (JJ Many))(PP (IN of)(NP (NP (NNP Germany)(POS 's))(NNS neighbors))))))) |ET| 
-1  |BT| (NP (NP (JJ Many))(PP (IN of)(NP (NP (NNP Germany)(POS 's))(NNS neighbors)))) |ET| 
0.12284160298868548877315731715498  |BT| (S (NP (NP (NNS ministers))(VP (VBG meeting)(PP (IN in)(NP (NNP Berlin)))))(VP (VBD delayed)(NP (DT a)(NN decision))(PP (IN on)(S (VP (VBG seeking)(NP (DT a)(NN ban))(PP (IN before)(NP (NP (NNP Germany))))))))) |ET| 
-1  |BT| (NP (NP (NNP Security))(SBAR (S (NP (JJ fact-finding)(NN team))))) |ET| 
1  |BT| (NP (NP (NN airline))(PP (IN in)(NP (NP (NNS terms))(PP (IN of)(NP (NN passenger)))))) |ET| 
-1  |BT| (NP (NP (NN community))(PP (IN in)(NP (NP (DT the)(NNP Middle)(NNP East))))) |ET| 
0.72872087056639767155274967080913  |BT| (SBAR (WHADVP (WRB where))(S (NP (NNP Michele)(NNP Roy)))) |ET| 
-1  |BT| (SBAR (WHADVP (WRB where))(S (NP (PRP he)))) |ET| 
0.81023974783696983692493631679099  |BT| (NP (NP (JJ Jewish)(NN community))(PP (IN in)(NP (NP (DT the)(NNP Middle)(NNP East))))) |ET| 
-1  |BT| (NP (NP (NNP Belgrade)(POS 's))(ADJP (RB newly)(VBN installed))(ROOT (S (NP (NP (NNP WASHINGTON))(PRN (-LRB- -LRB-)(NP (NNP AP))(-RRB- -RRB-)))(S (NP (CD _))(S (VP (VBG Celebrating)(NP (NP (DT the)(JJ political)(NN rebirth))(PP (IN of)(NP (NP (DT the)(NNS people))(PP (IN of)(NP (NNP Serbia)))))))))(, ,)(NP (NNP President)(NNP Clinton))(VP (VBD lifted)(NP (NP (JJ key)(NN trade))(CC and)(NP (JJ economic)(NNS sanctions)))(S (VP (TO to)(VP (VB demonstrate)(NP (NN support)(PRT (IN for))(NP (NP (NNP Belgrade)(POS 's))(ADJP (RB newly)(VBN installed))(NN government)))))))))) |ET| 
0.62075491325620513194394334277604  |BT| (NP (NP (NNP Bush))(CC and)(NP (PRP$ his)(NN wife))) |ET| 
-1  |BT| (SBAR (WHADVP (WRB where))(S (NP (DT a)(JJ black)(NN man)))) |ET| 
0.1107950267926267606810597499134  |BT| (S (NP (JJ pro-Indonesian)(NNS militias))(VP (VBP continue)(S (VP (TO to)(VP (VB attack)(NP (NNS peacekeepers))))))) |ET| 
-1  |BT| (NP (NP (NNP Florida))(CC and)(NP (NP (NNP Pennsylvania)(CD __)(NN N))(PP (IN among)(NP (NP (DT the)(NN tossup)(NNS states)))))) |ET| 
0.057546308549717734015516157342063  |BT| (VP (NP (PRP$ his)(NN role))(PP (IN in)(NP (NP (NNS attacks))(PP (IN against)(NP (NNP Israel)))))) |ET| 
-1  |BT| (S (NP (PP (NP (NNP Egypt))))(, ,)(PP (IN for)(NP (NN example)))(, ,)(NP (JJ avid)(NN campaigning))(VP (VBD helped)(S (NP (NNS women))))) |ET| 
0.95145728009933638880113448976772  |BT| (NP (NP (NNP Kostunica)(POS 's))(JJ 18-party)(NN opposition)(ROOT (S (CC And)(PP (IN with)(NP (NP (NP (NNP Kostunica)(POS 's))(JJ 18-party)(NN opposition)(NN block))))))) |ET| 
-1  |BT| (NP (NNP Yugoslav)(NNP President)) |ET| 
0.31256407708887606888836785401509  |BT| (S (NP (PP (NP (NNP Egypt))))(, ,)(PP (IN for)(NP (NN example)))(, ,)(NP (JJ avid)(NN campaigning))(VP (VBD helped)(S (NP (NNS women))(VP (VB reverse)(NP (NP (NNS laws))(SBAR (WHNP (WDT that))(S (VP (VBD prevented)(NP (PRP them)))))))))) |ET| 
-1  |BT| (VP (NP (PP (NP (NNP Denmark))))(PP (IN in)(NP (NP (CD 1985))(SBAR (WHNP (WDT that))(S (VP (VBD killed)(NP (DT a)(JJ Jewish)(JJ civilian)))))))) |ET| 
1  |BT| (NP (NNP Yugoslav)(NNP President)) |ET| 
-1  |BT| (S (NP (PRP they))(VP (VBD were)(ADVP (RB here)))) |ET| 
0.41133779580386725660545721439121  |BT| (S (NP (NNS Officers))(VP (VBD responded)(PP (TO to)(NP (DT the)(CD 911)(NN hang-up)(NN call)))(PP (IN at)(NP (NP (NNP Roy)(POS 's))(NN residence)))(, ,)(SBAR (WHADVP (WRB where))))) |ET| 
-1  |BT| (NP (NP (NNP Egypt)(POS 's))(ROOT (S (NP (NP (NNP Queen)(NNP Rania))(PP (IN of)(NP (NP (NNP Jordan))(, ,)(NP (NP (NP (NNP Egypt)(POS 's))(NNP Suzanne)(NNP Mubarak))))))))) |ET| 
0.99464594466447520115792713113478  |BT| (VP (ADVP (RB here))(ADVP (RB together))) |ET| 
-1  |BT| (SBAR (WHNP (WP who))(S (VP (VBD went)(PP (IN from)(NP (NNP Matamoros)))(PP (TO to)(NP (NNP North)(NNP Carolina)))(S (VP (TO to)(VP (VB work)(PP (IN in)(NP (NN soybean)(NNS fields))))))))) |ET| 
0.31459900409817537214607341411465  |BT| (S (NP (SBAR (S (VP (VP (PP (ADVP (NP (NN source))(RB close)))(PP (TO to)(NP (DT the)(NN school))))))))(VP (VBD told)(NP (DT The)(NNP Associated)(NNP Press)))) |ET| 
-1  |BT| (NP (NP (NNP Nixon))(, ,)(VP (VBN drawn)(PP (IN with)(NP (NN deep-set))))(, ,)(NP (JJ malevolent)(NNS eyes))(, ,)(NP (NP (CD five)(RB o'clock))(NP (NP (NN shadow))(CC and)(NP (PRN (, ,)(SBAR (WHADVP (WRB when))(S (NP (PRP he))(VP (VBD was)(NP (NP (NN vice)(NN president))(PP (IN in)(NP (NP (NNP Eisenhower)(POS 's))(NN administration)))))))(, ,))(PP (IN with)(NP (NP (DT a)(JJ bloodstained)(NN hatchet)))))))) |ET| 
0.071591088971762667503284660597274  |BT| (NP (NP (NNP Jeanne))(PP (IN of)(NP (NNP Texas)))(, ,)(SBAR (WHNP (WP who))(S (VP (VP (VBZ has)(VP (VBN raised)(NP (NP (NN money))(PP (IN for)(NP (NNP Bush)))))))))) |ET| 
-1  |BT| (NP (NP (NNP President)(NNP Vojislav)(NNP Kostunica))(PP (IN in)(NP (NNP Belgrade)))) |ET| 
0.05183049956115544365520264591396  |BT| (S (NP (JJ Australian)(NN jellyfish))(VP (VBP have)(ADVP (RB now))(VP (ADVP (RB mostly))(VBD died)(PRT (RP off))(PP (IN in)(NP (DT the)(NNP Gulf)))))) |ET| 
-1  |BT| (NP (NP (NNP Eisenhower)(POS 's))(ROOT (S (NP (JJ Few)(NNP Herblock)(NNS targets))(, ,)(ADVP (RB however))(, ,)(VP (VBD were)(ADVP (IN as))(VP (VBN favored)(PP (IN as)(NP (NP (NNP Nixon))(, ,)(VP (VBN drawn)(PP (IN with)(NP (NN deep-set))))(, ,)(NP (JJ malevolent)(NNS eyes))(, ,)(NP (NP (CD five)(RB o'clock))(NP (NP (NN shadow))(CC and)(NP (PRN (, ,)(SBAR (WHADVP (WRB when))(S (NP (PRP he))(VP (VBD was)(NP (NP (NN vice)(NN president))(PP (IN in)(NP (NP (NNP Eisenhower)(POS 's))(NN administration)))))))))))))))))) |ET| 
0.11562241844103424148748615607474  |BT| (NP (NNP President)(NNP Salvador)(NNP Allende)) |ET| 
-1  |BT| (NP (NNP Mexico)(NNP President)) |ET| 
1  |BT| (NP (NP (NN democrat))(PP (IN in)(NP (NNP Yugoslavia)))) |ET| 
-1  |BT| (SINV (VP (VP (PP (NP (NNP Stansted)))))(NP (NP (NN airport))(, ,)(NP (NP (NN northeast))(PP (IN of)(NP (NNP London)))))) |ET| 
1  |BT| (NP (NN neighbor)(NNP Mexico)) |ET| 
-1  |BT| (NP (NNP Republican)(NNP Dick)(NNP Cheney)) |ET| 
0.34871084332822577245281081559369  |BT| (NP (NP (NNP Nixon))(, ,)(VP (VBN drawn)(PP (IN with)(NP (NN deep-set))))(, ,)(NP (JJ malevolent)(NNS eyes))(, ,)(NP (NP (CD five)(RB o'clock))(NP (NP (NN shadow))(CC and)(NP (PRN (, ,)(SBAR (WHADVP (WRB when))(S (NP (PRP he))))))))) |ET| 
-1  |BT| (S (NP (NN campaign))(, ,)(PP (VBG according)(PP (TO to)(NP (NNS aides))))) |ET| 
0.65295981415760384614088707166957  |BT| (S (NP (NNP Republican)(NNP Mike)(NNP Rogers))(VP (VBD was)(VP (VBG leading)(NP (NP (NNP Democrat)(NNP Dianne)(NNP Byrum)))))) |ET| 
-1  |BT| (NP (NN state)(NNP Sen.)) |ET| 
1  |BT| (S (NP (NNP Gore)(NN campaign))(, ,)(PP (VBG according)(PP (TO to)(NP (NNS aides))))) |ET| 
-1  |BT| (NP (NNP Rochester)(NN journalist)) |ET| 
0.6228725830883867775611406614189  |BT| (S (NP (NNP Snyder))(VP (VBD was)(VP (VBN fired)(SBAR (IN after)(S (NP (PRP$ his)(NNS teams))))))) |ET| 
-1  |BT| (S (NP (NNP Russia)(, ,)(NNP France)(, ,)(NNP Jordan)(CC and)(NNP Yemen))(VP (VBD sent)(NP (NNS planes)))) |ET| 
1  |BT| (NP (NNP Tabasco)(NN state)) |ET| 
-0.79972441625023882316725121199852  |BT| (NP (NNP Gore)(NN campaign)) |ET| 
0.013153198953773981294546047138283  |BT| (NP (NP (NNS counterparts))(PP (IN in)(NP (JJR more)(JJ liberal)(NNS countries)))(, ,)(PP (VBG including)(NP (NNP Jordan)(, ,)(NNP Egypt)))) |ET| 
-1  |BT| (S (ADVP (RB LONGBOAT))(S (NP (NN KEY)(, ,)(NNP Fla.)))) |ET| 
1  |BT| (NP (NNP Bush)(NN campaign)(NNS officials)) |ET| 
-1  |BT| (S (NP (NNP Ivanov))(VP (VBD was)(PP (IN in)(NP (NP (NNP Yugoslavia)))))) |ET| 
0.72595114701904039922197853229591  |BT| (ROOT (S (VP (VP (VP (PP (NP (NP (PRP$ his)(JJ disjointed)(NN description))(PP (IN of)(NP (NP (PRP$ his)(NN tax)(NN plan))(PP (IN on)(NP (NNP Saturday))))))))))(. .))) |ET| 
-1  |BT| (SBAR (WHNP (WDT which))(S (VP (VBZ has)(VP (VBN been)(VP (VBN dominated)(PP (IN by)(NP (NP (DT the)(NN nation)(POS 's))(NN president)))))))) |ET| 
0.62500354053533035969536513221101  |BT| (S (NP (PRP he))(VP (VBD was)(NP (NP (NN vice)(NN president))(PP (IN in)(NP (NP (NNP Eisenhower)(POS 's))(NN administration)))))) |ET| 
-1  |BT| (NP (NP (PRP$ his)(NN base))(PP (IN on)(NP (NP (DT The)(NNP Washington)(NNP Post))))) |ET| 
0.64419578883604067254253777718986  |BT| (NP (PP (NP (NNP PRI)))(, ,)(SBAR (WHNP (WDT which))(S (VP (VBZ has)(VP (VBN been)(VP (VBN dominated)(PP (IN by)(NP (NP (DT the)(NN nation)(POS 's))(NN president))))))))) |ET| 
-1  |BT| (VP (PP (NP (NNP Shaw)))(, ,)(PP (NP (CD 50)(NNS miles))(IN from)(SBAR (WHADVP (WRB where))))) |ET| 
0.094461308475263808248634234132624  |BT| (NP (NNP Sen.)(NNP Ellen)(NNP Anderson)) |ET| 
-1  |BT| (NP (NNP Democrat)(NNP Dianne)(NNP Byrum)) |ET| 
1  |BT| (VP (PP (NP (NNP Shaw)))(, ,)(PP (NP (CD 50)(NNS miles))(IN from)(SBAR (WHADVP (WRB where))(S (NP (PRP$ his)(NN wife)))))) |ET| 
-1  |BT| (NP (NP (NNP Britain)(POS 's))(JJ top)(NN law)(NN enforcement)(ROOT (SINV (`` ``)(S (NP (PRP It))(VP (VBZ is)(NP (NP (DT a)(NN reform))(SBAR (WHNP (WDT which))(S (, ,)(PP (IN in)(NP (PRP$ my)(JJ personal)(NN view)))(, ,)(VP (VP (VBZ is)(ADJP (RB long)(JJ overdue)))(CC and)(VP (VBZ is)(ADVP (RB only))(ADJP (JJ right)(PP (IN for)(NP (NP (DT a)(NN country))(SBAR (WHNP (WDT that))(S (VP (VP (VBZ has)(NP (NP (DT a)(NN history))(PP (IN of)(NP (NN reform)))))(CC and)(VP (JJ challenging)(NP (NN prejudice))))))))))))))))(, ,)('' '')(VP (VBD said))(NP (NP (NNP Home)(NNP Secretary)(NNP Jack)(NNP Straw))(, ,)(NP (NP (NNP Britain)(POS 's))(JJ top)(NN law)(NN enforcement)(NN officer)))))) |ET| 
1  |BT| (NP (NNP Democrat)(NNP Al)(NNP Gore)) |ET| 
-1  |BT| (NP (NNP Democrat)(NNP Al)(NNP Gore)) |ET| 
1  |BT| (NP (NP (NN vice))(PP (IN in)(NP (NP (NNP Eisenhower)(POS 's))(NN administration)))) |ET| 
-1  |BT| (NP (NP (NNS wells))(PP (IN in)(NP (NN state)(NNS waters)))) |ET| 
1  |BT| (NP (NNP Senate)(NN district)) |ET| 
-1  |BT| (NP (NNP Milosevic)(NN regime)) |ET| 
1  |BT| (NP (NN state)(NNS prosecutors)) |ET| 
-1  |BT| (SBAR (WHADVP (WRB where))(S (NP (QP (RB about)(CD 30))(NNS students)))) |ET| 
1  |BT| (NP (NP (NNS weapons))(PP (IN in)(NP (NP (NNS churches))))) |ET| 
-1  |BT| (NP (NP (NP (NNS stations)))(PP (IN in)(NP (NNP Oklahoma)))) |ET| 
0.25269925173549534491712620365433  |BT| (VP (ADVP (NN home))(PP (TO to)(NP (DT a)(JJ Jewish)(JJ seminary)))(, ,)(SBAR (WHADVP (WRB where))(S (NP (QP (RB about)(CD 30))(NNS students))))) |ET| 
-1  |BT| (VP (ADVP (NN home))(PP (TO to)(NP (DT a)(JJ Jewish)(JJ seminary)))) |ET| 
1  |BT| (NNP Oklahoma) |ET| 
-1  |BT| (NNP Oklahoma) |ET| 
0.69991216001324652040693763410673  |BT| (SINV (S (VP (VB Go)))(VP (VBZ is)(VP (VBN based)(PP (IN at)(NP (NNP Stansted)))))(NP (NP (NN airport))(, ,)(NP (NP (NN northeast))(PP (IN of)(NP (NNP London)))))) |ET| 
-1  |BT| (NP (NP (NN member))(PP (IN of)(NP (NP (NNP Suharto)(POS 's))(NN family)))) |ET| 
1  |BT| (NP (NNP Stars)(NN center)) |ET| 
-1  |BT| (NP (NP (NNP Tampa))(, ,)(NP (NNP Fla))) |ET| 
-0.12220822415709714503506688743073  |BT| (NP (PRP$ her)(NN husband)) |ET| 
-1  |BT| (S (NP (NN officer))(VP (VBD was)(VP (VBG booking)(NP (PRP him))(PP (IN at)(NP (NN police)(NN headquarters)))))) |ET| 
0.23745694119512045228148622300068  |BT| (NP (NP (NP (NNP Gore)(POS 's))(NN press)(NN secretary))(, ,)(NP (NNP Chris)(NNP Lehane))) |ET| 
-1  |BT| (NP (NP (NNS ladies))(PP (IN of)(NP (NP (NNP Bahrain)(, ,)(NNP Comoros)(, ,)(NNP Egypt)(, ,)(NNP Jordan))))) |ET| 
0.77244864621958675421353746060049  |BT| (S (NP (NN officer))(VP (VBD was)(VP (VBG booking)(NP (PRP him))(PP (IN at)(NP (NN police)))))) |ET| 
-1  |BT| (S (NP (NN BA))(VP (VBD set)(PRT (RP up))(S (VP (VB Go))))) |ET| 
0.54630822218424213154719382146141  |BT| (NP (NNP Bahrain)(, ,)(NNP Comoros)(, ,)(NNP Egypt)(, ,)(NNP Jordan)) |ET| 
-1  |BT| (VP (VBN IMUnified)(, ,)(NP (NP (NN coalition))(VP (VBN formed)(PP (IN by)(NP (NP (NNP AT&T)(, ,)(NNP ExciteAtHome)(, ,)(NNP Microsoft))))))) |ET| 
0.25469752555905478264008934274898  |BT| (S (NP (NNS parents))(VP (VBD were)(PP (IN of)(NP (`` ``)(NP (JJ Ivorian)))))) |ET| 
-0.87191754642132424102385357400635  |BT| (NP (NNP Bush)(NN campaign)) |ET| 
0.51918584805013001659546034716186  |BT| (NP (NP (NNP Supreme))(VP (VBG favoring)(NP (NNP Democrat)(NNP Al)(NNP Gore)))) |ET| 
-1  |BT| (NP (NP (JJS most))(VP (VBG representing)(NP (NP (NNS unions))(CC and)(NP (JJ political)(NNS parties))))) |ET| 
0.63480854582979984179758048412623  |BT| (S (NP (NN BA))(VP (VBD set)(PRT (RP up))(S (VP (VB Go)(SBAR (WHADVP (WRB when))(S (NP (JJR smaller)(NNS rivals)))))))) |ET| 
-1  |BT| (VP (NP (PRP him))(PP (IN at)(NP (NN police)))) |ET| 
0.42593117415026671146449643856613  |BT| (SBAR (WHNP (WP who))(S (VP (VBD was)(VP (VBG running)(PP (IN for)(NP (DT the)(NNP Senate))))))) |ET| 
-1  |BT| (VP (PP (NP (NNS people)))(, ,)(S (NP (JJS most)))) |ET| 
1  |BT| (VP (NP (PRP him))(PP (IN at)(NP (NN police)(NN headquarters)))) |ET| 
-1  |BT| (S (NP (PRP he))(VP (VBD was)(PP (IN under)(NP (NP (NN house)(NN arrest))(PP (IN in)(NP (NNP London))))))) |ET| 
0.45455854646718407696681651941617  |BT| (NP (NP (NP (NN investor)))(: ;)(CC and)(NP (NP (NNP Florida)(NN developer)))) |ET| 
-1  |BT| (SBAR (WP$ whose)(S (NP (NNS candidates)))) |ET| 
1  |BT| (NP (NP (NN tribunal))(PP (IN in)(NP (DT The)(NN Hague)))) |ET| 
-1  |BT| (S (NP (VP (VP (PP (NP (NN headquarters))))))(VP (VP (VBD shot)(NP (DT a)(NN veteran)(NN detective))))) |ET| 
1  |BT| (SBAR (WP$ whose)(S (NP (NNS breadwinners)))) |ET| 
-1  |BT| (NP (NP (NNS families))(SBAR (WP$ whose)(S (NP (NNS breadwinners))))) |ET| 
0.99274106464993638887506222090451  |BT| (S (NP (VP (VP (PP (NP (NN police)(NN headquarters))))))(VP (VP (VBD shot)(NP (DT a)(NN veteran)(NN detective))))) |ET| 
-0.93272628827489223457547495854669  |BT| (NP (NN police)(NN headquarters)) |ET| 
1  |BT| (NP (NP (NNS families))(SBAR (WP$ whose))) |ET| 
-1  |BT| (NP (NP (NNP Yugoslavia)(POS 's))(JJ dominant)(ROOT (S (PP (IN Despite)(NP (NP (JJ massive))(SBAR (S (VP (VBZ defeats)(PP (IN in)(NP (NP (DT the)(JJ presidential)(NN ballot))(CC and)(NP (JJ local)(NN council)(NNS elections)))))))))(, ,)(NP (DT the)(NNPS Socialists))(ADVP (RB still))(VP (VBP have)(NP (NP (DT a)(NN majority))(PP (IN in)(NP (NP (DT the)(NN state)(NN legislature))(PP (IN of)(NP (NP (NNP Serbia))(, ,)(NP (NP (NNP Yugoslavia)(POS 's))(JJ dominant)(NN republic))))))))))) |ET| 
1  |BT| (NP (NN family)(NN man)) |ET| 
-1  |BT| (NP (NNP Tabasco)(NNP Gov.)) |ET| 
0.68980154485248523776874662871705  |BT| (NP (NP (NNP Senate)(NN seat))(PP (IN in)(NP (DT the)(RB traditionally)(JJ Democratic)))) |ET| 
-1  |BT| (NP (NP (NN state)(NN health))(CC and)(NP (JJ environmental)(NNS experts))) |ET| 
1  |BT| (NP (NNP Serbian)(NNP President)) |ET| 
-1  |BT| (S (NP (NP (NN percent))(PP (IN of)(NP (DT the)(NNS contributors))))(VP (VBP live)(PP (IN in)(NP (DT the)(NN district))))) |ET| 
1  |BT| (NP (NP (NNP Syria)(POS 's))(ROOT (NP (NP (NP (NNP Syria)(POS 's))(NN government))))) |ET| 
-1  |BT| (NP (NP (NP (NNP Syria)(POS 's))(NN government))(: -)(VP (VBN run)(SBAR (S (NP (NNS media)))))) |ET| 
0.21426945329744293000651111924526  |BT| (NP (NN coach)(NNP Jim)(NNP Donnan)) |ET| 
-1  |BT| (S (NP (NNS People))(VP (MD can)(VP (VB communicate)(PP (IN with)(NP (JJ international)(NNS friends)))))) |ET| 
0.12675911281427243437747165444307  |BT| (S (NP (NNS members))(VP (VBD raised)(NP (QP (IN at)(JJS least)($ $)(CD 100,000)))(PP (IN for)(NP (NP (NNP Bush)(POS 's))(NN campaign)))(: :)(NP (NP (NP (NNP Bill)(NNP DeWitt))(CC and)(NP (NNP Mercer)(NNP Reynolds)))(, ,)(NP (NP (NNS co-chairs))(PP (IN of)(NP (NP (DT the)(ADJP (JJ Ohio-based))(NN investment)(NN firm))(PP (IN of)(NP (NNP Reynolds)(, ,)(NNP DeWitt)(CC and)(NNP Company))))))(: ;)(NP (NP (NNP Brad)(NNP Freeman))(, ,)(NP (DT a)(NNP California)(NN investor)))))) |ET| 
-1  |BT| (NP (NP (NNS players))(SBAR (S (NP (PRP they))))) |ET| 
1  |BT| (S (NP (NP (NNS businesses)))(VP (VBD closed)(PP (IN in)(NP (NP (NNS parts))(PP (IN of)(NP (NNP Nebraska))))))) |ET| 
-1  |BT| (NP (NP (NN DORTMUND))(, ,)(NP (NP (NP (NNP Germany))))) |ET| 
0.50371383068490527268323830867303  |BT| (NP (NNP Tabasco)(NNP Gov.)(NNP Roberto)(NNP Madrazo)) |ET| 
-1  |BT| (S (NP (NP (PRP he))(CC and)(NP (PRP$ his)(NN wife)))(VP (VBD had)(NP (CD three)(JJ young)(NNS children)))) |ET| 
0.33902902906208326472281555652444  |BT| (NP (NP (NN goalkeeper))(CC and)(NP (NN player)(NN representative))) |ET| 
-1  |BT| (NP (NP (ADJP (PP (NP (PP (NP (NP (NNP Odense))(, ,)(NP (CD 105)(NNS miles)))))))(NN west))(PP (IN of)(NP (NP (DT the)(NN capital))))) |ET| 
1  |BT| (S (NP (NP (PRP$ his)(NN wife)))(VP (VBD had)(NP (CD three)(JJ young)(NNS children)))) |ET| 
-1  |BT| (S (NP (NP (NN wife)))(VP (VBD had)(NP (CD three)(JJ young)(NNS children)))) |ET| 
0.25874407096690849039433146572264  |BT| (NP (NP (NN capital))(, ,)(NP (NNP Copenhagen))) |ET| 
-1  |BT| (NP (NP (NNP ABIDJAN))(, ,)(NP (NP (NNP Ivory)(NNP Coast)))) |ET| 
0.14982784222029449372470821799652  |BT| (S (S (S (NP (NP (NN rest))(PP (IN of)(NP (DT the)(NNS advisers))))(VP (VBP __)(SBAR (S (VP (VBP have)(S (NP (DT the)(NNS instruments))(ADJP (JJ necessary)(S (VP (TO to)(VP (VB certify)(NP (DT the)(NNS results)))))))))))))(, ,)('' '')(NP (PRP he))) |ET| 
-1  |BT| (NP (PRP$ his)(NN wife)) |ET| 
1  |BT| (NP (NP (NNS voters))(VP (VBN recruited)(PP (IN by)(NP (NP (NNP NBC)))))) |ET| 
-1  |BT| (NP (NP (NN group))(PP (IN of)(NP (NP (JJ undecided)(NNS voters))(VP (VBN recruited)(PP (IN by)(NP (NP (NNP NBC)))))))) |ET| 
1  |BT| (NP (PRP$ his)(NN wife)) |ET| 
-1  |BT| (NP (PRP$ his)(NN wife)) |ET| 
1  |BT| (NP (NP (NN group))(PP (IN of)(NP (NP (JJ undecided)(NNS voters))))) |ET| 
-1  |BT| (NP (NP (NNS Lawmakers))(PP (IN in)(NP (NP (DT the)(NNP House))(PP (IN of)(NP (NNPS Commons)))))) |ET| 
1  |BT| (NP (PRP$ his)(NN republic)) |ET| 
-0.92401579888336193846498645143583  |BT| (NP (PRP$ his)(NN family)) |ET| 
0.25234443520735994059833728897502  |BT| (S (S (NP (NP (NNS Lawmakers))(PP (IN in)(NP (NP (DT the)(NNP House))(PP (IN of)(NP (NNPS Commons))))))(ADVP (RB overwhelmingly))(VP (VBD approved)(NP (DT the)(NN bill))(NP-TMP (RBR earlier)(DT this)(NN year))))(S (NP (NP (DT the)(NNP House))(PP (IN of)(NP (NNPS Lords)))))) |ET| 
-1  |BT| (NP (NP (NNP Britain)(POS 's))(JJ unofficial)(NN flag)(ROOT (S (NP (NN BA))(VP (VBD announced)(NP (DT the)(NN sale))(SBAR (IN as)(S (NP (PRP it))(VP (VBD reported)(NP (CD 160)(NN percent)(NN growth))(PP (IN in)(NP (NP (PRP$ its)(JJ second-quarter)(JJ pretax)(NN profit))(, ,)(NP (NP (DT an)(NN improvement))(SBAR (WHNP (WDT that))(S (VP (VBZ suggests)(SBAR (S (NP (NP (NNP Britain)(POS 's))(JJ unofficial)(NN flag)(NN carrier))))))))))))))))) |ET| 
1  |BT| (NP (PRP$ his)(NN opponent)) |ET| 
-1  |BT| (NP (NP (NNS policemen))(PP (IN in)(NP (NP (PRP$ his)(NN republic))))) |ET| 
0.38602968915381508097084406472277  |BT| (S (NP (NP (NNP WASHINGTON))(PRN (-LRB- -LRB-)(NP (NNP AP))(-RRB- -RRB-))(NP (CD __))(DT All))(S (ADVP (RB else))(VP (VBG being)(ADJP (JJ equal))))(, ,)(NP (NNP Duane)(NNP Roelands))(VP (MD would)(VP (VB prefer)(S (VP (TO to)(VP (VB dash)(PRT (RP off))(NP (JJ short)(NN instant)(NN text)(NNS messages))(PP (TO to)(NP (NNS co-workers))))))))) |ET| 
-1  |BT| (NP (NP (QP (NN half)))(SBAR (S (VP (VBG containing)(NP (JJ deadly)(NN sarin)(NN nerve)(NN gas)))))) |ET| 
1  |BT| (NP (NP (NNS policemen))(PP (IN in)(NP (NP (PRP$ his)(NN republic))))) |ET| 
-1  |BT| (VP (PP (NP (NNS students)(CC and)(NNS parents)))(PP (IN during)(NP (NP (DT a)(NN photo)(NN opportunity))(PP (IN at)(NP (NP (PRP$ his)(NN residence))))))) |ET| 
0.91454815025973168474138219607994  |BT| (NP (NP (`` ``))(, ,)('' '')(NP (NP (QP (IN at)(JJS least)(NN half)))(SBAR (S (VP (VBG containing)(NP (JJ deadly)(NN sarin)(NN nerve)(NN gas))))))) |ET| 
-1  |BT| (NP (NP (`` ``))(, ,)('' '')(NP (NP (QP (IN at)(JJS least)(NN half))))) |ET| 
0.66148291612557952312556608376326  |BT| (VP (PP (NP (JJ Jewish)(JJ seminary)))(, ,)(SBAR (WHADVP (WRB where))(S (NP (QP (RB about)(CD 30))(NNS students))))) |ET| 
-1  |BT| (S (NP (NP (NNS friends))(PP (IN in)(NP (NNP Congress))))(VP (VBD impeached)(NP (NP (NNP Justice)(NNP Samuel)(NNP Chase))(PP (IN in)(NP (CD 1804))))(, ,)(SBAR (NP (RB just)(NNS months))(IN after)(S (NP (NP (PRP he))(CC and)(NP (PRP$ his)(NNS colleagues)))(VP (VBD had)(VP (VBN declared)(SBAR (IN that)(S (NP (NP (DT an)(NN act))(PP (IN of)(NP (NNP Congress)))))))))))) |ET| 
0.20232489081777016437513339042198  |BT| (S (PRN (-LRB- -LRB-))(NP (NP (NNP __)(NNP Gov.)))) |ET| 
-1  |BT| (NP (JJ Democratic)(NNP Vice)(NNP President)(NNP Al)(NNP Gore)) |ET| 
0.16554126210537739583017469158222  |BT| (VP (NP (NP (NNS members))(PP (IN of)(NP (PRP$ his)(NNP Federalist)(NNP Party))))(PP (TO to)(NP (JJ federal)(NNS judgeships)))(, ,)(S (VP (VBG hoping)(NP (PRP they))))) |ET| 
-1  |BT| (NP (NP (NN professor))(PP (IN of)(NP (NP (NNS economics))(PP (IN at)(NP (NP (DT the)(NNP University))(PP (IN of)(NP (NP (NNP Texas))(PP (IN at)(NP (NNP Austin)))))))))) |ET| 
0.51973725221347100156066289855517  |BT| (NP (NP (NNP Milosevic))(CC and)(NP (PRP$ his)(NNS allies))) |ET| 
-1  |BT| (NP (NP (NNP Arizona))(CC and)(NP (NNP Dallas)(NNPS Cowboys)(NN quarterback))) |ET| 
0.80547733479795113886723356699804  |BT| (NP (NP (NNP Steve))(, ,)(NP (NP (DT a)(NN professor))(PP (IN of)(NP (NP (NNS economics))(PP (IN at)(NP (NP (DT the)(NNP University))(PP (IN of)(NP (NP (NNP Texas))(PP (IN at)(NP (NNP Austin))))))))))) |ET| 
-1  |BT| (NP (NP (NNP Daniel)(POS 's))(ROOT (S (S (VP (VBN Asked)(SBAR (IN if)(S (NP (PRP he))(VP (MD would)(VP (VB be)(VP (VBN concerned)(PP (IN for)(NP (PRP$ his)(NN safety))))))))))(S (SBAR (IN if)(S (VP (VBN released))))(, ,)(S (NP (NP (NNP Chapman))(, ,)(SBAR (WHNP (WP who))(S (VP (VBZ is)(VP (VBG being)(VP (VBN held)(PP (IN in)(NP (JJ protective)(NN custody)))(PP (ADVP (RB apart))(IN from)(NP (JJ other)(NNS inmates))))))))(, ,))(VP (VBD said)(SBAR (S (NP (PRP he))(VP (VBD believed)(SBAR (IN that)(S (NP (NNP God))(`` ``)(VP (VBD kept)(NP (NP (NP (DT the)(NNS lions)(POS '))(NNS mouths))(VP (VBN shut)(PP (IN in)(NP (NP (NNP Daniel)(POS 's))(NN den))))))))))))))))) |ET| 
1  |BT| (NP (NP (NNP Arizona))(JJ top)(ROOT (S (NP (NNP Koetter))(VP (MD may)(RB not)(VP (VB have)(VP (VBN been)(NP (NP (NNP Arizona)(NNP State)(POS 's))(JJ top)(NN choice)))))))) |ET| 
-1  |BT| (NP (NP (NNP John))(PP (IN of)(NP (NNP Hemet)))) |ET| 
1  |BT| (VP (NP (JJ Egyptian)(NN army))(PP (IN in)(NP (DT the)(NNS mid-1970s)))(, ,)(S (VP (VBG fleeing)(PP (TO to)(NP (NP (NNP Lebanon))))))) |ET| 
-1  |BT| (NP (NP (NN world)(POS 's))(JJS largest)(JJ pharmaceutical)(ROOT (S (NP (DT The)(NN drug)(NNS companies))(VP (VBD passed)(NP (DT the)(JJ final)(JJ regulatory)(NN hurdle))(PP (TO to)(NP (NP (PRP$ their)(ADJP (QP ($ $)(QP (CD 72)(CD billion))))(NN merger))(, ,)(SBAR (WHNP (WDT which))(S (VP (MD will)(VP (VB create)(NP (NP (DT the)(NN world)(POS 's))(JJS largest)(JJ pharmaceutical)(NN company)))))))))))) |ET| 
1  |BT| (NP (NP (JJ Many))(PP (IN of)(NP (NP (NNP Germany))))) |ET| 
-1  |BT| (S (NP (NP (NNS businesses)))(VP (VBD closed)(PP (IN in)(NP (NP (NNS parts)))))) |ET| 
0.2193269257504169567063456725009  |BT| (S (NP (NNS companies))(VP (VBD passed)(NP (DT the)(JJ final)(JJ regulatory)(NN hurdle))(PP (TO to)(NP (NP (PRP$ their)(ADJP (QP ($ $)(QP (CD 72)(CD billion))))(NN merger))(, ,)(SBAR (WHNP (WDT which))(S (VP (MD will)(VP (VB create)(NP (NP (DT the)(NN world)(POS 's))(JJS largest)(JJ pharmaceutical)(NN company)))))))))) |ET| 
-1  |BT| (SBAR (WHNP (WDT that))(S (VP (MD would)(VP (VB have)(S (VP (TO to)(VP (VB be)(VP (VBN constructed)(PP (IN at)(NP (NP (DT the)(JJ 27-square-mile)(NN arsenal)))))))))))) |ET| 
1  |BT| (NP (NP (NP (NN suspect)))(VP (VBG being)(VP (VBN booked)(PP (IN at)(NP (NN police)))))) |ET| 
-1  |BT| (S (NP (NP (NP (NN suspect)))(VP (VBG being)(VP (VBN booked)(PP (IN at)(NP (NN police)(NN headquarters))))))(VP (VP (VBD shot)(NP (DT a)(NN veteran)(NN detective))(PP (TO to)(NP (NN death))))(CC and)(VP (ADVP (RB then))(VBD turned)(NP (DT the)(NN gun))))) |ET| 
0.14766152346941616158026988614438  |BT| (NP (NP (NN building))(SBAR (WHNP (WDT that))(S (VP (MD would)(VP (VB have)(S (VP (TO to)(VP (VB be)(VP (VBN constructed)(PP (IN at)(NP (NP (DT the)(JJ 27-square-mile)(NN arsenal))))))))))))) |ET| 
-1  |BT| (NP (NP (NN hotel))(PP (IN near)(NP (NNP O'Hare)(NNP International)(NNP Airport)))) |ET| 
0.51727758296690806716355837124866  |BT| (S (NP (VP (VP (PP (NP (NN police)(NN headquarters))))))(VP (VP (VBD shot)(NP (DT a)(NN veteran)(NN detective))(PP (TO to)(NP (NN death))))(CC and)(VP (ADVP (RB then))(VBD turned)(NP (DT the)(NN gun))))) |ET| 
-1  |BT| (S (NP (S (VP (VP (PP (NP (NN communist)))))))(ADJP (NNP East))) |ET| 
1  |BT| (NP (NP (NNS fans))(PP (IN at)(NP (NP (DT a)(NN hotel))(PP (IN near)(NP (NNP O'Hare)(NNP International)(NNP Airport)))))) |ET| 
-1  |BT| (NP (NP (NNS fans))(PP (IN at)(NP (NP (DT a)(NN hotel))))) |ET| 
0.059374240631013042168717674940126  |BT| (NP (NP (NN competitor))(, ,)(NP (NNP easyJet))) |ET| 
-1  |BT| (S (NP (PRP he))(VP (VBD deserted)(NP (DT the)(JJ Egyptian)(NN army)))) |ET| 
1  |BT| (NP (NP (NNS women))(PP (IN in)(NP (NP (DT some)(NNS parts))))) |ET| 
-1  |BT| (S (NP (NP (NNP Florida))(CC and)(NP (NP (NNP Pennsylvania)(CD __)(NN N))(PP (IN among)(NP (NP (DT the)(NN tossup)(NNS states))(PP (IN in)(NP (DT the)(JJ presidential)(NN race)))))))(ADVP (RB __))(VP (VBP have)(NP (NP (DT a)(JJ large)(NN number))(PP (IN of)(NP (NP (JJR older)(NNS people))))))) |ET| 
0.19980508962142945472706401233154  |BT| (S (NP (PRP they))(VP (VBD were)(NP (NNS children)))) |ET| 
-1  |BT| (SINV (PP (NP (NP (DT those))(VP (VBN designated))))(VP (VBD were)(NP (JJ former)(NNP NFL)(NNS first-rounders)))) |ET| 
0.25771860330006229888866187138774  |BT| (S (S (VP (VP (NP (NP (NN suspect))(PP (IN on)(NP (NN drug)(NNS charges)))))))(, ,)(NP (NNP Warren)(NN police))) |ET| 
-1  |BT| (NP (NP (NNS voters))(PP (IN in)(NP (NP (NNP St.)(NNP Louis))(CC and)(NP (PRP$ its)(NNS suburbs))))) |ET| 
1  |BT| (SINV (PP (NP (NP (DT those))(VP (VBN designated))))(VP (VBD were)(NP (JJ former)(NNP NFL)))) |ET| 
-1  |BT| (NP (NP (NNP Danville))(, ,)(NP (NNP Ky))) |ET| 
0.055095862134552753275329450843856  |BT| (NP (NP (NNP Arizona)(NNP State))(S (VP (TO to)(VP (VB hire)(NP (NP (NP (NNP Danny)(NNP White))(, ,)(NP (NP (NP (DT the)(JJ former)(NNP Arizona)(NNP State)))))))))) |ET| 
-1  |BT| (VP (VP (NP (NNS homes)))(CC and)(VP (VBN overturned)(NP (NP (NNS cars))(PP (IN in)(NP (NP (JJ several)(NNS areas))))))) |ET| 
1  |BT| (NP (NP (NNP Centre))(PP (IN in)(NP (NP (NNP Danville))(, ,)(NP (NNP Ky))))) |ET| 
-1  |BT| (NP (PP (NP (PP (NP (NNP Mika)))))(PP (IN of)(NP (NNP McLaren)))) |ET| 
0.41888972566903148742056828268687  |BT| (VP (VP (NP (NNS homes)))(CC and)(VP (VBN overturned)(NP (NP (NNS cars))))) |ET| 
-1  |BT| (S (NP (NNS Snowplows))(VP (VBD were)(VP (VBN pulled)(PRT (RP off))(NP (NP (DT the)(NNS roads)))))) |ET| 
0.30535811951035018996236658495036  |BT| (NP (PP (NP (PP (NP (NN champion)(NNP Mika)(NNP Hakkinen)))))(PP (IN of)(NP (NNP McLaren)))) |ET| 
-1  |BT| (NP (NP (NN plane))(VP (VBG carrying)(NP (NP (NN actress)(NNP Sandra)(NNP Bullock))))) |ET| 
0.48911073545627148373426962280064  |BT| (S (NP (NNS Snowplows))(VP (VBD were)(VP (VBN pulled)(PRT (RP off))(NP (NP (DT the)(NNS roads))(PP (IN in)(NP (NP (JJ northeastern)(NNP Nebraska)))))))) |ET| 
-1  |BT| (VP (PP (NP (NNS leagues)))(PP (IN in)(NP (NP (NNS dozens))(PP (IN of)(NP (JJ other)(NNS countries)))))) |ET| 
1  |BT| (NP (NP (NN plane))(VP (VBG carrying)(NP (NP (NN actress))))) |ET| 
-1  |BT| (NP (NP (NN farmer))(VP (VBG strolling)(NP (NN home)))) |ET| 
0.36564477660381516921361821914616  |BT| (S (NP (NNS players))(VP (VBD had)(VP (VP (VBN come)(PP (IN from)))(CC and)(VP (VBN gone)(PP (TO to)(NP (JJ professional)(NNS leagues)))(PP (IN in)(NP (NP (NNS dozens))(PP (IN of)(NP (JJ other)(NNS countries))))))))) |ET| 
-1  |BT| (S (NP (NNS players))(VP (VBD had)(VP (VP (VBN come)(PP (IN from)))(CC and)(VP (VBN gone)(PP (TO to)(NP (JJ professional)(NNS leagues))))))) |ET| 
1  |BT| (NP (NP (NN farmer))(VP (VBG strolling)(NP (NN home))(PP (TO to)(NP (NNP Matamoros))))) |ET| 
-1  |BT| (NP (NP (NNP Centre))(PP (IN in)(NP (NP (NNP Danville))))) |ET| 
0.98004620122139229909663526996155  |BT| (NP (NN actress)(NNP Sandra)(NNP Bullock)) |ET| 
-1  |BT| (NP (NP (NN plane))(VP (VBG carrying)(NP (NP (NN actress)(NNP Sandra)(NNP Bullock))(CC and)(NP (CD three)(JJ other)(NNS people))))) |ET| 
1  |BT| (NP (NP (NNP NBC))(PP (IN in)(NP (NP (NNP Tampa))))) |ET| 
-1  |BT| (NP (NP (NN farmer))(PP (IN in)(NP (NP (NNP Bamyan))))) |ET| 
0.61184252294840968389166846463922  |BT| (S (NP (NN compound))(VP (VBD was)(ADVP (NN home))(PP (TO to)(NP (DT a)(JJ Jewish)(JJ seminary))))) |ET| 
-1  |BT| (S (NP (PRP we))(VP (MD will)(VP (VB be)(VP (VBN driven)(PRT (RP out))(PP (TO to)(NP (DT the)(NNS streets))))))) |ET| 
0.64872107686966751227686245329096  |BT| (NP (NP (NNS voters))(PP (IN in)(NP (NP (NNP St.)(NNP Louis))(CC and)(NP (PRP$ its))))) |ET| 
-1  |BT| (S (NP (NN man))(`` ``)(VP (VBD produced)(NP (DT a)(NN gun)))) |ET| 
1  |BT| (S (NP (NNP MLS)(NNS players))(VP (VBD had)(VP (VP (VBN come)(PP (IN from)))(CC and)(VP (VBN gone)(PP (TO to)(NP (JJ professional)(NNS leagues))))))) |ET| 
-1  |BT| (NP (NNP Arab)(NNS women)) |ET| 
0.865672845737969431922920193756  |BT| (NP (NP (NP (PRP$ his)(NN wife)))(, ,)(NP (NNP Laura))) |ET| 
-1  |BT| (NP (NP (NNP Cedar))(, ,)(NP (NNP Iowa))) |ET| 
1  |BT| (NP (NNP Bamyan)(NN province)) |ET| 
-1  |BT| (NP (NNP Yugoslav)(NN republic)) |ET| 
0.16953412874712775471053305409441  |BT| (NP (NN Detective)(NNP Christopher)(NNP Wouters)) |ET| 
-1  |BT| (S (NP (NP (NN frontier))(PP (IN between)(NP (NP (NNP Mexico))(CC and)(NP (DT the)(NNP United)(NNPS States)))))(VP (VBZ is)(VP (VP (VBN delineated)(PP (IN by)(NP (NN steel)(NNS walls))))(CC and)(VP (VBN barbed)(NP (NP (NN wire))))))) |ET| 
1  |BT| (NP (NNP Pirate)(NNS teammates)) |ET| 
-1  |BT| (NP (NP (JJ Many))(PP (IN of)(NP (PRP$ his)(JJ Giant)(NNS teammates)))) |ET| 
-1  |BT| (NP (NNP Texas)(NNP Gov)) |ET| 
-1  |BT| (NP (NP (NP (NN State)))(CC and)(NP (NNP Army)(NNS officials))) |ET| 
1  |BT| (NP (NP (NN regime))(PP (IN of)(NP (NNP Yugoslav)))) |ET| 
-1  |BT| (NP (NP (NNS sections))(PP (IN of)(NP (NNP Nebraska)))) |ET| 
1  |BT| (NP (NNP Bush)(NN campaign)(NN official)) |ET| 
-1  |BT| (NP (JJ Republican)(NNP George)(NNP W.)(NNP Bush)) |ET| 
1  |BT| (NP (NP (NNS countries))(PP (IN like)(NP (NNP Chile)))) |ET| 
-1  |BT| (NP (NP (NNS rivals))(PP (IN like)(NP (NNP Microsoft)))) |ET| 
0.75136307768540711027327461124514  |BT| (NP (NP (NNP Hakkinen))(CC and)(NP (NNP McLaren)(NN teammate))) |ET| 
-1  |BT| (NP (NNP SANTIAGO)(, ,)(NNP Chile)) |ET| 
1  |BT| (NP (NP (NNS people))(PP (IN of)(NP (NNP Serbia)))) |ET| 
-1  |BT| (NP (NP (NNS people))(PP (IN of)(NP (NNP Serbia)))) |ET| 
1  |BT| (NP (NNP Microsoft)(, ,)(NNP AT&T)) |ET| 
-1  |BT| (NP (NP (NN league))(VP (VBN organized)(PP (IN by)(NP (NP (NNP NBC))(CC and)(NP (DT the)(NNP World)(NNP Wrestling)(NNP Federation)))))) |ET| 
0.22594154254320816810341909786075  |BT| (VP (NP (PRP$ its)(NNS decisions))(PP (IN by)(NP (NP (NNS appointments))))) |ET| 
-1  |BT| (VP (NP (NNS voters))(PP (TO to)(NP (DT the)(NNP Innsbrook)(NN resort)))) |ET| 
0.078443839686012706291506901834509  |BT| (NP (NNP Syria)(CC and)(NNP Egypt)) |ET| 
-1  |BT| (VP (PP (NP (PP (NP (NNP Conyers)))))(, ,)(PP (IN about)(NP (NP (CD 25)(NNS miles))(PP (ADVP (RB east))(IN of)(NP (NP (NNP Atlanta))))))) |ET| 
1  |BT| (VP (NP (NNS voters))(PP (TO to)(NP (DT the)(NNP Innsbrook)(NN resort)))(PP (IN outside)(NP (NNP St.)(NNP Louis)))) |ET| 
-1  |BT| (VP (PP (NP (NP (NNPS Securities))(CC and)(NP (NNP Exchange)(NNP Commission))))(NP-TMP (JJ official))) |ET| 
0.61933169014922573314407827638206  |BT| (VP (PP (NP (NP (NNP Heritage))(PP (IN in)(NP (NNP Conyers)))))(, ,)(PP (IN about)(NP (NP (CD 25)(NNS miles))(PP (ADVP (RB east))(IN of)(NP (NP (NNP Atlanta))))))) |ET| 
-1  |BT| (NP (NP (NNP Heritage))(PP (IN in)(NP (NNP Conyers)))) |ET| 
0.42326843949076697892763831987395  |BT| (S (NP (NN state)(NNS lawsuits))(ADJP (VBN related)(PP (TO to)(NP (NP (NN airline)))))) |ET| 
-1  |BT| (NP (NP (NNP SEC)(POS 's))(ROOT (S (NP (NP (DT The)(NN panel)(NN discussion))(, ,)(SBAR (WHNP (WP$ whose)(NN focus))(S (VP (VBD was)(PP (IN on)(NP (DT the)(NN disclosure)(NN issue))))))(, ,))(VP (VBD was)(VP (VBN sponsored)(PP (IN by)(NP (NP (NNP Fund)(NNP Democracy))(, ,)(NP (NP (DT a)(NN fund)(NN shareholder)(NN advocacy)(NN group))(VP (VBN founded)(PP (IN by)(NP (NP (NNP Mercer)(NNP Bullard))(, ,)(NP (NP (DT a)(JJ former)(NN lawyer))(PP (IN for)(NP (NP (DT the)(NNP SEC)(POS 's))(NN enforcement)(NN division))))))))))))))) |ET| 
1  |BT| (NP (NP (NP (NNP Jefferson)(POS 's))(NNS friends))(PP (IN in)(NP (NNP Congress)))) |ET| 
-1  |BT| (S (NP (NNP Rogers))(VP (VP (VBZ has)(VP (VBN claimed)(NP (DT the)(NN seat))))(CC and)(VP (VBD was)(VP (VBG taking)(NP (NP (NN part))(PP (IN in)(NP (NN freshman)(NN orientation)(NNS events))))(PP (IN at)(NP (NP (DT the)(NNP Capitol)))))))) |ET| 
0.41075909378652170067525162266975  |BT| (NP (NP (NN group))(VP (VBN founded)(PP (IN by)(NP (NP (NNP Mercer)(NNP Bullard))(, ,)(NP (NP (DT a)(JJ former)(NN lawyer))(PP (IN for)(NP (NP (DT the)(NNP SEC)(POS 's))(NN enforcement)(NN division)))))))) |ET| 
-1  |BT| (NP (NP (JJ Many))(PP (IN of)(NP (NP (NNP Germany)(POS 's))(NNS neighbors)))(, ,)(PP (VBG including)(NP (NNP France)(, ,)(NNP Italy)(CC and)(NNP Greece)))) |ET| 
0.68534311412200910051950586421299  |BT| (S (NP (NN compound))(VP (VBD was)(ADVP (NN home)))) |ET| 
-1  |BT| (NP (PRP$ its)(JJ legal)(NN department)) |ET| 
0.47143225171637281878389558187337  |BT| (NP (PP (NP (NP (NNP Germany)(POS 's))(NNS neighbors)))(, ,)(PP (VBG including)(NP (NNP France)(, ,)(NNP Italy)(CC and)(NNP Greece)))) |ET| 
-1  |BT| (VP (PP (NP (NNP Innsbrook)))(PP (IN outside)(NP (NNP St.)(NNP Louis)))) |ET| 
0.088539079788814353810799673283327  |BT| (S (NP (NNP Nixon))(VP (VBD was)(VP (VBN elected)(NP (NP (NN president)))))) |ET| 
-1  |BT| (NP (NP (NNP Jefferson)(POS 's))(ROOT (S (S (VP (VBG Moving)(S (VP (TO to)(VP (VB refashion)(NP (DT the)(NN court)(S (VP (TO to)(VP (VB suit)(NP (PRP$ their)(JJ own)(NNS views)))))))))))(, ,)(NP (NP (NP (NNP Jefferson)(POS 's))(NNS friends)))))) |ET| 
1  |BT| (NP (NP (JJ Many))(PP (IN of)(NP (PRP$ his)(JJ Giant)))) |ET| 
-1  |BT| (NP (NP (NN airport))(PP (IN in)(NP (JJ northwestern)(NNP Wyoming)))) |ET| 
0.025103400153911652192828540819391  |BT| (SBAR (WHNP (WDT that))(S (VP (VBD gained)(NP (NN independence))(PP (IN from)(NP (NNP Indonesia)))))) |ET| 
-1  |BT| (SBAR (WHADVP (WRB where))(S (NP (DT a)(JJ black)(NN man))(VP (VBD was)(VP (VBN dragged)(PP (TO to)(NP (PRP$ his)(NN death)))(PP (IN from)(NP (DT a)(NN pickup)(NN truck)))(PP (IN by)(NP (NP (CD three)(JJ white)(NNS men)))))))) |ET| 
1  |BT| (VP (PP (NP (NNS hotels)))(PP (IN in)(NP (NP (DT the)(JJ central)(JJ Javanese))))) |ET| 
-1  |BT| (VP (PP (NP (NNS hotels)))(PP (IN in)(NP (NP (DT the)(JJ central)(JJ Javanese)(NN city))))) |ET| 
1  |BT| (S (NP (NN man))(VP (VBD was)(VP (VBN dragged)(PP (TO to)(NP (PRP$ his)(NN death)))(PP (IN from)(NP (DT a)(NN pickup)(NN truck)))(PP (IN by)(NP (NP (CD three)(JJ white)(NNS men))))))) |ET| 
-1  |BT| (NP (NN campaign)(NN official)) |ET| 
0.024224004016783429182879672225681  |BT| (NP (NP (PRN (-LRB- -LRB-))(NP (CD _)))(NP (DT A)(JJ Danish)(NN couple))) |ET| 
-1  |BT| (S (NP (NNS militants))(VP (VBD went)(PP (TO to)(NP (NNS hotels))))) |ET| 
0.99852270200103288022575043214601  |BT| (NP (NN motorcycle)(NN magazine)) |ET| 
-1  |BT| (S (NP (NP (NNP Jim))(, ,)(NP (NP (DT a)(JJ first-round)(NN choice))(PP (IN of)(NP (NP (DT the)(NNP San)(NNP Francisco)(NNPS 49ers))(PP (IN in)(NP (CD 1997))))))(, ,))(VP (VBD was)(VP (VBN selected)(PP (IN by)(NP (NP (DT the)(NN Maniax))))))) |ET| 
1  |BT| (S (NP (JJ Islamic)(NNS militants))(VP (VBD went)(PP (TO to)(NP (NNS hotels))))) |ET| 
-0.90965110990897957154999176054844  |BT| (NP (JJ Islamic)(NNS militants)) |ET| 
0.083874956249350096637584783820785  |BT| (NP (NP (NNP Copley))(VP (VBG blocking)(NP (NP (DT the)(NN sale))(PP (IN of)(NP (NP (DT The)(NNP News)(NNP Sun))(PP (IN in)(NP (NNP Waukegan)))))))) |ET| 
-1  |BT| (S (NP (NNS workers))(VP (VBD marched)(PP (IN from)(NP (NNP Seoul)(NN train)(NN station)))(PP (TO to)(NP (NP (DT a)(NN cathedral)))))) |ET| 
1  |BT| (NP (JJ Palestinian)(NNS territories)) |ET| 
-1  |BT| (NP (JJ Palestinian)(NNS territories)) |ET| 
0.19437064112957613826182523553143  |BT| (NP (NP (NN campaign)(POS 's))(NNS efforts)(S (VP (TO to)(VP (VB label)(NP (NP (NNP Gore))))))) |ET| 
-1  |BT| (VP (PP (NP (NP (NNP Rutgers))(NNS sports)))(SBAR (S (NP (NP (NN information)(NN director)))))) |ET| 
1  |BT| (NP (JJ Palestinian)(NNS civilians)) |ET| 
-1  |BT| (NP (JJ Palestinian)(NNS gunmen)) |ET| 
0.24371037116985508341748811744765  |BT| (S (NP (ADJP (JJ many)))(ADVP (RB here))(VP (VBP say)(SBAR (S (NP (DT the)(NNP United)(NNPS States)))))) |ET| 
-1  |BT| (NP (NP (NNP Serbia))(, ,)(NP (DT the)(JJ main)(JJ Yugoslav))) |ET| 
1  |BT| (NP (JJ Palestinian)(NNS territories)) |ET| 
-1  |BT| (NP (JJ Palestinian)(NNS lawmakers)) |ET| 
-0.49329298123672943310324967569613  |BT| (NP (PRP$ his)(NN boss)) |ET| 
-1  |BT| (SBAR (WHNP (WP who))(S (VP (VBD founded)(NP (DT the)(NN motorcycle)(NN magazine))))) |ET| 
1  |BT| (NP (NP (NN Passenger)(NN traffic))(PP (IN on)(NP (JJ Chinese)(NNS carriers)))) |ET| 
-1  |BT| (NP (NP (NNP Fucheng))(CC and)(NP (NP (NNP Zhonghe)(NNP Zhou))(PP (IN of)(NP (NP (DT the)(JJ Chinese)(NN Academy))(PP (IN of)(NP (NNPS Sciences))))))) |ET| 
0.25614797371260172864637638667773  |BT| (SBAR (WHNP (WP who))(S (VP (VBD founded)(NP (DT the)(NN motorcycle))))) |ET| 
-1  |BT| (S (NP (NP (NNP Bullock))(, ,)(SBAR (WHNP (WP who))(S (VP (VBZ stars)(PP (IN in)(NP (NP (DT the)(JJ current))(`` ``)(NP (NNP Miss)(NNP Congeniality)))))))(, ,)('' ''))(VP (VBD was)(ADVP (IN aboard)(NP (DT the)(NN plane))))) |ET| 
1  |BT| (NP (NP (NN chief))(PP (IN of)(NP (NNP South)(NNP Jakarta)))) |ET| 
-1  |BT| (NP (NP (NN chief))(PP (IN of)(NP (NNP South)(NNP Jakarta)(NNP Prosecution)(NNP Office)))) |ET| 
0.24957371174124495794011124871759  |BT| (NP (NP (CD one))(PP (IN with)(NP (JJ former)(NNP Russian)(NNP Prime)(NNP Minister)))) |ET| 
-1  |BT| (NP (NP (NN lawyer))(PP (IN for)(NP (NP (DT the)(NNP SEC)(POS 's))(NN enforcement)(NN division)))) |ET| 
1  |BT| (NP (NP (NNP Antasari))(, ,)(NP (NP (NN chief))(PP (IN of)(NP (NNP South)(NNP Jakarta)(NNP Prosecution)(NNP Office))))) |ET| 
-1  |BT| (S (NP (NP (NNP Solomon))(, ,)(NP (RB then)(CD 15))(, ,))(VP (VBD opened)(NP (NN fire))(PP (IN with)(NP (NP (DT a)(JJ sawed-off)(NN rifle)))))) |ET| 
1  |BT| (NP (NP (NN lawyer)(NNP David))(ROOT (S (NP (NP (NNP NFL)(NN lawyer)(NNP David))(JJ Proper))))) |ET| 
-1  |BT| (NP (PRP$ his)(NN lawyer)) |ET| 
0.26496766519608000445273887635267  |BT| (S (NP (JJ Indonesian)(NN security)(NNS forces))(VP (VBD opened)(NP (NN fire))(PP (IN at)(NP (CD two)(NNS cars))))) |ET| 
-1  |BT| (NP (JJ Indonesian)(NN security)(NNS forces)) |ET| 
1  |BT| (NP (PRP$ his)(NN MVP)) |ET| 
-1  |BT| (NP (NP (PRP$ his)(NNS parents))(NP (NN brother))) |ET| 
1  |BT| (S (PP (NP (NNP Banda)))(, ,)(NP (JJ Indonesian)(NN security)(NNS forces))) |ET| 
-1  |BT| (S (PP (NP (NNS donors)))(, ,)(NP (CD 19))) |ET| 
1  |BT| (NP (NP (NN journalist))(PP (IN in)(NP (NP (DT the)(JJ northern)(NN city))))) |ET| 
-1  |BT| (NP (NP (NN group))(PP (IN of)(NP (NP (JJ undecided)(NNS voters))(VP (VBN recruited)(PP (IN by)(NP (NP (NNP NBC))(PP (IN in)(NP (NP (NNP Tampa)))))))))) |ET| 
1  |BT| (S (PP (NP (NNS donors)))(, ,)(NP (CD 19))(VP (VBP are)(PP (IN from)(NP (JJ outside)(NNP Texas))))) |ET| 
-1  |BT| (S (NP (PP (NP (NNPS Palestinians))))(VP (VBD converged)(PP (IN on)(NP (DT the)(NN square))))) |ET| 
1  |BT| (NP (NP (NN R))(NP (NNP Calif))) |ET| 
-1  |BT| (NP (NP (NNP Steve))(, ,)(NP (NP (NN R))(: -)(NP (NNP Calif)))) |ET| 
0.090286813918111469279281777744472  |BT| (NP (NP (NNP Bush))(PP (IN in)(NP (NP (NNP Winston-Salem)(, ,)(NNP N.C.))))) |ET| 
-1  |BT| (NP (NP (NN region))(PP (IN of)(NP (NP (JJ northern)(NNP Italy))))) |ET| 
1  |BT| (NP (NP (NNP Geneva))(, ,)(PP (IN near)(NP (NP (DT the)(NNP Alabama))(: -)(NP (NNP Florida))))) |ET| 
-1  |BT| (NP (NP (NNP Geneva))(, ,)(PP (IN near)(NP (NP (DT the)(NNP Alabama))(: -)(NP (NNP Florida)(NN line))))) |ET| 
1  |BT| (NP (NP (NN member))(PP (IN of)(NP (NP (NNP Pinochet))))) |ET| 
-1  |BT| (S (NP (NN district))(VP (VBZ stretches)(PP (IN from)(NP (NNP Tyler)))(PP (TO to)(NP (NP (NN north))(PP (IN of)(NP (NNP Houston))))))) |ET| 
1  |BT| (NP (NNP Oldsmobile)(NN division)) |ET| 
-1  |BT| (NP (PRP$ its)(NNP Oldsmobile)(NN division)) |ET| 
0.51033572019496242777591987760388  |BT| (NP (NP (NN group))(PP (IN of)(NP (NP (JJ undecided)(NNS voters))(VP (VBN recruited)(PP (IN by)(NP (NP (NNP NBC))(PP (IN in)(NP (NP (NNP Tampa))(, ,)(NP (NNP Fla)))))))))) |ET| 
-1  |BT| (NP (NP (NNS carriers))(VP (VBG operating)(PP (IN in)(NP (NNP Britain))))) |ET| 
1  |BT| (NP (PRP$ its)(NNS citizens)) |ET| 
-1  |BT| (NP (PRP$ its)(NNS soldiers)) |ET| 
0.99257265408737138656647402967792  |BT| (S (NP (PP (NP (NNS contributors))))(VP (VBP live)(PP (IN in)(NP (DT the)(NN district))))) |ET| 
-1  |BT| (S (NP (NN officer))(VP (VBZ has)(VP (VBN been)(VP (VBN killed)(PP (IN in)(NP (NP (DT the)(NN line))(PP (IN of)(NP (NN duty)))))(PP (IN in)(NP (NP (NNP Warren)))))))) |ET| 
1  |BT| (NP (PRP$ its)(NNS people)) |ET| 
-1  |BT| (NP (NP (NNP Tokyo)(NN subway)(NN attack))(PP (IN in)(NP (CD 1995)))(SBAR (WHNP (WDT that))(S (VP (VBD killed)(NP (CD 12)(NNS people)))))) |ET| 
0.14543360774315020056413061411149  |BT| (S (NP (NN officer))(VP (VBZ has)(VP (VBN been)(VP (VBN killed)(PP (IN in)(NP (NP (DT the)(NN line))(PP (IN of)(NP (NN duty)))))(PP (IN in)(NP (NP (NNP Warren)))))))) |ET| 
-1  |BT| (NP (NP (NN country)(POS 's))(VBN elected)(ROOT (S (NP (DT The)(NNP Parliament)(NNP Act))(VP (VBD was)(VP (VBN created)(S (VP (TO to)(VP (VB ensure)(SBAR (IN that)(S (NP (NP (DT the)(NN will))(PP (IN of)(NP (NP (DT the)(NN country)(POS 's))(VBN elected)(NNS lawmakers)))))))))))))) |ET| 
0.5703270768129040657612449649605  |BT| (NP (NP (NN subway)(NN attack))(PP (IN in)(NP (CD 1995)))(SBAR (WHNP (WDT that))(S (VP (VBD killed)(NP (CD 12)(NNS people)))))) |ET| 
-1  |BT| (S (ADVP (PP (NP (NNS people))))(VP (VBD rallied)(NP-TMP (NNP Saturday))(PP (IN in)(NP (NNP Banda)(NNP Aceh))))) |ET| 
1  |BT| (NP (NP (NN victim)(POS 's))(NX (NP (NN family)(CD __))(PP (PP (TO to)(NP (NNPS Muslims)))))) |ET| 
-1  |BT| (NP (NP (NNPS Indonesians))(NP (NP (NN search)(NNS hotels)))) |ET| 
0.94711713708047817750212971077417  |BT| (NP (NP (NNS activists))(PP (IN in)(NP (NP (NNP Indonesia)(POS 's))(JJ war-torn)(NNP Aceh)))) |ET| 
-1  |BT| (NP (NP (NN consulate))(PP (IN in)(NP (NP (NNP Indonesia)(POS 's))(JJ second-largest)(NN city)))) |ET| 
0.3319518924365691403544076365506  |BT| (NP (NP (NNPS Indonesians))(NP (NP (NN search)(NNS hotels))(PP (IN for)(NP (NNS Americans))))) |ET| 
-1  |BT| (NP (NP (NNS rivals))(PP (IN like)(NP (NNP Microsoft)(, ,)(NNP AT&T)))) |ET| 
0.59526827317673891570848354604095  |BT| (NP (NP (NNP Arab)(NNS states))(CC and)(NP (VBG developing)(NNS nations))) |ET| 
-1  |BT| (S (NP (NNP Duane))(VP (MD would)(VP (VB prefer)(S (VP (TO to)(VP (VB dash)(PRT (RP off))(NP (JJ short)(NN instant)(NN text)(NNS messages))(PP (TO to)(NP (NNS co-workers)(CC and)(NNS friends))))))))) |ET| 
1  |BT| (NP (NP (NP (NN consulate))(PP (IN in)(NP (NP (NNP Indonesia)(POS 's))(JJ second-largest)(NN city))))(, ,)(NP (NNP Surabaya))) |ET| 
-1  |BT| (NP (NP (NNP Indonesia)(POS 's))(JJ war-torn)(NNP Aceh)(ROOT (S (NP (NP (NNP BANDA)(NNP ACEH))(, ,)(NP (NP (NNP Indonesia))(PRN (-LRB- -LRB-)(NP (NNP AP))(-RRB- -RRB-))(NP (CD __)(NNS Police))))(VP (VBD searched)(PP (IN for)(NP (NP (NN separatist)(NNS activists))(PP (IN in)(NP (NP (NNP Indonesia)(POS 's))(JJ war-torn)(NNP Aceh)(NN province))))))))) |ET| 
0.048120631097770483197706425926299  |BT| (S (NP (NNP Duane))(VP (MD would)(VP (VB prefer)(S (VP (TO to)(VP (VB dash)(PRT (RP off))(NP (JJ short)(NN instant)(NN text)(NNS messages))(PP (TO to)(NP (NNS co-workers)(CC and)(NNS friends))))))(SBAR (IN with)(S (NP (NP (DT the)(NN service))(VP (VBN offered)(PP (IN by)(NP (NNP Microsoft)))))))))) |ET| 
-1  |BT| (NP (NP (NNP Republican))(ROOT (S (NP (NP (NP (NNP George)(NNP W.)(NNP Bush)(POS 's))(JJ environmental)(NN record))(PP (IN with)(NP (NP (PRP$ his)(NN visit))(PP (PP (TO to)(NP (NP (DT this)(NN battleground)(NN state))(NP (DT the)(NN day))))(PP (IN after)(NP (NP (NNP Gore)(CC and)(NNP Republican))(NNP Bush)))))))))) |ET| 
1  |BT| (NP (NNP AOL)(NNS rivals)) |ET| 
-1  |BT| (NP (NNP AOL)(NNS executives)) |ET| 
0.96978472828304496111684329662239  |BT| (NP (NP (NNP Gore)(CC and)(NNP Republican))(ROOT (S (NP (NP (NP (NNP George)(NNP W.)(NNP Bush)(POS 's))(JJ environmental)(NN record))(PP (IN with)(NP (NP (PRP$ his)(NN visit))(PP (PP (TO to)(NP (NP (DT this)(NN battleground)(NN state))(NP (DT the)(NN day))))(PP (IN after)(NP (NP (NNP Gore)(CC and)(NNP Republican))(NNP Bush)))))))))) |ET| 
-1  |BT| (S (NP (NN bomb))(VP (VBD had)(VP (VBN been)(VP (VBN planted)(PP (IN in)(NP (DT the)(NN building))))))) |ET| 
1  |BT| (NP (NNP Mr.)(NNP Milosevic)) |ET| 
-1  |BT| (SBAR (WHNP (WP who))(S (VP (VBD went)(PP (IN from)(NP (NNP Matamoros)))(PP (TO to)(NP (NNP North)(NNP Carolina)))))) |ET| 
0.21515428808485848044540489354404  |BT| (S (NP (NNS officials))(VP (VBD had)(VP (VBN received)(NP (DT an)(JJ anonymous)(NN telephone)(NN call))(S (VP (VBG saying)(SBAR (S (NP (DT a)(NN bomb))(VP (VBD had)(VP (VBN been)(VP (VBN planted)(PP (IN in)(NP (DT the)(NN building))))))))))))) |ET| 
-1  |BT| (S (NP (NNP Qatar)(CC and)(NNP Algeria))(VP (VBD were)(NP (NP (DT the)(JJ only)(NNP Arab)(NNP League)(NNS countries))))) |ET| 
0.97825215357731309939737229797174  |BT| (S (NP (NNP Senate)(NN district))(VP (VBZ stretches)(PP (IN from)(NP (NNP Tyler)))(PP (TO to)(NP (NP (NN north))(PP (IN of)(NP (NNP Houston))))))) |ET| 
-1  |BT| (NP (NP (CD two))(PP (IN of)(NP (PRP them)))) |ET| 
0.16325010974559739374001310352469  |BT| (S (NP (NN police))(VP (VBD entered)(NP (DT a)(NN PFLP-GC)(NN hide-out)))) |ET| 
-1  |BT| (S (NP (NNS forces))(VP (VBD patrolled)(NP (DT the)(NN city)))) |ET| 
1  |BT| (S (NP (NP (QP (CD six)))(PP (IN of)(NP (PRP them))))(NP (NNPS Jews))) |ET| 
-1  |BT| (NP (NP (QP (CD six)))(PP (IN of)(NP (PRP them)))) |ET| 
0.2825096476926750588276604503335  |BT| (VP (NP (NNS judges))(SBAR (IN that)(S (NP (PRP he))(VP (VBD deserted)(NP (DT the)(JJ Egyptian)(NN army)))))) |ET| 
-1  |BT| (NP (NP (NNP COSTA))(, ,)(NP (NNP Calif))) |ET| 
1  |BT| (NP (NP (CD one))(PP (IN of)(NP (NP (DT the)(NN country))))) |ET| 
-1  |BT| (NP (NP (NN magazine))(PP (IN in)(NP (NP (DT the)(NN world))))) |ET| 
0.62621433665268866342046294448664  |BT| (NP (NP (NNP Alabama))(, ,)(NP (NNP Georgia))) |ET| 
-1  |BT| (S (NP (NNP Georgia))(VP (VBD fired)(NP (NN football)(NN coach)))) |ET| 
1  |BT| (NP (NP (NN consultant))(PP (IN in)(NP (NNP Tijuana)(, ,)(NNP Mexico)))) |ET| 
-1  |BT| (NP (NNP Tijuana)(, ,)(NNP Mexico)) |ET| 
0.20100525788060061294082458971388  |BT| (S (LST (-LRB- -LRB-))(NP (NP (CD _))(SBAR (S (NP (NNP Georgia))(VP (VBD fired)(NP (NN football)(NN coach))))))) |ET| 
-1  |BT| (S (NP (PRP he))(VP (VBD looked)(ADJP (JJ great))(SBAR (IN while)(S (S (VP (VBG resting)(PRT (RP up))))(CC and)(S (VP (VBG enjoying)(NP (NNP Thanksgiving))(PP (IN at)(NP (NNP George)(NNP Washington)(NNP University)(NNP Hospital))))))))) |ET| 
1  |BT| (NP (NNP Iowa)(, ,)(NNP Minnesota)) |ET| 
-1  |BT| (NP (NP (NNS ladies))(PP (IN of)(NP (NP (NNP Bahrain)(, ,)(NNP Comoros)(, ,)(NNP Egypt)(, ,)(NNP Jordan)(, ,)(NNP Kuwait))))) |ET| 
0.065340247840581275329263633011578  |BT| (NP (NP (NNP PALESTINE)(, ,)(NNP Texas))(PRN (-LRB- -LRB-)(NP (NNP AP))(-RRB- -RRB-))(SBAR (WHNP (NP (CD _))(PP (IN With)(NP (DT the)(NNPS Republicans)))))) |ET| 
-1  |BT| (NP (NP (NNP Milosevic)(POS 's))(ROOT (S (NP (NNP Clinton))(VP (VBD said)(SBAR (S (NP (DT the)(NNP United)(NNPS States))(VP (MD would)(ADVP (RB also))(VP (VB ensure)(SBAR (IN that)(S (NP (NP (DT the)(NN lifting))(PP (IN of)(NP (NNS sanctions))))(VP (VBZ does)(RB not)(VP (VB allow)(NP (NP (NNP Milosevic)(POS 's))(NNS supporters)))))))))))))) |ET| 
0.35571289585816967537823529710295  |BT| (NP (NNP Bahrain)(, ,)(NNP Comoros)(, ,)(NNP Egypt)(, ,)(NNP Jordan)(, ,)(NNP Kuwait)) |ET| 
-1  |BT| (NP (NNP Frankfurt)(, ,)(NNP Germany)) |ET| 
0.021605397737518607093054612278138  |BT| (NP (NP (NNP Joanne))(, ,)(NP (NP (DT a)(JJ larval)(NN specialist))(PP (IN with)(NP (DT the)(NNP National)(NNP Marine)(NNPS Fisheries)(NNP Service))))) |ET| 
-1  |BT| (NP (JJ Egyptian)(NN actress)) |ET| 
0.13621460431429360804500561243913  |BT| (VP (NP (PRP$ his)(NN scheme))(, ,)(S (VP (VBG promising)(S (VP (TO to)(VP (VP (VB bring)(NP (JJ Mexican)(NNS wages))(ADVP (IN up)(PP (TO to)(NP (NNP U.S.))))))))))) |ET| 
-1  |BT| (S (NP (NNP Cheney)(CC and)(NNP Lieberman))(, ,)(PP (IN with)(NP (NN moderator)(NNP Bernie)(NNP Shaw)))(, ,)(VP (VBD met)(PP (IN at)(NP (NP (NNP Centre)(NNP College)))))) |ET| 
1  |BT| (NP (JJ Republican)(NN nominee)) |ET| 
-1  |BT| (NP (JJ Republican)(NN nominee)) |ET| 
0.36876611838922412900387826084625  |BT| (S (S (S (NP (PP (NP (NNS homes))))(, ,)(VP (VBP play)(NP (NN soccer))))(, ,)(CC or)(S (PP (IN till)(NP (DT the)(NNS fields)))(, ,)(NP (CC but))(VP (VBP do)(RB n't)(VP (VB vote)))))(, ,)('' '')(NP (NN party)(NN representative))) |ET| 
-1  |BT| (NP (NP (NN party))(PP (IN from)(NP (NP (NNP Montenegro))))) |ET| 
1  |BT| (NP (NP (NNP Herblock)(POS 's))(JJ first)(NP (JJ full-time)(NN cartoonist))) |ET| 
-1  |BT| (S (NP (NP (NNP Herblock)(POS 's))(JJ first)(NP (JJ full-time)(NN cartoonist)(POS 's))(NN job))(VP (VBD was)(PP (IN on)(NP (DT the)(NNP Chicago)(NNP Daily)(NNP News))))) |ET| 
1  |BT| (NP (NP (NNS troops))(PP (IN from)(NP (DT the)(NN tomb)))) |ET| 
-1  |BT| (S (NP (NNS Dozens))(VP (VP (VBD climbed)(PP (IN on)(NP (NP (DT the)(NN roof))(PP (IN of)(NP (DT the)(NN tomb)))))))) |ET| 
1  |BT| (NP (JJ military)(NN party)) |ET| 
-1  |BT| (SBAR (WHNP (WP who))(S (VP (VBD were)(ADVP (RB selectively))(VP (VBN tested)(PP (IN for)(NP (NN cocaine)(NN use)))(SBAR (IN while)(S (S (VP (VBG seeking)(NP (JJ prenatal)(NN care))(PP (IN at)(NP (DT a)(NNP South)(NNP Carolina))))))))))) |ET| 
0.55379990955448132883276457505417  |BT| (S (NP (NP (NN cartoonist)(POS 's))(NN job))(VP (VBD was)(PP (IN on)(NP (DT the)(NNP Chicago)(NNP Daily)(NNP News))))) |ET| 
-1  |BT| (VP (ADVP (PP (NP (NP (NN country)(POS 's))(NN minority))))(NP (ADJP (JJ ethnic)(CC and)(JJ religious))(NNS groups))) |ET| 
0.94958691311928233869110727027874  |BT| (SBAR (WHNP (WP who))(S (VP (VBD were)(ADVP (RB selectively))(VP (VBN tested)(PP (IN for)(NP (NN cocaine)(NN use)))(SBAR (IN while)(S (S (VP (VBG seeking)(NP (JJ prenatal)(NN care))(PP (IN at)(NP (DT a)(NNP South)(NNP Carolina)(NN hospital))))))))))) |ET| 
-0.87318909287606572000584037596127  |BT| (NP (NNP Alabama)(NN jury)) |ET| 
1  |BT| (NP (NP (NN director))(PP (IN of)(NP (NP (DT the)(NNS fisheries))))) |ET| 
-1  |BT| (NP (NP (NN director))(PP (IN of)(NP (DT the)(JJ inaugural)(NN committee)))) |ET| 
0.67624776930375762873381972895004  |BT| (S (NP (PP (NP (NP (NNP Alabama))(: -)(NP (NNP Florida)(NN line))))(, ,))(VP (VBD said)(NP (NNP Mayor)))) |ET| 
-1  |BT| (NP (NP (NNP WAUSAU))(, ,)(NP (NNP Wis))) |ET| 
1  |BT| (NP (JJ nine-member)(JJ inaugural)(NN committee)) |ET| 
-1  |BT| (VP (NP (SBAR (S (VP (NP (SBAR (S (NP (PRP he))(VP (VBD was)(VP (VBG babbling)))))))('' ''))))(PP (IN in)(S (VP (VBG trying)(S (VP (TO to)(VP (VB explain)(S (NP (NP (PRP$ his)(JJ own)(JJ tax-cut)(NN proposal))(PP (IN at)(NP (DT a)(NNP Saturday)(NN campaign))))(VP (VB stop)(PP (IN in)(NP (NNP Florida)))))))))))) |ET| 
1  |BT| (NP (NP (NN island))(PP (IN of)(NP (NNP Java)))) |ET| 
-1  |BT| (NP (NP (CD one))(PP (IN of)(NP (PRP$ my)(NNS teammates)))) |ET| 
0.91151267440676086994955085174297  |BT| (S (NP (NP (PRP$ his)(JJ own)(JJ tax-cut)(NN proposal))(PP (IN at)(NP (DT a)(NNP Saturday)(NN campaign))))(VP (VB stop)(PP (IN in)(NP (NNP Florida))))) |ET| 
-1  |BT| (NP (NP (NN consultant))(PP (IN in)(NP (NNP Tijuana)))) |ET| 
1  |BT| (NP (NP (PRP$ my)(NN family))(CC and)(NP (NP (DT every)(CD one))(PP (IN of)(NP (PRP$ my)(NNS teammates))))) |ET| 
-0.55765368437660456368831773943384  |BT| (NP (PRP$ my)(NN party)) |ET| 
0.97613194418099957783141462641652  |BT| (NP (JJ Democratic)(NN state)(NNP Sen.)(NNP Ellen)(NNP Anderson)) |ET| 
-1  |BT| (S (NP (NP (NP (NNS Police))))(VP (VBD searched)(PP (IN for)(NP (NP (NN separatist)(NNS activists))(PP (IN in)(NP (NP (NNP Indonesia)(POS 's))(JJ war-torn)(NNP Aceh)(NN province))))))) |ET| 
0.82035032516597949925341026755632  |BT| (NP (PRP$ my)(NNP God)) |ET| 
