SVM-light Version V5.01-TK-1.2
5 # kernel type
3 # kernel parameter -d 
1 # kernel parameter -g 
1 # kernel parameter -s 
1 # kernel parameter -r 
empty# kernel parameter -u 
0.4 # kernel parameter -L 
1 # kernel parameter -T 
T # kernel parameter -C 
1 # kernel parameter -F 
1 # kernel parameter -S 
1.000000 # kernel parameter -D 
3 # kernel parameter -N 
S # kernel parameter -V 
S # kernel parameter -W 
0 # highest feature index 
16237 # number of training documents 
1746 # number of support vectors plus 1 
0.93911399 # threshold b, each following line is a SV (starting with alpha*y)
-0.094240807379409874400266744487453  |BT| (NP (NP (NNS guards))(PP (IN from)(NP (DT the)(NNP Border)(NNP Patrol)))) |ET| 
-0.1320356470495597234204865344509  |BT| (S (NP (PP (NP (NNS bomblets))))(VP (VBD was)(VP (VBN found)(PP (IN by)(NP (NP (NNS workers))))))) |ET| 
-0.24385433339873263669517200469272  |BT| (S (S (VP (ADVP (NP (NNS cars)))(NP (NN drive))(PP (IN by)(NP (DT the)(NN site)(JJ daily)))))(CC and)(`` ``)(S (SBAR (IN because)(S (NP (DT the)(NNS players)))))) |ET| 
-0.17463420689036154853646110041154  |BT| (NP (NP (NNS co-chairs))(PP (IN of)(NP (NP (DT the)(ADJP (JJ Ohio-based))(NN investment)(NN firm))))) |ET| 
-0.099282115729876663223762989218812  |BT| (NP (NN car)(NN bomb)) |ET| 
1  |BT| (NP (NNP CAIRO)(, ,)(NNP Egypt)) |ET| 
1  |BT| (NP (NP (NNP Assad))(, ,)(PP (IN on)(NP (NP (PRP$ his)(JJ first)(NN trip))(ADVP (RB abroad))))) |ET| 
1  |BT| (S (NP (NN president))(ADVP (RB rarely))(VP (VBD traveled)(ADVP (RB abroad)))) |ET| 
1  |BT| (NP (NP (NN plateau))(VP (VBN captured)(PP (IN by)(NP (NNP Israel))))) |ET| 
1  |BT| (NP (NNP Golan)(NN land)) |ET| 
-0.65237069940826919456355881266063  |BT| (NP (NP (PRP$ his)(JJ first)(NN trip))(ADVP (RB abroad))) |ET| 
1  |BT| (NP (NP (NNP Indonesia)(POS 's))(JJ war-torn)(NNP Aceh)(ROOT (S (NP (NP (NNP BANDA)(NNP ACEH))(, ,)(NP (NP (NNP Indonesia))(PRN (-LRB- -LRB-)(NP (NNP AP))(-RRB- -RRB-))(NP (CD __)(NNS Police))))(VP (VBD searched)(PP (IN for)(NP (NP (NN separatist)(NNS activists))(PP (IN in)(NP (NP (NNP Indonesia)(POS 's))(JJ war-torn)(NNP Aceh)(NN province))))))))) |ET| 
-0.23876895315402113517677662457572  |BT| (S (NP (NNS officials))(VP (VBD were)(VP (VBN left)(S (VP (VBG standing)(NP (NN guard))(SBAR (IN as)(S (NP (NP (NNS hundreds))(PP (IN of)(NP (NNPS Palestinians))))(VP (VBD converged)(PP (IN on)(NP (DT the)(NN square))))))))))) |ET| 
1  |BT| (NP (NNP CAIRO)(, ,)(NNP Egypt)) |ET| 
-0.75236178430951450302188732166542  |BT| (NP (NNP Jordan)(, ,)(NNP Egypt)) |ET| 
1  |BT| (S (NP (NP (NP (NNS Police))))(VP (VBD searched)(PP (IN for)(NP (NP (NN separatist)(NNS activists))(PP (IN in)(NP (NP (NNP Indonesia)(POS 's))(JJ war-torn)(NNP Aceh)(NN province))))))) |ET| 
-0.031999273410522555138868483481929  |BT| (NP (NNPS Lords)(NNP Baroness)(NNP Young)) |ET| 
1  |BT| (NP (NNP Amman)(, ,)(NNP Jordan)) |ET| 
-0.47625726806241486244175575848203  |BT| (S (S (VP (PP (NP (NNP Amman)(, ,)(NNP Jordan)))))(, ,)(NP (NNP Zaanoun))) |ET| 
1  |BT| (NP (NP (NNP Centre))(PP (IN in)(NP (NP (NNP Danville))))) |ET| 
-0.73718687159467388703149026696337  |BT| (NP (NP (NNP Golan))(, ,)(NP (NP (DT a)(JJ strategic)(NN plateau))(VP (VBN captured)(PP (IN by)(NP (NNP Israel)))))) |ET| 
1  |BT| (S (S (VP (NP (VP (NP (NP (PP (NP (NNP San)))))))))(, ,)(NP (NNP Calif.))) |ET| 
-0.34491637149738085810213306103833  |BT| (S (S (VP (NP (VP (NP (NP (PP (NP (NNP San)))))))))(, ,)(NP (NNP Calif.))(S (NP (NNS Colleges)))) |ET| 
1  |BT| (NP (NP (NNP Michigan)(POS 's))(JJ 8th)(ROOT (S (PP (IN In)(NP (NP (NNP Michigan)(POS 's))(JJ 8th)(NNP District)))))) |ET| 
-1  |BT| (NP (NP (NNS activists))(PP (IN in)(NP (NP (NNP Indonesia)(POS 's))(JJ war-torn)(NNP Aceh)(NN province)))) |ET| 
1  |BT| (NP (NP (NNP CONYERS))(, ,)(NP (NNP Ga))) |ET| 
-1  |BT| (NP (NP (NNP Centre))(PP (IN in)(NP (NP (NNP Danville))(, ,)(NP (NNP Ky))))) |ET| 
1  |BT| (NP (NP (NNS students))(PP (IN in)(NP (DT a)(JJ common)(NN area)))) |ET| 
-1  |BT| (NP (NP (NN rifle))(PP (IN on)(NP (NP (NNS hundreds))(PP (IN of)(NP (NP (NNS students))(PP (IN in)(NP (DT a)(JJ common)(NN area)))))))) |ET| 
1  |BT| (VP (PP (NP (VP (PP (NP (PP (NP (NNP Lanviara))))))))(, ,)(PP (IN near)(NP (NNP Korhogo)))) |ET| 
-0.24244497991428104466393733673613  |BT| (S (PP (NP (NP (NNP Michigan)(POS 's))(JJ 8th)(NNP District)))(, ,)(NP (NNP Republican))) |ET| 
1  |BT| (S (NP (NP (NNP Solomon))(, ,)(NP (RB then)(CD 15))(, ,))(VP (VBD opened)(NP (NN fire))(PP (IN with)(NP (NP (DT a)(JJ sawed-off)(NN rifle))(PP (IN on)(NP (NP (NNS hundreds))(PP (IN of)(NP (NP (NNS students))(PP (IN in)(NP (DT a)(JJ common)(NN area))))))))))) |ET| 
-0.11930296193311712427131965341687  |BT| (S (NP (NP (NNP Solomon))(, ,)(NP (RB then)(CD 15))(, ,))(VP (VBD opened)(NP (NN fire))(PP (IN with)(NP (NP (DT a)(JJ sawed-off)(NN rifle)))))) |ET| 
1  |BT| (NP (NP (PRP$ his)(NN visit))(PP (PP (TO to)(NP (NP (DT this)(NN battleground)(NN state)))))) |ET| 
-0.48498472735145115031230034219334  |BT| (NP (NP (NP (NNP George))(JJ environmental)(NN record))(PP (IN with)(NP (NP (PRP$ his)(NN visit))(PP (PP (TO to)(NP (NP (DT this)(NN battleground)(NN state)))))))) |ET| 
1  |BT| (NP (NP (NNP Danville))(, ,)(NP (NNP Ky))) |ET| 
-1  |BT| (NP (NP (NNP Hicks))(, ,)(NP (NNP Modano))) |ET| 
1  |BT| (NP (NP (NN consulate))(PP (IN in)(NP (NP (NNP Indonesia)(POS 's))(JJ second-largest)(NN city)))) |ET| 
-1  |BT| (NP (NP (NP (NN consulate))(PP (IN in)(NP (NP (NNP Indonesia)(POS 's))(JJ second-largest)(NN city))))(, ,)(NP (NNP Surabaya))) |ET| 
1  |BT| (NP (NP (NNP SEPANG))(, ,)(NP (NP (NNP Malaysia)))) |ET| 
-0.029448199481724446346930790241458  |BT| (VP (PP (NP (VP (PP (NP (NP (NN village))(PP (IN of)(NP (NNP Lanviara))))))))(, ,)(PP (IN near)(NP (NNP Korhogo)))) |ET| 
1  |BT| (S (NP (NP (NNS officers))(PP (IN with)(NP (NN sniffer)(NNS dogs))))(VP (VBD searched)(NP (DT the)(NNS premises)))) |ET| 
-0.14772015394154602851983781874878  |BT| (VP (NP (PRP$ their)(NN session))(SBAR (IN as)(S (NP (NP (NNS police)(NNS officers))(PP (IN with)(NP (NN sniffer)(NNS dogs))))(VP (VBD searched)(NP (DT the)(NNS premises)))))) |ET| 
1  |BT| (NP (NP (NN heart))(PP (IN of)(NP (NNP Jerusalem)))) |ET| 
-1  |BT| (NP (NP (NN consulate))(PP (IN in)(NP (NP (NNP Indonesia))))) |ET| 
1  |BT| (NP (NP (NNP Daniel)(POS 's))(ROOT (S (S (VP (VBN Asked)(SBAR (IN if)(S (NP (PRP he))(VP (MD would)(VP (VB be)(VP (VBN concerned)(PP (IN for)(NP (PRP$ his)(NN safety))))))))))(S (SBAR (IN if)(S (VP (VBN released))))(, ,)(S (NP (NP (NNP Chapman))(, ,)(SBAR (WHNP (WP who))(S (VP (VBZ is)(VP (VBG being)(VP (VBN held)(PP (IN in)(NP (JJ protective)(NN custody)))(PP (ADVP (RB apart))(IN from)(NP (JJ other)(NNS inmates))))))))(, ,))(VP (VBD said)(SBAR (S (NP (PRP he))(VP (VBD believed)(SBAR (IN that)(S (NP (NNP God))(`` ``)(VP (VBD kept)(NP (NP (NP (DT the)(NNS lions)(POS '))(NNS mouths))(VP (VBN shut)(PP (IN in)(NP (NP (NNP Daniel)(POS 's))(NN den))))))))))))))))) |ET| 
-0.017058030885008675786584930733625  |BT| (S (S (NP (NNS homes))(VP (VBD were)(VP (VBN reported)(S (VP (VBN destroyed))))))(CC and)(S (NP (NP (NNS trees))(CC and)(NP (NN power)(NNS lines)))(VP (VBD were)(VP (VBN toppled)(PP (IN in)(NP (NNP Limestone)(NNP County))))))) |ET| 
1  |BT| (NP (NP (NN headquarters))(PP (IN in)(NP (NP (NNP McLean))))) |ET| 
-0.048097627736889636551609328307677  |BT| (NP (NN labor)(NNS unions)) |ET| 
1  |BT| (NP (NNP JAKARTA)(, ,)(NNP Indonesia)) |ET| 
-0.22550769762474381918693211446225  |BT| (NP (NNP Russia)(, ,)(NNP France)) |ET| 
1  |BT| (NP (NP (NP (NN spokeswoman))(PP (IN in)(NP (DT the)(NNP Bush))))(: -)(NP (NP (NNP Cheney)(NN transition)(NN headquarters)))) |ET| 
-0.021368737588873809585265917121433  |BT| (NP (NNP NFL)(JJ first-round)(NNS selections)) |ET| 
1  |BT| (NP (PP (NP (PP (NP (NNP Persian)))))(, ,)(PP (JJ such)(IN as)(NP (JJ conservative)(NNP Saudi)(NNP Arabia)))) |ET| 
-0.073278378387967441076611407879682  |BT| (NP (NP (NP (NNP ARLINGTON)(, ,)(NNP Texas))(PRN (-LRB- -LRB-)(NP (NNP AP))(-RRB- -RRB-)))(PP (NP (NNP __)(CD One))(IN of)(NP (NP (NN baseball)(POS 's))(JJS biggest)(JJ free-agent)(NNS prizes)))) |ET| 
1  |BT| (NP (NP (NN village))(PP (IN in)(NP (JJ northern)(NNP Italy)))) |ET| 
-0.55305972293426108876701619010419  |BT| (S (NP (NP (NN village))(PP (IN in)(NP (JJ northern)(NNP Italy))))(VP (VBN buried)(NP (NP (CD five)(NNS victims))))) |ET| 
1  |BT| (VP (PP (NP (NNS parents)))(PP (IN during)(NP (NP (DT a)(NN photo)(NN opportunity))(PP (IN at)(NP (NP (PRP$ his)(NN residence))))))) |ET| 
-1  |BT| (VP (PP (NP (NNS parents)))(PP (IN during)(NP (NP (DT a)(NN photo)(NN opportunity))(PP (IN at)(NP (NP (PRP$ his))))))) |ET| 
1  |BT| (NP (NP (NNP Bush)(NNS visits))(PP (TO to)(NP (NP (DT the)(NN ranch))))) |ET| 
-0.16671740161634829302528260086547  |BT| (NP (NP (NNP Bush)(NNS visits))(PP (TO to)(NP (NP (DT the)(NN ranch))(PP (IN near)(NP (NNP Waco)))))) |ET| 
1  |BT| (VP (PP (NP (PP (NP (NNS targets)))))(PP (IN in)(NP (NNP Europe)))) |ET| 
-0.38769264619385801484696685292874  |BT| (VP (PP (NP (PP (NP (ADJP (JJ American))(NNS targets)))))(PP (IN in)(NP (NNP Europe)))) |ET| 
1  |BT| (NP (NP (NN ranch))(PP (IN near)(NP (NNP Waco)))) |ET| 
-0.83502927383098357605462069841451  |BT| (NP (NP (NN acre))(PP (IN of)(NP (NN land)))) |ET| 
1  |BT| (VP (PP (NP (NNP Houston)))(PP (IN in)(NP (JJ late)(NNP September)))(S (VP (TO to)(VP (VB attack)(NP (NP (NNP Bush)(POS 's))(JJ environmental)(NN record))(PP (IN at)(NP (NP (DT a)(NN park)))))))) |ET| 
-0.39885329233025446082905318689882  |BT| (S (NP (PRP He))(VP (VBD traveled)(PP (TO to)(NP (NNP Houston)))(PP (IN in)(NP (JJ late)(NNP September)))(S (VP (TO to)(VP (VB attack)(NP (NP (NNP Bush)(POS 's))(JJ environmental)(NN record))(PP (IN at)(NP (NP (DT a)(NN park))))))))) |ET| 
1  |BT| (NP (NP (NN middle))(PP (IN of)(NP (NN town)))) |ET| 
-1  |BT| (NP (NP (NN ranch))(PP (IN near)(NP (NNP Waco)(, ,)(NNP Texas)))) |ET| 
1  |BT| (S (NP (PRP He))(VP (VBD traveled)(PP (TO to)(NP (NNP Houston))))) |ET| 
-0.13633096142309253373525734787108  |BT| (NP (NNS fisheries)(NN section)) |ET| 
1  |BT| (NP (NNP Waco)(, ,)(NNP Texas)) |ET| 
-0.3667206542029934901449905737536  |BT| (S (NP (PRP He))(ADVP (RB then))(VP (VBD flew)(PP (TO to)(NP (NP (DT this)(NN beach)))))) |ET| 
1  |BT| (S (NP (NP (NN frontier))(PP (IN between)(NP (NP (NNP Mexico))(CC and)(NP (DT the)(NNP United)(NNPS States)))))(VP (VBZ is)(VP (VP (VBN delineated)(PP (IN by)(NP (NN steel)(NNS walls))))(CC and)(VP (VBN barbed)(NP (NP (NN wire))))))) |ET| 
-0.20028548275718102700260203619109  |BT| (S (NP (PP (NP (NP (NNP Mexico))(CC and)(NP (DT the)(NNP United)(NNPS States)))))(VP (VBZ is)(VP (VP (VBN delineated)(PP (IN by)(NP (NN steel)(NNS walls))))(CC and)(VP (VBN barbed)(NP (NP (NN wire))))))) |ET| 
1  |BT| (S (NP (PRP He))(ADVP (RB then))(VP (VBD flew)(PP (TO to)(NP (NP (DT this)(NN beach)(NN resort)))))) |ET| 
-0.98880274632635545284387035280815  |BT| (NP (NP (NNS women))(PP (IN in)(NP (NP (DT some)(NNS parts))(PP (IN of)(NP (DT the)(NNP Persian)(NNP Gulf)))))(, ,)(PP (JJ such)(IN as)(NP (JJ conservative)(NNP Saudi)(NNP Arabia)))) |ET| 
1  |BT| (NP (NP (NNP Heritage))(PP (IN in)(NP (NNP Conyers)))) |ET| 
-0.20751571532110552054106733521621  |BT| (NP (NP (NNP Rice))(PP (IN in)(NP (NNP Houston)))) |ET| 
1  |BT| (NP (NP (NNS parts))(PP (IN of)(NP (DT the)(NNP Persian)(NNP Gulf)))) |ET| 
-0.33606008760792560607910672842991  |BT| (NP (NNS backers)) |ET| 
1  |BT| (VP (PP (NP (NP (NN center))))(PP (IN in)(NP (NP (NNP North)(NNP Rhine-Westphalia))))) |ET| 
-0.2282300512493729005569775836193  |BT| (VP (PP (NP (NP (NN center))))(PP (IN in)(NP (NP (NNP North)(NNP Rhine-Westphalia))(, ,)(NP (NP (NNP Germany)))))) |ET| 
1  |BT| (S (PP (NP (NNP Alabama)))(, ,)(S (PP (IN about)(NP (CD eight)))(NP (NNS homes)))) |ET| 
-0.18017397049164504685414556206524  |BT| (VP (ADVP (NN home))(PP (TO to)(NP (NNP Jasper)))(, ,)(SBAR (WHADVP (WRB where))(S (NP (DT a)(JJ black)(NN man))(VP (VBD was)(VP (VBN dragged)(PP (TO to)(NP (PRP$ his)(NN death)))(PP (IN from)(NP (DT a)(NN pickup)(NN truck)))(PP (IN by)(NP (NP (CD three)(JJ white)(NNS men))))))))) |ET| 
1  |BT| (NP (NP (JJ NICE))(, ,)(NP (NP (NNP France)))) |ET| 
-0.076321653607741263281027954690217  |BT| (NP (NP (NN taxiway))(PP (IN at)(NP (NP (DT the)(NN airport))))) |ET| 
1  |BT| (VP (PP (NP (NN square)))(PP (IN in)(NP (NP (NN front))(PP (IN of)(NP (DT the)(NN site)))))) |ET| 
-1  |BT| (S (NP (PP (NP (NNPS Palestinians))))(VP (VBD converged)(PP (IN on)(NP (DT the)(NN square)))(PP (IN in)(NP (NP (NN front))(PP (IN of)(NP (DT the)(NN site))))))) |ET| 
1  |BT| (NP (NP (NNP FRANKFURT))(, ,)(NP (NP (NNP Germany)))) |ET| 
-1  |BT| (NP (NP (NNP North))(, ,)(NP (NP (NNP Germany)))) |ET| 
1  |BT| (NP (NP (NN hamlet))(PP (IN near)(NP (NP (DT the)(NN city))(PP (IN of)(NP (NNP Aosta)))))) |ET| 
-1  |BT| (NP (NP (NN city))(PP (IN of)(NP (NNP Aosta)))) |ET| 
1  |BT| (NP (NP (PP (NP (NNP Matamoros))))(, ,)(NP (NNP Mexico))) |ET| 
-0.037921743588553935566665131773334  |BT| (NP (NN RV)(NNS owners)) |ET| 
1  |BT| (NP (NP (NN group))(PP (IN of)(NP (NP (JJ undecided)(NNS voters))(VP (VBN recruited)(PP (IN by)(NP (NP (NNP NBC))(PP (IN in)(NP (NP (NNP Tampa)))))))))) |ET| 
-0.028563521253289612944481490330872  |BT| (NP (NP (NNP Laurent))(, ,)(NP (DT a)(NN history)(NN professor))) |ET| 
1  |BT| (S (NP (PP (NP (NNPS Palestinians))))(VP (VBD converged)(PP (IN on)(NP (DT the)(NN square))))) |ET| 
-0.037455389296953932320999314242727  |BT| (S (NP (PRP He))(VP (VBD claimed)(PP (IN for)(NP (DT the)(NNP Supreme)(NNP Court))))) |ET| 
1  |BT| (NP (NP (NN DORTMUND))(, ,)(NP (NP (NP (NNP Germany))))) |ET| 
-0.091262344954899932147895924572367  |BT| (NP (NP (NN party))(, ,)(NP (NP (NNP Manuel)(NNP Andrade)))) |ET| 
1  |BT| (S (NP (NP (NNS Schools))(CC and)(NP (DT some)(NNS businesses)))(VP (VBD closed)(PP (IN in)(NP (NP (NNS parts)))))) |ET| 
-1  |BT| (S (NP (NP (NNS Schools))(CC and)(NP (DT some)(NNS businesses)))(VP (VBD closed)(PP (IN in)(NP (NP (NNS parts))(PP (IN of)(NP (NNP Nebraska))))))) |ET| 
1  |BT| (NP (NP (NNP Yugoslavia)(POS 's))(JJR smaller)(ROOT (S (ADVP (RB Together)(PP (IN with)(NP (NP (DT an)(VBN allied)(NN party))(PP (IN from)(NP (NP (NNP Montenegro))(, ,)(NP (NP (NNP Yugoslavia)(POS 's))(JJR smaller)(NN republic)))))))))) |ET| 
-0.72167669298682468603800543860416  |BT| (NP (NP (NNP Montenegro))(, ,)(NP (NP (NNP Yugoslavia)(POS 's))(JJR smaller)(NN republic))) |ET| 
1  |BT| (NP (NP (NNS sections))(PP (IN of)(NP (NNP Nebraska)))) |ET| 
-1  |BT| (VP (PP (NP (PP (NP (PP (NP (NP (NNS students))(PP (IN in)(NP (DT a)(JJ common)(NN area)))))))))(PP (IN at)(NP (NP (NNP Heritage)(NNP High)(NNP School))))) |ET| 
1  |BT| (NP (NP (NNP Serbia))(, ,)(NP (DT the)(JJ main)(JJ Yugoslav))) |ET| 
-1  |BT| (NP (NP (NNP Alabama))(, ,)(NP (NNP Georgia))) |ET| 
1  |BT| (VP (PP (NP (PP (NP (PP (NP (PP (NP (NN area)))))))))(PP (IN at)(NP (NP (NNP Heritage)(NNP High)(NNP School))))) |ET| 
-0.26081573918240658072065230044245  |BT| (S (NP (NNP Russian)(NNP Foreign)(NNP Minister)(NNP Ivanov))(VP (VBD was)(PP (IN in)(NP (NP (NNP Yugoslavia)))))) |ET| 
1  |BT| (NP (NP (NNP Tampa))(, ,)(NP (NNP Fla))) |ET| 
-0.17148480690755607547259842249332  |BT| (NP (NP (NNP George))(, ,)(NP (DT the)(JJ Republican)(JJ presidential))) |ET| 
1  |BT| (NP (NP (NN base))(PP (IN in)(NP (DT a)(JJ civilian)(NN area)))) |ET| 
-0.33748820584063249361506109380571  |BT| (NP (NP (NN base))(PP (IN in)(NP (DT a)(JJ civilian)))) |ET| 
1  |BT| (NP (NP (NNP NABLUS))(, ,)(NP (NP (NNP West)(NNP Bank)))) |ET| 
-0.11367395136934310695409067193395  |BT| (NP (NP (NNP Jean))(, ,)(NP (NP (NP (NNP Herblock))))) |ET| 
1  |BT| (NP (NP (NN camp))(PP (IN in)(NP (NN Dove)(NNP Valley)))) |ET| 
-0.35801045637747996863708976889029  |BT| (NP (NP (NP (NNS Broncos)(POS '))(NN training)(NN camp))(PP (IN in)(NP (NN Dove)(NNP Valley)))) |ET| 
1  |BT| (NP (NP (NNP BAGHDAD))(, ,)(NP (NP (NNP Iraq)))) |ET| 
-1  |BT| (NP (NP (NN state))(PP (IN of)(NP (NNP Texas)))) |ET| 
1  |BT| (S (NP (PRP he))(VP (VBD looked)(ADJP (JJ great))(SBAR (IN while)(S (S (VP (VBG resting)(PRT (RP up))))(CC and)(S (VP (VBG enjoying)(NP (NNP Thanksgiving))(PP (IN at)(NP (NNP George)(NNP Washington)(NNP University)(NNP Hospital))))))))) |ET| 
-0.52065742303149697978170706846868  |BT| (SBAR (SBAR (S (NP (NN patient))(VP (VBD was)(PP (IN in)(NP (JJ good)(NN condition))))))(CC and)(SBAR (IN that)(S (NP (PRP he))(VP (VBD looked)(ADJP (JJ great))(SBAR (IN while)(S (S (VP (VBG resting)(PRT (RP up))))(CC and)(S (VP (VBG enjoying)(NP (NNP Thanksgiving))(PP (IN at)(NP (NNP George)(NNP Washington)(NNP University)(NNP Hospital))))))))))) |ET| 
1  |BT| (VP (NP (NP (NN acre))(PP (IN of)(NP (NN land))))(PP (IN about)(NP (NP (DT a)(NN mile))(PP (IN from)(NP (NP (NP (DT the)(NNS Broncos)(POS '))(NN training)(NN camp))))))) |ET| 
-0.30984056369680773590502553815895  |BT| (VP (NP (PP (NP (NN land))))(PP (IN about)(NP (NP (DT a)(NN mile))(PP (IN from)(NP (NP (NP (DT the)(NNS Broncos)(POS '))(NN training)(NN camp))))))) |ET| 
1  |BT| (VP (NP (SBAR (S (VP (NP (SBAR (S (NP (PRP he))(VP (VBD was)(VP (VBG babbling)))))))('' ''))))(PP (IN in)(S (VP (VBG trying)(S (VP (TO to)(VP (VB explain)(S (NP (NP (PRP$ his)(JJ own)(JJ tax-cut)(NN proposal))(PP (IN at)(NP (DT a)(NNP Saturday)(NN campaign))))(VP (VB stop)(PP (IN in)(NP (NNP Florida)))))))))))) |ET| 
-0.018124213230239827332468394160969  |BT| (S (NP (NN community))(VP (VBZ has)(VP (VBN dwindled)(PP (TO to)(NP (CD 25,000)))))) |ET| 
1  |BT| (NP (NP (NN state))(PP (IN in)(NP (DT the)(NN country)))) |ET| 
-1  |BT| (NP (NP (NN hamlet))(PP (IN near)(NP (NP (DT the)(NN city))))) |ET| 
1  |BT| (VP (NP (PP (NP (NNP Denmark))))(PP (IN in)(NP (NP (CD 1985))(SBAR (WHNP (WDT that))(S (VP (VBD killed)(NP (DT a)(JJ Jewish)(JJ civilian)))))))) |ET| 
-0.23479925654776309662530309196882  |BT| (VP (NP (NP (JJ terrorist)(NN attack))(PP (IN in)(NP (NNP Denmark))))(PP (IN in)(NP (NP (CD 1985))(SBAR (WHNP (WDT that))(S (VP (VBD killed)(NP (DT a)(JJ Jewish)(JJ civilian)))))))) |ET| 
1  |BT| (NP (NP (ADJP (PP (NP (PP (NP (NP (NNP Odense))(, ,)(NP (CD 105)(NNS miles)))))))(NN west))(PP (IN of)(NP (NP (DT the)(NN capital))))) |ET| 
-0.46585582535109709700904545570666  |BT| (NP (NP (ADJP (PP (NP (PP (NP (NP (NNP Odense))(, ,)(NP (CD 105)(NNS miles)))))))(NN west))(PP (IN of)(NP (NP (DT the)(NN capital))(, ,)(NP (NNP Copenhagen))))) |ET| 
1  |BT| (NP (JJ Javanese)(NN city)) |ET| 
-1  |BT| (NNP West) |ET| 
1  |BT| (NP (NP (NN community))(PP (IN in)(NP (NP (DT the)(NNP Middle)(NNP East))))) |ET| 
-0.17182187510203505986794425552944  |BT| (NP (NP (NNP South))(, ,)(NP (JJ eastern)(NNP Colorado))) |ET| 
1  |BT| (NP (JJ Indonesian)(NNP West)(NNP Timor)) |ET| 
-0.17103478542634742431971517362399  |BT| (NP (JJ Indonesian)(NNS leaders)) |ET| 
1  |BT| (S (NP (PRP he))(VP (VBD was)(PP (IN under)(NP (NP (NN house)(NN arrest))(PP (IN in)(NP (NNP London))))))) |ET| 
-0.75178036483340016093990243462031  |BT| (VP (PP (NP (PRP him)))(SBAR (IN while)(S (NP (PRP he))(VP (VBD was)(PP (IN under)(NP (NP (NN house)(NN arrest))(PP (IN in)(NP (NNP London))))))))) |ET| 
1  |BT| (NP (JJ Indonesian)(NNS regions)) |ET| 
-0.063487984087387538956193111516768  |BT| (NP (JJ Indonesian)(NNS officials)) |ET| 
1  |BT| (S (NP (PRP He))(VP (VBD admitted)(S (VP (VBG carrying)(PRT (RP out))(NP (NP (DT a)(JJ terrorist)(NN attack))(PP (IN in)(NP (NNP Denmark)))))))) |ET| 
-0.31964738347685006658593920292333  |BT| (S (NP (PRP He))(VP (VBD admitted)(S (VP (VBG carrying)(PRT (RP out))(NP (NP (DT a)(JJ terrorist))))))) |ET| 
1  |BT| (NP (JJ Palestinian)(NNS territories)) |ET| 
-0.96682391902774278413801312126452  |BT| (NP (JJ Palestinian)(NNS territories)) |ET| 
1  |BT| (SBAR (WHNP (WP who))(S (VP (VBZ has)(VP (VBN lived)(PP (IN near)(NP (NP (DT the)(NN site)))))))) |ET| 
-0.41585876477157995845246318822319  |BT| (NP (NP (NNP Jeff))(, ,)(SBAR (WHNP (WP who))(S (VP (VBZ has)(VP (VBN lived)(PP (IN near)(NP (NP (DT the)(NN site))))))))) |ET| 
1  |BT| (S (NP (NNS planes))(VP (VBD carried)(NP (NNS businessmen)(CC and)(NNS doctors)))) |ET| 
-0.0050940321093490420478744340471167  |BT| (S (NP (NNS thousands))(VP (VBD were)(ADVP (RB still))(NP (NP (ADJP (JJ unable)(S (VP (TO to)(VP (VB go)(ADVP (RB back))(PP (TO to)(NP (NP (PRP$ their)))))))))))) |ET| 
1  |BT| (S (ADVP (PP (NP (NP (NP (NNS leaders))(PP (IN of)(NP (NNP Europe)))))))(VP (VBD filed)(PP (IN into)(NP (NP (DT a)(JJ small)(, ,)(JJ windowless)(NN room)))))) |ET| 
-0.91060497030725739975309807050508  |BT| (S (ADVP (PP (NP (NP (PP (NP (NNP Europe)))))))(VP (VBD filed)(PP (IN into)(NP (NP (DT a)(JJ small)(, ,)(JJ windowless)(NN room)))))) |ET| 
1  |BT| (NP (JJ European)(NNS countries)) |ET| 
-0.27066968131201363245708080285112  |BT| (NP (NP (NNS commissions))(PP (IN with)(NP (JJ key)(NNS countries)))) |ET| 
1  |BT| (S (NP (NNP Lieberman))(VP (MD will)(VP (VB be)(VP (VBN dispatched)(PP (TO to)(NP (NP (NP (NNP Texas))))))))) |ET| 
-0.40953646019045053527918298641453  |BT| (VP (NP (NN plane))(PP (TO to)(NP (NNP Iraq)))) |ET| 
1  |BT| (S (NP (NP (PP (NP (NNS officers))))(, ,)(NP (NP (DT some))(PP (IN with)(NP (NNS shields))))(, ,))(VP (VBD stood)(PP (IN around)(NP (DT the)(NNS protesters))))) |ET| 
-0.16962084366102492261063616751926  |BT| (S (NP (NP (NP (DT some))(PP (IN with)(NP (NNS shields))))(, ,))(VP (VBD stood)(PP (IN around)(NP (DT the)(NNS protesters))))) |ET| 
1  |BT| (VP (NP (NN tomb))(PP (IN with)(NP (PRP$ his)(NNS friends)))) |ET| 
-0.12749102760074004780932455105358  |BT| (NP (PRP$ his)(NNS friends)) |ET| 
1  |BT| (NP (NP (NN plane))(VP (VBG carrying)(NP (NP (NN actress)(NNP Sandra)(NNP Bullock))(CC and)(NP (CD three)(JJ other)(NNS people))))) |ET| 
-0.30873216345056631038090699803433  |BT| (S (NP (NP (NN plane))(VP (VBG carrying)(NP (NP (NN actress)(NNP Sandra)(NNP Bullock))(CC and)(NP (CD three)(JJ other)(NNS people)))))(VP (VP (VBD missed)(NP (DT a)(NN runway))))) |ET| 
1  |BT| (S (NP (NNP Parkhurst))(VP (VBD moved)(PP (IN with)(NP (PRP$ his)(NN family)))(PP (TO to)(NP (NNP California))))) |ET| 
-0.36019077412540601024204534041928  |BT| (S (NP (NNP Parkhurst))(VP (VBD moved)(PP (IN with)(NP (PRP$ his)(NN family))))) |ET| 
1  |BT| (S (NP (VP (VP (PP (NP (NN headquarters))))))(VP (VP (VBD shot)(NP (DT a)(NN veteran)(NN detective))))) |ET| 
-0.23869587430611305389760445905267  |BT| (S (NP (VP (VP (PP (NP (NN police)(NN headquarters))))))(VP (VP (VBD shot)(NP (DT a)(NN veteran)(NN detective))))) |ET| 
-0.21624921679545081043549714649998  |BT| (NP (NP (NN farmer))(VP (VBG strolling)(NP (NN home))(PP (TO to)(NP (NNP Matamoros))))) |ET| 
1  |BT| (S (NP (PRP they))(VP (VBD met)(PP (IN in)(NP (NNP Boston))))) |ET| 
-0.37459557872495369279519650262955  |BT| (S (S (VP (ADVP (SBAR (S (NP (PRP they))(VP (VBD met)(PP (IN in)(NP (NNP Boston)))))))))(, ,)('' '')(NP (NNP Tom)(NNP Brokaw))) |ET| 
1  |BT| (NP (NP (NN location))(PP (IN for)(NP (DT a)(NNS sports)(NN bar)))) |ET| 
-0.58354423144162037573323686956428  |BT| (NP (NP (NN place))(PP (IN for)(NP (DT a)(NNS sports)(NN bar)))) |ET| 
1  |BT| (S (NP (NP (NNP Bullock))(, ,)(SBAR (WHNP (WP who))(S (VP (VBZ stars)(PP (IN in)(NP (NP (DT the)(JJ current))(`` ``)(NP (NNP Miss)(NNP Congeniality)))))))(, ,)('' ''))(VP (VBD was)(ADVP (IN aboard)(NP (DT the)(NN plane))))) |ET| 
-0.33845034923619449207521370226459  |BT| (S (NP (NP (NNP Bullock))(, ,)(SBAR (WHNP (WP who))(S (VP (VBZ stars)(PP (IN in)(NP (NP (DT the)(JJ current))(`` ``)(NP (NNP Miss)(NNP Congeniality)))))))(, ,)('' ''))(VP (VBD was)(ADVP (IN aboard)(NP (DT the)(NN plane)))(PP (IN with)(NP (NP (CD two)(NN crew)(NNS members)))))) |ET| 
1  |BT| (VP (ADVP (NN home))(PP (TO to)(NP (NNP Jasper)))) |ET| 
-0.10312647293807110371322011133088  |BT| (S (NP (NN district))(ADVP (RB also))(VP (VBZ is)(ADVP (NN home))(PP (TO to)(NP (NNP Jasper))))) |ET| 
1  |BT| (S (PP (PP (NP (NN shuttle))))(, ,)(NP (NNP Michael)(NNP Lopez-Alegria))) |ET| 
1  |BT| (SBAR (WHNP (WP who))(S (VP (VBD were)(ADVP (RB selectively))(VP (VBN tested)(PP (IN for)(NP (NN cocaine)(NN use)))(SBAR (IN while)(S (S (VP (VBG seeking)(NP (JJ prenatal)(NN care))(PP (IN at)(NP (DT a)(NNP South)(NNP Carolina))))))))))) |ET| 
-0.11487836236674703327409474695742  |BT| (NP (NP (NNS women))(SBAR (WHNP (WP who))(S (VP (VBD were)(ADVP (RB selectively))(VP (VBN tested)(PP (IN for)(NP (NN cocaine)(NN use)))(SBAR (IN while)(S (S (VP (VBG seeking)(NP (JJ prenatal)(NN care))(PP (IN at)(NP (DT a)(NNP South)(NNP Carolina)))))))))))) |ET| 
1  |BT| (S (NP (ADJP (JJ many)))(ADVP (RB here))) |ET| 
-1  |BT| (S (NP (NNS people))(ADVP (RB here))) |ET| 
-0.14435684557991845800017927103909  |BT| (S (PP (PP (NP (NN shuttle))))(, ,)(NP (NNP Michael)(NNP Lopez-Alegria))(VP (VBD used)(NP (DT the)(NN robot)(NN arm))(S (VP (TO to)(VP (VB give)(NP (NNP Chiao))))))) |ET| 
1  |BT| (NP (NP (NNS fans))(PP (IN at)(NP (NP (DT a)(NN hotel))))) |ET| 
-0.85616193051485955933799232298043  |BT| (NP (NP (NNS non-Muslims))(PP (IN in)(NP (NP (DT the)(NN country))))) |ET| 
1  |BT| (SBAR (WHNP (WDT that))(S (VP (VBP separate)(NP (DT the)(NNP Mississippi)(NNP Sound))))) |ET| 
-0.03282666319850990888085107144434  |BT| (NP (NP (NNP Carting))(, ,)(NP (DT a)(NN go-cart)(NN magazine))) |ET| 
1  |BT| (S (NP (PRP He))(ADVP (RB later))(VP (VP (VBD quit)(S (VP (TO to)(VP (VB spend)(NP (NP (DT a)(NN year))(VP (VBG traveling)(PP (IN in)(NP (NNP Europe))))))))))) |ET| 
-0.20198478701465374940404728931753  |BT| (S (NP (PRP He))(ADVP (RB later))(VP (VP (VBD quit)(S (VP (TO to)(VP (VB spend)(NP (NP (DT a)(NN year))(VP (VBG traveling)(PP (IN in)(NP (NNP Europe)))))))))(CC and)(VP (VBD returned)(S (VP (TO to)(VP (VB become)(NP (NP (NN art)(NN director))))))))) |ET| 
1  |BT| (S (NP (NNS tourists))(VP (VBP leave)(NP (NP (DT the)(NN country))))) |ET| 
-0.26686908677041532023110903537599  |BT| (S (NP (JJ American)(NNS tourists))(VP (VBP leave)(NP (NP (DT the)(NN country))))) |ET| 
1  |BT| (NP (NP (QP (NN half)))(SBAR (S (VP (VBG containing)(NP (JJ deadly)(NN sarin)(NN nerve)(NN gas)))))) |ET| 
-0.0080160587667437166459194486378692  |BT| (NP (NP (`` ``))(, ,)('' '')(NP (NP (QP (IN at)(JJS least)(NN half)))(SBAR (S (VP (VBG containing)(NP (JJ deadly)(NN sarin)(NN nerve)(NN gas))))))) |ET| 
1  |BT| (NP (NP (NN market))(PP (IN in)(NP (NP (DT the)(NN heart))))) |ET| 
-0.81428349580257275430739127841662  |BT| (NP (NP (NN market))(PP (IN in)(NP (NP (DT the)(NN heart))(PP (IN of)(NP (NNP Jerusalem)))))) |ET| 
1  |BT| (NP (NP (NNP Brownsville)(POS 's))(NN shopping)(ROOT (S (`` ``)(S (S (ADVP (RB Back)(RB then))(NP (PRP it))(VP (VBD was)(ADJP (JJ simple)(S (VP (TO to)(VP (VB get)(S (NP (NNS papers))(VP (TO to)(VP (VB work)(ADVP (RB here)))))))))))(, ,)(CC and)(S (NP (PRP you))(VP (MD could)(ADVP (RB just))(VP (VB come)(PRT (RP across))))))(, ,)('' '')(NP (NNP Arebalo))(VP (VBD said)(SBAR (IN as)(S (NP (PRP she))(VP (VBD stepped)(PRT (RP off))(NP (DT the)(JJ international)(NN bridge))(PP (IN into)(NP (NP (NNP Brownsville)(POS 's))(NN shopping)(NN district)))))))))) |ET| 
-0.76104312457985123785420000785962  |BT| (VP (ADVP (RB here))(ADVP (RB together))) |ET| 
1  |BT| (NP (NP (NN oasis))(PP (IN of)(NP (NP (NN stability))(PP (IN amid)(NP (NP (DT the)(NN unrest))(SBAR (WHNP (WDT that))(S (VP (VBZ plagues)(NP (NP (RB much))(PP (IN of)(NP (NNP West)(NNP Africa)))))))))))) |ET| 
-0.14658468647375832993873245868599  |BT| (NP (NP (NN choice))(PP (IN of)(NP (NP (DT the)(NNP San)(NNP Francisco)(NNPS 49ers))))) |ET| 
1  |BT| (S (NP (NNP Lieberman))(ADVP (RB also))(VP (VBD was)(VP (VBG traveling)(PP (TO to)(NP (NNP Baltimore)))))) |ET| 
-0.94765173010682191012676867103437  |BT| (S (NP (PRP she))(VP (VBD stepped)(PRT (RP off))(NP (DT the)(JJ international)(NN bridge))(PP (IN into)(NP (NP (NNP Brownsville)))))) |ET| 
1  |BT| (S (NP (NN bomblet))(VP (VBZ holds)(NP (NP (CD 1.3)(NNS pounds))(PP (IN of)(NP (NP (NN sarin))))))) |ET| 
-0.23264826225896895195432989567053  |BT| (S (NP (NN bomblet))(VP (VBZ holds)(NP (NP (CD 1.3)(NNS pounds))(PP (IN of)(NP (NP (NN sarin))(, ,)(VP (VBN designed)(S (VP (TO to)(VP (VB kill)(NP (NN everyone))))))))))) |ET| 
1  |BT| (S (NP (PRP she))(VP (VBD stepped)(PRT (RP off))(NP (DT the)(JJ international)(NN bridge))(PP (IN into)(NP (NP (NNP Brownsville)(POS 's))(NN shopping)(NN district))))) |ET| 
-0.33441008302437258414840925979661  |BT| (S (NP (NNP Arebalo))(VP (VBD said)(SBAR (IN as)(S (NP (PRP she))(VP (VBD stepped)(PRT (RP off))(NP (DT the)(JJ international)(NN bridge))(PP (IN into)(NP (NP (NNP Brownsville)(POS 's))(NN shopping)(NN district)))))))) |ET| 
1  |BT| (NP (NP (NN everyone))(VP (VBN gathered)(ADVP (RB here)))) |ET| 
-0.061636722780125774434623053821269  |BT| (NNP Oklahoma) |ET| 
-0.82611229272168018589184157463023  |BT| (S (NP (JJ Syrian)(NN president))(ADVP (RB rarely))(VP (VBD traveled)(ADVP (RB abroad)))) |ET| 
1  |BT| (S (NP (PRP she))(VP (VBD stepped)(PRT (RP off))(NP (DT the)(JJ international)(NN bridge)))) |ET| 
-0.34262642950879651504436651521246  |BT| (S (NP (NNS bomblets))(VP (MD would)(VP (VB be)(VP (VBN placed)(PP (IN in)(NP (NP (DT an)(JJ oven-sized)(NN chamber))(PP (IN inside)(NP (DT the)(NN building))))))))) |ET| 
-0.23031654703585599519577442606533  |BT| (S (S (S (NP (PRP you))(VP (MD could)(ADVP (RB just))(VP (VB come)(PRT (RP across))))))(, ,)('' '')(NP (NNP Arebalo))(VP (VBD said)(SBAR (IN as)(S (NP (PRP she))(VP (VBD stepped)(PRT (RP off))(NP (DT the)(JJ international)(NN bridge))))))) |ET| 
1  |BT| (NP (NP (NNP Yugoslavia)(POS 's))(JJ dominant)(ROOT (S (PP (IN Despite)(NP (NP (JJ massive))(SBAR (S (VP (VBZ defeats)(PP (IN in)(NP (NP (DT the)(JJ presidential)(NN ballot))(CC and)(NP (JJ local)(NN council)(NNS elections)))))))))(, ,)(NP (DT the)(NNPS Socialists))(ADVP (RB still))(VP (VBP have)(NP (NP (DT a)(NN majority))(PP (IN in)(NP (NP (DT the)(NN state)(NN legislature))(PP (IN of)(NP (NP (NNP Serbia))(, ,)(NP (NP (NNP Yugoslavia)(POS 's))(JJ dominant)(NN republic))))))))))) |ET| 
-0.35235258022594967419749423243047  |BT| (NP (NP (NNP EU)(POS 's))(JJ current)(ROOT (S (PP (IN As)(NP (NP (DT the)(NNP EU)(POS 's))(JJ current)(NN chairman)))))) |ET| 
1  |BT| (S (NP (NP (NNP University))(PP (IN of)(NP (NNP Oklahoma))))(VP (VBD won)(NP (DT the)(NNP Orange)(NNP Bowl))(ADVP (RB there)))) |ET| 
-0.40199094097479287635010791746026  |BT| (NP (NP (NN quarterback))(SBAR (WHADVP (WRB when))(S (NP (NP (DT the)(NNP University))(PP (IN of)(NP (NNP Oklahoma))))(VP (VBD won)(NP (DT the)(NNP Orange)(NNP Bowl))(ADVP (RB there)))))) |ET| 
1  |BT| (S (NP (NNS players))(VP (VBP have)(S (VP (TO to)(VP (VB drive)(PP (IN by)(NP (NP (PRP it))))))))) |ET| 
-0.41242990798631878890390112246678  |BT| (S (NP (NNS players))(VP (VBP have)(S (VP (TO to)(VP (VB drive)(PP (IN by)(NP (NP (PRP it))))))))) |ET| 
1  |BT| (SBAR (WHADVP (WRB where))(S (NP (DT the)(NNS bomblets)))) |ET| 
-0.59877711470077943367584794032155  |BT| (VP (NP (NN area))(SBAR (WHADVP (WRB where))(S (NP (DT the)(NNS bomblets))))) |ET| 
1  |BT| (VP (VP (NP (NNS homes)))(CC and)(VP (VBN overturned)(NP (NP (NNS cars))(PP (IN in)(NP (NP (JJ several)(NNS areas))))))) |ET| 
-0.19429892675742077567946353156003  |BT| (VP (VP (NP (NNS homes)))(CC and)(VP (VBN overturned)(NP (NP (NNS cars))(PP (IN in)(NP (NP (JJ several)(NNS areas))(PP (IN of)(NP (NNP Alabama)))))))) |ET| 
1  |BT| (NP (NNP EU)(NNS governments)) |ET| 
-0.27238229093059085350603254482849  |BT| (NP (NNP EU)(NNS nations)) |ET| 
1  |BT| (NP (NP (NN arsenal)(NN northeast))(PP (IN of)(NP (NNP Denver)))) |ET| 
-0.3434638587557393707427877416194  |BT| (NP (NP (JJ Javanese)(NN city))(PP (IN of)(NP (NNP Solo)))) |ET| 
1  |BT| (NP (NP (NNP Florida)(POS 's))(JJ 22nd)(ROOT (S (S (NP (NN Rush))(VP (NP (NP (NP (NNP Holt))(CC and)(NP (NNP GOP)(NN challenger)(NNP Dick)(NNP Zimmer)))(, ,)(SBAR (WHNP (WP who))(S (VP (ADVP (RB formerly))(VBD held)(NP (DT the)(NN seat)))(: ;))))(PRN (CC and)(PP (IN in)(NP (NP (NNP Florida)(POS 's))(JJ 22nd)(NNP District))))))))) |ET| 
-0.39126037596111074012839026181609  |BT| (S (NP (NN Rush))(VP (NP (NP (NP (NNP Holt))(CC and)(NP (NNP GOP)(NN challenger)(NNP Dick)(NNP Zimmer)))(, ,)(SBAR (WHNP (WP who))(S (VP (ADVP (RB formerly))(VBD held)(NP (DT the)(NN seat)))(: ;))))(PRN (CC and)(PP (IN in)(NP (NP (NNP Florida)(POS 's))(JJ 22nd)(NNP District)))))) |ET| 
1  |BT| (NP (NP (NNS areas))(PP (IN of)(NP (NNP Alabama)))) |ET| 
-0.66637673142865405662149669296923  |BT| (NP (NP (NNS supporters))(PP (IN of)(NP (NNP Suharto)))) |ET| 
1  |BT| (NP (NP (NN designer))(, ,)(VP (VBG showing)(PP (IN in)(NP (DT the)(NNP Petit)(NNP Palais))))) |ET| 
-0.49201559160256025382551570146461  |BT| (NP (NP (JJ French)(NN designer))(, ,)(VP (VBG showing)(PP (IN in)(NP (DT the)(NNP Petit)(NNP Palais))))) |ET| 
1  |BT| (NP (NP (QP (CD five))(NN percent))(PP (IN of)(NP (NNP Afghanistan)))) |ET| 
-0.46589386199727067516818124204292  |BT| (SBAR (WHNP (WDT which))(S (VP (VP (VBZ controls)(NP (NP (QP (RB barely)(CD five))(NN percent))(PP (IN of)(NP (NNP Afghanistan)))))))) |ET| 
1  |BT| (S (NP (NNS forces))(VP (VBD patrolled)(NP (DT the)(NN city)))) |ET| 
-0.98778816525883128552010248313309  |BT| (VP (NP (NNS workers))(PP (IN at)(NP (NP (DT the)(NN paper))))) |ET| 
1  |BT| (SBAR (WHNP (WDT that))(S (VP (VBP separate)(NP (DT the)(NNP Mississippi)(NNP Sound))(PP (IN from)(NP (NP (DT the)(NNP Gulf))(PP (IN of)(NP (NNP Mexico)))))))) |ET| 
-0.56469235316884969222428480861709  |BT| (NP (NP (NNS islands))(SBAR (WHNP (WDT that))(S (VP (VBP separate)(NP (DT the)(NNP Mississippi)(NNP Sound))(PP (IN from)(NP (NP (DT the)(NNP Gulf))(PP (IN of)(NP (NNP Mexico))))))))) |ET| 
1  |BT| (S (NP (NNP Pinochet))(, ,)(ADVP (RB meanwhile))(, ,)(VP (VBD remained)(PP (IN at)(NP (NP (PRP$ his)(NN country)(NN house)))))) |ET| 
-0.84693963573880437500918105797609  |BT| (S (NP (NNP Pinochet))(, ,)(ADVP (RB meanwhile))(, ,)(VP (VBD remained)(PP (IN at)(NP (NP (PRP$ his)(NN country)))))) |ET| 
1  |BT| (NP (NP (NNS passes))(PP (IN between)(NP (NP (DT the)(NN barrier)(NNS islands))))) |ET| 
-1  |BT| (NP (NP (NNS troops))(PP (IN from)(NP (DT the)(NN tomb)))) |ET| 
1  |BT| (VP (NP (PRP him))(PP (IN at)(NP (NN police)))) |ET| 
-1  |BT| (S (NP (NN officer))(VP (VBD was)(VP (VBG booking)(NP (PRP him))(PP (IN at)(NP (NN police)))))) |ET| 
1  |BT| (S (NP (NNS Dozens))(VP (VP (VBD climbed)(PP (IN on)(NP (NP (DT the)(NN roof))(PP (IN of)(NP (DT the)(NN tomb)))))))) |ET| 
-0.060984925744696383276277629192919  |BT| (JJ South) |ET| 
1  |BT| (S (NP (NN officer))(VP (VBD was)(VP (VBG booking)(NP (PRP him))(PP (IN at)(NP (NN police)(NN headquarters)))))) |ET| 
-0.67369510803775023433104252035264  |BT| (VP (NP (PRP him))(PP (IN at)(NP (NN police)(NN headquarters)))) |ET| 
1  |BT| (S (ADVP (RB LONGBOAT))(S (NP (NN KEY)(, ,)(NNP Fla.)))) |ET| 
-0.1737101918679218037766531779198  |BT| (S (NP (NNS organizers))(VP (VBD accused)(NP (NP (NN security)(NNS forces))))) |ET| 
1  |BT| (VP (PP (NP (NNS students)(CC and)(NNS parents)))(PP (IN during)(NP (NP (DT a)(NN photo)(NN opportunity))(PP (IN at)(NP (NP (PRP$ his)(NN residence))))))) |ET| 
-0.066094727511006673426052770992101  |BT| (VP (PP (NP (NNS students)(CC and)(NNS parents)))(PP (IN during)(NP (NP (DT a)(NN photo)(NN opportunity))(PP (IN at)(NP (NP (PRP$ his))))))) |ET| 
1  |BT| (SBAR (WHNP (WP who))(S (VP (VBD went)(PP (IN from)(NP (NNP Matamoros)))(PP (TO to)(NP (NNP North)(NNP Carolina)))(S (VP (TO to)(VP (VB work)(PP (IN in)(NP (NN soybean)(NNS fields))))))))) |ET| 
-0.067671430133355484071167040838191  |BT| (NP (NP (NNP Arebalo))(, ,)(NP (CD 49))(, ,)(SBAR (WHNP (WP who))(S (VP (VBD went)(PP (IN from)(NP (NNP Matamoros)))(PP (TO to)(NP (NNP North)(NNP Carolina)))(S (VP (TO to)(VP (VB work)(PP (IN in)(NP (NN soybean)(NNS fields)))))))))) |ET| 
1  |BT| (VP (NP (NP (NNS prisoners)))(PP (IN in)(NP (PRP$ their)(NNS jails)))) |ET| 
-0.62610981805099552577331678548944  |BT| (VP (NP (NP (NN government)(NNS prisoners)))(PP (IN in)(NP (PRP$ their)(NNS jails)))) |ET| 
1  |BT| (NP (NP (NNP Cedar))(, ,)(NP (NNP Iowa))) |ET| 
-1  |BT| (NP (NP (NNP White))(, ,)(NP (NNP Congress))) |ET| 
1  |BT| (NP (NP (NNPS Indonesians))(NP (NP (NN search)(NNS hotels)))) |ET| 
-0.16213907922524309346279380861233  |BT| (S (NP (NNS slaves))(VP (MD could)(ADVP (RB never))(VP (VB obtain)(NP (NNP U.S.))))) |ET| 
1  |BT| (NNP White) |ET| 
-0.15666442501267652254171025560936  |BT| (NP (NNP California)(NN investor)) |ET| 
1  |BT| (NP (NP (NN park))(PP (IN in)(NP (NP (DT the)(NN shadow))(PP (IN of)(NP (DT an)(NN oil)(NN refinery)))))) |ET| 
-0.59817973979535288275855009487714  |BT| (NP (NP (NN journalist))(PP (IN in)(NP (NP (DT the)(JJ northern)(NN city))))) |ET| 
1  |BT| (NP (NNP Yugoslav)(NN republic)) |ET| 
-1  |BT| (NP (NNP Nebraska)(, ,)(NNP Iowa)) |ET| 
1  |BT| (S (NP (NNP Ivanov))(VP (VBD was)(PP (IN in)(NP (NP (NNP Yugoslavia)))))) |ET| 
-0.44596599932962510681733192541287  |BT| (S (NP (NNP Minister)(NNP Ivanov))(VP (VBD was)(PP (IN in)(NP (NP (NNP Yugoslavia)))))) |ET| 
1  |BT| (NP (NNP Rockwell)(, ,)(NNP Iowa)) |ET| 
-0.34590891181790583974731134730973  |BT| (NP (JJ European)(NN aircraft)(NN consortium)) |ET| 
1  |BT| (SBAR (WHNP (WDT that))(S (VP (MD would)(VP (VB have)(S (VP (TO to)(VP (VB be)(VP (VBN constructed)(PP (IN at)(NP (NP (DT the)(JJ 27-square-mile)(NN arsenal)))))))))))) |ET| 
-0.43780569475898623021947742017801  |BT| (SBAR (WHNP (WDT that))(S (VP (MD would)(VP (VB have)(S (VP (TO to)(VP (VB be)(VP (VBN constructed)(PP (IN at)(NP (NP (DT the)(JJ 27-square-mile)(NN arsenal)(NN northeast))(PP (IN of)(NP (NNP Denver))))))))))))) |ET| 
1  |BT| (NP (JJ French)(NN resort)(NN city)) |ET| 
-0.023384427179116373807232776016463  |BT| (NP (NN beach)(NN resort)) |ET| 
1  |BT| (NP (NP (NNP Pacific))(PP (IN in)(NP (NNP San)(NNP Francisco)))) |ET| 
-0.14439550859129712812034540547756  |BT| (NP (NP (JJ Many))(PP (IN of)(NP (NP (NNP Germany))))) |ET| 
1  |BT| (NP (NN county)(NN jail)) |ET| 
-0.10390554511341298926652143563842  |BT| (SBAR (WHNP (WP who))(S (DT both)(VP (VBD went)(PP (TO to)(NP (DT the)(NNP San)(NNP Francisco)(NNPS Demons)))))) |ET| 
1  |BT| (NP (NP (NN resort))(PP (IN near)(NP (NNP Sarasota)))) |ET| 
-0.60908137965146447179165534180356  |BT| (NP (NP (NN regime))(PP (IN of)(NP (NNP Yugoslav)))) |ET| 
1  |BT| (SBAR (WHNP (WP who))(S (VP (VBD went)(PP (IN from)(NP (NNP Matamoros)))))) |ET| 
-0.017461042406682669714257372106658  |BT| (S (NP (NNP Reggie))(VP (VBD was)(NP (NNP Mr)))) |ET| 
1  |BT| (NP (NP (NN region))(PP (IN of)(NP (NP (JJ northern)(NNP Italy))))) |ET| 
-0.058111177804956781756118289195001  |BT| (NP (JJ French)(NNP President)) |ET| 
1  |BT| (NP (NNP BELGRADE)(, ,)(NNP Yugoslavia)) |ET| 
-1  |BT| (NP (NNP BELGRADE)(, ,)(NNP Yugoslavia)) |ET| 
1  |BT| (VP (NP (NNS voters))(PP (TO to)(NP (DT the)(NNP Innsbrook)(NN resort)))) |ET| 
-0.84891132237282584949156216680421  |BT| (VP (NP (NNS voters))(PP (TO to)(NP (DT the)(NNP Innsbrook)(NN resort)))(PP (IN outside)(NP (NNP St.)(NNP Louis)))) |ET| 
1  |BT| (NP (NP (NN WARREN))(, ,)(NP (NP (NP (NNP Mich.))))) |ET| 
-0.12480910326096975038190350915102  |BT| (NP (NP (NNPS Mariners))(, ,)(NP (NP (NP (NNP Rodriguez))))) |ET| 
1  |BT| (VP (PP (NP (NNP Innsbrook)))(PP (IN outside)(NP (NNP St.)(NNP Louis)))) |ET| 
-0.67317282159651348205642307220842  |BT| (VP (PP (NP (NNP Pennsylvania)))(PP (IN across)(NP (JJ upstate)(NNP New)(NNP York)))) |ET| 
1  |BT| (NP (NNP AMSTERDAM)(, ,)(NNP Netherlands)) |ET| 
-0.88601580856194561697236622421769  |BT| (NP (NNP Iowa)(, ,)(NNP Minnesota)) |ET| 
1  |BT| (S (PP (NP (NNP Northeast)))(, ,)(NP (DT a)(JJ few)(JJ light)(NN snow)(NNS showers))(VP (VBD were)(VP (VBN scattered)(PP (IN from)(NP (NNP Pennsylvania)))(PP (IN across)(NP (JJ upstate)(NNP New)(NNP York)))))) |ET| 
-0.52149307681403489489468938700156  |BT| (NP (NP (NN president))(PP (IN at)(NP (NNP AOL)))) |ET| 
1  |BT| (NP (NP (NNS parts))(PP (IN of)(NP (NNP Nebraska)(, ,)(NNP Iowa)(, ,)(NNP Minnesota)(, ,)(NNP Wisconsin)))) |ET| 
-0.4458277598054833923413298180094  |BT| (NP (NNP Nebraska)(, ,)(NNP Iowa)(, ,)(NNP Minnesota)(, ,)(NNP Wisconsin)) |ET| 
1  |BT| (NP (NP (NNP President)(NNP Vojislav)(NNP Kostunica))(PP (IN in)(NP (NNP Belgrade)))) |ET| 
-0.66785316228231084156874430846074  |BT| (NP (NP (NNP Vojislav))(PP (IN in)(NP (NNP Belgrade)))) |ET| 
1  |BT| (NP (NNP Lockerbie)(, ,)(NNP Scotland)) |ET| 
-1  |BT| (NP (NNP France)(, ,)(NNP Italy)) |ET| 
1  |BT| (NP (NP (NNP Valle))(PP (IN in)(NP (DT the)(JJ Italian)(NNP Alps)))) |ET| 
-0.1298761057442407440554177355807  |BT| (NP (NP (NNS residents))(PP (IN of)(NP (DT a)(JJ recreational)(NN vehicle)))) |ET| 
1  |BT| (NP (NNP ROME)(, ,)(NNP Italy)) |ET| 
-0.14473674731222507805483701304183  |BT| (NP (NNP President)(NNP Vojislav)(NNP Kostunica)) |ET| 
1  |BT| (NP (NP (NNS streets))(PP (IN of)(NP (NNP Austin)))) |ET| 
-1  |BT| (NP (NP (NNS leaders))(PP (IN of)(NP (NNP Europe)))) |ET| 
1  |BT| (NP (NN state)(NNS waters)) |ET| 
-0.49346029992593942736789358605165  |BT| (NP (NN state)(NNS prosecutors)) |ET| 
1  |BT| (NP (NP (JJ much))(PP (IN of)(NP (NNP Europe)))) |ET| 
-0.46024069319173199765771187230712  |BT| (S (NP (NP (CD Eighteen))(PP (IN of)(NP (DT those))))(VP (VBD were)(PP (IN from)(NP (NP (DT the)(NNP Valle)(NNP d'Aosta))(PP (IN in)(NP (DT the)(JJ Italian)(NNP Alps))))))) |ET| 
1  |BT| (S (NP (NNS People))(ADVP (RB still))(VP (VBD wandered)(ADVP (RB curiously))(PP (IN around)(NP (NP (DT the)(JJ small)(NN enclave)))))) |ET| 
-0.42551417962996535004904785637336  |BT| (S (NP (NNS People))(ADVP (RB still))(VP (VBD wandered)(ADVP (RB curiously))(PP (IN around)(NP (NP (DT the)(JJ small)(NN enclave))(, ,)(VP (ADVP (RB now))(VBN topped)(PP (IN by)(NP (NP (DT a)(JJ large)(NN flag))(PP (IN of)(NP (NP (NP (DT the)(JJ radical)(JJ Islamic)))))))))))) |ET| 
1  |BT| (S (NP (NNP Cheney)(CC and)(NNP Lieberman))(, ,)(PP (IN with)(NP (NN moderator)(NNP Bernie)(NNP Shaw)))(, ,)(VP (VBD met)(PP (IN at)(NP (NP (NNP Centre)(NNP College)))))) |ET| 
-0.47808323837349403495622368609475  |BT| (S (NP (NNP Cheney)(CC and)(NNP Lieberman))(, ,)(PP (IN with)(NP (NN moderator)(NNP Bernie)(NNP Shaw)))(, ,)(VP (VBD met)(PP (IN at)(NP (NP (NNP Centre)(NNP College))(PP (IN in)(NP (NP (NNP Danville)))))))) |ET| 
1  |BT| (NP (NP (NNS workers))(PP (IN in)(NP (JJ central)(NNP Seoul)))) |ET| 
-1  |BT| (NP (NP (NNS workers))(PP (IN in)(NP (JJ Indonesian)))) |ET| 
1  |BT| (S (NP (NP (NN frontier))(PP (IN between)(NP (NP (NNP Mexico))(CC and)(NP (DT the)(NNP United)(NNPS States)))))(VP (VBZ is)(VP (VP (VBN delineated)(PP (IN by)(NP (NN steel)(NNS walls))))(CC and)(VP (VBN barbed)(NP (NP (NN wire))(, ,)(VP (VBN watched)(PP (IN over)(IN by)(NP (NP (JJ uniformed)(NNS guards)))))))))) |ET| 
-1  |BT| (S (NP (NP (NN frontier))(PP (IN between)(NP (NP (NNP Mexico))(CC and)(NP (DT the)(NNP United)(NNPS States)))))(VP (VBZ is)(VP (VP (VBN delineated)(PP (IN by)(NP (NN steel)(NNS walls))))(CC and)(VP (VBN barbed)(NP (NP (NN wire))(, ,)(VP (VBN watched)(PP (IN over)(IN by)(NP (NP (JJ uniformed)(NNS guards))(PP (IN from)(NP (DT the)(NNP Border)(NNP Patrol))))))))))) |ET| 
1  |BT| (NP (NP (NNS roads))(PP (IN in)(NP (NP (JJ northeastern)(NNP Nebraska)(POS 's))(NNP Cuming)(NNP County)))) |ET| 
-1  |BT| (S (NP (NNS Snowplows))(VP (VBD were)(VP (VBN pulled)(PRT (RP off))(NP (NP (DT the)(NNS roads))(PP (IN in)(NP (NP (JJ northeastern)(NNP Nebraska)(POS 's))(NNP Cuming)(NNP County))))))) |ET| 
1  |BT| (VP (PP (NP (NNS teachers)(, ,)(NNS students)(CC and)(NNS parents)))(PP (IN during)(NP (NP (DT a)(NN photo)(NN opportunity))(PP (IN at)(NP (NP (PRP$ his)(NN residence))))))) |ET| 
-0.04045227412585405968314944402664  |BT| (NP (NNS teachers)(, ,)(NNS students)(CC and)(NNS parents)) |ET| 
1  |BT| (S (NP (NNS Snowplows))(VP (VBD were)(VP (VBN pulled)(PRT (RP off))(NP (NP (DT the)(NNS roads)))))) |ET| 
1  |BT| (S (NP (PRP he))(VP (VBD deserted)(NP (DT the)(JJ Egyptian)(NN army))(PP (IN in)(NP (DT the)(NNS mid-1970s)))(, ,)(S (VP (VBG fleeing)(PP (TO to)(NP (NP (NNP Lebanon))(PP (IN via)(NP (NNP Jordan))))))))) |ET| 
-0.27888716815682745853166579763638  |BT| (NP (PP (NP (NNP Dauphin)))(PP (IN in)(NP (NNP Alabama)))) |ET| 
1  |BT| (NP (NP (NNP Tokyo)(NN subway)(NN attack))(PP (IN in)(NP (CD 1995)))(SBAR (WHNP (WDT that))(S (VP (VBD killed)(NP (CD 12)(NNS people)))))) |ET| 
-0.59275971209703570696802898964961  |BT| (NP (NP (NN subway)(NN attack))(PP (IN in)(NP (CD 1995)))(SBAR (WHNP (WDT that))(S (VP (VBD killed)(NP (CD 12)(NNS people)))))) |ET| 
1  |BT| (NP (NP (NNP WAUSAU))(, ,)(NP (NNP Wis))) |ET| 
-0.27374925501608687872234781934822  |BT| (NP (NP (NNP Germany))(, ,)(NP (NP (PRP$ its)(NN population)))) |ET| 
1  |BT| (NP (NP (NNS youths))(VP (VBN gathered)(PP (IN in)(NP (NP (DT the)(JJ northern)(NN village))(PP (IN of)(NP (NNP Lanviara))))))) |ET| 
-0.65830845329736731308400976558914  |BT| (VP (PP (NP (NP (NNS youths))(VP (VBN gathered)(PP (IN in)(NP (NP (DT the)(JJ northern)(NN village))(PP (IN of)(NP (NNP Lanviara))))))))(, ,)(PP (IN near)(NP (NNP Korhogo)))) |ET| 
1  |BT| (NP (PRP$ its)(NNS suburbs)) |ET| 
-0.054711283803653976143266390863573  |BT| (NP (PRP$ its)(NNS soldiers)) |ET| 
1  |BT| (VP (PP (NP (PP (NP (NNP Conyers)))))(, ,)(PP (IN about)(NP (NP (CD 25)(NNS miles))(PP (ADVP (RB east))(IN of)(NP (NP (NNP Atlanta))))))) |ET| 
-1  |BT| (VP (PP (NP (NP (NNP Heritage))(PP (IN in)(NP (NNP Conyers)))))(, ,)(PP (IN about)(NP (NP (CD 25)(NNS miles))(PP (ADVP (RB east))(IN of)(NP (NP (NNP Atlanta))))))) |ET| 
1  |BT| (NP (NP (NNP Germany)(POS 's))(ADJP (RBS most)(JJ populous))(ROOT (S (NP (NNS Organizers))(VP (VBD said)(SBAR (S (NP (CD 20,000)(NNS people))(VP (VBD attended)(NP (DT the)(NN event))(PP (IN in)(NP (NP (NNP Dortmund))(, ,)(NP (DT an)(JJ industrial)(NN center))))(PP (IN in)(NP (NP (NNP North)(NNP Rhine-Westphalia))(, ,)(NP (NP (NNP Germany)(POS 's))(ADJP (RBS most)(JJ populous))(NN state))))))))))) |ET| 
-0.3761425020066991309342085969547  |BT| (S (NP (NNS Organizers))(VP (VBD said)(SBAR (S (NP (CD 20,000)(NNS people))(VP (VBD attended)(NP (DT the)(NN event))(PP (IN in)(NP (NP (NNP Dortmund))(, ,)(NP (DT an)(JJ industrial)(NN center))))(PP (IN in)(NP (NP (NNP North)(NNP Rhine-Westphalia))(, ,)(NP (NP (NNP Germany)(POS 's))(ADJP (RBS most)(JJ populous))(NN state))))))))) |ET| 
1  |BT| (NP (NP (NNPS Jews))(PP (IN in)(NP (NNP Iran)))) |ET| 
-0.052522648452835496435397999448469  |BT| (S (NP (NP (QP (CD six)))(PP (IN of)(NP (PRP them))))(NP (NNPS Jews))) |ET| 
1  |BT| (NP (NP (NP (NNS parts))(PP (IN of)(NP (NNP Nebraska)(, ,)(NNP Iowa)(, ,)(NNP Minnesota)(, ,)(NNP Wisconsin)(, ,)(JJ northern)(NNP Missouri)(, ,)(NNP Illinois)(, ,)(NNP Indiana)(, ,))))(CC and)(NP (NNP Michigan))) |ET| 
-0.84270673126763884219769806804834  |BT| (S (NP (PP (NP (PP (NP (NNP Midwest))))))(VP (VBD carried)(ADJP (JJ light)(PP (TO to)(NP (JJ moderate)(NN snow))))(PP (IN across)(NP (NP (NP (NNS parts))(PP (IN of)(NP (NNP Nebraska)(, ,)(NNP Iowa)(, ,)(NNP Minnesota)(, ,)(NNP Wisconsin)(, ,)(JJ northern)(NNP Missouri)(, ,)(NNP Illinois)(, ,)(NNP Indiana)(, ,))))(CC and)(NP (NNP Michigan)))))) |ET| 
1  |BT| (NP (NP (NNP North))(ROOT (S (CC But)(NP (DT the)(NNS events))(VP (VBP have)(VP (VBN taken)(PP (IN on)(NP (DT a)(RBR more)(JJ urgent)(NN tone)))(PP (IN because)(IN of)(NP (NP (DT a)(JJ recent)(NN wave))(PP (IN of)(NP (NP (NN awareness))(PP (IN of)(NP (JJ hate-fueled)(NN violence)))))(SBAR (WHNP (WDT that))(S (VP (VBD followed)(NP (DT a)(JJ still-unsolved)(NN bomb)(NN attack))(NP-TMP (JJ late)(NNP July))(PP (IN in)(NP (NP (NNP North)(NNP Rhine-Westphalia)(POS 's))(NN capital))))))))))))) |ET| 
-0.79978772245594020873227236734238  |BT| (NP (NP (NNP North))(NN capital)(ROOT (S (CC But)(NP (DT the)(NNS events))(VP (VBP have)(VP (VBN taken)(PP (IN on)(NP (DT a)(RBR more)(JJ urgent)(NN tone)))(PP (IN because)(IN of)(NP (NP (DT a)(JJ recent)(NN wave))(PP (IN of)(NP (NP (NN awareness))(PP (IN of)(NP (JJ hate-fueled)(NN violence)))))(SBAR (WHNP (WDT that))(S (VP (VBD followed)(NP (DT a)(JJ still-unsolved)(NN bomb)(NN attack))(NP-TMP (JJ late)(NNP July))(PP (IN in)(NP (NP (NNP North)(NNP Rhine-Westphalia)(POS 's))(NN capital)(NNP Duesseldorf))))))))))))) |ET| 
1  |BT| (NP (NP (NNS parts))(PP (IN of)(NP (NNP Nebraska)(, ,)(NNP Iowa)(, ,)(NNP Minnesota)))) |ET| 
-0.8790027323995436292491945096117  |BT| (NP (NNP Florida)(, ,)(NNP Auburn)) |ET| 
1  |BT| (S (NP (NN president))(VP (VP (VBD was)(PP (IN in)(NP (NNP Missouri)))))) |ET| 
-0.73502744129381458737526600089041  |BT| (NP (NP (NNS carriers))(VP (VBG operating)(PP (IN in)(NP (NNP Britain))))) |ET| 
1  |BT| (NP (NNP Frankfurt)(, ,)(NNP Germany)) |ET| 
-0.69054934182896809957696859783027  |BT| (NP (NNP Missouri)(, ,)(NNP Illinois)) |ET| 
1  |BT| (VP (PP (NP (NNS people)))(PP (IN at)(NP (NNP Bluegill)(NNP Bay)(NNP Park)))) |ET| 
-0.40867283522111502724882825532404  |BT| (S (NP (NNP Lieberman))(VP (VBD told)(PP (IN about)(NP (CD 500)(NNS people)))(PP (IN at)(NP (NNP Bluegill)(NNP Bay)(NNP Park))))) |ET| 
1  |BT| (NP (NNP SANTIAGO)(, ,)(NNP Chile)) |ET| 
-0.82637184802104779457465610903455  |BT| (VP (PP (NP (NNS hotels)))(PP (IN in)(NP (NP (DT the)(JJ central)(JJ Javanese))))) |ET| 
1  |BT| (NP (NP (NNS ministers))(VP (VBG meeting)(PP (IN in)(NP (NNP Berlin))))) |ET| 
-0.87785970619712194729089560496504  |BT| (NP (NP (NNS countries))(PP (IN like)(NP (NNP Chile)))) |ET| 
1  |BT| (SBAR (WHNP (WP who))(S (VP (VBD vandalized)(NP (DT the)(NN tomb))))) |ET| 
-0.2652818892492398994420454982901  |BT| (SBAR (WHNP (WP who))(S (VP (VBD founded)(NP (DT the)(NN motorcycle))))) |ET| 
1  |BT| (NP (NP (NNS countries))(PP (IN in)(NP (DT the)(NNP Arab)(NN world)))) |ET| 
-1  |BT| (VP (NP (NN hide-out))(PP (IN in)(NP (NNP Neuss)(, ,)(NNP Germany)))) |ET| 
1  |BT| (NP (NP (NNP Alabama))(: -)(NP (NNP Florida)(NN line))) |ET| 
-0.22074117206184151740444576716982  |BT| (NP (NNP Arab)(NN world)) |ET| 
1  |BT| (VP (NP (NN hide-out))(PP (IN in)(NP (NNP Neuss)))) |ET| 
-0.61511269208355778825847437474295  |BT| (S (NP (PP (NP (NP (NNP Alabama))(: -)(NP (NNP Florida)(NN line))))(, ,))(VP (VBD said)(NP (NNP Mayor)))) |ET| 
1  |BT| (NP (NP (NNS cars))(, ,)(VP (VBN plastered)(PP (PP (IN with)(NP (NP (NNS candidates)(POS '))(NNS posters)))(CC and)(PP (IN with)(NP (NP (NNS horns))(VP (VBG blaring))))))(, ,)(VP (VBN paraded)(PP (IN through)(NP (DT this)(JJ coastal)(NN city))))) |ET| 
-0.19366943156213420329514462991938  |BT| (S (NP (NP (PRN (-LRB- -LRB-))))(VP (NP (NP (CD __)(NN N)(JJ Long)(NNS processions))(PP (IN of)(NP (NP (NNS cars))(, ,)(VP (VBN plastered)(PP (PP (IN with)(NP (NP (NNS candidates)(POS '))(NNS posters)))(CC and)(PP (IN with)(NP (NP (NNS horns))(VP (VBG blaring))))))(, ,)(VP (VBN paraded)(PP (IN through)(NP (DT this)(JJ coastal)(NN city))))))))) |ET| 
1  |BT| (VP (PP (NP (NNP Shaw)))(, ,)(PP (NP (CD 50)(NNS miles))(IN from)(SBAR (WHADVP (WRB where))))) |ET| 
-0.38218474272188546203565806536062  |BT| (VP (PP (NP (NNP Shaw)))(, ,)(PP (NP (CD 50)(NNS miles))(IN from)(SBAR (WHADVP (WRB where))(S (NP (PRP$ his)(NN wife)))))) |ET| 
1  |BT| (S (NP (NNP Bush))(VP (VBD said)(NP-TMP (NNP Friday))(PP (IN in)(NP (NP (NNP Cedar)(NNP Rapids)))))) |ET| 
-0.49532385153414887346556838565448  |BT| (S (NP (NNP Bush))(VP (VBD said)(NP-TMP (NNP Friday))(PP (IN in)(NP (NP (NNP Cedar)(NNP Rapids))(, ,)(NP (NNP Iowa)))))) |ET| 
1  |BT| (SBAR (WHADVP (WRB where))(S (NP (QP (RB about)(CD 30))(NNS students)))) |ET| 
-0.32512307852249944239986234606477  |BT| (VP (PP (NP (JJ seminary)))(, ,)(SBAR (WHADVP (WRB where))(S (NP (QP (RB about)(CD 30))(NNS students))))) |ET| 
1  |BT| (NP (NP (NNP AUSTIN))(, ,)(NP (NP (NNP Texas)))) |ET| 
-0.42877563850045230520180439270916  |BT| (NP (NP (NN representative))(PP (IN in)(NP (NP (NNP Iran))))) |ET| 
1  |BT| (NP (NNP SEOUL)(, ,)(NNP South)(NNP Korea)) |ET| 
-0.25568964157334006515043256513309  |BT| (NNP South) |ET| 
1  |BT| (NP (NP (NN ranch))(PP (IN about)(NP (NP (DT a)(JJ two-hour)(NN drive)(NN north))(PP (IN of)(NP (RB here)))))) |ET| 
-0.51071351298451306277570438396651  |BT| (NP (NP (NN ranch))(PP (IN about)(NP (NP (DT a)(JJ two-hour)(NN drive)(NN north))(PP (IN of)(NP (RB here)))(, ,)(SBAR (WHADVP (WRB where)))))) |ET| 
1  |BT| (S (NP (PP (NP (NNS kids))))(VP (VBN played)(PP (IN in)(NP (NP (DT the)(NN school)(NN yard)))))) |ET| 
-0.52988509026008134839003105298616  |BT| (S (NP (NNS crowds))(VP (VP (VBG vandalizing)(NP (DT the)(NN tomb))))) |ET| 
1  |BT| (SBAR (WHADVP (WRB where))(S (NP (DT a)(JJ black)(NN man)))) |ET| 
-0.39574092474147026798902970767813  |BT| (VP (ADVP (NN home))(PP (TO to)(NP (NNP Jasper)))(, ,)(SBAR (WHADVP (WRB where))(S (NP (DT a)(JJ black)(NN man))))) |ET| 
1  |BT| (S (NP (CD four))(VP (VP (VBD climbed)(PRT (IN out))(PP (IN of)(NP (DT the)(NN wreckage)))))) |ET| 
-0.49547539786214433998878803322441  |BT| (NP (NP (NN chemical))(VP (VBN used)(PP (IN in)(NP (NP (DT a)(NNP Tokyo)(NN subway)))))) |ET| 
1  |BT| (NP (NN border)(NNS states)) |ET| 
-0.44921777949948760166876127186697  |BT| (NP (NN member)(NNS states)) |ET| 
1  |BT| (NP (NNP Tokyo)(NN subway)) |ET| 
-0.69677444085140260998656458468759  |BT| (NP (NNP Texas)(NN governor)) |ET| 
1  |BT| (NP (NP (NN plane))(VP (VBG carrying)(NP (NP (NN actress)(NNP Sandra)(NNP Bullock))))) |ET| 
-0.72334213994049201268410342891002  |BT| (NP (NN actress)(NNP Sandra)(NNP Bullock)) |ET| 
1  |BT| (NP (NNP Texas)(NN ranch)) |ET| 
-0.7318460583715700185081232120865  |BT| (NP (NP (NN plane))(VP (VBG carrying)(NP (NP (NN actress))))) |ET| 
1  |BT| (S (NP (NNP Gore))(VP (VBD discussed)(NP (PRP$ his)(NN education)(NNS proposals))(PP (IN on)(NP (NNP Sunday)(NN afternoon)))(PP (IN with)(NP (NNS teachers)(, ,)(NNS students)(CC and)(NNS parents)))(PP (IN during)(NP (NP (DT a)(NN photo)(NN opportunity))(PP (IN at)(NP (NP (PRP$ his)(NN residence)))))))) |ET| 
-0.051133824663245897035324105672771  |BT| (S (NP (NNP Gore))(VP (VBD discussed)(NP (PRP$ his)(NN education)(NNS proposals))(PP (IN on)(NP (NNP Sunday)(NN afternoon)))(PP (IN with)(NP (NNS teachers)(, ,)(NNS students)(CC and)(NNS parents)))(PP (IN during)(NP (NP (DT a)(NN photo)(NN opportunity))(PP (IN at)(NP (NP (PRP$ his)(NN residence))(PP (IN in)(NP (NNP Washington))))))))) |ET| 
1  |BT| (NP (NP (NP (NN suspect)))(VP (VBG being)(VP (VBN booked)(PP (IN at)(NP (NN police)(NN headquarters)))))) |ET| 
-0.55916907720339015241961533320136  |BT| (S (NP (NP (NP (NN suspect)))(VP (VBG being)(VP (VBN booked)(PP (IN at)(NP (NN police)(NN headquarters))))))(VP (VP (VBD shot)(NP (DT a)(NN veteran)(NN detective))))) |ET| 
1  |BT| (S (NP (NN district))(VP (VBZ stretches)(PP (IN from)(NP (NNP Tyler)))(PP (TO to)(NP (NP (NN north))(PP (IN of)(NP (NNP Houston))))))) |ET| 
-0.73785656626674667180054711934645  |BT| (S (NP (NNP Senate)(NN district))(VP (VBZ stretches)(PP (IN from)(NP (NNP Tyler)))(PP (TO to)(NP (NP (NN north))(PP (IN of)(NP (NNP Houston))))))) |ET| 
1  |BT| (NP (NP (NNS parts))(PP (IN of)(NP (NNP Nebraska)(, ,)(NNP Iowa)(, ,)(NNP Minnesota)(, ,)(NNP Wisconsin)(, ,)(JJ northern)(NNP Missouri)(, ,)(NNP Illinois)(, ,)(NNP Indiana)))) |ET| 
-0.66421587593114173042607717434294  |BT| (S (NP (PP (NP (PP (NP (NNP Midwest))))))(VP (VBD carried)(ADJP (JJ light)(PP (TO to)(NP (JJ moderate)(NN snow))))(PP (IN across)(NP (NP (NP (NNS parts))(PP (IN of)(NP (NNP Nebraska)(, ,)(NNP Iowa)(, ,)(NNP Minnesota)(, ,)(NNP Wisconsin)(, ,)(JJ northern)(NNP Missouri)(, ,)(NNP Illinois)(, ,)(NNP Indiana)))))))) |ET| 
1  |BT| (NP (NP (NN airliner))(PP (IN in)(NP (NNP London)))) |ET| 
-1  |BT| (NP (NP (NNS Kids))(PP (IN in)(NP (NNP Houston)))) |ET| 
1  |BT| (SBAR (WHADVP (WRB where))(S (NP (DT a)(JJ black)(NN man))(VP (VBD was)(VP (VBN dragged)(PP (TO to)(NP (PRP$ his)(NN death)))(PP (IN from)(NP (DT a)(NN pickup)(NN truck)))(PP (IN by)(NP (NP (CD three)(JJ white)(NNS men)))))))) |ET| 
-0.49994238533929413748069237044547  |BT| (S (NP (NN man))(VP (VBD was)(VP (VBN dragged)(PP (TO to)(NP (PRP$ his)(NN death)))(PP (IN from)(NP (DT a)(NN pickup)(NN truck)))(PP (IN by)(NP (NP (CD three)(JJ white)(NNS men))))))) |ET| 
1  |BT| (S (NP (NNS planes))(VP (VBD carried)(NP (NNS businessmen)))) |ET| 
-0.16967133929360267430297426471952  |BT| (NP (PRP$ our)(NNS martyrs)) |ET| 
-0.26598719644466117806302918324945  |BT| (S (NP (CD four))(VP (VP (VBD climbed)(PRT (IN out))(PP (IN of)(NP (DT the)(NN wreckage))))(CC and)(VP (VBD found)(SBAR (S (NP (DT the)(NN airport))))))) |ET| 
1  |BT| (S (NP (NNP Rogers))(VP (VP (VBZ has)(VP (VBN claimed)(NP (DT the)(NN seat))))(CC and)(VP (VBD was)(VP (VBG taking)(NP (NP (NN part))(PP (IN in)(NP (NN freshman)(NN orientation)(NNS events))))(PP (IN at)(NP (NP (DT the)(NNP Capitol)))))))) |ET| 
-0.48904809656679504303866679038038  |BT| (S (NP (NNP Rogers))(VP (VP (VBZ has)(VP (VBN claimed)(NP (DT the)(NN seat))))(CC and)(VP (VBD was)(VP (VBG taking)(NP (NP (NN part))(PP (IN in)(NP (NN freshman)))))))) |ET| 
1  |BT| (SBAR (WHNP (WP who))(S (VP (VBD went)(PP (IN from)(NP (NNP Matamoros)))(PP (TO to)(NP (NNP North)(NNP Carolina)))))) |ET| 
-0.59442973585282976589638792574988  |BT| (NP (NP (NNP Arebalo))(, ,)(NP (CD 49))(, ,)(SBAR (WHNP (WP who))(S (VP (VBD went)(PP (IN from)(NP (NNP Matamoros)))(PP (TO to)(NP (NNP North)(NNP Carolina))))))) |ET| 
1  |BT| (S (NP (NN officer))(VP (VBZ has)(VP (VBN been)(VP (VBN killed)(PP (IN in)(NP (NP (DT the)(NN line))(PP (IN of)(NP (NN duty)))))(PP (IN in)(NP (NP (NNP Warren)))))))) |ET| 
-0.9367306477780876772243345840252  |BT| (S (NP (NN officer))(VP (VBZ has)(VP (VBN been)(VP (VBN killed)(PP (IN in)(NP (NP (DT the)(NN line))(PP (IN of)(NP (NN duty)))))(PP (IN in)(NP (NP (NNP Warren)))))))) |ET| 
1  |BT| (NP (NP (NNS parts))(PP (IN of)(NP (NNP Nebraska)(, ,)(NNP Iowa)(, ,)(NNP Minnesota)(, ,)(NNP Wisconsin)(, ,)(JJ northern)(NNP Missouri)(, ,)(NNP Illinois)))) |ET| 
-0.2337879487195697603141297804541  |BT| (NP (NNP Nebraska)(, ,)(NNP Iowa)(, ,)(NNP Minnesota)(, ,)(NNP Wisconsin)(, ,)(JJ northern)(NNP Missouri)(, ,)(NNP Illinois)) |ET| 
1  |BT| (S (NP (NNP Mahmoud))(VP (VBD came)(PP (TO to)(NP (DT the)(NN square))))) |ET| 
-0.29654772439967325148302279558266  |BT| (S (NP (NNS manufacturers))(VP (VBP are)(NP (NNS scapegoats)))) |ET| 
1  |BT| (NP (NNP Neuss)(, ,)(NNP Germany)) |ET| 
-0.13836364742119822146548813179834  |BT| (NP (NP (NNP Germany)(POS 's))(ROOT (S (NP (NP (JJ Many))(PP (IN of)(NP (NP (NNP Germany)(POS 's))(NNS neighbors))))))) |ET| 
1  |BT| (NP (NP (NNS settlements))(PP (IN in)(NP (NP (NN territory))))) |ET| 
-0.88078476106246228471974291096558  |BT| (NP (NP (NNS roads))(PP (IN in)(NP (NP (JJ northeastern)(NNP Nebraska))))) |ET| 
1  |BT| (NP (NP (NNP Afghanistan)(POS 's))(JJ central)(NNP Bamyan)(ROOT (S (NP (DT The)(ADJP (RB newly)(VBN released))(NNS prisoners))(VP (VBD were)(VP (VBN captured)(SBAR (WHADVP (WRB when))(S (NP (DT the)(NNP Taliban))(VP (VBD took)(NP (NP (NN control))(PP (IN of)(NP (NP (NNP Afghanistan)(POS 's))(JJ central)(NNP Bamyan)(NN province)))))))))))) |ET| 
-0.79273028220074792660199136662413  |BT| (NP (NP (NNP Afghanistan)(POS 's))(JJ central)(ROOT (S (NP (DT The)(ADJP (RB newly)(VBN released))(NNS prisoners))(VP (VBD were)(VP (VBN captured)(SBAR (WHADVP (WRB when))(S (NP (DT the)(NNP Taliban))(VP (VBD took)(NP (NP (NN control))(PP (IN of)(NP (NP (NNP Afghanistan)(POS 's))(JJ central)(NNP Bamyan)))))))))))) |ET| 
1  |BT| (NP (NP (NNS sections))(PP (IN of)(NP (NNP Nebraska)(CC and)(NNP Kansas)))) |ET| 
-0.38115260128835143360603865403391  |BT| (NP (NP (NNS Neighbors))(PP (IN of)(NP (CD one)(JJ available)(NN residence)))) |ET| 
1  |BT| (NP (NP (NNP Indonesia)(POS 's))(JJ second-largest)(ROOT (S (S (NP (NP (NP (NN consulate))(PP (IN in)(NP (NP (NNP Indonesia)(POS 's))(JJ second-largest)(NN city))))))))) |ET| 
-0.12866043040113561701787148194853  |BT| (NP (NP (NN border))(, ,)(NP (NP (DT an)(JJ international)(NN boundary)))) |ET| 
1  |BT| (NP (NP (NNS parts))(PP (IN of)(NP (NP (NNP Wyoming)(, ,)(JJ western)(NNP South)(NNP Dakota))(, ,)(NP (JJ eastern)(NNP Colorado))))) |ET| 
-0.4728907532635051591540786830592  |BT| (NP (NP (NNP Wyoming)(, ,)(JJ western)(NNP South)(NNP Dakota))(, ,)(NP (JJ eastern)(NNP Colorado))) |ET| 
1  |BT| (S (NP (NNP Wahid))(VP (VBD made)(NP (DT an)(JJ official)(NN visit))(PP (TO to)(NP (NNP Cuba))))) |ET| 
-0.35625917714403271263634565002576  |BT| (S (NP (NNP Yemen))(VP (VBD sent)(NP (NNS planes))(PP (TO to)(NP (NNP Baghdad))))) |ET| 
1  |BT| (NP (NP (JJ WHITE))(, ,)(NP (NNP W.Va))) |ET| 
-0.77863729270910508883929423973314  |BT| (VP (NP (NN PFLP-GC)(NN hide-out))(PP (IN in)(NP (NNP Neuss)))) |ET| 
1  |BT| (S (NP (NNS places))(ADVP (RB there))) |ET| 
-0.44074079790010878276973471656675  |BT| (NP (NP (NNP Indonesia)(POS 's))(JJ legal)(ROOT (S (NP (NP (NNS Critics))(PP (IN of)(NP (NP (NNP Indonesia)(POS 's))(JJ legal)(NN system))))))) |ET| 
1  |BT| (S (NP (NNS sides))(VP (VBD signed)(NP (DT a)(NN truce))(PP (IN in)(NP (NNP Geneva))))) |ET| 
-0.2918760058445979410635118256323  |BT| (S (NP (NP (NNS ministers))(VP (VBG meeting)(PP (IN in)(NP (NNP Berlin)))))(VP (VBD delayed)(NP (DT a)(NN decision))(PP (IN on)(S (VP (VBG seeking)(NP (DT a)(NN ban))(PP (IN before)(NP (NP (NNP Germany))))))))) |ET| 
1  |BT| (NP (NP (NNP Jakarta)(POS 's))(JJ main)(ROOT (S (PP (IN _)(NP (DT The)(CD _)(NN <ORG-e6type="NOM">)(NN <FAC-e25type="NOM">)(NN embassy)))(S (ADJP (ADJP (JJR <)(JJ located))(PP (IN across)(NP (NP (NNP Jakarta)(POS 's))(JJ main)(NN park)))))))) |ET| 
-0.47533669295814434674340986930474  |BT| (NP (NNP Kuwait)(, ,)(NNP Lebanon)) |ET| 
1  |BT| (NP (NP (NN house)(NN southwest))(PP (IN of)(NP (NNP Santiago)))) |ET| 
-0.66212965542516355466062805135152  |BT| (NP (NP (NN country)(NN house)(NN southwest))(PP (IN of)(NP (NNP Santiago)))) |ET| 
1  |BT| (NP (NNP HELSINKI)(, ,)(NNP Finland)) |ET| 
-0.26249427091941024414722960500512  |BT| (NP (NP (NNP Serbia))(, ,)(NP (DT the)(JJ main)(JJ Yugoslav)(NN republic))) |ET| 
1  |BT| (NP (NP (NN state)(POS 's))(JJ rural)(JJ southeastern)(ROOT (S (NP (NNS Twisters))(VP (VBD struck)(SBAR (RB just)(IN before)(S (NP (NP (NN noon))(PP (IN in)(NP (NP (NP (DT the)(NN state)(POS 's))(JJ rural)(JJ southeastern)(NN corner))))))))))) |ET| 
-0.44727887281932809937501360764145  |BT| (S (NP (NNS forces))(VP (VBD patrolled)(NP (DT the)(NN city))(PP (IN in)(NP (JJ armored)(NNS vehicles))))) |ET| 
1  |BT| (NP (NP (NNP Montenegro))(, ,)(NP (DT the)(JJR smaller)(JJ Yugoslav))) |ET| 
-0.38967517510114080270255954019376  |BT| (NP (NP (NP (NNP Socialist))(NNP Party))(PP (IN of)(NP (NP (NNP Montenegro))(, ,)(NP (DT the)(JJR smaller)(JJ Yugoslav))))) |ET| 
1  |BT| (VP (PP (NP (NNS hotels)))(PP (IN in)(NP (NP (DT the)(JJ central)(JJ Javanese)(NN city))))) |ET| 
-0.919794110081408988754958500067  |BT| (S (NP (NNS militants))(VP (VBD went)(PP (TO to)(NP (NNS hotels)))(PP (IN in)(NP (NP (DT the)(JJ central)(JJ Javanese)(NN city)))))) |ET| 
1  |BT| (SINV (VP (VP (PP (NP (NNP Stansted)))))(NP (NP (NN airport))(, ,)(NP (NP (NN northeast))(PP (IN of)(NP (NNP London)))))) |ET| 
-0.70361617231775974712348897810443  |BT| (SINV (S (VP (VB Go)))(VP (VBZ is)(VP (VBN based)(PP (IN at)(NP (NNP Stansted)))))(NP (NP (NN airport))(, ,)(NP (NP (NN northeast))(PP (IN of)(NP (NNP London)))))) |ET| 
1  |BT| (S (NP (NNS workers))(VP (VBD marched)(PP (IN from)(NP (NNP Seoul)(NN train)(NN station)))(PP (TO to)(NP (NP (DT a)(NN cathedral)))))) |ET| 
-0.46368410563819484337955145747401  |BT| (VP (PP (NP (NNP Seoul)))(PP (TO to)(NP (NP (DT a)(NN cathedral))))) |ET| 
1  |BT| (S (NP (NP (NNP Abu))(, ,)(NP (DT the)(JJ last)(JJ major)(NN prosecution)(NN witness))(, ,))(VP (VBZ has)(VP (VBN been)(VP (VBN jailed)(PP (IN in)(NP (NNP Sweden))))))) |ET| 
-0.57132566520045802160865378027665  |BT| (S (NP (NP (NNP Abu))(, ,)(NP (DT the)(JJ last)(JJ major)(NN prosecution)(NN witness))(, ,))(VP (VBZ has)(VP (VBN been)(VP (VBN jailed)(PP (IN in)(NP (NNP Sweden)))(PP (IN for)(NP (NP (NNS attacks))(PP (IN against)(NP (ADJP (JJ Jewish)))))))))) |ET| 
1  |BT| (VP (NP (NNS planes))(PP (TO to)(NP (NNP Baghdad)))) |ET| 
-1  |BT| (VP (NP (NNS planes))(PP (TO to)(NP (NNP Baghdad)))) |ET| 
1  |BT| (NP (NP (NN city)(POS 's))(NN stock)(NN exchange)(ROOT (S (PP (IN For)(NP (NNS weeks)))(NP (NP (NNP Suharto)(POS 's))(NN trial))(VP (VBD had)(VP (VBN been)(VP (VBN marred)(PP (IN by)(NP (NP (DT a)(NN series))(PP (IN of)(NP (NP (NNS bombings))(PP (IN in)(NP (NNP Jakarta)))))))(, ,)(PP (VBG including)(NP (NP (DT a)(NN blast))(PP (IN at)(NP (NP (DT the)(NN city)(POS 's))(NN stock)(NN exchange)(NN building))))))))))) |ET| 
-0.27552457525034990126755474193487  |BT| (NP (NP (NN commission)(POS 's))(ROOT (S (S (NP (NP (DT The)(NN commission)(POS 's))(NN staff)))))) |ET| 
1  |BT| (NP (NP (NNP BANDA))(, ,)(NP (NP (NNP Indonesia)))) |ET| 
-0.41622474974044532114447747517261  |BT| (NP (NP (NNP Mark))(, ,)(NP (NP (NNP Gore)))) |ET| 
1  |BT| (S (NP (NNS Officers))(VP (VBD responded)(PP (TO to)(NP (DT the)(CD 911)(NN hang-up)(NN call)))(PP (IN at)(NP (NP (NNP Roy)(POS 's))(NN residence))))) |ET| 
-1  |BT| (NP (NP (NNP Roy)(POS 's))(ROOT (S (NP (NNS Officers))(VP (VBD responded)(PP (TO to)(NP (DT the)(CD 911)(NN hang-up)(NN call)))(PP (IN at)(NP (NP (NNP Roy)(POS 's))(NN residence))))))) |ET| 
1  |BT| (NP (NP (NNP Little))(, ,)(NP (NNP Ark))) |ET| 
-1  |BT| (NP (NP (NNP Egypt))(, ,)(NP (NNP Turkey))) |ET| 
1  |BT| (NP (NP (NNP New))(JJ 12th)(ROOT (S (NP (DT The)(NNP Associated)(NNP Press))(VP (VBZ has)(VP (VBN called)(NP (NNS winners))(PP (IN in)(NP (NP (QP (NP (DT all))(CC but)(NP (CD two)))(NNP House)(NNS races))(: :)(NP (NP (NP (NNP New)(NNP Jersey)(POS 's))(JJ 12th)(NN district)))))))))) |ET| 
-0.50324513340239396264053084451007  |BT| (S (NP (NNP Associated))(VP (VBZ has)(VP (VBN called)(NP (NNS winners))(PP (IN in)(NP (NP (QP (NP (DT all))(CC but)(NP (CD two)))(NNP House)(NNS races))(: :)(NP (NP (NP (NNP New)(NNP Jersey)(POS 's))(JJ 12th)(NN district)))))))) |ET| 
1  |BT| (S (NP (NNP Gore))(VP (VBD held)(NP (DT a)(JJ mock)(NN debate))(PP (IN on)(NP (NNP Monday)))(, ,)(S (VP (VBG inviting)(NP (CD 23)(NNS voters))(PP (TO to)(NP (DT the)(NNP Innsbrook)(NN resort))))))) |ET| 
-0.43342989678306564904630704404553  |BT| (S (NP (NNP Gore))(VP (VBD held)(NP (DT a)(JJ mock)(NN debate))(PP (IN on)(NP (NNP Monday)))(, ,)(S (VP (VBG inviting)(NP (CD 23)(NNS voters))(PP (TO to)(NP (DT the)(NNP Innsbrook)(NN resort)))(PP (IN outside)(NP (NNP St.)(NNP Louis))))))) |ET| 
1  |BT| (NP (NN shuttle)(NN cargo)(NN bay)) |ET| 
-0.49137846522614903044257061992539  |BT| (NP (NNP Arkansas)(, ,)(NNP Mississippi)) |ET| 
1  |BT| (S (NP (PRP she))(VP (VBD was)(VP (VBN harmed)(PP (IN by)(NP (JJ secondhand)(NN smoke)))(PP (IN during)(NP (NP (NNS flights))(PP (TO to)(NP (NNP Asia)))))))) |ET| 
-0.24803788211902347282666880801116  |BT| (S (NP (NN attendant))(VP (VB sue)(NP (NP (NNP Northwest)(NNPS Airlines))(PP (IN on)(NP (PRP$ her)(NN claim))))(SBAR (IN that)(S (NP (PRP she))(VP (VBD was)(VP (VBN harmed)(PP (IN by)(NP (JJ secondhand)(NN smoke)))(PP (IN during)(NP (NP (NNS flights))(PP (TO to)(NP (NNP Asia))))))))))) |ET| 
1  |BT| (NP (NP (NNP ABIDJAN))(, ,)(NP (NP (NNP Ivory)(NNP Coast)))) |ET| 
-0.072335730305285284025273995212046  |BT| (SINV (VP (NP (NNS first-rounders)))(NP (NP (NNP Mike)(NNP Croel)))) |ET| 
1  |BT| (S (NP (NP (NNP Wouters))(, ,)(NP (CD 42))(, ,))(VP (VBD died)(ADVP (NP (DT an)(NN hour))(RB later))(PP (IN at)(NP (NNP St.)(NNP John)(NNP Macomb)(NNP Hospital))))) |ET| 
-0.55181274915895484056704844988417  |BT| (S (NP (NP (NNP Suharto)(POS 's))(NN trial))(VP (VBD had)(VP (VBN been)(VP (VBN marred)(PP (IN by)(NP (NP (DT a)(NN series))(PP (IN of)(NP (NP (NNS bombings))(PP (IN in)(NP (NNP Jakarta)))))))(, ,)(PP (VBG including)(NP (NP (DT a)(NN blast))(PP (IN at)(NP (NP (DT the)(NN city)(POS 's))(NN stock)(NN exchange)(NN building))))))))) |ET| 
1  |BT| (S (ADVP (PP (NP (NNS people))))(VP (VBD rallied)(NP-TMP (NNP Saturday))(PP (IN in)(NP (NNP Banda)(NNP Aceh))))) |ET| 
-0.28864252271364421176258474588394  |BT| (NP (NP (NNP Western))(, ,)(NP (NP (NNP Gary)(NNP Pinkel)))) |ET| 
1  |BT| (NP (NP (NNP Nebraska)(POS 's))(ROOT (S (NP (NNS Snowplows))(VP (VBD were)(VP (VBN pulled)(PRT (RP off))(NP (NP (DT the)(NNS roads))(PP (IN in)(NP (NP (JJ northeastern)(NNP Nebraska)(POS 's))(NNP Cuming)(NNP County))))))))) |ET| 
-0.64018731199853884383799140778137  |BT| (NP (NNP Nebraska)(CC and)(NNP Kansas)) |ET| 
1  |BT| (NP (NP (NNS parts))(PP (IN of)(NP (NP (NNP Wyoming)(, ,)(JJ western)(NNP South)(NNP Dakota))))) |ET| 
-0.41552532594537261445566400652751  |BT| (NP (PP (NP (NNS campuses)))(, ,)(PP (IN in)(NP (NNS personnel)))) |ET| 
1  |BT| (NP (NP (NNP LITTLETON))(, ,)(NP (NNP Colo))) |ET| 
-0.53171484822903458677956223255023  |BT| (NP (NP (NP (NNP Rosalinda))(PP (IN of)(NP (VBG neighboring)(NNP Matamoros))))(, ,)(NP (NNP Mexico))) |ET| 
1  |BT| (VP (NP (NNS peacekeepers))(PP (IN in)(NP (NP (NNP East)(NNP Timor))))) |ET| 
-0.0081476743127105628883288801489471  |BT| (S (NP (PRP He))(VP (VP (VBD rejected)(NP (DT a)(JJ five-year)(, ,)(NP ($ $)(CD 4.25-million))(NN offer))(PP (IN from)(NP (NP (NNP North)(NNP Carolina))))))) |ET| 
1  |BT| (S (NP (NP (NN frontier))(PP (IN between)(NP (NP (NNP Mexico))(CC and)(NP (DT the)(NNP United)(NNPS States)))))(VP (VBZ is)(VP (VP (VBN delineated)(PP (IN by)(NP (NN steel)(NNS walls))))))) |ET| 
-0.53279158637376999863022319914307  |BT| (NP (NP (NN effort))(PP (IN between)(NP (DT the)(NNP Bush)(NN campaign)))) |ET| 
1  |BT| (NP (NP (NNS parts))(PP (IN of)(NP (NNP Nebraska)(, ,)(NNP Iowa)(, ,)(NNP Minnesota)(, ,)(NNP Wisconsin)(, ,)(JJ northern)(NNP Missouri)))) |ET| 
-0.3757770643160140977556693542283  |BT| (NP (NNP Nebraska)(, ,)(NNP Iowa)(, ,)(NNP Minnesota)(, ,)(NNP Wisconsin)(, ,)(JJ northern)(NNP Missouri)) |ET| 
1  |BT| (NP (NP (NN part))(PP (IN of)(NP (DT the)(NN state)))) |ET| 
-0.052220940456763009773766270882334  |BT| (NP (NP (NN office))(, ,)(NP (NNS clients))) |ET| 
1  |BT| (NP (NNP Phillips)(, ,)(NNP Wis.)) |ET| 
-0.46666661832423417255455433405587  |BT| (S (NP (NNP Police))(VP (VP (VBD blocked)(PRT (RP off))(NP (NNS roads))))) |ET| 
1  |BT| (NP (NP (NN hotel))(PP (IN near)(NP (NNP O'Hare)(NNP International)(NNP Airport)))) |ET| 
-0.92060284549250193109060091956053  |BT| (NP (NP (NNS fans))(PP (IN at)(NP (NP (DT a)(NN hotel))(PP (IN near)(NP (NNP O'Hare)(NNP International)(NNP Airport)))))) |ET| 
1  |BT| (S (NP (NNP Jorma))(VP (VBD told)(NP (NNS investors))(PP (IN in)(NP (NNP London))))) |ET| 
-0.83099032641645831365195817852509  |BT| (S (NP (NNP Executive)(NNP Jorma)(NNP Ollila))(VP (VBD told)(NP (NNS investors))(PP (IN in)(NP (NNP London))))) |ET| 
1  |BT| (PP (`` ``)(NP (PRP$ our)(JJ friendly)(NN neighbor))) |ET| 
-0.68987093290495660191652405046625  |BT| (NP (NNP Vietnam)(, ,)(NNP Soviet)) |ET| 
1  |BT| (NP (NP (NNS cars))(PP (IN in)(NP (NP (JJ several)(NNS areas))))) |ET| 
-1  |BT| (NP (NP (NNS women))(PP (IN in)(NP (NP (DT some)(NNS parts))))) |ET| 
1  |BT| (NP (NNP Jamestown)(, ,)(NNP N.D)) |ET| 
-0.68958549033935023775399031364941  |BT| (NP (NNP Avery)(, ,)(NNP Druckenmiller)) |ET| 
1  |BT| (S (NP (NNPS Giants))(VP (VB open)(NP (PRP$ their)(NN division)(NN series))(PP (IN against)(NP (NP (DT the)(NNPS Mets))(PP (IN in)(NP (NNP San)(NNP Francisco))))))) |ET| 
-0.46785622930435066813004141295096  |BT| (VP (NP (PRP$ their)(NN division)(NN series))(PP (IN against)(NP (NP (DT the)(NNPS Mets))(PP (IN in)(NP (NNP San)(NNP Francisco)))))) |ET| 
1  |BT| (NP (NNP JACKSON)(, ,)(NNP Wyo.)) |ET| 
-0.68723163285362720564819483115571  |BT| (NP (NNP Bellevue)(, ,)(NNP Wash)) |ET| 
1  |BT| (S (NP (NNS youths))(ADVP (RB recently))(VP (VBD staged)(NP (DT a)(NN half)(NN dozen)(NNS rallies))(PP (IN in)(NP (NP (NN front))(PP (IN of)(NP (DT the)(NN embassy))))))) |ET| 
-0.81681858100123916344159624713939  |BT| (S (NP (JJ Muslim)(NNS youths))(ADVP (RB recently))(VP (VBD staged)(NP (DT a)(NN half)(NN dozen)(NNS rallies))(PP (IN in)(NP (NP (NN front))(PP (IN of)(NP (DT the)(NN embassy))))))) |ET| 
1  |BT| (NP (NNP Winston-Salem)(, ,)(NNP N.C.)) |ET| 
-0.96089086905440435071312776926789  |BT| (NP (NNP Burlington)(, ,)(NNP N.C.)) |ET| 
1  |BT| (NP (NP (NN clubhouse))(PP (IN at)(NP (NP (PRP$ their)(JJ new)(NNP Pacific)(NNP Bell)(NNP Park))))) |ET| 
-0.19350022104279254731018511392904  |BT| (NP (NP (JJ terrorist)(NN attack))(PP (IN in)(NP (NNP Denmark)))) |ET| 
1  |BT| (NP (NNP TEHRAN)(, ,)(NNP Iran)) |ET| 
-1  |BT| (S (NP (NNP TEHRAN)(, ,)(NNP Iran))(NP (NP (NP (NNP Iran))))) |ET| 
1  |BT| (NNP European) |ET| 
-0.56759430579585712361989635610371  |BT| (NP (JJ 15-member)(NNP European)(NNP Union)) |ET| 
1  |BT| (S (NP (NNP JAKARTA))(, ,)(X (NP (NP (NNP Indonesia))))) |ET| 
-0.38061100811909531760335312355892  |BT| (S (NP (NNP JAKARTA))(, ,)(X (NP (NP (NNP Indonesia))(NP (-LRB- -LRB-)(NNP AP))))) |ET| 
1  |BT| (NP (NP (NNS steps))(VP (VBG leading)(PRT (RP down))(PP (TO to)(NP (DT the)(NN tomb))))) |ET| 
-0.26289778712095368540246909105917  |BT| (NP (NP (NNS fighters))(VP (VBG belonging)(PP (TO to)(NP (DT the)(NN opposition))))) |ET| 
1  |BT| (DT The) |ET| 
-0.80184822997801152855146256115404  |BT| (NP (NP (NN tribunal))(PP (IN in)(NP (DT The)(NN Hague)))) |ET| 
1  |BT| (NP (NP (NNS workers))(PP (IN in)(NP (JJ Indonesian)(NNP West)(NNP Timor)))) |ET| 
-0.54589221548974165010292836086592  |BT| (NP (NP (NNS leagues))(PP (IN in)(NP (DT the)(NNP United)(NNPS States)))) |ET| 
1  |BT| (SINV (NP (NNP Bar))(PP (IN On)(NP (DT This)(NN Site)))) |ET| 
-0.60305171480331698496968328981893  |BT| (SINV (VP (NP (NNS Broncos)))(NP (NNP Sports)(NNP Bar))(PP (IN On)(NP (DT This)(NN Site)))) |ET| 
1  |BT| (NP (ADJP (JJ southeast))(ROOT (S (NP (NP (NP (NNS Relations))(PP (IN between)(NP (DT the)(NNP United)(NNPS States))))(CC and)(NP (DT this)(VBG sprawling)(ADJP (JJ southeast)(JJ Asian))(NN nation)))))) |ET| 
-0.37602088320325166570512465114007  |BT| (NP (NP (PP (NP (NNP United))))(CC and)(NP (DT this)(VBG sprawling)(ADJP (JJ southeast)(JJ Asian))(NN nation))) |ET| 
1  |BT| (NP (NP (NN sect))(PP (IN in)(NP (DT the)(NN country)))) |ET| 
-0.68039877921715530284529904747615  |BT| (NP (NP (NN region))(PP (IN from)(NP (DT the)(NNP Pacific)))) |ET| 
1  |BT| (S (NP (NNS militants))(VP (VBD went)(PP (TO to)(NP (NNS hotels))))) |ET| 
-0.67473254917478475700676199267036  |BT| (S (NP (JJ Islamic)(NNS militants))(VP (VBD went)(PP (TO to)(NP (NNS hotels))))) |ET| 
1  |BT| (NP (NP (NN region))(PP (IN of)(NP (NP (JJ northern)(NNP Italy))(CC and)(NP (JJ southern)(NNP Switzerland))))) |ET| 
-0.9052572252081354520214517833665  |BT| (NP (NP (JJ Alpine)(NN region))(PP (IN of)(NP (NP (JJ northern)(NNP Italy))(CC and)(NP (JJ southern)(NNP Switzerland))))) |ET| 
1  |BT| (S (NP (NN district))(VP (VBZ stretches)(PP (IN from)(NP (NNP Tyler))))) |ET| 
-0.70018127707639643553250152763212  |BT| (S (NP (NNP Senate)(NN district))(VP (VBZ stretches)(PP (IN from)(NP (NNP Tyler))))) |ET| 
1  |BT| (NP (NNP U.S.)(NNS territories)) |ET| 
-0.38694668330834824931940829628729  |BT| (S (NP (PRP he))(VP (VBD had)(VP (VBN lived)(PP (IN in)(NP (NNP U.S.)(NNS territories)))))) |ET| 
1  |BT| (NP (: -)(NP (NNP Florida)(NN line))) |ET| 
-0.61105896584518715197731353327981  |BT| (NP (: -)(NP (NP (NNP Cheney)(NN transition)(NN headquarters)))) |ET| 
1  |BT| (S (NP (NN person))(VP (VBD was)(VP (VBN killed)(PP (IN in)(NP (NNP Tuscaloosa)))))) |ET| 
-0.39376244107023694596136920154095  |BT| (SINV (S (NP (NN person))(VP (VBD was)(VP (VBN killed)(PP (IN in)(NP (NNP Tuscaloosa))))))(, ,)(VP (VBD said))(NP (NP (NNP Debbie)(NNP Watson)))) |ET| 
1  |BT| (SBAR (WHADVP (WRB where))(S (NP (PRP he)))) |ET| 
-1  |BT| (SBAR (WHADVP (WRB where))(S (NP (PRP he)))) |ET| 
1  |BT| (S (PP (NP (NNP Bernie)))(, ,)(VP (VBD met)(PP (IN at)(NP (NP (NNP Centre)(NNP College)))))) |ET| 
-1  |BT| (S (PP (NP (NN moderator)(NNP Bernie)(NNP Shaw)))(, ,)(VP (VBD met)(PP (IN at)(NP (NP (NNP Centre)(NNP College)))))) |ET| 
1  |BT| (S (NP (PRP they))(VP (VBD were)(ADVP (RB here)))) |ET| 
-0.33486882959550079430499636146124  |BT| (S (`` ``)(NP (PRP We))(VP (MD will)(VP (VP (VB stop)(ADVP (RB here)))))) |ET| 
1  |BT| (S (NP (NNP Lieberman))(, ,)(PP (IN with)(NP (NN moderator)(NNP Bernie)(NNP Shaw)))(, ,)(VP (VBD met)(PP (IN at)(NP (NP (NNP Centre)(NNP College)))))) |ET| 
-0.38397217995385951594400353314995  |BT| (S (NP (NNP Lieberman))(, ,)(PP (IN with)(NP (NN moderator)(NNP Bernie)(NNP Shaw)))(, ,)(VP (VBD met)(PP (IN at)(NP (NP (NNP Centre)(NNP College))(PP (IN in)(NP (NP (NNP Danville))(, ,)(NP (NNP Ky)))))))) |ET| 
1  |BT| (SBAR (WHADVP (WRB where))(S (NP (PRP he)))) |ET| 
-0.1099167544521214567865285971493  |BT| (SBAR (WHADVP (WRB where))(S (NP (PRP they)))) |ET| 
1  |BT| (NP (NP (NNPS Mets))(PP (IN in)(NP (NNP San)(NNP Francisco)))) |ET| 
-0.42415297626196979408064180461224  |BT| (NP (NNP Florida)(NN developer)) |ET| 
1  |BT| (S (`` ``)(NP (PRP They))(VP (VBP have)(NP (ADJP (RBS most)(RB toxically)(JJ polluted))(NN air))(PP (IN in)(NP (NNP America))))) |ET| 
-0.27884030694509698289351717903628  |BT| (NP (NP (NN consultant))(PP (IN in)(NP (NNP Tijuana)))) |ET| 
1  |BT| (NP (NNP Detroit)(NN suburb)) |ET| 
-0.96083476466878092736578764743172  |BT| (NP (NNP Dallas)(NN suburb)) |ET| 
1  |BT| (NP (NP (NN residence))(PP (IN in)(NP (NNP Washington)))) |ET| 
-0.43482266690995718949608317416278  |BT| (NP (NP (NN guard))(PP (IN in)(NP (NNP Hawaii)))) |ET| 
1  |BT| (NP (NNP Tijuana)(, ,)(NNP Mexico)) |ET| 
-0.79358132280362703170339955249801  |BT| (NP (NNP Redmond)(, ,)(NNP Washington)) |ET| 
1  |BT| (NP (NP (NN airport))(PP (IN in)(NP (JJ northwestern)(NNP Wyoming)))) |ET| 
-0.73750954167729176891299402996083  |BT| (NP (NP (NN taxiway))(PP (IN at)(NP (NP (DT the)(NN airport))(PP (IN in)(NP (JJ northwestern)(NNP Wyoming)))))) |ET| 
1  |BT| (NP (NP (NNP PISCATAWAY))(, ,)(NP (NNP N.J))) |ET| 
-0.86298888184336819406894392159302  |BT| (NP (NP (NNS territories))(, ,)(NP (NNP Sudan))) |ET| 
1  |BT| (NP (NP (NNS communities))(PP (IN throughout)(NP (DT the)(JJ stricken)(NN area)))) |ET| 
-0.54763002460834364626407477771863  |BT| (NP (NN neighbor)(NNP Mexico)) |ET| 
1  |BT| (SBAR (WHNP (WDT that))(S (VP (VBD were)(VP (VBN found)(PP (IN in)(NP (DT a)(NN scrap)(NN metal)(NN heap)))(PP (IN at)(NP (DT the)(NNP Rocky)(NNP Mountain)(NNP Arsenal))))))) |ET| 
-0.024707242525522477016863831522642  |BT| (NP (NNP Spokeswoman)(NNP Sue)(NNP Markham)) |ET| 
1  |BT| (NP (NNP KABUL)(, ,)(NNP Afghanistan)) |ET| 
-0.40816909415096369606601456325734  |BT| (NP (NNP Bahrain)(, ,)(NNP Comoros)) |ET| 
-0.31682972863149783115943591838004  |BT| (S (NP (NNPS Giants))(VP (VB open)(NP (PRP$ their)(NN division)(NN series))(PP (IN against)(NP (NP (DT the)(NNPS Mets)))))) |ET| 
1  |BT| (S (NP (PRP we))(VP (MD will)(VP (VB be)(VP (VBN driven)(PRT (RP out))(PP (TO to)(NP (DT the)(NNS streets))))))) |ET| 
-0.047667811046731491109174072562382  |BT| (S (NP (PRP he))(VP (VBD deserted)(NP (DT the)(JJ Egyptian)(NN army)))) |ET| 
1  |BT| (NP (NP (NN WARREN))(, ,)(NP (NP (NNP Mich.)))) |ET| 
-0.34406923626784108316556398676767  |BT| (NP (NP (NN grandson))(, ,)(NP (NNP Marko))) |ET| 
1  |BT| (S (NP (ADVP (NP (NNS neo-Nazis))))(VP (VBD marched)(PP (IN through)(NP (NP (DT the)(NN middle)))))) |ET| 
-1  |BT| (S (NP (ADVP (NP (NNS neo-Nazis))))(VP (VBD marched)(PP (IN through)(NP (NP (DT the)(NN middle))(PP (IN of)(NP (NN town))))))) |ET| 
-0.38931869599129875769705222410266  |BT| (S (NP (NNS members))(VP (VBD met)(NP-TMP (NNP Wednesday))(PP (IN with)(NP (NP (NNS representatives)))))) |ET| 
1  |BT| (NP (NP (NN world)(POS 's))(ADJP (RBS most)(JJ populous))(JJ Muslim)(ROOT (S (S (NP (DT The)(NN problem))(VP (VBZ has)(VP (VBN been)(VP (VBN compounded)(PP (IN by)(NP (NP (NN anger))(PP (IN in)(NP (NP (NNP Indonesia))(, ,)(NP (NP (DT the)(NN world)(POS 's))(ADJP (RBS most)(JJ populous))(JJ Muslim)(NN country))))))))))))) |ET| 
-0.51841649506446674244841688050656  |BT| (NP (NP (NN world)(POS 's))(ADJP (RBS most)(JJ populous))(ROOT (S (S (NP (DT The)(NN problem))(VP (VBZ has)(VP (VBN been)(VP (VBN compounded)(PP (IN by)(NP (NP (NN anger))(PP (IN in)(NP (NP (NNP Indonesia))(, ,)(NP (NP (DT the)(NN world)(POS 's))(ADJP (RBS most)(JJ populous))(JJ Muslim))))))))))))) |ET| 
1  |BT| (S (NP (NN president))(VP (VBD said)(NP-TMP (NNP Thursday)(NN afternoon))(PP (IN in)(NP (DT the)(NNP White)(NNP House)(NNP Rose)(NNP Garden))))) |ET| 
-0.99773209592979950066649053042056  |BT| (S (NP (NN president))(VP (VBD said)(NP-TMP (NNP Thursday)(NN afternoon))(PP (IN in)(NP (DT the)(NNP White)(NNP House))))) |ET| 
1  |BT| (NP (NP (NNS sections))(PP (IN of)(NP (NNP Kentucky)(CC and)(NNP Tennessee)))) |ET| 
-0.89223443816760461544390636845492  |BT| (S (NP (PRP He))(ADVP (RB then))(VP (VBD flew)(PP (TO to)(NP (NP (DT this)(NN beach)(NN resort))(PP (IN near)(NP (NNP Sarasota))))))) |ET| 
1  |BT| (S (NP (PRP he))(VP (VBD visited)(NP (NNP Clinton))(ADVP (RB twice))(PP (IN at)(NP (DT the)(NNP White)(NNP House))))) |ET| 
-0.2933069441472114236013624122279  |BT| (S (S (NP (PRP he))(VP (VBD visited)(NP (NNP Clinton))(ADVP (RB twice))(PP (IN at)(NP (DT the)(NNP White)(NNP House)))))(, ,)(CC and)(S (NP (NNP Washington)))) |ET| 
1  |BT| (S (NP (NN bomb))(VP (VBD had)(VP (VBN been)(VP (VBN planted)(PP (IN in)(NP (DT the)(NN building))))))) |ET| 
-0.60995552463702717993498936266406  |BT| (NP (NP (NNS settlements))(PP (IN in)(NP (NP (NN territory))(VP (VBN captured)(PP (IN in)(NP (DT the)(CD 1967)(JJ Mideast))))))) |ET| 
1  |BT| (NP (NP (NNP COSTA))(, ,)(NP (NNP Calif))) |ET| 
-0.50689097870279531399262396007543  |BT| (NP (NP (NNP Steve))(, ,)(NP (NP (NN R))(: -)(NP (NNP Calif)))) |ET| 
1  |BT| (NP (NP (NNS fisheries))(PP (IN in)(NP (DT the)(JJ northern)(NNP Gulf)))) |ET| 
-0.8343387656042253741617287232657  |BT| (NP (NP (NNS officials))(PP (IN of)(NP (DT the)(NN judiciary)))) |ET| 
1  |BT| (VP (NP (NN mill))(PP (IN at)(NP (NNP Abbeville)))) |ET| 
-0.48528880856258227449728792635142  |BT| (VP (VP (NP (NN mill))(PP (IN at)(NP (NNP Abbeville))))(VP (VBG damaging)(NP (DT a)(NN textile)(NN mill)))) |ET| 
1  |BT| (S (NP (NNP Andrew))(VP (MD will)(VP (VB hold)(NP (NP (DT a)(NN news)(NN conference))(PP (IN on)(NP (DT the)(NN subject))))(PP (ADVP (RB here)))))) |ET| 
-0.52532926660515322225819545565173  |BT| (S (S (NP (NNP Lieberman))(VP (MD will)(VP (VB be)(VP (VBN dispatched)(PP (TO to)(NP (NP (NP (NNP Texas))(SBAR (S (NP (IN for)(DT a))(`` ``)(VP (VBD failed)(NP (NN leadership)(NN tour)))('' ''))))(NP-TMP (DT this)(NN week))))))))(, ,)(CC and)(S (NP (NNP Andrew))(VP (MD will)(VP (VB hold)(NP (NP (DT a)(NN news)(NN conference))(PP (IN on)(NP (DT the)(NN subject))))(PP (ADVP (RB here))))))) |ET| 
1  |BT| (NP (NP (NNP Geneva))(, ,)(PP (IN near)(NP (NP (DT the)(NNP Alabama))(: -)(NP (NNP Florida)(NN line))))) |ET| 
-0.81363897648742411483624437096296  |BT| (NP (NP (NNP Geneva))(, ,)(PP (IN near)(NP (NP (DT the)(NNP Alabama))(: -)(NP (NNP Florida))))) |ET| 
1  |BT| (S (NP (PRP he))(VP (VBD deserted)(NP (DT the)(JJ Egyptian)(NN army))(PP (IN in)(NP (DT the)(NNS mid-1970s)))(, ,)(S (VP (VBG fleeing)(PP (TO to)(NP (NP (NNP Lebanon)))))))) |ET| 
-1  |BT| (VP (NP (NNS judges))(SBAR (IN that)(S (NP (PRP he))(VP (VBD deserted)(NP (DT the)(JJ Egyptian)(NN army))(PP (IN in)(NP (DT the)(NNS mid-1970s)))(, ,)(S (VP (VBG fleeing)(PP (TO to)(NP (NP (NNP Lebanon)))))))))) |ET| 
1  |BT| (NP (NP (NNS homes))(VP (VBN hit)(PP (IN near)(NP (NNP Newton))))) |ET| 
-0.38337396158563891157555758582021  |BT| (S (NP (NNP Szczaranski))(VP (VBZ has)(VP (VBN been)(VP (VBN criticized)(PP (IN by)(NP (NNP Pinochet))))))) |ET| 
-0.76339657421031603679040244969656  |BT| (S (NP (PRP he))(VP (VBD counted)(PP (IN about)(NP (NP (DT a)(JJ half-dozen)(NNS homes))(VP (VBN hit)(PP (IN near)(NP (NNP Newton)))))))) |ET| 
1  |BT| (NP (NNP COPENHAGEN)(, ,)(NNP Denmark)) |ET| 
-0.43280795787317727363330277512432  |BT| (NP (NNP Microsoft)(, ,)(NNP AT&T)) |ET| 
1  |BT| (S (NP (NNP Bill))(VP (VBD emerged)(PP (IN from)(NP (NN space)(NN shuttle)(NNP Discovery))))) |ET| 
-1  |BT| (S (NP (NNP Bill))(VP (VBD emerged)(PP (IN from)(NP (NN space)(NN shuttle))))) |ET| 
1  |BT| (S (NP (NNS men))(VP (VBD died)(ADVP (RB later))(PP (IN at)(NP (DT a)(NN hospital))))) |ET| 
-0.18158075152516700567773000329908  |BT| (S (NP (NNS firefighters))(VP (VBD had)(VP (VBN put)(PRT (RP out))(NP (NP (CD three)(NNS fires))(PP (IN in)(NP (DT the)(NN compound))))))) |ET| 
1  |BT| (NP (NP (NNP TUSCALOOSA))(, ,)(NP (NNP Ala))) |ET| 
-0.54956099310862871476501823053695  |BT| (NP (NP (NNP Frank))(, ,)(NP (NP (NNP Gallup)))) |ET| 
1  |BT| (S (NP (PRP they))(VP (VP (VBD walked)(PP (IN in)(NP (RB here)))))) |ET| 
-0.62318278074879784877992960900883  |BT| (S (NP (PRP we))(VP (VBD had)(PP (IN at)(NP (NNP Suzuka))))) |ET| 
1  |BT| (NP (NP (NN frontier))(PP (IN between)(NP (NP (NNP Mexico))))) |ET| 
-0.18138318053919041950017287945229  |BT| (NP (NP (NNS passes))(PP (IN between)(NP (NP (DT the)(NN barrier)(NNS islands))(SBAR (WHNP (WDT that)))))) |ET| 
1  |BT| (S (PP (NP (NNP Northeast)))(, ,)(NP (DT a)(JJ few)(JJ light)(NN snow)(NNS showers))(VP (VBD were)(VP (VBN scattered)(PP (IN from)(NP (NNP Pennsylvania)))(PP (IN across)(NP (JJ upstate)(NNP New)(NNP York)))(PP (IN into)(NP (JJ northern)(NNP New)(NNP England)))))) |ET| 
-0.72183511170090230990581403602846  |BT| (VP (PP (NP (NNP Pennsylvania)))(PP (IN into)(NP (JJ northern)(NNP New)(NNP England)))) |ET| 
1  |BT| (NP (NP (NNS parts))(PP (IN of)(NP (NNP Nebraska)(, ,)(NNP Iowa)))) |ET| 
-1  |BT| (NP (NP (NN consultant))(PP (IN in)(NP (NNP Tijuana)(, ,)(NNP Mexico)))) |ET| 
1  |BT| (VP (NP (NNP Clinton))(ADVP (RB twice))(PP (IN at)(NP (DT the)(NNP White)(NNP House)))) |ET| 
-0.25520481265555627903296453951043  |BT| (S (S (VP (NP (NNP Clinton))(ADVP (RB twice))(PP (IN at)(NP (DT the)(NNP White)(NNP House)))))(S (NP (NNP Washington))(VP (VBZ has)(VP (VBN been)(NP (NP (DT a)(JJ strong)(NN supporter))(PP (IN of)(NP (NNP International)(NNP Monetary)(NNP Fund)(NN aid))))(PP (TO to)(NP (NNP Indonesia))))))) |ET| 
1  |BT| (S (NP (NN team))(VP (VBD arrived)(NP-TMP (NNP Sunday))(PP (IN in)(NP (NP (NNP East)(NNP Timor)))))) |ET| 
-0.76171987169989663346569841451128  |BT| (S (NP (NNS militias))(VP (VBP continue)(S (VP (TO to)(VP (VB attack)(NP (NNS peacekeepers))(PP (IN in)(NP (NP (NNP East)(NNP Timor))))))))) |ET| 
1  |BT| (VP (PP (ADVP (NP (NNS immigrants))(RB back)))(PP (IN into)(NP (NNP Mexico)))) |ET| 
-0.24105200803775067575074331216456  |BT| (VP (NP (NN outpost))(PP (IN before)(NP (NN dawn)))(PP (IN on)(NP (NNP Saturday)))(, ,)(PP (IN after)(NP (NP (NNS clashes))(VP (ADVP (RB there)))))) |ET| 
1  |BT| (NP (NP (NNS citizens))(PP (IN in)(NP (NNP Indonesia)))) |ET| 
-0.206030799409495618546017681183  |BT| (NP (NP (NNS activists))(PP (IN in)(NP (NP (NNP Indonesia))))) |ET| 
1  |BT| (NP (NNP Brownsville)(, ,)(NNP Texas)) |ET| 
-0.58908100252712414235389815075905  |BT| (NP (NNP MSNBC)(, ,)(NNP CNN)) |ET| 
1  |BT| (NP (NP (NN part))(PP (IN of)(NP (DT the)(NN region)))) |ET| 
-0.010904567669829612341914071294013  |BT| (S (NP (NP (NN percent))(PP (IN of)(NP (DT the)(NNS contributors))))(VP (VBP live)(PP (IN in)(NP (DT the)(NN district))))) |ET| 
1  |BT| (S (NP (NP (NNS businesses)))(VP (VBD closed)(PP (IN in)(NP (NP (NNS parts)))))) |ET| 
-1  |BT| (S (NP (NP (NNS businesses)))(VP (VBD closed)(PP (IN in)(NP (NP (NNS parts))(PP (IN of)(NP (NNP Nebraska))))))) |ET| 
1  |BT| (NP (NP (NNS Germans))(VP (VBN joined)(ADVP (RB together)(PP (IN in)(NP (DT this)(JJ western)(NN city)))))) |ET| 
-0.61396949204934492261287459768937  |BT| (NP (NP (PRN (-LRB- -LRB-))(NP (CD __)(NNS Thousands)))(PP (IN of)(NP (NP (NNS Germans))(VP (VBN joined)(ADVP (RB together)(PP (IN in)(NP (DT this)(JJ western)(NN city)))))))) |ET| 
1  |BT| (S (NP (NNP Gelbard))(VP (VBD arrived)(PP (IN in)(NP (NNP Jakarta))))) |ET| 
-0.30374698304970926265866637550062  |BT| (NP (NP (NNP Al))(CC or)(NP (NNP Texas))) |ET| 
1  |BT| (NP (PP (NP (NP (NNS parts))(PP (IN of)(NP (DT the)(NNP Persian)(NNP Gulf)))))(, ,)(PP (JJ such)(IN as)(NP (JJ conservative)(NNP Saudi)(NNP Arabia)))) |ET| 
-0.13538747236247983263268679365865  |BT| (NP (NNP Tennessee)(NNS constituents)) |ET| 
1  |BT| (NP (NP (NNP McLean))(, ,)(NP (NNP Va))) |ET| 
-1  |BT| (NP (NP (NN headquarters))(PP (IN in)(NP (NP (NNP McLean))(, ,)(NP (NNP Va))))) |ET| 
1  |BT| (NP (NP (NNS wells))(PP (IN in)(NP (NN state)(NNS waters)))) |ET| 
-0.56280179425799348180703418620396  |BT| (NP (NP (NNS weapons))(PP (IN in)(NP (NP (NNS churches))))) |ET| 
1  |BT| (NP (NP (NNP Oceanside))(, ,)(NP (NNP Calif))) |ET| 
-1  |BT| (NP (NP (NNP Russia))(, ,)(NP (NNP Egypt))) |ET| 
1  |BT| (NP (NP (NNS workers))(VP (VBN stationed)(PP (IN in)(NP (NNP East)(NNP Timor))))) |ET| 
-1  |BT| (S (NP (NP (NNS workers))(VP (VBN stationed)(PP (IN in)(NP (NNP East)(NNP Timor)))))(VP (VBD were)(VP (VBN killed)(PP (IN in)(NP (NP (JJ Indonesian))))))) |ET| 
1  |BT| (NP (NP (NN frontier))(PP (IN between)(NP (NP (NNP Mexico))(CC and)(NP (DT the)(NNP United)(NNPS States))))) |ET| 
-1  |BT| (NP (NP (NNP Mexico))(CC and)(NP (DT the)(NNP United)(NNPS States))) |ET| 
1  |BT| (S (NP (NNS people))(VP (VBP have)(VP (VBN been)(VP (VBN killed)(ADVP (RB there)))))) |ET| 
-0.25532463775109182080313985352404  |BT| (NP (NNP Tabasco)(NN state)) |ET| 
1  |BT| (NP (NNP VILLAHERMOSA)(, ,)(NNP Mexico)) |ET| 
-0.62389561276535143719002007856034  |BT| (NP (NP (NNP Calif)(. .))(, ,)(CC and)(NP (NNP Brownsville)(, ,)(NNP Texas))) |ET| 
1  |BT| (NP (NNP Detroit)(NN suburb)) |ET| 
-0.46095041470549080742102887597866  |BT| (S (NP (NNS lawmakers))(VP (VBP have)(VP (VBN been)(VP (JJ irritated)(PP (IN by)(NP (NP (NNP Gelbard)))))))) |ET| 
1  |BT| (VP (PP (NP (NNS homes)))(PP (IN in)(NP (NNP Dale)(NNP County)))) |ET| 
-0.53667716043083235621935500603286  |BT| (VP (PP (NP (NNS homes)))(PP (IN in)(NP (NNP Dale)(NNP County)))(, ,)(S (VP (VP (VBG destroying)(NP (DT a)(NN peanut)(NN mill))(PP (IN at)(NP (NNP Abbeville))))))) |ET| 
1  |BT| (NP (NP (NNP CAPE))(, ,)(NP (NNP Fla))) |ET| 
-0.60306936379369391332261329807807  |BT| (NP (NP (NNP Indonesia))(, ,)(NP (NP (DT the)(NN world)(POS 's))(ADJP (RBS most)(JJ populous))(JJ Muslim)(NN country))) |ET| 
1  |BT| (VP (ADVP (NP (NNS cars)))(NP (NN drive))(PP (IN by)(NP (DT the)(NN site)))) |ET| 
-0.2536512919111996722243418389553  |BT| (NP (NP (NNS voters))(PP (IN across)(NP (DT the)(NN nation)))) |ET| 
1  |BT| (NP (NP (NNS parts))(PP (IN of)(NP (NP (NNP Wyoming))))) |ET| 
-0.40636846368715762167767024948262  |BT| (VP (PP (NP (NNS supporters)))(PP (IN in)(NP (NNP Congress)))) |ET| 
1  |BT| (NP (NNP PALESTINE)(, ,)(NNP Texas)) |ET| 
-0.66850556864110510790766284117126  |BT| (NP (NNP McCarthy)(, ,)(NNP Herblock)) |ET| 
1  |BT| (VP (NP (NNS investors))(PP (IN in)(NP (NNP London)))) |ET| 
-0.36165343299187302505970365018584  |BT| (NP (NP (NNS businesses))(VP (VBG operating)(ADVP (RB separately))(PP (IN within)(NP (NNP Europe))))) |ET| 
-0.6763178149772071101608617027523  |BT| (NP (NNP Wyoming)(, ,)(JJ western)(NNP South)(NNP Dakota)) |ET| 
1  |BT| (S (PP (NP (NNP Northeast)))(, ,)(NP (DT a)(JJ few)(JJ light)(NN snow)(NNS showers))(VP (VBD were)(VP (VBN scattered)(PP (IN from)(NP (NNP Pennsylvania)))))) |ET| 
-0.46066982148787738449158268849715  |BT| (NP (NP (NN suburb))(PP (IN of)(NP (NNP Highland)(NNP Park)))) |ET| 
1  |BT| (S (NP (NNS workers))(VP (VBD marched)(PP (IN from)(NP (NNP Seoul)(NN train)(NN station))))) |ET| 
-0.41501897729078052190487824191223  |BT| (S (NP (NNS demonstrators))(VP (VBD shouted)(PP (IN at)(NP (CD one))))) |ET| 
1  |BT| (NP (NP (NNS sections))(PP (IN of)(NP (NNP Kentucky)))) |ET| 
-1  |BT| (NP (NP (NNS people))(PP (IN of)(NP (NNP Serbia)))) |ET| 
-0.70318910970611581134903644851875  |BT| (S (NP (NP (PP (NP (NNP Matamoros))))(, ,)(NP (NNP Mexico))(, ,))(VP (VBD said)(ADVP (RB flatly))(PP (IN of)(NP (NP (NNP Fox)))))) |ET| 
1  |BT| (NP (NP (NNS parts))(PP (IN of)(NP (NNP Washington)))) |ET| 
-0.74719424052571581373882736443193  |BT| (NP (NP (NNP New))(PP (IN between)(NP (NNP Holt)))) |ET| 
1  |BT| (NP (NNP ARLINGTON)(, ,)(NNP Texas)) |ET| 
-0.61095641327330663106209840407246  |BT| (NP (NNP Lebanon)(, ,)(NNP Morocco)) |ET| 
1  |BT| (NP (NP (NNP ATHENS))(, ,)(NP (NNP Ga))) |ET| 
-0.3792954601043065920862318307627  |BT| (NP (NP (NN competitor))(, ,)(NP (NNP easyJet))) |ET| 
1  |BT| (S (NP (NN sarin))(VP (VBD was)(VP (VBN manufactured)(ADVP (RB there))))) |ET| 
-0.47473156259710025395293087058235  |BT| (S (NP (NNP Joseph))(VP (VBZ is)(RB not)(VP (VBN buried)(ADVP (RB there))))) |ET| 
1  |BT| (NP (NP (NNP Jonesboro))(, ,)(NP (NNP Ark))) |ET| 
-0.02381838359550025874256107272231  |BT| (NP (JJ Palestinian)(JJ terrorist)(NN base)) |ET| 
-0.29624502977484923338380440327455  |BT| (NP (NNP Texas)(NNP House)) |ET| 
1  |BT| (NP (NNP BROWNSVILLE)(, ,)(NNP Texas)) |ET| 
-0.35165860826908823533187842258485  |BT| (NP (NNP Minnesota)(, ,)(NNP Wisconsin)) |ET| 
-0.37095808039405797629228800360579  |BT| (NP (PRP$ his)(JJ central)(NNP Texas)(NN ranch)) |ET| 
-0.53746666167499601574064627129701  |BT| (NP (NP (NNP GEMA))(, ,)(NP (NP (NNP German)))) |ET| 
-0.14442089944752312113962489092955  |BT| (NP (NN school)(NNS districts)) |ET| 
-0.19889467702801444382032514113234  |BT| (NP (NNP U.S.)(NN official)) |ET| 
1  |BT| (NP (NP (NNS parts))(PP (IN of)(NP (NNP Yugoslavia)))) |ET| 
-0.93196054442109399484905907229404  |BT| (NP (NP (NNP Balkan)(NNS wars))(SBAR (WHNP (WDT that))(S (VP (VBD broke)(PRT (RP out))(PP (IN in)(NP (DT the)(JJ last)(NN decade)))(SBAR (WHADVP (WRB when))(S (NP (NP (NNS parts))(PP (IN of)(NP (NNP Yugoslavia)))))))))) |ET| 
-0.47786681932246688475629525783006  |BT| (S (S (VP (VP (VP (PP (NP (NN refuge)))))))(, ,)(CC but)(S (PP (IN during)(NP (DT the)(NNP Cold)(NNP War)))(, ,)(NP (NN sarin))(VP (VBD was)(VP (VBN manufactured)(ADVP (RB there)))))) |ET| 
-0.38517186359629085323774688731646  |BT| (NP (NNP Pennsylvania)(NN radio)(NN station)) |ET| 
-0.32029389381906447908932022983208  |BT| (S (NP (NP (NNP Nokia)(POS 's))(NNP Chief)(NNP Executive)(NNP Jorma)(NNP Ollila))(VP (VBD told)(NP (NNS investors))(PP (IN in)(NP (NNP London))))) |ET| 
-0.64620712450964956641286107696942  |BT| (NP (NP (NNS wells))(PP (IN in)(NP (NN state)))) |ET| 
-0.16559571125914226974451537444111  |BT| (NP (NP (NP (NNP COPENHAGEN)(, ,)(NNP Denmark))(PRN (-LRB- -LRB-)(NP (NNP AP))(-RRB- -RRB-))(NP (CD _)))(NP (DT A)(JJ Danish)(NN couple))) |ET| 
-0.60401661107557491625641432619886  |BT| (VP (PP (NP (NNP Gore)))(SBAR (WHADVP (WRB whenever))(S (NP (DT the)(NN vice)(NN president))(VP (VP (VBD was)(PP (IN in)(NP (NNP Missouri)))))))) |ET| 
-0.24693613518282508945134168243385  |BT| (NNP Saudi) |ET| 
-0.23042333833706707402200208889553  |BT| (S (NP (PRP they))(VP (VBD were)(NP (NNS children)))) |ET| 
-0.48715712384474152418789572038804  |BT| (VP (PP (ADVP (NP (NN source))(RB close)))(PP (TO to)(NP (DT the)(NN school)))) |ET| 
-0.35309950137468537612051022733795  |BT| (NP (NP (NNP Warren))(, ,)(NP (DT a)(JJ large)(JJ blue-collar)(NNP Detroit)(NN suburb))) |ET| 
-0.54308017464835345311513492561062  |BT| (S (NP (NNP PALESTINE)(, ,)(NNP Texas))(VP (MD could)(VP (VB hinge)(PP (IN on)(NP (NP (DT a)(JJ single)(NN race))(PP (IN in)(NP (NNP East)(NNP Texas)))))))) |ET| 
-0.2297263757629479652422332947026  |BT| (NNP Geneva) |ET| 
-0.4955151022247751280147554098221  |BT| (NP (NP (NNP Security))(SBAR (S (NP (JJ fact-finding)(NN team))(VP (VBD arrived)(NP-TMP (NNP Sunday))(PP (IN in)(NP (NP (NNP East)(NNP Timor)))))))) |ET| 
-0.21379255632873506165481103380444  |BT| (S (NP (NP (NNP AOL)(POS 's))(NN market)(NN share))(VP (VBD was)(VP (VBG keeping)(PRT (RP out))(NP (NNS competitors))))) |ET| 
-0.82237818409485308190909336190089  |BT| (S (S (VP (PP (NP (NP (NNS parts))(PP (IN of)(NP (NNP Washington)))))))(, ,)(CC and)(S (NP (NNS showers))(VP (VBD were)(VP (VBN expected)(S (VP (TO to)(VP (VB move)(PP (IN into)(NP (NP (DT the)(NN region))))))))))) |ET| 
-0.060219672296731335814357066738012  |BT| (NP (NP (NP (DT The))(PP (IN in)(NP (NNP Elgin))))(NP (NP (DT The)(NNP Beacon)(NNP News)))) |ET| 
1  |BT| (NP (NP (NNS parts))(PP (IN of)(NP (NNP Nebraska)))) |ET| 
-0.28665398210341441753712388162967  |BT| (NP (NP (NNS representatives))(PP (IN of)(NP (JJ several)(JJ progressive)(NNS organizations)))) |ET| 
-0.68889479479146065177275204405305  |BT| (VP (PP (NP (NNP Phillips)(, ,)(NNP Wis.)))(, ,)(PP (TO to)(NP (NP (NN midday)(NNS readings))(PP (IN of)(NP (CD 77)))))(PP (IN at)(NP (NP (NNP Oceanside))(, ,)(NP (NNP Calif))))) |ET| 
-0.40799260888393351631719951910782  |BT| (NP (NN shuttle)(NNP Discovery)) |ET| 
-0.36334002294595546533884089512867  |BT| (S (NP (NNP Parkhurst))(ADVP (RB later))(VP (VBD merged)(PP (IN with)(NP (NP (DT another)(NN company)))))) |ET| 
-0.51816978650850942234029616884072  |BT| (NP (NP (NNS parts))(PP (IN of)(NP (NP (NNP Wyoming)(, ,)(JJ western)(NNP South)(NNP Dakota))(, ,)(NP (JJ eastern)(NNP Colorado))(, ,)(CC and)(NP (NP (JJ western)(NNS sections)))))) |ET| 
-0.39768235638043175628197900550731  |BT| (ADJP (PP (NP (NP (NNP Jakarta)(POS 's))(JJ main)(NN park)))(PP (IN from)(NP (DT the)(JJ presidential)(NN palace)))) |ET| 
-0.53800314973813323504714389855508  |BT| (NP (NNP Kentucky)(CC and)(NNP Tennessee)) |ET| 
-0.4666104852526530288869821561093  |BT| (NP (NP (NNS centers))(PP (IN of)(NP (NP (NNP Milosevic))))) |ET| 
-0.26317504207031638951974628071184  |BT| (NP (NNP Aceh)(NN province)) |ET| 
-0.26240130308106823786573613688233  |BT| (VP (NP (NN governor))(PP (IN if)(NP (NNP Gov)))) |ET| 
-0.24312431459171401915142496363842  |BT| (NP (NP (NNP Pinochet))(VP (VBG traveling)(ADVP (RB abroad)))) |ET| 
-0.23469447900949913510260103066685  |BT| (S (NP (NN company))(VP (VBD defrauded)(NP (DT the)(NN state))(PP (IN on)(NP (NNS royalties)))(PP (IN from)(NP (NP (JJ natural)(NN gas)(NNS wells))(PP (IN in)(NP (NN state)(NNS waters))))))) |ET| 
-0.26546937747592003198349175363546  |BT| (NP (NNP Ferrari)) |ET| 
-0.11369193193080617820811539786519  |BT| (S (`` ``)(NP (PRP They))(ADVP (RB only))(VP (VBP want)(S (NP (NNPS Mexicans))))) |ET| 
-0.26733722741747101281362120062113  |BT| (NP (NP (NNP James))(, ,)(NP (NP (DT the)(JJ senior)(NNP U.S.)))) |ET| 
-0.41765076474403917128341845454997  |BT| (S (NP (NN compound))(VP (VBD was)(ADVP (NN home)))) |ET| 
-0.65581222217750700931304663754418  |BT| (NP (NP (NNS women))(PP (IN in)(NP (NP (DT some)(NNS parts))(PP (IN of)(NP (DT the)(NNP Persian)(NNP Gulf)))))) |ET| 
-0.66970590224211812291343903780216  |BT| (NP (NP (NNP Yoko))(, ,)(NP (NP (NNP Chapman)))) |ET| 
-0.34814778956309655466583308225381  |BT| (VP (PP (NP (PP (NP (NNS workers)))))(PP (IN at)(NP (NP (NNP Korea)(NNP Electric)(NNP Power)(NNP Corp.))))) |ET| 
-0.28497029187652844761657888739137  |BT| (S (NP (NNS candidates))(ADVP (RB also))(VP (VBP have)(NP (NP (NNS differences))(PP (IN on)(NP (NP (NN missile))))))) |ET| 
-0.48491421039337700982230217050528  |BT| (NP (NP (PP (NP (NP (NNP Indonesia)(POS 's))(JJ second-largest)(NN city))))(, ,)(NP (NNP Surabaya))) |ET| 
-0.32158339663157298193851829637424  |BT| (S (NP (NNP Lieberman))(ADVP (RB also))(VP (VBD was)(VP (VBG traveling)(PP (TO to)(NP (NNP Baltimore)))(ADVP (RB later))(PP (PP (IN in)(NP (DT the)(NN day)(S (VP (TO to)(VP (VB attend)(NP (NNP Democratic)(NNP Party))))))))))) |ET| 
-0.36223651841168469367460147623206  |BT| (NP (PRP$ your)(NNS homes)) |ET| 
-0.57014526295416423362638624894316  |BT| (S (NP (NNP VILLAHERMOSA)(, ,)(NNP Mexico))(PP (NP (CD _))(IN In)(NP (NP (DT an)(JJ important)(NN victory))(PP (IN for)(NP (NP (NP (NNP Mexico)))))))) |ET| 
-0.35825170309174192428969263346517  |BT| (NP (NP (NNP Korea))(, ,)(NP (DT a)(NN state))) |ET| 
-0.029032943054288606887780588294845  |BT| (NNP Palestine) |ET| 
-0.20012217549523181325810128328158  |BT| (S (NP (PP (NP (PP (NP (NNP Midwest))))))(VP (VBD carried)(ADJP (JJ light)(PP (TO to)(NP (JJ moderate)(NN snow))))(PP (IN across)(NP (NP (NP (NNS parts))(PP (IN of)(NP (NNP Nebraska)(, ,)(NNP Iowa)))))))) |ET| 
-0.31898200314263869259434613923077  |BT| (NP (JJ Western)(NNS governments)) |ET| 
-0.45819882207039996924180513815372  |BT| (S (NP (NNS parents))(VP (VBD were)(PP (IN of)(NP (`` ``)(NP (JJ Ivorian)))))) |ET| 
-0.28254733565440648401789758281666  |BT| (NP (NNP Kostunica)(NN camp)) |ET| 
-0.63237001344882004527647723080008  |BT| (NP (NP (NN democrat))(PP (IN in)(NP (NNP Yugoslavia)))) |ET| 
-0.58441493861931093078965204767883  |BT| (NP (PRP$ his)(NN residence)) |ET| 
1  |BT| (NP (NP (NNS parts))(PP (IN of)(NP (NNP Nebraska)))) |ET| 
-0.12023886571661951405687318583659  |BT| (NP (NP (NNS ladies))(PP (IN of)(NP (NP (NNP Bahrain)(, ,)(NNP Comoros))))) |ET| 
