SVM-light Version V5.01-TK-1.2
5 # kernel type
3 # kernel parameter -d 
1 # kernel parameter -g 
1 # kernel parameter -s 
1 # kernel parameter -r 
empty# kernel parameter -u 
0.4 # kernel parameter -L 
1 # kernel parameter -T 
T # kernel parameter -C 
1 # kernel parameter -F 
1 # kernel parameter -S 
1.000000 # kernel parameter -D 
3 # kernel parameter -N 
S # kernel parameter -V 
S # kernel parameter -W 
49 # highest feature index 
16237 # number of training documents 
497 # number of support vectors plus 1 
0.82868117 # threshold b, each following line is a SV (starting with alpha*y)
-0.036517576929758502335410241812497  |BT| (NP (NP (NN autocrat)(POS 's))(ROOT (S (NP (NP (NP (DT The)(JJ disgraced)(NN autocrat)(POS 's))(NNP Socialist)(NNP Party)))))) |BT| (BOW ) |BT| (BOH ) |BT| (BOH-NPs ) |BT| (LP (NN *)(NP *)(NNP *)) |BT| (LP-head (NN *)(NP Party)(NNP *)) |BT| (NP (NP (NN autocrat)(POS 's))(ROOT (S (NP (NP (NP (DT The)(JJ disgraced)(NN autocrat)(POS 's))(NNP Socialist)(NNP Party)))))) |BT| (NP (ROOT (S (NP (NP (NP (E-PER (NN autocrat))(POS 's))(E-ORG (NNP Socialist)(NNP Party)))(CC and)(NP (E-ORG (PRP$ its))(JJ neo-communist)(E-PER (NNS allies))))(VP (VBD appeared)(S (VP (TO to)(VP (VB be)(PP (IN on)(NP (NP (DT the)(NN verge))(PP (IN of)(NP (NN collapse)))))(SBAR (IN after)(S (NP (ADJP (JJ massive)(CC and)(JJ violent))(NNS protests))(VP (VBD led)(S (NP (E-PER (PRP them)))(VP (TO to)(VP (VB acknowledge)(NP (NN victory))(PP (IN by)(NP (NP (NN opposition)(E-PER (NN challenger))(E-PER (NNP Vojislav)(NNP Kostunica)))(PP (IN in)(NP (NP (JJ last)(NN month)(POS 's))(JJ presidential)(NN vote)))))))))))))))(. .)))(ROOT (S (NP (NP (NP (DT The)(JJ disgraced)(E-PER (NN autocrat))(POS 's))(E-ORG (NNP Socialist)(NNP Party))))))) |ET| 5:19 6:19 11:2652 12:2653 13:2654 14:2655 16:6 17:7 18:301 21:9 22:157 23:2656 24:2657 25:118 26:118 27:58 28:58 29:2658 30:58 31:220 32:2659 33:2660 34:2661 35:19 37:2659 38:2662 40:2658 41:21 42:21 43:21 44:21 45:21 46:21 47:21 48:22 49:22  |EV| 
0.12499999999996855293282749244099  |BT| (NP (JJ presidential)(NN palace)) |BT| (BOW ) |BT| (BOH ) |BT| (BOH-NPs ) |BT| (LP (JJ *)(NP *)(NN *)) |BT| (LP-head (JJ *)(NP palace)(NN *)) |BT| (NP (JJ presidential)(NN palace)) |BT| (NP (ROOT (S (S (ADJP (PP (NP (E-PER (JJ presidential))(E-FAC (NN palace))))))(, ,)(VP (VBD suspended)(NP (E-ORG (PRP$ its))(JJ public)(NNS functions))(PP (IN for)(ADVP (IN at)(JJS least)))(NP-TMP (DT a)(NN week))(PP (IN after)(NP (NP (DT a)(NN series))(PP (IN of)(NP (NNS protests)(CC and)(NNS threats))))))(. .)))(ROOT (S (PP (IN _)(NP (DT The)(CD _)(NN <ORG-e6 type="NOM">)(NN <FAC-e25 type="NOM">)(NN embassy)))(S (ADJP (ADJP (JJR <)(JJ located))(PP (IN across)(NP (NP (E-GPE (NNP Jakarta))(POS 's))(JJ main)(E-FAC (NN park))))(PP (IN from)(NP (DT the)(E-PER (JJ presidential))(E-FAC (NN palace))))))))) |ET| 11:7885 12:7886 13:1693 14:33 16:7 17:7 18:647 21:165 22:217 23:1694 24:7887 25:118 26:118 27:31 28:31 29:105 30:1334 31:447 32:105 33:1697 34:7888 35:19 36:19 37:7884 38:7884 39:19 40:1334 41:7165 42:21 43:21 44:864 45:447 46:21 47:21 48:22 49:22  |EV| 
0.10459953889434954465986749028161  |BT| (SBAR (WHNP (WP who))(S (VP (VBD died)(NP-TMP (NNP Monday)(NN night))(PP (IN in)(NP (NP (DT the)(NN crash))(PP (IN of)(NP (DT a)(JJ small)(NN plane)))))))) |BT| (BOW (died *)(Monday *)(night *)(in *)(the *)(crash *)(of *)) |BT| (BOH (died *)(night *)(in *)(crash *)(of *)) |BT| (BOH-NPs (night *)(crash *)) |BT| (LP (WP *)(WHNP *)(SBAR *)(S *)(VP *)(PP *)(NP *)(PP *)(NP *)(NN *)) |BT| (LP-head (WP *)(WHNP *)(SBAR who)(S *)(VP *)(PP *)(NP *)(PP *)(NP *)(NN *)) |BT| (SBAR (WHNP (WP who))(S (VP (VBD died)(NP-TMP (NNP Monday)(NN night))(PP (IN in)(NP (NP (DT the)(NN crash))(PP (IN of)(NP (DT a)(JJ small)(NN plane)))))))) |BT| (SBAR (ROOT (S (VP (S (VP (VP (PP (NP (VP (PP (NP (S (VP (VP (PP (NP (SBAR (WHNP (E-PER (WP who)))(S (VP (VBD died)(NP-TMP (NNP Monday)(NN night))(PP (IN in)(NP (NP (DT the)(NN crash))(PP (IN of)(NP (DT a)(JJ small)(E-VEH (NN plane)))))))))))))))))))))))(. .)))(ROOT (S (NP (DT The)(E-ORG (NN commission)))(VP (VBD was)(S (VP (TO to)(VP (VB announce)(NP (DT the)(NNS plans))(ADVP (RBR later))(NP-TMP (NNP Tuesday))(, ,)(PP (IN with)(NP (NP (DT each)(E-PER (NN candidate)))(VP (VBN given)(NP-TMP (NN time))(PP (IN at)(NP (NP (DT the)(NN debate)(POS 's))(NN start)(S (VP (TO to)(VP (VB say)(NP (DT a)(JJ few)(NNS words))(PP (IN about)(NP (NP (E-PER (NNP Carnahan)))(, ,)(SBAR (WHNP (E-PER (WP who)))(S (VP (VBD died)(NP-TMP (NNP Monday)(NN night))(PP (IN in)(NP (NP (DT the)(NN crash))(PP (IN of)(NP (DT a)(JJ small)(E-VEH (NN plane)))))))))))))))))))))))))) |ET| 11:4854 12:4855 13:950 14:33 16:92 17:7 18:520 21:677 22:1477 23:953 24:4856 25:118 26:118 27:909 28:2466 29:13 30:2466 31:4744 32:430 33:954 34:4857 37:955 38:4858 40:4744 41:4744 42:1878 43:909 44:4853 45:1095 46:4859 47:187 48:1878 49:4859  |EV| 
0.12499999999996855293282749244099  |BT| (NP (PRP$ their)(NNS jails)) |BT| (BOW ) |BT| (BOH ) |BT| (BOH-NPs ) |BT| (LP (PRP$ *)(NP *)(NNS *)) |BT| (LP-head (PRP$ *)(NP jails)(NNS *)) |BT| (NP (PRP$ their)(NNS jails)) |BT| (NP (ROOT (S (VP (S (VP (VP (PP (NP (E-ORG (PRP$ their))(E-FAC (NNS jails))))))))(. .)('' '')))(ROOT (S (`` ``)(NP (PRP We))(VP (VBP ask)(S (NP (DT the)(E-ORG (NN opposition)))(VP (TO to)(VP (VB show)(NP (NP (E-ORG (PRP$ their))(NN heart))(CC and)(NP (NN release)(E-ORG (NN government))(E-PER (NNS prisoners))))(PP (IN in)(NP (E-ORG (PRP$ their))(E-FAC (NNS jails))))))))))) |ET| 11:10031 12:6701 13:580 14:24 16:7 17:7 18:2216 21:144 22:156 23:10026 24:10032 25:117 26:117 27:31 28:31 29:106 30:1254 31:9975 32:106 33:10027 34:10033 35:19 36:19 37:10030 38:10030 39:19 40:106 41:9975 42:21 43:21 44:400 45:9975 46:21 47:21 48:22 49:22  |EV| 
-0.051766251587265707523322078031924  |BT| (VP (PP (NP (NN despot)))(PP (TO to)(NP (NP (NN democrat))))) |BT| (BOW ) |BT| (BOH ) |BT| (BOH-NPs ) |BT| (LP (NN *)(NP *)(PP *)(VP *)(PP *)(NP *)(NN *)) |BT| (LP-head (NN *)(NP *)(PP *)(VP None)(PP *)(NP *)(NN *)) |BT| (VP (PP (NP (NN despot)))(PP (TO to)(NP (NP (NN democrat))))) |BT| (VP (ROOT (S (NP (SBAR (S (VP (NP (PP (S (VP (PP (S (VP (PP (NP (E-PER (NN despot))))(PP (TO to)(NP (NP (E-PER (NN democrat)))(PP (IN in)(NP (E-GPE (NNP Yugoslavia)))))))))))))))))(VP (VBD _)(NP (NP (DT an)(NN idea))(VP (VBN dismissed)(PP (IN in)(NP (NN debate)))(PP (IN as)(ADJP (JJ risky)))(PP (IN by)(NP (E-PER (NNP Al)(NNP Gore))))))(SBAR (RB even)(IN as)(S (NP (E-PER (PRP$ his))(E-PER (NN boss)))(VP (VBD was)(VP (VBG trying)(S (VP (TO to)(VP (VB get)(S (NP (E-GPE (NNP Moscow)))(VP (TO to)(VP (VB step)(PP (IN in)))))))))))))(. .)))(ROOT (S (NP (NP (NP (E-GPE (NNP WASHINGTON)))(PRN (-LRB- -LRB-)(NP (NNP AP))(-RRB- -RRB-)))(SBAR (S (NP (CD __)(E-PER (NNPS Republicans)))(VP (VBP give)(NP (E-PER (NNP George)(NNP W.)(NNP Bush)))(NP (NP (NN credit))(PP (IN for)(S (VP (VBG promoting)(NP (DT a)(E-GPE (JJ Russian))(NN role))(PP (IN in)(S (VP (VBG smoothing)(NP (DT the)(NN transition))(PP (IN from)(NP (E-PER (NN despot))))(PP (TO to)(NP (NP (E-PER (NN democrat))))))))))))))))))) |ET| 2:19 11:1661 12:1059 13:1656 14:33 16:6 17:7 18:148 19:381 21:9 22:311 23:1657 24:1662 25:118 26:118 27:291 28:291 29:447 30:291 31:1658 32:1660 33:1659 34:1663 35:19 37:1660 38:1664 40:447 41:1658 42:21 43:21 44:1654 45:1658 46:21 47:21 48:22 49:22  |EV| 
0.12499999999996855293282749244099  |BT| (S (NP (NNP Russia)(, ,)(NNP France)(, ,)(NNP Jordan)(CC and)(NNP Yemen))(VP (VBD sent)(NP (NNS planes)))) |BT| (BOW (, *)(France *)(, *)(Jordan *)(and *)) |BT| (BOH (Jordan *)(sent *)) |BT| (BOH-NPs (Jordan *)) |BT| (LP (NNP *)(NP *)(S *)(VP *)(NP *)(NNS *)) |BT| (LP-head (NNP *)(NP *)(S sent)(VP *)(NP *)(NNS *)) |BT| (S (NP (NNP Russia)(, ,)(NNP France)(, ,)(NNP Jordan)(CC and)(NNP Yemen))(VP (VBD sent)(NP (NNS planes)))) |BT| (S (ROOT (S (VP (SBAR (S (NP (E-GPE (NNP Russia))(, ,)(E-GPE (NNP France))(, ,)(E-GPE (NNP Jordan))(CC and)(E-GPE (NNP Yemen)))(VP (VBD sent)(NP (E-VEH (NNS planes)))(PP (TO to)(NP (E-GPE (NNP Baghdad))))(, ,)(S (VP (JJ challenging)(NP (NP (E-ORG (NNP U.N.))(NNS sanctions))(VP (VBN imposed)(PP (IN on)(NP (E-GPE (NNP Iraq))))))(PP (IN after)(NP (NP (E-GPE (PRP$ its))(CD 1990)(NN invasion))(PP (IN of)(NP (E-GPE (NNP Kuwait))))))))))))(. .)))(ROOT (S (NP (E-PER (NNP Mubarak))(CC and)(E-PER (NNP Assad)))(VP (VBD met)(PP (IN after)(NP (DT a)(NN week)))(SBAR (WHADVP (WRB when))(S (NP (E-GPE (NNP Russia))(, ,)(E-GPE (NNP France))(, ,)(E-GPE (NNP Jordan))(CC and)(E-GPE (NNP Yemen)))(VP (VBD sent)(NP (E-VEH (NNS planes)))))))))) |ET| 9:539 11:518 12:519 13:500 14:501 16:34 17:47 18:540 21:9 22:113 23:502 24:521 25:1 26:1 27:13 28:361 29:503 30:361 31:432 32:505 33:504 34:522 37:505 38:523 40:503 41:432 42:510 43:510 44:67 45:432 46:510 47:361 48:22 49:510  |EV| 
0.12499999999996855293282749244099  |BT| (S (NP (NNP France)(, ,)(NNP Jordan)(CC and)(NNP Yemen))(VP (VBD sent)(NP (NNS planes)))) |BT| (BOW (, *)(Jordan *)(and *)) |BT| (BOH (Jordan *)(sent *)) |BT| (BOH-NPs (Jordan *)) |BT| (LP (NNP *)(NP *)(S *)(VP *)(NP *)(NNS *)) |BT| (LP-head (NNP *)(NP *)(S sent)(VP *)(NP *)(NNS *)) |BT| (S (NP (NNP France)(, ,)(NNP Jordan)(CC and)(NNP Yemen))(VP (VBD sent)(NP (NNS planes)))) |BT| (S (ROOT (S (VP (SBAR (S (NP (E-GPE (NNP France))(, ,)(E-GPE (NNP Jordan))(CC and)(E-GPE (NNP Yemen)))(VP (VBD sent)(NP (E-VEH (NNS planes)))(PP (TO to)(NP (E-GPE (NNP Baghdad))))(, ,)(S (VP (JJ challenging)(NP (NP (E-ORG (NNP U.N.))(NNS sanctions))(VP (VBN imposed)(PP (IN on)(NP (E-GPE (NNP Iraq))))))(PP (IN after)(NP (NP (E-GPE (PRP$ its))(CD 1990)(NN invasion))(PP (IN of)(NP (E-GPE (NNP Kuwait))))))))))))(. .)))(ROOT (S (NP (E-PER (NNP Mubarak))(CC and)(E-PER (NNP Assad)))(VP (VBD met)(PP (IN after)(NP (DT a)(NN week)))(SBAR (WHADVP (WRB when))(S (NP (E-GPE (NNP Russia))(, ,)(E-GPE (NNP France))(, ,)(E-GPE (NNP Jordan))(CC and)(E-GPE (NNP Yemen)))(VP (VBD sent)(NP (E-VEH (NNS planes)))))))))) |ET| 9:539 11:518 12:519 13:506 14:5 16:64 17:25 18:540 21:9 22:113 23:507 24:521 25:1 26:1 27:13 28:361 29:13 30:361 31:508 32:505 33:509 34:522 37:505 38:523 40:510 41:510 42:510 43:510 44:513 45:513 46:510 47:361 48:22 49:510  |EV| 
0.12499999999996855293282749244099  |BT| (S (NP (NNP Yemen))(VP (VBD sent)(NP (NNS planes)))) |BT| (BOW ) |BT| (BOH (sent *)) |BT| (BOH-NPs ) |BT| (LP (NNP *)(NP *)(S *)(VP *)(NP *)(NNS *)) |BT| (LP-head (NNP *)(NP *)(S sent)(VP *)(NP *)(NNS *)) |BT| (S (NP (NNP Yemen))(VP (VBD sent)(NP (NNS planes)))) |BT| (S (ROOT (S (VP (SBAR (S (NP (E-GPE (NNP Yemen)))(VP (VBD sent)(NP (E-VEH (NNS planes)))(PP (TO to)(NP (E-GPE (NNP Baghdad))))(, ,)(S (VP (JJ challenging)(NP (NP (E-ORG (NNP U.N.))(NNS sanctions))(VP (VBN imposed)(PP (IN on)(NP (E-GPE (NNP Iraq))))))(PP (IN after)(NP (NP (E-GPE (PRP$ its))(CD 1990)(NN invasion))(PP (IN of)(NP (E-GPE (NNP Kuwait))))))))))))(. .)))(ROOT (S (NP (E-PER (NNP Mubarak))(CC and)(E-PER (NNP Assad)))(VP (VBD met)(PP (IN after)(NP (DT a)(NN week)))(SBAR (WHADVP (WRB when))(S (NP (E-GPE (NNP Russia))(, ,)(E-GPE (NNP France))(, ,)(E-GPE (NNP Jordan))(CC and)(E-GPE (NNP Yemen)))(VP (VBD sent)(NP (E-VEH (NNS planes)))))))))) |ET| 9:539 11:518 12:519 13:515 14:5 16:6 17:7 18:540 21:9 22:113 23:516 24:521 25:1 26:1 27:361 28:361 29:242 30:361 31:510 32:505 33:517 34:522 37:505 38:523 40:510 41:510 42:21 43:361 44:513 45:513 46:21 47:361 48:22 49:22  |EV| 
0.12499999999996855293282749244099  |BT| (S (NP (NNP Syria)(CC and)(NNP Egypt))(VP (VBD were)(VP (VBG planning)(S (VP (TO to)(VP (VB send)(NP (NNS planes)))))))) |BT| (BOW (and *)(Egypt *)(were *)(planning *)) |BT| (BOH (were *)(send *)) |BT| (BOH-NPs ) |BT| (LP (NNP *)(NP *)(S *)(VP *)(S *)(VP *)(NP *)(NNS *)) |BT| (LP-head (NNP *)(NP *)(S were)(VP *)(S *)(VP *)(NP *)(NNS *)) |BT| (S (NP (NNP Syria)(CC and)(NNP Egypt))(VP (VBD were)(VP (VBG planning)(S (VP (TO to)(VP (VB send)(NP (NNS planes)))))))) |BT| (S (ROOT (S (VP (VP (PP (SBAR (S (NP (E-GPE (NNP Syria))(CC and)(E-GPE (NNP Egypt)))(VP (VBD were)(VP (VBG planning)(S (VP (TO to)(VP (VB send)(NP (E-VEH (NNS planes)))(PP (TO to)(NP (E-GPE (NNP Baghdad))))))))))))))(. .)))(ROOT (S (ADVP (RB However))(, ,)(NP (E-PER (PRP he)))(VP (MD would)(RB not)(VP (VB comment)(PP (IN on)(SBAR (IN whether)(S (NP (E-GPE (NNP Syria))(CC and)(E-GPE (NNP Egypt)))(VP (VBD were)(VP (VBG planning)(S (VP (TO to)(VP (VB send)(NP (E-VEH (NNS planes)))))))))))))))) |ET| 9:539 11:518 12:519 13:560 14:561 16:70 17:6 18:540 21:9 22:113 23:48 24:521 25:1 26:1 27:242 28:568 29:563 30:568 31:97 32:291 33:50 34:522 37:20 38:523 40:97 41:21 42:21 43:569 44:21 45:565 46:21 47:568 48:22 49:569  |EV| 
-0.049329820713888500316457452754548  |BT| (S (NP (PRP he))(VP (MD would)(RB not)(VP (VB comment)(PP (IN on)(SBAR (IN whether)(S (NP (NNP Syria)(CC and)(NNP Egypt))(VP (VBD were)(VP (VBG planning)(S (VP (TO to)(VP (VB send)(NP (NNS planes))))))))))))) |BT| (BOW (would *)(not *)(comment *)(on *)(whether *)(Syria *)(and *)(Egypt *)(were *)(planning *)) |BT| (BOH (would *)(comment *)(on *)(Egypt *)(were *)(send *)) |BT| (BOH-NPs (Egypt *)) |BT| (LP (PRP *)(NP *)(S *)(VP *)(PP *)(SBAR *)(S *)(VP *)(S *)(VP *)(NP *)(NNS *)) |BT| (LP-head (PRP *)(NP *)(S would)(VP *)(PP *)(SBAR *)(S *)(VP *)(S *)(VP *)(NP *)(NNS *)) |BT| (S (NP (PRP he))(VP (MD would)(RB not)(VP (VB comment)(PP (IN on)(SBAR (IN whether)(S (NP (NNP Syria)(CC and)(NNP Egypt))(VP (VBD were)(VP (VBG planning)(S (VP (TO to)(VP (VB send)(NP (NNS planes))))))))))))) |BT| (S (ROOT (S (NP (E-PER (PRP he)))(VP (MD would)(RB not)(VP (VB comment)(PP (IN on)(SBAR (IN whether)(S (NP (E-GPE (NNP Syria))(CC and)(E-GPE (NNP Egypt)))(VP (VBD were)(VP (VBG planning)(S (VP (TO to)(VP (VB send)(NP (E-VEH (NNS planes)))(PP (TO to)(NP (E-GPE (NNP Baghdad))))))))))))))(. .)))(ROOT (S (ADVP (RB However))(, ,)(NP (E-PER (PRP he)))(VP (MD would)(RB not)(VP (VB comment)(PP (IN on)(SBAR (IN whether)(S (NP (E-GPE (NNP Syria))(CC and)(E-GPE (NNP Egypt)))(VP (VBD were)(VP (VBG planning)(S (VP (TO to)(VP (VB send)(NP (E-VEH (NNS planes)))))))))))))))) |ET| 4:19 11:518 12:519 13:351 14:33 16:46 17:25 18:520 21:144 22:567 23:263 24:521 25:118 26:118 27:562 28:568 29:13 30:568 31:564 32:291 33:266 34:522 37:266 38:523 40:564 41:21 42:20 43:562 44:21 45:21 46:20 47:568 48:22 49:569  |EV| 
-0.0070431761108206269311748926043037  |BT| (S (NP (NNP Syria)(CC and)(NNP Egypt))(VP (VBD were)(VP (VBG planning)(S (VP (TO to)(VP (VB send)(NP (NNS planes))(PP (TO to)(NP (NNP Baghdad))))))))) |BT| (BOW (and *)(Egypt *)(were *)(planning *)(to *)(send *)) |BT| (BOH (were *)(send *)(planes *)) |BT| (BOH-NPs (planes *)) |BT| (LP (NNP *)(NP *)(S *)(VP *)(S *)(VP *)(PP *)(NP *)(NNP *)) |BT| (LP-head (NNP *)(NP *)(S were)(VP *)(S *)(VP *)(PP *)(NP *)(NNP *)) |BT| (S (NP (NNP Syria)(CC and)(NNP Egypt))(VP (VBD were)(VP (VBG planning)(S (VP (TO to)(VP (VB send)(NP (NNS planes))(PP (TO to)(NP (NNP Baghdad))))))))) |BT| (S (ROOT (S (VP (VP (PP (SBAR (S (NP (E-GPE (NNP Syria))(CC and)(E-GPE (NNP Egypt)))(VP (VBD were)(VP (VBG planning)(S (VP (TO to)(VP (VB send)(NP (E-VEH (NNS planes)))(PP (TO to)(NP (E-GPE (NNP Baghdad))))))))))))))(. .)))(ROOT (S (ADVP (RB However))(, ,)(NP (E-PER (PRP he)))(VP (MD would)(RB not)(VP (VB comment)(PP (IN on)(SBAR (IN whether)(S (NP (E-GPE (NNP Syria))(CC and)(E-GPE (NNP Egypt)))(VP (VBD were)(VP (VBG planning)(S (VP (TO to)(VP (VB send)(NP (E-VEH (NNS planes)))(PP (TO to)(NP (E-GPE (NNP Baghdad))))))))))))))))) |ET| 9:1 11:524 12:5 13:560 14:561 16:85 17:25 18:8 21:9 22:10 23:48 24:525 25:1 26:1 27:242 28:291 29:563 30:291 31:97 32:523 33:50 34:526 37:20 38:527 40:97 41:21 42:523 43:569 44:21 45:565 46:523 47:523 48:22 49:568  |EV| 
-0.016638145041187331341081545588168  |BT| (S (NP (NNP Mubarak)(CC and)(NNP Assad))(VP (VBD met)(PP (IN after)(NP (DT a)(NN week)))(SBAR (WHADVP (WRB when))(S (NP (NNP Russia)(, ,)(NNP France)(, ,)(NNP Jordan)(CC and)(NNP Yemen))(VP (VBD sent)(NP (NNS planes))))))) |BT| (BOW (and *)(Assad *)(met *)(after *)(a *)(week *)(when *)(Russia *)(, *)(France *)(, *)(Jordan *)(and *)) |BT| (BOH (met *)(after *)(week *)(when *)(Yemen *)(sent *)) |BT| (BOH-NPs (week *)(Yemen *)) |BT| (LP (NNP *)(NP *)(S *)(VP *)(SBAR *)(S *)(VP *)(NP *)(NNS *)) |BT| (LP-head (NNP *)(NP *)(S met)(VP *)(SBAR *)(S *)(VP *)(NP *)(NNS *)) |BT| (S (NP (NNP Mubarak)(CC and)(NNP Assad))(VP (VBD met)(PP (IN after)(NP (DT a)(NN week)))(SBAR (WHADVP (WRB when))(S (NP (NNP Russia)(, ,)(NNP France)(, ,)(NNP Jordan)(CC and)(NNP Yemen))(VP (VBD sent)(NP (NNS planes))))))) |BT| (S (ROOT (S (NP (E-PER (NNP Mubarak))(CC and)(E-PER (NNP Assad)))(VP (VBD met)(PP (IN after)(NP (DT a)(NN week)))(SBAR (WHADVP (WRB when))(S (NP (E-GPE (NNP Russia))(, ,)(E-GPE (NNP France))(, ,)(E-GPE (NNP Jordan))(CC and)(E-GPE (NNP Yemen)))(VP (VBD sent)(NP (E-VEH (NNS planes)))(PP (TO to)(NP (E-GPE (NNP Baghdad))))(, ,)(S (VP (JJ challenging)(NP (NP (E-ORG (NNP U.N.))(NNS sanctions))(VP (VBN imposed)(PP (IN on)(NP (E-GPE (NNP Iraq))))))(PP (IN after)(NP (NP (E-GPE (PRP$ its))(CD 1990)(NN invasion))(PP (IN of)(NP (E-GPE (NNP Kuwait))))))))))))(. .)))(ROOT (S (NP (E-PER (NNP Mubarak))(CC and)(E-PER (NNP Assad)))(VP (VBD met)(PP (IN after)(NP (DT a)(NN week)))(SBAR (WHADVP (WRB when))(S (NP (E-GPE (NNP Russia))(, ,)(E-GPE (NNP France))(, ,)(E-GPE (NNP Jordan))(CC and)(E-GPE (NNP Yemen)))(VP (VBD sent)(NP (E-VEH (NNS planes)))))))))) |ET| 4:19 11:518 12:519 13:258 14:259 16:151 17:64 18:520 21:9 22:113 23:193 24:521 25:118 26:118 27:242 28:361 29:14 30:361 31:499 32:505 33:194 34:522 37:67 38:523 40:21 41:21 42:432 43:161 44:21 45:21 46:505 47:361 48:432 49:505  |EV| 
0.088801324651495372464182764815632  |BT| (PRP$ their) |BT| (BOW ) |BT| (BOH ) |BT| (BOH-NPs (Bell *)) |BT| (LP (PRP$ *)(NP *)(NNP *)) |BT| (LP-head (PRP$ *)(NP Park)(NNP *)) |BT| (PRP$ their) |BT| (NP (ROOT (S (PP (NP (PP (NP (NP (E-ORG (PRP$ their))(JJ new)(E-FAC (NNP Pacific)(NNP Bell)(NNP Park)))(PP (IN in)(NP (E-GPE (NNP San)(NNP Francisco))))))))(, ,)(NP (E-PER (PRP he)))(VP (VBZ prefers)(S (VP (TO to)(VP (VB be)(ADJP (RB alone))))))(. .)))(JJ new)(ROOT (S (PP (IN In)(NP (NP (NP (DT the)(E-ORG (NNP Giants))(POS '))(JJ spacious)(E-FAC (NN clubhouse)))(PP (IN at)(NP (NP (E-ORG (PRP$ their))(JJ new)(E-FAC (NNP Pacific)(NNP Bell)(NNP Park)))))))))) |ET| 3:19 11:16012 12:16013 13:580 14:24 16:6 17:7 18:2216 21:144 22:145 23:16010 24:16014 25:117 26:117 27:3158 28:3158 29:921 30:3158 31:16009 32:1254 33:16011 34:16015 35:19 37:5351 38:5351 39:19 40:921 41:16009 42:16016 43:21 44:15798 45:16009 46:16016 47:21 48:22 49:22  |EV| 
0.12499999999996855293282749244099  |BT| (PRP$ their) |BT| (BOW ) |BT| (BOH ) |BT| (BOH-NPs (Bell *)) |BT| (LP (PRP$ *)(NP *)(NNP *)) |BT| (LP-head (PRP$ *)(NP Park)(NNP *)) |BT| (PRP$ their) |BT| (NP (ROOT (S (PP (NP (PP (NP (NP (E-ORG (PRP$ their))(JJ new)(E-FAC (NNP Pacific)(NNP Bell)(NNP Park)))(PP (IN in)(NP (E-GPE (NNP San)(NNP Francisco))))))))(, ,)(NP (E-PER (PRP he)))(VP (VBZ prefers)(S (VP (TO to)(VP (VB be)(ADJP (RB alone))))))(. .)))(JJ new)(ROOT (S (PP (IN In)(NP (NP (NP (DT the)(E-ORG (NNP Giants))(POS '))(JJ spacious)(E-FAC (NN clubhouse)))(PP (IN at)(NP (NP (E-ORG (PRP$ their))(JJ new)(E-FAC (NNP Pacific)(NNP Bell)(NNP Park)))))))))) |ET| 3:19 11:16012 12:16013 13:580 14:24 16:6 17:7 18:2216 21:144 22:145 23:16010 24:16014 25:117 26:117 27:3158 28:3158 29:921 30:3158 31:16009 32:1254 33:16011 34:16015 35:19 37:5351 38:5351 39:19 40:921 41:16009 42:16016 43:21 44:15798 45:16009 46:16016 47:21 48:22 49:22  |EV| 
-0.086622723679337959579171979385137  |BT| (NP (NNP France)(, ,)(NNP Jordan)(CC and)(NNP Yemen)) |BT| (BOW (, *)) |BT| (BOH (Jordan *)) |BT| (BOH-NPs (Jordan *)) |BT| (LP (NNP *)(NP *)(NNP *)) |BT| (LP-head (NNP *)(NP Yemen)(NNP *)) |BT| (NP (NNP France)(, ,)(NNP Jordan)(CC and)(NNP Yemen)) |BT| (NP (ROOT (S (VP (SBAR (S (NP (E-GPE (NNP France))(, ,)(E-GPE (NNP Jordan))(CC and)(E-GPE (NNP Yemen)))(VP (VBD sent)(NP (E-VEH (NNS planes)))(PP (TO to)(NP (E-GPE (NNP Baghdad))))(, ,)(S (VP (JJ challenging)(NP (NP (E-ORG (NNP U.N.))(NNS sanctions))(VP (VBN imposed)(PP (IN on)(NP (E-GPE (NNP Iraq))))))(PP (IN after)(NP (NP (E-GPE (PRP$ its))(CD 1990)(NN invasion))(PP (IN of)(NP (E-GPE (NNP Kuwait))))))))))))(. .)))(, ,)(NNP Jordan)(CC and)(ROOT (S (NP (E-PER (NNP Mubarak))(CC and)(E-PER (NNP Assad)))(VP (VBD met)(PP (IN after)(NP (DT a)(NN week)))(SBAR (WHADVP (WRB when))(S (NP (E-GPE (NNP Russia))(, ,)(E-GPE (NNP France))(, ,)(E-GPE (NNP Jordan))(CC and)(E-GPE (NNP Yemen))))))))) |ET| 9:1 10:1 11:515 12:5 13:506 14:5 16:47 17:6 18:8 21:9 22:10 23:507 24:516 25:1 26:1 27:13 28:242 29:13 30:242 31:508 32:510 33:509 34:517 37:505 38:505 39:19 40:510 41:510 42:510 43:510 44:513 45:513 46:510 47:510 48:22 49:22  |EV| 
-0.022131294590051725501567148057802  |BT| (S (NP (NNP France)(, ,)(NNP Jordan)(CC and)(NNP Yemen))(VP (VBD sent)(NP (NNS planes))(PP (TO to)(NP (NNP Baghdad))))) |BT| (BOW (, *)(Jordan *)(and *)(Yemen *)(sent *)) |BT| (BOH (Jordan *)(sent *)(planes *)) |BT| (BOH-NPs (Jordan *)(planes *)) |BT| (LP (NNP *)(NP *)(S *)(VP *)(PP *)(NP *)(NNP *)) |BT| (LP-head (NNP *)(NP *)(S sent)(VP *)(PP *)(NP *)(NNP *)) |BT| (S (NP (NNP France)(, ,)(NNP Jordan)(CC and)(NNP Yemen))(VP (VBD sent)(NP (NNS planes))(PP (TO to)(NP (NNP Baghdad))))) |BT| (S (ROOT (S (VP (SBAR (S (NP (E-GPE (NNP France))(, ,)(E-GPE (NNP Jordan))(CC and)(E-GPE (NNP Yemen)))(VP (VBD sent)(NP (E-VEH (NNS planes)))(PP (TO to)(NP (E-GPE (NNP Baghdad))))(, ,)(S (VP (JJ challenging)(NP (NP (E-ORG (NNP U.N.))(NNS sanctions))(VP (VBN imposed)(PP (IN on)(NP (E-GPE (NNP Iraq))))))(PP (IN after)(NP (NP (E-GPE (PRP$ its))(CD 1990)(NN invasion))(PP (IN of)(NP (E-GPE (NNP Kuwait))))))))))))(. .)))(ROOT (S (NP (E-PER (NNP Mubarak))(CC and)(E-PER (NNP Assad)))(VP (VBD met)(PP (IN after)(NP (DT a)(NN week)))(SBAR (WHADVP (WRB when))(S (NP (E-GPE (NNP Russia))(, ,)(E-GPE (NNP France))(, ,)(E-GPE (NNP Jordan))(CC and)(E-GPE (NNP Yemen)))(VP (VBD sent)(NP (E-VEH (NNS planes)))(PP (TO to)(NP (E-GPE (NNP Baghdad))))))))))) |ET| 9:1 11:524 12:5 13:506 14:5 16:34 17:47 18:8 21:9 22:10 23:507 24:525 25:1 26:1 27:13 28:291 29:13 30:291 31:508 32:523 33:509 34:526 37:505 38:527 40:510 41:510 42:510 43:510 44:513 45:513 46:523 47:523 48:510 49:361  |EV| 
-0.0023613833037659541155828257785743  |BT| (NP (NNP Russia)(, ,)(NNP France)(, ,)(NNP Jordan)(CC and)(NNP Yemen)) |BT| (BOW (, *)(France *)(, *)) |BT| (BOH (Jordan *)) |BT| (BOH-NPs (Jordan *)) |BT| (LP (NNP *)(NP *)(NNP *)) |BT| (LP-head (NNP *)(NP Yemen)(NNP *)) |BT| (NP (NNP Russia)(, ,)(NNP France)(, ,)(NNP Jordan)(CC and)(NNP Yemen)) |BT| (NP (ROOT (S (VP (SBAR (S (NP (E-GPE (NNP Russia))(, ,)(E-GPE (NNP France))(, ,)(E-GPE (NNP Jordan))(CC and)(E-GPE (NNP Yemen)))(VP (VBD sent)(NP (E-VEH (NNS planes)))(PP (TO to)(NP (E-GPE (NNP Baghdad))))(, ,)(S (VP (JJ challenging)(NP (NP (E-ORG (NNP U.N.))(NNS sanctions))(VP (VBN imposed)(PP (IN on)(NP (E-GPE (NNP Iraq))))))(PP (IN after)(NP (NP (E-GPE (PRP$ its))(CD 1990)(NN invasion))(PP (IN of)(NP (E-GPE (NNP Kuwait))))))))))))(. .)))(, ,)(NNP France)(, ,)(NNP Jordan)(CC and)(ROOT (S (NP (E-PER (NNP Mubarak))(CC and)(E-PER (NNP Assad)))(VP (VBD met)(PP (IN after)(NP (DT a)(NN week)))(SBAR (WHADVP (WRB when))(S (NP (E-GPE (NNP Russia))(, ,)(E-GPE (NNP France))(, ,)(E-GPE (NNP Jordan))(CC and)(E-GPE (NNP Yemen))))))))) |ET| 9:1 10:1 11:515 12:5 13:500 14:501 16:64 17:25 18:8 21:9 22:10 23:502 24:516 25:1 26:1 27:13 28:242 29:503 30:242 31:432 32:510 33:504 34:517 37:505 38:505 39:19 40:503 41:432 42:510 43:510 44:67 45:432 46:510 47:510 48:22 49:22  |EV| 
0.12499999999996855293282749244099  |BT| (NP (NP (PP (NP (NNP Bush))))(: -)(NP (NP (NNP Cheney)(NN transition)(NN headquarters)))) |BT| (BOW (- *)) |BT| (BOH ) |BT| (BOH-NPs (transition *)) |BT| (LP (NNP *)(NP *)(PP *)(NP *)(NP *)(NN *)) |BT| (LP-head (NNP *)(NP *)(PP *)(NP spokeswoman)(NP *)(NN *)) |BT| (NP (NP (PP (NP (NNP Bush))))(: -)(NP (NP (NNP Cheney)(NN transition)(NN headquarters)))) |BT| (NP (ROOT (S (NP (NP (NP (PP (NP (E-PER (NNP Bush)))))(: -)(NP (NP (NNP Cheney)(NN transition)(E-FAC (NN headquarters)))(PP (IN in)(NP (NP (E-GPE (NNP McLean)))(, ,)(NP (E-GPE (NNP Va))(. .))))))(, ,))(VP (VBD called)(S (NP (DT the)(NN development))(`` ``)(NP (NP (RB just)(DT another)(NN dip))(PP (IN in)(NP (DT the)(NN roller)(NN coaster))))))(. .)('' '')))(: -)(ROOT (S (NP (NP (E-PER (NNP Juleanna)(NNP Glover)(NNP Weiss)))(, ,)(NP (NP (NP (DT a)(E-PER (NN spokeswoman)))(PP (IN in)(NP (DT the)(E-PER (NNP Bush)))))(: -)(NP (NP (NNP Cheney)(NN transition)(E-FAC (NN headquarters))))))))) |ET| 11:12883 12:12884 13:12880 14:554 16:47 17:7 18:647 21:9 22:56 23:1412 24:3540 25:118 26:118 27:405 28:1658 29:105 30:1658 31:106 32:1216 33:1413 34:3541 35:19 37:1312 38:3513 40:106 41:3625 42:1658 43:21 44:12878 45:3625 46:1658 47:21 48:22 49:22  |EV| 
0.12499999999996855293282749244099  |BT| (S (NP (NNP Jordan)(CC and)(NNP Yemen))(VP (VBD sent)(NP (NNS planes)))) |BT| (BOW (and *)) |BT| (BOH (sent *)) |BT| (BOH-NPs ) |BT| (LP (NNP *)(NP *)(S *)(VP *)(NP *)(NNS *)) |BT| (LP-head (NNP *)(NP *)(S sent)(VP *)(NP *)(NNS *)) |BT| (S (NP (NNP Jordan)(CC and)(NNP Yemen))(VP (VBD sent)(NP (NNS planes)))) |BT| (S (ROOT (S (VP (SBAR (S (NP (E-GPE (NNP Jordan))(CC and)(E-GPE (NNP Yemen)))(VP (VBD sent)(NP (E-VEH (NNS planes)))(PP (TO to)(NP (E-GPE (NNP Baghdad))))(, ,)(S (VP (JJ challenging)(NP (NP (E-ORG (NNP U.N.))(NNS sanctions))(VP (VBN imposed)(PP (IN on)(NP (E-GPE (NNP Iraq))))))(PP (IN after)(NP (NP (E-GPE (PRP$ its))(CD 1990)(NN invasion))(PP (IN of)(NP (E-GPE (NNP Kuwait))))))))))))(. .)))(ROOT (S (NP (E-PER (NNP Mubarak))(CC and)(E-PER (NNP Assad)))(VP (VBD met)(PP (IN after)(NP (DT a)(NN week)))(SBAR (WHADVP (WRB when))(S (NP (E-GPE (NNP Russia))(, ,)(E-GPE (NNP France))(, ,)(E-GPE (NNP Jordan))(CC and)(E-GPE (NNP Yemen)))(VP (VBD sent)(NP (E-VEH (NNS planes)))))))))) |ET| 9:539 11:518 12:519 13:511 14:5 16:47 17:6 18:540 21:9 22:113 23:512 24:521 25:1 26:1 27:242 28:361 29:13 30:361 31:513 32:505 33:514 34:522 37:505 38:523 40:510 41:510 42:21 43:361 44:513 45:513 46:21 47:361 48:22 49:22  |EV| 
-0.12499999999996855293282749244099  |BT| (NP (PRP$ their)(NNS campaigns)) |BT| (BOW ) |BT| (BOH ) |BT| (BOH-NPs ) |BT| (LP (PRP$ *)(NP *)(NNS *)) |BT| (LP-head (PRP$ *)(NP campaigns)(NNS *)) |BT| (NP (PRP$ their)(NNS campaigns)) |BT| (NP (ROOT (S (S (VP (NP (PP (NP (E-PER (PRP$ their))(E-ORG (NNS campaigns)))))(ADVP (ADVP (ADVP (RBR more)(RB effectively))(PP (IN than)(NP (NP (DT the)(NN top))(PP (IN of)(NP (E-PER (PRP$ their))(NN ticket))))))(SBAR (WHADVP (WRB when))(S (NP (E-PER (PRP they)))(VP (VBD met)(PP (IN in)(NP (E-GPE (NNP Boston))))))))))(, ,)('' '')(NP (E-PER (NNP Tom)(NNP Brokaw)))(VP (VBD said))(. .)))(ROOT (S (`` ``)(S (ADJP (RB Highly)(JJ civilized))(, ,)(X (IN in)(NP (JJ many)(NNS ways)))(NP (E-PER (PRP they)))(VP (VBD articulated)(NP (NP (DT the)(NNS positions))(PP (IN of)(NP (E-PER (PRP$ their))(E-ORG (NNS campaigns)))))))))) |ET| 4:19 5:19 11:1251 12:1252 13:580 14:33 16:7 17:7 18:301 21:144 22:156 23:1244 24:1253 25:118 26:118 27:31 28:31 29:187 30:1254 31:1248 32:187 33:1249 34:1255 35:19 36:19 37:1250 38:1250 39:19 40:187 41:1248 42:21 43:21 44:1246 45:1248 46:21 47:21 48:22 49:22  |EV| 
-0.12499999999996855293282749244099  |BT| (NP (PRP$ their)(NX (NNS bosses))) |BT| (BOW ) |BT| (BOH ) |BT| (BOH-NPs ) |BT| (LP (PRP$ *)(NP *)(NX *)(NNS *)) |BT| (LP-head (PRP$ *)(NP None)(NX *)(NNS *)) |BT| (NP (PRP$ their)(NX (NNS bosses))) |BT| (NP (ROOT (S (VP (SBAR (S (NP (NP (E-PER (PRP$ their))(`` ``)(NX (NNS bosses))(, ,)('' ''))(NP (NP (E-PER (NNP George)(NNP W.)(NNP Bush)))(CC and)(NP (E-PER (NNP Al)(NNP Gore))))(, ,))(VP (VBD were)(VP (VBG watching))))))(. .)))(ROOT (S (NP (NP (E-PER (PRP$ His))(E-PER (NN colleague)))(, ,)(NP (E-PER (NNP Bob)(NNP Schieffer)))(, ,))(VP (VBD wondered)(SBAR (IN whether)(S (NP (NP (E-PER (PRP$ their))(`` ``)(NX (NNS bosses)))))))))) |ET| 6:19 7:19 8:19 11:1302 12:1303 13:580 14:33 16:7 17:7 18:148 21:1304 22:1305 23:1299 24:1306 25:118 26:118 27:31 28:31 29:563 30:1254 31:1300 32:563 33:1301 34:1307 35:19 36:19 37:31 38:31 39:19 40:1300 41:1298 42:21 43:21 44:1322 45:1298 46:21 47:21 48:22 49:22  |EV| 
-0.12499999999996855293282749244099  |BT| (NP (NP (NNS children))(CC and)(NP (NNS weapons))) |BT| (BOW ) |BT| (BOH ) |BT| (BOH-NPs ) |BT| (LP (NNS *)(NP *)(NP *)(NNS *)) |BT| (LP-head (NNS *)(NP children)(NP *)(NNS *)) |BT| (NP (NP (NNS children))(CC and)(NP (NNS weapons))) |BT| (NP (ROOT (S (SBAR (S (VP (PP (NP (NP (PP (NP (NP (E-PER (NNS children)))(CC and)(NP (E-WEA (NNS weapons))(NNS violations))))))))))(, ,)(NP (E-PER (NNP Solomon)))(VP (MD could)(VP (VB be)(VP (VBN sentenced)(S (VP (TO to)(VP (ADVP (RB up)(PP (TO to)(NP (CD 211)(NNS years))))(PP (IN in)(NP (E-FAC (NN prison))))))))))(. .)))(CC and)(ROOT (S (SBAR (IN If)(S (NP (DT the)(E-PER (NN judge)))(VP (VBZ accepts)(NP (DT the)(JJ guilty)(NNS pleas))(PP (TO to)(NP (DT all)(CD 29)(NNS charges)))(, ,)(PP (VBG including)(NP (NP (VBN aggravated)(NN assault))(, ,)(NP (NP (NN cruelty))(PP (TO to)(NP (NP (E-PER (NNS children)))(CC and)(NP (E-WEA (NNS weapons)))))))))))))) |ET| 4:19 11:1019 12:1020 13:1010 14:1011 16:6 17:7 18:1021 19:434 21:9 22:1028 23:1013 24:1022 25:118 26:118 27:242 28:242 29:291 30:242 31:1015 32:1017 33:1016 34:1023 35:19 37:1017 38:1024 40:1015 41:1015 42:21 43:21 44:1018 45:1018 46:21 47:21 48:22 49:22  |EV| 
0.12499999999996855293282749244099  |BT| (S (NP (NP (NNP Solomon))(, ,)(NP (RB then)(CD 15))(, ,))(VP (VBD opened)(NP (NN fire))(PP (IN with)(NP (NP (DT a)(JJ sawed-off)(NN rifle)))))) |BT| (BOW (, *)(then *)(15 *)(, *)(opened *)(fire *)(with *)) |BT| (BOH (opened *)(fire *)(with *)) |BT| (BOH-NPs (fire *)) |BT| (LP (NNP *)(NP *)(S *)(VP *)(PP *)(NP *)(NN *)) |BT| (LP-head (NNP *)(NP *)(S opened)(VP *)(PP *)(NP *)(NN *)) |BT| (S (NP (NP (NNP Solomon))(, ,)(NP (RB then)(CD 15))(, ,))(VP (VBD opened)(NP (NN fire))(PP (IN with)(NP (NP (DT a)(JJ sawed-off)(NN rifle)))))) |BT| (S (ROOT (S (NP (NP (E-PER (NNP Solomon)))(, ,)(NP (RB then)(CD 15))(, ,))(VP (VBD opened)(NP (NN fire))(PP (IN with)(NP (NP (DT a)(JJ sawed-off)(E-WEA (NN rifle)))(PP (IN on)(NP (NP (NNS hundreds))(PP (IN of)(NP (NP (E-PER (NNS students)))(PP (IN in)(NP (DT a)(JJ common)(E-FAC (NN area))))))))))(PP (IN at)(NP (NP (E-FAC (NNP Heritage)(NNP High)(NNP School)))(PP (IN in)(NP (E-GPE (NNP Conyers))))))(, ,)(PP (IN about)(NP (NP (CD 25)(NNS miles))(PP (ADVP (RB east))(IN of)(NP (NP (E-GPE (NNP Atlanta)))(, ,)(NP (CD one)(NN month))))))(PP (IN after)(NP (NP (DT the)(E-FAC (NNP Columbine)(NNP High))(NN massacre))(PP (IN in)(NP (E-GPE (NNP Colorado)))))))(. .)))(ROOT (S (NP (NP (E-PER (NNP Solomon)))(, ,)(NP (RB then)(CD 15))(, ,))(VP (VBD opened)(NP (NN fire))(PP (IN with)(NP (NP (DT a)(JJ sawed-off)(E-WEA (NN rifle))))))))) |ET| 11:1048 12:1049 13:1050 14:933 16:92 17:7 18:1021 21:9 22:56 23:1026 24:1051 25:118 26:118 27:13 28:1052 29:14 30:1052 31:1053 32:430 33:1027 34:1054 37:1006 38:1055 40:21 41:21 42:1056 43:1057 44:21 45:21 46:1056 47:72 48:22 49:1056  |EV| 
0.12218402449647733365445390063542  |BT| (NP (NP (NNP Nixon))(, ,)(VP (VBN drawn)(PP (IN with)(NP (NN deep-set))))(, ,)(NP (JJ malevolent)(NNS eyes))(, ,)(NP (NP (CD five)(RB o'clock))(NP (NP (NN shadow))(CC and)(NP (PRN (, ,)(SBAR (WHADVP (WRB when))(S (NP (PRP he))(VP (VBD was)(NP (NP (NN vice)(NN president))(PP (IN in)(NP (NP (NNP Eisenhower)(POS 's))(NN administration)))))))(, ,))(PP (IN with)(NP (NP (DT a)(JJ bloodstained)(NN hatchet)))))))) |BT| (BOW (, *)(drawn *)(with *)(deep-set *)(, *)(malevolent *)(eyes *)(, *)(five *)(o'clock *)(shadow *)(and *)(, *)(when *)(he *)(was *)(vice *)(president *)(in *)(Eisenhower *)('s *)(administration *)(, *)(with *)) |BT| (BOH (drawn *)(with *)(deep-set *)(eyes *)(shadow *)(when *)(he *)(was *)(president *)(in *)(Eisenhower *)(administration *)(with *)) |BT| (BOH-NPs (deep-set *)(eyes *)(shadow *)(he *)(president *)(Eisenhower *)(administration *)) |BT| (LP (NNP *)(NP *)(NP *)(PP *)(NP *)(NN *)) |BT| (LP-head (NNP *)(NP Nixon)(NP *)(PP *)(NP *)(NN *)) |BT| (NP (NP (NNP Nixon))(, ,)(VP (VBN drawn)(PP (IN with)(NP (NN deep-set))))(, ,)(NP (JJ malevolent)(NNS eyes))(, ,)(NP (NP (CD five)(RB o'clock))(NP (NP (NN shadow))(CC and)(NP (PRN (, ,)(SBAR (WHADVP (WRB when))(S (NP (PRP he))(VP (VBD was)(NP (NP (NN vice)(NN president))(PP (IN in)(NP (NP (NNP Eisenhower)(POS 's))(NN administration)))))))(, ,))(PP (IN with)(NP (NP (DT a)(JJ bloodstained)(NN hatchet)))))))) |BT| (NP (ROOT (S (VP (VP (PP (NP (NP (E-PER (NNP Nixon)))(, ,)(VP (VBN drawn)(PP (IN with)(NP (NN deep-set))))(, ,)(NP (JJ malevolent)(NNS eyes))(, ,)(NP (NP (CD five)(RB o'clock))(NP (NP (NN shadow))(CC and)(NP (PRN (, ,)(SBAR (WHADVP (WRB when))(S (NP (E-PER (PRP he)))(VP (VBD was)(NP (NP (E-PER (NN vice)(NN president)))(PP (IN in)(NP (NP (E-PER (NNP Eisenhower))(POS 's))(E-ORG (NN administration))))))))(, ,))(PP (IN with)(NP (NP (DT a)(JJ bloodstained)(E-WEA (NN hatchet)))(PP (IN in)(NP (NN hand))))))))))))(. .)))(, ,)(VP (VBN drawn)(PP (IN with)(NP (NN deep-set))))(, ,)(NP (JJ malevolent)(NNS eyes))(, ,)(ROOT (S (NP (JJ Few)(E-PER (NNP Herblock))(E-PER (NNS targets)))(, ,)(ADVP (RB however))(, ,)(VP (VBD were)(ADVP (IN as))(VP (VBN favored)(PP (IN as)(NP (NP (E-PER (NNP Nixon)))(, ,)(VP (VBN drawn)(PP (IN with)(NP (NN deep-set))))(, ,)(NP (JJ malevolent)(NNS eyes))(, ,)(NP (NP (CD five)(RB o'clock))(NP (NP (NN shadow))(CC and)(NP (PRN (, ,)(SBAR (WHADVP (WRB when))(S (NP (E-PER (PRP he)))(VP (VBD was)(NP (NP (E-PER (NN vice)(NN president)))(PP (IN in)(NP (NP (E-PER (NNP Eisenhower))(POS 's))(E-ORG (NN administration))))))))(, ,))(PP (IN with)(NP (NP (DT a)(JJ bloodstained)(E-WEA (NN hatchet))))))))))))))) |ET| 11:4496 12:4497 13:4482 14:4483 16:123 17:55 18:1021 21:9 22:56 23:4431 24:4498 25:118 26:118 27:13 28:4499 29:49 30:4499 31:3418 32:430 33:4432 34:4500 37:4433 38:4501 40:49 41:4481 42:4502 43:4503 44:4406 45:3418 46:1876 47:72 48:4493 49:1876  |EV| 
-0.033572171041218019926777316186417  |BT| (S (NP (NNP Vohs))(VP (VP (VBD described)(NP (NP (NP (NNP Wouters))(, ,)(NP (DT a)(JJ 19-year)(NN veteran))(, ,))(PP (IN as)(NP (NP (DT a)(JJ good)(NN officer))(SBAR (WHNP (WP who))(S (VP (VBD was)(VP (VBN married)))))))))(CC and)(VP (VBD had)(NP (CD two)(JJ young)(NNS daughters))))) |BT| (BOW (described *)(Wouters *)(, *)(a *)(19-year *)(veteran *)(, *)(as *)(a *)(good *)(officer *)(who *)(was *)(married *)(and *)(had *)) |BT| (BOH (described *)(Wouters *)(veteran *)(as *)(officer *)(who *)(was *)(married *)(had *)) |BT| (BOH-NPs (Wouters *)(veteran *)(officer *)) |BT| (LP (NNP *)(NP *)(S *)(VP *)(NP *)(NNS *)) |BT| (LP-head (NNP *)(NP *)(S described)(VP *)(NP *)(NNS *)) |BT| (S (NP (NNP Vohs))(VP (VP (VBD described)(NP (NP (NP (NNP Wouters))(, ,)(NP (DT a)(JJ 19-year)(NN veteran))(, ,))(PP (IN as)(NP (NP (DT a)(JJ good)(NN officer))(SBAR (WHNP (WP who))(S (VP (VBD was)(VP (VBN married)))))))))(CC and)(VP (VBD had)(NP (CD two)(JJ young)(NNS daughters))))) |BT| (S (ROOT (S (NP (E-PER (NNP Vohs)))(VP (VP (VBD described)(NP (NP (NP (E-PER (NNP Wouters)))(, ,)(NP (DT a)(JJ 19-year)(E-PER (NN veteran)))(, ,))(PP (IN as)(NP (NP (DT a)(JJ good)(E-PER (NN officer)))(SBAR (WHNP (E-PER (WP who)))(S (VP (VBD was)(VP (VBN married)))))))))(CC and)(VP (VBD had)(NP (CD two)(JJ young)(E-PER (NNS daughters)))))(. .)))(ROOT (S (NP (E-PER (NNP Vohs)))(VP (VP (VBD described)(NP (NP (NP (E-PER (NNP Wouters)))(, ,)(NP (DT a)(JJ 19-year)(E-PER (NN veteran)))(, ,))(PP (IN as)(NP (NP (DT a)(JJ good)(E-PER (NN officer)))(SBAR (WHNP (E-PER (WP who)))(S (VP (VBD was)(VP (VBN married)))))))))(CC and)(VP (VBD had)(NP (CD two)(JJ young)(E-PER (NNS daughters)))))))) |ET| 4:19 6:19 11:3642 12:3643 13:3629 14:33 16:135 17:55 18:148 21:9 22:113 23:3630 24:3644 25:118 26:118 27:3631 28:3482 29:14 30:3482 31:3632 32:250 33:3633 34:3645 37:3571 38:3632 40:21 41:21 42:3563 43:3631 44:21 45:21 46:3532 47:362 48:3639 49:3646  |EV| 
-0.057240097994859552577029404574205  |BT| (S (NP (NP (NNP Solomon))(, ,)(NP (RB then)(CD 15))(, ,))(VP (VBD opened)(NP (NN fire))(PP (IN with)(NP (NP (DT a)(JJ sawed-off)(NN rifle))(PP (IN on)(NP (NP (NNS hundreds))(PP (IN of)(NP (NP (NNS students)))))))))) |BT| (BOW (, *)(then *)(15 *)(, *)(opened *)(fire *)(with *)(a *)(sawed-off *)(rifle *)(on *)) |BT| (BOH (opened *)(fire *)(with *)(rifle *)(on *)(hundreds *)(of *)) |BT| (BOH-NPs (fire *)(rifle *)(hundreds *)) |BT| (LP (NNP *)(NP *)(S *)(VP *)(PP *)(NP *)(PP *)(NP *)(PP *)(NP *)(NNS *)) |BT| (LP-head (NNP *)(NP *)(S opened)(VP *)(PP *)(NP *)(PP *)(NP *)(PP *)(NP *)(NNS *)) |BT| (S (NP (NP (NNP Solomon))(, ,)(NP (RB then)(CD 15))(, ,))(VP (VBD opened)(NP (NN fire))(PP (IN with)(NP (NP (DT a)(JJ sawed-off)(NN rifle))(PP (IN on)(NP (NP (NNS hundreds))(PP (IN of)(NP (NP (NNS students)))))))))) |BT| (S (ROOT (S (NP (NP (E-PER (NNP Solomon)))(, ,)(NP (RB then)(CD 15))(, ,))(VP (VBD opened)(NP (NN fire))(PP (IN with)(NP (NP (DT a)(JJ sawed-off)(E-WEA (NN rifle)))(PP (IN on)(NP (NP (NNS hundreds))(PP (IN of)(NP (NP (E-PER (NNS students)))(PP (IN in)(NP (DT a)(JJ common)(E-FAC (NN area))))))))))(PP (IN at)(NP (NP (E-FAC (NNP Heritage)(NNP High)(NNP School)))(PP (IN in)(NP (E-GPE (NNP Conyers))))))(, ,)(PP (IN about)(NP (NP (CD 25)(NNS miles))(PP (ADVP (RB east))(IN of)(NP (NP (E-GPE (NNP Atlanta)))(, ,)(NP (CD one)(NN month))))))(PP (IN after)(NP (NP (DT the)(E-FAC (NNP Columbine)(NNP High))(NN massacre))(PP (IN in)(NP (E-GPE (NNP Colorado)))))))(. .)))(ROOT (S (NP (NP (E-PER (NNP Solomon)))(, ,)(NP (RB then)(CD 15))(, ,))(VP (VBD opened)(NP (NN fire))(PP (IN with)(NP (NP (DT a)(JJ sawed-off)(E-WEA (NN rifle)))(PP (IN on)(NP (NP (NNS hundreds))(PP (IN of)(NP (NP (E-PER (NNS students))))))))))))) |ET| 4:19 11:1058 12:1059 13:1050 14:933 16:150 17:6 18:148 21:9 22:113 23:1026 24:989 25:118 26:118 27:13 28:187 29:14 30:187 31:1053 32:1060 33:1027 34:992 37:1006 38:993 40:21 41:21 42:1056 43:1057 44:21 45:21 46:1060 47:187 48:1055 49:1060  |EV| 
-0.020478010846797178867717548200744  |BT| (S (NP (NP (NNP Solomon))(, ,)(NP (RB then)(CD 15))(, ,))(VP (VBD opened)(NP (NN fire))(PP (IN with)(NP (NP (DT a)(JJ sawed-off)(NN rifle))(PP (IN on)(NP (NP (NNS hundreds))(PP (IN of)(NP (NP (NNS students))(PP (IN in)(NP (DT a)(JJ common)(NN area))))))))))) |BT| (BOW (, *)(then *)(15 *)(, *)(opened *)(fire *)(with *)(a *)(sawed-off *)(rifle *)(on *)(hundreds *)(of *)(students *)(in *)) |BT| (BOH (opened *)(fire *)(with *)(rifle *)(on *)(hundreds *)(of *)(students *)(in *)) |BT| (BOH-NPs (fire *)(rifle *)(hundreds *)(students *)) |BT| (LP (NNP *)(NP *)(S *)(VP *)(PP *)(NP *)(PP *)(NP *)(PP *)(NP *)(PP *)(NP *)(NN *)) |BT| (LP-head (NNP *)(NP *)(S opened)(VP *)(PP *)(NP *)(PP *)(NP *)(PP *)(NP *)(PP *)(NP *)(NN *)) |BT| (S (NP (NP (NNP Solomon))(, ,)(NP (RB then)(CD 15))(, ,))(VP (VBD opened)(NP (NN fire))(PP (IN with)(NP (NP (DT a)(JJ sawed-off)(NN rifle))(PP (IN on)(NP (NP (NNS hundreds))(PP (IN of)(NP (NP (NNS students))(PP (IN in)(NP (DT a)(JJ common)(NN area))))))))))) |BT| (S (ROOT (S (NP (NP (E-PER (NNP Solomon)))(, ,)(NP (RB then)(CD 15))(, ,))(VP (VBD opened)(NP (NN fire))(PP (IN with)(NP (NP (DT a)(JJ sawed-off)(E-WEA (NN rifle)))(PP (IN on)(NP (NP (NNS hundreds))(PP (IN of)(NP (NP (E-PER (NNS students)))(PP (IN in)(NP (DT a)(JJ common)(E-FAC (NN area))))))))))(PP (IN at)(NP (NP (E-FAC (NNP Heritage)(NNP High)(NNP School)))(PP (IN in)(NP (E-GPE (NNP Conyers))))))(, ,)(PP (IN about)(NP (NP (CD 25)(NNS miles))(PP (ADVP (RB east))(IN of)(NP (NP (E-GPE (NNP Atlanta)))(, ,)(NP (CD one)(NN month))))))(PP (IN after)(NP (NP (DT the)(E-FAC (NNP Columbine)(NNP High))(NN massacre))(PP (IN in)(NP (E-GPE (NNP Colorado)))))))(. .)))(ROOT (S (NP (NP (E-PER (NNP Solomon)))(, ,)(NP (RB then)(CD 15))(, ,))(VP (VBD opened)(NP (NN fire))(PP (IN with)(NP (NP (DT a)(JJ sawed-off)(E-WEA (NN rifle)))(PP (IN on)(NP (NP (NNS hundreds))(PP (IN of)(NP (NP (E-PER (NNS students)))(PP (IN in)(NP (DT a)(JJ common)(E-FAC (NN area)))))))))))))) |ET| 11:1061 12:1062 13:1050 14:933 16:134 17:25 18:647 21:9 22:56 23:1026 24:1063 25:118 26:118 27:13 28:1064 29:14 30:1064 31:1053 32:430 33:1027 34:1065 37:1006 38:1066 40:21 41:21 42:1056 43:1057 44:21 45:21 46:993 47:106 48:1060 49:993  |EV| 
0.11854554434609777813225406362108  |BT| (NP (PRP$ its)(NNS weapons)) |BT| (BOW ) |BT| (BOH ) |BT| (BOH-NPs ) |BT| (LP (PRP$ *)(NP *)(NNS *)) |BT| (LP-head (PRP$ *)(NP weapons)(NNS *)) |BT| (NP (PRP$ its)(NNS weapons)) |BT| (NP (ROOT (S (VP (SBAR (S (VP (VP (NP (NP (E-GPE (PRP$ its))(E-WEA (NNS weapons)))(PP (IN of)(NP (NN mass)(NN destruction)))))))))(. .)))(ROOT (S (NP (E-ORG (NNP U.N.))(E-ORG (NNP Security)(NNP Council))(NNS resolutions))(VP (VBP say)(SBAR (IN that)(S (PP (IN for)(NP (NNS sanctions)(S (VP (TO to)(VP (VB be)(VP (VBN lifted)))))))(, ,)(NP (E-GPE (NNP Iraq)))(VP (MD must)(VP (VB eliminate)(NP (NP (E-GPE (PRP$ its))(E-WEA (NNS weapons)))))))))))) |ET| 11:7755 12:7756 13:305 14:5 16:7 17:7 18:3852 21:144 22:156 23:186 24:1022 25:1 26:1 27:31 28:31 29:7754 30:2667 31:1712 32:7754 33:190 34:1023 35:19 36:19 37:1034 38:1034 39:19 40:7754 41:190 42:21 43:21 44:532 45:1712 46:21 47:21 48:22 49:22  |EV| 
0.12499999999996855293282749244099  |BT| (NP (PRP$ its)(NNS weapons)) |BT| (BOW ) |BT| (BOH ) |BT| (BOH-NPs ) |BT| (LP (PRP$ *)(NP *)(NNS *)) |BT| (LP-head (PRP$ *)(NP weapons)(NNS *)) |BT| (NP (PRP$ its)(NNS weapons)) |BT| (NP (ROOT (S (VP (SBAR (S (VP (VP (NP (NP (E-GPE (PRP$ its))(E-WEA (NNS weapons)))(PP (IN of)(NP (NN mass)(NN destruction)))))))))(. .)))(ROOT (S (NP (E-ORG (NNP U.N.))(E-ORG (NNP Security)(NNP Council))(NNS resolutions))(VP (VBP say)(SBAR (IN that)(S (PP (IN for)(NP (NNS sanctions)(S (VP (TO to)(VP (VB be)(VP (VBN lifted)))))))(, ,)(NP (E-GPE (NNP Iraq)))(VP (MD must)(VP (VB eliminate)(NP (NP (E-GPE (PRP$ its))(E-WEA (NNS weapons)))))))))))) |ET| 11:7755 12:7756 13:305 14:5 16:7 17:7 18:3852 21:144 22:156 23:186 24:1022 25:1 26:1 27:31 28:31 29:7754 30:2667 31:1712 32:7754 33:190 34:1023 35:19 36:19 37:1034 38:1034 39:19 40:7754 41:190 42:21 43:21 44:532 45:1712 46:21 47:21 48:22 49:22  |EV| 
-0.03060626027994476847093885396589  |BT| (S (NP (NNP Kostunica))(VP (VP (VBD pledged)(S (VP (TO to)(VP (VB follow)(NP (PRP$ his)(NN conscience))(PP (IN in)(NP (VBG leading)(NNP Yugoslavia)))))))(CC and)(VP (VBD urged)(NP (NNS lawmakers))))) |BT| (BOW (pledged *)(to *)(follow *)(his *)(conscience *)(in *)(leading *)(Yugoslavia *)) |BT| (BOH (pledged *)(follow *)(conscience *)(in *)(Yugoslavia *)(urged *)) |BT| (BOH-NPs (conscience *)(Yugoslavia *)) |BT| (LP (NNP *)(NP *)(S *)(VP *)(NP *)(NNS *)) |BT| (LP-head (NNP *)(NP *)(S pledged)(VP *)(NP *)(NNS *)) |BT| (S (NP (NNP Kostunica))(VP (VP (VBD pledged)(S (VP (TO to)(VP (VB follow)(NP (PRP$ his)(NN conscience))(PP (IN in)(NP (VBG leading)(NNP Yugoslavia)))))))(CC and)(VP (VBD urged)(NP (NNS lawmakers))))) |BT| (S (ROOT (S (NP (E-PER (NNP Kostunica)))(VP (VP (VBD pledged)(S (VP (TO to)(VP (VB follow)(NP (E-PER (PRP$ his))(NN conscience))(PP (IN in)(NP (VBG leading)(E-GPE (NNP Yugoslavia))))))))(CC and)(VP (VBD urged)(NP (E-PER (NNS lawmakers)))(S (VP (TO to)(VP (VB bury)(NP (NP (JJ past)(NNS enmities))(SBAR (WHNP (WDT that))(S (VP (VBD led)(PP (TO to)(NP (NN bloodshed)(CC and)(NN chaos))))))))))))(. .)))(ROOT (S (NP (E-PER (NNP Kostunica)))(VP (VP (VBD pledged)(S (VP (TO to)(VP (VB follow)(NP (E-PER (PRP$ his))(NN conscience))(PP (IN in)(NP (VBG leading)(E-GPE (NNP Yugoslavia))))))))(CC and)(VP (VBD urged)(NP (E-PER (NNS lawmakers)))))))) |ET| 4:19 11:3325 12:33 13:1877 14:33 16:103 17:25 18:148 21:9 22:113 23:1785 24:3326 25:118 26:118 27:2741 28:1951 29:14 30:1951 31:2775 32:242 33:1788 34:3327 37:1764 38:3328 40:21 41:21 42:3322 43:2741 44:21 45:21 46:1668 47:1951 48:3322 49:1668  |EV| 
-0.0079118234001643427538708053248229  |BT| (S (NP (PRP they))(VP (VBP have)(VP (VBD had)(NP (PRP$ their))))) |BT| (BOW ) |BT| (BOH (have *)(had *)) |BT| (BOH-NPs ) |BT| (LP (PRP *)(NP *)(S *)(VP *)(NP *)(PRP$ *)) |BT| (LP-head (PRP *)(NP *)(S have)(VP *)(NP *)(PRP$ *)) |BT| (S (NP (PRP they))(VP (VBP have)(VP (VBD had)(NP (PRP$ their))))) |BT| (S (ROOT (S (S (NP (E-GPE (PRP they)))(VP (VBP have)(VP (VBD had)(NP (E-GPE (PRP$ their))(NNS differences)))))(. .)))(ROOT (S (S (NP (E-GPE (NNP Egypt))(CC and)(E-GPE (NNP Syria)))(VP (VBP are)(PP (IN on)(NP (JJ good)(NNS terms)))))(, ,)(CC but)(S (NP (E-GPE (PRP they)))(VP (VBP have)(VP (VBD had)(NP (E-GPE (PRP$ their))))))))) |ET| 11:580 12:5 13:574 14:5 16:25 17:7 18:8 21:287 22:288 23:575 24:575 25:1 26:1 27:581 28:362 29:576 30:362 31:13 32:581 33:577 34:577 37:558 38:573 40:578 41:578 42:21 43:581 44:51 45:583 46:21 47:362 48:22 49:581  |EV| 
-0.0017819806929502621239969073485554  |BT| (S (NP (NNP Clinton))(VP (VBD spoke)(PP (IN with)(NP (NP (NN Putin)))))) |BT| (BOW ) |BT| (BOH (spoke *)(with *)) |BT| (BOH-NPs ) |BT| (LP (NNP *)(NP *)(S *)(VP *)(PP *)(NP *)(NN *)) |BT| (LP-head (NNP *)(NP *)(S spoke)(VP *)(PP *)(NP *)(NN *)) |BT| (S (NP (NNP Clinton))(VP (VBD spoke)(PP (IN with)(NP (NP (NN Putin)))))) |BT| (S (ROOT (SINV (NP (SBAR (S (VP (SBAR (S (NP (E-PER (NNP Clinton)))(VP (VBD spoke)(PP (IN with)(NP (NP (E-PER (NN Putin)))(PP (IN about)(NP (E-GPE (NNP Yugoslavia))))))(NP-TMP (JJ last)(NN weekend)))))))))(. .)))(ROOT (SINV (`` ``)(S (SBAR (WHNP (WP What))(S (NP (DT the)(NN vice)(E-PER (NN president)))(VP (VBD said))))(VP (VBZ is)(NP (NP (NN something))(SBAR (S (NP (DT the)(E-PER (NN president)))(ADVP (RB fully))(VP (VBZ agrees)(PP (IN with)))))(, ,)(SBAR (WHNP (WDT which))(S (VP (VBZ is)(SBAR (IN that)(S (NP (DT the)(E-GPE (NNP United)(NNPS States)))(VP (VBD did)(RB not)(VP (VB support)(NP (NP (DT any)(NN role))(SBAR (WHPP (IN in)(WHNP (WDT which)))(S (NP (E-GPE (NNP Russia)))(VP (MD would)(VP (VB mediate)(PP (IN between)(NP (E-PER (NNP Milosevic))(CC and)(E-PER (NNP Kostunica)))))))))))))))))))(, ,)('' '')(VP (VBD said)(NP (JJ presidential)(E-PER (NN spokesman))))(NP (NP (E-PER (NNP Jake)(NNP Siewert)))(, ,)(SBAR (WHNP (E-PER (WP who)))(S (VP (VBD confirmed)(SBAR (IN that)(S (NP (E-PER (NNP Clinton)))(VP (VBD spoke)(PP (IN with)(NP (NP (E-PER (NN Putin))))))))))))))) |ET| 11:2036 12:2037 13:1936 14:33 16:25 17:7 18:148 21:9 22:56 23:1575 24:1950 25:118 26:118 27:1746 28:72 29:887 30:72 31:2035 32:1746 33:1576 34:1953 37:1572 38:1939 40:2035 41:2034 42:21 43:1746 44:2040 45:955 46:21 47:72 48:22 49:1746  |EV| 
0.12499999999996855293282749244099  |BT| (VP (ADVP (NN home))(PP (TO to)(NP (DT a)(JJ Jewish)(JJ seminary)))) |BT| (BOW (to *)) |BT| (BOH ) |BT| (BOH-NPs ) |BT| (LP (NN *)(ADVP *)(VP *)(PP *)(NP *)(JJ *)) |BT| (LP-head (NN *)(ADVP *)(VP was)(PP *)(NP *)(JJ *)) |BT| (VP (ADVP (NN home))(PP (TO to)(NP (DT a)(JJ Jewish)(JJ seminary)))) |BT| (VP (ROOT (S (VP (ADVP (E-FAC (NN home)))(PP (TO to)(NP (DT a)(E-PER (JJ Jewish))(E-ORG (JJ seminary))))(, ,)(SBAR (WHADVP (E-ORG (WRB where)))(S (NP (QP (RB about)(CD 30))(E-PER (NNS students)))(VP (MD would)(VP (VB study)(PP (IN during)(NP (DT the)(NN day))))))))(. .)))(ROOT (S (NP (DT The)(E-FAC (NN compound)))(VP (VBD was)(ADVP (E-FAC (NN home)))(PP (TO to)(NP (DT a)(E-PER (JJ Jewish))(E-ORG (JJ seminary)))))))) |ET| 11:2262 12:2263 13:2249 14:644 16:47 17:6 18:2264 19:338 21:94 22:158 23:2253 24:2265 25:913 26:913 27:291 28:2266 29:718 30:2266 31:2254 32:430 33:2256 34:2267 35:19 37:31 38:2260 40:718 41:2254 42:21 43:21 44:21 45:2254 46:21 47:21 48:22 49:22  |EV| 
0.12120768810816878735536761269032  |BT| (S (NP (NP (NNS Representatives))(PP (IN of)(NP (NP (NNP Rally))(PP (IN of)(NP (DT the)(NNPS Republicans))))))(VP (VBD set)(PRT (RP out))(PP (IN on)(NP (NP (NNS motorbikes)))))) |BT| (BOW (of *)(Rally *)(of *)(the *)(Republicans *)(set *)) |BT| (BOH (of *)(Rally *)(of *)(Republicans *)(set *)(on *)) |BT| (BOH-NPs (Rally *)(Republicans *)) |BT| (LP (NNS *)(NP *)(S *)(VP *)(PP *)(NP *)(NNS *)) |BT| (LP-head (NNS *)(NP *)(S set)(VP *)(PP *)(NP *)(NNS *)) |BT| (S (NP (NP (NNS Representatives))(PP (IN of)(NP (NP (NNP Rally))(PP (IN of)(NP (DT the)(NNPS Republicans))))))(VP (VBD set)(PRT (RP out))(PP (IN on)(NP (NP (NNS motorbikes)))))) |BT| (S (ROOT (S (NP (NP (E-PER (NNS Representatives)))(PP (IN of)(NP (NP (NNP Rally))(PP (IN of)(NP (DT the)(NNPS Republicans))))))(VP (VBD set)(PRT (RP out))(PP (IN on)(NP (NP (E-VEH (NNS motorbikes)))(NP-TMP (NNP Saturday))(S (VP (TO to)(VP (VB urge)(NP (NP (E-PER (NNS villagers)))(PP (IN in)(NP (NP (DT the)(E-ORG (NN party))(POS 's))(JJ northern)(E-GPE (NN stronghold))))(S (RB not)(VP (TO to)(VP (VB cast)(NP (NNS ballots))))))))))))(. .)))(ROOT (S (NP (NP (E-PER (NNS Representatives)))(PP (IN of)(NP (NP (NNP Rally))(PP (IN of)(NP (DT the)(NNPS Republicans))))))(VP (VBD set)(PRT (RP out))(PP (IN on)(NP (NP (E-VEH (NNS motorbikes))))))))) |ET| 4:19 11:5809 12:5810 13:5804 14:797 16:85 17:6 18:520 21:9 22:1028 23:5805 24:5811 25:118 26:118 27:187 28:97 29:14 30:97 31:5806 32:1886 33:5808 34:5812 37:5807 38:5813 40:21 41:21 42:5795 43:187 44:21 45:21 46:1646 47:97 48:5795 49:5814  |EV| 
0.12499999999996855293282749244099  |BT| (S (NP (NP (NNS Representatives))(PP (IN of)(NP (NP (NNP Rally))(PP (IN of)(NP (DT the)(NNPS Republicans))))))(VP (VBD set)(PRT (RP out))(PP (IN on)(NP (NP (NNS motorbikes)))))) |BT| (BOW (of *)(Rally *)(of *)(the *)(Republicans *)(set *)) |BT| (BOH (of *)(Rally *)(of *)(Republicans *)(set *)(on *)) |BT| (BOH-NPs (Rally *)(Republicans *)) |BT| (LP (NNS *)(NP *)(S *)(VP *)(PP *)(NP *)(NNS *)) |BT| (LP-head (NNS *)(NP *)(S set)(VP *)(PP *)(NP *)(NNS *)) |BT| (S (NP (NP (NNS Representatives))(PP (IN of)(NP (NP (NNP Rally))(PP (IN of)(NP (DT the)(NNPS Republicans))))))(VP (VBD set)(PRT (RP out))(PP (IN on)(NP (NP (NNS motorbikes)))))) |BT| (S (ROOT (S (NP (NP (E-PER (NNS Representatives)))(PP (IN of)(NP (NP (NNP Rally))(PP (IN of)(NP (DT the)(NNPS Republicans))))))(VP (VBD set)(PRT (RP out))(PP (IN on)(NP (NP (E-VEH (NNS motorbikes)))(NP-TMP (NNP Saturday))(S (VP (TO to)(VP (VB urge)(NP (NP (E-PER (NNS villagers)))(PP (IN in)(NP (NP (DT the)(E-ORG (NN party))(POS 's))(JJ northern)(E-GPE (NN stronghold))))(S (RB not)(VP (TO to)(VP (VB cast)(NP (NNS ballots))))))))))))(. .)))(ROOT (S (NP (NP (E-PER (NNS Representatives)))(PP (IN of)(NP (NP (NNP Rally))(PP (IN of)(NP (DT the)(NNPS Republicans))))))(VP (VBD set)(PRT (RP out))(PP (IN on)(NP (NP (E-VEH (NNS motorbikes))))))))) |ET| 4:19 11:5809 12:5810 13:5804 14:797 16:85 17:6 18:520 21:9 22:1028 23:5805 24:5811 25:118 26:118 27:187 28:97 29:14 30:97 31:5806 32:1886 33:5808 34:5812 37:5807 38:5813 40:21 41:21 42:5795 43:187 44:21 45:21 46:1646 47:97 48:5795 49:5814  |EV| 
-0.12499999999996855293282749244099  |BT| (VP (ADVP (NN home))(PP (TO to)(NP (DT a)(JJ Jewish)))) |BT| (BOW ) |BT| (BOH ) |BT| (BOH-NPs ) |BT| (LP (NN *)(ADVP *)(VP *)(PP *)(NP *)(JJ *)) |BT| (LP-head (NN *)(ADVP *)(VP was)(PP *)(NP *)(JJ *)) |BT| (VP (ADVP (NN home))(PP (TO to)(NP (DT a)(JJ Jewish)))) |BT| (VP (ROOT (S (VP (ADVP (E-FAC (NN home)))(PP (TO to)(NP (DT a)(E-PER (JJ Jewish))(E-ORG (JJ seminary))))(, ,)(SBAR (WHADVP (E-ORG (WRB where)))(S (NP (QP (RB about)(CD 30))(E-PER (NNS students)))(VP (MD would)(VP (VB study)(PP (IN during)(NP (DT the)(NN day))))))))(. .)))(ROOT (S (NP (DT The)(E-FAC (NN compound)))(VP (VBD was)(ADVP (E-FAC (NN home)))(PP (TO to)(NP (DT a)(E-PER (JJ Jewish)))))))) |ET| 11:2257 12:33 13:2249 14:644 16:25 17:7 18:912 21:94 22:158 23:2253 24:2258 25:913 26:913 27:291 28:430 29:718 30:430 31:2254 32:291 33:2256 34:2259 35:19 37:31 38:2260 40:718 41:2254 42:21 43:21 44:21 45:2254 46:21 47:21 48:22 49:22  |EV| 
-0.12499999999996855293282749244099  |BT| (NP (PRP$ its)(JJ neo-communist)(NNS allies)) |BT| (BOW ) |BT| (BOH ) |BT| (BOH-NPs ) |BT| (LP (PRP$ *)(NP *)(NNS *)) |BT| (LP-head (PRP$ *)(NP allies)(NNS *)) |BT| (NP (PRP$ its)(JJ neo-communist)(NNS allies)) |BT| (NP (ROOT (S (NP (NP (E-ORG (PRP$ its))(JJ neo-communist)(E-PER (NNS allies))))(VP (VBD appeared)(S (VP (TO to)(VP (VB be)(PP (IN on)(NP (NP (DT the)(NN verge))(PP (IN of)(NP (NN collapse)))))(SBAR (IN after)(S (NP (ADJP (JJ massive)(CC and)(JJ violent))(NNS protests))(VP (VBD led)(S (NP (E-PER (PRP them)))(VP (TO to)(VP (VB acknowledge)(NP (NN victory))(PP (IN by)(NP (NP (NN opposition)(E-PER (NN challenger))(E-PER (NNP Vojislav)(NNP Kostunica)))(PP (IN in)(NP (NP (JJ last)(NN month)(POS 's))(JJ presidential)(NN vote)))))))))))))))(. .)))(JJ neo-communist)(ROOT (S (NP (NP (NP (DT The)(JJ disgraced)(E-PER (NN autocrat))(POS 's))(E-ORG (NNP Socialist)(NNP Party)))(CC and)(NP (E-ORG (PRP$ its))(JJ neo-communist)(E-PER (NNS allies))))))) |ET| 5:19 11:2664 12:2665 13:305 14:24 16:6 17:7 18:126 21:144 22:156 23:2657 24:2135 25:117 26:117 27:2666 28:2666 29:242 30:2666 31:2662 32:2667 33:2663 34:2137 35:19 37:2138 38:2138 39:19 40:2662 41:2662 42:21 43:21 44:2681 45:2681 46:21 47:21 48:22 49:22  |EV| 
-0.047829629326968700619993057898682  |BT| (S (S (VP (PP (NP (PP (NP (PRP$ their)(JJ electoral)(NN defeat)))))))(, ,)(NP (NNS members))) |BT| (BOW (electoral *)) |BT| (BOH ) |BT| (BOH-NPs ) |BT| (LP (PRP$ *)(NP *)(PP *)(NP *)(PP *)(VP *)(S *)(NP *)(NNS *)) |BT| (LP-head (PRP$ *)(NP *)(PP *)(NP *)(PP *)(VP *)(S Stunned)(NP *)(NNS *)) |BT| (S (S (VP (PP (NP (PP (NP (PRP$ their)(JJ electoral)(NN defeat)))))))(, ,)(NP (NNS members))) |BT| (S (ROOT (S (S (VP (PP (NP (PP (NP (E-PER (PRP$ their))(JJ electoral)(NN defeat)))))))(, ,)(NP (E-PER (NNS members)))(VP (VBD were)(VP (VBN reported)(S (VP (TO to)(VP (VB be)(VP (VBG deserting)(PP (IN in)(NP (NNS droves)))))))))(. .)))(, ,)(ROOT (S (S (VP (VBN Stunned)(PP (IN by)(NP (NP (DT the)(NN extent))(PP (IN of)(NP (E-PER (PRP$ their))(JJ electoral)(NN defeat)))))))(, ,)(NP (E-PER (NNS members)))))) |ET| 4:19 8:19 11:2978 12:33 13:580 14:33 16:47 17:7 18:148 21:144 22:156 23:2966 24:1929 25:118 26:118 27:2979 28:13 29:187 30:13 31:2980 32:2799 33:2967 34:1930 35:19 37:2799 38:1931 40:187 41:2980 42:21 43:21 44:21 45:2980 46:21 47:21 48:22 49:22  |EV| 
0.12499999999996855293282749244099  |BT| (NP (NP (NNP Time)(NNP Warner)(POS 's))(NN cable)(ROOT (S (S (NP (NP (DT The)(NN commission)(POS 's))(NN staff))(VP (VBZ has)(VP (VBN recommended)(SBAR (IN that)(S (NP (NNP AOL))(VP (VB be)(VP (VBN required)(S (VP (TO to)(VP (VB make)(NP (PRP$ its)(NN system)(NN work))(PP (IN with)(NP (QP (XS (IN at)(JJS least))(CD one))(JJ other)(NN provider)))))))))))))(, ,)(CC but)(S (NP (DT the)(NN requirement))(VP (MD would)(VP (VB apply)(ADVP (RB only))(PP (TO to)(NP (NP (JJ advanced)(JJ instant)(NN messaging)(NNS services))(VP (VBD offered)(PP (IN over)(NP (NP (NNP Time)(NNP Warner)(POS 's))(NN cable)(NNS lines)))))))))))) |BT| (BOW ) |BT| (BOH ) |BT| (BOH-NPs (cable *)) |BT| (LP (NNP *)(NP *)(NNS *)) |BT| (LP-head (NNP *)(NP lines)(NNS *)) |BT| (NP (NP (NNP Time)(NNP Warner)(POS 's))(NN cable)(ROOT (S (S (NP (NP (DT The)(NN commission)(POS 's))(NN staff))(VP (VBZ has)(VP (VBN recommended)(SBAR (IN that)(S (NP (NNP AOL))(VP (VB be)(VP (VBN required)(S (VP (TO to)(VP (VB make)(NP (PRP$ its)(NN system)(NN work))(PP (IN with)(NP (QP (XS (IN at)(JJS least))(CD one))(JJ other)(NN provider)))))))))))))(, ,)(CC but)(S (NP (DT the)(NN requirement))(VP (MD would)(VP (VB apply)(ADVP (RB only))(PP (TO to)(NP (NP (JJ advanced)(JJ instant)(NN messaging)(NNS services))(VP (VBD offered)(PP (IN over)(NP (NP (NNP Time)(NNP Warner)(POS 's))(NN cable)(NNS lines)))))))))))) |BT| (NP (ROOT (S (S (VP (VP (PP (NP (VP (PP (NP (NP (E-ORG (NNP Time)(NNP Warner))(POS 's))(NN cable)(E-FAC (NNS lines))))))))))(. .)))(NN cable)(ROOT (S (S (NP (NP (DT The)(E-ORG (NN commission))(POS 's))(E-PER (NN staff)))(VP (VBZ has)(VP (VBN recommended)(SBAR (IN that)(S (NP (E-ORG (NNP AOL)))(VP (VB be)(VP (VBN required)(S (VP (TO to)(VP (VB make)(NP (E-ORG (PRP$ its))(NN system)(NN work))(PP (IN with)(NP (QP (XS (IN at)(JJS least))(CD one))(JJ other)(E-ORG (NN provider))))))))))))))(, ,)(CC but)(S (NP (DT the)(NN requirement))(VP (MD would)(VP (VB apply)(ADVP (RB only))(PP (TO to)(NP (NP (JJ advanced)(JJ instant)(NN messaging)(NNS services))(VP (VBD offered)(PP (IN over)(NP (NP (E-ORG (NNP Time)(NNP Warner))(POS 's))(NN cable)(E-FAC (NNS lines))))))))))))) |ET| 11:15339 12:15340 13:15336 14:15337 16:25 17:7 18:2216 21:9 22:113 23:15323 24:15341 25:117 26:117 27:58 28:5167 29:1170 30:5167 31:4505 32:58 33:15324 34:15342 35:19 37:15325 38:6048 40:1170 41:11686 42:5167 43:21 44:15292 45:4505 46:5167 47:21 48:22 49:22  |EV| 
0.12499999999996855293282749244099  |BT| (NP (PRP$ its)(NNS weapons)) |BT| (BOW ) |BT| (BOH ) |BT| (BOH-NPs ) |BT| (LP (PRP$ *)(NP *)(NNS *)) |BT| (LP-head (PRP$ *)(NP weapons)(NNS *)) |BT| (NP (PRP$ its)(NNS weapons)) |BT| (NP (ROOT (S (VP (SBAR (S (VP (VP (NP (NP (E-GPE (PRP$ its))(E-WEA (NNS weapons)))(PP (IN of)(NP (NN mass)(NN destruction)))))))))(. .)))(ROOT (S (NP (E-ORG (NNP U.N.))(E-ORG (NNP Security)(NNP Council))(NNS resolutions))(VP (VBP say)(SBAR (IN that)(S (PP (IN for)(NP (NNS sanctions)(S (VP (TO to)(VP (VB be)(VP (VBN lifted)))))))(, ,)(NP (E-GPE (NNP Iraq)))(VP (MD must)(VP (VB eliminate)(NP (NP (E-GPE (PRP$ its))(E-WEA (NNS weapons)))))))))))) |ET| 11:7755 12:7756 13:305 14:5 16:7 17:7 18:3852 21:144 22:156 23:186 24:1022 25:1 26:1 27:31 28:31 29:7754 30:2667 31:1712 32:7754 33:190 34:1023 35:19 36:19 37:1034 38:1034 39:19 40:7754 41:190 42:21 43:21 44:532 45:1712 46:21 47:21 48:22 49:22  |EV| 
0.12499999999996855293282749244099  |BT| (NP (NP (NNP Time)(NNP Warner)(POS 's))(NN cable)(ROOT (S (S (NP (NP (DT The)(NN commission)(POS 's))(NN staff))(VP (VBZ has)(VP (VBN recommended)(SBAR (IN that)(S (NP (NNP AOL))(VP (VB be)(VP (VBN required)(S (VP (TO to)(VP (VB make)(NP (PRP$ its)(NN system)(NN work))(PP (IN with)(NP (QP (XS (IN at)(JJS least))(CD one))(JJ other)(NN provider)))))))))))))(, ,)(CC but)(S (NP (DT the)(NN requirement))(VP (MD would)(VP (VB apply)(ADVP (RB only))(PP (TO to)(NP (NP (JJ advanced)(JJ instant)(NN messaging)(NNS services))(VP (VBD offered)(PP (IN over)(NP (NP (NNP Time)(NNP Warner)(POS 's))(NN cable)(NNS lines)))))))))))) |BT| (BOW ) |BT| (BOH ) |BT| (BOH-NPs (cable *)) |BT| (LP (NNP *)(NP *)(NNS *)) |BT| (LP-head (NNP *)(NP lines)(NNS *)) |BT| (NP (NP (NNP Time)(NNP Warner)(POS 's))(NN cable)(ROOT (S (S (NP (NP (DT The)(NN commission)(POS 's))(NN staff))(VP (VBZ has)(VP (VBN recommended)(SBAR (IN that)(S (NP (NNP AOL))(VP (VB be)(VP (VBN required)(S (VP (TO to)(VP (VB make)(NP (PRP$ its)(NN system)(NN work))(PP (IN with)(NP (QP (XS (IN at)(JJS least))(CD one))(JJ other)(NN provider)))))))))))))(, ,)(CC but)(S (NP (DT the)(NN requirement))(VP (MD would)(VP (VB apply)(ADVP (RB only))(PP (TO to)(NP (NP (JJ advanced)(JJ instant)(NN messaging)(NNS services))(VP (VBD offered)(PP (IN over)(NP (NP (NNP Time)(NNP Warner)(POS 's))(NN cable)(NNS lines)))))))))))) |BT| (NP (ROOT (S (S (VP (VP (PP (NP (VP (PP (NP (NP (E-ORG (NNP Time)(NNP Warner))(POS 's))(NN cable)(E-FAC (NNS lines))))))))))(. .)))(NN cable)(ROOT (S (S (NP (NP (DT The)(E-ORG (NN commission))(POS 's))(E-PER (NN staff)))(VP (VBZ has)(VP (VBN recommended)(SBAR (IN that)(S (NP (E-ORG (NNP AOL)))(VP (VB be)(VP (VBN required)(S (VP (TO to)(VP (VB make)(NP (E-ORG (PRP$ its))(NN system)(NN work))(PP (IN with)(NP (QP (XS (IN at)(JJS least))(CD one))(JJ other)(E-ORG (NN provider))))))))))))))(, ,)(CC but)(S (NP (DT the)(NN requirement))(VP (MD would)(VP (VB apply)(ADVP (RB only))(PP (TO to)(NP (NP (JJ advanced)(JJ instant)(NN messaging)(NNS services))(VP (VBD offered)(PP (IN over)(NP (NP (E-ORG (NNP Time)(NNP Warner))(POS 's))(NN cable)(E-FAC (NNS lines))))))))))))) |ET| 11:15339 12:15340 13:15336 14:15337 16:25 17:7 18:2216 21:9 22:113 23:15323 24:15341 25:117 26:117 27:58 28:5167 29:1170 30:5167 31:4505 32:58 33:15324 34:15342 35:19 37:15325 38:6048 40:1170 41:11686 42:5167 43:21 44:15292 45:4505 46:5167 47:21 48:22 49:22  |EV| 
-0.1008461526507777039629587534364  |BT| (S (NP (NNS crowds))(VP (VP (VBG vandalizing)(NP (DT the)(NN tomb)))(, ,)(VP (VBG setting)(NP (NNS fires)))(CC and)(VP (VBG hammering)(ADVP (RB away))(PP (IN at)(NP (DT the)(NN stone)(NNS buildings)))))) |BT| (BOW (vandalizing *)(the *)(tomb *)(, *)(setting *)(fires *)(and *)(hammering *)(away *)(at *)) |BT| (BOH (tomb *)(fires *)(away *)(at *)) |BT| (BOH-NPs (tomb *)(fires *)(stone *)) |BT| (LP (NNS *)(NP *)(S *)(VP *)(PP *)(NP *)(NNS *)) |BT| (LP-head (NNS *)(NP *)(S None)(VP *)(PP *)(NP *)(NNS *)) |BT| (S (NP (NNS crowds))(VP (VP (VBG vandalizing)(NP (DT the)(NN tomb)))(, ,)(VP (VBG setting)(NP (NNS fires)))(CC and)(VP (VBG hammering)(ADVP (RB away))(PP (IN at)(NP (DT the)(NN stone)(NNS buildings)))))) |BT| (S (ROOT (S (VP (PP (S (NP (E-PER (NNS crowds)))(VP (VP (VBG vandalizing)(NP (DT the)(E-FAC (NN tomb))))(, ,)(VP (VBG setting)(NP (NNS fires)))(CC and)(VP (VBG hammering)(ADVP (RB away))(PP (IN at)(NP (DT the)(NN stone)(E-FAC (NNS buildings)))))))))(. .)))(ROOT (S (PP (IN With)(NP (NP (DT the)(NN arrival))(PP (IN of)(NP (NP (NNS dozens))(PP (IN of)(NP (E-GPE (JJ Palestinian))(E-PER (NNS gunmen))))))))(, ,)(NP (DT the)(NN celebration))(VP (VBD degenerated)(PP (IN into)(NP (NP (DT a)(NN trashing))(PP (IN of)(NP (DT the)(E-FAC (NN compound))))))(, ,)(PP (IN with)(S (NP (E-PER (NNS crowds)))(VP (VP (VBG vandalizing)(NP (DT the)(E-FAC (NN tomb))))(, ,)(VP (VBG setting)(NP (NNS fires)))(CC and)(VP (VBG hammering)(ADVP (RB away))(PP (IN at)(NP (DT the)(NN stone)(E-FAC (NNS buildings)))))))))))) |ET| 4:19 11:2324 12:2325 13:2319 14:33 16:46 17:6 18:647 19:338 20:19 21:9 22:1028 23:2320 24:2326 25:118 26:118 27:2323 28:2327 29:72 30:2327 31:13 32:105 33:2321 34:2328 37:2322 38:2329 40:72 41:2254 42:2227 43:2227 44:2318 45:2254 46:2327 47:921 48:2330 49:2331  |EV| 
-0.055168351490974501527553286450711  |BT| (NP (NP (NNS Critics))(PP (IN of)(NP (NP (NNP Indonesia)(POS 's))(JJ legal)(NN system)))) |BT| (BOW (of *)(Indonesia *)) |BT| (BOH (of *)(Indonesia *)) |BT| (BOH-NPs (Indonesia *)) |BT| (LP (NNS *)(NP *)(PP *)(NP *)(NN *)) |BT| (LP-head (NNS *)(NP Critics)(PP *)(NP *)(NN *)) |BT| (NP (NP (NNS Critics))(PP (IN of)(NP (NP (NNP Indonesia)(POS 's))(JJ legal)(NN system)))) |BT| (NP (ROOT (S (NP (NP (E-PER (NNS Critics)))(PP (IN of)(NP (NP (E-GPE (NNP Indonesia))(POS 's))(JJ legal)(E-GPE (NN system)))))(VP (VBP have)(VP (VBN accused)(NP (E-GPE (PRP it)))(PP (IN of)(S (VP (VBG going)(ADJP (JJ soft))(PP (IN on)(NP (DT the)(E-PER (NNP Suharto))(E-PER (NN clan)))))))))(. .)))(ROOT (S (NP (NP (E-PER (NNS Critics)))(PP (IN of)(NP (NP (E-GPE (NNP Indonesia))(POS 's))(JJ legal)(E-GPE (NN system)))))))) |ET| 11:802 12:803 13:796 14:797 16:55 17:6 18:143 21:9 22:339 23:798 24:804 25:118 26:118 27:187 28:765 29:14 30:765 31:799 32:58 33:801 34:805 37:800 38:806 40:21 41:21 42:615 43:187 44:21 45:21 46:615 47:615 48:22 49:187  |EV| 
-0.0030149636781809261917852715839672  |BT| (NP (NP (NN member))(PP (IN of)(NP (NP (NNP Suharto)(POS 's))(NN family)))) |BT| (BOW (of *)) |BT| (BOH (of *)(Suharto *)) |BT| (BOH-NPs (Suharto *)) |BT| (LP (NN *)(NP *)(PP *)(NP *)(NN *)) |BT| (LP-head (NN *)(NP member)(PP *)(NP *)(NN *)) |BT| (NP (NP (NN member))(PP (IN of)(NP (NP (NNP Suharto)(POS 's))(NN family)))) |BT| (NP (ROOT (S (VP (NP (NP (E-PER (NN member)))(PP (IN of)(NP (NP (E-PER (NNP Suharto))(POS 's))(E-PER (NN family))(S (VP (TO to)(VP (VB be)(VP (VBN convicted)(PP (IN of)(NP (NN graft)))))))))))(. .)))(ROOT (S (NP (NP (E-PER (NNP Tommy)))(, ,)(NP (NP (DT a)(E-PER (JJ multimillionaire)))(PP (IN with)(NP (NP (DT a)(JJ playboy)(NN image)(CC and)(NN love))(PP (IN of)(NP (JJ fast)(E-VEH (NNS cars)))))))(, ,))(VP (VBZ is)(NP (NP (DT the)(JJ first)(E-PER (NN member)))(PP (IN of)(NP (NP (E-PER (NNP Suharto))(POS 's))(E-PER (NN family))))))))) |ET| 6:19 11:743 12:744 13:736 14:737 16:47 17:6 18:148 19:338 20:19 21:9 22:311 23:738 24:745 25:118 26:118 27:187 28:58 29:179 30:58 31:105 32:629 33:739 34:746 37:740 38:747 40:179 41:734 42:629 43:187 44:735 45:396 46:629 47:629 48:22 49:187  |EV| 
0.12499999999996855293282749244099  |BT| (NP (PRP$ his)(NN residence)) |BT| (BOW ) |BT| (BOH ) |BT| (BOH-NPs ) |BT| (LP (PRP$ *)(NP *)(NN *)) |BT| (LP-head (PRP$ *)(NP residence)(NN *)) |BT| (NP (PRP$ his)(NN residence)) |BT| (NP (ROOT (S (VP (PP (NP (PP (NP (NP (E-PER (PRP$ his))(E-FAC (NN residence)))(PP (IN in)(NP (E-GPE (NNP Washington)))))))))(. .)))(ROOT (S (ADVP (RB Indeed))(, ,)(SBAR (RB even)(IN as)(S (NP (E-PER (PRP$ his))(E-PER (NNS aides)))(VP (VBD were)(VP (VBG finalizing)(NP (NP (NNS plans))(PP (IN for)(NP (E-PER (PRP$ their))(NN assault))))))))(, ,)(NP (E-PER (NNP Gore)))(VP (VBD discussed)(NP (E-PER (PRP$ his))(NN education)(NNS proposals))(PP (IN on)(NP (NNP Sunday)(NN afternoon)))(PP (IN with)(NP (E-PER (NNS teachers))(, ,)(E-PER (NNS students))(CC and)(E-PER (NNS parents))))(PP (IN during)(NP (NP (DT a)(NN photo)(NN opportunity))(PP (IN at)(NP (NP (E-PER (PRP$ his))(E-FAC (NN residence))))))))))) |ET| 11:16149 12:16150 13:32 14:33 16:7 17:7 18:647 21:144 22:149 23:1370 24:6884 25:118 26:118 27:31 28:31 29:921 30:279 31:1368 32:921 33:1318 34:6885 35:19 36:19 37:6886 38:6886 39:19 40:921 41:1368 42:21 43:21 44:16151 45:1368 46:21 47:21 48:22 49:22  |EV| 
0.12499999999996855293282749244099  |BT| (NP (NP (NNP Nixon))(, ,)(VP (VBN drawn)(PP (IN with)(NP (NN deep-set))))(, ,)(NP (JJ malevolent)(NNS eyes))(, ,)(NP (NP (CD five)(RB o'clock))(NP (NP (NN shadow))(CC and)(NP (PRN (, ,)(SBAR (WHADVP (WRB when))(S (NP (PRP he))(VP (VBD was)(NP (NP (NN vice)(NN president))(PP (IN in)(NP (NP (NNP Eisenhower)(POS 's))(NN administration)))))))(, ,))(PP (IN with)(NP (NP (DT a)(JJ bloodstained)(NN hatchet)))))))) |BT| (BOW (, *)(drawn *)(with *)(deep-set *)(, *)(malevolent *)(eyes *)(, *)(five *)(o'clock *)(shadow *)(and *)(, *)(when *)(he *)(was *)(vice *)(president *)(in *)(Eisenhower *)('s *)(administration *)(, *)(with *)) |BT| (BOH (drawn *)(with *)(deep-set *)(eyes *)(shadow *)(when *)(he *)(was *)(president *)(in *)(Eisenhower *)(administration *)(with *)) |BT| (BOH-NPs (deep-set *)(eyes *)(shadow *)(he *)(president *)(Eisenhower *)(administration *)) |BT| (LP (NNP *)(NP *)(NP *)(PP *)(NP *)(NN *)) |BT| (LP-head (NNP *)(NP Nixon)(NP *)(PP *)(NP *)(NN *)) |BT| (NP (NP (NNP Nixon))(, ,)(VP (VBN drawn)(PP (IN with)(NP (NN deep-set))))(, ,)(NP (JJ malevolent)(NNS eyes))(, ,)(NP (NP (CD five)(RB o'clock))(NP (NP (NN shadow))(CC and)(NP (PRN (, ,)(SBAR (WHADVP (WRB when))(S (NP (PRP he))(VP (VBD was)(NP (NP (NN vice)(NN president))(PP (IN in)(NP (NP (NNP Eisenhower)(POS 's))(NN administration)))))))(, ,))(PP (IN with)(NP (NP (DT a)(JJ bloodstained)(NN hatchet)))))))) |BT| (NP (ROOT (S (VP (VP (PP (NP (NP (E-PER (NNP Nixon)))(, ,)(VP (VBN drawn)(PP (IN with)(NP (NN deep-set))))(, ,)(NP (JJ malevolent)(NNS eyes))(, ,)(NP (NP (CD five)(RB o'clock))(NP (NP (NN shadow))(CC and)(NP (PRN (, ,)(SBAR (WHADVP (WRB when))(S (NP (E-PER (PRP he)))(VP (VBD was)(NP (NP (E-PER (NN vice)(NN president)))(PP (IN in)(NP (NP (E-PER (NNP Eisenhower))(POS 's))(E-ORG (NN administration))))))))(, ,))(PP (IN with)(NP (NP (DT a)(JJ bloodstained)(E-WEA (NN hatchet)))(PP (IN in)(NP (NN hand))))))))))))(. .)))(, ,)(VP (VBN drawn)(PP (IN with)(NP (NN deep-set))))(, ,)(NP (JJ malevolent)(NNS eyes))(, ,)(ROOT (S (NP (JJ Few)(E-PER (NNP Herblock))(E-PER (NNS targets)))(, ,)(ADVP (RB however))(, ,)(VP (VBD were)(ADVP (IN as))(VP (VBN favored)(PP (IN as)(NP (NP (E-PER (NNP Nixon)))(, ,)(VP (VBN drawn)(PP (IN with)(NP (NN deep-set))))(, ,)(NP (JJ malevolent)(NNS eyes))(, ,)(NP (NP (CD five)(RB o'clock))(NP (NP (NN shadow))(CC and)(NP (PRN (, ,)(SBAR (WHADVP (WRB when))(S (NP (E-PER (PRP he)))(VP (VBD was)(NP (NP (E-PER (NN vice)(NN president)))(PP (IN in)(NP (NP (E-PER (NNP Eisenhower))(POS 's))(E-ORG (NN administration))))))))(, ,))(PP (IN with)(NP (NP (DT a)(JJ bloodstained)(E-WEA (NN hatchet))))))))))))))) |ET| 11:4496 12:4497 13:4482 14:4483 16:123 17:55 18:1021 21:9 22:56 23:4431 24:4498 25:118 26:118 27:13 28:4499 29:49 30:4499 31:3418 32:430 33:4432 34:4500 37:4433 38:4501 40:49 41:4481 42:4502 43:4503 44:4406 45:3418 46:1876 47:72 48:4493 49:1876  |EV| 
-0.029250288273405922190306682750816  |BT| (NP (NNP Arab)(NNS countries)) |BT| (BOW ) |BT| (BOH ) |BT| (BOH-NPs ) |BT| (LP (NNP *)(NP *)(NNS *)) |BT| (LP-head (NNP *)(NP countries)(NNS *)) |BT| (NP (NNP Arab)(NNS countries)) |BT| (NP (ROOT (S (VP (VP (SBAR (S (NP (E-PER (NNP Arab))(E-GPE (NNS countries)))(VP (MD will)(VP (VB follow)(, ,)(PP (IN despite)(NP (E-GPE (NNP U.S.))(NNS complaints)))(, ,)(S (VP (VBG easing)(NP (E-GPE (PRP$ its))(NN isolation))))))))))(. .)))(ROOT (S (NP (E-GPE (NNP Iraq)))(VP (VBZ is)(VP (VBG hoping)(SBAR (S (NP (JJ other)(E-PER (NNP Arab))(E-GPE (NNS countries)))))))))) |ET| 4:19 11:548 12:549 13:321 14:33 16:7 17:7 18:143 21:9 22:113 23:326 24:325 25:118 26:118 27:31 28:31 29:545 30:333 31:547 32:545 33:329 34:328 35:19 36:19 37:330 38:330 39:19 40:333 41:333 42:21 43:21 44:190 45:545 46:21 47:21 48:22 49:22  |EV| 
-0.12499999999996855293282749244099  |BT| (NP (PRP$ our)(NNS martyrs)) |BT| (BOW ) |BT| (BOH ) |BT| (BOH-NPs ) |BT| (LP (PRP$ *)(NP *)(NNS *)) |BT| (LP-head (PRP$ *)(NP martyrs)(NNS *)) |BT| (NP (PRP$ our)(NNS martyrs)) |BT| (NP (ROOT (SINV (S (VP (VP (NP (PP (NP (E-PER (PRP$ our))(E-PER (NNS martyrs))))(SBAR (WHNP (E-PER (WP who)))(S (VP (VBD were)(VP (VBN killed)(S (VP (VBG defending)(NP (E-FAC (PRP it)))))))))))))(, ,)('' '')(VP (VBD said))(NP (NP (E-PER (NNP Aloul)))(, ,)(SBAR (WHNP (E-PER (WP$ whose))(E-PER (NN son)))(S (VP (VBD was)(VP (VBN killed)(PP (IN in)(NP (NNS clashes)))(NP-TMP (JJ last)(NN week)))))))(. .)))(ROOT (SINV (`` ``)(S (NP (PRP We))(VP (MD should)(VP (VP (VB protect)(NP (DT this)(E-FAC (NN building))))(CC and)(VP (VB make)(NP (E-FAC (PRP it))))(NP (NP (DT a)(NN symbol))(PP (IN for)(NP (E-PER (PRP$ our))(E-PER (NNS martyrs))))))))))) |ET| 4:19 8:19 11:2392 12:2393 13:2387 14:33 16:7 17:7 18:148 21:144 22:156 23:2388 24:2394 25:118 26:118 27:31 28:31 29:605 30:2395 31:2389 32:605 33:2390 34:2396 35:19 36:19 37:2391 38:2391 39:19 40:605 41:2389 42:21 43:21 44:931 45:2389 46:21 47:21 48:22 49:22  |EV| 
-0.034992007409837988518575002672151  |BT| (NP (NNP Arab)(NNS leaders)) |BT| (BOW ) |BT| (BOH ) |BT| (BOH-NPs ) |BT| (LP (NNP *)(NP *)(NNS *)) |BT| (LP-head (NNP *)(NP leaders)(NNS *)) |BT| (NP (NNP Arab)(NNS leaders)) |BT| (NP (ROOT (S (NP (S (VP (VP (S (NP (E-PER (NNP Arab))(E-PER (NNS leaders)))(VP (TO to)(VP (VB present)(NP (NP (DT a)(VBN unified)(NN front))(PP (IN against)(NP (E-GPE (NNP Israel))))))))))))(VP (VBD gained)(NP (JJ little)(NN ground)))(. .)))(ROOT (S (NP (NP (E-PER (NNP Hafez)(NNP Assad))(POS 's))(NNS attempts)(S (VP (TO to)(VP (VB rally)(S (NP (E-PER (NNP Arab))(E-PER (NNS leaders))))))))))) |ET| 4:19 11:590 12:591 13:321 14:33 16:7 17:7 18:148 21:9 22:113 23:326 24:592 25:118 26:118 27:31 28:31 29:586 30:333 31:291 32:586 33:329 34:593 35:19 36:19 37:588 38:588 39:19 40:586 41:589 42:21 43:21 44:67 45:589 46:21 47:21 48:22 49:22  |EV| 
0.12477357905682717742479326261673  |BT| (NP (PP (NP (NNS vehicles)))(, ,)(PP (IN with)(S (VP (VBG shouting)(NP (NP (NNS supporters))))))) |BT| (BOW (, *)) |BT| (BOH (with *)) |BT| (BOH-NPs ) |BT| (LP (NNS *)(NP *)(PP *)(NP *)(PP *)(S *)(VP *)(NP *)(NNS *)) |BT| (LP-head (NNS *)(NP *)(PP *)(NP display)(PP *)(S *)(VP *)(NP *)(NNS *)) |BT| (NP (PP (NP (NNS vehicles)))(, ,)(PP (IN with)(S (VP (VBG shouting)(NP (NP (NNS supporters))))))) |BT| (NP (ROOT (S (NP (PP (NP (E-VEH (NNS vehicles))))(, ,)(PP (IN with)(S (VP (VBG shouting)(NP (NP (E-PER (NNS supporters)))(VP (VBG hanging)(PRT (RP out))(NP (NNS windows)))))))(, ,))(VP (VBD marked)(NP (NP (DT some))(PP (IN of)(NP (DT the)(JJS liveliest)(JJ political)(NN activity))))(SBAR (IN since)(S (NP (DT the)(NN campaign)(NN period))(VP (VBD began)(ADVP (NP (CD two)(NNS weeks))(RB ago))))))(. .)))(, ,)(ROOT (S (NP (NP (DT The)(NN display))(PP (IN of)(NP (E-VEH (NNS vehicles))))(, ,)(PP (IN with)(S (VP (VBG shouting)(NP (NP (E-PER (NNS supporters))))))))))) |ET| 11:5647 12:5648 13:5649 14:519 16:47 17:7 18:748 19:434 21:9 22:1028 23:5650 24:943 25:539 26:539 27:13 28:5651 29:187 30:5651 31:4448 32:72 33:5652 34:948 37:5653 38:949 40:187 41:4448 42:21 43:72 44:21 45:4448 46:21 47:72 48:22 49:22  |EV| 
0.12499999999996855293282749244099  |BT| (NP (PRP$ his)(NN residence)) |BT| (BOW ) |BT| (BOH ) |BT| (BOH-NPs ) |BT| (LP (PRP$ *)(NP *)(NN *)) |BT| (LP-head (PRP$ *)(NP residence)(NN *)) |BT| (NP (PRP$ his)(NN residence)) |BT| (NP (ROOT (S (VP (PP (NP (PP (NP (NP (E-PER (PRP$ his))(E-FAC (NN residence)))(PP (IN in)(NP (E-GPE (NNP Washington)))))))))(. .)))(ROOT (S (ADVP (RB Indeed))(, ,)(SBAR (RB even)(IN as)(S (NP (E-PER (PRP$ his))(E-PER (NNS aides)))(VP (VBD were)(VP (VBG finalizing)(NP (NP (NNS plans))(PP (IN for)(NP (E-PER (PRP$ their))(NN assault))))))))(, ,)(NP (E-PER (NNP Gore)))(VP (VBD discussed)(NP (E-PER (PRP$ his))(NN education)(NNS proposals))(PP (IN on)(NP (NNP Sunday)(NN afternoon)))(PP (IN with)(NP (E-PER (NNS teachers))(, ,)(E-PER (NNS students))(CC and)(E-PER (NNS parents))))(PP (IN during)(NP (NP (DT a)(NN photo)(NN opportunity))(PP (IN at)(NP (NP (E-PER (PRP$ his))(E-FAC (NN residence))))))))))) |ET| 11:16149 12:16150 13:32 14:33 16:7 17:7 18:647 21:144 22:149 23:1370 24:6884 25:118 26:118 27:31 28:31 29:921 30:279 31:1368 32:921 33:1318 34:6885 35:19 36:19 37:6886 38:6886 39:19 40:921 41:1368 42:21 43:21 44:16151 45:1368 46:21 47:21 48:22 49:22  |EV| 
-0.050665308799656201543815114973768  |BT| (NP (NP (NNP Yugoslavia))(, ,)(NP (NP (NN meeting))(PP (IN with)(NP (NP (VBN ousted)(NN leader)))))) |BT| (BOW (, *)(meeting *)) |BT| (BOH (meeting *)(with *)) |BT| (BOH-NPs (meeting *)) |BT| (LP (NNP *)(NP *)(NP *)(PP *)(NP *)(NN *)) |BT| (LP-head (NNP *)(NP Yugoslavia)(NP *)(PP *)(NP *)(NN *)) |BT| (NP (NP (NNP Yugoslavia))(, ,)(NP (NP (NN meeting))(PP (IN with)(NP (NP (VBN ousted)(NN leader)))))) |BT| (NP (ROOT (S (VP (PP (NP (NP (E-GPE (NNP Yugoslavia)))(, ,)(NP (NP (NN meeting))(PP (IN with)(NP (NP (VBN ousted)(E-PER (NN leader)))(NP (NP (E-PER (NNP Slobodan)(NNP Milosevic)))(CC and)(VP (VBG recognizing)(NP (NP (NN opposition)(E-PER (NN leader))(E-PER (NNP Vojislav)(NNP Kostunica)))(PP (IN as)(NP (NP (E-PER (NN winner)))(PP (IN of)(NP (DT the)(NNP Sept))))))))))))))(. .)))(, ,)(ROOT (S (SBAR (IN As)(S (NP (E-PER (PRP he)))(VP (VBD spoke))))(, ,)(NP (E-GPE (NNP Russian))(NNP Foreign)(E-PER (NNP Minister))(E-PER (NNP Ivanov)))(VP (VBD was)(PP (IN in)(NP (NP (E-GPE (NNP Yugoslavia)))(, ,)(NP (NP (NN meeting))(PP (IN with)(NP (NP (VBN ousted)(E-PER (NN leader)))))))))))) |ET| 1:19 11:1755 12:1756 13:1753 14:1754 16:55 17:7 18:35 21:9 22:56 23:1666 24:219 25:1 26:1 27:13 28:1757 29:106 30:1757 31:718 32:72 33:1667 34:223 37:1668 38:224 40:106 41:1748 42:315 43:315 44:206 45:718 46:315 47:72 48:22 49:315  |EV| 
-0.010201784174338725946773465125261  |BT| (NP (NP (NP (NNP Mladjan)(NNP Dinkic)))(, ,)(NP (NP (DT the)(NN head))(PP (IN of)(NP (NP (DT an)(JJ influential)(NN group)))))) |BT| (BOW (, *)(the *)(head *)(of *)) |BT| (BOH (head *)(of *)) |BT| (BOH-NPs (head *)) |BT| (LP (NNP *)(NP *)(NP *)(PP *)(NP *)(NN *)) |BT| (LP-head (NNP *)(NP Jagland)(NP *)(PP *)(NP *)(NN *)) |BT| (NP (NP (NP (NNP Mladjan)(NNP Dinkic)))(, ,)(NP (NP (DT the)(NN head))(PP (IN of)(NP (NP (DT an)(JJ influential)(NN group)))))) |BT| (NP (ROOT (S (NP (NP (NP (E-PER (NNP Mladjan)(NNP Dinkic))))(, ,)(NP (NP (DT the)(E-PER (NN head)))(PP (IN of)(NP (NP (DT an)(JJ influential)(E-PER (NN group)))(PP (IN of)(NP (E-PER (NNS economists)))))))(, ,))(VP (VBD demanded)(NP-TMP (NNP Sunday))(SBAR (IN that)(S (NP (E-PER (NNP Milosevic)))(VP (VB be)(VP (VBN punished)(PP (IN for)(NP (NN vote-rigging))))))))(. .)))(, ,)(ROOT (S (NP (NP (NP (NP (E-GPE (NNP Norway))(POS 's))(NNP Foreign)(E-PER (NNP Minister))(E-PER (NNP Thorbjoern)(NNP Jagland)))(CC and)(NP (E-PER (NNP Mladjan)(NNP Dinkic))))(, ,)(NP (NP (DT the)(E-PER (NN head)))(PP (IN of)(NP (NP (DT an)(JJ influential)(E-PER (NN group)))))))))) |ET| 1:19 2:19 6:19 11:3187 12:3188 13:3180 14:3181 16:70 17:6 18:148 21:9 22:56 23:3182 24:1497 25:118 26:118 27:13 28:3189 29:242 30:3189 31:3174 32:369 33:3183 34:1500 37:3184 38:1502 40:3174 41:3174 42:2779 43:2779 44:3175 45:3175 46:2779 47:187 48:22 49:2779  |EV| 
-0.03331378341264245451780467988101  |BT| (NP (PRP$ my)(NNP God)) |BT| (BOW ) |BT| (BOH ) |BT| (BOH-NPs ) |BT| (LP (PRP$ *)(NP *)(NNP *)) |BT| (LP-head (PRP$ *)(NP God)(NNP *)) |BT| (NP (PRP$ my)(NNP God)) |BT| (NP (ROOT (S (S (VP (S (NP (E-PER (PRP$ my))(E-PER (NNP God)))(, ,)(NP (E-PER (PRP I)))(VP (VBP 'm)(ADJP (RB so)(JJ scared))))))(. !)('' '')))(ROOT (S (S (NP (E-PER (PRP He)))(VP (VP (ADVP (RB then))(VBD dropped)(PP (TO to)(NP (E-PER (PRP$ his))(NNS knees))))(CC and)(VP (VBD pointed)(NP (NP (DT a)(NN .357))(: -)(NP (NP (NN caliber))(NP (E-ORG (NNP Magnum))(E-WEA (NN revolver)))(, ,)(ADVP (RB first))))(PP (IN at)(NP (NP (E-PER (PRP$ his))(NN mouth))(CC and)(NP (RB then))))(PP (IN at)(NP (DT an)(NN assistant)(E-PER (NN principal)))))))(, ,)(CC but)(S (NP (RB then))(VP (VBD surrendered)(NP (NP (E-WEA (PRP it)))(PP (TO to)(NP (DT the)(E-PER (NN man)))))(PP (IN with)(NP (DT a)(JJ tearful)))(: :)(`` ``)(S (INTJ (UH Oh))(, ,)(NP (E-PER (PRP$ my))(E-PER (NNP God))))))))) |ET| 8:19 11:1135 12:1136 13:1130 14:33 16:7 17:7 18:148 21:144 22:145 23:1026 24:1137 25:118 26:118 27:31 28:31 29:13 30:1138 31:1132 32:13 33:1006 34:1139 35:19 36:19 37:1133 38:1133 39:19 40:1134 41:906 42:21 43:21 44:1123 45:72 46:21 47:21 48:22 49:22  |EV| 
0.12499999999996855293282749244099  |BT| (NP (NNP Magnum)(NN revolver)) |BT| (BOW ) |BT| (BOH ) |BT| (BOH-NPs ) |BT| (LP (NNP *)(NP *)(NN *)) |BT| (LP-head (NNP *)(NP revolver)(NN *)) |BT| (NP (NNP Magnum)(NN revolver)) |BT| (NP (ROOT (S (S (VP (VP (NP (NP (NP (E-ORG (NNP Magnum))(E-WEA (NN revolver)))(, ,)(ADVP (RB first))))(PP (IN at)(NP (NP (E-PER (PRP$ his))(NN mouth))(CC and)(NP (RB then))))(PP (IN at)(NP (DT an)(NN assistant)(E-PER (NN principal)))))))(, ,)(CC but)(S (NP (RB then))(VP (VBD surrendered)(NP (NP (E-WEA (PRP it)))(PP (TO to)(NP (DT the)(E-PER (NN man)))))(PP (IN with)(NP (DT a)(JJ tearful)))(: :)(`` ``)(S (INTJ (UH Oh))(, ,)(NP (E-PER (PRP$ my))(E-PER (NNP God)))(, ,)(NP (E-PER (PRP I)))(VP (VBP 'm)(ADJP (RB so)(JJ scared))))))(. !)('' '')))(ROOT (S (S (NP (E-PER (PRP He)))(VP (VP (ADVP (RB then))(VBD dropped)(PP (TO to)(NP (E-PER (PRP$ his))(NNS knees))))(CC and)(VP (VBD pointed)(NP (NP (DT a)(NN .357))(: -)(NP (NP (NN caliber))(NP (E-ORG (NNP Magnum))(E-WEA (NN revolver))))))))))) |ET| 11:1112 12:1113 13:1106 14:24 16:7 17:7 18:1144 21:9 22:56 23:1107 24:1114 25:117 26:117 27:31 28:31 29:1108 30:1115 31:405 32:1108 33:1109 34:1116 35:19 36:19 37:1110 38:1110 39:19 40:1108 41:1108 42:21 43:21 44:1111 45:1111 46:21 47:21 48:22 49:22  |EV| 
0.12499999999996855293282749244099  |BT| (NP (WP$ whose)(NN bookstore)) |BT| (BOW ) |BT| (BOH ) |BT| (BOH-NPs ) |BT| (LP (WP$ *)(NP *)(NN *)) |BT| (LP-head (WP$ *)(NP bookstore)(NN *)) |BT| (NP (WP$ whose)(NN bookstore)) |BT| (NP (ROOT (SINV (NP (NP (SBAR (WHNP (NP (E-PER (WP$ whose))(E-FAC (NN bookstore)))(PP (IN across)(NP (DT the)(NN street))))(S (VP (VBD was)(VP (VBN hit)(PP (IN by)(NP (NP (JJ stray)(E-WEA (NNS bullets)))(PP (IN in)(NP (DT the)(NN fighting)))))))))))(. .)))(ROOT (SINV (`` ``)(S (SBAR (WHNP (WP What))(S (NP (E-PER (PRP I)))(VP (VBP want)(S (VP (TO to)(VP (VB understand)))))))(VP (VBZ is)(SBAR (IN if)(S (NP (E-PER (NNP Joseph)))(VP (VBZ is)(RB not)(VP (VBN buried)(ADVP (E-FAC (RB there)))(, ,)(SBAR (WHADVP (WRB why))(S (NP (DT this)(E-FAC (NN place)))(VP (VBD was)(ADJP (RB so)(JJ important)))))))))))(, ,)('' '')(VP (VBD said))(NP (NP (E-PER (NNP Abdul)(NNP Fateh)(NNP Sayed)))(, ,)(NP (NP (CD 62))(, ,)(SBAR (WHNP (NP (E-PER (WP$ whose))(E-FAC (NN bookstore)))))))))) |ET| 11:2597 12:2598 13:1965 14:33 16:7 17:7 18:647 21:677 22:1981 23:1967 24:2599 25:118 26:118 27:31 28:31 29:13 30:2405 31:2595 32:13 33:1969 34:2600 35:19 36:19 37:2596 38:2596 39:19 40:2587 41:2587 42:21 43:21 44:2612 45:2612 46:21 47:21 48:22 49:22  |EV| 
0.12499999999996855293282749244099  |BT| (NP (NN RV)(NNS owners)) |BT| (BOW ) |BT| (BOH ) |BT| (BOH-NPs ) |BT| (LP (NN *)(NP *)(NNS *)) |BT| (LP-head (NN *)(NP owners)(NNS *)) |BT| (NP (NN RV)(NNS owners)) |BT| (NP (ROOT (S (VP (VP (SBAR (S (NP (E-VEH (NN RV))(E-PER (NNS owners)))(ADVP (RB largely))(VP (VB vote)(NP (NNP Republican)))))))(. .)))(ROOT (S (NP (E-PER (NNP Staples)))(VP (VBZ has)(VP (VBN accused)(NP (NP (E-PER (NNP Fisher)))(PP (IN of)(NP (NN masterminding))))(SBAR (NP (DT the)(NN challenge))(IN because)(S (NP (DT the)(E-VEH (NN RV))(E-PER (NNS owners)))))))))) |ET| 11:7185 12:7186 13:7178 14:519 16:7 17:7 18:748 21:9 22:160 23:7181 24:7187 25:539 26:539 27:31 28:31 29:105 30:7184 31:1546 32:105 33:7182 34:7188 35:19 36:19 37:7183 38:7183 39:19 40:7184 41:7184 42:21 43:21 44:7190 45:7190 46:21 47:21 48:22 49:22  |EV| 
0.12499999999996855293282749244099  |BT| (NP (PP (NP (NNS vehicles)))(, ,)(PP (IN with)(S (VP (VBG shouting)(NP (NP (NNS supporters))))))) |BT| (BOW (, *)) |BT| (BOH (with *)) |BT| (BOH-NPs ) |BT| (LP (NNS *)(NP *)(PP *)(NP *)(PP *)(S *)(VP *)(NP *)(NNS *)) |BT| (LP-head (NNS *)(NP *)(PP *)(NP display)(PP *)(S *)(VP *)(NP *)(NNS *)) |BT| (NP (PP (NP (NNS vehicles)))(, ,)(PP (IN with)(S (VP (VBG shouting)(NP (NP (NNS supporters))))))) |BT| (NP (ROOT (S (NP (PP (NP (E-VEH (NNS vehicles))))(, ,)(PP (IN with)(S (VP (VBG shouting)(NP (NP (E-PER (NNS supporters)))(VP (VBG hanging)(PRT (RP out))(NP (NNS windows)))))))(, ,))(VP (VBD marked)(NP (NP (DT some))(PP (IN of)(NP (DT the)(JJS liveliest)(JJ political)(NN activity))))(SBAR (IN since)(S (NP (DT the)(NN campaign)(NN period))(VP (VBD began)(ADVP (NP (CD two)(NNS weeks))(RB ago))))))(. .)))(, ,)(ROOT (S (NP (NP (DT The)(NN display))(PP (IN of)(NP (E-VEH (NNS vehicles))))(, ,)(PP (IN with)(S (VP (VBG shouting)(NP (NP (E-PER (NNS supporters))))))))))) |ET| 11:5647 12:5648 13:5649 14:519 16:47 17:7 18:748 19:434 21:9 22:1028 23:5650 24:943 25:539 26:539 27:13 28:5651 29:187 30:5651 31:4448 32:72 33:5652 34:948 37:5653 38:949 40:187 41:4448 42:21 43:72 44:21 45:4448 46:21 47:72 48:22 49:22  |EV| 
-0.06203551088075240360630857594515  |BT| (NP (NP (PRP$ his)(NN nation)(POS 's))(ROOT (S (NP (PRP He))(VP (VBZ has)(VP (VBN taken)(NP (NNS steps))(S (VP (TO to)(VP (VP (VB modernize)(NP (NP (PRP$ his)(NN nation)(POS 's))(NN bureaucracy))))))))))) |BT| (BOW ) |BT| (BOH ) |BT| (BOH-NPs ) |BT| (LP (PRP$ *)(NP *)(NN *)) |BT| (LP-head (PRP$ *)(NP bureaucracy)(NN *)) |BT| (NP (NP (PRP$ his)(NN nation)(POS 's))(ROOT (S (NP (PRP He))(VP (VBZ has)(VP (VBN taken)(NP (NNS steps))(S (VP (TO to)(VP (VP (VB modernize)(NP (NP (PRP$ his)(NN nation)(POS 's))(NN bureaucracy))))))))))) |BT| (NP (ROOT (S (VP (VP (S (VP (VP (VP (NP (NP (E-PER (PRP$ his))(E-GPE (NN nation))(POS 's))(E-ORG (NN bureaucracy))))(CC and)(VP (VB revive)(NP (E-GPE (PRP$ its))(JJ stagnant)(NN economy))))))))(. .)))(ROOT (S (NP (E-PER (PRP He)))(VP (VBZ has)(VP (VBN taken)(NP (NNS steps))(S (VP (TO to)(VP (VP (VB modernize)(NP (NP (E-PER (PRP$ his))(E-GPE (NN nation))(POS 's))(E-ORG (NN bureaucracy)))))))))))) |ET| 5:19 11:299 12:300 13:32 14:33 16:25 17:7 18:301 21:144 22:149 23:65 24:302 25:118 26:118 27:292 28:58 29:289 30:58 31:291 32:292 33:172 34:303 35:19 37:292 38:304 40:289 41:293 42:21 43:21 44:21 45:293 46:21 47:21 48:22 49:22  |EV| 
-0.10770921197623350984429180243751  |BT| (NP (PRP$ his)(NN nation)) |BT| (BOW ) |BT| (BOH ) |BT| (BOH-NPs ) |BT| (LP (PRP$ *)(NP *)(NN *)) |BT| (LP-head (PRP$ *)(NP nation)(NN *)) |BT| (NP (PRP$ his)(NN nation)) |BT| (NP (ROOT (S (VP (VP (S (VP (VP (VP (NP (NP (E-PER (PRP$ his))(E-GPE (NN nation))(POS 's))(E-ORG (NN bureaucracy))))(CC and)(VP (VB revive)(NP (E-GPE (PRP$ its))(JJ stagnant)(NN economy))))))))(. .)))(ROOT (S (NP (E-PER (PRP He)))(VP (VBZ has)(VP (VBN taken)(NP (NNS steps))(S (VP (TO to)(VP (VP (VB modernize)(NP (NP (E-PER (PRP$ his))(E-GPE (NN nation))))))))))))) |ET| 11:294 12:295 13:32 14:33 16:7 17:7 18:143 21:144 22:149 23:65 24:297 25:118 26:118 27:31 28:31 29:289 30:279 31:291 32:289 33:172 34:298 35:19 36:19 37:292 38:292 39:19 40:289 41:293 42:21 43:21 44:21 45:293 46:21 47:21 48:22 49:22  |EV| 
-0.12499999999996855293282749244099  |BT| (NP (NN prison)(NNS doctors)) |BT| (BOW ) |BT| (BOH ) |BT| (BOH-NPs ) |BT| (LP (NN *)(NP *)(NNS *)) |BT| (LP-head (NN *)(NP doctors)(NNS *)) |BT| (NP (NN prison)(NNS doctors)) |BT| (NP (ROOT (S (VP (VP (VP (PP (NP (PP (NP (E-FAC (NN prison))(E-PER (NNS doctors)))))))))(. .)))(ROOT (S (SBAR (IN If)(S (NP (DT the)(E-PER (NN judge)))(VP (VBZ accepts)(NP (DT the)(NN guilty-but-mentally-ill)(NN plea)))))(, ,)(NP (E-PER (NNP Solomon)))(VP (VP (MD would)(ADVP (RB still))(VP (VB go)(PP (TO to)(NP (E-FAC (NN prison))))))(CC but)(VP (MD would)(VP (VB receive)(NP (JJ psychiatric)(NN treatment))(PP (IN under)(NP (NP (DT the)(NN care))(PP (IN of)(NP (E-FAC (NN prison))(E-PER (NNS doctors)))))))))))) |ET| 11:1038 12:1039 13:643 14:644 16:7 17:7 18:912 19:434 21:9 22:160 23:649 24:1040 25:913 26:913 27:31 28:31 29:187 30:655 31:1043 32:187 33:653 34:1041 35:19 36:19 37:1042 38:1042 39:19 40:187 41:1043 42:21 43:21 44:1047 45:1043 46:21 47:21 48:22 49:22  |EV| 
0.12095959939548794892516525578685  |BT| (SBAR (WHNP (WP who))(S (VP (VBD died)(NP-TMP (NNP Monday)(NN night))(PP (IN in)(NP (NP (DT the)(NN crash))(PP (IN of)(NP (DT a)(JJ small)(NN plane)))))))) |BT| (BOW (died *)(Monday *)(night *)(in *)(the *)(crash *)(of *)) |BT| (BOH (died *)(night *)(in *)(crash *)(of *)) |BT| (BOH-NPs (night *)(crash *)) |BT| (LP (WP *)(WHNP *)(SBAR *)(S *)(VP *)(PP *)(NP *)(PP *)(NP *)(NN *)) |BT| (LP-head (WP *)(WHNP *)(SBAR who)(S *)(VP *)(PP *)(NP *)(PP *)(NP *)(NN *)) |BT| (SBAR (WHNP (WP who))(S (VP (VBD died)(NP-TMP (NNP Monday)(NN night))(PP (IN in)(NP (NP (DT the)(NN crash))(PP (IN of)(NP (DT a)(JJ small)(NN plane)))))))) |BT| (SBAR (ROOT (S (VP (S (VP (VP (PP (NP (VP (PP (NP (S (VP (VP (PP (NP (SBAR (WHNP (E-PER (WP who)))(S (VP (VBD died)(NP-TMP (NNP Monday)(NN night))(PP (IN in)(NP (NP (DT the)(NN crash))(PP (IN of)(NP (DT a)(JJ small)(E-VEH (NN plane)))))))))))))))))))))))(. .)))(ROOT (S (NP (DT The)(E-ORG (NN commission)))(VP (VBD was)(S (VP (TO to)(VP (VB announce)(NP (DT the)(NNS plans))(ADVP (RBR later))(NP-TMP (NNP Tuesday))(, ,)(PP (IN with)(NP (NP (DT each)(E-PER (NN candidate)))(VP (VBN given)(NP-TMP (NN time))(PP (IN at)(NP (NP (DT the)(NN debate)(POS 's))(NN start)(S (VP (TO to)(VP (VB say)(NP (DT a)(JJ few)(NNS words))(PP (IN about)(NP (NP (E-PER (NNP Carnahan)))(, ,)(SBAR (WHNP (E-PER (WP who)))(S (VP (VBD died)(NP-TMP (NNP Monday)(NN night))(PP (IN in)(NP (NP (DT the)(NN crash))(PP (IN of)(NP (DT a)(JJ small)(E-VEH (NN plane)))))))))))))))))))))))))) |ET| 11:4854 12:4855 13:950 14:33 16:92 17:7 18:520 21:677 22:1477 23:953 24:4856 25:118 26:118 27:909 28:2466 29:13 30:2466 31:4744 32:430 33:954 34:4857 37:955 38:4858 40:4744 41:4744 42:1878 43:909 44:4853 45:1095 46:4859 47:187 48:1878 49:4859  |EV| 
-0.0298970870740717410696252187563  |BT| (S (SBAR (S (VP (PP (NP (NN parliament))))))(, ,)(NP (NP (DT a)(JJ nonpartisan)(NN government)))) |BT| (BOW (, *)) |BT| (BOH ) |BT| (BOH-NPs ) |BT| (LP (NN *)(NP *)(PP *)(VP *)(S *)(SBAR *)(S *)(NP *)(NN *)) |BT| (LP-head (NN *)(NP *)(PP *)(VP *)(S *)(SBAR *)(S outnumbered)(NP *)(NN *)) |BT| (S (SBAR (S (VP (PP (NP (NN parliament))))))(, ,)(NP (NP (DT a)(JJ nonpartisan)(NN government)))) |BT| (S (ROOT (S (SBAR (S (VP (PP (NP (E-ORG (NN parliament)))))))(, ,)(NP (NP (DT a)(JJ nonpartisan)(E-ORG (NN government)))(PP (IN of)(NP (E-PER (NNS experts))))(, ,)(SBAR (IN as)(S (VP (VBN favored)(PP (IN by)(NP (NP (E-PER (JJ many)))(PP (IN in)(NP (DT the)(E-PER (NNP Kostunica))(E-PER (NN camp)))))))))(, ,))(VP (VBZ has)(NP (NP (JJ little)(NN chance))(PP (IN of)(S (VP (VBG being)(VP (VBN formed)))))))(. .)))(, ,)(ROOT (S (SBAR (IN With)(S (NP (DT the)(E-ORG (NN opposition)))(VP (VBD outnumbered)(PP (IN in)(NP (E-ORG (NN parliament)))))))(, ,)(NP (NP (DT a)(JJ nonpartisan)(E-ORG (NN government))))))) |ET| 11:3409 12:3410 13:3406 14:24 16:47 17:7 18:435 19:310 21:9 22:311 23:2696 24:399 25:117 26:117 27:13 28:3411 29:106 30:3411 31:3408 32:430 33:2698 34:401 35:19 37:2699 38:400 40:106 41:1762 42:21 43:21 44:21 45:3408 46:21 47:21 48:22 49:22  |EV| 
-0.1194543262067385980262912426042  |BT| (VP (PP (NP (PP (NP (NN compound)))))(, ,)(PP (IN with)(S (NP (NNS crowds))))) |BT| (BOW ) |BT| (BOH (with *)) |BT| (BOH-NPs ) |BT| (LP (NN *)(NP *)(PP *)(NP *)(PP *)(VP *)(PP *)(S *)(NP *)(NNS *)) |BT| (LP-head (NN *)(NP *)(PP *)(NP *)(PP *)(VP degenerated)(PP *)(S *)(NP *)(NNS *)) |BT| (VP (PP (NP (PP (NP (NN compound)))))(, ,)(PP (IN with)(S (NP (NNS crowds))))) |BT| (VP (ROOT (S (VP (PP (NP (PP (NP (E-FAC (NN compound))))))(, ,)(PP (IN with)(S (NP (E-PER (NNS crowds)))(VP (VP (VBG vandalizing)(NP (DT the)(E-FAC (NN tomb))))(, ,)(VP (VBG setting)(NP (NNS fires)))(CC and)(VP (VBG hammering)(ADVP (RB away))(PP (IN at)(NP (DT the)(NN stone)(E-FAC (NNS buildings)))))))))(. .)))(, ,)(ROOT (S (PP (IN With)(NP (NP (DT the)(NN arrival))(PP (IN of)(NP (NP (NNS dozens))(PP (IN of)(NP (E-GPE (JJ Palestinian))(E-PER (NNS gunmen))))))))(, ,)(NP (DT the)(NN celebration))(VP (VBD degenerated)(PP (IN into)(NP (NP (DT a)(NN trashing))(PP (IN of)(NP (DT the)(E-FAC (NN compound))))))(, ,)(PP (IN with)(S (NP (E-PER (NNS crowds))))))))) |ET| 11:2319 12:33 13:2317 14:2219 16:25 17:7 18:912 19:1556 21:9 22:160 23:2252 24:2320 25:913 26:913 27:13 28:72 29:105 30:72 31:187 32:13 33:2255 34:2321 37:2254 38:2322 40:187 41:2318 42:21 43:72 44:2006 45:2318 46:21 47:72 48:22 49:22  |EV| 
-0.12499999999996855293282749244099  |BT| (NP (NP (NNS commissions))(PP (IN with)(NP (JJ key)(NNS countries)))) |BT| (BOW ) |BT| (BOH (with *)) |BT| (BOH-NPs ) |BT| (LP (NNS *)(NP *)(PP *)(NP *)(NNS *)) |BT| (LP-head (NNS *)(NP commissions)(PP *)(NP *)(NNS *)) |BT| (NP (NP (NNS commissions))(PP (IN with)(NP (JJ key)(NNS countries)))) |BT| (NP (ROOT (S (VP (VP (S (VP (PP (NP (NP (E-ORG (NNS commissions)))(PP (IN with)(NP (JJ key)(E-GPE (NNS countries))))(, ,)(PP (VBG including)(NP (NP (E-ORG (CD one)))(PP (IN with)(NP (JJ former)(E-GPE (NNP Russian))(NNP Prime)(E-PER (NNP Minister))(E-PER (NNP Viktor)(NNP Chernomyrdin))))))))))))(. .)))(ROOT (S (NP (E-PER (NNP Gore)))(VP (VBZ has)(VP (VBN been)(ADJP (JJ active)(PP (IN in)(NP (NP (JJ foreign)(NNS affairs))(PP (IN as)(NP (NN vice)(E-PER (NN president)))))))(, ,)(S (VP (VBG serving)(PP (IN on)(NP (NP (E-ORG (NNS commissions)))(PP (IN with)(NP (JJ key)(E-GPE (NNS countries))))))))))))) |ET| 11:2088 12:2089 13:2082 14:2083 16:25 17:7 18:130 19:2105 21:9 22:1028 23:2084 24:325 25:117 26:117 27:72 28:2090 29:97 30:2090 31:2085 32:72 33:2086 34:328 37:2087 38:330 40:97 41:60 42:21 43:72 44:1336 45:60 46:21 47:72 48:22 49:22  |EV| 
0.12499999999996855293282749244099  |BT| (NP (PRP$ his)(NN country)(NN house)) |BT| (BOW ) |BT| (BOH ) |BT| (BOH-NPs (house *)) |BT| (LP (PRP$ *)(NP *)(NN *)) |BT| (LP-head (PRP$ *)(NP southwest)(NN *)) |BT| (NP (PRP$ his)(NN country)(NN house)) |BT| (NP (ROOT (S (VP (PP (NP (NP (E-PER (PRP$ his))(E-LOC (NN country))(E-FAC (NN house))(NN southwest))(PP (IN of)(NP (E-GPE (NNP Santiago)))))))(. .)))(NN country)(ROOT (S (NP (E-PER (NNP Pinochet)))(, ,)(ADVP (RB meanwhile))(, ,)(VP (VBD remained)(PP (IN at)(NP (NP (E-PER (PRP$ his))(E-LOC (NN country))(E-FAC (NN house))))))))) |ET| 2:19 3:19 11:12172 12:644 13:32 14:33 16:6 17:7 18:647 21:144 22:149 23:2800 24:10737 25:118 26:118 27:1989 28:1989 29:921 30:1989 31:9483 32:279 33:2801 34:10740 35:19 37:12169 38:12169 39:19 40:921 41:12110 42:3238 43:21 44:21 45:9483 46:3238 47:21 48:22 49:22  |EV| 
-0.12499999999996855293282749244099  |BT| (NP (PRP$ His)(JJ leftist)(NN coalition)) |BT| (BOW ) |BT| (BOH ) |BT| (BOH-NPs (coalition *)) |BT| (LP (PRP$ *)(NP *)(NN *)) |BT| (LP-head (PRP$ *)(NP controls)(NN *)) |BT| (NP (PRP$ His)(JJ leftist)(NN coalition)) |BT| (NP (ROOT (NP (NP (E-PER (PRP$ His))(JJ leftist)(E-ORG (NN coalition))(NNS controls))(NP (NP (CD 46))(PP (IN of)(NP (NP (CD 178)(NNS seats))(PP (IN in)(NP (DT the)(JJ federal)(E-ORG (NN parliament)))))))(. .)))(JJ leftist)(ROOT (NP (NP (E-PER (PRP$ His))(JJ leftist)(E-ORG (NN coalition)))))) |ET| 5:19 11:2950 12:24 13:1286 14:33 16:6 17:7 18:301 21:144 22:149 23:1724 24:2648 25:118 26:118 27:2951 28:2951 29:14 30:2951 31:2699 32:1289 33:1721 34:2650 35:19 37:2952 38:2952 39:19 40:21 41:21 42:2636 43:21 44:21 45:21 46:2636 47:21 48:22 49:22  |EV| 
-0.12499999999996855293282749244099  |BT| (NP (PRP$ his)(NN republic)) |BT| (BOW ) |BT| (BOH ) |BT| (BOH-NPs ) |BT| (LP (PRP$ *)(NP *)(NN *)) |BT| (LP-head (PRP$ *)(NP republic)(NN *)) |BT| (NP (PRP$ his)(NN republic)) |BT| (NP (ROOT (NP (NP (PP (NP (NP (E-PER (PRP$ his))(E-GPE (NN republic)))(CC and)(PRN (, ,)(ADVP (RB indirectly))(, ,))(NP (NP (RB much))(PP (IN of)(NP (NP (DT the)(NN republic)(POS 's))(NN economy)))))))(. .)))(ROOT (NP (NP (E-PER (JJ Milutinovic))(NNS controls))(NP (NP (QP (RB approximately)(CD 100,000))(E-PER (NNS policemen)))(PP (IN in)(NP (NP (E-PER (PRP$ his))(E-GPE (NN republic))))))))) |ET| 11:3148 12:3149 13:32 14:33 16:7 17:7 18:143 21:144 22:149 23:2753 24:2858 25:118 26:118 27:31 28:31 29:106 30:279 31:3147 32:106 33:2756 34:2860 35:19 36:19 37:2861 38:2861 39:19 40:106 41:3147 42:21 43:21 44:2952 45:3147 46:21 47:21 48:22 49:22  |EV| 
0.12421668442009485555654890731603  |BT| (NP (NP (NNS residents))(PP (IN of)(NP (DT a)(JJ recreational)(NN vehicle)(NN park)))) |BT| (BOW (of *)(a *)) |BT| (BOH (of *)) |BT| (BOH-NPs (vehicle *)) |BT| (LP (NNS *)(NP *)(PP *)(NP *)(NN *)) |BT| (LP-head (NNS *)(NP residents)(PP *)(NP *)(NN *)) |BT| (NP (NP (NNS residents))(PP (IN of)(NP (DT a)(JJ recreational)(NN vehicle)(NN park)))) |BT| (NP (ROOT (S (NP (PP (PP (NP (NP (E-PER (NNS residents)))(PP (IN of)(NP (DT a)(JJ recreational)(E-VEH (NN vehicle))(E-FAC (NN park))))))))(VP (MD could)(VP (VB be)(ADJP (JJ pivotal))))(. .)))(ROOT (S (NP (NP (DT The)(NNS votes))(PP (IN of)(PP (IN about)(NP (NP (CD 9,000)(E-PER (NNS residents)))(PP (IN of)(NP (DT a)(JJ recreational)(E-VEH (NN vehicle))(E-FAC (NN park))))))))))) |ET| 11:7167 12:7168 13:7156 14:7157 16:55 17:6 18:647 19:159 21:9 22:339 23:7158 24:7169 25:118 26:118 27:187 28:7166 29:7161 30:7166 31:1095 32:7160 33:7162 34:7170 37:7164 38:7165 40:1095 41:5401 42:7166 43:187 44:21 45:187 46:7166 47:187 48:22 49:22  |EV| 
0.12499999999996855293282749244099  |BT| (NP (PRP$ his)(NN residence)) |BT| (BOW ) |BT| (BOH ) |BT| (BOH-NPs ) |BT| (LP (PRP$ *)(NP *)(NN *)) |BT| (LP-head (PRP$ *)(NP residence)(NN *)) |BT| (NP (PRP$ his)(NN residence)) |BT| (NP (ROOT (S (VP (PP (NP (PP (NP (NP (E-PER (PRP$ his))(E-FAC (NN residence)))(PP (IN in)(NP (E-GPE (NNP Washington)))))))))(. .)))(ROOT (S (ADVP (RB Indeed))(, ,)(SBAR (RB even)(IN as)(S (NP (E-PER (PRP$ his))(E-PER (NNS aides)))(VP (VBD were)(VP (VBG finalizing)(NP (NP (NNS plans))(PP (IN for)(NP (E-PER (PRP$ their))(NN assault))))))))(, ,)(NP (E-PER (NNP Gore)))(VP (VBD discussed)(NP (E-PER (PRP$ his))(NN education)(NNS proposals))(PP (IN on)(NP (NNP Sunday)(NN afternoon)))(PP (IN with)(NP (E-PER (NNS teachers))(, ,)(E-PER (NNS students))(CC and)(E-PER (NNS parents))))(PP (IN during)(NP (NP (DT a)(NN photo)(NN opportunity))(PP (IN at)(NP (NP (E-PER (PRP$ his))(E-FAC (NN residence))))))))))) |ET| 11:16149 12:16150 13:32 14:33 16:7 17:7 18:647 21:144 22:149 23:1370 24:6884 25:118 26:118 27:31 28:31 29:921 30:279 31:1368 32:921 33:1318 34:6885 35:19 36:19 37:6886 38:6886 39:19 40:921 41:1368 42:21 43:21 44:16151 45:1368 46:21 47:21 48:22 49:22  |EV| 
0.12499999999996855293282749244099  |BT| (NP (PRP$ his)(NN country)(NN house)) |BT| (BOW ) |BT| (BOH ) |BT| (BOH-NPs (house *)) |BT| (LP (PRP$ *)(NP *)(NN *)) |BT| (LP-head (PRP$ *)(NP southwest)(NN *)) |BT| (NP (PRP$ his)(NN country)(NN house)) |BT| (NP (ROOT (S (VP (PP (NP (NP (E-PER (PRP$ his))(E-LOC (NN country))(E-FAC (NN house))(NN southwest))(PP (IN of)(NP (E-GPE (NNP Santiago)))))))(. .)))(NN country)(ROOT (S (NP (E-PER (NNP Pinochet)))(, ,)(ADVP (RB meanwhile))(, ,)(VP (VBD remained)(PP (IN at)(NP (NP (E-PER (PRP$ his))(E-LOC (NN country))(E-FAC (NN house))))))))) |ET| 2:19 3:19 11:12172 12:644 13:32 14:33 16:6 17:7 18:647 21:144 22:149 23:2800 24:10737 25:118 26:118 27:1989 28:1989 29:921 30:1989 31:9483 32:279 33:2801 34:10740 35:19 37:12169 38:12169 39:19 40:921 41:12110 42:3238 43:21 44:21 45:9483 46:3238 47:21 48:22 49:22  |EV| 
-0.0035211821939329455283251846253734  |BT| (NP (NP (NNS supporters))(PP (IN of)(NP (NNP Suharto)))(, ,)(SBAR (WHNP (WP who)))) |BT| (BOW (of *)) |BT| (BOH (of *)(Suharto *)) |BT| (BOH-NPs (Suharto *)) |BT| (LP (NNS *)(NP *)(SBAR *)(WHNP *)(WP *)) |BT| (LP-head (NNS *)(NP supporters)(SBAR *)(WHNP *)(WP *)) |BT| (NP (NP (NNS supporters))(PP (IN of)(NP (NNP Suharto)))(, ,)(SBAR (WHNP (WP who)))) |BT| (NP (ROOT (S (NP (NP (E-PER (NNS supporters)))(PP (IN of)(NP (E-PER (NNP Suharto))))(, ,)(SBAR (WHNP (E-PER (WP who)))(S (VP (VBD ruled)(PP (IN for)(NP (CD 32)(NNS years)))(PP (IN until)(NP (NP (E-PER (PRP$ his))(NN ouster))(PP (IN in)(NP (CD 1998))))))))(, ,))(VP (VBD were)(PP (IN behind)(NP (DT the)(NNS attacks))))(. .)))(PP (IN of)(NP (NNP Suharto)))(, ,)(ROOT (S (NP (NP (E-PER (JJ Many))(JJ suspect)(E-PER (NNS supporters)))(PP (IN of)(NP (E-PER (NNP Suharto))))(, ,)(SBAR (WHNP (E-PER (WP who)))))))) |ET| 6:19 11:950 12:33 13:939 14:940 16:47 17:6 18:148 21:661 22:959 23:943 24:953 25:118 26:118 27:187 28:13 29:944 30:13 31:946 32:629 33:948 34:954 37:949 38:955 40:944 41:21 42:629 43:187 44:21 45:946 46:629 47:629 48:22 49:187  |EV| 
-0.017135358524725547574307782383585  |BT| (SBAR (WHNP (NP (WP$ whose)(NN bookstore))(PP (IN across)(NP (DT the)(NN street))))(S (VP (VBD was)(VP (VBN hit)(PP (IN by)(NP (NP (JJ stray)(NNS bullets)))))))) |BT| (BOW (bookstore *)(across *)(the *)(street *)(was *)(hit *)) |BT| (BOH (across *)(street *)(was *)(hit *)(by *)) |BT| (BOH-NPs (street *)) |BT| (LP (WP$ *)(NP *)(WHNP *)(SBAR *)(S *)(VP *)(PP *)(NP *)(NNS *)) |BT| (LP-head (WP$ *)(NP *)(WHNP *)(SBAR None)(S *)(VP *)(PP *)(NP *)(NNS *)) |BT| (SBAR (WHNP (NP (WP$ whose)(NN bookstore))(PP (IN across)(NP (DT the)(NN street))))(S (VP (VBD was)(VP (VBN hit)(PP (IN by)(NP (NP (JJ stray)(NNS bullets)))))))) |BT| (SBAR (ROOT (SINV (NP (NP (SBAR (WHNP (NP (E-PER (WP$ whose))(E-FAC (NN bookstore)))(PP (IN across)(NP (DT the)(NN street))))(S (VP (VBD was)(VP (VBN hit)(PP (IN by)(NP (NP (JJ stray)(E-WEA (NNS bullets)))(PP (IN in)(NP (DT the)(NN fighting)))))))))))(. .)))(ROOT (SINV (`` ``)(S (SBAR (WHNP (WP What))(S (NP (E-PER (PRP I)))(VP (VBP want)(S (VP (TO to)(VP (VB understand)))))))(VP (VBZ is)(SBAR (IN if)(S (NP (E-PER (NNP Joseph)))(VP (VBZ is)(RB not)(VP (VBN buried)(ADVP (E-FAC (RB there)))(, ,)(SBAR (WHADVP (WRB why))(S (NP (DT this)(E-FAC (NN place)))(VP (VBD was)(ADJP (RB so)(JJ important)))))))))))(, ,)('' '')(VP (VBD said))(NP (NP (E-PER (NNP Abdul)(NNP Fateh)(NNP Sayed)))(, ,)(NP (NP (CD 62))(, ,)(SBAR (WHNP (NP (E-PER (WP$ whose))(E-FAC (NN bookstore)))(PP (IN across)(NP (DT the)(NN street))))(S (VP (VBD was)(VP (VBN hit)(PP (IN by)(NP (NP (JJ stray)(E-WEA (NNS bullets)))))))))))))) |ET| 4:19 11:2601 12:2602 13:1965 14:33 16:85 17:7 18:1021 21:677 22:2613 23:1967 24:2603 25:118 26:118 27:2596 28:2604 29:13 30:2604 31:2595 32:460 33:1969 34:2605 37:2596 38:2606 40:2587 41:2587 42:900 43:2614 44:2612 45:2612 46:900 47:460 48:22 49:2607  |EV| 
