SVM-light Version V5.01-TK-1.2
5 # kernel type
3 # kernel parameter -d 
1 # kernel parameter -g 
1 # kernel parameter -s 
1 # kernel parameter -r 
empty# kernel parameter -u 
0.4 # kernel parameter -L 
1 # kernel parameter -T 
T # kernel parameter -C 
1 # kernel parameter -F 
1 # kernel parameter -S 
1.000000 # kernel parameter -D 
3 # kernel parameter -N 
S # kernel parameter -V 
S # kernel parameter -W 
49 # highest feature index 
16237 # number of training documents 
1245 # number of support vectors plus 1 
0.17694256 # threshold b, each following line is a SV (starting with alpha*y)
-0.12499999999996855293282749244099  |BT| (NP (NNP CAIRO)(, ,)(NNP Egypt)) |BT| (BOW ) |BT| (BOH ) |BT| (BOH-NPs ) |BT| (LP (NNP *)(NP *)(NNP *)) |BT| (LP-head (NNP *)(NP Egypt)(NNP *)) |BT| (NP (NNP CAIRO)(, ,)(NNP Egypt)) |BT| (NP (ROOT (S (NP (NP (E-GPE (NNP CAIRO))(, ,)(E-GPE (NNP Egypt)))(PRN (-LRB- -LRB-)(NP (NNP AP))(-RRB- -RRB-)))(PP (NP (CD _))(IN In)(NP (NP (E-PER (PRP$ his))(JJ foreign)(NN policy)(NN debut))(PP (IN as)(NP (NP (E-GPE (NNP Syria))(POS 's))(E-PER (NN president))))))(, ,)(NP (E-PER (NNP Bashar)(NNP Assad)))(VP (VBD met)(NP-TMP (NNP Sunday))(PP (IN with)(NP (NP (NP (E-GPE (NNP Egyptian))(E-PER (NNP President))(E-PER (NNP Hosni)(NNP Mubarak)))(PP (IN in)(NP (NP (NNS talks))(PP (IN on)(NP (E-LOC (JJ Mideast))(NN peace))))))(CC and)(NP (NP (DT the)(VBG escalating)(NN violence))(PP (IN in)(NP (DT the)(E-GPE (JJ Palestinian))(E-GPE (NNS territories))))))))(. .)))(, ,)(ROOT (S (NP (NP (E-GPE (NNP CAIRO))(, ,)(E-GPE (NNP Egypt))))))) |ET| 10:1 11:2 12:3 13:4 14:5 16:6 17:7 18:8 21:9 22:10 23:11 24:12 25:1 26:1 27:13 28:13 29:14 30:13 31:15 32:16 33:17 34:18 35:19 37:20 38:20 39:19 40:21 41:21 42:21 43:21 44:21 45:21 46:21 47:21 48:22 49:22  |EV| 
0.039500809558000685162149068219151  |BT| (NP (NP (NNP Frank)(NNP Thomas))(PP (IN of)(NP (DT the)(NNP Chicago)(NNP White)(NNPS Sox)))) |BT| (BOW ) |BT| (BOH (of *)) |BT| (BOH-NPs (White *)) |BT| (LP (NNP *)(NP *)(PP *)(NP *)(NNPS *)) |BT| (LP-head (NNP *)(NP Thomas)(PP *)(NP *)(NNPS *)) |BT| (NP (NP (NNP Frank)(NNP Thomas))(PP (IN of)(NP (DT the)(NNP Chicago)(NNP White)(NNPS Sox)))) |BT| (NP (ROOT (FRAG (SBAR (S (VP (SBAR (S (VP (PP (NP (NP (NP (E-PER (NNP Frank)(NNP Thomas)))(PP (IN of)(NP (DT the)(E-ORG (NNP Chicago)(NNP White)(NNPS Sox)))))))))))))(. .)))(ROOT (FRAG (CC and)(NP (NP (E-PER (NNP Mark)(NNP McGwire))(, ,))(SBAR (S (VP (VBG joining)(S (NP (JJ such)(JJ prestigious)(NNS names))(NP (NP (ADJP (IN as))(E-PER (NNP Stan)(NNP Musial))(PRN (-LRB- -LRB-)(NP (CD '40s))(-RRB- -RRB-))(, ,)(E-PER (NNP Ted)(NNP Williams))(PRN (-LRB- -LRB-)(NP (CD '50s))(-RRB- -RRB-))(, ,)(E-PER (NNP Willie)(NNP Mays))(PRN (-LRB- -LRB-)(NP (CD '60s))(-RRB- -RRB-))(, ,)(E-PER (NNP Pete)(NNP Rose))(PRN (-LRB- -LRB-)(NP (CD '70s))(-RRB- -RRB-)))(CC and)(NP (E-PER (NNP Mike)(NNP Schmidt))(PRN (-LRB- -LRB-)(NP (NNS '80s))(-RRB- -RRB-))))))))(. .))(SBAR (S (PP (IN In)(NP (NP (CD 10)(NNS years))(PP (IN of)(NP (NP (E-PER (NN MVP))(NN voting))(PP (IN in)(NP (DT the)(NNS '90s)))))))(, ,)(NP (E-PER (PRP he)))(VP (VBD received)(SBAR (S (NP (DT the)(JJS most)(NNS points))(VP (VBP __)(NP (CD 1,895))(, ,)(ADVP (NP (QP (RB nearly)(CD 500)))(JJR more))(PP (IN than)(NP (NP (DT the)(JJ next)(JJS highest)(E-PER (NN vote-getter)))(, ,)(NP (NP (E-PER (NNP Frank)(NNP Thomas)))(PP (IN of)(NP (DT the)(E-ORG (NNP Chicago)(NNP White)(NNPS Sox)))))))))))))))) |ET| 5:19 11:15965 12:15966 13:15960 14:15961 16:25 17:7 18:301 21:9 22:10 23:15963 24:10654 25:118 26:118 27:187 28:105 29:13 30:105 31:15959 32:187 33:15964 34:10655 37:13536 38:10656 40:15959 41:15959 42:2015 43:187 44:5561 45:5550 46:2015 47:187 48:22 49:22  |EV| 
0.12491769511919666169053044768589  |BT| (NP (NP (NNPS Mets)(POS '))(ROOT (S (S (S (NP (PRP He))(VP (VBZ 's)(ADJP (JJ due)(S (VP (TO to)(VP (VB break)(PRT (RP out))(PP (IN with)(NP (NP (DT a)(NN barrage))(PP (IN against)(NP (DT the)(NNPS Mets)))))))))))(: ;)(RB then)(S (ADVP (RB again))(, ,)(NP (NP (DT the)(NNPS Mets)(POS '))(NNS pitchers))))))) |BT| (BOW ) |BT| (BOH ) |BT| (BOH-NPs ) |BT| (LP (NNPS *)(NP *)(NNS *)) |BT| (LP-head (NNPS *)(NP pitchers)(NNS *)) |BT| (NP (NP (NNPS Mets)(POS '))(ROOT (S (S (S (NP (PRP He))(VP (VBZ 's)(ADJP (JJ due)(S (VP (TO to)(VP (VB break)(PRT (RP out))(PP (IN with)(NP (NP (DT a)(NN barrage))(PP (IN against)(NP (DT the)(NNPS Mets)))))))))))(: ;)(RB then)(S (ADVP (RB again))(, ,)(NP (NP (DT the)(NNPS Mets)(POS '))(NNS pitchers))))))) |BT| (NP (ROOT (S (S (S (NP (NP (E-ORG (NNPS Mets))(POS '))(E-PER (NNS pitchers)))(VP (VBP know)(SBAR (IN that)(S (, ,)(PP (IN in)(NP (E-PER (PRP$ his))(NN desperation)(S (VP (TO to)(VP (VB show)(SBAR (IN that)(S (NP (E-PER (PRP he)))(ADVP (RB really))(VP (VBZ is)(NP (NP (DT the)(`` ``)(JJS best))(NP (E-PER (NN player))))))))))))(NP (EX there))(VP (VBZ is)))))))(, ,)('' '')(NP (E-PER (PRP he)))(VP (MD might)(VP (VB be)(ADJP (JJ willing)(S (VP (TO to)(VP (VB swing)(PP (IN at)(NP (NP (NNS pitches))(SBAR (S (NP (PRP he))(VP (MD might)(VP (VB ignore)(PP (IN during)(NP (DT the)(JJ regular)(NN season)))))))))))))))(. .)))(ROOT (S (S (S (NP (E-PER (PRP He)))(VP (VBZ 's)(ADJP (JJ due)(S (VP (TO to)(VP (VB break)(PRT (RP out))(PP (IN with)(NP (NP (DT a)(NN barrage))(PP (IN against)(NP (DT the)(E-ORG (NNPS Mets))))))))))))(: ;)(RB then)(S (ADVP (RB again))(, ,)(NP (NP (DT the)(E-ORG (NNPS Mets))(POS '))(E-PER (NNS pitchers)))))))) |ET| 5:19 11:16029 12:16030 13:16025 14:1895 16:6 17:7 18:126 21:9 22:2359 23:10774 24:16031 25:117 26:117 27:3291 28:3291 29:105 30:3291 31:13 32:10666 33:10777 34:16032 35:19 37:10666 38:16033 40:12072 41:16028 42:21 43:21 44:21 45:594 46:21 47:21 48:22 49:22  |EV| 
0.057587878434645405067993095826751  |BT| (SBAR (WHNP (WP who))(S (VP (VBP work)(PP (IN for)(NP (NP (DT those))(CC and)(NP (NP (JJ other)(ADJP (RB financially)(JJ shaky))(NNS companies)))))))) |BT| (BOW (work *)(for *)(those *)(and *)(other *)) |BT| (BOH (work *)(for *)(other *)(shaky *)) |BT| (BOH-NPs ) |BT| (LP (WP *)(WHNP *)(SBAR *)(S *)(VP *)(PP *)(NP *)(NNS *)) |BT| (LP-head (WP *)(WHNP *)(SBAR who)(S *)(VP *)(PP *)(NP *)(NNS *)) |BT| (SBAR (WHNP (WP who))(S (VP (VBP work)(PP (IN for)(NP (NP (DT those))(CC and)(NP (NP (JJ other)(ADJP (RB financially)(JJ shaky))(NNS companies)))))))) |BT| (SBAR (ROOT (S (VP (NP (PP (NP (SBAR (WHNP (E-PER (WP who)))(S (VP (VBP work)(PP (IN for)(NP (NP (E-ORG (DT those)))(CC and)(NP (NP (JJ other)(ADJP (RB financially)(JJ shaky))(E-ORG (NNS companies)))(, ,)(SBAR (WHNP (E-ORG (WDT which)))(S (VP (VBP have)(VP (VBN been)(VP (VBG surviving)(PP (IN on)(NP (NN emergency)(E-ORG (NN bank))(NNS loans))))))))))))))))))(. .)))(ROOT (S (NP (DT The)(NN move))(VP (JJ shocked)(NP (NP (QP (NNS tens)(IN of)(NNS thousands)))(PP (IN of)(NP (NP (E-PER (NNS workers)))(SBAR (WHNP (E-PER (WP who)))(S (VP (VBP work)(PP (IN for)(NP (NP (E-ORG (DT those)))(CC and)(NP (NP (JJ other)(ADJP (RB financially)(JJ shaky))(E-ORG (NNS companies)))))))))))))))) |ET| 4:19 5:19 11:10494 12:10495 13:950 14:33 16:34 17:6 18:301 21:677 22:1600 23:953 24:8269 25:118 26:118 27:3805 28:10496 29:5277 30:10496 31:187 32:10486 33:954 34:8271 37:955 38:8272 40:5277 41:5277 42:21 43:3805 44:6379 45:187 46:21 47:10496 48:22 49:545  |EV| 
-0.11125315862197193705895870152744  |BT| (NN businessman) |BT| (BOW ) |BT| (BOH ) |BT| (BOH-NPs ) |BT| (LP (NN *)(NP *)(NNP *)) |BT| (LP-head (NN *)(NP Gelael)(NNP *)) |BT| (NN businessman) |BT| (NP (ROOT (S (NP (NP (E-PER (NN businessman))(E-PER (NNP Riccardo)(NNP Gelael)))(, ,))(ADVP (RB separately))(VP (VP (VBD admitted)(NP (E-PER (PRP$ his))(NN guilt))(NP-TMP (NNP Monday))(PP (TO to)(NP (E-PER (NNS prosecutors)))))(CC and)(VP (VBD said)(SBAR (S (NP (E-PER (PRP he)))(VP (MD would)(VP (VB appeal)(PP (TO to)(NP (NP (E-PER (NNP President))(E-PER (NNP Abdurrahman)(NNP Wahid)))(PP (IN for)(NP (DT a)(NN pardon)))))))))))(. .)))(ROOT (S (NP (NP (NP (DT A)(E-PER (NN co-defendant)))(PP (IN in)(NP (NP (E-PER (NNP Tommy))(POS 's))(NN case))))(, ,)(NP (E-PER (NN businessman))(E-PER (NNP Riccardo)(NNP Gelael))))))) |ET| 11:826 12:827 13:821 14:33 16:7 17:7 18:148 21:9 22:157 23:822 24:828 25:118 26:118 27:31 28:31 29:13 30:829 31:823 32:13 33:824 34:830 35:19 36:19 37:825 38:825 39:19 40:823 41:823 42:21 43:21 44:657 45:657 46:21 47:21 48:22 49:22  |EV| 
0.12499999999996855293282749244099  |BT| (NP (NP (NNP Syria)(POS 's))(ROOT (S (NP (NP (NNP CAIRO)(, ,)(NNP Egypt))(PRN (-LRB- -LRB-)(NP (NNP AP))(-RRB- -RRB-)))(PP (NP (CD _))(IN In)(NP (NP (PRP$ his)(JJ foreign)(NN policy)(NN debut))(PP (IN as)(NP (NP (NNP Syria)(POS 's))(NN president)))))))) |BT| (BOW ) |BT| (BOH ) |BT| (BOH-NPs ) |BT| (LP (NNP *)(NP *)(NN *)) |BT| (LP-head (NNP *)(NP president)(NN *)) |BT| (NP (NP (NNP Syria)(POS 's))(ROOT (S (NP (NP (NNP CAIRO)(, ,)(NNP Egypt))(PRN (-LRB- -LRB-)(NP (NNP AP))(-RRB- -RRB-)))(PP (NP (CD _))(IN In)(NP (NP (PRP$ his)(JJ foreign)(NN policy)(NN debut))(PP (IN as)(NP (NP (NNP Syria)(POS 's))(NN president)))))))) |BT| (NP (ROOT (S (PP (NP (PP (NP (NP (E-GPE (NNP Syria))(POS 's))(E-PER (NN president))))))(, ,)(NP (E-PER (NNP Bashar)(NNP Assad)))(VP (VBD met)(NP-TMP (NNP Sunday))(PP (IN with)(NP (NP (NP (E-GPE (NNP Egyptian))(E-PER (NNP President))(E-PER (NNP Hosni)(NNP Mubarak)))(PP (IN in)(NP (NP (NNS talks))(PP (IN on)(NP (E-LOC (JJ Mideast))(NN peace))))))(CC and)(NP (NP (DT the)(VBG escalating)(NN violence))(PP (IN in)(NP (DT the)(E-GPE (JJ Palestinian))(E-GPE (NNS territories))))))))(. .)))(ROOT (S (NP (NP (E-GPE (NNP CAIRO))(, ,)(E-GPE (NNP Egypt)))(PRN (-LRB- -LRB-)(NP (NNP AP))(-RRB- -RRB-)))(PP (NP (CD _))(IN In)(NP (NP (E-PER (PRP$ his))(JJ foreign)(NN policy)(NN debut))(PP (IN as)(NP (NP (E-GPE (NNP Syria))(POS 's))(E-PER (NN president))))))))) |ET| 1:19 9:118 11:52 12:53 13:44 14:45 16:6 17:7 18:35 21:9 22:56 23:48 24:57 25:1 26:1 27:58 28:58 29:49 30:58 31:42 32:51 33:50 34:59 35:19 37:51 38:60 40:49 41:42 42:21 43:21 44:147 45:42 46:21 47:21 48:22 49:22  |EV| 
0.12499999999996855293282749244099  |BT| (NP (NNP Egyptian)(NNP President)) |BT| (BOW ) |BT| (BOH ) |BT| (BOH-NPs ) |BT| (LP (NNP *)(NP *)(NNP *)) |BT| (LP-head (NNP *)(NP Mubarak)(NNP *)) |BT| (NP (NNP Egyptian)(NNP President)) |BT| (NP (ROOT (S (VP (PP (NP (NP (NP (E-GPE (NNP Egyptian))(E-PER (NNP President))(E-PER (NNP Hosni)(NNP Mubarak)))(PP (IN in)(NP (NP (NNS talks))(PP (IN on)(NP (E-LOC (JJ Mideast))(NN peace))))))(CC and)(NP (NP (DT the)(VBG escalating)(NN violence))(PP (IN in)(NP (DT the)(E-GPE (JJ Palestinian))(E-GPE (NNS territories))))))))(. .)))(ROOT (S (NP (NP (E-GPE (NNP CAIRO))(, ,)(E-GPE (NNP Egypt)))(PRN (-LRB- -LRB-)(NP (NNP AP))(-RRB- -RRB-)))(PP (NP (CD _))(IN In)(NP (NP (E-PER (PRP$ his))(JJ foreign)(NN policy)(NN debut))(PP (IN as)(NP (NP (E-GPE (NNP Syria))(POS 's))(E-PER (NN president))))))(, ,)(NP (E-PER (NNP Bashar)(NNP Assad)))(VP (VBD met)(NP-TMP (NNP Sunday))(PP (IN with)(NP (NP (NP (E-GPE (NNP Egyptian))(E-PER (NNP President)))))))))) |ET| 1:19 11:76 12:33 13:68 14:5 16:7 17:7 18:35 21:9 22:10 23:71 24:78 25:1 26:1 27:31 28:31 29:72 30:79 31:73 32:72 33:74 34:80 35:19 36:19 37:75 38:75 39:19 40:72 41:73 42:21 43:21 44:67 45:73 46:21 47:21 48:22 49:22  |EV| 
0.12499999999996855293282749244099  |BT| (NP (NNP Egyptian)(NNP Foreign)(NNP Minister)) |BT| (BOW ) |BT| (BOH ) |BT| (BOH-NPs (Amr *)) |BT| (LP (NNP *)(NP *)(NNP *)) |BT| (LP-head (NNP *)(NP Mussa)(NNP *)) |BT| (NP (NNP Egyptian)(NNP Foreign)(NNP Minister)) |BT| (NP (ROOT (S (NP (E-GPE (NNP Egyptian))(NNP Foreign)(E-PER (NNP Minister))(E-PER (NNP Amr)(NNP Mussa)))(VP (VBD said))(. .)))(NNP Foreign)(ROOT (S (S (NP (NP (E-PER (NNP Assad)))(, ,)(PP (IN on)(NP (NP (E-PER (PRP$ his))(JJ first)(NN trip))(ADVP (E-LOC (RB abroad))(PP (IN since)(S (VP (VBG becoming)(NP (E-PER (NN president)))(PP (IN in)(NP (NNP July)))))))))(, ,))(ADVP (RB also))(VP (VBD dealt)(PP (IN with)(NP (NP (DT the)(NN issue))(PP (IN of)(NP (E-GPE (NNP Iraq))))))(PP (IN in)(NP (NP (DT the)(NNS talks))(PP (IN with)(NP (E-PER (NNP Mubarak))))))))(, ,)(NP (E-GPE (NNP Egyptian))(NNP Foreign)(E-PER (NNP Minister)))))) |ET| 1:19 11:197 12:33 13:68 14:5 16:6 17:7 18:35 21:9 22:10 23:71 24:199 25:1 26:1 27:200 28:200 29:13 30:200 31:75 32:79 33:74 34:201 35:19 37:196 38:196 39:19 40:75 41:75 42:202 43:21 44:98 45:72 46:202 47:21 48:22 49:22  |EV| 
0.12499999999996855293282749244099  |BT| (NP (JJ Syrian)(NN leader)) |BT| (BOW ) |BT| (BOH ) |BT| (BOH-NPs ) |BT| (LP (JJ *)(NP *)(NN *)) |BT| (LP-head (JJ *)(NP leader)(NN *)) |BT| (NP (JJ Syrian)(NN leader)) |BT| (NP (ROOT (S (NP (NP (E-GPE (JJ Syrian))(E-PER (NN leader))(POS 's))(NN visit))(VP (VBD came)(PP (IN on)(NP (NP (DT a)(JJ fourth)(NN day))(PP (IN of)(NP (NP (NNS clashes))(SBAR (WHNP (WDT that))(S (VP (VBP have)(VP (VBN raged)(PP (IN in)(NP (NP (DT the)(E-LOC (NNP West)(NNP Bank)))(, ,)(NP (E-LOC (NNP Gaza)(NNP Strip)))(CC and)(NP (E-GPE (NNP Jerusalem)))))))))))))(, ,)(S (VP (VBG leaving)(S (NP (QP (XS (JJR more)(IN than))(CD two)(NN dozen))(E-PER (NNPS Palestinians)))(ADJP (JJ dead))))))(. .)))(ROOT (S (NP (NP (DT The)(E-GPE (JJ Syrian))(E-PER (NN leader))))))) |ET| 11:214 12:215 13:216 14:5 16:7 17:7 18:35 21:165 22:217 23:218 24:219 25:1 26:1 27:31 28:31 29:220 30:221 31:14 32:220 33:222 34:223 35:19 36:19 37:224 38:224 39:19 40:221 41:21 42:21 43:21 44:21 45:21 46:21 47:21 48:22 49:22  |EV| 
0.12499999999996855293282749244099  |BT| (NP (PRP$ his)(NN nation)) |BT| (BOW ) |BT| (BOH ) |BT| (BOH-NPs ) |BT| (LP (PRP$ *)(NP *)(NN *)) |BT| (LP-head (PRP$ *)(NP nation)(NN *)) |BT| (NP (PRP$ his)(NN nation)) |BT| (NP (ROOT (S (VP (VP (S (VP (VP (VP (NP (NP (E-PER (PRP$ his))(E-GPE (NN nation))(POS 's))(E-ORG (NN bureaucracy))))(CC and)(VP (VB revive)(NP (E-GPE (PRP$ its))(JJ stagnant)(NN economy))))))))(. .)))(ROOT (S (NP (E-PER (PRP He)))(VP (VBZ has)(VP (VBN taken)(NP (NNS steps))(S (VP (TO to)(VP (VP (VB modernize)(NP (NP (E-PER (PRP$ his))(E-GPE (NN nation))))))))))))) |ET| 11:294 12:295 13:32 14:33 16:7 17:7 18:143 21:144 22:149 23:65 24:297 25:118 26:118 27:31 28:31 29:289 30:279 31:291 32:289 33:172 34:298 35:19 36:19 37:292 38:292 39:19 40:289 41:293 42:21 43:21 44:21 45:293 46:21 47:21 48:22 49:22  |EV| 
-0.12499999999996855293282749244099  |BT| (NNP Egyptian) |BT| (BOW ) |BT| (BOH ) |BT| (BOH-NPs (Amr *)) |BT| (LP (NNP *)(NP *)(NNP *)) |BT| (LP-head (NNP *)(NP Mussa)(NNP *)) |BT| (NNP Egyptian) |BT| (NP (ROOT (S (NP (E-GPE (NNP Egyptian))(NNP Foreign)(E-PER (NNP Minister))(E-PER (NNP Amr)(NNP Mussa)))(VP (VBD said))(. .)))(NNP Foreign)(NNP Minister)(ROOT (S (S (NP (NP (E-PER (NNP Assad)))(, ,)(PP (IN on)(NP (NP (E-PER (PRP$ his))(JJ first)(NN trip))(ADVP (E-LOC (RB abroad))(PP (IN since)(S (VP (VBG becoming)(NP (E-PER (NN president)))(PP (IN in)(NP (NNP July)))))))))(, ,))(ADVP (RB also))(VP (VBD dealt)(PP (IN with)(NP (NP (DT the)(NN issue))(PP (IN of)(NP (E-GPE (NNP Iraq))))))(PP (IN in)(NP (NP (DT the)(NNS talks))(PP (IN with)(NP (E-PER (NNP Mubarak))))))))(, ,)(NP (E-GPE (NNP Egyptian))(NNP Foreign)(E-PER (NNP Minister))(E-PER (NNP Amr)(NNP Mussa)))))) |ET| 11:203 12:204 13:68 14:5 16:25 17:6 18:35 21:9 22:10 23:71 24:205 25:1 26:1 27:200 28:206 29:13 30:206 31:75 32:200 33:74 34:207 35:19 37:196 38:196 39:19 40:75 41:75 42:202 43:21 44:98 45:72 46:202 47:21 48:22 49:22  |EV| 
-0.12499999999996855293282749244099  |BT| (NP (NP (PRP$ his)(NN nation)(POS 's))(ROOT (S (NP (PRP He))(VP (VBZ has)(VP (VBN taken)(NP (NNS steps))(S (VP (TO to)(VP (VP (VB modernize)(NP (NP (PRP$ his)(NN nation)(POS 's))(NN bureaucracy))))))))))) |BT| (BOW ) |BT| (BOH ) |BT| (BOH-NPs ) |BT| (LP (PRP$ *)(NP *)(NN *)) |BT| (LP-head (PRP$ *)(NP bureaucracy)(NN *)) |BT| (NP (NP (PRP$ his)(NN nation)(POS 's))(ROOT (S (NP (PRP He))(VP (VBZ has)(VP (VBN taken)(NP (NNS steps))(S (VP (TO to)(VP (VP (VB modernize)(NP (NP (PRP$ his)(NN nation)(POS 's))(NN bureaucracy))))))))))) |BT| (NP (ROOT (S (VP (VP (S (VP (VP (VP (NP (NP (E-PER (PRP$ his))(E-GPE (NN nation))(POS 's))(E-ORG (NN bureaucracy))))(CC and)(VP (VB revive)(NP (E-GPE (PRP$ its))(JJ stagnant)(NN economy))))))))(. .)))(ROOT (S (NP (E-PER (PRP He)))(VP (VBZ has)(VP (VBN taken)(NP (NNS steps))(S (VP (TO to)(VP (VP (VB modernize)(NP (NP (E-PER (PRP$ his))(E-GPE (NN nation))(POS 's))(E-ORG (NN bureaucracy)))))))))))) |ET| 5:19 11:299 12:300 13:32 14:33 16:25 17:7 18:301 21:144 22:149 23:65 24:302 25:118 26:118 27:292 28:58 29:289 30:58 31:291 32:292 33:172 34:303 35:19 37:292 38:304 40:289 41:293 42:21 43:21 44:21 45:293 46:21 47:21 48:22 49:22  |EV| 
-0.12499999999996855293282749244099  |BT| (NP (PRP$ his)(NN father)) |BT| (BOW ) |BT| (BOH ) |BT| (BOH-NPs ) |BT| (LP (PRP$ *)(NP *)(NN *)) |BT| (LP-head (PRP$ *)(NP father)(NN *)) |BT| (NP (PRP$ his)(NN father)) |BT| (NP (ROOT (S (VP (VP (S (SBAR (S (VP (S (VP (VP (NP (NP (E-PER (PRP$ his))(E-PER (NN father))(POS 's))(NN course))(PP (IN in)(NP (DT any)(NNS negotiations)))(PP (IN with)(NP (E-GPE (NNP Israel)))))))))))))(. .)))(ROOT (S (NP (E-PER (NNP Assad)))(VP (VBZ has)(VP (VBN made)(S (NP (PRP it))(ADJP (JJ clear))(SBAR (S (NP (E-PER (PRP he)))(VP (VBZ intends)(S (VP (TO to)(VP (VB follow)(NP (NP (E-PER (PRP$ his))(E-PER (NN father)))))))))))))))) |ET| 2:19 3:19 6:19 7:19 8:19 11:496 12:497 13:32 14:33 16:7 17:7 18:148 21:144 22:149 23:65 24:278 25:118 26:118 27:31 28:31 29:494 30:279 31:291 32:494 33:172 34:280 35:19 36:19 37:274 38:274 39:19 40:494 41:67 42:21 43:21 44:21 45:495 46:21 47:21 48:22 49:22  |EV| 
0.12499999999996855293282749244099  |BT| (VP (VBN IMUnified)(, ,)(NP (NP (NN coalition))(VP (VBN formed)(PP (IN by)(NP (NP (NNP AT&T)(, ,)(NNP ExciteAtHome))))))) |BT| (BOW (formed *)(by *)) |BT| (BOH (coalition *)(formed *)(by *)(ExciteAtHome *)) |BT| (BOH-NPs (coalition *)(ExciteAtHome *)) |BT| (LP (VBN *)(VP *)(NP *)(VP *)(PP *)(NP *)(NNP *)) |BT| (LP-head (VBN *)(VP IMUnified)(NP *)(VP *)(PP *)(NP *)(NNP *)) |BT| (VP (VBN IMUnified)(, ,)(NP (NP (NN coalition))(VP (VBN formed)(PP (IN by)(NP (NP (NNP AT&T)(, ,)(NNP ExciteAtHome))))))) |BT| (VP (ROOT (VP (VBN IMUnified)(, ,)))(, ,)(ROOT (VP (VBN IMUnified)(, ,)(NP (NP (NN coalition))(VP (VBN formed)(PP (IN by)(NP (NP (E-ORG (NNP AT&T))(, ,)(E-ORG (NNP ExciteAtHome)))))))))) |ET| 11:15298 12:24 13:15469 14:15470 16:55 17:6 18:435 21:8591 22:15471 23:15472 24:15299 25:117 26:117 27:13761 28:13 29:3813 30:13 31:15473 32:12442 33:15474 34:15300 37:15475 38:15262 40:21 41:21 42:2636 43:2636 44:21 45:21 46:15294 47:15294 48:2636 49:460  |EV| 
0.12499999999996855293282749244099  |BT| (VP (VBN IMUnified)(, ,)(NP (NP (NN coalition))(VP (VBN formed)(PP (IN by)(NP (NP (NNP AT&T)(, ,)(NNP ExciteAtHome)(, ,)(NNP Microsoft))))))) |BT| (BOW (formed *)(by *)(AT&T *)(, *)) |BT| (BOH (coalition *)(formed *)(by *)(ExciteAtHome *)) |BT| (BOH-NPs (coalition *)(ExciteAtHome *)) |BT| (LP (VBN *)(VP *)(NP *)(VP *)(PP *)(NP *)(NNP *)) |BT| (LP-head (VBN *)(VP IMUnified)(NP *)(VP *)(PP *)(NP *)(NNP *)) |BT| (VP (VBN IMUnified)(, ,)(NP (NP (NN coalition))(VP (VBN formed)(PP (IN by)(NP (NP (NNP AT&T)(, ,)(NNP ExciteAtHome)(, ,)(NNP Microsoft))))))) |BT| (VP (ROOT (VP (VBN IMUnified)(, ,)))(, ,)(ROOT (VP (VBN IMUnified)(, ,)(NP (NP (NN coalition))(VP (VBN formed)(PP (IN by)(NP (NP (E-ORG (NNP AT&T))(, ,)(E-ORG (NNP ExciteAtHome))(, ,)(E-ORG (NNP Microsoft)))))))))) |ET| 11:15476 12:15477 13:15469 14:15470 16:70 17:25 18:435 21:8591 22:15471 23:15472 24:15260 25:117 26:117 27:13761 28:13 29:3813 30:13 31:15473 32:15294 33:15474 34:15261 37:15475 38:15262 40:21 41:21 42:2636 43:2636 44:21 45:21 46:15294 47:15294 48:2636 49:460  |EV| 
-0.010061597700669564284248203023253  |BT| (S (S (NP (ADJP (JJ suspect)))(VP (VBD died)(ADVP (RB later))(NP-TMP (DT the)(JJ same)(NN night))))(, ,)(NP (NN hospital)(NN spokeswoman))) |BT| (BOW (died *)(later *)(the *)(same *)(night *)) |BT| (BOH (died *)(later *)(night *)) |BT| (BOH-NPs (night *)(Rebecca *)) |BT| (LP (JJ *)(ADJP *)(NP *)(S *)(NP *)(NN *)) |BT| (LP-head (JJ *)(ADJP *)(NP *)(S died)(NP *)(NN *)) |BT| (S (S (NP (ADJP (JJ suspect)))(VP (VBD died)(ADVP (RB later))(NP-TMP (DT the)(JJ same)(NN night))))(, ,)(NP (NN hospital)(NN spokeswoman))) |BT| (S (ROOT (S (S (NP (ADJP (E-PER (JJ suspect))))(VP (VBD died)(ADVP (RB later))(NP-TMP (DT the)(JJ same)(NN night))))(, ,)(NP (E-ORG (NN hospital))(E-PER (NN spokeswoman))(E-PER (NNP Rebecca)(NNP O'Grady)))(VP (VBD said)(NP-TMP (NNP Thursday)))(. .)))(, ,)(ROOT (S (S (NP (DT The)(ADJP (E-PER (JJ suspect))))(VP (VBD died)(ADVP (RB later))(NP-TMP (DT the)(JJ same)(NN night))))(, ,)(NP (E-ORG (NN hospital))(E-PER (NN spokeswoman)))))) |ET| 11:3617 12:33 13:3613 14:2066 16:34 17:6 18:148 19:381 21:165 22:217 23:3526 24:3618 25:118 26:118 27:909 28:3619 29:220 30:3619 31:14 32:13 33:3528 34:3620 37:944 38:3616 40:21 41:21 42:1878 43:909 44:21 45:21 46:3621 47:1878 48:1878 49:3608  |EV| 
-0.024220654066329762310605389075135  |BT| (NP (NP (NNS voters))(VP (VBN recruited)(PP (IN by)(NP (NP (NNP NBC))(PP (IN in)(NP (NP (NNP Tampa)))))))) |BT| (BOW (recruited *)(by *)) |BT| (BOH (recruited *)(by *)(NBC *)(in *)) |BT| (BOH-NPs (NBC *)) |BT| (LP (NNS *)(NP *)(VP *)(PP *)(NP *)(PP *)(NP *)(NNP *)) |BT| (LP-head (NNS *)(NP voters)(VP *)(PP *)(NP *)(PP *)(NP *)(NNP *)) |BT| (NP (NP (NNS voters))(VP (VBN recruited)(PP (IN by)(NP (NP (NNP NBC))(PP (IN in)(NP (NP (NNP Tampa)))))))) |BT| (NP (ROOT (S (S (NP (PP (NP (NP (E-PER (NNS voters)))(VP (VBN recruited)(PP (IN by)(NP (NP (E-ORG (NNP NBC)))(PP (IN in)(NP (NP (E-GPE (NNP Tampa)))(, ,)(NP (E-GPE (NNP Fla))(. .))(, ,)))))))))(VP (VBD were)(VP (VBN impressed)(PP (IN with)(NP (DT both)(E-PER (NNS candidates))(NN _))))))(CC and)(, ,)(S (PP (IN with)(NP (NP (DT a)(NN non-show))(PP (IN of)(NP (NNS hands)))))(, ,)(NP (DT all))(VP (VBD indicated)(SBAR (S (NP (E-PER (PRP they)))(VP (VBD remained)(PP (IN on)(NP (DT the)(NN fence))))))))(. .)))(ROOT (S (S (NP (NP (DT A)(E-PER (NN group)))(PP (IN of)(NP (NP (JJ undecided)(E-PER (NNS voters)))(VP (VBN recruited)(PP (IN by)(NP (NP (E-ORG (NNP NBC)))(PP (IN in)(NP (NP (E-GPE (NNP Tampa))))))))))))))) |ET| 11:1507 12:1508 13:1493 14:1494 16:55 17:6 18:143 21:9 22:324 23:1498 24:1509 25:118 26:118 27:1506 28:106 29:1499 30:106 31:187 32:1484 33:1501 34:1510 37:1503 38:1511 40:1499 41:1502 42:1484 43:1506 44:21 45:187 46:1484 47:106 48:22 49:1484  |EV| 
-0.0022460197156696747045057094283038  |BT| (VP (VP (VP (NP (NNS candidates))(NP (DT a)(JJ hot)(NN foot))))(CC or)(VP (VB put)(NP (DT a)(NN joy)(NN buzzer))(PP (IN on)(NP (PRP$ their))))) |BT| (BOW (a *)(hot *)(foot *)(or *)(put *)(a *)(joy *)) |BT| (BOH (foot *)(put *)(buzzer *)(on *)) |BT| (BOH-NPs (foot *)(buzzer *)) |BT| (LP (NNS *)(NP *)(VP *)(VP *)(PP *)(NP *)(PRP$ *)) |BT| (LP-head (NNS *)(NP *)(VP have)(VP *)(PP *)(NP *)(PRP$ *)) |BT| (VP (VP (VP (NP (NNS candidates))(NP (DT a)(JJ hot)(NN foot))))(CC or)(VP (VB put)(NP (DT a)(NN joy)(NN buzzer))(PP (IN on)(NP (PRP$ their))))) |BT| (VP (ROOT (SINV (S (VP (VP (VP (VP (NP (E-PER (NNS candidates)))(NP (DT a)(JJ hot)(NN foot))))(CC or)(VP (VB put)(NP (DT a)(NN joy)(NN buzzer))(PP (IN on)(NP (E-PER (PRP$ their))(NN seat)))))))(, ,)('' '')(VP (VBD said))(NP (NP (E-PER (PRP$ his))(E-PER (NN colleague)))(, ,)(NP (E-PER (NNP Fred)(NNP Barnes))))(. .)))(CC or)(ROOT (SINV (`` ``)(S (ADVP (RB Maybe))(NP (E-PER (NN somebody)))(VP (MD could)(VP (VP (VB have)(VP (VBN given)(NP (DT the)(E-PER (NNS candidates)))(NP (DT a)(JJ hot)(NN foot))))(CC or)(VP (VB put)(NP (DT a)(NN joy)(NN buzzer))(PP (IN on)(NP (E-PER (PRP$ their))))))))))) |ET| 11:580 12:33 13:1373 14:554 16:92 17:7 18:148 21:36 22:543 23:1332 24:1380 25:118 26:118 27:430 28:97 29:105 30:97 31:1377 32:1381 33:1338 34:1382 37:1340 38:1383 40:1377 41:1379 42:1384 43:1384 44:21 45:581 46:1381 47:97 48:1384 49:1381  |EV| 
-0.054807895062185696399836842829245  |BT| (NP (NP (NP (NNP Yugoslavia)(POS 's))(ADJP (RB newly)(VBN elected))(NN president))(CC and)(NP (DT the)(JJ victorious)(JJ pro-democracy)(NN coalition))) |BT| (BOW ('s *)(newly *)(elected *)(president *)(and *)(the *)) |BT| (BOH (president *)) |BT| (BOH-NPs (president *)) |BT| (LP (NNP *)(NP *)(NP *)(NN *)) |BT| (LP-head (NNP *)(NP Yugoslavia)(NP *)(NN *)) |BT| (NP (NP (NP (NNP Yugoslavia)(POS 's))(ADJP (RB newly)(VBN elected))(NN president))(CC and)(NP (DT the)(JJ victorious)(JJ pro-democracy)(NN coalition))) |BT| (NP (ROOT (NP (NP (SBAR (S (VP (VP (PP (NP (NP (NP (E-GPE (NNP Yugoslavia))(POS 's))(ADJP (RB newly)(VBN elected))(E-PER (NN president)))(CC and)(NP (DT the)(JJ victorious)(JJ pro-democracy)(E-ORG (NN coalition))))))))))(. .)))(CC and)(ROOT (NP (NP (NP (E-GPE (NNP BELGRADE))(, ,)(E-GPE (NNP Yugoslavia)))(PRN (-LRB- -LRB-)(NP (NNP AP))(-RRB- -RRB-)))(NP (NP (CD __))(SBAR (S (NP (NP (E-PER (NNP Slobodan)(NNP Milosevic))(POS 's))(NNS plans)(S (VP (TO to)(VP (VB remain)(ADJP (JJ active))(PP (IN in)(NP (NNS politics)))))))(VP (MD could)(VP (VB spell)(NP (NN trouble))(PP (IN for)(NP (NP (NP (E-GPE (NNP Yugoslavia))(POS 's))(ADJP (RB newly)(VBN elected))(E-PER (NN president)))(CC and)(NP (DT the)(JJ victorious)(JJ pro-democracy)(E-ORG (NN coalition))))))))))))) |ET| 11:2646 12:2647 13:1982 14:45 16:85 17:6 18:26 21:9 22:56 23:1666 24:2648 25:1 26:1 27:58 28:788 29:605 30:788 31:2641 32:2649 33:1667 34:2650 37:1668 38:2636 40:605 41:2641 42:60 43:60 44:1209 45:2641 46:60 47:60 48:22 49:22  |EV| 
0.035666342775046024071716743719662  |BT| (NNP Yugoslav) |BT| (BOW ) |BT| (BOH ) |BT| (BOH-NPs (Vojislav *)) |BT| (LP (NNP *)(NP *)(NNP *)) |BT| (LP-head (NNP *)(NP Kostunica)(NNP *)) |BT| (NNP Yugoslav) |BT| (NP (ROOT (S (VP (PP (NP (NP (E-GPE (NNP Yugoslav))(E-PER (NNP President))(E-PER (NNP Vojislav)(NNP Kostunica)))(PP (IN in)(NP (E-GPE (NNP Belgrade))))))(PP (IN on)(NP (NNP Thursday)))(S (VP (VP (TO to)(VP (VB offer)(NP (NNS congratulations))(PP (IN on)(NP (NP (E-PER (NNP Kostunica))(POS 's))(NN election)(NN victory)))))(CC and)(VP (TO to)(VP (VB highlight)(NP (DT the)(NN message))(SBAR (IN that)(S (NP (JJ further)(NN progress))(VP (VBZ is)(VP (VBN expected))))))))))(. .)))(NNP President)(ROOT (S (NP (NP (E-PER (NNP James)(NNP C.)(NNP O'Brien)))(, ,)(NP (NP (DT the)(JJ senior)(E-GPE (NNP U.S.))(E-PER (NN official)))(VP (VBG overseeing)(NP (NP (NNS developments))(PP (IN in)(NP (DT the)(E-LOC (NNP Balkans)))))))(, ,))(VP (VBD met)(PP (IN with)(NP (NP (JJ new)(E-GPE (NNP Yugoslav))(E-PER (NNP President))(E-PER (NNP Vojislav)(NNP Kostunica))))))))) |ET| 11:3734 12:3735 13:3127 14:5 16:6 17:7 18:35 21:9 22:10 23:3129 24:1768 25:1 26:1 27:87 28:87 29:3158 30:87 31:72 32:3135 33:3132 34:1769 35:19 37:1764 38:1764 39:19 40:1765 41:1765 42:1765 43:21 44:87 45:87 46:1765 47:21 48:22 49:22  |EV| 
-0.12499999999996855293282749244099  |BT| (NP (JJ Israeli)(NN border)) |BT| (BOW ) |BT| (BOH ) |BT| (BOH-NPs ) |BT| (LP (JJ *)(NP *)(NN *)) |BT| (LP-head (JJ *)(NP policeman)(NN *)) |BT| (NP (JJ Israeli)(NN border)) |BT| (NP (ROOT (S (VP (PP (NP (VP (NP (NP (E-GPE (JJ Israeli))(E-LOC (NN border))(E-PER (NN policeman))))))))(. .)))(ROOT (S (NP (DT The)(E-GPE (JJ Israeli))(E-ORG (NN army)))(VP (VBD evacuated)(NP (DT the)(E-FAC (NN outpost)))(PP (IN before)(NP (NN dawn)))(PP (IN on)(NP (NNP Saturday)))(, ,)(PP (IN after)(NP (NP (NNS clashes))(VP (ADVP (E-FAC (RB there))(NP (JJ last)(NN week)))(VBN killed)(NP (NP (CD six)(E-PER (NNPS Palestinians)))(CC and)(NP (DT an)(E-GPE (JJ Israeli))(E-LOC (NN border))))))))))) |ET| 11:2289 12:90 13:390 14:5 16:7 17:7 18:93 21:165 22:217 23:414 24:2290 25:1 26:1 27:31 28:31 29:369 30:418 31:242 32:369 33:415 34:2291 35:19 36:19 37:2287 38:2287 39:19 40:2288 41:2288 42:21 43:21 44:252 45:418 46:21 47:21 48:22 49:22  |EV| 
-0.12499999999996855293282749244099  |BT| (NP (JJ French)(NN designer)) |BT| (BOW ) |BT| (BOH ) |BT| (BOH-NPs ) |BT| (LP (JJ *)(NP *)(NN *)) |BT| (LP-head (JJ *)(NP designer)(NN *)) |BT| (NP (JJ French)(NN designer)) |BT| (NP (ROOT (S (NP (NP (NP (E-GPE (JJ French))(E-PER (NN designer)))(, ,)(VP (VBG showing)(PP (IN in)(NP (DT the)(E-FAC (NNP Petit)(NNP Palais))))))(, ,))(VP (MD could)(VP (VB make)(NP (NP (DT the)(NN grade))(PP (IN in)(NP (DT some)(E-FAC (NNS stores)))))(PP (IN with)(NP (E-PER (PRP$ his))(JJ offhand)(NNS styles)))(SBAR (SBAR (IN that)(S (NP (E-PER (DT some)))(VP (VBP find)(ADJP (JJ cool)))))(CC but)(SBAR (IN that)(S (VP (VBD lacked)(NP (NN sex)(NN appeal))))))))(. .)))(ROOT (S (NP (NP (E-PER (NNP Gaspard)(NNP Yurkievitch)))(, ,)(NP (NP (DT a)(JJ young)(E-GPE (JJ French))(E-PER (NN designer)))))))) |ET| 11:3485 12:3486 13:3302 14:5 16:7 17:7 18:35 21:165 22:217 23:3303 24:3436 25:1 26:1 27:31 28:31 29:3482 30:3304 31:430 32:3482 33:3305 34:3438 35:19 36:19 37:3440 38:3440 39:19 40:3304 41:3484 42:21 43:21 44:3503 45:3482 46:21 47:21 48:22 49:22  |EV| 
-0.12499999999996855293282749244099  |BT| (NP (JJ Yugoslav)(NN republic)) |BT| (BOW ) |BT| (BOH ) |BT| (BOH-NPs ) |BT| (LP (JJ *)(NP *)(NN *)) |BT| (LP-head (JJ *)(NP republic)(NN *)) |BT| (NP (JJ Yugoslav)(NN republic)) |BT| (NP (ROOT (S (NP (NP (E-GPE (JJ Yugoslav))(E-GPE (NN republic)))(, ,))(ADVP (RB still))(VP (VBZ is)(VP (VBN run)(PP (IN by)(NP (NP (DT a)(E-ORG (NN government)))(PP (IN of)(NP (NP (E-PER (JJ Milosevic))(NNS cronies))(PP (VBG including)(NP (NP (E-GPE (NNP Serbian))(E-PER (NNP President))(E-PER (NNP Milan)(NNP Milutinovic)))(VP (VBD __)(NP (NN N))(PP (IN like)(NP (E-PER (NNP Milosevic)))))(, ,)(VP (VBN indicted)(PP (IN by)(NP (DT the)(E-ORG (NN tribunal)))))))))))))(. .)))(ROOT (S (CC And)(NP (NP (E-GPE (NNP Serbia)))(, ,)(NP (DT the)(JJ main)(E-GPE (JJ Yugoslav))(E-GPE (NN republic))))))) |ET| 11:3133 12:3134 13:3127 14:5 16:7 17:7 18:8 21:165 22:217 23:3129 24:2858 25:1 26:1 27:31 28:31 29:3130 30:3135 31:105 32:3130 33:3132 34:2860 35:19 36:19 37:2861 38:2861 39:19 40:3135 41:2756 42:21 43:21 44:21 45:3130 46:21 47:21 48:22 49:22  |EV| 
0.058524271306673716908086646526499  |BT| (NP (NP (NN professor))(PP (IN of)(NP (NP (NNS economics))(PP (IN at)(NP (NP (DT the)(NNP University))(PP (IN of)(NP (NP (NNP Texas))(PP (IN at)(NP (NNP Austin)))))))))) |BT| (BOW (of *)(economics *)) |BT| (BOH (of *)(economics *)(at *)) |BT| (BOH-NPs (economics *)) |BT| (LP (NN *)(NP *)(PP *)(NP *)(PP *)(NP *)(PP *)(NP *)(PP *)(NP *)(NNP *)) |BT| (LP-head (NN *)(NP professor)(PP *)(NP *)(PP *)(NP *)(PP *)(NP *)(PP *)(NP *)(NNP *)) |BT| (NP (NP (NN professor))(PP (IN of)(NP (NP (NNS economics))(PP (IN at)(NP (NP (DT the)(NNP University))(PP (IN of)(NP (NP (NNP Texas))(PP (IN at)(NP (NNP Austin)))))))))) |BT| (NP (ROOT (SINV (NP (NP (NP (E-PER (NN professor)))(PP (IN of)(NP (NP (NNS economics))(PP (IN at)(NP (NP (DT the)(NNP University))(PP (IN of)(NP (NP (NNP Texas))(PP (IN at)(NP (NNP Austin)))))))))))(. .)))(ROOT (SINV (`` ``)(S (NP (PRP It))(VP (VBZ 's)(NP (DT a)(ADJP (RB totally)(JJ unrealistic))(NN proposal))))(, ,)('' '')(VP (VBD said))(NP (NP (E-PER (NNP Steve)(NNP Bronars)))(, ,)(NP (NP (DT a)(E-PER (NN professor)))(PP (IN of)(NP (NP (NNS economics))(PP (IN at)(NP (NP (DT the)(NNP University))(PP (IN of)(NP (NP (NNP Texas))(PP (IN at)(NP (NNP Austin)))))))))))))) |ET| 1:19 2:19 5:19 11:11653 12:24 13:11645 14:11646 16:55 17:7 18:301 21:9 22:157 23:5752 24:11654 25:118 26:118 27:187 28:105 29:430 30:105 31:13 32:921 33:5754 34:11655 37:5755 38:4880 40:11651 41:11651 42:11656 43:187 44:7203 45:7203 46:11656 47:921 48:22 49:11656  |EV| 
0.09771482271052893409102324540072  |BT| (NP (NP (NN professor))(PP (IN of)(NP (NP (NNS economics))(PP (IN at)(NP (NP (DT the)(NNP University))(PP (IN of)(NP (NP (NNP Texas))(PP (IN at)(NP (NNP Austin)))))))))) |BT| (BOW (of *)(economics *)) |BT| (BOH (of *)(economics *)(at *)) |BT| (BOH-NPs (economics *)) |BT| (LP (NN *)(NP *)(PP *)(NP *)(PP *)(NP *)(PP *)(NP *)(PP *)(NP *)(NNP *)) |BT| (LP-head (NN *)(NP professor)(PP *)(NP *)(PP *)(NP *)(PP *)(NP *)(PP *)(NP *)(NNP *)) |BT| (NP (NP (NN professor))(PP (IN of)(NP (NP (NNS economics))(PP (IN at)(NP (NP (DT the)(NNP University))(PP (IN of)(NP (NP (NNP Texas))(PP (IN at)(NP (NNP Austin)))))))))) |BT| (NP (ROOT (SINV (NP (NP (NP (E-PER (NN professor)))(PP (IN of)(NP (NP (NNS economics))(PP (IN at)(NP (NP (DT the)(NNP University))(PP (IN of)(NP (NP (NNP Texas))(PP (IN at)(NP (NNP Austin)))))))))))(. .)))(ROOT (SINV (`` ``)(S (NP (PRP It))(VP (VBZ 's)(NP (DT a)(ADJP (RB totally)(JJ unrealistic))(NN proposal))))(, ,)('' '')(VP (VBD said))(NP (NP (E-PER (NNP Steve)(NNP Bronars)))(, ,)(NP (NP (DT a)(E-PER (NN professor)))(PP (IN of)(NP (NP (NNS economics))(PP (IN at)(NP (NP (DT the)(NNP University))(PP (IN of)(NP (NP (NNP Texas))(PP (IN at)(NP (NNP Austin)))))))))))))) |ET| 1:19 2:19 5:19 11:11653 12:24 13:11645 14:11646 16:55 17:7 18:301 21:9 22:157 23:5752 24:11654 25:118 26:118 27:187 28:105 29:430 30:105 31:13 32:921 33:5754 34:11655 37:5755 38:4880 40:11651 41:11651 42:11656 43:187 44:7203 45:7203 46:11656 47:921 48:22 49:11656  |EV| 
-0.12499999999996855293282749244099  |BT| (NP (PRP$ his)(NN colleague)) |BT| (BOW ) |BT| (BOH ) |BT| (BOH-NPs ) |BT| (LP (PRP$ *)(NP *)(NN *)) |BT| (LP-head (PRP$ *)(NP colleague)(NN *)) |BT| (NP (PRP$ his)(NN colleague)) |BT| (NP (ROOT (SINV (NP (NP (E-PER (PRP$ his))(E-PER (NN colleague)))(, ,)(NP (E-PER (NNP Fred)(NNP Barnes))))(. .)))(ROOT (SINV (`` ``)(S (ADVP (RB Maybe))(NP (E-PER (NN somebody)))(VP (MD could)(VP (VP (VB have)(VP (VBN given)(NP (DT the)(E-PER (NNS candidates)))(NP (DT a)(JJ hot)(NN foot))))(CC or)(VP (VB put)(NP (DT a)(NN joy)(NN buzzer))(PP (IN on)(NP (E-PER (PRP$ their))(NN seat)))))))(, ,)('' '')(VP (VBD said))(NP (NP (E-PER (PRP$ his))(E-PER (NN colleague))))))) |ET| 6:19 7:19 8:19 11:1387 12:1388 13:32 14:33 16:7 17:7 18:148 21:144 22:149 23:1385 24:1288 25:118 26:118 27:31 28:31 29:170 30:279 31:264 32:170 33:1386 34:1292 35:19 36:19 37:1293 38:1293 39:19 40:170 41:1383 42:21 43:21 44:1381 45:1383 46:21 47:21 48:22 49:22  |EV| 
-0.12499999999996855293282749244099  |BT| (NP (PRP$ his)(NN opponent)) |BT| (BOW ) |BT| (BOH ) |BT| (BOH-NPs ) |BT| (LP (PRP$ *)(NP *)(NN *)) |BT| (LP-head (PRP$ *)(NP opponent)(NN *)) |BT| (NP (PRP$ his)(NN opponent)) |BT| (NP (ROOT (S (VP (NP (NP (E-PER (PRP$ his))(E-PER (NN opponent))(POS 's))(NN statement)))(. .)))(ROOT (S (PP (IN On)(NP (NNP Friday)))(, ,)(NP (E-PER (NNP Bush)))(VP (VBD criticized)(NP (NP (E-PER (PRP$ his))(E-PER (NN opponent)))))))) |ET| 6:19 7:19 8:19 11:1825 12:497 13:32 14:33 16:7 17:7 18:148 21:144 22:149 23:1310 24:1826 25:118 26:118 27:31 28:31 29:1823 30:279 31:1312 32:1823 33:1743 34:1827 35:19 36:19 37:1824 38:1824 39:19 40:1823 41:1312 42:21 43:21 44:1733 45:1312 46:21 47:21 48:22 49:22  |EV| 
-0.12499999999996855293282749244099  |BT| (NP (PRP$ his)(NN boss)) |BT| (BOW ) |BT| (BOH ) |BT| (BOH-NPs ) |BT| (LP (PRP$ *)(NP *)(NN *)) |BT| (LP-head (PRP$ *)(NP boss)(NN *)) |BT| (NP (PRP$ his)(NN boss)) |BT| (NP (ROOT (S (VP (SBAR (S (NP (E-PER (PRP$ his))(E-PER (NN boss)))(VP (VBD was)(VP (VBG trying)(S (VP (TO to)(VP (VB get)(S (NP (E-GPE (NNP Moscow)))(VP (TO to)(VP (VB step)(PP (IN in)))))))))))))(. .)))(ROOT (S (NP (NP (NP (E-GPE (NNP WASHINGTON)))(PRN (-LRB- -LRB-)(NP (NNP AP))(-RRB- -RRB-)))(SBAR (S (NP (CD __)(E-PER (NNPS Republicans)))(VP (VBP give)(NP (E-PER (NNP George)(NNP W.)(NNP Bush)))(NP (NP (NN credit))(PP (IN for)(S (VP (VBG promoting)(NP (DT a)(E-GPE (JJ Russian))(NN role))(PP (IN in)(S (VP (VBG smoothing)(NP (DT the)(NN transition))(PP (IN from)(NP (E-PER (NN despot))))(PP (TO to)(NP (NP (E-PER (NN democrat)))(PP (IN in)(NP (E-GPE (NNP Yugoslavia)))))))))))))))))(VP (VBD _)(NP (NP (DT an)(NN idea))(VP (VBN dismissed)(PP (IN in)(NP (NN debate)))(PP (IN as)(ADJP (JJ risky)))(PP (IN by)(NP (E-PER (NNP Al)(NNP Gore))))))(SBAR (RB even)(IN as)(S (NP (E-PER (PRP$ his))(E-PER (NN boss))))))))) |ET| 6:19 7:19 8:19 11:1675 12:320 13:32 14:33 16:7 17:7 18:148 21:144 22:149 23:1671 24:1676 25:118 26:118 27:31 28:31 29:49 30:279 31:1672 32:49 33:1673 34:1677 35:19 36:19 37:1674 38:1674 39:19 40:1318 41:1318 42:21 43:21 44:1690 45:1690 46:21 47:21 48:22 49:22  |EV| 
0.12499999999996855293282749244099  |BT| (NP (JJ Israeli)(NN border)(NN policeman)) |BT| (BOW ) |BT| (BOH ) |BT| (BOH-NPs (border *)) |BT| (LP (JJ *)(NP *)(NN *)) |BT| (LP-head (JJ *)(NP policeman)(NN *)) |BT| (NP (JJ Israeli)(NN border)(NN policeman)) |BT| (NP (ROOT (S (VP (PP (NP (VP (NP (NP (E-GPE (JJ Israeli))(E-LOC (NN border))(E-PER (NN policeman))))))))(. .)))(NN border)(ROOT (S (NP (DT The)(E-GPE (JJ Israeli))(E-ORG (NN army)))(VP (VBD evacuated)(NP (DT the)(E-FAC (NN outpost)))(PP (IN before)(NP (NN dawn)))(PP (IN on)(NP (NNP Saturday)))(, ,)(PP (IN after)(NP (NP (NNS clashes))(VP (ADVP (E-FAC (RB there))(NP (JJ last)(NN week)))(VBN killed)(NP (NP (CD six)(E-PER (NNPS Palestinians)))(CC and)(NP (DT an)(E-GPE (JJ Israeli))(E-LOC (NN border))(E-PER (NN policeman))))))))))) |ET| 11:2292 12:2293 13:390 14:5 16:6 17:7 18:35 21:165 22:217 23:414 24:2294 25:1 26:1 27:2288 28:2288 29:369 30:2288 31:242 32:418 33:415 34:2295 35:19 37:2287 38:2287 39:19 40:2288 41:2288 42:2288 43:21 44:252 45:418 46:2288 47:21 48:22 49:22  |EV| 
0.12499999999996855293282749244099  |BT| (NP (JJ Israeli)(NN army)) |BT| (BOW ) |BT| (BOH ) |BT| (BOH-NPs ) |BT| (LP (JJ *)(NP *)(NN *)) |BT| (LP-head (JJ *)(NP army)(NN *)) |BT| (NP (JJ Israeli)(NN army)) |BT| (NP (ROOT (S (NP (E-GPE (JJ Israeli))(E-ORG (NN army)))(VP (VBD evacuated)(NP (DT the)(E-FAC (NN outpost)))(PP (IN before)(NP (NN dawn)))(PP (IN on)(NP (NNP Saturday)))(, ,)(PP (IN after)(NP (NP (NNS clashes))(VP (ADVP (E-FAC (RB there))(NP (JJ last)(NN week)))(VBN killed)(NP (NP (CD six)(E-PER (NNPS Palestinians)))(CC and)(NP (DT an)(E-GPE (JJ Israeli))(E-LOC (NN border))(E-PER (NN policeman))))))))(. .)))(ROOT (S (NP (DT The)(E-GPE (JJ Israeli))(E-ORG (NN army)))))) |ET| 11:2272 12:2273 13:390 14:5 16:7 17:7 18:26 21:165 22:217 23:414 24:2274 25:1 26:1 27:31 28:31 29:220 30:418 31:14 32:220 33:415 34:2275 35:19 36:19 37:2276 38:2276 39:19 40:418 41:21 42:21 43:21 44:21 45:21 46:21 47:21 48:22 49:22  |EV| 
0.031365706539725451973410486061766  |BT| (NP (JJ Republican)(NN nominee)) |BT| (BOW ) |BT| (BOH ) |BT| (BOH-NPs ) |BT| (LP (JJ *)(NP *)(NN *)) |BT| (LP-head (JJ *)(NP nominee)(NN *)) |BT| (NP (JJ Republican)(NN nominee)) |BT| (NP (ROOT (S (S (NP (NP (E-ORG (JJ Republican))(E-PER (NN nominee))))(VP (VBD was)(VP (VBN described)(PP (IN as)(PP (IN in)(NP (JJ good)(NNS spirits)))))))(, ,)(CC but)(S (NP (NP (ADJP (JJ disappointed)(PP (IN after)(NP (NP (NNP Friday)(POS 's))(E-GPE (NNP Florida))(E-ORG (NNP Supreme)(NNP Court)))))(NN order))(PP (IN for)(NP (NP (DT an)(JJ immediate)(NN recount))(PP (IN of)(NP (JJ so-called)(NNS undervotes))))))(VP (VBN missed)(PP (IN in)(NP (NN machine)(NNS tallies)))))(. .)))(ROOT (S (S (NP (NP (DT The)(E-GPE (NNP Texas))(E-PER (NN governor)))(CC and)(NP (E-ORG (JJ Republican))(E-PER (NN nominee)))))))) |ET| 5:19 11:12823 12:7053 13:1888 14:24 16:7 17:7 18:126 21:165 22:217 23:1671 24:5253 25:117 26:117 27:31 28:31 29:242 30:1673 31:2117 32:242 33:1889 34:5254 35:19 36:19 37:5250 38:5250 39:19 40:2117 41:2117 42:21 43:21 44:2121 45:2121 46:21 47:21 48:22 49:22  |EV| 
0.048692019344286782689401604784507  |BT| (NP (PRP$ his)(NN company)) |BT| (BOW ) |BT| (BOH ) |BT| (BOH-NPs ) |BT| (LP (PRP$ *)(NP *)(NN *)) |BT| (LP-head (PRP$ *)(NP company)(NN *)) |BT| (NP (PRP$ his)(NN company)) |BT| (NP (ROOT (S (S (NP (E-PER (PRP$ his))(E-ORG (NN company)))(VP (VBZ has)(VP (VBN turned)(PRT (RP over))(NP (DT the)(NN matter))(PP (TO to)(NP (E-ORG (PRP$ its))(JJ legal)(E-ORG (NN department)))))))(. .)))(ROOT (S (S (NP (E-PER (NNP Hanlon)))(VP (VBD said)(SBAR (S (NP (E-PER (PRP he)))(ADVP (RB never))(VP (VBZ has)(VP (VBN implied)(SBAR (IN that)(S (NP (DT the)(JJ future)(NNS sports)(E-ORG (NN bar)))(VP (MD would)(VP (VB be)(VP (VBN called)(SBAR (S (NP (DT the)(NNS Broncos))(VP (VBP Bar)))))))))))))))(, ,)(CC but)(S (NP (E-PER (PRP$ his))(E-ORG (NN company))))))) |ET| 5:19 11:14628 12:11307 13:32 14:33 16:7 17:7 18:301 21:144 22:149 23:14581 24:8583 25:118 26:118 27:31 28:31 29:576 30:279 31:13 32:576 33:14558 34:8584 35:19 36:19 37:8585 38:8585 39:19 40:14599 41:14531 42:21 43:21 44:14549 45:14531 46:21 47:21 48:22 49:22  |EV| 
-0.11459469984048072099813708746296  |BT| (NP (NP (NNPS Palestinians))(CC and)(NP (DT an)(JJ Israeli))) |BT| (BOW ) |BT| (BOH ) |BT| (BOH-NPs (border *)) |BT| (LP (NNPS *)(NP *)(NP *)(JJ *)) |BT| (LP-head (NNPS *)(NP Palestinians)(NP *)(JJ *)) |BT| (NP (NP (NNPS Palestinians))(CC and)(NP (DT an)(JJ Israeli))) |BT| (NP (ROOT (S (VP (PP (NP (VP (NP (NP (E-PER (NNPS Palestinians)))(CC and)(NP (DT an)(E-GPE (JJ Israeli))(E-LOC (NN border))(E-PER (NN policeman))))))))(. .)))(CC and)(ROOT (S (NP (DT The)(E-GPE (JJ Israeli))(E-ORG (NN army)))(VP (VBD evacuated)(NP (DT the)(E-FAC (NN outpost)))(PP (IN before)(NP (NN dawn)))(PP (IN on)(NP (NNP Saturday)))(, ,)(PP (IN after)(NP (NP (NNS clashes))(VP (ADVP (E-FAC (RB there))(NP (JJ last)(NN week)))(VBN killed)(NP (NP (CD six)(E-PER (NNPS Palestinians)))(CC and)(NP (DT an)(E-GPE (JJ Israeli))))))))))) |ET| 11:390 12:5 13:2284 14:2285 16:25 17:7 18:143 21:94 22:1686 23:248 24:414 25:118 26:118 27:242 28:369 29:991 30:369 31:2286 32:242 33:251 34:415 35:19 37:252 38:2287 40:2286 41:432 42:2288 43:21 44:233 45:432 46:2288 47:21 48:22 49:22  |EV| 
-0.038768827661084422075976618771165  |BT| (NP (NP (NNPS Palestinians))(CC and)(NP (DT an)(JJ Israeli)(NN border)(NN policeman))) |BT| (BOW (and *)(an *)) |BT| (BOH ) |BT| (BOH-NPs (border *)) |BT| (LP (NNPS *)(NP *)(NP *)(NN *)) |BT| (LP-head (NNPS *)(NP Palestinians)(NP *)(NN *)) |BT| (NP (NP (NNPS Palestinians))(CC and)(NP (DT an)(JJ Israeli)(NN border)(NN policeman))) |BT| (NP (ROOT (S (VP (PP (NP (VP (NP (NP (E-PER (NNPS Palestinians)))(CC and)(NP (DT an)(E-GPE (JJ Israeli))(E-LOC (NN border))(E-PER (NN policeman))))))))(. .)))(CC and)(ROOT (S (NP (DT The)(E-GPE (JJ Israeli))(E-ORG (NN army)))(VP (VBD evacuated)(NP (DT the)(E-FAC (NN outpost)))(PP (IN before)(NP (NN dawn)))(PP (IN on)(NP (NNP Saturday)))(, ,)(PP (IN after)(NP (NP (NNS clashes))(VP (ADVP (E-FAC (RB there))(NP (JJ last)(NN week)))(VBN killed)(NP (NP (CD six)(E-PER (NNPS Palestinians)))(CC and)(NP (DT an)(E-GPE (JJ Israeli))(E-LOC (NN border))(E-PER (NN policeman))))))))))) |ET| 11:2292 12:2293 13:2284 14:2285 16:55 17:25 18:148 21:9 22:1687 23:248 24:2294 25:118 26:118 27:242 28:2288 29:991 30:2288 31:2286 32:418 33:251 34:2295 35:19 37:252 38:2287 40:2286 41:432 42:2288 43:21 44:233 45:432 46:2288 47:21 48:22 49:22  |EV| 
-0.12499999999996855293282749244099  |BT| (NP (JJ civilian)(NN area)) |BT| (BOW ) |BT| (BOH ) |BT| (BOH-NPs ) |BT| (LP (JJ *)(NP *)(NN *)) |BT| (LP-head (JJ *)(NP area)(NN *)) |BT| (NP (JJ civilian)(NN area)) |BT| (NP (ROOT (S (VP (VP (VP (NP (PP (NP (E-PER (JJ civilian))(E-LOC (NN area))))))))(. .)('' '')))(ROOT (S (`` ``)(NP (EX There))(VP (MD should)(ADVP (RB never))(VP (VB have)(VP (VBN been)(NP (NP (DT a)(JJ military)(E-FAC (NN base)))(PP (IN in)(NP (DT a)(E-PER (JJ civilian))(E-LOC (NN area))))))))))) |ET| 11:2629 12:2630 13:2620 14:33 16:7 17:7 18:152 19:159 21:165 22:217 23:2624 24:1063 25:118 26:118 27:31 28:31 29:430 30:2631 31:106 32:430 33:2626 34:1065 35:19 36:19 37:1066 38:1066 39:19 40:2631 41:2627 42:21 43:21 44:21 45:106 46:21 47:21 48:22 49:22  |EV| 
0.081919122937691490893286072605406  |BT| (NP (PRP$ his)(NN group)) |BT| (BOW ) |BT| (BOH ) |BT| (BOH-NPs ) |BT| (LP (PRP$ *)(NP *)(NN *)) |BT| (LP-head (PRP$ *)(NP group)(NN *)) |BT| (NP (PRP$ his)(NN group)) |BT| (NP (ROOT (S (VP (VP (S (VP (VP (SBAR (S (NP (NP (E-PER (PRP$ his))(E-ORG (NN group)))(, ,)(NP (DT the)(E-ORG (NNP Palestine)(NNP Popular)(NNP Struggle)(NN Front)))(, ,))(VP (VBD played)(NP (DT a)(NN role))(PP (IN in)(NP (DT the)(CD 1988)(NN bombing)))(PP (IN over)(NP (E-GPE (NNP Lockerbie))(, ,)(E-GPE (NNP Scotland))))))))))))(. .)))(ROOT (S (NP (E-PER (PRP He)))(VP (VBD was)(VP (VBN called)(PP (IN in)(NP (DT an)(NN effort)))(S (VP (TO to)(VP (VB discredit)(NP (NP (DT the)(E-PER (NNS defendants))(POS '))(NN claim))(SBAR (IN that)(S (NP (NP (E-PER (PRP$ his))(E-ORG (NN group)))))))))))))) |ET| 2:19 3:19 5:19 6:19 7:19 11:8911 12:8912 13:32 14:33 16:7 17:7 18:301 21:144 22:149 23:8902 24:1497 25:118 26:118 27:31 28:31 29:887 30:279 31:8910 32:887 33:8906 34:1500 35:19 36:19 37:1502 38:1502 39:19 40:8910 41:8910 42:21 43:21 44:8908 45:8908 46:21 47:21 48:22 49:22  |EV| 
0.11742242289771089025496308977381  |BT| (NP (PRP$ his)(NN group)) |BT| (BOW ) |BT| (BOH ) |BT| (BOH-NPs ) |BT| (LP (PRP$ *)(NP *)(NN *)) |BT| (LP-head (PRP$ *)(NP group)(NN *)) |BT| (NP (PRP$ his)(NN group)) |BT| (NP (ROOT (S (VP (VP (S (VP (VP (SBAR (S (NP (NP (E-PER (PRP$ his))(E-ORG (NN group)))(, ,)(NP (DT the)(E-ORG (NNP Palestine)(NNP Popular)(NNP Struggle)(NN Front)))(, ,))(VP (VBD played)(NP (DT a)(NN role))(PP (IN in)(NP (DT the)(CD 1988)(NN bombing)))(PP (IN over)(NP (E-GPE (NNP Lockerbie))(, ,)(E-GPE (NNP Scotland))))))))))))(. .)))(ROOT (S (NP (E-PER (PRP He)))(VP (VBD was)(VP (VBN called)(PP (IN in)(NP (DT an)(NN effort)))(S (VP (TO to)(VP (VB discredit)(NP (NP (DT the)(E-PER (NNS defendants))(POS '))(NN claim))(SBAR (IN that)(S (NP (NP (E-PER (PRP$ his))(E-ORG (NN group)))))))))))))) |ET| 2:19 3:19 5:19 6:19 7:19 11:8911 12:8912 13:32 14:33 16:7 17:7 18:301 21:144 22:149 23:8902 24:1497 25:118 26:118 27:31 28:31 29:887 30:279 31:8910 32:887 33:8906 34:1500 35:19 36:19 37:1502 38:1502 39:19 40:8910 41:8910 42:21 43:21 44:8908 45:8908 46:21 47:21 48:22 49:22  |EV| 
-0.12499999999996855293282749244099  |BT| (NP (NP (NN regime))(PP (IN of)(NP (NNP Yugoslav)(NNP President)))) |BT| (BOW ) |BT| (BOH (of *)) |BT| (BOH-NPs (Slobodan *)) |BT| (LP (NN *)(NP *)(PP *)(NP *)(NNP *)) |BT| (LP-head (NN *)(NP regime)(PP *)(NP *)(NNP *)) |BT| (NP (NP (NN regime))(PP (IN of)(NP (NNP Yugoslav)(NNP President)))) |BT| (NP (ROOT (S (VP (NP (SBAR (S (VP (VP (S (VP (VP (NP (NP (E-ORG (NN regime)))(PP (IN of)(NP (E-GPE (NNP Yugoslav))(E-PER (NNP President))(E-PER (NNP Slobodan)(NNP Milosevic))))))))))))))(. .)))(ROOT (S (NP (E-PER (NNP Clinton)))(VP (VBD announced)(NP (NP (DT the)(JJ immediate)(NN ending))(PP (IN of)(NP (NP (DT the)(NN oil)(NN embargo))(CC and)(NP (NN flight)(NN ban))))(SBAR (WHNP (WDT that))(S (VP (VBD were)(VP (VBN imposed)(PP (IN in)(NP (CD 1998)))(S (VP (TO to)(VP (VB punish)(CC and)(VB isolate)(NP (NP (DT the)(E-ORG (NN regime)))(PP (IN of)(NP (E-GPE (NNP Yugoslav))(E-PER (NNP President))))))))))))))))) |ET| 5:19 11:76 12:33 13:3705 14:3706 16:25 17:6 18:126 21:9 22:157 23:3707 24:78 25:117 26:117 27:187 28:3135 29:105 30:3135 31:3274 32:187 33:3709 34:80 37:3710 38:1721 40:3274 41:3712 42:1774 43:187 44:3716 45:3717 46:1774 47:187 48:22 49:22  |EV| 
-0.12499999999996855293282749244099  |BT| (NP (PRP$ His)(JJ leftist)(NN coalition)) |BT| (BOW ) |BT| (BOH ) |BT| (BOH-NPs (coalition *)) |BT| (LP (PRP$ *)(NP *)(NN *)) |BT| (LP-head (PRP$ *)(NP controls)(NN *)) |BT| (NP (PRP$ His)(JJ leftist)(NN coalition)) |BT| (NP (ROOT (NP (NP (E-PER (PRP$ His))(JJ leftist)(E-ORG (NN coalition))(NNS controls))(NP (NP (CD 46))(PP (IN of)(NP (NP (CD 178)(NNS seats))(PP (IN in)(NP (DT the)(JJ federal)(E-ORG (NN parliament)))))))(. .)))(JJ leftist)(ROOT (NP (NP (E-PER (PRP$ His))(JJ leftist)(E-ORG (NN coalition)))))) |ET| 5:19 11:2950 12:24 13:1286 14:33 16:6 17:7 18:301 21:144 22:149 23:1724 24:2648 25:118 26:118 27:2951 28:2951 29:14 30:2951 31:2699 32:1289 33:1721 34:2650 35:19 37:2952 38:2952 39:19 40:21 41:21 42:2636 43:21 44:21 45:21 46:2636 47:21 48:22 49:22  |EV| 
-0.12499999999996855293282749244099  |BT| (NP (NNP French)(NNP Foreign)(NNP Minister)) |BT| (BOW ) |BT| (BOH ) |BT| (BOH-NPs (Hubert *)) |BT| (LP (NNP *)(NP *)(NNP *)) |BT| (LP-head (NNP *)(NP Vedrine)(NNP *)) |BT| (NP (NNP French)(NNP Foreign)(NNP Minister)) |BT| (NP (ROOT (S (NP (E-GPE (NNP French))(NNP Foreign)(E-PER (NNP Minister))(E-PER (NNP Hubert)(NNP Vedrine)))(VP (VBD confirmed)(NP-TMP (NNP Sunday))(SBAR (IN that)(S (NP (DT the)(E-GPE (NNP EU)))(VP (MD would)(ADVP (RB partially))(VP (VB lift)(NP (NNS sanctions))(PP (IN on)(NP (NNP Monday))))))))(. .)))(NNP Foreign)(ROOT (S (NP (E-GPE (NNP French))(NNP Foreign)(E-PER (NNP Minister)))))) |ET| 1:19 11:197 12:33 13:3302 14:5 16:6 17:7 18:35 21:9 22:10 23:3303 24:199 25:1 26:1 27:200 28:200 29:14 30:200 31:556 32:3304 33:3305 34:201 35:19 37:3306 38:3306 39:19 40:21 41:21 42:3307 43:21 44:21 45:21 46:3307 47:21 48:22 49:22  |EV| 
0.058878416850781031821604472042964  |BT| (NP (NNS people)(S (VP (TO to)(VP (VB fill)(NP (JJ low-skilled)(NNS jobs))(PP (IN in)(NP (NNS farms)(, ,)(NNS restaurants)(CC and)(NNS factories))))))) |BT| (BOW (to *)(fill *)(low-skilled *)(jobs *)(in *)(farms *)(, *)) |BT| (BOH (fill *)(jobs *)(in *)(restaurants *)) |BT| (BOH-NPs (jobs *)(restaurants *)) |BT| (LP (NNS *)(NP *)(S *)(VP *)(PP *)(NP *)(NNS *)) |BT| (LP-head (NNS *)(NP people)(S *)(VP *)(PP *)(NP *)(NNS *)) |BT| (NP (NNS people)(S (VP (TO to)(VP (VB fill)(NP (JJ low-skilled)(NNS jobs))(PP (IN in)(NP (NNS farms)(, ,)(NNS restaurants)(CC and)(NNS factories))))))) |BT| (NP (ROOT (S (S (VP (NP (E-PER (NNS people))(S (VP (TO to)(VP (VB fill)(NP (JJ low-skilled)(NNS jobs))(PP (IN in)(NP (E-ORG (NNS farms))(, ,)(E-ORG (NNS restaurants))(CC and)(E-ORG (NNS factories))))))))))(. .)))(ROOT (S (S (NP (E-GPE (NNP U.S.))(NN unemployment))(VP (VBZ is)(PP (IN at)(NP (NP (PRP$ its)(JJS lowest))(PP (IN in)(NP (CD three)(NNS decades)))))))(CC and)(S (NP (EX there))(VP (VBP are)(NP (JJR fewer)(E-PER (NNS people))(S (VP (TO to)(VP (VB fill)(NP (JJ low-skilled)(NNS jobs))(PP (IN in)(NP (E-ORG (NNS farms))(, ,)(E-ORG (NNS restaurants))(CC and)(E-ORG (NNS factories))))))))))))) |ET| 4:19 5:19 11:11767 12:24 13:11754 14:11755 16:92 17:25 18:301 19:338 21:9 22:1028 23:934 24:11768 25:118 26:118 27:291 28:242 29:7124 30:242 31:579 32:11766 33:936 34:11769 37:937 38:11757 40:579 41:8177 42:9944 43:11770 44:11756 45:8177 46:11766 47:11766 48:9944 49:106  |EV| 
0.12499999999996855293282749244099  |BT| (NP (PRP$ his)(NN group)) |BT| (BOW ) |BT| (BOH ) |BT| (BOH-NPs ) |BT| (LP (PRP$ *)(NP *)(NN *)) |BT| (LP-head (PRP$ *)(NP group)(NN *)) |BT| (NP (PRP$ his)(NN group)) |BT| (NP (ROOT (S (VP (VP (S (VP (VP (SBAR (S (NP (NP (E-PER (PRP$ his))(E-ORG (NN group)))(, ,)(NP (DT the)(E-ORG (NNP Palestine)(NNP Popular)(NNP Struggle)(NN Front)))(, ,))(VP (VBD played)(NP (DT a)(NN role))(PP (IN in)(NP (DT the)(CD 1988)(NN bombing)))(PP (IN over)(NP (E-GPE (NNP Lockerbie))(, ,)(E-GPE (NNP Scotland))))))))))))(. .)))(ROOT (S (NP (E-PER (PRP He)))(VP (VBD was)(VP (VBN called)(PP (IN in)(NP (DT an)(NN effort)))(S (VP (TO to)(VP (VB discredit)(NP (NP (DT the)(E-PER (NNS defendants))(POS '))(NN claim))(SBAR (IN that)(S (NP (NP (E-PER (PRP$ his))(E-ORG (NN group)))))))))))))) |ET| 2:19 3:19 5:19 6:19 7:19 11:8911 12:8912 13:32 14:33 16:7 17:7 18:301 21:144 22:149 23:8902 24:1497 25:118 26:118 27:31 28:31 29:887 30:279 31:8910 32:887 33:8906 34:1500 35:19 36:19 37:1502 38:1502 39:19 40:8910 41:8910 42:21 43:21 44:8908 45:8908 46:21 47:21 48:22 49:22  |EV| 
-0.12499999999996855293282749244099  |BT| (NP (PRP$ his)(NN republic)) |BT| (BOW ) |BT| (BOH ) |BT| (BOH-NPs ) |BT| (LP (PRP$ *)(NP *)(NN *)) |BT| (LP-head (PRP$ *)(NP republic)(NN *)) |BT| (NP (PRP$ his)(NN republic)) |BT| (NP (ROOT (NP (NP (PP (NP (NP (E-PER (PRP$ his))(E-GPE (NN republic)))(CC and)(PRN (, ,)(ADVP (RB indirectly))(, ,))(NP (NP (RB much))(PP (IN of)(NP (NP (DT the)(NN republic)(POS 's))(NN economy)))))))(. .)))(ROOT (NP (NP (E-PER (JJ Milutinovic))(NNS controls))(NP (NP (QP (RB approximately)(CD 100,000))(E-PER (NNS policemen)))(PP (IN in)(NP (NP (E-PER (PRP$ his))(E-GPE (NN republic))))))))) |ET| 11:3148 12:3149 13:32 14:33 16:7 17:7 18:143 21:144 22:149 23:2753 24:2858 25:118 26:118 27:31 28:31 29:106 30:279 31:3147 32:106 33:2756 34:2860 35:19 36:19 37:2861 38:2861 39:19 40:106 41:3147 42:21 43:21 44:2952 45:3147 46:21 47:21 48:22 49:22  |EV| 
-0.0032175945029100073112304780664772  |BT| (S (NP (JJ Israeli)(NN army))(VP (VBD evacuated)(NP (DT the)(NN outpost)))) |BT| (BOW (army *)) |BT| (BOH (evacuated *)) |BT| (BOH-NPs ) |BT| (LP (JJ *)(NP *)(S *)(VP *)(NP *)(NN *)) |BT| (LP-head (JJ *)(NP *)(S evacuated)(VP *)(NP *)(NN *)) |BT| (S (NP (JJ Israeli)(NN army))(VP (VBD evacuated)(NP (DT the)(NN outpost)))) |BT| (S (ROOT (S (NP (E-GPE (JJ Israeli))(E-ORG (NN army)))(VP (VBD evacuated)(NP (DT the)(E-FAC (NN outpost)))(PP (IN before)(NP (NN dawn)))(PP (IN on)(NP (NNP Saturday)))(, ,)(PP (IN after)(NP (NP (NNS clashes))(VP (ADVP (E-FAC (RB there))(NP (JJ last)(NN week)))(VBN killed)(NP (NP (CD six)(E-PER (NNPS Palestinians)))(CC and)(NP (DT an)(E-GPE (JJ Israeli))(E-LOC (NN border))(E-PER (NN policeman))))))))(. .)))(ROOT (S (NP (DT The)(E-GPE (JJ Israeli))(E-ORG (NN army)))(VP (VBD evacuated)(NP (DT the)(E-FAC (NN outpost))))))) |ET| 11:2277 12:2219 13:390 14:5 16:47 17:7 18:938 21:165 22:217 23:414 24:2278 25:1 26:1 27:2276 28:105 29:220 30:105 31:14 32:2279 33:415 34:2280 37:2276 38:2281 40:418 41:21 42:21 43:2279 44:21 45:21 46:21 47:2279 48:22 49:22  |EV| 
0.12499999999996855293282749244099  |BT| (NNP French) |BT| (BOW ) |BT| (BOH ) |BT| (BOH-NPs (Hubert *)) |BT| (LP (NNP *)(NP *)(NNP *)) |BT| (LP-head (NNP *)(NP Vedrine)(NNP *)) |BT| (NNP French) |BT| (NP (ROOT (S (NP (E-GPE (NNP French))(NNP Foreign)(E-PER (NNP Minister))(E-PER (NNP Hubert)(NNP Vedrine)))(VP (VBD confirmed)(NP-TMP (NNP Sunday))(SBAR (IN that)(S (NP (DT the)(E-GPE (NNP EU)))(VP (MD would)(ADVP (RB partially))(VP (VB lift)(NP (NNS sanctions))(PP (IN on)(NP (NNP Monday))))))))(. .)))(NNP Foreign)(NNP Minister)(ROOT (S (NP (E-GPE (NNP French))(NNP Foreign)(E-PER (NNP Minister))(E-PER (NNP Hubert)(NNP Vedrine)))))) |ET| 11:3308 12:3309 13:3302 14:5 16:25 17:6 18:35 21:9 22:10 23:3303 24:3310 25:1 26:1 27:200 28:206 29:14 30:206 31:556 32:200 33:3305 34:3311 35:19 37:3306 38:3306 39:19 40:21 41:21 42:3307 43:21 44:21 45:21 46:3307 47:21 48:22 49:22  |EV| 
0.12499999999996855293282749244099  |BT| (NNP Yugoslav) |BT| (BOW ) |BT| (BOH ) |BT| (BOH-NPs (Vojislav *)) |BT| (LP (NNP *)(NP *)(NNP *)) |BT| (LP-head (NNP *)(NP Kostunica)(NNP *)) |BT| (NNP Yugoslav) |BT| (NP (ROOT (S (VP (PP (NP (NP (E-GPE (NNP Yugoslav))(E-PER (NNP President))(E-PER (NNP Vojislav)(NNP Kostunica)))(PP (IN in)(NP (E-GPE (NNP Belgrade))))))(PP (IN on)(NP (NNP Thursday)))(S (VP (VP (TO to)(VP (VB offer)(NP (NNS congratulations))(PP (IN on)(NP (NP (E-PER (NNP Kostunica))(POS 's))(NN election)(NN victory)))))(CC and)(VP (TO to)(VP (VB highlight)(NP (DT the)(NN message))(SBAR (IN that)(S (NP (JJ further)(NN progress))(VP (VBZ is)(VP (VBN expected))))))))))(. .)))(NNP President)(ROOT (S (NP (NP (E-PER (NNP James)(NNP C.)(NNP O'Brien)))(, ,)(NP (NP (DT the)(JJ senior)(E-GPE (NNP U.S.))(E-PER (NN official)))(VP (VBG overseeing)(NP (NP (NNS developments))(PP (IN in)(NP (DT the)(E-LOC (NNP Balkans)))))))(, ,))(VP (VBD met)(PP (IN with)(NP (NP (JJ new)(E-GPE (NNP Yugoslav))(E-PER (NNP President))(E-PER (NNP Vojislav)(NNP Kostunica))))))))) |ET| 11:3734 12:3735 13:3127 14:5 16:6 17:7 18:35 21:9 22:10 23:3129 24:1768 25:1 26:1 27:87 28:87 29:3158 30:87 31:72 32:3135 33:3132 34:1769 35:19 37:1764 38:1764 39:19 40:1765 41:1765 42:1765 43:21 44:87 45:87 46:1765 47:21 48:22 49:22  |EV| 
-0.12499999999996855293282749244099  |BT| (NNP Yugoslav) |BT| (BOW ) |BT| (BOH ) |BT| (BOH-NPs (Slobodan *)) |BT| (LP (NNP *)(NP *)(NNP *)) |BT| (LP-head (NNP *)(NP Milosevic)(NNP *)) |BT| (NNP Yugoslav) |BT| (NP (ROOT (S (VP (NP (SBAR (S (VP (VP (S (VP (VP (NP (PP (NP (E-GPE (NNP Yugoslav))(E-PER (NNP President))(E-PER (NNP Slobodan)(NNP Milosevic))))))))))))))(. .)))(NNP President)(ROOT (S (NP (E-PER (NNP Clinton)))(VP (VBD announced)(NP (NP (DT the)(JJ immediate)(NN ending))(PP (IN of)(NP (NP (DT the)(NN oil)(NN embargo))(CC and)(NP (NN flight)(NN ban))))(SBAR (WHNP (WDT that))(S (VP (VBD were)(VP (VBN imposed)(PP (IN in)(NP (CD 1998)))(S (VP (TO to)(VP (VB punish)(CC and)(VB isolate)(NP (NP (DT the)(E-ORG (NN regime)))(PP (IN of)(NP (E-GPE (NNP Yugoslav))(E-PER (NNP President))(E-PER (NNP Slobodan)(NNP Milosevic))))))))))))))))) |ET| 11:3714 12:3715 13:3127 14:5 16:6 17:7 18:35 21:9 22:10 23:3129 24:1760 25:1 26:1 27:87 28:87 29:187 30:87 31:3710 32:3135 33:3132 34:1761 35:19 37:1721 38:1721 39:19 40:187 41:3710 42:1774 43:21 44:3712 45:3710 46:1774 47:21 48:22 49:22  |EV| 
-0.12499999999996855293282749244099  |BT| (NP (NNP Russian)(NNP Foreign)(NNP Minister)(NNP Ivanov)) |BT| (BOW ) |BT| (BOH ) |BT| (BOH-NPs (Minister *)) |BT| (LP (NNP *)(NP *)(NNP *)) |BT| (LP-head (NNP *)(NP Ivanov)(NNP *)) |BT| (NP (NNP Russian)(NNP Foreign)(NNP Minister)(NNP Ivanov)) |BT| (NP (ROOT (S (NP (E-GPE (NNP Russian))(NNP Foreign)(E-PER (NNP Minister))(E-PER (NNP Ivanov)))(VP (VBD was)(PP (IN in)(NP (NP (E-GPE (NNP Yugoslavia)))(, ,)(NP (NP (NN meeting))(PP (IN with)(NP (NP (VBN ousted)(E-PER (NN leader)))(NP (NP (E-PER (NNP Slobodan)(NNP Milosevic)))(CC and)(VP (VBG recognizing)(NP (NP (NN opposition)(E-PER (NN leader))(E-PER (NNP Vojislav)(NNP Kostunica)))(PP (IN as)(NP (NP (E-PER (NN winner)))(PP (IN of)(NP (DT the)(NNP Sept))))))))))))))(. .)))(NNP Foreign)(NNP Minister)(ROOT (S (SBAR (IN As)(S (NP (E-PER (PRP he)))(VP (VBD spoke))))(, ,)(NP (E-GPE (NNP Russian))(NNP Foreign)(E-PER (NNP Minister))(E-PER (NNP Ivanov)))))) |ET| 11:1749 12:1750 13:1650 14:5 16:25 17:6 18:35 21:9 22:10 23:1651 24:1751 25:1 26:1 27:200 28:206 29:13 30:206 31:1746 32:200 33:1653 34:1752 35:19 37:1748 38:1748 39:19 40:1746 41:21 42:206 43:21 44:21 45:364 46:206 47:21 48:22 49:22  |EV| 
-0.12499999999996855293282749244099  |BT| (NP (NNP Jakarta)(NNP Prosecution)(NNP Office)) |BT| (BOW ) |BT| (BOH ) |BT| (BOH-NPs (Prosecution *)) |BT| (LP (NNP *)(NP *)(NNP *)) |BT| (LP-head (NNP *)(NP Office)(NNP *)) |BT| (NP (NNP Jakarta)(NNP Prosecution)(NNP Office)) |BT| (NP (ROOT (S (NP (NP (PP (NP (E-GPE (NNP Jakarta))(NNP Prosecution)(E-ORG (NNP Office)))))(, ,))(VP (VBD said)(SBAR (S (NP (E-PER (NNP Tommy)))(VP (MD would)(ADVP (RB again))(VP (VB be)(VP (VBN summoned)(S (VP (TO to)(VP (VB meet)(NP (E-PER (NNS prosecutors)))(PP (IN on)(NP (NNP Wednesday))))))))))))(. .)))(NNP Prosecution)(ROOT (S (NP (NP (E-PER (NNP Antasari)(NNP Ashar)))(, ,)(NP (NP (E-PER (NN chief)))(PP (IN of)(NP (NNP South)(E-GPE (NNP Jakarta))(NNP Prosecution)(E-ORG (NNP Office))))))))) |ET| 11:861 12:862 13:855 14:5 16:6 17:7 18:26 21:9 22:10 23:856 24:863 25:1 26:1 27:860 28:860 29:857 30:860 31:187 32:864 33:858 34:865 35:19 37:859 38:859 39:19 40:860 41:860 42:860 43:21 44:864 45:864 46:860 47:21 48:22 49:22  |EV| 
0.12042897930907742187756070961768  |BT| (S (NP (CD two))(VP (VBP have)(NP (NP (DT a)(JJ combined)(NN membership))))) |BT| (BOW (have *)) |BT| (BOH (have *)) |BT| (BOH-NPs ) |BT| (LP (CD *)(NP *)(S *)(VP *)(NP *)(NN *)) |BT| (LP-head (CD *)(NP *)(S have)(VP *)(NP *)(NN *)) |BT| (S (NP (CD two))(VP (VBP have)(NP (NP (DT a)(JJ combined)(NN membership))))) |BT| (S (ROOT (S (NP (E-ORG (CD two)))(VP (VBP have)(NP (NP (DT a)(JJ combined)(E-PER (NN membership)))(PP (IN of)(NP (QP (CD 1.8)(E-PER (CD million)))))))(. .)))(ROOT (S (NP (DT The)(E-ORG (CD two)))(VP (VBP have)(NP (NP (DT a)(JJ combined)(E-PER (NN membership)))))))) |ET| 5:19 11:10379 12:10380 13:10381 14:4850 16:47 17:7 18:126 19:1556 21:2107 22:3404 23:5162 24:10382 25:117 26:117 27:581 28:10383 29:220 30:10383 31:14 32:430 33:5164 34:10384 37:31 38:2180 40:21 41:21 42:21 43:581 44:21 45:21 46:21 47:581 48:22 49:22  |EV| 
0.12499999999996855293282749244099  |BT| (NNP Yugoslav) |BT| (BOW ) |BT| (BOH ) |BT| (BOH-NPs (Vojislav *)) |BT| (LP (NNP *)(NP *)(NNP *)) |BT| (LP-head (NNP *)(NP Kostunica)(NNP *)) |BT| (NNP Yugoslav) |BT| (NP (ROOT (S (VP (PP (NP (NP (E-GPE (NNP Yugoslav))(E-PER (NNP President))(E-PER (NNP Vojislav)(NNP Kostunica)))(PP (IN in)(NP (E-GPE (NNP Belgrade))))))(PP (IN on)(NP (NNP Thursday)))(S (VP (VP (TO to)(VP (VB offer)(NP (NNS congratulations))(PP (IN on)(NP (NP (E-PER (NNP Kostunica))(POS 's))(NN election)(NN victory)))))(CC and)(VP (TO to)(VP (VB highlight)(NP (DT the)(NN message))(SBAR (IN that)(S (NP (JJ further)(NN progress))(VP (VBZ is)(VP (VBN expected))))))))))(. .)))(NNP President)(ROOT (S (NP (NP (E-PER (NNP James)(NNP C.)(NNP O'Brien)))(, ,)(NP (NP (DT the)(JJ senior)(E-GPE (NNP U.S.))(E-PER (NN official)))(VP (VBG overseeing)(NP (NP (NNS developments))(PP (IN in)(NP (DT the)(E-LOC (NNP Balkans)))))))(, ,))(VP (VBD met)(PP (IN with)(NP (NP (JJ new)(E-GPE (NNP Yugoslav))(E-PER (NNP President))(E-PER (NNP Vojislav)(NNP Kostunica))))))))) |ET| 11:3734 12:3735 13:3127 14:5 16:6 17:7 18:35 21:9 22:10 23:3129 24:1768 25:1 26:1 27:87 28:87 29:3158 30:87 31:72 32:3135 33:3132 34:1769 35:19 37:1764 38:1764 39:19 40:1765 41:1765 42:1765 43:21 44:87 45:87 46:1765 47:21 48:22 49:22  |EV| 
-0.0083208264130142078202068134373803  |BT| (S (NP (NP (JJ Syrian)(NN leader)(POS 's))(NN visit))(VP (VBD came)(PP (IN on)(NP (NP (DT a)(JJ fourth)(NN day))(PP (IN of)(NP (NP (NNS clashes))(SBAR (WHNP (WDT that))(S (VP (VBP have)(VP (VBN raged)(PP (IN in)(NP (NP (DT the)(NNP West)(NNP Bank))(, ,)(NP (NNP Gaza)(NNP Strip)))))))))))))) |BT| (BOW (leader *)('s *)(visit *)(came *)(on *)(a *)(fourth *)(day *)(of *)(clashes *)(that *)(have *)(raged *)(in *)(the *)(West *)) |BT| (BOH (visit *)(came *)(on *)(day *)(of *)(clashes *)(that *)(have *)(raged *)(in *)(Bank *)) |BT| (BOH-NPs (visit *)(day *)(clashes *)(Bank *)) |BT| (LP (JJ *)(NP *)(S *)(VP *)(PP *)(NP *)(PP *)(NP *)(SBAR *)(S *)(VP *)(PP *)(NP *)(NNP *)) |BT| (LP-head (JJ *)(NP *)(S came)(VP *)(PP *)(NP *)(PP *)(NP *)(SBAR *)(S *)(VP *)(PP *)(NP *)(NNP *)) |BT| (S (NP (NP (JJ Syrian)(NN leader)(POS 's))(NN visit))(VP (VBD came)(PP (IN on)(NP (NP (DT a)(JJ fourth)(NN day))(PP (IN of)(NP (NP (NNS clashes))(SBAR (WHNP (WDT that))(S (VP (VBP have)(VP (VBN raged)(PP (IN in)(NP (NP (DT the)(NNP West)(NNP Bank))(, ,)(NP (NNP Gaza)(NNP Strip)))))))))))))) |BT| (S (ROOT (S (NP (NP (E-GPE (JJ Syrian))(E-PER (NN leader))(POS 's))(NN visit))(VP (VBD came)(PP (IN on)(NP (NP (DT a)(JJ fourth)(NN day))(PP (IN of)(NP (NP (NNS clashes))(SBAR (WHNP (WDT that))(S (VP (VBP have)(VP (VBN raged)(PP (IN in)(NP (NP (DT the)(E-LOC (NNP West)(NNP Bank)))(, ,)(NP (E-LOC (NNP Gaza)(NNP Strip)))(CC and)(NP (E-GPE (NNP Jerusalem)))))))))))))(, ,)(S (VP (VBG leaving)(S (NP (QP (XS (JJR more)(IN than))(CD two)(NN dozen))(E-PER (NNPS Palestinians)))(ADJP (JJ dead))))))(. .)))(ROOT (S (NP (NP (DT The)(E-GPE (JJ Syrian))(E-PER (NN leader))(POS 's))(NN visit))(VP (VBD came)(PP (IN on)(NP (NP (DT a)(JJ fourth)(NN day))(PP (IN of)(NP (NP (NNS clashes))(SBAR (WHNP (WDT that))(S (VP (VBP have)(VP (VBN raged)(PP (IN in)(NP (NP (DT the)(E-LOC (NNP West)(NNP Bank)))(, ,)(NP (E-LOC (NNP Gaza)(NNP Strip))))))))))))))))) |ET| 11:235 12:236 13:216 14:5 16:135 17:6 18:93 21:165 22:227 23:218 24:237 25:1 26:1 27:224 28:13 29:220 30:13 31:14 32:230 33:222 34:238 37:224 38:239 40:221 41:21 42:231 43:231 44:21 45:21 46:230 47:230 48:233 49:106  |EV| 
-0.051208095549327953266427471135103  |BT| (S (NP (NP (JJ Syrian)(NN leader)(POS 's))(NN visit))(VP (VBD came)(PP (IN on)(NP (NP (DT a)(JJ fourth)(NN day))(PP (IN of)(NP (NP (NNS clashes))(SBAR (WHNP (WDT that))(S (VP (VBP have)(VP (VBN raged)(PP (IN in)(NP (NP (DT the)(NNP West)(NNP Bank)))))))))))))) |BT| (BOW (leader *)('s *)(visit *)(came *)(on *)(a *)(fourth *)(day *)(of *)(clashes *)(that *)(have *)(raged *)) |BT| (BOH (visit *)(came *)(on *)(day *)(of *)(clashes *)(that *)(have *)(raged *)(in *)) |BT| (BOH-NPs (visit *)(day *)(clashes *)(West *)) |BT| (LP (JJ *)(NP *)(S *)(VP *)(PP *)(NP *)(PP *)(NP *)(SBAR *)(S *)(VP *)(PP *)(NP *)(NNP *)) |BT| (LP-head (JJ *)(NP *)(S came)(VP *)(PP *)(NP *)(PP *)(NP *)(SBAR *)(S *)(VP *)(PP *)(NP *)(NNP *)) |BT| (S (NP (NP (JJ Syrian)(NN leader)(POS 's))(NN visit))(VP (VBD came)(PP (IN on)(NP (NP (DT a)(JJ fourth)(NN day))(PP (IN of)(NP (NP (NNS clashes))(SBAR (WHNP (WDT that))(S (VP (VBP have)(VP (VBN raged)(PP (IN in)(NP (NP (DT the)(NNP West)(NNP Bank)))))))))))))) |BT| (S (ROOT (S (NP (NP (E-GPE (JJ Syrian))(E-PER (NN leader))(POS 's))(NN visit))(VP (VBD came)(PP (IN on)(NP (NP (DT a)(JJ fourth)(NN day))(PP (IN of)(NP (NP (NNS clashes))(SBAR (WHNP (WDT that))(S (VP (VBP have)(VP (VBN raged)(PP (IN in)(NP (NP (DT the)(E-LOC (NNP West)(NNP Bank)))(, ,)(NP (E-LOC (NNP Gaza)(NNP Strip)))(CC and)(NP (E-GPE (NNP Jerusalem)))))))))))))(, ,)(S (VP (VBG leaving)(S (NP (QP (XS (JJR more)(IN than))(CD two)(NN dozen))(E-PER (NNPS Palestinians)))(ADJP (JJ dead))))))(. .)))(ROOT (S (NP (NP (DT The)(E-GPE (JJ Syrian))(E-PER (NN leader))(POS 's))(NN visit))(VP (VBD came)(PP (IN on)(NP (NP (DT a)(JJ fourth)(NN day))(PP (IN of)(NP (NP (NNS clashes))(SBAR (WHNP (WDT that))(S (VP (VBP have)(VP (VBN raged)(PP (IN in)(NP (NP (DT the)(E-LOC (NNP West)(NNP Bank))))))))))))))))) |ET| 11:225 12:226 13:216 14:5 16:151 17:7 18:93 21:165 22:227 23:218 24:228 25:1 26:1 27:224 28:105 29:220 30:105 31:14 32:106 33:222 34:229 37:224 38:230 40:221 41:21 42:231 43:231 44:21 45:21 46:232 47:106 48:233 49:234  |EV| 
-0.0040749372535916726645321972455349  |BT| (S (NP (NP (NN leader)(POS 's))(NN visit))(VP (VBD came)(PP (IN on)(NP (NP (DT a)(JJ fourth)(NN day))(PP (IN of)(NP (NP (NNS clashes))(SBAR (WHNP (WDT that))(S (VP (VBP have)(VP (VBN raged)(PP (IN in)(NP (NP (DT the)(NNP West)(NNP Bank))(, ,)(NP (NNP Gaza)(NNP Strip)))))))))))))) |BT| (BOW ('s *)(visit *)(came *)(on *)(a *)(fourth *)(day *)(of *)(clashes *)(that *)(have *)(raged *)(in *)(the *)(West *)) |BT| (BOH (visit *)(came *)(on *)(day *)(of *)(clashes *)(that *)(have *)(raged *)(in *)(Bank *)) |BT| (BOH-NPs (visit *)(day *)(clashes *)(Bank *)) |BT| (LP (NN *)(NP *)(S *)(VP *)(PP *)(NP *)(PP *)(NP *)(SBAR *)(S *)(VP *)(PP *)(NP *)(NNP *)) |BT| (LP-head (NN *)(NP *)(S came)(VP *)(PP *)(NP *)(PP *)(NP *)(SBAR *)(S *)(VP *)(PP *)(NP *)(NNP *)) |BT| (S (NP (NP (NN leader)(POS 's))(NN visit))(VP (VBD came)(PP (IN on)(NP (NP (DT a)(JJ fourth)(NN day))(PP (IN of)(NP (NP (NNS clashes))(SBAR (WHNP (WDT that))(S (VP (VBP have)(VP (VBN raged)(PP (IN in)(NP (NP (DT the)(NNP West)(NNP Bank))(, ,)(NP (NNP Gaza)(NNP Strip)))))))))))))) |BT| (S (ROOT (S (NP (NP (E-PER (NN leader))(POS 's))(NN visit))(VP (VBD came)(PP (IN on)(NP (NP (DT a)(JJ fourth)(NN day))(PP (IN of)(NP (NP (NNS clashes))(SBAR (WHNP (WDT that))(S (VP (VBP have)(VP (VBN raged)(PP (IN in)(NP (NP (DT the)(E-LOC (NNP West)(NNP Bank)))(, ,)(NP (E-LOC (NNP Gaza)(NNP Strip)))(CC and)(NP (E-GPE (NNP Jerusalem)))))))))))))(, ,)(S (VP (VBG leaving)(S (NP (QP (XS (JJR more)(IN than))(CD two)(NN dozen))(E-PER (NNPS Palestinians)))(ADJP (JJ dead))))))(. .)))(ROOT (S (NP (NP (DT The)(E-GPE (JJ Syrian))(E-PER (NN leader))(POS 's))(NN visit))(VP (VBD came)(PP (IN on)(NP (NP (DT a)(JJ fourth)(NN day))(PP (IN of)(NP (NP (NNS clashes))(SBAR (WHNP (WDT that))(S (VP (VBP have)(VP (VBN raged)(PP (IN in)(NP (NP (DT the)(E-LOC (NNP West)(NNP Bank)))(, ,)(NP (E-LOC (NNP Gaza)(NNP Strip))))))))))))))))) |ET| 1:19 11:235 12:236 13:214 14:215 16:134 17:6 18:152 21:9 22:157 23:219 24:237 25:118 26:118 27:58 28:13 29:221 30:13 31:220 32:230 33:223 34:238 37:224 38:239 40:221 41:21 42:231 43:231 44:21 45:21 46:230 47:230 48:233 49:106  |EV| 
0.050399637037369132697151030697569  |BT| (NP (NP (JJ Democratic)(NN vice))(NP (NP (JJ presidential)(NN candidate)))) |BT| (BOW ) |BT| (BOH ) |BT| (BOH-NPs ) |BT| (LP (JJ *)(NP *)(NP *)(NN *)) |BT| (LP-head (JJ *)(NP AP)(NP *)(NN *)) |BT| (NP (NP (JJ Democratic)(NN vice))(NP (NP (JJ presidential)(NN candidate)))) |BT| (NP (ROOT (S (NP (NP (E-ORG (JJ Democratic))(NN vice))(NP (NP (JJ presidential)(E-PER (NN candidate)))(NP (E-PER (NNP Joseph)(NNP Lieberman)))))(VP (VBD said)(NP-TMP (NNP Wednesday))(SBAR (IN that)(S (PP (TO to)(NP (NP (E-PER (PRP him)))(CC and)(NP (E-PER (NNP Al)(NNP Gore)))))(, ,)(S (VP (VBG protecting)(NP (DT the)(NN environment))))(VP (VBZ is)(`` ``)(NP (NP (DT a)(NN matter))(PP (IN of)(NP (NN faith))))))))(. .)('' '')))(ROOT (S (NP (NP (E-ORG (-LRB- -LRB-)(NN AP))(-RRB- -RRB-))(NP (CD _)(E-ORG (JJ Democratic))(NN vice))(NP (NP (JJ presidential)(E-PER (NN candidate)))))))) |ET| 5:19 11:5337 12:5338 13:4793 14:24 16:25 17:7 18:126 21:165 22:217 23:4796 24:2156 25:117 26:117 27:1336 28:1334 29:40 30:1334 31:129 32:1336 33:4799 34:2157 35:19 37:1336 38:2161 40:2784 41:43 42:21 43:21 44:21 45:43 46:21 47:21 48:22 49:22  |EV| 
-0.12499999999996855293282749244099  |BT| (NP (PRP$ his)(NN republic)) |BT| (BOW ) |BT| (BOH ) |BT| (BOH-NPs ) |BT| (LP (PRP$ *)(NP *)(NN *)) |BT| (LP-head (PRP$ *)(NP republic)(NN *)) |BT| (NP (PRP$ his)(NN republic)) |BT| (NP (ROOT (NP (NP (PP (NP (NP (E-PER (PRP$ his))(E-GPE (NN republic)))(CC and)(PRN (, ,)(ADVP (RB indirectly))(, ,))(NP (NP (RB much))(PP (IN of)(NP (NP (DT the)(NN republic)(POS 's))(NN economy)))))))(. .)))(ROOT (NP (NP (E-PER (JJ Milutinovic))(NNS controls))(NP (NP (QP (RB approximately)(CD 100,000))(E-PER (NNS policemen)))(PP (IN in)(NP (NP (E-PER (PRP$ his))(E-GPE (NN republic))))))))) |ET| 11:3148 12:3149 13:32 14:33 16:7 17:7 18:143 21:144 22:149 23:2753 24:2858 25:118 26:118 27:31 28:31 29:106 30:279 31:3147 32:106 33:2756 34:2860 35:19 36:19 37:2861 38:2861 39:19 40:106 41:3147 42:21 43:21 44:2952 45:3147 46:21 47:21 48:22 49:22  |EV| 
0.11746338228850439211470302325324  |BT| (NP (NP (JJ Democratic)(NN vice))(NP (NP (JJ presidential)(NN candidate)))) |BT| (BOW ) |BT| (BOH ) |BT| (BOH-NPs ) |BT| (LP (JJ *)(NP *)(NP *)(NN *)) |BT| (LP-head (JJ *)(NP AP)(NP *)(NN *)) |BT| (NP (NP (JJ Democratic)(NN vice))(NP (NP (JJ presidential)(NN candidate)))) |BT| (NP (ROOT (S (NP (NP (E-ORG (JJ Democratic))(NN vice))(NP (NP (JJ presidential)(E-PER (NN candidate)))(NP (E-PER (NNP Joseph)(NNP Lieberman)))))(VP (VBD said)(NP-TMP (NNP Wednesday))(SBAR (IN that)(S (PP (TO to)(NP (NP (E-PER (PRP him)))(CC and)(NP (E-PER (NNP Al)(NNP Gore)))))(, ,)(S (VP (VBG protecting)(NP (DT the)(NN environment))))(VP (VBZ is)(`` ``)(NP (NP (DT a)(NN matter))(PP (IN of)(NP (NN faith))))))))(. .)('' '')))(ROOT (S (NP (NP (E-ORG (-LRB- -LRB-)(NN AP))(-RRB- -RRB-))(NP (CD _)(E-ORG (JJ Democratic))(NN vice))(NP (NP (JJ presidential)(E-PER (NN candidate)))))))) |ET| 5:19 11:5337 12:5338 13:4793 14:24 16:25 17:7 18:126 21:165 22:217 23:4796 24:2156 25:117 26:117 27:1336 28:1334 29:40 30:1334 31:129 32:1336 33:4799 34:2157 35:19 37:1336 38:2161 40:2784 41:43 42:21 43:21 44:21 45:43 46:21 47:21 48:22 49:22  |EV| 
-0.12499999999996855293282749244099  |BT| (NP (JJ Islamic)(NN group)) |BT| (BOW ) |BT| (BOH ) |BT| (BOH-NPs ) |BT| (LP (JJ *)(NP *)(NN *)) |BT| (LP-head (JJ *)(NP group)(NN *)) |BT| (NP (JJ Islamic)(NN group)) |BT| (NP (ROOT (S (VP (PP (NP (VP (PP (NP (PP (NP (NP (NP (E-ORG (JJ Islamic))(E-ORG (NN group)))(NP (E-ORG (NNP Hamas))))(, ,)(CC and)(NP (DT a)(JJR smaller)(E-GPE (JJ Palestinian))(NN flag))))))))))(. .)))(ROOT (S (NP (E-PER (NNS People)))(ADVP (RB still))(VP (VBD wandered)(ADVP (RB curiously))(PP (IN around)(NP (NP (DT the)(JJ small)(E-FAC (NN enclave)))(, ,)(VP (ADVP (RB now))(VBN topped)(PP (IN by)(NP (NP (DT a)(JJ large)(NN flag))(PP (IN of)(NP (NP (NP (DT the)(JJ radical)(E-ORG (JJ Islamic))(E-ORG (NN group))))))))))))))) |ET| 11:2478 12:2479 13:2474 14:24 16:7 17:7 18:435 21:165 22:217 23:2475 24:1497 25:117 26:117 27:31 28:31 29:2476 30:2480 31:105 32:2476 33:2477 34:1500 35:19 36:19 37:1502 38:1502 39:19 40:2480 41:2467 42:21 43:21 44:2471 45:2476 46:21 47:21 48:22 49:22  |EV| 
-0.12499999999996855293282749244099  |BT| (NP (PRP$ his)(NN father)) |BT| (BOW ) |BT| (BOH ) |BT| (BOH-NPs ) |BT| (LP (PRP$ *)(NP *)(NN *)) |BT| (LP-head (PRP$ *)(NP father)(NN *)) |BT| (NP (PRP$ his)(NN father)) |BT| (NP (ROOT (S (VP (VP (SBAR (S (NP (NP (E-PER (PRP$ his))(E-PER (NN father)))(, ,)(NP (E-PER (NNP Hafez)(NNP Assad)))(, ,))(VP (VBD died)(PP (IN in)(NP (NNP June)))(PP (IN after)(NP (NP (CD 30)(NNS years))(PP (IN in)(NP (NN power))))))))))(. .)))(ROOT (S (NP (NP (E-PER (NNP Assad)))(, ,)(NP (CD 35))(, ,))(VP (VBZ has)(VP (VBN focused)(PP (IN on)(NP (JJ domestic)(NNS issues)))(SBAR (IN since)(S (NP (NP (E-PER (PRP$ his))(E-PER (NN father))))))))))) |ET| 2:19 3:19 6:19 7:19 8:19 11:276 12:277 13:32 14:33 16:7 17:7 18:148 21:144 22:149 23:65 24:278 25:118 26:118 27:31 28:31 29:184 30:279 31:273 32:184 33:172 34:280 35:19 36:19 37:274 38:274 39:19 40:273 41:273 42:21 43:21 44:67 45:285 46:21 47:21 48:22 49:22  |EV| 
-0.12499999999996855293282749244099  |BT| (NP (PRP$ his)(NN father)) |BT| (BOW ) |BT| (BOH ) |BT| (BOH-NPs ) |BT| (LP (PRP$ *)(NP *)(NN *)) |BT| (LP-head (PRP$ *)(NP father)(NN *)) |BT| (NP (PRP$ his)(NN father)) |BT| (NP (ROOT (S (VP (SBAR (S (NP (VP (SBAR (S (NP (E-PER (PRP$ his))(E-PER (NN father)))(VP (VBD was)(ADVP (RB still))(PP (IN in)(NP (NN power)))))))(, ,))(VP (VBD had)(VP (VBN cost)(NP (DT the)(E-GPE (JJ Indonesian))(E-GPE (NN state)))(NP ($ $)(QP (CD 10.8)(CD million))))))))(. .)))(ROOT (S (NP (E-PER (NNS Prosecutors)))(VP (VBD said)(SBAR (S (NP (NP (DT the)(CD 1997)(NN deal))(, ,)(VP (VBN made)(SBAR (WHADVP (WRB when))(S (NP (E-PER (PRP$ his))(E-PER (NN father))))))))))))) |ET| 2:19 3:19 6:19 7:19 8:19 11:319 12:320 13:32 14:33 16:7 17:7 18:148 21:144 22:149 23:683 24:278 25:118 26:118 27:31 28:31 29:503 30:279 31:708 32:503 33:688 34:280 35:19 36:19 37:274 38:274 39:19 40:503 41:696 42:21 43:21 44:710 45:708 46:21 47:21 48:22 49:22  |EV| 
0.12499999999996855293282749244099  |BT| (NP (NP (NN chief))(PP (IN of)(NP (NNP South)(NNP Jakarta)(NNP Prosecution)(NNP Office)))) |BT| (BOW (of *)(South *)) |BT| (BOH (of *)) |BT| (BOH-NPs (Prosecution *)) |BT| (LP (NN *)(NP *)(PP *)(NP *)(NNP *)) |BT| (LP-head (NN *)(NP chief)(PP *)(NP *)(NNP *)) |BT| (NP (NP (NN chief))(PP (IN of)(NP (NNP South)(NNP Jakarta)(NNP Prosecution)(NNP Office)))) |BT| (NP (ROOT (S (NP (NP (NP (E-PER (NN chief)))(PP (IN of)(NP (NNP South)(E-GPE (NNP Jakarta))(NNP Prosecution)(E-ORG (NNP Office)))))(, ,))(VP (VBD said)(SBAR (S (NP (E-PER (NNP Tommy)))(VP (MD would)(ADVP (RB again))(VP (VB be)(VP (VBN summoned)(S (VP (TO to)(VP (VB meet)(NP (E-PER (NNS prosecutors)))(PP (IN on)(NP (NNP Wednesday))))))))))))(. .)))(ROOT (S (NP (NP (E-PER (NNP Antasari)(NNP Ashar)))(, ,)(NP (NP (E-PER (NN chief)))(PP (IN of)(NP (NNP South)(E-GPE (NNP Jakarta))(NNP Prosecution)(E-ORG (NNP Office))))))))) |ET| 1:19 5:19 11:861 12:862 13:845 14:797 16:55 17:6 18:301 21:9 22:157 23:849 24:863 25:118 26:118 27:187 28:860 29:13 30:860 31:851 32:864 33:853 34:865 37:854 38:859 40:851 41:851 42:860 43:187 44:868 45:868 46:860 47:187 48:22 49:22  |EV| 
0.12499999999996855293282749244099  |BT| (NP (NP (NN regime))(PP (IN of)(NP (NNP Yugoslav)(NNP President)(NNP Slobodan)(NNP Milosevic)))) |BT| (BOW (of *)) |BT| (BOH (of *)) |BT| (BOH-NPs (Slobodan *)) |BT| (LP (NN *)(NP *)(PP *)(NP *)(NNP *)) |BT| (LP-head (NN *)(NP regime)(PP *)(NP *)(NNP *)) |BT| (NP (NP (NN regime))(PP (IN of)(NP (NNP Yugoslav)(NNP President)(NNP Slobodan)(NNP Milosevic)))) |BT| (NP (ROOT (S (VP (NP (SBAR (S (VP (VP (S (VP (VP (NP (NP (E-ORG (NN regime)))(PP (IN of)(NP (E-GPE (NNP Yugoslav))(E-PER (NNP President))(E-PER (NNP Slobodan)(NNP Milosevic))))))))))))))(. .)))(ROOT (S (NP (E-PER (NNP Clinton)))(VP (VBD announced)(NP (NP (DT the)(JJ immediate)(NN ending))(PP (IN of)(NP (NP (DT the)(NN oil)(NN embargo))(CC and)(NP (NN flight)(NN ban))))(SBAR (WHNP (WDT that))(S (VP (VBD were)(VP (VBN imposed)(PP (IN in)(NP (CD 1998)))(S (VP (TO to)(VP (VB punish)(CC and)(VB isolate)(NP (NP (DT the)(E-ORG (NN regime)))(PP (IN of)(NP (E-GPE (NNP Yugoslav))(E-PER (NNP President))(E-PER (NNP Slobodan)(NNP Milosevic))))))))))))))))) |ET| 5:19 11:3714 12:3715 13:3705 14:3706 16:47 17:25 18:126 21:9 22:157 23:3707 24:1760 25:117 26:117 27:187 28:87 29:105 30:87 31:3274 32:3135 33:3709 34:1761 37:3710 38:1721 40:3274 41:3712 42:1774 43:187 44:3716 45:3717 46:1774 47:187 48:22 49:22  |EV| 
0.12499999999996855293282749244099  |BT| (NP (NP (NNP Don)(NNP Brown))(PP (IN of)(NP (NP (NNP DJB)(NNPS Associates)(NNP LLC))))) |BT| (BOW ) |BT| (BOH (of *)) |BT| (BOH-NPs ) |BT| (LP (NNP *)(NP *)(PP *)(NP *)(NNP *)) |BT| (LP-head (NNP *)(NP Brown)(PP *)(NP *)(NNP *)) |BT| (NP (NP (NNP Don)(NNP Brown))(PP (IN of)(NP (NP (NNP DJB)(NNPS Associates)(NNP LLC))))) |BT| (NP (ROOT (SINV (NP (NP (E-PER (NNP Don)(NNP Brown)))(PP (IN of)(NP (NP (E-ORG (NNP DJB)(NNPS Associates)(NNP LLC)))(PP (IN of)(NP (E-GPE (NNP Irvine)))))))(. .)))(ROOT (SINV (S (NP (E-ORG (NNP Cycle)(NNP World)))(VP (VBD brought)(NP (JJ objective)(NN journalism))(PP (TO to)(NP (E-VEH (NN motorcycle))(E-ORG (NNS periodicals))))(PP (IN by)(NP (NP (VBG offering)(E-FAC (NN road))(NNS tests))(CC and)(NP (NP (DT a)(ADJP (RBR more)(JJ critical))(NN eye))(PP (IN than)(NP (NP (NP (JJ other)(E-PER (NN fan)))(: -)(ADJP (VBN oriented)))(E-ORG (NNS magazines)))))))))(, ,)(VP (VBD said)(NP (E-PER (NN analyst))))(NP (NP (E-PER (NNP Don)(NNP Brown)))(PP (IN of)(NP (NP (E-ORG (NNP DJB)(NNPS Associates)(NNP LLC))))))))) |ET| 5:19 11:13311 12:13312 13:13307 14:13308 16:6 17:7 18:301 21:9 22:10 23:13309 24:13313 25:118 26:118 27:187 28:187 29:2927 30:187 31:170 32:4830 33:13310 34:13314 37:4830 38:13315 40:2927 41:2927 42:21 43:187 44:4690 45:170 46:21 47:187 48:22 49:22  |EV| 
0.12499999999996855293282749244099  |BT| (NP (NP (JJ Democratic)(NN vice))(NP (NP (JJ presidential)(NN candidate)))) |BT| (BOW ) |BT| (BOH ) |BT| (BOH-NPs ) |BT| (LP (JJ *)(NP *)(NP *)(NN *)) |BT| (LP-head (JJ *)(NP AP)(NP *)(NN *)) |BT| (NP (NP (JJ Democratic)(NN vice))(NP (NP (JJ presidential)(NN candidate)))) |BT| (NP (ROOT (S (NP (NP (E-ORG (JJ Democratic))(NN vice))(NP (NP (JJ presidential)(E-PER (NN candidate)))(NP (E-PER (NNP Joseph)(NNP Lieberman)))))(VP (VBD said)(NP-TMP (NNP Wednesday))(SBAR (IN that)(S (PP (TO to)(NP (NP (E-PER (PRP him)))(CC and)(NP (E-PER (NNP Al)(NNP Gore)))))(, ,)(S (VP (VBG protecting)(NP (DT the)(NN environment))))(VP (VBZ is)(`` ``)(NP (NP (DT a)(NN matter))(PP (IN of)(NP (NN faith))))))))(. .)('' '')))(ROOT (S (NP (NP (E-ORG (-LRB- -LRB-)(NN AP))(-RRB- -RRB-))(NP (CD _)(E-ORG (JJ Democratic))(NN vice))(NP (NP (JJ presidential)(E-PER (NN candidate)))))))) |ET| 5:19 11:5337 12:5338 13:4793 14:24 16:25 17:7 18:126 21:165 22:217 23:4796 24:2156 25:117 26:117 27:1336 28:1334 29:40 30:1334 31:129 32:1336 33:4799 34:2157 35:19 37:1336 38:2161 40:2784 41:43 42:21 43:21 44:21 45:43 46:21 47:21 48:22 49:22  |EV| 
-0.072398180474364942638132447427779  |BT| (NP (NP (NN legislature))(PP (IN of)(NP (NP (NNP Serbia))(, ,)(NP (NP (NNP Yugoslavia)))))) |BT| (BOW (of *)) |BT| (BOH (of *)(Serbia *)) |BT| (BOH-NPs (Serbia *)) |BT| (LP (NN *)(NP *)(PP *)(NP *)(NNP *)) |BT| (LP-head (NN *)(NP legislature)(PP *)(NP *)(NNP *)) |BT| (NP (NP (NN legislature))(PP (IN of)(NP (NP (NNP Serbia))(, ,)(NP (NP (NNP Yugoslavia)))))) |BT| (NP (ROOT (S (VP (NP (PP (NP (NP (E-ORG (NN legislature)))(PP (IN of)(NP (NP (E-GPE (NNP Serbia)))(, ,)(NP (NP (E-GPE (NNP Yugoslavia))(POS 's))(JJ dominant)(E-GPE (NN republic)))(, ,)(SBAR (WHADVP (E-ORG (WRB where)))(S (NP (E-ORG (PRP they)))(VP (VBP are)(VP (VBN allied)(PP (IN with)(NP (DT the)(JJ ultranationalist)(E-ORG (NNP Radical)(NNP Party))))))))))))))(. .)))(ROOT (S (PP (IN Despite)(NP (NP (JJ massive))(SBAR (S (VP (VBZ defeats)(PP (IN in)(NP (NP (DT the)(JJ presidential)(NN ballot))(CC and)(NP (JJ local)(E-ORG (NN council))(NNS elections)))))))))(, ,)(NP (DT the)(E-ORG (NNPS Socialists)))(ADVP (RB still))(VP (VBP have)(NP (NP (DT a)(NN majority))(PP (IN in)(NP (NP (DT the)(NN state)(E-ORG (NN legislature)))(PP (IN of)(NP (NP (E-GPE (NNP Serbia)))(, ,)(NP (NP (E-GPE (NNP Yugoslavia))))))))))))) |ET| 11:1982 12:45 13:2848 14:2849 16:47 17:6 18:130 21:9 22:157 23:2850 24:1666 25:117 26:117 27:187 28:13 29:268 30:13 31:105 32:2756 33:2851 34:1667 37:2852 38:1668 40:268 41:268 42:2756 43:187 44:2853 45:106 46:2756 47:2756 48:22 49:187  |EV| 
-0.12499999999996855293282749244099  |BT| (NP (NP (NN head))(PP (IN of)(NP (NP (DT an)(JJ influential)(NN group))(PP (IN of)(NP (NNS economists)))))) |BT| (BOW (of *)(an *)(influential *)) |BT| (BOH (of *)(group *)(of *)) |BT| (BOH-NPs (group *)) |BT| (LP (NN *)(NP *)(PP *)(NP *)(PP *)(NP *)(NNS *)) |BT| (LP-head (NN *)(NP head)(PP *)(NP *)(PP *)(NP *)(NNS *)) |BT| (NP (NP (NN head))(PP (IN of)(NP (NP (DT an)(JJ influential)(NN group))(PP (IN of)(NP (NNS economists)))))) |BT| (NP (ROOT (S (NP (NP (NP (E-PER (NN head)))(PP (IN of)(NP (NP (DT an)(JJ influential)(E-PER (NN group)))(PP (IN of)(NP (E-PER (NNS economists)))))))(, ,))(VP (VBD demanded)(NP-TMP (NNP Sunday))(SBAR (IN that)(S (NP (E-PER (NNP Milosevic)))(VP (VB be)(VP (VBN punished)(PP (IN for)(NP (NN vote-rigging))))))))(. .)))(ROOT (S (NP (NP (NP (NP (E-GPE (NNP Norway))(POS 's))(NNP Foreign)(E-PER (NNP Minister))(E-PER (NNP Thorbjoern)(NNP Jagland)))(CC and)(NP (E-PER (NNP Mladjan)(NNP Dinkic))))(, ,)(NP (NP (DT the)(E-PER (NN head)))(PP (IN of)(NP (NP (DT an)(JJ influential)(E-PER (NN group)))(PP (IN of)(NP (E-PER (NNS economists))))))))))) |ET| 4:19 11:3190 12:33 13:3185 14:3186 16:64 17:6 18:148 19:3196 21:9 22:160 23:2777 24:3191 25:118 26:118 27:187 28:187 29:105 30:187 31:13 32:1502 33:2778 34:3192 37:2779 38:3193 40:3184 41:3184 42:1502 43:187 44:3195 45:3195 46:1502 47:187 48:22 49:1502  |EV| 
-0.12499999999996855293282749244099  |BT| (NP (NP (NNS backers))(PP (IN of)(NP (NP (DT the)(JJ pro-democracy)(NN leader))))) |BT| (BOW (of *)) |BT| (BOH (of *)) |BT| (BOH-NPs ) |BT| (LP (NNS *)(NP *)(PP *)(NP *)(NN *)) |BT| (LP-head (NNS *)(NP backers)(PP *)(NP *)(NN *)) |BT| (NP (NP (NNS backers))(PP (IN of)(NP (NP (DT the)(JJ pro-democracy)(NN leader))))) |BT| (NP (ROOT (NP (NP (PP (NP (PP (NP (PP (NP (NP (NP (E-PER (NNS backers)))(PP (IN of)(NP (NP (DT the)(JJ pro-democracy)(E-PER (NN leader)))(VP (VBN embarked)(NP-TMP (NNP Sunday))(PP (IN on)(NP (NP (DT the)(ADJP (RB potentially)(JJ volatile))(NN task))(PP (IN of)(S (VP (VBG forming)(NP (NP (DT a)(E-ORG (NN government)))(SBAR (WHNP (E-ORG (WDT that)))(S (VP (VBZ tries)(S (VP (TO to)(VP (VB exclude)(NP (NP (E-PER (NNS backers)))(PP (IN of)(NP (JJ former)(E-PER (NN leader))(E-PER (NNP Slobodan)(NNP Milosevic))))))))))))))))))))))))))))(. .)))(ROOT (NP (NP (NP (E-GPE (NNP BELGRADE))(, ,)(E-GPE (NNP Yugoslavia)))(PRN (-LRB- -LRB-)(NP (NNP AP))(-RRB- -RRB-)))(NP (NP (CD __)(NN N))(PP (IN With)(NP (NP (E-PER (NNP Vojislav)(NNP Kostunica)))(PP (IN in)(NP (NP (NN office))(PP (IN as)(NP (NP (E-PER (NN president)))(, ,)(NP (NP (E-PER (NNS backers)))(PP (IN of)(NP (NP (DT the)(JJ pro-democracy)(E-PER (NN leader)))))))))))))))) |ET| 2:19 11:3056 12:3057 13:3052 14:797 16:47 17:7 18:148 19:381 21:9 22:339 23:3053 24:219 25:118 26:118 27:187 28:788 29:13 30:788 31:60 32:105 33:3054 34:223 37:3055 38:224 40:60 41:60 42:21 43:187 44:3051 45:49 46:21 47:187 48:22 49:22  |EV| 
0.10157849266290733258877310163371  |BT| (NP (PRP$ its)(JJ legal)(NN department)) |BT| (BOW ) |BT| (BOH ) |BT| (BOH-NPs ) |BT| (LP (PRP$ *)(NP *)(NN *)) |BT| (LP-head (PRP$ *)(NP department)(NN *)) |BT| (NP (PRP$ its)(JJ legal)(NN department)) |BT| (NP (ROOT (S (S (VP (VP (PP (NP (E-ORG (PRP$ its))(JJ legal)(E-ORG (NN department)))))))(. .)))(JJ legal)(ROOT (S (S (NP (E-PER (NNP Hanlon)))(VP (VBD said)(SBAR (S (NP (E-PER (PRP he)))(ADVP (RB never))(VP (VBZ has)(VP (VBN implied)(SBAR (IN that)(S (NP (DT the)(JJ future)(NNS sports)(E-ORG (NN bar)))(VP (MD would)(VP (VB be)(VP (VBN called)(SBAR (S (NP (DT the)(NNS Broncos))(VP (VBP Bar)))))))))))))))(, ,)(CC but)(S (NP (E-PER (PRP$ his))(E-ORG (NN company)))(VP (VBZ has)(VP (VBN turned)(PRT (RP over))(NP (DT the)(NN matter))(PP (TO to)(NP (E-ORG (PRP$ its))(JJ legal)(E-ORG (NN department)))))))))) |ET| 11:14631 12:14632 13:305 14:24 16:6 17:7 18:435 21:144 22:149 23:14629 24:14633 25:117 26:117 27:765 28:765 29:291 30:765 31:9471 32:2667 33:14630 34:14634 35:19 37:14620 38:14620 39:19 40:9471 41:9471 42:21 43:21 44:8585 45:3853 46:21 47:21 48:22 49:22  |EV| 
-0.12499999999996855293282749244099  |BT| (NP (NP (JJ Serbian))(NP (NN president))) |BT| (BOW ) |BT| (BOH ) |BT| (BOH-NPs ) |BT| (LP (JJ *)(NP *)(NP *)(NN *)) |BT| (LP-head (JJ *)(NP parliament)(NP *)(NN *)) |BT| (NP (NP (JJ Serbian))(NP (NN president))) |BT| (NP (ROOT (S (VP (VP (SBAR (S (VP (VP (PP (NP (NP (E-GPE (JJ Serbian))(NN parliament))(CC and)(NP (NN president))))))))))(. .)))(ROOT (S (NP (NP (E-PER (NNP Kostunica))(POS 's))(JJ pro-democracy)(E-PER (NNS forces)))(VP (VBP have)(VP (VBN said)(SBAR (S (NP (E-PER (PRP they)))(VP (MD would)(VP (VB demand)(NP (JJ early)(NNS elections))(PP (IN for)(NP (NP (JJ new)(E-GPE (JJ Serbian))(NN parliament))(CC and)(NP (NN president))))))))))))) |ET| 11:182 12:33 13:2900 14:5 16:7 17:7 18:35 21:165 22:217 23:2901 24:3159 25:1 26:1 27:31 28:31 29:3158 30:2904 31:605 32:3158 33:2903 34:3160 35:19 36:19 37:2699 38:2699 39:19 40:2904 41:411 42:21 43:21 44:3155 45:3158 46:21 47:21 48:22 49:22  |EV| 
-0.12499999999996855293282749244099  |BT| (NP (NP (NN leader))(NP (NP (NNP Slobodan)(NNP Milosevic)))) |BT| (BOW ) |BT| (BOH ) |BT| (BOH-NPs ) |BT| (LP (NN *)(NP *)(NP *)(NNP *)) |BT| (LP-head (NN *)(NP leader)(NP *)(NNP *)) |BT| (NP (NP (NN leader))(NP (NP (NNP Slobodan)(NNP Milosevic)))) |BT| (NP (ROOT (S (VP (PP (NP (NP (PP (NP (NP (E-PER (NN leader)))(NP (NP (E-PER (NNP Slobodan)(NNP Milosevic)))(CC and)(VP (VBG recognizing)(NP (NP (NN opposition)(E-PER (NN leader))(E-PER (NNP Vojislav)(NNP Kostunica)))(PP (IN as)(NP (NP (E-PER (NN winner)))(PP (IN of)(NP (DT the)(NNP Sept))))))))))))))(. .)))(ROOT (S (SBAR (IN As)(S (NP (E-PER (PRP he)))(VP (VBD spoke))))(, ,)(NP (E-GPE (NNP Russian))(NNP Foreign)(E-PER (NNP Minister))(E-PER (NNP Ivanov)))(VP (VBD was)(PP (IN in)(NP (NP (E-GPE (NNP Yugoslavia)))(, ,)(NP (NP (NN meeting))(PP (IN with)(NP (NP (VBN ousted)(E-PER (NN leader)))(NP (NP (E-PER (NNP Slobodan)(NNP Milosevic))))))))))))) |ET| 1:19 11:1758 12:1759 13:1755 14:1756 16:7 17:7 18:148 21:9 22:157 23:219 24:1760 25:118 26:118 27:31 28:31 29:1757 30:224 31:72 32:1757 33:223 34:1761 35:19 36:19 37:224 38:1721 40:72 41:315 42:21 43:21 44:1668 45:315 46:21 47:21 48:22 49:22  |EV| 
-0.12499999999996855293282749244099  |BT| (NP (NNP Belgrade)(JJ political)(NN analyst)) |BT| (BOW ) |BT| (BOH ) |BT| (BOH-NPs ) |BT| (LP (NNP *)(NP *)(NN *)) |BT| (LP-head (NNP *)(NP analyst)(NN *)) |BT| (NP (NNP Belgrade)(JJ political)(NN analyst)) |BT| (NP (ROOT (SINV (NP (NP (E-GPE (NNP Belgrade))(JJ political)(E-PER (NN analyst))))(. .)))(JJ political)(ROOT (SINV (`` ``)(S (S (NP (NNP Milutinovic))(VP (VBZ occupies)(NP (DT a)(ADJP (RB very)(JJ strong))(NN post))))(CC and)(S (NP (E-PER (PRP he)))(VP (MD will)(VP (VB remain)(ADJP (ADJP (JJ unswervingly)(JJ loyal))(PP (TO to)(NP (E-PER (NNP Milosevic)))))))))(, ,)('' '')(VP (VBD said))(NP (NP (E-PER (NNP Braca)(NNP Grubacic)))(, ,)(NP (DT a)(E-GPE (NNP Belgrade))(JJ political)(E-PER (NN analyst))))))) |ET| 1:19 11:2937 12:2938 13:1881 14:5 16:6 17:7 18:35 21:9 22:56 23:1882 24:2939 25:1 26:1 27:2940 28:2940 29:430 30:2940 31:13 32:1885 33:1884 34:2941 35:19 37:2927 38:2927 39:19 40:2940 41:1885 42:21 43:21 44:2936 45:1885 46:21 47:21 48:22 49:22  |EV| 
0.12499999999996855293282749244099  |BT| (NP (NP (NNS policemen))(PP (IN in)(NP (NP (PRP$ his)(NN republic))))) |BT| (BOW ) |BT| (BOH (in *)) |BT| (BOH-NPs ) |BT| (LP (NNS *)(NP *)(PP *)(NP *)(NN *)) |BT| (LP-head (NNS *)(NP policemen)(PP *)(NP *)(NN *)) |BT| (NP (NP (NNS policemen))(PP (IN in)(NP (NP (PRP$ his)(NN republic))))) |BT| (NP (ROOT (NP (NP (NP (E-PER (NNS policemen)))(PP (IN in)(NP (NP (E-PER (PRP$ his))(E-GPE (NN republic)))(CC and)(PRN (, ,)(ADVP (RB indirectly))(, ,))(NP (NP (RB much))(PP (IN of)(NP (NP (DT the)(NN republic)(POS 's))(NN economy)))))))(. .)))(ROOT (NP (NP (E-PER (JJ Milutinovic))(NNS controls))(NP (NP (QP (RB approximately)(CD 100,000))(E-PER (NNS policemen)))(PP (IN in)(NP (NP (E-PER (PRP$ his))(E-GPE (NN republic))))))))) |ET| 11:3148 12:3149 13:3139 14:3140 16:25 17:6 18:143 19:338 21:9 22:339 23:3142 24:2858 25:118 26:118 27:106 28:279 29:3143 30:279 31:3144 32:106 33:3146 34:2860 37:3147 38:2861 40:2952 41:2952 42:21 43:106 44:21 45:2880 46:21 47:106 48:22 49:22  |EV| 
0.12499999999996855293282749244099  |BT| (NP (NNP Russian)(NNP Foreign)(NNP Minister)) |BT| (BOW ) |BT| (BOH ) |BT| (BOH-NPs (Minister *)) |BT| (LP (NNP *)(NP *)(NNP *)) |BT| (LP-head (NNP *)(NP Ivanov)(NNP *)) |BT| (NP (NNP Russian)(NNP Foreign)(NNP Minister)) |BT| (NP (ROOT (S (NP (E-GPE (NNP Russian))(NNP Foreign)(E-PER (NNP Minister))(E-PER (NNP Ivanov)))(VP (VBD was)(PP (IN in)(NP (NP (E-GPE (NNP Yugoslavia)))(, ,)(NP (NP (NN meeting))(PP (IN with)(NP (NP (VBN ousted)(E-PER (NN leader)))(NP (NP (E-PER (NNP Slobodan)(NNP Milosevic)))(CC and)(VP (VBG recognizing)(NP (NP (NN opposition)(E-PER (NN leader))(E-PER (NNP Vojislav)(NNP Kostunica)))(PP (IN as)(NP (NP (E-PER (NN winner)))(PP (IN of)(NP (DT the)(NNP Sept))))))))))))))(. .)))(NNP Foreign)(ROOT (S (SBAR (IN As)(S (NP (E-PER (PRP he)))(VP (VBD spoke))))(, ,)(NP (E-GPE (NNP Russian))(NNP Foreign)(E-PER (NNP Minister)))))) |ET| 1:19 11:197 12:33 13:1650 14:5 16:6 17:7 18:35 21:9 22:10 23:1651 24:199 25:1 26:1 27:200 28:200 29:13 30:200 31:1746 32:1689 33:1653 34:201 35:19 37:1748 38:1748 39:19 40:1746 41:21 42:206 43:21 44:21 45:364 46:206 47:21 48:22 49:22  |EV| 
0.12499999999996855293282749244099  |BT| (SBAR (WHNP (WP who))(S (ADVP (RB still))(VP (VBP control)(SBAR (S (NP (NP (NNP Serbia)(POS 's))(NN police))))))) |BT| (BOW (still *)(control *)) |BT| (BOH (still *)(control *)(Serbia *)) |BT| (BOH-NPs (Serbia *)) |BT| (LP (WP *)(WHNP *)(SBAR *)(S *)(VP *)(SBAR *)(S *)(NP *)(NN *)) |BT| (LP-head (WP *)(WHNP *)(SBAR who)(S *)(VP *)(SBAR *)(S *)(NP *)(NN *)) |BT| (SBAR (WHNP (WP who))(S (ADVP (RB still))(VP (VBP control)(SBAR (S (NP (NP (NNP Serbia)(POS 's))(NN police))))))) |BT| (SBAR (ROOT (S (VP (S (VP (VP (S (VP (VP (PP (NP (SBAR (WHNP (E-PER (WP who)))(S (ADVP (RB still))(VP (VBP control)(SBAR (S (NP (NP (E-GPE (NNP Serbia))(POS 's))(E-ORG (NN police)))(VP (VBD __)(NP (NP (E-GPE (NNP Yugoslavia))(POS 's))(NN reintegration))(PP (IN into)(NP (DT the)(E-LOC (NN world)))))))))))))))))))(. .)))(ROOT (S (CC But)(NP (E-PER (NNP Milosevic)))(VP (VBZ appears)(S (VP (TO to)(VP (VB retain)(NP (JJ enough)(JJ residual)(NN power))(S (VP (TO to)(VP (VB block)(NP (NP (NP (E-PER (NNP Kostunica))(POS 's))(NNS reforms))(CC and)(NP (NN __)(NN N)))(PP (IN through)(NP (NP (E-PER (NNS proxies)))(SBAR (WHNP (E-PER (WP who)))(S (ADVP (RB still))(VP (VBP control)(SBAR (S (NP (NP (E-GPE (NNP Serbia))(POS 's))(E-ORG (NN police)))))))))))))))))))) |ET| 2:19 5:19 11:2757 12:2758 13:950 14:33 16:55 17:6 18:301 21:677 22:1477 23:953 24:2759 25:118 26:118 27:1037 28:58 29:2750 30:58 31:703 32:2756 33:954 34:2760 37:955 38:2761 40:2750 41:2750 42:2756 43:1037 44:2748 45:703 46:2756 47:2756 48:22 49:2754  |EV| 
0.033250291838764413354656568344581  |BT| (NP (PRP$ His)(JJ first)(NN team)) |BT| (BOW ) |BT| (BOH ) |BT| (BOH-NPs ) |BT| (LP (PRP$ *)(NP *)(NN *)) |BT| (LP-head (PRP$ *)(NP team)(NN *)) |BT| (NP (PRP$ His)(JJ first)(NN team)) |BT| (NP (ROOT (S (NP (E-PER (PRP$ His))(JJ first)(E-ORG (NN team)))(VP (VBD went)(NP (NP (CD 6-5))(, ,)(VP (VBN followed)(PP (IN by)(NP (NP (JJ last)(NN year)(POS 's))(CD 10-3)(NN record))))(, ,)(SBAR (WHNP (WDT which))(S (VP (VBD included)(NP (DT a)(CD 34-31)(NN victory))(PP (IN over)(NP (E-ORG (NNP Louisville))))(PP (IN in)(NP (DT the)(NNP Humanitarian)(NNP Bowl))))))))(. .)))(JJ first)(ROOT (S (NP (E-PER (PRP$ His))(JJ first)(E-ORG (NN team)))))) |ET| 5:19 6:19 7:19 11:11228 12:11229 13:1286 14:33 16:6 17:7 18:301 21:144 22:149 23:11148 24:763 25:118 26:118 27:179 28:179 29:14 30:179 31:11195 32:1289 33:11179 34:767 35:19 37:768 38:768 39:19 40:21 41:21 42:21 43:21 44:21 45:21 46:21 47:21 48:22 49:22  |EV| 
-0.029398802999447352923834131388503  |BT| (NP (NP (NNS proxies))(SBAR (WHNP (WP who))(S (ADVP (RB still))(VP (VBP control)(SBAR (S (NP (NP (NNP Serbia)(POS 's))(NN police)))))))) |BT| (BOW (who *)(still *)(control *)) |BT| (BOH (who *)(still *)(control *)(Serbia *)) |BT| (BOH-NPs (Serbia *)) |BT| (LP (NNS *)(NP *)(SBAR *)(S *)(VP *)(SBAR *)(S *)(NP *)(NN *)) |BT| (LP-head (NNS *)(NP proxies)(SBAR *)(S *)(VP *)(SBAR *)(S *)(NP *)(NN *)) |BT| (NP (NP (NNS proxies))(SBAR (WHNP (WP who))(S (ADVP (RB still))(VP (VBP control)(SBAR (S (NP (NP (NNP Serbia)(POS 's))(NN police)))))))) |BT| (NP (ROOT (S (VP (S (VP (VP (S (VP (VP (PP (NP (NP (E-PER (NNS proxies)))(SBAR (WHNP (E-PER (WP who)))(S (ADVP (RB still))(VP (VBP control)(SBAR (S (NP (NP (E-GPE (NNP Serbia))(POS 's))(E-ORG (NN police)))(VP (VBD __)(NP (NP (E-GPE (NNP Yugoslavia))(POS 's))(NN reintegration))(PP (IN into)(NP (DT the)(E-LOC (NN world)))))))))))))))))))(. .)))(ROOT (S (CC But)(NP (E-PER (NNP Milosevic)))(VP (VBZ appears)(S (VP (TO to)(VP (VB retain)(NP (JJ enough)(JJ residual)(NN power))(S (VP (TO to)(VP (VB block)(NP (NP (NP (E-PER (NNP Kostunica))(POS 's))(NNS reforms))(CC and)(NP (NN __)(NN N)))(PP (IN through)(NP (NP (E-PER (NNS proxies)))(SBAR (WHNP (E-PER (WP who)))(S (ADVP (RB still))(VP (VBP control)(SBAR (S (NP (NP (E-GPE (NNP Serbia))(POS 's))(E-ORG (NN police)))))))))))))))))))) |ET| 2:19 5:19 11:2757 12:2758 13:2745 14:2746 16:64 17:6 18:301 19:338 21:9 22:339 23:2747 24:2759 25:118 26:118 27:955 28:58 29:703 30:58 31:2748 32:2756 33:2749 34:2760 37:2750 38:2761 40:703 41:2748 42:2756 43:955 44:1644 45:2748 46:2756 47:2756 48:22 49:2754  |EV| 
0.10460447581588008802988554180047  |BT| (NP (PRP$ his)(NN administration)) |BT| (BOW ) |BT| (BOH ) |BT| (BOH-NPs ) |BT| (LP (PRP$ *)(NP *)(NN *)) |BT| (LP-head (PRP$ *)(NP administration)(NN *)) |BT| (NP (PRP$ his)(NN administration)) |BT| (NP (ROOT (S (PP (NP (PP (NP (PP (NP (E-PER (PRP$ his))(E-ORG (NN administration))))))))(, ,)(NP (NP (E-PER (NNP President))(E-PER (NNP John)(NNP Adams)))(VP (VBN appointed)(NP (NP (E-PER (NNS members)))(PP (IN of)(NP (E-PER (PRP$ his))(E-ORG (NNP Federalist)(NNP Party)))))(PP (TO to)(NP (JJ federal)(NNS judgeships)))(, ,)(S (VP (VBG hoping)(NP (E-PER (PRP they)))))))(VP (MD would)(VP (VB control)(NP (NP (DT the)(JJ much-feared)(`` ``)(JJ radical)('' '')(NNS notions))(PP (IN of)(NP (NP (E-PER (NNP Thomas)(NNP Jefferson)))(CC and)(NP (E-PER (PRP$ his))(JJ political)(E-PER (NNS allies))))))))(. .)))(ROOT (S (PP (IN By)(NP (NP (VBG flickering)(NN candlelight))(, ,)(PP (IN in)(NP (NP (DT the)(JJ last)(NNS hours))(PP (IN of)(NP (E-PER (PRP$ his))(E-ORG (NN administration))))))))))) |ET| 5:19 11:14128 12:11307 13:32 14:33 16:7 17:7 18:301 21:144 22:149 23:2800 24:1865 25:118 26:118 27:31 28:31 29:187 30:279 31:13217 32:187 33:2801 34:1867 35:19 36:19 37:1876 38:1876 39:19 40:187 41:13217 42:21 43:21 44:14129 45:13217 46:21 47:21 48:22 49:22  |EV| 
-0.0065105522218090799632661536122669  |BT| (S (`` ``)(NP (NNPS Russians))(VP (MD must)(VP (VB use)(NP (PRP$ their)(NN leverage))(PP (IN on)(NP (NNP Mr.)))))) |BT| (BOW (must *)(use *)(their *)) |BT| (BOH (Russians *)(use *)(leverage *)(on *)) |BT| (BOH-NPs (Russians *)(leverage *)) |BT| (LP (`` *)(S *)(VP *)(PP *)(NP *)(NNP *)) |BT| (LP-head (`` *)(S must)(VP *)(PP *)(NP *)(NNP *)) |BT| (S (`` ``)(NP (NNPS Russians))(VP (MD must)(VP (VB use)(NP (PRP$ their)(NN leverage))(PP (IN on)(NP (NNP Mr.)))))) |BT| (S (ROOT (S (`` ``)(NP (NNPS Russians))))(NP (NNPS Russians))(ROOT (S (`` ``)(NP (NNPS Russians))(VP (MD must)(VP (VB use)(NP (E-GPE (PRP$ their))(NN leverage))(PP (IN on)(NP (E-PER (NNP Mr.))))))))) |ET| 11:1718 12:33 13:1707 14:5 16:64 17:6 18:35 21:1324 22:1325 23:1710 24:1719 25:1 26:1 27:1712 28:97 29:1402 30:97 31:364 32:1716 33:1714 34:1720 37:1712 38:1721 40:21 41:21 42:1717 43:1717 44:21 45:21 46:1716 47:97 48:1717 49:1716  |EV| 
0.12499999999996855293282749244099  |BT| (NP (NP (NN nation)(POS 's))(ROOT (S (NP (PRP He))(VP (VBZ has)(VP (VBN taken)(NP (NNS steps))(S (VP (TO to)(VP (VP (VB modernize)(NP (NP (PRP$ his)(NN nation)(POS 's))(NN bureaucracy))))))))))) |BT| (BOW ) |BT| (BOH ) |BT| (BOH-NPs ) |BT| (LP (NN *)(NP *)(NN *)) |BT| (LP-head (NN *)(NP bureaucracy)(NN *)) |BT| (NP (NP (NN nation)(POS 's))(ROOT (S (NP (PRP He))(VP (VBZ has)(VP (VBN taken)(NP (NNS steps))(S (VP (TO to)(VP (VP (VB modernize)(NP (NP (PRP$ his)(NN nation)(POS 's))(NN bureaucracy))))))))))) |BT| (NP (ROOT (S (VP (VP (S (VP (VP (VP (NP (NP (E-GPE (NN nation))(POS 's))(E-ORG (NN bureaucracy))))(CC and)(VP (VB revive)(NP (E-GPE (PRP$ its))(JJ stagnant)(NN economy))))))))(. .)))(ROOT (S (NP (E-PER (PRP He)))(VP (VBZ has)(VP (VBN taken)(NP (NNS steps))(S (VP (TO to)(VP (VP (VB modernize)(NP (NP (E-PER (PRP$ his))(E-GPE (NN nation))(POS 's))(E-ORG (NN bureaucracy)))))))))))) |ET| 11:299 12:300 13:294 14:295 16:6 17:7 18:26 19:310 21:9 22:311 23:297 24:302 25:1 26:1 27:58 28:58 29:279 30:58 31:289 32:292 33:298 34:303 35:19 37:292 38:304 40:289 41:293 42:21 43:21 44:21 45:293 46:21 47:21 48:22 49:22  |EV| 
0.12499999999996855293282749244099  |BT| (NP (PRP$ his)(ADJP (RB badly)(VBN shaken))(NN party)) |BT| (BOW ) |BT| (BOH ) |BT| (BOH-NPs ) |BT| (LP (PRP$ *)(NP *)(NN *)) |BT| (LP-head (PRP$ *)(NP party)(NN *)) |BT| (NP (PRP$ his)(ADJP (RB badly)(VBN shaken))(NN party)) |BT| (NP (ROOT (S (VP (VP (PP (NP (S (VP (VP (NP (E-PER (PRP$ his))(ADJP (RB badly)(VBN shaken))(E-ORG (NN party))))))))))(. .)))(ADJP (RB badly)(VBN shaken))(ROOT (S (ADVP (RB Ultimately))(, ,)(ADVP (RB however))(, ,)(NP (NP (E-PER (NNP Milosevic))(POS 's))(NN ability)(S (VP (TO to)(VP (VB play)(NP (DT any)(JJ political)(NN role))))))(VP (MD will)(VP (VB depend)(PP (IN on)(NP (E-PER (PRP$ his))(NN ability)(S (VP (TO to)(VP (VB rally)(NP (E-PER (PRP$ his))(ADJP (RB badly)(VBN shaken))(E-ORG (NN party))))))))))))) |ET| 5:19 6:19 7:19 11:2975 12:2976 13:32 14:33 16:25 17:7 18:301 21:144 22:149 23:1724 24:2819 25:118 26:118 27:2977 28:2793 29:586 30:2793 31:291 32:2977 33:1721 34:2820 35:19 37:2824 38:2824 39:19 40:586 41:2972 42:21 43:21 44:1654 45:2972 46:21 47:21 48:22 49:22  |EV| 
0.12499999999996855293282749244099  |BT| (NP (PRP$ his)(JJ nine-member)(JJ inaugural)(NN committee)) |BT| (BOW ) |BT| (BOH ) |BT| (BOH-NPs ) |BT| (LP (PRP$ *)(NP *)(NN *)) |BT| (LP-head (PRP$ *)(NP committee)(NN *)) |BT| (NP (PRP$ his)(JJ nine-member)(JJ inaugural)(NN committee)) |BT| (NP (ROOT (S (VP (SBAR (S (VP (NP (E-PER (PRP$ his))(E-PER (JJ nine-member))(JJ inaugural)(E-ORG (NN committee)))(NP-TMP (NNP Wednesday))(, ,)(S (VP (VBG stacking)(NP (E-ORG (PRP it)))(PP (IN with)(NP (NP (E-PER (NNS individuals)))(SBAR (WHNP (E-PER (WP who)))(S (VP (VBD helped)(S (NP (E-PER (PRP him)))(VP (VB raise)(NP (DT a)(NN record))(NP (NP (QP ($ $)(QP (CD 100)(CD million))))(PP (IN for)(NP (E-PER (PRP$ his))(JJ presidential)(NN race)))))))))))))))))(. .)))(JJ nine-member)(JJ inaugural)(ROOT (S (NP (NP (E-GPE (NNP WASHINGTON)))(PRN (-LRB- -LRB-)(NP (NNP AP))(-RRB- -RRB-))(NP (CD __)(NNP N)(E-PER (NNP President)))(: -))(VP (VB elect)(SBAR (S (NP (E-PER (NNP Bush)))(VP (VBD named)(NP (E-PER (PRP$ his))(E-PER (JJ nine-member))(JJ inaugural)(E-ORG (NN committee)))))))))) |ET| 5:19 11:14822 12:14823 13:32 14:33 16:25 17:7 18:301 21:144 22:149 23:1412 24:8026 25:118 26:118 27:14825 28:14824 29:10487 30:14824 31:1312 32:14825 33:1312 34:8028 35:19 37:8022 38:8022 39:19 40:10487 41:1312 42:21 43:21 44:87 45:1312 46:21 47:21 48:22 49:22  |EV| 
0.12499999999996855293282749244099  |BT| (S (NP (CD two))(VP (VBP have)(NP (NP (DT a)(JJ combined)(NN membership))))) |BT| (BOW (have *)) |BT| (BOH (have *)) |BT| (BOH-NPs ) |BT| (LP (CD *)(NP *)(S *)(VP *)(NP *)(NN *)) |BT| (LP-head (CD *)(NP *)(S have)(VP *)(NP *)(NN *)) |BT| (S (NP (CD two))(VP (VBP have)(NP (NP (DT a)(JJ combined)(NN membership))))) |BT| (S (ROOT (S (NP (E-ORG (CD two)))(VP (VBP have)(NP (NP (DT a)(JJ combined)(E-PER (NN membership)))(PP (IN of)(NP (QP (CD 1.8)(E-PER (CD million)))))))(. .)))(ROOT (S (NP (DT The)(E-ORG (CD two)))(VP (VBP have)(NP (NP (DT a)(JJ combined)(E-PER (NN membership)))))))) |ET| 5:19 11:10379 12:10380 13:10381 14:4850 16:47 17:7 18:126 19:1556 21:2107 22:3404 23:5162 24:10382 25:117 26:117 27:581 28:10383 29:220 30:10383 31:14 32:430 33:5164 34:10384 37:31 38:2180 40:21 41:21 42:21 43:581 44:21 45:21 46:21 47:581 48:22 49:22  |EV| 
