SVM-light Version V5.01-TK-1.2
5 # kernel type
3 # kernel parameter -d 
1 # kernel parameter -g 
1 # kernel parameter -s 
1 # kernel parameter -r 
empty# kernel parameter -u 
0.4 # kernel parameter -L 
1 # kernel parameter -T 
T # kernel parameter -C 
1 # kernel parameter -F 
1 # kernel parameter -S 
1.000000 # kernel parameter -D 
3 # kernel parameter -N 
S # kernel parameter -V 
S # kernel parameter -W 
49 # highest feature index 
16237 # number of training documents 
776 # number of support vectors plus 1 
0.79037278 # threshold b, each following line is a SV (starting with alpha*y)
-0.11727016823690844526950627368933  |BT| (NP (NNP CAIRO)(, ,)(NNP Egypt)) |BT| (BOW ) |BT| (BOH ) |BT| (BOH-NPs ) |BT| (LP (NNP *)(NP *)(NNP *)) |BT| (LP-head (NNP *)(NP Egypt)(NNP *)) |BT| (NP (NNP CAIRO)(, ,)(NNP Egypt)) |BT| (NP (ROOT (S (NP (NP (E-GPE (NNP CAIRO))(, ,)(E-GPE (NNP Egypt)))(PRN (-LRB- -LRB-)(NP (NNP AP))(-RRB- -RRB-)))(PP (NP (CD _))(IN In)(NP (NP (E-PER (PRP$ his))(JJ foreign)(NN policy)(NN debut))(PP (IN as)(NP (NP (E-GPE (NNP Syria))(POS 's))(E-PER (NN president))))))(, ,)(NP (E-PER (NNP Bashar)(NNP Assad)))(VP (VBD met)(NP-TMP (NNP Sunday))(PP (IN with)(NP (NP (NP (E-GPE (NNP Egyptian))(E-PER (NNP President))(E-PER (NNP Hosni)(NNP Mubarak)))(PP (IN in)(NP (NP (NNS talks))(PP (IN on)(NP (E-LOC (JJ Mideast))(NN peace))))))(CC and)(NP (NP (DT the)(VBG escalating)(NN violence))(PP (IN in)(NP (DT the)(E-GPE (JJ Palestinian))(E-GPE (NNS territories))))))))(. .)))(, ,)(ROOT (S (NP (NP (E-GPE (NNP CAIRO))(, ,)(E-GPE (NNP Egypt))))))) |ET| 10:1 11:2 12:3 13:4 14:5 16:6 17:7 18:8 21:9 22:10 23:11 24:12 25:1 26:1 27:13 28:13 29:14 30:13 31:15 32:16 33:17 34:18 35:19 37:20 38:20 39:19 40:21 41:21 42:21 43:21 44:21 45:21 46:21 47:21 48:22 49:22  |EV| 
-0.0051210499369404444136577581048186  |BT| (S (NP (PP (NP (ADVP (RB abroad)(PP (IN since)(S (VP (VBG becoming)(NP (NN president))(PP (IN in)(NP (NNP July)))))))))(, ,))(ADVP (RB also))(VP (VBD dealt)(PP (IN with)(NP (NP (DT the)(NN issue))(PP (IN of)(NP (NNP Iraq)))))(PP (IN in)(NP (NP (DT the)(NNS talks))(PP (IN with)(NP (NNP Mubarak))))))) |BT| (BOW (since *)(becoming *)(president *)(in *)(July *)(, *)(also *)(dealt *)(with *)(the *)(issue *)(of *)(Iraq *)(in *)(the *)) |BT| (BOH (since *)(president *)(in *)(July *)(also *)(dealt *)(with *)(issue *)(of *)(Iraq *)(in *)(talks *)(with *)) |BT| (BOH-NPs (president *)(July *)(issue *)(Iraq *)(talks *)) |BT| (LP (RB *)(ADVP *)(NP *)(PP *)(NP *)(S *)(VP *)(PP *)(NP *)(PP *)(NP *)(NNP *)) |BT| (LP-head (RB *)(ADVP *)(NP *)(PP *)(NP *)(S dealt)(VP *)(PP *)(NP *)(PP *)(NP *)(NNP *)) |BT| (S (NP (PP (NP (ADVP (RB abroad)(PP (IN since)(S (VP (VBG becoming)(NP (NN president))(PP (IN in)(NP (NNP July)))))))))(, ,))(ADVP (RB also))(VP (VBD dealt)(PP (IN with)(NP (NP (DT the)(NN issue))(PP (IN of)(NP (NNP Iraq)))))(PP (IN in)(NP (NP (DT the)(NNS talks))(PP (IN with)(NP (NNP Mubarak))))))) |BT| (S (ROOT (S (S (NP (PP (NP (ADVP (E-LOC (RB abroad))(PP (IN since)(S (VP (VBG becoming)(NP (E-PER (NN president)))(PP (IN in)(NP (NNP July)))))))))(, ,))(ADVP (RB also))(VP (VBD dealt)(PP (IN with)(NP (NP (DT the)(NN issue))(PP (IN of)(NP (E-GPE (NNP Iraq))))))(PP (IN in)(NP (NP (DT the)(NNS talks))(PP (IN with)(NP (E-PER (NNP Mubarak))))))))(, ,)(NP (E-GPE (NNP Egyptian))(NNP Foreign)(E-PER (NNP Minister))(E-PER (NNP Amr)(NNP Mussa)))(VP (VBD said))(. .)))(ADVP (RB also))(ROOT (S (S (NP (NP (E-PER (NNP Assad)))(, ,)(PP (IN on)(NP (NP (E-PER (PRP$ his))(JJ first)(NN trip))(ADVP (E-LOC (RB abroad))(PP (IN since)(S (VP (VBG becoming)(NP (E-PER (NN president)))(PP (IN in)(NP (NNP July)))))))))(, ,))(ADVP (RB also))(VP (VBD dealt)(PP (IN with)(NP (NP (DT the)(NN issue))(PP (IN of)(NP (E-GPE (NNP Iraq))))))(PP (IN in)(NP (NP (DT the)(NNS talks))(PP (IN with)(NP (E-PER (NNP Mubarak))))))))))) |ET| 11:192 12:33 13:174 14:175 16:134 17:25 18:210 21:211 22:213 23:178 24:193 25:122 26:122 27:184 28:72 29:173 30:72 31:179 32:98 33:180 34:194 37:181 38:75 40:173 41:173 42:60 43:184 44:67 45:179 46:98 47:72 48:190 49:98  |EV| 
0.12499999999996855293282749244099  |BT| (NP (NP (PRP$ its))(NP (JJ inefficient)(JJ financial)(NN sector))) |BT| (BOW ) |BT| (BOH ) |BT| (BOH-NPs ) |BT| (LP (PRP$ *)(NP *)(NP *)(NN *)) |BT| (LP-head (PRP$ *)(NP businesses)(NP *)(NN *)) |BT| (NP (NP (PRP$ its))(NP (JJ inefficient)(JJ financial)(NN sector))) |BT| (NP (ROOT (S (VP (S (VP (VP (NP (NP (E-GPE (PRP$ its))(JJ bloated)(NNS businesses))(CC and)(NP (JJ inefficient)(JJ financial)(NN sector)))))))(. .)))(ROOT (S (PP (IN In)(NP (NN return)))(, ,)(NP (E-GPE (PRP it)))(VP (VBD promised)(S (VP (TO to)(VP (VB restructure)(NP (NP (E-GPE (PRP$ its))(JJ bloated)(NNS businesses))(CC and)(NP (JJ inefficient)(JJ financial)(NN sector)))))))))) |ET| 11:10510 12:10511 13:305 14:5 16:7 17:7 18:26 21:153 22:154 23:10339 24:10512 25:1 26:1 27:31 28:31 29:10508 30:2667 31:291 32:10508 33:10509 34:10513 35:19 36:19 37:8753 38:8753 39:19 40:10508 41:3333 42:21 43:21 44:21 45:3332 46:21 47:21 48:22 49:22  |EV| 
0.12499999999996855293282749244099  |BT| (NP (JJ Iraqi)(NNS hospitals)) |BT| (BOW ) |BT| (BOH ) |BT| (BOH-NPs ) |BT| (LP (JJ *)(NP *)(NNS *)) |BT| (LP-head (JJ *)(NP hospitals)(NNS *)) |BT| (NP (JJ Iraqi)(NNS hospitals)) |BT| (NP (ROOT (S (VP (SBAR (S (VP (VP (NP (VP (PP (NP (E-GPE (JJ Iraqi))(E-ORG (NNS hospitals)))))))))))(. .)))(ROOT (S (S (VP (VBG Speaking)(PP (IN in)(NP (E-GPE (NNP Amman))(, ,)(E-GPE (NNP Jordan))))))(, ,)(NP (E-PER (NNP Zaanoun)))(VP (VBD said)(SBAR (S (NP (DT the)(E-VEH (NN plane)))(VP (MD will)(VP (VB carry)(NP (NP (CD 20)(E-PER (NNPS Palestinians)))(VP (VBN wounded)(PP (IN in)(NP (NP (JJ ongoing)(NN violence))(PP (IN in)(NP (NP (DT the)(E-GPE (JJ Palestinian))(E-LOC (NNS territories)))(PP (IN for)(NP (NN treatment)))))))(PP (IN in)(NP (E-GPE (JJ Iraqi))(E-ORG (NNS hospitals)))))))))))))) |ET| 11:7734 12:7735 13:7600 14:5 16:7 17:7 18:26 21:165 22:166 23:7601 24:7736 25:1 26:1 27:31 28:31 29:106 30:7606 31:1047 32:106 33:7602 34:7737 35:19 36:19 37:7733 38:7733 39:19 40:106 41:1047 42:21 43:21 44:15 45:1047 46:21 47:21 48:22 49:22  |EV| 
0.12499999999996855293282749244099  |BT| (NP (NP (NNP Steve)(NNP Horn))(, ,)(NP (NP (NN R))(: -)(NP (NNP Calif)))) |BT| (BOW ) |BT| (BOH ) |BT| (BOH-NPs ) |BT| (LP (NNP *)(NP *)(NP *)(NNP *)) |BT| (LP-head (NNP *)(NP Horn)(NP *)(NNP *)) |BT| (NP (NP (NNP Steve)(NNP Horn))(, ,)(NP (NP (NN R))(: -)(NP (NNP Calif)))) |BT| (NP (ROOT (S (S (NP (NP (E-PER (NNP Steve)(NNP Horn)))(, ,)(NP (NP (E-ORG (NN R)))(: -)(NP (NNP Calif)(. .)))(, ,))(VP (VBD had)(NP (NP (DT a)(ADJP (RBR more)(JJ comfortable))(NN margin))(PP (IN of)(NP (NP (CD 1,616)(NNS votes))(PP (IN in)(NP (E-PER (PRP$ his))(JJ 38th)(E-LOC (NNP District))(NN victory))))))(PP (IN over)(NP (E-ORG (NNP Democrat))(E-PER (NNP Gerrie)(NNP Schipske))))))(, ,)(CC but)(S (NP (E-PER (PRP she)))(VP (VP (VBZ has)(VP (VBN refused)(S (VP (TO to)(VP (VB concede))))))(CC and)(VP (VBZ awaits)(NP (NP (NP (DT the)(NNS results))(PP (IN of)(NP (NN absentee)(NNS ballots))))(CC and)(NP (NP (JJ provisional)(NNS ballots))(VP (VBN cast)(PP (IN by)(NP (NP (E-PER (NNS people)))(SBAR (WHNP (E-PER (WP$ whose))(NNS names))(S (VP (VBD did)(RB n't)(ADVP (RB immediately))(VP (VB match)(NP (NNS lists))(PP (IN at)(NP (NN polling)(E-FAC (NNS stations))))))))))))))))(. .)))(, ,)(ROOT (S (S (NP (NP (E-PER (NNP Steve)(NNP Horn)))(, ,)(NP (NP (E-ORG (NN R)))(: -)(NP (NNP Calif)))))))) |ET| 11:9623 12:5 13:9614 14:9615 16:25 17:6 18:143 21:391 22:1220 23:9616 24:9624 25:118 26:118 27:13 28:9622 29:14 30:9622 31:9618 32:13 33:9620 34:9625 35:19 37:9619 38:9622 40:21 41:21 42:21 43:21 44:21 45:21 46:21 47:21 48:22 49:22  |EV| 
0.12499999999996855293282749244099  |BT| (NP (NP (NP (NNP Syria)(POS 's))(NN government))(: -)(VP (VBN run)(SBAR (S (NP (NNS media)))))) |BT| (BOW ('s *)(government *)) |BT| (BOH (government *)(run *)) |BT| (BOH-NPs (government *)) |BT| (LP (NNP *)(NP *)(VP *)(SBAR *)(S *)(NP *)(NNS *)) |BT| (LP-head (NNP *)(NP government)(VP *)(SBAR *)(S *)(NP *)(NNS *)) |BT| (NP (NP (NP (NNP Syria)(POS 's))(NN government))(: -)(VP (VBN run)(SBAR (S (NP (NNS media)))))) |BT| (NP (ROOT (NP (NP (NP (E-GPE (NNP Syria))(POS 's))(E-GPE (NN government)))(: -)(VP (VBN run)(SBAR (S (NP (E-ORG (NNS media)))(VP (VBD said)(NP-TMP (JJ last)(NN week))(SBAR (IN that)(S (NP (DT no)(NN progress))(VP (MD could)(VP (VB be)(VP (VBN expected)(PP (ADVP (RB now))(IN because)(IN of)(NP (NP (DT the)(E-GPE (NNP U.S.))(NNS elections))(CC and)(NP (NP (E-GPE (JJ Israeli))(NNP Prime)(E-PER (NNP Minister))(E-PER (NNP Ehud)(NNP Barak))(POS 's))(JJ precarious)(NN situation))))(PP (IN as)(NP (E-PER (NN leader)))))))))))))(PP (IN of)(NP (DT a)(NN minority)(E-ORG (NN government))))(. .)))(: -)(ROOT (NP (NP (NP (E-GPE (NNP Syria))(POS 's))(E-GPE (NN government)))(: -)(VP (VBN run)(SBAR (S (NP (E-ORG (NNS media))))))))) |ET| 9:117 11:402 12:24 13:44 14:45 16:55 17:6 18:26 21:9 22:113 23:48 24:403 25:1 26:1 27:58 28:404 29:14 30:404 31:400 32:405 33:50 34:406 37:51 38:407 40:21 41:21 42:400 43:400 44:21 45:21 46:400 47:404 48:22 49:400  |EV| 
0.12499999999996855293282749244099  |BT| (NP (NNP Jakarta)(NNP Prosecution)(NNP Office)) |BT| (BOW ) |BT| (BOH ) |BT| (BOH-NPs (Prosecution *)) |BT| (LP (NNP *)(NP *)(NNP *)) |BT| (LP-head (NNP *)(NP Office)(NNP *)) |BT| (NP (NNP Jakarta)(NNP Prosecution)(NNP Office)) |BT| (NP (ROOT (S (NP (NP (PP (NP (E-GPE (NNP Jakarta))(NNP Prosecution)(E-ORG (NNP Office)))))(, ,))(VP (VBD said)(SBAR (S (NP (E-PER (NNP Tommy)))(VP (MD would)(ADVP (RB again))(VP (VB be)(VP (VBN summoned)(S (VP (TO to)(VP (VB meet)(NP (E-PER (NNS prosecutors)))(PP (IN on)(NP (NNP Wednesday))))))))))))(. .)))(NNP Prosecution)(ROOT (S (NP (NP (E-PER (NNP Antasari)(NNP Ashar)))(, ,)(NP (NP (E-PER (NN chief)))(PP (IN of)(NP (NNP South)(E-GPE (NNP Jakarta))(NNP Prosecution)(E-ORG (NNP Office))))))))) |ET| 11:861 12:862 13:855 14:5 16:6 17:7 18:26 21:9 22:10 23:856 24:863 25:1 26:1 27:860 28:860 29:857 30:860 31:187 32:864 33:858 34:865 35:19 37:859 38:859 39:19 40:860 41:860 42:860 43:21 44:864 45:864 46:860 47:21 48:22 49:22  |EV| 
0.12499999999996855293282749244099  |BT| (VP (PP (NP (NNP Pittsburgh)))(: -)(PP (VBN based)(NP (NP (NNP Carnegie)(NNP Hero)(NNP Fund)(NNP Commission))))) |BT| (BOW ) |BT| (BOH ) |BT| (BOH-NPs ) |BT| (LP (NNP *)(NP *)(PP *)(VP *)(PP *)(NP *)(NNP *)) |BT| (LP-head (NNP *)(NP *)(PP *)(VP honored)(PP *)(NP *)(NNP *)) |BT| (VP (PP (NP (NNP Pittsburgh)))(: -)(PP (VBN based)(NP (NP (NNP Carnegie)(NNP Hero)(NNP Fund)(NNP Commission))))) |BT| (VP (ROOT (S (VP (VP (PP (NP (E-GPE (NNP Pittsburgh))))(: -)(PP (VBN based)(NP (NP (E-ORG (NNP Carnegie)(NNP Hero)(NNP Fund)(NNP Commission)))(, ,)(VP (VBN established)(PP (IN in)(NP (CD 1904)))(PP (IN by)(NP (E-PER (NNP Andrew)(NNP Carnegie))))(S (VP (TO to)(VP (VB recognize)(NP (NP (NNS acts))(PP (IN of)(NP (NN heroism))))))))))))(. .)))(: -)(ROOT (S (NP (NP (E-PER (NNP Cecil)(NNP Brinkley)))(, ,)(NP (DT the)(NN assistant)(E-PER (NN principal)))(, ,))(VP (VBD was)(VP (VBN honored)(NP-TMP (JJ last)(NN week))(PP (IN by)(NP (DT the)(E-GPE (NNP Pittsburgh))))(: -)(PP (VBN based)(NP (NP (E-ORG (NNP Carnegie)(NNP Hero)(NNP Fund)(NNP Commission)))))))))) |ET| 11:1191 12:1192 13:1186 14:1187 16:25 17:7 18:26 21:9 22:10 23:1188 24:1193 25:1 26:1 27:405 28:1194 29:105 30:1194 31:460 32:405 33:1189 34:1195 35:19 37:1190 38:1196 40:460 41:432 42:21 43:21 44:1123 45:432 46:21 47:21 48:22 49:22  |EV| 
0.12499999999996855293282749244099  |BT| (NP (JJ Palestinian)(NNS gunmen)) |BT| (BOW ) |BT| (BOH ) |BT| (BOH-NPs ) |BT| (LP (JJ *)(NP *)(NNS *)) |BT| (LP-head (JJ *)(NP gunmen)(NNS *)) |BT| (NP (JJ Palestinian)(NNS gunmen)) |BT| (NP (ROOT (S (PP (NP (PP (NP (PP (NP (E-GPE (JJ Palestinian))(E-PER (NNS gunmen))))))))(, ,)(NP (DT the)(NN celebration))(VP (VBD degenerated)(PP (IN into)(NP (NP (DT a)(NN trashing))(PP (IN of)(NP (DT the)(E-FAC (NN compound))))))(, ,)(PP (IN with)(S (NP (E-PER (NNS crowds)))(VP (VP (VBG vandalizing)(NP (DT the)(E-FAC (NN tomb))))(, ,)(VP (VBG setting)(NP (NNS fires)))(CC and)(VP (VBG hammering)(ADVP (RB away))(PP (IN at)(NP (DT the)(NN stone)(E-FAC (NNS buildings)))))))))(. .)))(ROOT (S (PP (IN With)(NP (NP (DT the)(NN arrival))(PP (IN of)(NP (NP (NNS dozens))(PP (IN of)(NP (E-GPE (JJ Palestinian))(E-PER (NNS gunmen))))))))))) |ET| 11:2311 12:2312 13:101 14:5 16:7 17:7 18:35 21:165 22:166 23:104 24:2313 25:1 26:1 27:31 28:31 29:187 30:115 31:911 32:187 33:107 34:2314 35:19 36:19 37:2315 38:2315 39:19 40:187 41:911 42:21 43:21 44:2316 45:911 46:21 47:21 48:22 49:22  |EV| 
0.12499999999996855293282749244099  |BT| (VP (PP (NP (JJ international)(NN war)(NNS crimes)(NN tribunal)))(PP (IN in)(NP (DT The)(NNP Hague)))) |BT| (BOW ) |BT| (BOH (in *)) |BT| (BOH-NPs (crimes *)) |BT| (LP (JJ *)(NP *)(PP *)(VP *)(PP *)(NP *)(NNP *)) |BT| (LP-head (JJ *)(NP *)(PP *)(VP indicted)(PP *)(NP *)(NNP *)) |BT| (VP (PP (NP (JJ international)(NN war)(NNS crimes)(NN tribunal)))(PP (IN in)(NP (DT The)(NNP Hague)))) |BT| (VP (ROOT (S (NP (SBAR (S (VP (VP (VP (PP (NP (E-ORG (JJ international)(NN war)(NNS crimes)(NN tribunal))))(PP (IN in)(NP (E-GPE (DT The)(NNP Hague))(, ,)(E-GPE (NNP Netherlands)))))))))(, ,))(VP (MD can)(RB not)(VP (VB leave)(NP (E-GPE (NNP Yugoslavia)))(PP (IN without)(S (VP (VBG risking)(NP (NN arrest)(CC and)(NN extradition)))))))(. .)))(ROOT (S (NP (NP (E-PER (NNP Milosevic)))(, ,)(SBAR (WHNP (E-PER (WP who)))(S (VP (VBZ has)(VP (VBN been)(VP (VBN indicted)(PP (IN by)(NP (DT the)(E-ORG (JJ international)(NN war)(NNS crimes)(NN tribunal))))(PP (IN in)(NP (E-GPE (DT The)(NNP Hague))))))))))))) |ET| 11:2719 12:5 13:2712 14:2713 16:6 17:7 18:130 21:2736 22:2737 23:2714 24:2722 25:117 26:117 27:106 28:106 29:105 30:106 31:460 32:2716 33:2715 34:2723 37:2716 38:2724 40:2717 41:2717 42:2717 43:106 44:2194 45:2194 46:2717 47:106 48:22 49:22  |EV| 
-0.12499999999996855293282749244099  |BT| (NP (JJ Palestinian)(NN security)(NNS officials)) |BT| (BOW ) |BT| (BOH ) |BT| (BOH-NPs (security *)) |BT| (LP (JJ *)(NP *)(NNS *)) |BT| (LP-head (JJ *)(NP officials)(NNS *)) |BT| (NP (JJ Palestinian)(NN security)(NNS officials)) |BT| (NP (ROOT (S (NP (E-GPE (JJ Palestinian))(NN security)(E-PER (NNS officials)))(VP (VBD were)(VP (VBN left)(S (VP (VBG standing)(NP (NN guard))(SBAR (IN as)(S (NP (NP (NNS hundreds))(PP (IN of)(NP (E-PER (NNPS Palestinians)))))(VP (VBD converged)(PP (IN on)(NP (DT the)(E-FAC (NN square))))(PP (IN in)(NP (NP (NN front))(PP (IN of)(NP (DT the)(E-FAC (NN site))))))(, ,)(S (VP (VBG cheering)(NP (DT the)(NN withdrawal)))))))))))(. .)))(NN security)(ROOT (S (NP (E-GPE (JJ Palestinian))(NN security)(E-PER (NNS officials)))))) |ET| 11:2301 12:2302 13:101 14:5 16:6 17:7 18:35 21:165 22:166 23:104 24:1926 25:1 26:1 27:2063 28:2063 29:14 30:2063 31:451 32:115 33:107 34:1927 35:19 37:1923 38:1923 39:19 40:21 41:21 42:2063 43:21 44:21 45:21 46:2063 47:21 48:22 49:22  |EV| 
-0.12499999999996855293282749244099  |BT| (NP (JJ Western)(NNS governments)) |BT| (BOW ) |BT| (BOH ) |BT| (BOH-NPs ) |BT| (LP (JJ *)(NP *)(NNS *)) |BT| (LP-head (JJ *)(NP governments)(NNS *)) |BT| (NP (JJ Western)(NNS governments)) |BT| (NP (ROOT (S (VP (VP (PP (NP (SBAR (S (VP (NP (E-LOC (JJ Western))(E-ORG (NNS governments)))(S (VP (TO to)(VP (VP (VB impose)(NP (NNS sanctions)))(CC and)(VP (VB isolate)(NP (NP (DT the)(E-ORG (NN government)))(PP (IN in)(NP (E-GPE (NNP Belgrade))))))))))))))))(. .)))(ROOT (S (NP (DT Those)(NNS conflicts))(VP (VBD were)(VP (VBN marked)(PP (IN by)(NP (NP (JJ horrific)(NNS acts))(PP (IN of)(NP (NN violence)))))(PP (IN against)(NP (NP (E-PER (NNS civilians)))(, ,)(SBAR (WHNP (WDT which))(S (VP (VBD prompted)(NP (E-LOC (JJ Western))(E-ORG (NNS governments))))))))))))) |ET| 11:3267 12:3268 13:3111 14:90 16:7 17:7 18:2214 21:165 22:166 23:3112 24:3269 25:122 26:122 27:31 28:31 29:3262 30:3270 31:668 32:3262 33:3114 34:3271 35:19 36:19 37:3265 38:3265 39:19 40:3262 41:3264 42:21 43:21 44:108 45:668 46:21 47:21 48:22 49:22  |EV| 
-0.12499999999996855293282749244099  |BT| (NP (JJ Israeli)(NNS officials)) |BT| (BOW ) |BT| (BOH ) |BT| (BOH-NPs ) |BT| (LP (JJ *)(NP *)(NNS *)) |BT| (LP-head (JJ *)(NP officials)(NNS *)) |BT| (NP (JJ Israeli)(NNS officials)) |BT| (NP (ROOT (S (NP (E-GPE (JJ Israeli))(E-PER (NNS officials)))(VP (VBD were)(ADJP (JJ furious)))(. .)))(ROOT (S (CC But)(PP (IN after)(NP (NP (DT the)(NN destruction))(SBAR (WHNP (WDT that))(S (VP (VBD followed)(NP (DT the)(NN withdrawal)))))))(, ,)(NP (E-GPE (JJ Israeli))(E-PER (NNS officials)))))) |ET| 11:2522 12:2523 13:390 14:5 16:7 17:7 18:35 21:165 22:166 23:414 24:1926 25:1 26:1 27:31 28:31 29:13 30:418 31:451 32:13 33:415 34:1927 35:19 36:19 37:1923 38:1923 39:19 40:451 41:451 42:21 43:21 44:2524 45:2525 46:21 47:21 48:22 49:22  |EV| 
0.051780870385680799472538637928665  |BT| (NP (NP (NNP Mexico)(POS 's))(JJ embattled)(VBG ruling)(ROOT (S (NP (NNP VILLAHERMOSA)(, ,)(NNP Mexico)(-LRB- -LRB-)(NNP AP)(-RRB- -RRB-))(PP (NP (CD _))(IN In)(NP (NP (DT an)(JJ important)(NN victory))(PP (IN for)(NP (NP (NP (NNP Mexico)(POS 's))(JJ embattled)(VBG ruling)(NN party))))))))) |BT| (BOW ('s *)) |BT| (BOH (embattled *)) |BT| (BOH-NPs ) |BT| (LP (NNP *)(NP *)(NN *)) |BT| (LP-head (NNP *)(NP party)(NN *)) |BT| (NP (NP (NNP Mexico)(POS 's))(JJ embattled)(VBG ruling)(ROOT (S (NP (NNP VILLAHERMOSA)(, ,)(NNP Mexico)(-LRB- -LRB-)(NNP AP)(-RRB- -RRB-))(PP (NP (CD _))(IN In)(NP (NP (DT an)(JJ important)(NN victory))(PP (IN for)(NP (NP (NP (NNP Mexico)(POS 's))(JJ embattled)(VBG ruling)(NN party))))))))) |BT| (NP (ROOT (S (PP (NP (PP (NP (NP (NP (E-GPE (NNP Mexico))(POS 's))(JJ embattled)(VBG ruling)(E-ORG (NN party)))(, ,)(NP (NP (E-PER (NNP Manuel)(NNP Andrade)))(PP (IN on)(NP (NNP Sunday))))))))(VP (VBD was)(VP (VBN declared)(NP (NP (DT the)(E-PER (NN winner)))(PP (IN of)(NP (NP (NP (DT the)(VBN disputed)(E-PER (NN governor))(POS 's))(NN race))(PP (IN for)(NP (JJ oil-rich)(E-GPE (NNP Tabasco))(E-GPE (NN state)))))))))(. .)))(JJ embattled)(VBG ruling)(ROOT (S (NP (E-GPE (NNP VILLAHERMOSA))(, ,)(E-GPE (NNP Mexico))(E-ORG (-LRB- -LRB-)(NNP AP))(-RRB- -RRB-))(PP (NP (CD _))(IN In)(NP (NP (DT an)(JJ important)(NN victory))(PP (IN for)(NP (NP (NP (E-GPE (NNP Mexico))(POS 's))(JJ embattled)(VBG ruling)(E-ORG (NN party)))))))))) |ET| 9:117 11:6392 12:6393 13:6391 14:45 16:47 17:7 18:26 21:9 22:56 23:2130 24:2819 25:1 26:1 27:58 28:772 29:605 30:772 31:2677 32:6394 33:2132 34:2820 37:2127 38:2824 40:605 41:2677 42:21 43:6394 44:43 45:2677 46:21 47:6394 48:22 49:22  |EV| 
0.12499999999996855293282749244099  |BT| (NP (NP (NNP Mexico)(POS 's))(JJ embattled)(VBG ruling)(ROOT (S (NP (NNP VILLAHERMOSA)(, ,)(NNP Mexico)(-LRB- -LRB-)(NNP AP)(-RRB- -RRB-))(PP (NP (CD _))(IN In)(NP (NP (DT an)(JJ important)(NN victory))(PP (IN for)(NP (NP (NP (NNP Mexico)(POS 's))(JJ embattled)(VBG ruling)(NN party))))))))) |BT| (BOW ('s *)) |BT| (BOH (embattled *)) |BT| (BOH-NPs ) |BT| (LP (NNP *)(NP *)(NN *)) |BT| (LP-head (NNP *)(NP party)(NN *)) |BT| (NP (NP (NNP Mexico)(POS 's))(JJ embattled)(VBG ruling)(ROOT (S (NP (NNP VILLAHERMOSA)(, ,)(NNP Mexico)(-LRB- -LRB-)(NNP AP)(-RRB- -RRB-))(PP (NP (CD _))(IN In)(NP (NP (DT an)(JJ important)(NN victory))(PP (IN for)(NP (NP (NP (NNP Mexico)(POS 's))(JJ embattled)(VBG ruling)(NN party))))))))) |BT| (NP (ROOT (S (PP (NP (PP (NP (NP (NP (E-GPE (NNP Mexico))(POS 's))(JJ embattled)(VBG ruling)(E-ORG (NN party)))(, ,)(NP (NP (E-PER (NNP Manuel)(NNP Andrade)))(PP (IN on)(NP (NNP Sunday))))))))(VP (VBD was)(VP (VBN declared)(NP (NP (DT the)(E-PER (NN winner)))(PP (IN of)(NP (NP (NP (DT the)(VBN disputed)(E-PER (NN governor))(POS 's))(NN race))(PP (IN for)(NP (JJ oil-rich)(E-GPE (NNP Tabasco))(E-GPE (NN state)))))))))(. .)))(JJ embattled)(VBG ruling)(ROOT (S (NP (E-GPE (NNP VILLAHERMOSA))(, ,)(E-GPE (NNP Mexico))(E-ORG (-LRB- -LRB-)(NNP AP))(-RRB- -RRB-))(PP (NP (CD _))(IN In)(NP (NP (DT an)(JJ important)(NN victory))(PP (IN for)(NP (NP (NP (E-GPE (NNP Mexico))(POS 's))(JJ embattled)(VBG ruling)(E-ORG (NN party)))))))))) |ET| 9:117 11:6392 12:6393 13:6391 14:45 16:47 17:7 18:26 21:9 22:56 23:2130 24:2819 25:1 26:1 27:58 28:772 29:605 30:772 31:2677 32:6394 33:2132 34:2820 37:2127 38:2824 40:605 41:2677 42:21 43:6394 44:43 45:2677 46:21 47:6394 48:22 49:22  |EV| 
-0.10525842312415974177941535572245  |BT| (VP (PP (NP (JJ international)(NN war)(NNS crimes)(NN tribunal)))(PP (IN in)(NP (DT The)(NNP Hague)(, ,)(NNP Netherlands)))) |BT| (BOW (in *)(The *)) |BT| (BOH (in *)(Hague *)) |BT| (BOH-NPs (crimes *)(Hague *)) |BT| (LP (JJ *)(NP *)(PP *)(VP *)(PP *)(NP *)(NNP *)) |BT| (LP-head (JJ *)(NP *)(PP *)(VP indicted)(PP *)(NP *)(NNP *)) |BT| (VP (PP (NP (JJ international)(NN war)(NNS crimes)(NN tribunal)))(PP (IN in)(NP (DT The)(NNP Hague)(, ,)(NNP Netherlands)))) |BT| (VP (ROOT (S (NP (SBAR (S (VP (VP (VP (PP (NP (E-ORG (JJ international)(NN war)(NNS crimes)(NN tribunal))))(PP (IN in)(NP (E-GPE (DT The)(NNP Hague))(, ,)(E-GPE (NNP Netherlands)))))))))(, ,))(VP (MD can)(RB not)(VP (VB leave)(NP (E-GPE (NNP Yugoslavia)))(PP (IN without)(S (VP (VBG risking)(NP (NN arrest)(CC and)(NN extradition)))))))(. .)))(ROOT (S (NP (NP (E-PER (NNP Milosevic)))(, ,)(SBAR (WHNP (E-PER (WP who)))(S (VP (VBZ has)(VP (VBN been)(VP (VBN indicted)(PP (IN by)(NP (DT the)(E-ORG (JJ international)(NN war)(NNS crimes)(NN tribunal))))(PP (IN in)(NP (E-GPE (DT The)(NNP Hague))(, ,)(E-GPE (NNP Netherlands))))))))))))) |ET| 10:117 11:2725 12:2726 13:2712 14:2713 16:55 17:6 18:130 21:165 22:227 23:2714 24:2727 25:117 26:117 27:106 28:13 29:105 30:13 31:460 32:2728 33:2715 34:2729 37:2716 38:2724 40:2717 41:2717 42:2717 43:106 44:2194 45:2194 46:2728 47:2728 48:2717 49:106  |EV| 
0.030879769341819893191392054632161  |BT| (NP (NP (NNS ladies))(PP (IN of)(NP (NP (NNP Bahrain)(, ,)(NNP Comoros)(, ,)(NNP Egypt))))) |BT| (BOW (of *)(Bahrain *)(, *)) |BT| (BOH (of *)(Lebanon *)) |BT| (BOH-NPs (Lebanon *)) |BT| (LP (NNS *)(NP *)(PP *)(NP *)(NNP *)) |BT| (LP-head (NNS *)(NP ladies)(PP *)(NP *)(NNP *)) |BT| (NP (NP (NNS ladies))(PP (IN of)(NP (NP (NNP Bahrain)(, ,)(NNP Comoros)(, ,)(NNP Egypt))))) |BT| (NP (ROOT (S (VP (VP (PP (NP (NP (E-PER (NNS ladies)))(PP (IN of)(NP (NP (E-GPE (NNP Bahrain))(, ,)(E-GPE (NNP Comoros))(, ,)(E-GPE (NNP Egypt))(, ,)(E-GPE (NNP Jordan))(, ,)(E-GPE (NNP Kuwait))(, ,)(E-GPE (NNP Lebanon))(, ,)(E-GPE (NNP Morocco)))(, ,)(NP (DT the)(E-GPE (JJ Palestinian))(E-GPE (NNS territories)))(, ,)(NP (E-GPE (NNP Sudan)))(CC and)(NP (E-GPE (NNP Tunisia)))))))))(. .)))(ROOT (S (NP (DT The)(NN meeting))(VP (VBD was)(VP (VBN attended)(PP (IN by)(NP (NP (DT the)(JJ first)(E-PER (NNS ladies)))(PP (IN of)(NP (NP (E-GPE (NNP Bahrain))(, ,)(E-GPE (NNP Comoros))(, ,)(E-GPE (NNP Egypt)))))))))))) |ET| 10:118 11:566 12:5 13:9862 14:9863 16:64 17:25 18:143 21:9 22:324 23:1443 24:12 25:118 26:118 27:187 28:13 29:179 30:13 31:105 32:9871 33:1445 34:18 37:1446 38:9866 40:179 41:315 42:9066 43:187 44:21 45:460 46:9066 47:9066 48:22 49:187  |EV| 
0.10652931905156483305407988382285  |BT| (NP (NP (NNP Julie)(NNP Duncan))(PP (IN of)(NP (NNP Seattle)))) |BT| (BOW ) |BT| (BOH (of *)) |BT| (BOH-NPs ) |BT| (LP (NNP *)(NP *)(PP *)(NP *)(NNP *)) |BT| (LP-head (NNP *)(NP Duncan)(PP *)(NP *)(NNP *)) |BT| (NP (NP (NNP Julie)(NNP Duncan))(PP (IN of)(NP (NNP Seattle)))) |BT| (NP (ROOT (S (VP (VP (PP (NP (NP (E-PER (NNP Julie)(NNP Duncan)))(PP (IN of)(NP (E-GPE (NNP Seattle))))(, ,)(SBAR (WHNP (E-PER (WP who)))(S (VP (VBD said)(SBAR (S (NP (E-PER (PRP she)))(VP (VBD suffered)(S (NP (NP (NN lung)(NNS problems))(CC and)(NP (JJ chronic)(NNS infections)))(ADJP (RB apparently)(JJ related)(PP (TO to)(NP (JJ secondhand)(NN smoke)))))))))))))))(. .)))(ROOT (S (NP (DT The)(NN case))(VP (VBD was)(VP (VBN filed)(PP (IN by)(NP (NP (E-PER (NNP Julie)(NNP Duncan)))(PP (IN of)(NP (E-GPE (NNP Seattle))))))))))) |ET| 11:10646 12:5 13:13548 14:13549 16:6 17:7 18:143 21:9 22:10 23:13550 24:10647 25:118 26:118 27:187 28:187 29:460 30:187 31:10249 32:13551 33:13552 34:10649 37:13551 38:10650 40:460 41:823 42:21 43:187 44:21 45:10249 46:21 47:187 48:22 49:22  |EV| 
-0.013349876052946648904984350281211  |BT| (NP (NP (PRN (-LRB- -LRB-)(NP (NNP AP))(-RRB- -RRB-)))(NP (NP (CD __)(NN N))(PP (IN With)(NP (NP (NNP Vojislav)(NNP Kostunica))(PP (IN in)(NP (NP (NN office))(PP (IN as)(NP (NP (NN president))(, ,)(NP (NP (NNS backers))(PP (IN of)(NP (NP (DT the)(JJ pro-democracy)(NN leader))(VP (VBN embarked)(NP-TMP (NNP Sunday))(PP (IN on)(NP (NP (DT the)(ADJP (RB potentially)(JJ volatile))(NN task))(PP (IN of)(S (VP (VBG forming)(NP (NP (DT a)(NN government))(SBAR (WHNP (WDT that))(S (VP (VBZ tries)(S (VP (TO to)(VP (VB exclude)(NP (NP (NNS backers))(PP (IN of)(NP (JJ former)(NN leader)))))))))))))))))))))))))))) |BT| (BOW (-RRB- *)(__ *)(N *)(With *)(Vojislav *)(Kostunica *)(in *)(office *)(as *)(president *)(, *)(backers *)(of *)(the *)(pro-democracy *)(leader *)(embarked *)(Sunday *)(on *)(the *)(potentially *)(volatile *)(task *)(of *)(forming *)(a *)(government *)(that *)(tries *)(to *)(exclude *)(backers *)) |BT| (BOH (AP *)(N *)(With *)(Kostunica *)(in *)(office *)(as *)(president *)(backers *)(of *)(leader *)(embarked *)(Sunday *)(on *)(task *)(task *)(of *)(government *)(that *)(tries *)(exclude *)(backers *)(of *)) |BT| (BOH-NPs (AP *)(N *)(Kostunica *)(office *)(president *)(backers *)(leader *)(Sunday *)(task *)(task *)(government *)(backers *)(Slobodan *)) |BT| (LP (-LRB- *)(PRN *)(NP *)(NP *)(PP *)(NP *)(PP *)(NP *)(PP *)(NP *)(PP *)(NP *)(VP *)(PP *)(NP *)(PP *)(S *)(VP *)(NP *)(SBAR *)(S *)(VP *)(S *)(VP *)(NP *)(PP *)(NP *)(NN *)) |BT| (LP-head (-LRB- *)(PRN *)(NP Yugoslavia)(NP *)(PP *)(NP *)(PP *)(NP *)(PP *)(NP *)(PP *)(NP *)(VP *)(PP *)(NP *)(PP *)(S *)(VP *)(NP *)(SBAR *)(S *)(VP *)(S *)(VP *)(NP *)(PP *)(NP *)(NN *)) |BT| (NP (NP (PRN (-LRB- -LRB-)(NP (NNP AP))(-RRB- -RRB-)))(NP (NP (CD __)(NN N))(PP (IN With)(NP (NP (NNP Vojislav)(NNP Kostunica))(PP (IN in)(NP (NP (NN office))(PP (IN as)(NP (NP (NN president))(, ,)(NP (NP (NNS backers))(PP (IN of)(NP (NP (DT the)(JJ pro-democracy)(NN leader))(VP (VBN embarked)(NP-TMP (NNP Sunday))(PP (IN on)(NP (NP (DT the)(ADJP (RB potentially)(JJ volatile))(NN task))(PP (IN of)(S (VP (VBG forming)(NP (NP (DT a)(NN government))(SBAR (WHNP (WDT that))(S (VP (VBZ tries)(S (VP (TO to)(VP (VB exclude)(NP (NP (NNS backers))(PP (IN of)(NP (JJ former)(NN leader)))))))))))))))))))))))))))) |BT| (NP (ROOT (NP (NP (PRN (-LRB- -LRB-)(NP (NNP AP))(-RRB- -RRB-)))(NP (NP (CD __)(NN N))(PP (IN With)(NP (NP (E-PER (NNP Vojislav)(NNP Kostunica)))(PP (IN in)(NP (NP (NN office))(PP (IN as)(NP (NP (E-PER (NN president)))(, ,)(NP (NP (E-PER (NNS backers)))(PP (IN of)(NP (NP (DT the)(JJ pro-democracy)(E-PER (NN leader)))(VP (VBN embarked)(NP-TMP (NNP Sunday))(PP (IN on)(NP (NP (DT the)(ADJP (RB potentially)(JJ volatile))(NN task))(PP (IN of)(S (VP (VBG forming)(NP (NP (DT a)(E-ORG (NN government)))(SBAR (WHNP (E-ORG (WDT that)))(S (VP (VBZ tries)(S (VP (TO to)(VP (VB exclude)(NP (NP (E-PER (NNS backers)))(PP (IN of)(NP (JJ former)(E-PER (NN leader))(E-PER (NNP Slobodan)(NNP Milosevic))))))))))))))))))))))))))))(. .)))(ROOT (NP (NP (NP (E-GPE (NNP BELGRADE))(, ,)(E-GPE (NNP Yugoslavia)))(PRN (-LRB- -LRB-)(NP (NNP AP))(-RRB- -RRB-)))(NP (NP (CD __)(NN N))(PP (IN With)(NP (NP (E-PER (NNP Vojislav)(NNP Kostunica)))(PP (IN in)(NP (NP (NN office))(PP (IN as)(NP (NP (E-PER (NN president)))(, ,)(NP (NP (E-PER (NNS backers)))(PP (IN of)(NP (NP (DT the)(JJ pro-democracy)(E-PER (NN leader)))(VP (VBN embarked)(NP-TMP (NNP Sunday))(PP (IN on)(NP (NP (DT the)(ADJP (RB potentially)(JJ volatile))(NN task))(PP (IN of)(S (VP (VBG forming)(NP (NP (DT a)(E-ORG (NN government)))(SBAR (WHNP (E-ORG (WDT that)))(S (VP (VBZ tries)(S (VP (TO to)(VP (VB exclude)(NP (NP (E-PER (NNS backers)))(PP (IN of)(NP (JJ former)(E-PER (NN leader))))))))))))))))))))))))))))))) |ET| 5:19 11:424 12:33 13:23 14:24 16:124 17:34 18:126 21:131 22:133 23:29 24:219 25:117 26:117 27:129 28:2098 29:1668 30:2098 31:13 32:187 33:30 34:223 37:31 38:1721 40:1668 41:1668 42:43 43:43 44:2637 45:2637 46:1774 47:187 48:3055 49:3055  |EV| 
0.076816151113647701542674894881202  |BT| (NP (NP (NN world)(POS 's))(JJ first)(ROOT (S (NP (NP (NP (NNP CAIRO)(, ,)(NNP Egypt))(PRN (-LRB- -LRB-)(NP (NNP AP))(-RRB- -RRB-)))(PP (NP (CD __)(CD Ten))(IN of)(NP (NP (DT the)(NNP Arab)(NN world)(POS 's))(JJ first)(NNS ladies))))))) |BT| (BOW ) |BT| (BOH ) |BT| (BOH-NPs ) |BT| (LP (NN *)(NP *)(NNS *)) |BT| (LP-head (NN *)(NP ladies)(NNS *)) |BT| (NP (NP (NN world)(POS 's))(JJ first)(ROOT (S (NP (NP (NP (NNP CAIRO)(, ,)(NNP Egypt))(PRN (-LRB- -LRB-)(NP (NNP AP))(-RRB- -RRB-)))(PP (NP (CD __)(CD Ten))(IN of)(NP (NP (DT the)(NNP Arab)(NN world)(POS 's))(JJ first)(NNS ladies))))))) |BT| (NP (ROOT (S (NP (PP (NP (NP (E-GPE (NN world))(POS 's))(JJ first)(E-PER (NNS ladies)))))(VP (VBD joined)(NP (NP (E-PER (NNS activists)))(PP (IN in)(NP (DT an)(JJ unusual)(NN gathering))))(NP-TMP (NNP Saturday))(S (VP (TO to)(VP (VB push)(PP (IN for)(NP (NP (DT the)(JJ improved)(NN status))(PP (IN of)(NP (NP (E-PER (NNS women)))(PP (IN in)(NP (E-PER (PRP$ their))(JJ male-dominated)(NNS societies)))))))))))(. .)))(JJ first)(ROOT (S (NP (NP (NP (E-GPE (NNP CAIRO))(, ,)(E-GPE (NNP Egypt)))(PRN (-LRB- -LRB-)(NP (NNP AP))(-RRB- -RRB-)))(PP (NP (CD __)(E-PER (CD Ten)))(IN of)(NP (NP (DT the)(E-PER (NNP Arab))(E-GPE (NN world))(POS 's))(JJ first)(E-PER (NNS ladies)))))))) |ET| 11:9686 12:9687 13:9684 14:9685 16:25 17:7 18:35 19:434 21:9 22:160 23:340 24:1443 25:1 26:1 27:58 28:179 29:333 30:179 31:105 32:58 33:341 34:1445 35:19 37:331 38:1446 40:333 41:333 42:21 43:21 44:43 45:187 46:21 47:21 48:22 49:22  |EV| 
-0.12499999999996855293282749244099  |BT| (NP (NP (NNP Syria)(POS 's))(ROOT (NP (NP (NP (NNP Syria)(POS 's))(NN government))))) |BT| (BOW ) |BT| (BOH ) |BT| (BOH-NPs ) |BT| (LP (NNP *)(NP *)(NN *)) |BT| (LP-head (NNP *)(NP government)(NN *)) |BT| (NP (NP (NNP Syria)(POS 's))(ROOT (NP (NP (NP (NNP Syria)(POS 's))(NN government))))) |BT| (NP (ROOT (NP (NP (NP (E-GPE (NNP Syria))(POS 's))(E-GPE (NN government)))(: -)(VP (VBN run)(SBAR (S (NP (E-ORG (NNS media)))(VP (VBD said)(NP-TMP (JJ last)(NN week))(SBAR (IN that)(S (NP (DT no)(NN progress))(VP (MD could)(VP (VB be)(VP (VBN expected)(PP (ADVP (RB now))(IN because)(IN of)(NP (NP (DT the)(E-GPE (NNP U.S.))(NNS elections))(CC and)(NP (NP (E-GPE (JJ Israeli))(NNP Prime)(E-PER (NNP Minister))(E-PER (NNP Ehud)(NNP Barak))(POS 's))(JJ precarious)(NN situation))))(PP (IN as)(NP (E-PER (NN leader)))))))))))))(PP (IN of)(NP (DT a)(NN minority)(E-ORG (NN government))))(. .)))(ROOT (NP (NP (NP (E-GPE (NNP Syria))(POS 's))(E-GPE (NN government)))))) |ET| 9:1 11:397 12:398 13:44 14:45 16:6 17:7 18:8 21:9 22:56 23:48 24:399 25:1 26:1 27:58 28:58 29:14 30:58 31:400 32:51 33:50 34:401 35:19 37:51 38:400 40:21 41:21 42:21 43:21 44:21 45:21 46:21 47:21 48:22 49:22  |EV| 
-0.12499999999996855293282749244099  |BT| (NP (NP (NNP Indonesia)(POS 's))(JJ legal)(ROOT (S (NP (NP (NNS Critics))(PP (IN of)(NP (NP (NNP Indonesia)(POS 's))(JJ legal)(NN system))))))) |BT| (BOW ) |BT| (BOH ) |BT| (BOH-NPs ) |BT| (LP (NNP *)(NP *)(NN *)) |BT| (LP-head (NNP *)(NP system)(NN *)) |BT| (NP (NP (NNP Indonesia)(POS 's))(JJ legal)(ROOT (S (NP (NP (NNS Critics))(PP (IN of)(NP (NP (NNP Indonesia)(POS 's))(JJ legal)(NN system))))))) |BT| (NP (ROOT (S (NP (PP (NP (NP (E-GPE (NNP Indonesia))(POS 's))(JJ legal)(E-GPE (NN system)))))(VP (VBP have)(VP (VBN accused)(NP (E-GPE (PRP it)))(PP (IN of)(S (VP (VBG going)(ADJP (JJ soft))(PP (IN on)(NP (DT the)(E-PER (NNP Suharto))(E-PER (NN clan)))))))))(. .)))(JJ legal)(ROOT (S (NP (NP (E-PER (NNS Critics)))(PP (IN of)(NP (NP (E-GPE (NNP Indonesia))(POS 's))(JJ legal)(E-GPE (NN system)))))))) |ET| 9:1 11:802 12:803 13:795 14:45 16:25 17:7 18:8 21:9 22:56 23:610 24:804 25:1 26:1 27:58 28:765 29:187 30:765 31:800 32:58 33:614 34:805 35:19 37:615 38:806 40:187 41:800 42:21 43:21 44:21 45:800 46:21 47:21 48:22 49:22  |EV| 
-0.12499999999996855293282749244099  |BT| (NP (NP (NNP Kostunica)(POS 's))(JJ 18-party)(NN opposition)(ROOT (S (CC And)(PP (IN with)(NP (NP (NP (NNP Kostunica)(POS 's))(JJ 18-party)(NN opposition)(NN block))))))) |BT| (BOW ('s *)) |BT| (BOH ) |BT| (BOH-NPs (opposition *)) |BT| (LP (NNP *)(NP *)(NN *)) |BT| (LP-head (NNP *)(NP block)(NN *)) |BT| (NP (NP (NNP Kostunica)(POS 's))(JJ 18-party)(NN opposition)(ROOT (S (CC And)(PP (IN with)(NP (NP (NP (NNP Kostunica)(POS 's))(JJ 18-party)(NN opposition)(NN block))))))) |BT| (NP (ROOT (S (PP (NP (NP (NP (E-PER (NNP Kostunica))(POS 's))(JJ 18-party)(E-ORG (NN opposition))(E-ORG (NN block)))(PP (ADVP (JJ short))(IN of)(NP (DT an)(JJ absolute)(NN majority)))))(, ,)(NP (E-ORG (PRP it)))(VP (VBZ appears)(VP (VBN compelled)(S (VP (TO to)(VP (VB deal)(PP (IN with)(NP (NP (NP (DT the)(NNP Socialist)(NNPS People)(POS 's))(NNP Party))(PP (IN of)(NP (NP (E-GPE (NNP Montenegro)))(, ,)(NP (DT the)(JJR smaller)(E-GPE (JJ Yugoslav))(E-GPE (NN republic))))))))))))(. .)))(JJ 18-party)(NN opposition)(ROOT (S (CC And)(PP (IN with)(NP (NP (NP (E-PER (NNP Kostunica))(POS 's))(JJ 18-party)(E-ORG (NN opposition))(E-ORG (NN block)))))))) |ET| 5:19 11:3353 12:3354 13:2742 14:742 16:47 17:6 18:301 21:9 22:56 23:1785 24:3355 25:118 26:118 27:58 28:1762 29:72 30:1762 31:3131 32:3352 33:1788 34:3356 35:19 37:1764 38:2744 40:72 41:21 42:1762 43:21 44:21 45:21 46:1762 47:21 48:22 49:22  |EV| 
0.03788556556147113646426660693578  |BT| (NP (NP (NNS ladies))(PP (IN of)(NP (NP (NNP Bahrain)(, ,)(NNP Comoros)(, ,)(NNP Egypt)(, ,)(NNP Jordan)(, ,)(NNP Kuwait))))) |BT| (BOW (of *)(Bahrain *)(, *)(Comoros *)(, *)(Egypt *)(, *)) |BT| (BOH (of *)(Lebanon *)) |BT| (BOH-NPs (Lebanon *)) |BT| (LP (NNS *)(NP *)(PP *)(NP *)(NNP *)) |BT| (LP-head (NNS *)(NP ladies)(PP *)(NP *)(NNP *)) |BT| (NP (NP (NNS ladies))(PP (IN of)(NP (NP (NNP Bahrain)(, ,)(NNP Comoros)(, ,)(NNP Egypt)(, ,)(NNP Jordan)(, ,)(NNP Kuwait))))) |BT| (NP (ROOT (S (VP (VP (PP (NP (NP (E-PER (NNS ladies)))(PP (IN of)(NP (NP (E-GPE (NNP Bahrain))(, ,)(E-GPE (NNP Comoros))(, ,)(E-GPE (NNP Egypt))(, ,)(E-GPE (NNP Jordan))(, ,)(E-GPE (NNP Kuwait))(, ,)(E-GPE (NNP Lebanon))(, ,)(E-GPE (NNP Morocco)))(, ,)(NP (DT the)(E-GPE (JJ Palestinian))(E-GPE (NNS territories)))(, ,)(NP (E-GPE (NNP Sudan)))(CC and)(NP (E-GPE (NNP Tunisia)))))))))(. .)))(ROOT (S (NP (DT The)(NN meeting))(VP (VBD was)(VP (VBN attended)(PP (IN by)(NP (NP (DT the)(JJ first)(E-PER (NNS ladies)))(PP (IN of)(NP (NP (E-GPE (NNP Bahrain))(, ,)(E-GPE (NNP Comoros))(, ,)(E-GPE (NNP Egypt))(, ,)(E-GPE (NNP Jordan))(, ,)(E-GPE (NNP Kuwait)))))))))))) |ET| 10:118 11:536 12:5 13:9862 14:9863 16:92 17:55 18:143 21:9 22:324 23:1443 24:537 25:118 26:118 27:187 28:13 29:179 30:13 31:105 32:510 33:1445 34:538 37:1446 38:9866 40:179 41:315 42:9066 43:187 44:21 45:460 46:9066 47:9066 48:22 49:187  |EV| 
0.12174302887450492993703932143035  |BT| (S (NP (PP (NP (NNP Egypt))))(, ,)(PP (IN for)(NP (NN example)))(, ,)(NP (JJ avid)(NN campaigning))(VP (VBD helped)(S (NP (NNS women))))) |BT| (BOW (, *)(for *)(example *)(, *)(avid *)) |BT| (BOH (for *)(example *)(campaigning *)(helped *)) |BT| (BOH-NPs (example *)(campaigning *)) |BT| (LP (NNP *)(NP *)(PP *)(NP *)(S *)(VP *)(S *)(NP *)(NNS *)) |BT| (LP-head (NNP *)(NP *)(PP *)(NP *)(S helped)(VP *)(S *)(NP *)(NNS *)) |BT| (S (NP (PP (NP (NNP Egypt))))(, ,)(PP (IN for)(NP (NN example)))(, ,)(NP (JJ avid)(NN campaigning))(VP (VBD helped)(S (NP (NNS women))))) |BT| (S (ROOT (S (NP (PP (NP (E-GPE (NNP Egypt)))))(, ,)(PP (IN for)(NP (NN example)))(, ,)(NP (JJ avid)(NN campaigning))(VP (VBD helped)(S (NP (E-PER (NNS women)))(VP (VB reverse)(NP (NP (NNS laws))(SBAR (WHNP (WDT that))(S (VP (VBD prevented)(NP (E-PER (PRP them)))(PP (IN from)(S (VP (VP (VBG obtaining)(NP (NN divorce)))(CC and)(VP (VBG traveling)(ADVP (E-LOC (RB abroad)))(PP (IN without)(NP (NP (E-PER (PRP$ their))(E-PER (NNS husbands))(POS '))(NN permission))))))))))))))(. .)))(, ,)(PP (IN for)(NP (NN example)))(, ,)(NP (JJ avid)(NN campaigning))(ROOT (S (NP (NP (DT This)(NN year))(PP (IN in)(NP (E-GPE (NNP Egypt)))))(, ,)(PP (IN for)(NP (NN example)))(, ,)(NP (JJ avid)(NN campaigning))(VP (VBD helped)(S (NP (E-PER (NNS women)))))))) |ET| 9:118 11:9732 12:33 13:566 14:5 16:34 17:7 18:35 21:9 22:113 23:12 24:9690 25:1 26:1 27:13 28:3101 29:106 30:3101 31:1166 32:9807 33:18 34:9692 37:20 38:9693 40:106 41:1166 42:5426 43:605 44:21 45:1166 46:9807 47:3101 48:5426 49:9807  |EV| 
0.073712444096332846443786479539995  |BT| (NP (NP (NN world)(POS 's))(JJ first)(ROOT (S (NP (NP (NP (NNP CAIRO)(, ,)(NNP Egypt))(PRN (-LRB- -LRB-)(NP (NNP AP))(-RRB- -RRB-)))(PP (NP (CD __)(CD Ten))(IN of)(NP (NP (DT the)(NNP Arab)(NN world)(POS 's))(JJ first)(NNS ladies))))))) |BT| (BOW ) |BT| (BOH ) |BT| (BOH-NPs ) |BT| (LP (NN *)(NP *)(NNS *)) |BT| (LP-head (NN *)(NP ladies)(NNS *)) |BT| (NP (NP (NN world)(POS 's))(JJ first)(ROOT (S (NP (NP (NP (NNP CAIRO)(, ,)(NNP Egypt))(PRN (-LRB- -LRB-)(NP (NNP AP))(-RRB- -RRB-)))(PP (NP (CD __)(CD Ten))(IN of)(NP (NP (DT the)(NNP Arab)(NN world)(POS 's))(JJ first)(NNS ladies))))))) |BT| (NP (ROOT (S (NP (PP (NP (NP (E-GPE (NN world))(POS 's))(JJ first)(E-PER (NNS ladies)))))(VP (VBD joined)(NP (NP (E-PER (NNS activists)))(PP (IN in)(NP (DT an)(JJ unusual)(NN gathering))))(NP-TMP (NNP Saturday))(S (VP (TO to)(VP (VB push)(PP (IN for)(NP (NP (DT the)(JJ improved)(NN status))(PP (IN of)(NP (NP (E-PER (NNS women)))(PP (IN in)(NP (E-PER (PRP$ their))(JJ male-dominated)(NNS societies)))))))))))(. .)))(JJ first)(ROOT (S (NP (NP (NP (E-GPE (NNP CAIRO))(, ,)(E-GPE (NNP Egypt)))(PRN (-LRB- -LRB-)(NP (NNP AP))(-RRB- -RRB-)))(PP (NP (CD __)(E-PER (CD Ten)))(IN of)(NP (NP (DT the)(E-PER (NNP Arab))(E-GPE (NN world))(POS 's))(JJ first)(E-PER (NNS ladies)))))))) |ET| 11:9686 12:9687 13:9684 14:9685 16:25 17:7 18:35 19:434 21:9 22:160 23:340 24:1443 25:1 26:1 27:58 28:179 29:333 30:179 31:105 32:58 33:341 34:1445 35:19 37:331 38:1446 40:333 41:333 42:21 43:21 44:43 45:187 46:21 47:21 48:22 49:22  |EV| 
0.10195745344355003347835975091584  |BT| (S (NP (PP (NP (NNP Egypt))))(, ,)(PP (IN for)(NP (NN example)))(, ,)(NP (JJ avid)(NN campaigning))(VP (VBD helped)(S (NP (NNS women))))) |BT| (BOW (, *)(for *)(example *)(, *)(avid *)) |BT| (BOH (for *)(example *)(campaigning *)(helped *)) |BT| (BOH-NPs (example *)(campaigning *)) |BT| (LP (NNP *)(NP *)(PP *)(NP *)(S *)(VP *)(S *)(NP *)(NNS *)) |BT| (LP-head (NNP *)(NP *)(PP *)(NP *)(S helped)(VP *)(S *)(NP *)(NNS *)) |BT| (S (NP (PP (NP (NNP Egypt))))(, ,)(PP (IN for)(NP (NN example)))(, ,)(NP (JJ avid)(NN campaigning))(VP (VBD helped)(S (NP (NNS women))))) |BT| (S (ROOT (S (NP (PP (NP (E-GPE (NNP Egypt)))))(, ,)(PP (IN for)(NP (NN example)))(, ,)(NP (JJ avid)(NN campaigning))(VP (VBD helped)(S (NP (E-PER (NNS women)))(VP (VB reverse)(NP (NP (NNS laws))(SBAR (WHNP (WDT that))(S (VP (VBD prevented)(NP (E-PER (PRP them)))(PP (IN from)(S (VP (VP (VBG obtaining)(NP (NN divorce)))(CC and)(VP (VBG traveling)(ADVP (E-LOC (RB abroad)))(PP (IN without)(NP (NP (E-PER (PRP$ their))(E-PER (NNS husbands))(POS '))(NN permission))))))))))))))(. .)))(, ,)(PP (IN for)(NP (NN example)))(, ,)(NP (JJ avid)(NN campaigning))(ROOT (S (NP (NP (DT This)(NN year))(PP (IN in)(NP (E-GPE (NNP Egypt)))))(, ,)(PP (IN for)(NP (NN example)))(, ,)(NP (JJ avid)(NN campaigning))(VP (VBD helped)(S (NP (E-PER (NNS women)))))))) |ET| 9:118 11:9732 12:33 13:566 14:5 16:34 17:7 18:35 21:9 22:113 23:12 24:9690 25:1 26:1 27:13 28:3101 29:106 30:3101 31:1166 32:9807 33:18 34:9692 37:20 38:9693 40:106 41:1166 42:5426 43:605 44:21 45:1166 46:9807 47:3101 48:5426 49:9807  |EV| 
-0.004486907943983994319359087654675  |BT| (S (SBAR (S (VP (PP (NP (NN parliament))))))(, ,)(NP (NP (DT a)(JJ nonpartisan)(NN government))(PP (IN of)(NP (NNS experts))))) |BT| (BOW (, *)(a *)(nonpartisan *)) |BT| (BOH (government *)(of *)) |BT| (BOH-NPs (government *)) |BT| (LP (NN *)(NP *)(PP *)(VP *)(S *)(SBAR *)(S *)(NP *)(PP *)(NP *)(NNS *)) |BT| (LP-head (NN *)(NP *)(PP *)(VP *)(S *)(SBAR *)(S outnumbered)(NP *)(PP *)(NP *)(NNS *)) |BT| (S (SBAR (S (VP (PP (NP (NN parliament))))))(, ,)(NP (NP (DT a)(JJ nonpartisan)(NN government))(PP (IN of)(NP (NNS experts))))) |BT| (S (ROOT (S (SBAR (S (VP (PP (NP (E-ORG (NN parliament)))))))(, ,)(NP (NP (DT a)(JJ nonpartisan)(E-ORG (NN government)))(PP (IN of)(NP (E-PER (NNS experts))))(, ,)(SBAR (IN as)(S (VP (VBN favored)(PP (IN by)(NP (NP (E-PER (JJ many)))(PP (IN in)(NP (DT the)(E-PER (NNP Kostunica))(E-PER (NN camp)))))))))(, ,))(VP (VBZ has)(NP (NP (JJ little)(NN chance))(PP (IN of)(S (VP (VBG being)(VP (VBN formed)))))))(. .)))(, ,)(ROOT (S (SBAR (IN With)(S (NP (DT the)(E-ORG (NN opposition)))(VP (VBD outnumbered)(PP (IN in)(NP (E-ORG (NN parliament)))))))(, ,)(NP (NP (DT a)(JJ nonpartisan)(E-ORG (NN government)))(PP (IN of)(NP (E-PER (NNS experts)))))))) |ET| 5:19 11:3412 12:33 13:3406 14:24 16:64 17:6 18:126 19:338 21:9 22:160 23:2696 24:3413 25:117 26:117 27:13 28:187 29:106 30:187 31:3408 32:400 33:2698 34:3414 37:2699 38:3415 40:106 41:1762 42:400 43:400 44:21 45:3408 46:400 47:187 48:22 49:400  |EV| 
-0.12499999999996855293282749244099  |BT| (NP (NP (NNS students))(PP (IN in)(NP (DT a)(JJ common)(NN area)))) |BT| (BOW (in *)) |BT| (BOH (in *)) |BT| (BOH-NPs ) |BT| (LP (NNS *)(NP *)(PP *)(NP *)(NN *)) |BT| (LP-head (NNS *)(NP students)(PP *)(NP *)(NN *)) |BT| (NP (NP (NNS students))(PP (IN in)(NP (DT a)(JJ common)(NN area)))) |BT| (NP (ROOT (S (VP (PP (NP (PP (NP (PP (NP (NP (E-PER (NNS students)))(PP (IN in)(NP (DT a)(JJ common)(E-FAC (NN area))))))))))(PP (IN at)(NP (NP (E-FAC (NNP Heritage)(NNP High)(NNP School)))(PP (IN in)(NP (E-GPE (NNP Conyers))))))(, ,)(PP (IN about)(NP (NP (CD 25)(NNS miles))(PP (ADVP (RB east))(IN of)(NP (NP (E-GPE (NNP Atlanta)))(, ,)(NP (CD one)(NN month))))))(PP (IN after)(NP (NP (DT the)(E-FAC (NNP Columbine)(NNP High))(NN massacre))(PP (IN in)(NP (E-GPE (NNP Colorado)))))))(. .)))(ROOT (S (NP (NP (E-PER (NNP Solomon)))(, ,)(NP (RB then)(CD 15))(, ,))(VP (VBD opened)(NP (NN fire))(PP (IN with)(NP (NP (DT a)(JJ sawed-off)(E-WEA (NN rifle)))(PP (IN on)(NP (NP (NNS hundreds))(PP (IN of)(NP (NP (E-PER (NNS students)))(PP (IN in)(NP (DT a)(JJ common)(E-FAC (NN area)))))))))))))) |ET| 11:1061 12:1062 13:1058 14:1059 16:47 17:7 18:647 19:159 21:9 22:339 23:989 24:1063 25:118 26:118 27:106 28:1064 29:187 30:1064 31:1060 32:430 33:992 34:1065 37:993 38:1066 40:187 41:1060 42:21 43:106 44:1055 45:1060 46:21 47:106 48:22 49:22  |EV| 
-0.12499999999996855293282749244099  |BT| (NP (NP (NNS backers))(PP (IN of)(NP (NP (DT the)(JJ pro-democracy)(NN leader))))) |BT| (BOW (of *)) |BT| (BOH (of *)) |BT| (BOH-NPs ) |BT| (LP (NNS *)(NP *)(PP *)(NP *)(NN *)) |BT| (LP-head (NNS *)(NP backers)(PP *)(NP *)(NN *)) |BT| (NP (NP (NNS backers))(PP (IN of)(NP (NP (DT the)(JJ pro-democracy)(NN leader))))) |BT| (NP (ROOT (NP (NP (PP (NP (PP (NP (PP (NP (NP (NP (E-PER (NNS backers)))(PP (IN of)(NP (NP (DT the)(JJ pro-democracy)(E-PER (NN leader)))(VP (VBN embarked)(NP-TMP (NNP Sunday))(PP (IN on)(NP (NP (DT the)(ADJP (RB potentially)(JJ volatile))(NN task))(PP (IN of)(S (VP (VBG forming)(NP (NP (DT a)(E-ORG (NN government)))(SBAR (WHNP (E-ORG (WDT that)))(S (VP (VBZ tries)(S (VP (TO to)(VP (VB exclude)(NP (NP (E-PER (NNS backers)))(PP (IN of)(NP (JJ former)(E-PER (NN leader))(E-PER (NNP Slobodan)(NNP Milosevic))))))))))))))))))))))))))))(. .)))(ROOT (NP (NP (NP (E-GPE (NNP BELGRADE))(, ,)(E-GPE (NNP Yugoslavia)))(PRN (-LRB- -LRB-)(NP (NNP AP))(-RRB- -RRB-)))(NP (NP (CD __)(NN N))(PP (IN With)(NP (NP (E-PER (NNP Vojislav)(NNP Kostunica)))(PP (IN in)(NP (NP (NN office))(PP (IN as)(NP (NP (E-PER (NN president)))(, ,)(NP (NP (E-PER (NNS backers)))(PP (IN of)(NP (NP (DT the)(JJ pro-democracy)(E-PER (NN leader)))))))))))))))) |ET| 2:19 11:3056 12:3057 13:3052 14:797 16:47 17:7 18:148 19:381 21:9 22:339 23:3053 24:219 25:118 26:118 27:187 28:788 29:13 30:788 31:60 32:105 33:3054 34:223 37:3055 38:224 40:60 41:60 42:21 43:187 44:3051 45:49 46:21 47:187 48:22 49:22  |EV| 
0.068072455959183625351371915712662  |BT| (NP (NNP U.S.)(NN labor)(NN pool)) |BT| (BOW ) |BT| (BOH ) |BT| (BOH-NPs (labor *)) |BT| (LP (NNP *)(NP *)(NN *)) |BT| (LP-head (NNP *)(NP pool)(NN *)) |BT| (NP (NNP U.S.)(NN labor)(NN pool)) |BT| (NP (ROOT (S (VP (NP (SBAR (S (VP (S (VP (VP (NP (E-GPE (NNP U.S.))(NN labor)(E-PER (NN pool)))))))))))(. .)))(NN labor)(ROOT (S (NP (DT Those))(VP (VBD were)(NP (NP (DT the)(NNS days))(PP (IN of)(NP (DT the)(NNP Bracero)(NNP Program)(, ,)(NNP World)(NNP War)(NNP II-era)(NN legislation)))(SBAR (WHNP (WDT that))(S (VP (VBD beckoned)(NP (NP (NNS thousands))(PP (IN of)(NP (E-GPE (JJ Mexican))(E-PER (NNS nationals)))))(S (VP (TO to)(VP (VB replenish)(NP (DT a)(ADJP (VBG dwindling))(E-GPE (NNP U.S.))(NN labor)(E-PER (NN pool)))))))))))))) |ET| 11:11810 12:11811 13:408 14:5 16:6 17:7 18:35 21:9 22:56 23:409 24:11812 25:1 26:1 27:10348 28:10348 29:4997 30:10348 31:430 32:412 33:410 34:11813 35:19 37:11808 38:11808 39:19 40:10348 41:10348 42:10348 43:21 44:412 45:412 46:10348 47:21 48:22 49:22  |EV| 
0.12499999999996855293282749244099  |BT| (NP (NNP U.S.)(NN labor)(NN pool)) |BT| (BOW ) |BT| (BOH ) |BT| (BOH-NPs (labor *)) |BT| (LP (NNP *)(NP *)(NN *)) |BT| (LP-head (NNP *)(NP pool)(NN *)) |BT| (NP (NNP U.S.)(NN labor)(NN pool)) |BT| (NP (ROOT (S (VP (NP (SBAR (S (VP (S (VP (VP (NP (E-GPE (NNP U.S.))(NN labor)(E-PER (NN pool)))))))))))(. .)))(NN labor)(ROOT (S (NP (DT Those))(VP (VBD were)(NP (NP (DT the)(NNS days))(PP (IN of)(NP (DT the)(NNP Bracero)(NNP Program)(, ,)(NNP World)(NNP War)(NNP II-era)(NN legislation)))(SBAR (WHNP (WDT that))(S (VP (VBD beckoned)(NP (NP (NNS thousands))(PP (IN of)(NP (E-GPE (JJ Mexican))(E-PER (NNS nationals)))))(S (VP (TO to)(VP (VB replenish)(NP (DT a)(ADJP (VBG dwindling))(E-GPE (NNP U.S.))(NN labor)(E-PER (NN pool)))))))))))))) |ET| 11:11810 12:11811 13:408 14:5 16:6 17:7 18:35 21:9 22:56 23:409 24:11812 25:1 26:1 27:10348 28:10348 29:4997 30:10348 31:430 32:412 33:410 34:11813 35:19 37:11808 38:11808 39:19 40:10348 41:10348 42:10348 43:21 44:412 45:412 46:10348 47:21 48:22 49:22  |EV| 
-0.12499999999996855293282749244099  |BT| (NP (NN prison)(NNS doctors)) |BT| (BOW ) |BT| (BOH ) |BT| (BOH-NPs ) |BT| (LP (NN *)(NP *)(NNS *)) |BT| (LP-head (NN *)(NP doctors)(NNS *)) |BT| (NP (NN prison)(NNS doctors)) |BT| (NP (ROOT (S (VP (VP (VP (PP (NP (PP (NP (E-FAC (NN prison))(E-PER (NNS doctors)))))))))(. .)))(ROOT (S (SBAR (IN If)(S (NP (DT the)(E-PER (NN judge)))(VP (VBZ accepts)(NP (DT the)(NN guilty-but-mentally-ill)(NN plea)))))(, ,)(NP (E-PER (NNP Solomon)))(VP (VP (MD would)(ADVP (RB still))(VP (VB go)(PP (TO to)(NP (E-FAC (NN prison))))))(CC but)(VP (MD would)(VP (VB receive)(NP (JJ psychiatric)(NN treatment))(PP (IN under)(NP (NP (DT the)(NN care))(PP (IN of)(NP (E-FAC (NN prison))(E-PER (NNS doctors)))))))))))) |ET| 11:1038 12:1039 13:643 14:644 16:7 17:7 18:912 19:434 21:9 22:160 23:649 24:1040 25:913 26:913 27:31 28:31 29:187 30:655 31:1043 32:187 33:653 34:1041 35:19 36:19 37:1042 38:1042 39:19 40:187 41:1043 42:21 43:21 44:1047 45:1043 46:21 47:21 48:22 49:22  |EV| 
-0.12499999999996855293282749244099  |BT| (NP (NN state)(NNS prosecutors)) |BT| (BOW ) |BT| (BOH ) |BT| (BOH-NPs ) |BT| (LP (NN *)(NP *)(NNS *)) |BT| (LP-head (NN *)(NP prosecutors)(NNS *)) |BT| (NP (NN state)(NNS prosecutors)) |BT| (NP (ROOT (S (S (VP (S (NP (E-ORG (NN state))(E-PER (NNS prosecutors)))(VP (TO to)(VP (VB bring)(NP (NNS charges))(PP (IN against)(NP (E-PER (NNP Slobodan)(NNP Milosevic)))))))))(, ,)('' '')(NP (E-PER (NNP Dinkic)))(VP (VBD said))(. .)))(ROOT (S (`` ``)(S (NP (PRP We))(ADVP (RB now))(VP (VBP expect)(S (NP (E-ORG (NN state))(E-PER (NNS prosecutors))))))))) |ET| 5:19 11:3199 12:3200 13:3197 14:24 16:7 17:7 18:126 19:159 21:9 22:160 23:694 24:636 25:117 26:117 27:31 28:31 29:3198 30:268 31:413 32:3198 33:695 34:638 35:19 36:19 37:639 38:639 39:19 40:3198 41:21 42:21 43:21 44:21 45:413 46:21 47:21 48:22 49:22  |EV| 
-0.12499999999996855293282749244099  |BT| (NP (NN administration)(NNS officials)) |BT| (BOW ) |BT| (BOH ) |BT| (BOH-NPs ) |BT| (LP (NN *)(NP *)(NNS *)) |BT| (LP-head (NN *)(NP officials)(NNS *)) |BT| (NP (NN administration)(NNS officials)) |BT| (NP (ROOT (S (VP (SBAR (S (NP (E-ORG (NN administration))(E-PER (NNS officials)))(VP (VBD told)(NP (NP (E-PER (NNS members)))(PP (IN of)(NP (NP (E-ORG (NNP Congress)))(PP (IN in)(NP (DT a)(NN briefing))))))(NP-TMP (NNP Wednesday))(SBAR (IN that)(S (NP (E-PER (NNP Clinton)))(VP (VP (VBD sent)(NP (DT a)(NN letter))(PP (TO to)(NP (NP (E-GPE (NNP Russian))(E-PER (NNP President))(E-PER (NNP Vladimir)(NNP Putin)))(ADVP (NP (CD three)(NNS weeks))(IN ago))))(`` ``)(NP (SBAR (S (VP (VBG asking)(S (NP (E-PER (PRP him)))(VP (TO to)(VP (VP (VB step)(PP (IN in)))(CC and)(VP (VB do)(SBAR (WHADJP (RB exactly)(WP what))(S (NP (E-PER (NNP Bush)))(VP (VBD suggested))))))))))))('' ''))(CC and)(VP (PP (IN on)(NP (NNP Saturday)))(ADVP (RB personally))(VBD urged)(NP (E-PER (NN Putin)))(PP (IN by)(NP (NN phone)))(S (VP (TO to)(VP (VB intervene))))))))))))(. .)))(ROOT (S (NP (NP (E-PER (NNP Marc)(NNP Thiessen)))(, ,)(NP (NP (NP (E-PER (NN spokesman)))(PP (IN for)(NP (DT the)(E-ORG (NNP GOP)))))(: -)(S (VP (JJ controlled)(NP (E-ORG (NNP Senate))(E-ORG (NNP Foreign)(NNP Relations)(NNP Committee))))))(, ,))(VP (VBD said)(SBAR (S (NP (E-ORG (NN administration))(E-PER (NNS officials))))))))) |ET| 5:19 11:1924 12:1925 13:1864 14:24 16:7 17:7 18:126 19:338 21:9 22:160 23:1865 24:1926 25:117 26:117 27:31 28:31 29:170 30:1876 31:13 32:170 33:1867 34:1927 35:19 36:19 37:1923 38:1923 39:19 40:170 41:1916 42:21 43:21 44:1922 45:1916 46:21 47:21 48:22 49:22  |EV| 
0.12499999999996855293282749244099  |BT| (NP (NP (NN journalist))(PP (IN in)(NP (NP (DT the)(JJ northern)(NN city))(PP (IN of)(NP (NNP Korhogo)))))) |BT| (BOW (in *)(the *)(northern *)) |BT| (BOH (in *)(city *)(of *)) |BT| (BOH-NPs (city *)) |BT| (LP (NN *)(NP *)(PP *)(NP *)(PP *)(NP *)(NNP *)) |BT| (LP-head (NN *)(NP journalist)(PP *)(NP *)(PP *)(NP *)(NNP *)) |BT| (NP (NP (NN journalist))(PP (IN in)(NP (NP (DT the)(JJ northern)(NN city))(PP (IN of)(NP (NNP Korhogo)))))) |BT| (NP (ROOT (SINV (NP (NP (NP (E-PER (NN journalist)))(PP (IN in)(NP (NP (DT the)(JJ northern)(E-GPE (NN city)))(PP (IN of)(NP (E-GPE (NNP Korhogo)))))))(, ,)(SBAR (WHADVP (E-GPE (WRB where)))(S (NP (ADJP (DT a)(JJ few)(JJ torn))(CC and)(NP (JJ defaced)(NNS posters)))(VP (VBD were)(NP (NP (DT the)(JJ only)(NN sign))(PP (IN of)(NP (DT the)(VBG approaching)(NN vote))))))))(. .)))(ROOT (SINV (`` ``)(S (S (NP (DT The)(NNS elections))(VP (VBP are)(ADVP (RB already))(VP (VBN done))))(CC and)(S (NP (E-PER (NNS people)))(ADVP (E-GPE (RB here)))(VP (VBP are)(RB not)(ADJP (JJ interested)))))(, ,)('' '')(VP (VBD said))(NP (NP (E-PER (NNP Ali)(NNP Ouattara)))(, ,)(NP (NP (DT a)(E-PER (NN journalist)))(PP (IN in)(NP (NP (DT the)(JJ northern)(E-GPE (NN city)))(PP (IN of)(NP (E-GPE (NNP Korhogo))))))))))) |ET| 11:5729 12:5 13:5721 14:5722 16:64 17:6 18:143 21:9 22:157 23:5723 24:5730 25:118 26:118 27:106 28:187 29:430 30:187 31:13 32:923 33:5724 34:5731 37:5725 38:5732 40:5719 41:5719 42:923 43:106 44:5734 45:5734 46:923 47:187 48:22 49:923  |EV| 
0.12499999999996855293282749244099  |BT| (NP (NP (NN journalist))(PP (IN in)(NP (NP (DT the)(JJ northern)(NN city))(PP (IN of)(NP (NNP Korhogo)))))) |BT| (BOW (in *)(the *)(northern *)) |BT| (BOH (in *)(city *)(of *)) |BT| (BOH-NPs (city *)) |BT| (LP (NN *)(NP *)(PP *)(NP *)(PP *)(NP *)(NNP *)) |BT| (LP-head (NN *)(NP journalist)(PP *)(NP *)(PP *)(NP *)(NNP *)) |BT| (NP (NP (NN journalist))(PP (IN in)(NP (NP (DT the)(JJ northern)(NN city))(PP (IN of)(NP (NNP Korhogo)))))) |BT| (NP (ROOT (SINV (NP (NP (NP (E-PER (NN journalist)))(PP (IN in)(NP (NP (DT the)(JJ northern)(E-GPE (NN city)))(PP (IN of)(NP (E-GPE (NNP Korhogo)))))))(, ,)(SBAR (WHADVP (E-GPE (WRB where)))(S (NP (ADJP (DT a)(JJ few)(JJ torn))(CC and)(NP (JJ defaced)(NNS posters)))(VP (VBD were)(NP (NP (DT the)(JJ only)(NN sign))(PP (IN of)(NP (DT the)(VBG approaching)(NN vote))))))))(. .)))(ROOT (SINV (`` ``)(S (S (NP (DT The)(NNS elections))(VP (VBP are)(ADVP (RB already))(VP (VBN done))))(CC and)(S (NP (E-PER (NNS people)))(ADVP (E-GPE (RB here)))(VP (VBP are)(RB not)(ADJP (JJ interested)))))(, ,)('' '')(VP (VBD said))(NP (NP (E-PER (NNP Ali)(NNP Ouattara)))(, ,)(NP (NP (DT a)(E-PER (NN journalist)))(PP (IN in)(NP (NP (DT the)(JJ northern)(E-GPE (NN city)))(PP (IN of)(NP (E-GPE (NNP Korhogo))))))))))) |ET| 11:5729 12:5 13:5721 14:5722 16:64 17:6 18:143 21:9 22:157 23:5723 24:5730 25:118 26:118 27:106 28:187 29:430 30:187 31:13 32:923 33:5724 34:5731 37:5725 38:5732 40:5719 41:5719 42:923 43:106 44:5734 45:5734 46:923 47:187 48:22 49:923  |EV| 
-0.12499999999996855293282749244099  |BT| (NP (NP (NNP Yugoslavia)(POS 's))(JJR smaller)(ROOT (S (ADVP (RB Together)(PP (IN with)(NP (NP (DT an)(VBN allied)(NN party))(PP (IN from)(NP (NP (NNP Montenegro))(, ,)(NP (NP (NNP Yugoslavia)(POS 's))(JJR smaller)(NN republic)))))))))) |BT| (BOW ) |BT| (BOH (republic *)) |BT| (BOH-NPs (republic *)) |BT| (LP (NNP *)(NP *)(NN *)) |BT| (LP-head (NNP *)(NP Yugoslavia)(NN *)) |BT| (NP (NP (NNP Yugoslavia)(POS 's))(JJR smaller)(ROOT (S (ADVP (RB Together)(PP (IN with)(NP (NP (DT an)(VBN allied)(NN party))(PP (IN from)(NP (NP (NNP Montenegro))(, ,)(NP (NP (NNP Yugoslavia)(POS 's))(JJR smaller)(NN republic)))))))))) |BT| (NP (ROOT (S (ADVP (PP (NP (PP (NP (NP (NP (E-GPE (NNP Yugoslavia))(POS 's))(JJR smaller)(E-GPE (NN republic))))))))(, ,)(NP (E-PER (PRP$ his))(E-PER (NNS allies)))(VP (MD could)(ADVP (RB conceivably))(VP (VB form)(NP (DT the)(JJ new)(JJ federal)(NN government))(, ,)(S (VP (VBG sidelining)(NP (E-PER (NNP Kostunica)))))))(. .)))(JJR smaller)(ROOT (S (ADVP (RB Together)(PP (IN with)(NP (NP (DT an)(VBN allied)(E-ORG (NN party)))(PP (IN from)(NP (NP (E-GPE (NNP Montenegro)))(, ,)(NP (NP (E-GPE (NNP Yugoslavia))(POS 's))(JJR smaller)(E-GPE (NN republic))))))))))) |ET| 11:2964 12:2965 13:1982 14:45 16:25 17:7 18:8 21:9 22:56 23:1666 24:2858 25:1 26:1 27:58 28:2485 29:13 30:2485 31:2962 32:58 33:1667 34:2860 37:1668 38:1668 39:19 40:2962 41:2962 42:2861 43:2861 44:2824 45:447 46:2861 47:2861 48:22 49:22  |EV| 
-0.12499999999996855293282749244099  |BT| (VP (PP (NP (NP (NN donor)(POS 's))(NN conference)))(PP (IN on)(NP (NNP Yugoslavia)))) |BT| (BOW ('s *)) |BT| (BOH (conference *)(on *)) |BT| (BOH-NPs (conference *)) |BT| (LP (NN *)(NP *)(PP *)(VP *)(PP *)(NP *)(NNP *)) |BT| (LP-head (NN *)(NP *)(PP *)(VP called)(PP *)(NP *)(NNP *)) |BT| (VP (PP (NP (NP (NN donor)(POS 's))(NN conference)))(PP (IN on)(NP (NNP Yugoslavia)))) |BT| (VP (ROOT (S (VP (PP (NP (NP (E-GPE (NN donor))(POS 's))(NN conference)))(PP (IN on)(NP (E-GPE (NNP Yugoslavia))))(PP (IN with)(NP (NP (DT the)(NN aim))(PP (IN of)(S (VP (VBG injecting)(NP (QP (IN at)(JJS least)($ $)(CD 500)(CD million)))(PP (IN into)(NP (NP (DT the)(JJ cash-strapped)(E-GPE (NN country)))(PP (IN over)(NP (DT the)(JJ next)(NN year)))))))))))(. .)))(ROOT (S (NP (E-PER (NNP Dinkic)))(ADVP (RB also))(VP (VBD called)(PP (IN for)(NP (NP (DT a)(E-GPE (NN donor))(POS 's))(NN conference)))(PP (IN on)(NP (E-GPE (NNP Yugoslavia)))))))) |ET| 11:1665 12:5 13:3224 14:3225 16:47 17:7 18:8 21:9 22:157 23:3226 24:1666 25:1 26:1 27:58 28:97 29:430 30:97 31:605 32:3229 33:3227 34:1667 37:3228 38:1668 40:605 41:3184 42:3229 43:3229 44:21 45:1372 46:3229 47:97 48:22 49:3229  |EV| 
-0.058080705040009825146363198200561  |BT| (NP (NP (NN secretary))(PP (IN for)(NP (NP (CD four)(NNS years))(PP (IN under)(NP (NNP President)))))) |BT| (BOW (for *)(four *)) |BT| (BOH (for *)(years *)(under *)) |BT| (BOH-NPs (years *)) |BT| (LP (NN *)(NP *)(PP *)(NP *)(PP *)(NP *)(NNP *)) |BT| (LP-head (NN *)(NP secretary)(PP *)(NP *)(PP *)(NP *)(NNP *)) |BT| (NP (NP (NN secretary))(PP (IN for)(NP (NP (CD four)(NNS years))(PP (IN under)(NP (NNP President)))))) |BT| (NP (ROOT (S (NP (NP (NP (E-PER (NN secretary)))(PP (IN for)(NP (NP (CD four)(NNS years))(PP (IN under)(NP (E-PER (NNP President))(E-PER (NNP Bush)))))))(, ,))(VP (VBZ has)(VP (VBN lent)(NP (NP (DT a)(NN measure))(PP (IN of)(NP (NN experience))))(PP (TO to)(NP (NP (E-PER (NN candidate))(E-PER (NNP Bush))(POS 's))(NNS claims)))(SBAR (IN that)(S (S (NP (DT the)(E-PER (NNP Clinton))(E-ORG (NN administration)))(VP (VBZ has)(VP (VBN shortchanged)(NP (DT the)(E-ORG (JJ military))))))(CC and)(S (NP (E-ORG (NNP GOP)))(VP (VBZ plans)(S (VP (TO to)(VP (VB limit)(NP (JJ foreign)(NNS deployments)))))))))))(. .)))(ROOT (S (NP (NP (E-PER (NNP Cheney)))(, ,)(NP (NP (NN defense)(E-PER (NN secretary)))(PP (IN for)(NP (NP (CD four)(NNS years))(PP (IN under)(NP (E-PER (NNP President))))))))))) |ET| 1:19 2:19 11:76 12:33 13:2144 14:2145 16:55 17:7 18:148 21:9 22:157 23:2148 24:78 25:118 26:118 27:605 28:2152 29:2014 30:2152 31:13 32:357 33:2150 34:80 37:2151 38:1312 40:2014 41:2014 42:357 43:605 44:1216 45:1216 46:357 47:2152 48:22 49:357  |EV| 
0.061241959333676432297721703434945  |BT| (NP (JJ Japanese)(NNS makers)) |BT| (BOW ) |BT| (BOH ) |BT| (BOH-NPs ) |BT| (LP (JJ *)(NP *)(NNS *)) |BT| (LP-head (JJ *)(NP makers)(NNS *)) |BT| (NP (JJ Japanese)(NNS makers)) |BT| (NP (ROOT (S (VP (VP (NP (E-GPE (JJ Japanese))(E-ORG (NNS makers)))))(. .)('' '')))(ROOT (S (NP (E-PER (NNP Joe)))(VP (VBD did)(RB not)(VP (VB shun)(NP (DT the)(E-GPE (JJ Japanese))(E-ORG (NNS makers)))))))) |ET| 11:13375 12:13376 13:8258 14:5 16:7 17:7 18:26 21:165 22:166 23:8259 24:10221 25:1 26:1 27:31 28:31 29:105 30:8265 31:13373 32:105 33:8260 34:10223 35:19 36:19 37:10224 38:10224 39:19 40:8265 41:13352 42:21 43:21 44:21 45:13373 46:21 47:21 48:22 49:22  |EV| 
0.079105724028249405077595213242603  |BT| (NP (JJ Japanese)(NNS makers)) |BT| (BOW ) |BT| (BOH ) |BT| (BOH-NPs ) |BT| (LP (JJ *)(NP *)(NNS *)) |BT| (LP-head (JJ *)(NP makers)(NNS *)) |BT| (NP (JJ Japanese)(NNS makers)) |BT| (NP (ROOT (S (VP (VP (NP (E-GPE (JJ Japanese))(E-ORG (NNS makers)))))(. .)('' '')))(ROOT (S (NP (E-PER (NNP Joe)))(VP (VBD did)(RB not)(VP (VB shun)(NP (DT the)(E-GPE (JJ Japanese))(E-ORG (NNS makers)))))))) |ET| 11:13375 12:13376 13:8258 14:5 16:7 17:7 18:26 21:165 22:166 23:8259 24:10221 25:1 26:1 27:31 28:31 29:105 30:8265 31:13373 32:105 33:8260 34:10223 35:19 36:19 37:10224 38:10224 39:19 40:8265 41:13352 42:21 43:21 44:21 45:13373 46:21 47:21 48:22 49:22  |EV| 
-0.0065614568648480128820743573214713  |BT| (VP (NP (NN region))(PP (IN from)(NP (DT the)(JJ nagging)(NN fear)))(SBAR (IN that)(S (NP (JJ ethnic)(NNS differences))(VP (MD can)(ADVP (RB again))(VP (VB be)(VP (VBN exploited)(S (VP (TO to)(VP (VB start)(NP (NP (NNS wars))(CC and)(NP (NN shift)(NNS borders)))))))))))) |BT| (BOW (from *)(the *)(nagging *)(fear *)(that *)(ethnic *)(differences *)(can *)(again *)(be *)(exploited *)(to *)(start *)(wars *)) |BT| (BOH (from *)(fear *)(differences *)(can *)(again *)(be *)(exploited *)(start *)(wars *)) |BT| (BOH-NPs (fear *)(differences *)(wars *)(shift *)) |BT| (LP (NN *)(NP *)(VP *)(SBAR *)(S *)(VP *)(S *)(VP *)(NP *)(NNS *)) |BT| (LP-head (NN *)(NP *)(VP liberate)(SBAR *)(S *)(VP *)(S *)(VP *)(NP *)(NNS *)) |BT| (VP (NP (NN region))(PP (IN from)(NP (DT the)(JJ nagging)(NN fear)))(SBAR (IN that)(S (NP (JJ ethnic)(NNS differences))(VP (MD can)(ADVP (RB again))(VP (VB be)(VP (VBN exploited)(S (VP (TO to)(VP (VB start)(NP (NP (NNS wars))(CC and)(NP (NN shift)(NNS borders)))))))))))) |BT| (VP (ROOT (S (S (VP (VP (NP (E-LOC (NN region)))(PP (IN from)(NP (DT the)(JJ nagging)(NN fear)))(SBAR (IN that)(S (NP (JJ ethnic)(NNS differences))(VP (MD can)(ADVP (RB again))(VP (VB be)(VP (VBN exploited)(S (VP (TO to)(VP (VB start)(NP (NP (NNS wars))(CC and)(NP (NN shift)(E-LOC (NNS borders)))))))))))))))(. .)('' '')))(PP (IN from)(NP (DT the)(JJ nagging)(NN fear)))(ROOT (S (`` ``)(S (NP (PRP It))(VP (VBD ended)(NP (DT a)(E-ORG (NN dictatorship)))))(CC and)(S (NP (PRP it))(VP (MD can)(VP (VB liberate)(NP (DT an)(JJ entire)(E-LOC (NN region)))(PP (IN from)(NP (DT the)(JJ nagging)(NN fear)))(SBAR (IN that)(S (NP (JJ ethnic)(NNS differences))(VP (MD can)(ADVP (RB again))(VP (VB be)(VP (VBN exploited)(S (VP (TO to)(VP (VB start)(NP (NP (NNS wars))(CC and)(NP (NN shift)(E-LOC (NNS borders)))))))))))))))))) |ET| 11:3699 12:3700 13:3687 14:3688 16:63 17:7 18:254 19:3703 21:9 22:160 23:3691 24:469 25:122 26:122 27:447 28:3701 29:3692 30:3701 31:369 32:242 33:3695 34:473 37:3697 38:474 40:3692 41:3696 42:3704 43:447 44:21 45:3698 46:3701 47:3253 48:3253 49:3702  |EV| 
-0.071936484736181291466117215804843  |BT| (PP (`` ``)(NP (NNS gentlemen)(CC and)(NNS ladies))) |BT| (BOW ) |BT| (BOH (gentlemen *)) |BT| (BOH-NPs (gentlemen *)) |BT| (LP (`` *)(PP *)(NP *)(NNS *)) |BT| (LP-head (`` *)(PP like)(NP *)(NNS *)) |BT| (PP (`` ``)(NP (NNS gentlemen)(CC and)(NNS ladies))) |BT| (PP (ROOT (S (VP (ADVP (SBAR (S (VP (VP (SBAR (S (VP (S (VP (VP (PP (`` ``))))))))))))))(. .)('' '')))(ROOT (S (NP (NP (E-ORG (NNP ABC))(POS 's))(E-PER (NNP Sam)(NNP Donaldson)))(VP (VBD asked)(ADVP (RB plaintively)(SBAR (WHADVP (WRB when))(S (NP (PRP it))(VP (VBD was)(VP (VBN decreed)(SBAR (IN that)(S (NP (E-PER (NNS campaigners)))(VP (VBD had)(S (VP (TO to)(VP (VB act)(PP (IN like)(`` ``)(NP (NNS gentlemen)(CC and)(E-PER (NNS ladies))))))))))))))))))) |ET| 4:19 11:1442 12:33 13:1436 14:1437 16:6 17:7 18:148 19:381 21:1324 22:1450 23:1438 24:1443 25:118 26:118 27:242 28:242 29:1439 30:242 31:1440 32:1444 33:1441 34:1445 37:1439 38:1446 40:1440 41:1435 42:1444 43:1444 44:1430 45:362 46:1444 47:1444 48:22 49:22  |EV| 
-0.12499999999996855293282749244099  |BT| (NP (NNP Gore)(NN campaign)(NNS aides)) |BT| (BOW ) |BT| (BOH ) |BT| (BOH-NPs (campaign *)) |BT| (LP (NNP *)(NP *)(NNS *)) |BT| (LP-head (NNP *)(NP aides)(NNS *)) |BT| (NP (NNP Gore)(NN campaign)(NNS aides)) |BT| (NP (ROOT (S (NP (E-PER (NNP Gore))(NN campaign)(E-PER (NNS aides)))(VP (VBD insisted)(SBAR (S (NP (E-PER (PRP he)))(VP (VBD was)(ADJP (JJ aware)(PP (IN of)(NP (E-ORG (NN administration))(NNS efforts))))(S (VP (TO to)(VP (VB persuade)(S (NP (DT the)(E-GPE (NNPS Russians)))(VP (TO to)(VP (VB convince)(S (NP (E-PER (NNP Milosevic)))(VP (TO to)(VP (VB go))))))))))))))(. .)))(NN campaign)(ROOT (S (NP (E-PER (NNP Gore))(NN campaign)(E-PER (NNS aides)))))) |ET| 4:19 6:19 11:1858 12:1859 13:1369 14:33 16:6 17:7 18:148 21:9 22:113 23:1370 24:1860 25:118 26:118 27:1414 28:1414 29:14 30:1414 31:1036 32:1318 33:1371 34:1861 35:19 37:1862 38:1862 39:19 40:21 41:21 42:1414 43:21 44:21 45:21 46:1414 47:21 48:22 49:22  |EV| 
0.12499999999996855293282749244099  |BT| (NP (NP (NNS businesses))(VP (VBG operating)(ADVP (RB separately))(PP (IN within)(NP (NNP Europe))))) |BT| (BOW (operating *)) |BT| (BOH (separately *)(within *)) |BT| (BOH-NPs ) |BT| (LP (NNS *)(NP *)(VP *)(PP *)(NP *)(NNP *)) |BT| (LP-head (NNS *)(NP businesses)(VP *)(PP *)(NP *)(NNP *)) |BT| (NP (NP (NNS businesses))(VP (VBG operating)(ADVP (RB separately))(PP (IN within)(NP (NNP Europe))))) |BT| (NP (ROOT (S (VP (NP (PP (NP (NP (E-ORG (NNS businesses)))(VP (VBG operating)(ADVP (RB separately))(PP (IN within)(NP (E-GPE (NNP Europe)))))))))(. .)))(ROOT (S (`` ``)(NP (PRP We))(VP (VBP have)(NP (NP (DT a)(NN number))(PP (IN of)(NP (NP (JJ different)(E-ORG (NNS businesses)))(VP (VBG operating)(ADVP (RB separately))(PP (IN within)(NP (E-GPE (NNP Europe)))))))))))) |ET| 11:8692 12:5 13:8749 14:8750 16:47 17:7 18:130 21:9 22:324 23:8751 24:2990 25:117 26:117 27:8677 28:5556 29:7314 30:5556 31:187 32:834 33:8752 34:2992 37:8753 38:2993 40:7314 41:5246 42:21 43:834 44:21 45:187 46:21 47:5556 48:22 49:834  |EV| 
0.12499999999996855293282749244099  |BT| (NP (NP (NNS businesses))(VP (VBG operating)(ADVP (RB separately))(PP (IN within)(NP (NNP Europe))))) |BT| (BOW (operating *)) |BT| (BOH (separately *)(within *)) |BT| (BOH-NPs ) |BT| (LP (NNS *)(NP *)(VP *)(PP *)(NP *)(NNP *)) |BT| (LP-head (NNS *)(NP businesses)(VP *)(PP *)(NP *)(NNP *)) |BT| (NP (NP (NNS businesses))(VP (VBG operating)(ADVP (RB separately))(PP (IN within)(NP (NNP Europe))))) |BT| (NP (ROOT (S (VP (NP (PP (NP (NP (E-ORG (NNS businesses)))(VP (VBG operating)(ADVP (RB separately))(PP (IN within)(NP (E-GPE (NNP Europe)))))))))(. .)))(ROOT (S (`` ``)(NP (PRP We))(VP (VBP have)(NP (NP (DT a)(NN number))(PP (IN of)(NP (NP (JJ different)(E-ORG (NNS businesses)))(VP (VBG operating)(ADVP (RB separately))(PP (IN within)(NP (E-GPE (NNP Europe)))))))))))) |ET| 11:8692 12:5 13:8749 14:8750 16:47 17:7 18:130 21:9 22:324 23:8751 24:2990 25:117 26:117 27:8677 28:5556 29:7314 30:5556 31:187 32:834 33:8752 34:2992 37:8753 38:2993 40:7314 41:5246 42:21 43:834 44:21 45:187 46:21 47:5556 48:22 49:834  |EV| 
-0.12499999999996855293282749244099  |BT| (NP (NP (NNS voters))(VP (VBN recruited)(PP (IN by)(NP (NP (NNP NBC)))))) |BT| (BOW ) |BT| (BOH (recruited *)(by *)) |BT| (BOH-NPs ) |BT| (LP (NNS *)(NP *)(VP *)(PP *)(NP *)(NNP *)) |BT| (LP-head (NNS *)(NP voters)(VP *)(PP *)(NP *)(NNP *)) |BT| (NP (NP (NNS voters))(VP (VBN recruited)(PP (IN by)(NP (NP (NNP NBC)))))) |BT| (NP (ROOT (S (S (NP (PP (NP (NP (E-PER (NNS voters)))(VP (VBN recruited)(PP (IN by)(NP (NP (E-ORG (NNP NBC)))(PP (IN in)(NP (NP (E-GPE (NNP Tampa)))(, ,)(NP (E-GPE (NNP Fla))(. .))(, ,)))))))))(VP (VBD were)(VP (VBN impressed)(PP (IN with)(NP (DT both)(E-PER (NNS candidates))(NN _))))))(CC and)(, ,)(S (PP (IN with)(NP (NP (DT a)(NN non-show))(PP (IN of)(NP (NNS hands)))))(, ,)(NP (DT all))(VP (VBD indicated)(SBAR (S (NP (E-PER (PRP they)))(VP (VBD remained)(PP (IN on)(NP (DT the)(NN fence))))))))(. .)))(ROOT (S (S (NP (NP (DT A)(E-PER (NN group)))(PP (IN of)(NP (NP (JJ undecided)(E-PER (NNS voters)))(VP (VBN recruited)(PP (IN by)(NP (NP (E-ORG (NNP NBC))))))))))))) |ET| 5:19 11:1504 12:1505 13:1493 14:1494 16:25 17:7 18:301 21:9 22:324 23:1498 24:1482 25:118 26:118 27:1506 28:460 29:1499 30:460 31:187 32:1506 33:1501 34:1485 37:1503 38:1484 40:1499 41:1502 42:21 43:1506 44:21 45:187 46:21 47:460 48:22 49:1506  |EV| 
-0.11760198455660871019734514675292  |BT| (VP (PP (NP (NNP Pittsburgh)))(: -)(PP (VBN based)(NP (NP (NNP Carnegie)(NNP Hero)(NNP Fund)(NNP Commission))(, ,)(VP (VBN established)(PP (IN in)(NP (CD 1904)))(PP (IN by)(NP (NNP Andrew)(NNP Carnegie))))))) |BT| (BOW (- *)(based *)(Carnegie *)(Hero *)(Fund *)(Commission *)(, *)(established *)(in *)) |BT| (BOH (Commission *)(established *)(in *)(by *)) |BT| (BOH-NPs (Commission *)) |BT| (LP (NNP *)(NP *)(PP *)(VP *)(PP *)(NP *)(VP *)(PP *)(NP *)(NNP *)) |BT| (LP-head (NNP *)(NP *)(PP *)(VP honored)(PP *)(NP *)(VP *)(PP *)(NP *)(NNP *)) |BT| (VP (PP (NP (NNP Pittsburgh)))(: -)(PP (VBN based)(NP (NP (NNP Carnegie)(NNP Hero)(NNP Fund)(NNP Commission))(, ,)(VP (VBN established)(PP (IN in)(NP (CD 1904)))(PP (IN by)(NP (NNP Andrew)(NNP Carnegie))))))) |BT| (VP (ROOT (S (VP (VP (PP (NP (E-GPE (NNP Pittsburgh))))(: -)(PP (VBN based)(NP (NP (E-ORG (NNP Carnegie)(NNP Hero)(NNP Fund)(NNP Commission)))(, ,)(VP (VBN established)(PP (IN in)(NP (CD 1904)))(PP (IN by)(NP (E-PER (NNP Andrew)(NNP Carnegie))))(S (VP (TO to)(VP (VB recognize)(NP (NP (NNS acts))(PP (IN of)(NP (NN heroism))))))))))))(. .)))(: -)(ROOT (S (NP (NP (E-PER (NNP Cecil)(NNP Brinkley)))(, ,)(NP (DT the)(NN assistant)(E-PER (NN principal)))(, ,))(VP (VBD was)(VP (VBN honored)(NP-TMP (JJ last)(NN week))(PP (IN by)(NP (DT the)(E-GPE (NNP Pittsburgh))))(: -)(PP (VBN based)(NP (NP (E-ORG (NNP Carnegie)(NNP Hero)(NNP Fund)(NNP Commission)))(, ,)(VP (VBN established)(PP (IN in)(NP (CD 1904)))(PP (IN by)(NP (E-PER (NNP Andrew)(NNP Carnegie)))))))))))) |ET| 11:1197 12:1198 13:1186 14:1187 16:112 17:6 18:35 21:9 22:10 23:1188 24:1199 25:1 26:1 27:405 28:460 29:105 30:460 31:460 32:1200 33:1189 34:1201 37:1190 38:1202 40:460 41:432 42:1196 43:1196 44:1123 45:432 46:1196 47:460 48:22 49:106  |EV| 
-0.12499999999996855293282749244099  |BT| (NP (NP (NNS people))(PP (IN of)(NP (NNP Serbia)))) |BT| (BOW ) |BT| (BOH (of *)) |BT| (BOH-NPs ) |BT| (LP (NNS *)(NP *)(PP *)(NP *)(NNP *)) |BT| (LP-head (NNS *)(NP people)(PP *)(NP *)(NNP *)) |BT| (NP (NP (NNS people))(PP (IN of)(NP (NNP Serbia)))) |BT| (NP (ROOT (S (S (S (VP (NP (PP (NP (NP (E-GPE (NNS people)))(PP (IN of)(NP (E-GPE (NNP Serbia))))))))))(, ,)(NP (E-PER (NNP President))(E-PER (NNP Clinton)))(VP (VBD lifted)(NP (NP (JJ key)(NN trade))(CC and)(NP (JJ economic)(NNS sanctions)))(S (VP (TO to)(VP (VB demonstrate)(NP (NN support)(PRT (IN for))(NP (NP (E-GPE (NNP Belgrade))(POS 's))(ADJP (RB newly)(VBN installed))(E-ORG (NN government))))))))(. .)))(ROOT (S (NP (NP (E-GPE (NNP WASHINGTON)))(PRN (-LRB- -LRB-)(NP (NNP AP))(-RRB- -RRB-)))(S (NP (CD _))(S (VP (VBG Celebrating)(NP (NP (DT the)(JJ political)(NN rebirth))(PP (IN of)(NP (NP (DT the)(E-GPE (NNS people)))(PP (IN of)(NP (E-GPE (NNP Serbia))))))))))))) |ET| 10:1 11:2873 12:5 13:3666 14:3344 16:6 17:7 18:8 21:9 22:324 23:934 24:2753 25:1 26:1 27:187 28:187 29:105 30:187 31:187 32:937 33:936 34:2755 37:937 38:2756 40:187 41:3667 42:21 43:187 44:43 45:3667 46:21 47:187 48:22 49:22  |EV| 
0.024384178270732650983809719491546  |BT| (NP (JJ German)(NN market)(NN leader)) |BT| (BOW ) |BT| (BOH ) |BT| (BOH-NPs (market *)) |BT| (LP (JJ *)(NP *)(NN *)) |BT| (LP-head (JJ *)(NP leader)(NN *)) |BT| (NP (JJ German)(NN market)(NN leader)) |BT| (NP (ROOT (S (VP (SBAR (S (VP (NP (NP (E-GPE (JJ German))(NN market)(E-ORG (NN leader)))(PP (IN in)(NP (NNP CD)(NNS burners))))))))(. .)))(NN market)(ROOT (S (NP (NP (E-ORG (NNP GEMA)))(, ,)(NP (NP (E-GPE (NNP German))(POS 's))(JJ main)(NN licensing)(E-ORG (NN group)))(, ,))(VP (VBN targeted)(NP (E-ORG (NNP Hewlett-Packard)))(PP (IN as)(NP (NP (DT a)(NN test)(E-ORG (NN case)))(PP (IN in)(NP (NP (NNP May))(, ,)(NP (NN reasoning))))))(SBAR (IN that)(S (NP (DT the)(E-ORG (NN company)))(VP (VBZ leads)(NP (NP (DT the)(E-GPE (JJ German))(NN market)(E-ORG (NN leader))))))))))) |ET| 11:10273 12:10274 13:5514 14:5 16:6 17:7 18:26 21:165 22:217 23:5517 24:219 25:1 26:1 27:8168 28:8168 29:105 30:8168 31:5560 32:5524 33:5519 34:223 35:19 37:224 38:224 39:19 40:8168 41:8168 42:8168 43:21 44:8585 45:5524 46:8168 47:21 48:22 49:22  |EV| 
0.12482553300947352159511183344875  |BT| (NP (JJ German)(NN market)(NN leader)) |BT| (BOW ) |BT| (BOH ) |BT| (BOH-NPs (market *)) |BT| (LP (JJ *)(NP *)(NN *)) |BT| (LP-head (JJ *)(NP leader)(NN *)) |BT| (NP (JJ German)(NN market)(NN leader)) |BT| (NP (ROOT (S (VP (SBAR (S (VP (NP (NP (E-GPE (JJ German))(NN market)(E-ORG (NN leader)))(PP (IN in)(NP (NNP CD)(NNS burners))))))))(. .)))(NN market)(ROOT (S (NP (NP (E-ORG (NNP GEMA)))(, ,)(NP (NP (E-GPE (NNP German))(POS 's))(JJ main)(NN licensing)(E-ORG (NN group)))(, ,))(VP (VBN targeted)(NP (E-ORG (NNP Hewlett-Packard)))(PP (IN as)(NP (NP (DT a)(NN test)(E-ORG (NN case)))(PP (IN in)(NP (NP (NNP May))(, ,)(NP (NN reasoning))))))(SBAR (IN that)(S (NP (DT the)(E-ORG (NN company)))(VP (VBZ leads)(NP (NP (DT the)(E-GPE (JJ German))(NN market)(E-ORG (NN leader))))))))))) |ET| 11:10273 12:10274 13:5514 14:5 16:6 17:7 18:26 21:165 22:217 23:5517 24:219 25:1 26:1 27:8168 28:8168 29:105 30:8168 31:5560 32:5524 33:5519 34:223 35:19 37:224 38:224 39:19 40:8168 41:8168 42:8168 43:21 44:8585 45:5524 46:8168 47:21 48:22 49:22  |EV| 
-0.12499999999996855293282749244099  |BT| (NP (JJ Syrian)(NN leader)) |BT| (BOW ) |BT| (BOH ) |BT| (BOH-NPs ) |BT| (LP (JJ *)(NP *)(NN *)) |BT| (LP-head (JJ *)(NP leader)(NN *)) |BT| (NP (JJ Syrian)(NN leader)) |BT| (NP (ROOT (S (NP (NP (E-GPE (JJ Syrian))(E-PER (NN leader))(POS 's))(NN visit))(VP (VBD came)(PP (IN on)(NP (NP (DT a)(JJ fourth)(NN day))(PP (IN of)(NP (NP (NNS clashes))(SBAR (WHNP (WDT that))(S (VP (VBP have)(VP (VBN raged)(PP (IN in)(NP (NP (DT the)(E-LOC (NNP West)(NNP Bank)))(, ,)(NP (E-LOC (NNP Gaza)(NNP Strip)))(CC and)(NP (E-GPE (NNP Jerusalem)))))))))))))(, ,)(S (VP (VBG leaving)(S (NP (QP (XS (JJR more)(IN than))(CD two)(NN dozen))(E-PER (NNPS Palestinians)))(ADJP (JJ dead))))))(. .)))(ROOT (S (NP (NP (DT The)(E-GPE (JJ Syrian))(E-PER (NN leader))))))) |ET| 11:214 12:215 13:216 14:5 16:7 17:7 18:35 21:165 22:217 23:218 24:219 25:1 26:1 27:31 28:31 29:220 30:221 31:14 32:220 33:222 34:223 35:19 36:19 37:224 38:224 39:19 40:221 41:21 42:21 43:21 44:21 45:21 46:21 47:21 48:22 49:22  |EV| 
-0.12499999999996855293282749244099  |BT| (NP (JJ civilian)(NN area)) |BT| (BOW ) |BT| (BOH ) |BT| (BOH-NPs ) |BT| (LP (JJ *)(NP *)(NN *)) |BT| (LP-head (JJ *)(NP area)(NN *)) |BT| (NP (JJ civilian)(NN area)) |BT| (NP (ROOT (S (VP (VP (VP (NP (PP (NP (E-PER (JJ civilian))(E-LOC (NN area))))))))(. .)('' '')))(ROOT (S (`` ``)(NP (EX There))(VP (MD should)(ADVP (RB never))(VP (VB have)(VP (VBN been)(NP (NP (DT a)(JJ military)(E-FAC (NN base)))(PP (IN in)(NP (DT a)(E-PER (JJ civilian))(E-LOC (NN area))))))))))) |ET| 11:2629 12:2630 13:2620 14:33 16:7 17:7 18:152 19:159 21:165 22:217 23:2624 24:1063 25:118 26:118 27:31 28:31 29:430 30:2631 31:106 32:430 33:2626 34:1065 35:19 36:19 37:1066 38:1066 39:19 40:2631 41:2627 42:21 43:21 44:21 45:106 46:21 47:21 48:22 49:22  |EV| 
-0.12499999999996855293282749244099  |BT| (NP (JJ Syrian)(NN president)) |BT| (BOW ) |BT| (BOH ) |BT| (BOH-NPs ) |BT| (LP (JJ *)(NP *)(NN *)) |BT| (LP-head (JJ *)(NP president)(NN *)) |BT| (NP (JJ Syrian)(NN president)) |BT| (NP (ROOT (S (NP (E-GPE (JJ Syrian))(E-PER (NN president)))(ADVP (RB rarely))(VP (VBD traveled)(ADVP (E-LOC (RB abroad))))(. .)))(ROOT (S (NP (DT The)(JJ late)(E-GPE (JJ Syrian))(E-PER (NN president)))))) |ET| 11:342 12:343 13:216 14:5 16:7 17:7 18:35 21:165 22:217 23:218 24:57 25:1 26:1 27:31 28:31 29:344 30:221 31:220 32:344 33:222 34:59 35:19 36:19 37:60 38:60 39:19 40:221 41:21 42:21 43:21 44:21 45:344 46:21 47:21 48:22 49:22  |EV| 
0.12499999999996855293282749244099  |BT| (NP (NP (NNS residents))(PP (IN of)(NP (DT the)(NN district)))) |BT| (BOW ) |BT| (BOH (of *)) |BT| (BOH-NPs ) |BT| (LP (NNS *)(NP *)(PP *)(NP *)(NN *)) |BT| (LP-head (NNS *)(NP residents)(PP *)(NP *)(NN *)) |BT| (NP (NP (NNS residents))(PP (IN of)(NP (DT the)(NN district)))) |BT| (NP (ROOT (S (VP (VP (PP (NP (NP (E-PER (NNS residents)))(PP (IN of)(NP (DT the)(E-LOC (NN district))))))(SBAR (IN because)(S (NP (NP (JJ many))(PP (IN of)(NP (E-PER (PRP them)))))(VP (VBP spend)(NP (NP (JJS most))(PP (IN of)(NP (NP (DT the)(NN year))(VP (VBG traveling))))))))))(. .)))(ROOT (S (NP (E-PER (PRP$ Their))(NN eligibility)(S (VP (TO to)(VP (VB vote)))))(VP (VBD was)(VP (VBN challenged)(PP (IN by)(NP (NP (JJ other)(E-PER (NNS residents)))(PP (IN of)(NP (DT the)(E-LOC (NN district))))))))))) |ET| 2:19 11:7106 12:2763 13:7171 14:7172 16:25 17:7 18:152 19:159 21:9 22:339 23:7158 24:7007 25:118 26:118 27:187 28:105 29:545 30:105 31:460 32:187 33:7162 34:7010 37:7164 38:6870 40:545 41:7175 42:21 43:187 44:21 45:460 46:21 47:187 48:22 49:22  |EV| 
0.12499999999996855293282749244099  |BT| (NP (NP (NNS residents))(PP (IN of)(NP (DT the)(NN district)))) |BT| (BOW ) |BT| (BOH (of *)) |BT| (BOH-NPs ) |BT| (LP (NNS *)(NP *)(PP *)(NP *)(NN *)) |BT| (LP-head (NNS *)(NP residents)(PP *)(NP *)(NN *)) |BT| (NP (NP (NNS residents))(PP (IN of)(NP (DT the)(NN district)))) |BT| (NP (ROOT (S (VP (VP (PP (NP (NP (E-PER (NNS residents)))(PP (IN of)(NP (DT the)(E-LOC (NN district))))))(SBAR (IN because)(S (NP (NP (JJ many))(PP (IN of)(NP (E-PER (PRP them)))))(VP (VBP spend)(NP (NP (JJS most))(PP (IN of)(NP (NP (DT the)(NN year))(VP (VBG traveling))))))))))(. .)))(ROOT (S (NP (E-PER (PRP$ Their))(NN eligibility)(S (VP (TO to)(VP (VB vote)))))(VP (VBD was)(VP (VBN challenged)(PP (IN by)(NP (NP (JJ other)(E-PER (NNS residents)))(PP (IN of)(NP (DT the)(E-LOC (NN district))))))))))) |ET| 2:19 11:7106 12:2763 13:7171 14:7172 16:25 17:7 18:152 19:159 21:9 22:339 23:7158 24:7007 25:118 26:118 27:187 28:105 29:545 30:105 31:460 32:187 33:7162 34:7010 37:7164 38:6870 40:545 41:7175 42:21 43:187 44:21 45:460 46:21 47:187 48:22 49:22  |EV| 
-0.04911025571154573748922089748703  |BT| (S (PP (NP (PP (NP (PP (NP (JJ Palestinian)(NNS gunmen)))))))(, ,)(NP (DT the)(NN celebration))(VP (VBD degenerated)(PP (IN into)(NP (NP (DT a)(NN trashing))(PP (IN of)(NP (DT the)(NN compound))))))) |BT| (BOW (gunmen *)(, *)(the *)(celebration *)(degenerated *)(into *)(a *)(trashing *)) |BT| (BOH (celebration *)(degenerated *)(into *)(trashing *)(of *)) |BT| (BOH-NPs (celebration *)(trashing *)) |BT| (LP (JJ *)(NP *)(PP *)(NP *)(PP *)(NP *)(PP *)(S *)(VP *)(PP *)(NP *)(PP *)(NP *)(NN *)) |BT| (LP-head (JJ *)(NP *)(PP *)(NP *)(PP *)(NP *)(PP *)(S degenerated)(VP *)(PP *)(NP *)(PP *)(NP *)(NN *)) |BT| (S (PP (NP (PP (NP (PP (NP (JJ Palestinian)(NNS gunmen)))))))(, ,)(NP (DT the)(NN celebration))(VP (VBD degenerated)(PP (IN into)(NP (NP (DT a)(NN trashing))(PP (IN of)(NP (DT the)(NN compound))))))) |BT| (S (ROOT (S (PP (NP (PP (NP (PP (NP (E-GPE (JJ Palestinian))(E-PER (NNS gunmen))))))))(, ,)(NP (DT the)(NN celebration))(VP (VBD degenerated)(PP (IN into)(NP (NP (DT a)(NN trashing))(PP (IN of)(NP (DT the)(E-FAC (NN compound))))))(, ,)(PP (IN with)(S (NP (E-PER (NNS crowds)))(VP (VP (VBG vandalizing)(NP (DT the)(E-FAC (NN tomb))))(, ,)(VP (VBG setting)(NP (NNS fires)))(CC and)(VP (VBG hammering)(ADVP (RB away))(PP (IN at)(NP (DT the)(NN stone)(E-FAC (NNS buildings)))))))))(. .)))(, ,)(NP (DT the)(NN celebration))(ROOT (S (PP (IN With)(NP (NP (DT the)(NN arrival))(PP (IN of)(NP (NP (NNS dozens))(PP (IN of)(NP (E-GPE (JJ Palestinian))(E-PER (NNS gunmen))))))))(, ,)(NP (DT the)(NN celebration))(VP (VBD degenerated)(PP (IN into)(NP (NP (DT a)(NN trashing))(PP (IN of)(NP (DT the)(E-FAC (NN compound)))))))))) |ET| 11:2317 12:2219 13:101 14:5 16:103 17:7 18:938 21:165 22:217 23:104 24:2252 25:1 26:1 27:2315 28:105 29:187 30:105 31:911 32:187 33:107 34:2255 37:2315 38:2254 40:187 41:911 42:2006 43:2006 44:2316 45:911 46:2318 47:187 48:2006 49:2318  |EV| 
-0.012123470932851928422158138687337  |BT| (S (PP (NP (PP (NP (PP (NP (JJ Palestinian)(NNS gunmen)))))))(, ,)(NP (DT the)(NN celebration))(VP (VBD degenerated)(PP (IN into)(NP (NP (DT a)(NN trashing))(PP (IN of)(NP (DT the)(NN compound)))))(, ,)(PP (IN with)(S (NP (NNS crowds)))))) |BT| (BOW (gunmen *)(, *)(the *)(celebration *)(degenerated *)(into *)(a *)(trashing *)(of *)(the *)(compound *)) |BT| (BOH (celebration *)(degenerated *)(into *)(trashing *)(of *)(compound *)(with *)) |BT| (BOH-NPs (celebration *)(trashing *)(compound *)) |BT| (LP (JJ *)(NP *)(PP *)(NP *)(PP *)(NP *)(PP *)(S *)(VP *)(PP *)(S *)(NP *)(NNS *)) |BT| (LP-head (JJ *)(NP *)(PP *)(NP *)(PP *)(NP *)(PP *)(S degenerated)(VP *)(PP *)(S *)(NP *)(NNS *)) |BT| (S (PP (NP (PP (NP (PP (NP (JJ Palestinian)(NNS gunmen)))))))(, ,)(NP (DT the)(NN celebration))(VP (VBD degenerated)(PP (IN into)(NP (NP (DT a)(NN trashing))(PP (IN of)(NP (DT the)(NN compound)))))(, ,)(PP (IN with)(S (NP (NNS crowds)))))) |BT| (S (ROOT (S (PP (NP (PP (NP (PP (NP (E-GPE (JJ Palestinian))(E-PER (NNS gunmen))))))))(, ,)(NP (DT the)(NN celebration))(VP (VBD degenerated)(PP (IN into)(NP (NP (DT a)(NN trashing))(PP (IN of)(NP (DT the)(E-FAC (NN compound))))))(, ,)(PP (IN with)(S (NP (E-PER (NNS crowds)))(VP (VP (VBG vandalizing)(NP (DT the)(E-FAC (NN tomb))))(, ,)(VP (VBG setting)(NP (NNS fires)))(CC and)(VP (VBG hammering)(ADVP (RB away))(PP (IN at)(NP (DT the)(NN stone)(E-FAC (NNS buildings)))))))))(. .)))(, ,)(NP (DT the)(NN celebration))(ROOT (S (PP (IN With)(NP (NP (DT the)(NN arrival))(PP (IN of)(NP (NP (NNS dozens))(PP (IN of)(NP (E-GPE (JJ Palestinian))(E-PER (NNS gunmen))))))))(, ,)(NP (DT the)(NN celebration))(VP (VBD degenerated)(PP (IN into)(NP (NP (DT a)(NN trashing))(PP (IN of)(NP (DT the)(E-FAC (NN compound))))))(, ,)(PP (IN with)(S (NP (E-PER (NNS crowds))))))))) |ET| 11:2319 12:33 13:101 14:5 16:150 17:6 18:35 21:165 22:166 23:104 24:2320 25:1 26:1 27:2315 28:72 29:187 30:72 31:911 32:13 33:107 34:2321 37:2315 38:2322 40:187 41:911 42:2006 43:2006 44:2316 45:911 46:2254 47:72 48:2318 49:2254  |EV| 
0.0052287437208691882328803757218338  |BT| (NP (NP (NN guard))(PP (IN in)(NP (NNP Hawaii)))) |BT| (BOW ) |BT| (BOH (in *)) |BT| (BOH-NPs ) |BT| (LP (NN *)(NP *)(PP *)(NP *)(NNP *)) |BT| (LP-head (NN *)(NP guard)(PP *)(NP *)(NNP *)) |BT| (NP (NP (NN guard))(PP (IN in)(NP (NNP Hawaii)))) |BT| (NP (ROOT (S (VP (PP (NP (S (VP (VP (PP (NP (SBAR (S (VP (VP (PP (NP (NP (E-PER (NN guard)))(PP (IN in)(NP (E-GPE (NNP Hawaii))))))(, ,)(ADVP (RB enough)(S (VP (TO to)(VP (VB make)(S (NP (E-PER (PRP him)))(VP (VB commit)(NP (E-PER (PRP$ his))(JJ notorious)(NN crime))))))))))))))))))))(. .)))(ROOT (S (NP (NP (NP (E-PER (NNP Chapman))(POS 's))(NN pursuit))(PP (IN of)(NP (NN publicity))))(VP (VBD occupied)(NP (NP (RB much))(PP (IN of)(NP (DT the)(NN discussion))))(, ,)(PP (IN despite)(NP (E-PER (PRP$ his))(VBN professed)(NN wish)(S (VP (TO to)(VP (VB return)(PP (TO to)(NP (NP (DT the)(NN anonymity))(SBAR (WHNP (WDT that))(S (VP (VBD had)(VP (VBN plagued)(NP (E-PER (PRP him)))(, ,)(PP (IN as)(NP (NP (DT a)(NN security)(E-PER (NN guard)))(PP (IN in)(NP (E-GPE (NNP Hawaii))))))))))))))))))))) |ET| 11:16391 12:5 13:16472 14:16473 16:6 17:7 18:143 21:9 22:157 23:16474 24:16392 25:118 26:118 27:106 28:106 29:2063 30:106 31:430 32:2304 33:16475 34:16394 37:2304 38:16395 40:2063 41:2063 42:21 43:106 44:8358 45:49 46:21 47:106 48:22 49:22  |EV| 
0.12499999999996855293282749244099  |BT| (NP (NP (NNP Egypt)(POS 's))(ROOT (S (NP (NP (NNP Queen)(NNP Rania))(PP (IN of)(NP (NP (NNP Jordan))(, ,)(NP (NP (NP (NNP Egypt)(POS 's))(NNP Suzanne)(NNP Mubarak))))))))) |BT| (BOW ) |BT| (BOH ) |BT| (BOH-NPs ) |BT| (LP (NNP *)(NP *)(NNP *)) |BT| (LP-head (NNP *)(NP Mubarak)(NNP *)) |BT| (NP (NP (NNP Egypt)(POS 's))(ROOT (S (NP (NP (NNP Queen)(NNP Rania))(PP (IN of)(NP (NP (NNP Jordan))(, ,)(NP (NP (NP (NNP Egypt)(POS 's))(NNP Suzanne)(NNP Mubarak))))))))) |BT| (NP (ROOT (S (NP (PP (NP (NP (NP (NP (E-GPE (NNP Egypt))(POS 's))(E-PER (NNP Suzanne)(NNP Mubarak)))(CC and)(NP (E-PER (NNS others)))))))(VP (VBD were)(VP (VBG using)(NP (E-PER (PRP$ their))(NN charisma)(CC and)(NN influence))(PP (TO to)(NP (NP (NN campaign))(PP (IN on)(NP (NP (NN behalf))(PP (IN of)(NP (NP (E-PER (NNS women)))(PP (IN in)(NP (NP (NP (DT this)(JJ three-day)(NN meeting))(PP (IN of)(NP (E-PER (NNS women))(E-PER (NNS leaders)))))(CC and)(NP (NP (E-PER (NNS campaigners)))(PP (IN for)(NP (NP (NN equality))(PP (IN of)(NP (DT the)(E-PER (NNS sexes)))))))))))))))))(. .)))(ROOT (S (NP (NP (E-PER (NNP Queen))(E-PER (NNP Rania)))(PP (IN of)(NP (NP (E-GPE (NNP Jordan)))(, ,)(NP (NP (NP (E-GPE (NNP Egypt))(POS 's))(E-PER (NNP Suzanne)(NNP Mubarak)))))))))) |ET| 9:118 11:9713 12:9714 13:9712 14:45 16:6 17:7 18:35 21:9 22:10 23:12 24:9715 25:1 26:1 27:58 28:58 29:13 30:58 31:510 32:20 33:18 34:9716 35:19 37:20 38:75 40:510 41:510 42:21 43:21 44:9709 45:187 46:21 47:21 48:22 49:22  |EV| 
0.12499999999996855293282749244099  |BT| (NP (NP (NNP Egypt)(POS 's))(ROOT (S (NP (NP (NNP Queen)(NNP Rania))(PP (IN of)(NP (NP (NNP Jordan))(, ,)(NP (NP (NP (NNP Egypt)(POS 's))(NNP Suzanne)(NNP Mubarak))))))))) |BT| (BOW ) |BT| (BOH ) |BT| (BOH-NPs ) |BT| (LP (NNP *)(NP *)(NNP *)) |BT| (LP-head (NNP *)(NP Mubarak)(NNP *)) |BT| (NP (NP (NNP Egypt)(POS 's))(ROOT (S (NP (NP (NNP Queen)(NNP Rania))(PP (IN of)(NP (NP (NNP Jordan))(, ,)(NP (NP (NP (NNP Egypt)(POS 's))(NNP Suzanne)(NNP Mubarak))))))))) |BT| (NP (ROOT (S (NP (PP (NP (NP (NP (NP (E-GPE (NNP Egypt))(POS 's))(E-PER (NNP Suzanne)(NNP Mubarak)))(CC and)(NP (E-PER (NNS others)))))))(VP (VBD were)(VP (VBG using)(NP (E-PER (PRP$ their))(NN charisma)(CC and)(NN influence))(PP (TO to)(NP (NP (NN campaign))(PP (IN on)(NP (NP (NN behalf))(PP (IN of)(NP (NP (E-PER (NNS women)))(PP (IN in)(NP (NP (NP (DT this)(JJ three-day)(NN meeting))(PP (IN of)(NP (E-PER (NNS women))(E-PER (NNS leaders)))))(CC and)(NP (NP (E-PER (NNS campaigners)))(PP (IN for)(NP (NP (NN equality))(PP (IN of)(NP (DT the)(E-PER (NNS sexes)))))))))))))))))(. .)))(ROOT (S (NP (NP (E-PER (NNP Queen))(E-PER (NNP Rania)))(PP (IN of)(NP (NP (E-GPE (NNP Jordan)))(, ,)(NP (NP (NP (E-GPE (NNP Egypt))(POS 's))(E-PER (NNP Suzanne)(NNP Mubarak)))))))))) |ET| 9:118 11:9713 12:9714 13:9712 14:45 16:6 17:7 18:35 21:9 22:10 23:12 24:9715 25:1 26:1 27:58 28:58 29:13 30:58 31:510 32:20 33:18 34:9716 35:19 37:20 38:75 40:510 41:510 42:21 43:21 44:9709 45:187 46:21 47:21 48:22 49:22  |EV| 
-0.12499999999996855293282749244099  |BT| (NP (NP (NN family))(PP (IN of)(NP (JJ democratic)(NNS nations)))) |BT| (BOW ) |BT| (BOH (of *)) |BT| (BOH-NPs ) |BT| (LP (NN *)(NP *)(PP *)(NP *)(NNS *)) |BT| (LP-head (NN *)(NP family)(PP *)(NP *)(NNS *)) |BT| (NP (NP (NN family))(PP (IN of)(NP (JJ democratic)(NNS nations)))) |BT| (NP (ROOT (S (VP (VP (NP (NP (E-GPE (NN family)))(PP (IN of)(NP (JJ democratic)(E-GPE (NNS nations)))))))(. .)('' '')))(ROOT (S (`` ``)(NP (NNP Yugoslavia)(CC and)(E-GPE (NNP Serbia)))(VP (VBP have)(VP (VBN joined)(NP (NP (DT the)(E-GPE (NN family)))(PP (IN of)(NP (JJ democratic)(E-GPE (NNS nations)))))))))) |ET| 11:3346 12:3347 13:3343 14:3344 16:25 17:7 18:8 19:2105 21:9 22:160 23:745 24:1998 25:1 26:1 27:187 28:3348 29:105 30:3348 31:3345 32:187 33:746 34:1999 37:747 38:2000 40:3345 41:2756 42:21 43:187 44:1668 45:581 46:21 47:187 48:22 49:22  |EV| 
-0.087925289494804145795647798422578  |BT| (NP (NP (NN group))(PP (IN of)(NP (NNS economists)))) |BT| (BOW ) |BT| (BOH (of *)) |BT| (BOH-NPs ) |BT| (LP (NN *)(NP *)(PP *)(NP *)(NNS *)) |BT| (LP-head (NN *)(NP group)(PP *)(NP *)(NNS *)) |BT| (NP (NP (NN group))(PP (IN of)(NP (NNS economists)))) |BT| (NP (ROOT (S (NP (NP (PP (NP (NP (E-PER (NN group)))(PP (IN of)(NP (E-PER (NNS economists)))))))(, ,))(VP (VBD demanded)(NP-TMP (NNP Sunday))(SBAR (IN that)(S (NP (E-PER (NNP Milosevic)))(VP (VB be)(VP (VBN punished)(PP (IN for)(NP (NN vote-rigging))))))))(. .)))(ROOT (S (NP (NP (NP (NP (E-GPE (NNP Norway))(POS 's))(NNP Foreign)(E-PER (NNP Minister))(E-PER (NNP Thorbjoern)(NNP Jagland)))(CC and)(NP (E-PER (NNP Mladjan)(NNP Dinkic))))(, ,)(NP (NP (DT the)(E-PER (NN head)))(PP (IN of)(NP (NP (DT an)(JJ influential)(E-PER (NN group)))(PP (IN of)(NP (E-PER (NNS economists))))))))))) |ET| 4:19 6:19 11:3190 12:33 13:3187 14:3188 16:6 17:7 18:148 19:338 21:9 22:160 23:1497 24:3191 25:118 26:118 27:187 28:187 29:3189 30:187 31:369 32:1502 33:1500 34:3192 37:1502 38:3193 40:3189 41:2779 42:21 43:187 44:3184 45:187 46:21 47:187 48:22 49:22  |EV| 
-0.12499999999996855293282749244099  |BT| (NP (NP (NN community))(PP (IN of)(NP (NNS nations)))) |BT| (BOW ) |BT| (BOH (of *)) |BT| (BOH-NPs ) |BT| (LP (NN *)(NP *)(PP *)(NP *)(NNS *)) |BT| (LP-head (NN *)(NP community)(PP *)(NP *)(NNS *)) |BT| (NP (NP (NN community))(PP (IN of)(NP (NNS nations)))) |BT| (NP (ROOT (S (VP (S (VP (SBAR (S (VP (ADVP (PP (NP (NP (E-GPE (NN community)))(PP (IN of)(NP (E-GPE (NNS nations)))))))))))))(. .)('' '')))(ROOT (S (NP (NP (E-PER (NNP Gore)))(PP (IN on)(NP (NNP Friday))))(VP (VBD welcomed)(NP (NP (E-GPE (NNP Yugoslavia))(POS 's))(NN change))(, ,)(S (VP (VBG saying)(SBAR (S (NP (PRP it))(VP (VBZ brings)(NP (DT the)(E-GPE (NN country)))(`` ``)(ADVP (RB back)(PP (IN into)(NP (NP (DT the)(E-GPE (NN community)))(PP (IN of)(NP (E-GPE (NNS nations)))))))))))))))) |ET| 11:1997 12:5 13:1991 14:1992 16:6 17:7 18:8 19:310 21:9 22:160 23:1993 24:1998 25:1 26:1 27:187 28:187 29:105 30:187 31:757 32:1995 33:1994 34:1999 37:1995 38:2000 40:757 41:1989 42:21 43:187 44:1990 45:1996 46:21 47:187 48:22 49:22  |EV| 
0.12499999999996855293282749244099  |BT| (S (NP (VP (PP (NP (PP (NP (NP (PP (NP (NNS people))))))))))(VP (VBN opposed)(PP (TO to)(NP (DT the)(NNS sanctions)))(PP (IN from)(NP (NP (NNP Russia)))))) |BT| (BOW (opposed *)(to *)(the *)) |BT| (BOH (opposed *)(sanctions *)(from *)) |BT| (BOH-NPs (sanctions *)) |BT| (LP (NNS *)(NP *)(PP *)(NP *)(PP *)(NP *)(PP *)(VP *)(NP *)(S *)(VP *)(PP *)(NP *)(NNP *)) |BT| (LP-head (NNS *)(NP *)(PP *)(NP *)(PP *)(NP *)(PP *)(VP *)(NP *)(S opposed)(VP *)(PP *)(NP *)(NNP *)) |BT| (S (NP (VP (PP (NP (PP (NP (NP (PP (NP (NNS people))))))))))(VP (VBN opposed)(PP (TO to)(NP (DT the)(NNS sanctions)))(PP (IN from)(NP (NP (NNP Russia)))))) |BT| (S (ROOT (S (S (NP (VP (PP (NP (PP (NP (NP (PP (NP (E-PER (NNS people)))))))))))(VP (VBN opposed)(PP (TO to)(NP (DT the)(NNS sanctions)))(PP (IN from)(NP (NP (E-GPE (NNP Russia)))(, ,)(NP (E-GPE (NNP Egypt)))(, ,)(NP (E-GPE (NNP Turkey)))(CC and)(PRN (, ,)(PP (IN for)(NP (DT the)(JJ first)(NN time)))(, ,))(NP (DT the)(E-GPE (NNP Ukraine)))))))(. .)))(ROOT (S (S (NP (CD Three)(E-VEH (NNS planes)))(VP (VBD arrived)))(CC and)(S (NP (NP (E-VEH (CD two)))(VP (VBN departed)(PP (IN by)(NP (NP (DT the)(NN end))(PP (IN of)(NP (NP (DT the)(NN day))(, ,)(NP (NP (VBG carrying)(NNS delegations))(PP (IN of)(NP (E-PER (NNS people)))))))))))(VP (VBN opposed)(PP (TO to)(NP (DT the)(NNS sanctions)))(PP (IN from)(NP (NP (E-GPE (NNP Russia)))))))))) |ET| 10:118 11:7584 12:7585 13:4511 14:33 16:64 17:7 18:143 21:9 22:324 23:934 24:502 25:118 26:118 27:7595 28:447 29:187 30:447 31:7583 32:532 33:936 34:504 37:937 38:508 40:187 41:7583 42:532 43:7595 44:2005 45:7583 46:532 47:447 48:22 49:532  |EV| 
0.10830297448898444645504213212917  |BT| (S (NP (VP (PP (NP (PP (NP (NP (PP (NP (NNS people))))))))))(VP (VBN opposed)(PP (TO to)(NP (DT the)(NNS sanctions)))(PP (IN from)(NP (NP (NNP Russia))(, ,)(NP (NNP Egypt)))))) |BT| (BOW (opposed *)(to *)(the *)(sanctions *)(from *)) |BT| (BOH (opposed *)(sanctions *)(from *)(Russia *)) |BT| (BOH-NPs (sanctions *)(Russia *)) |BT| (LP (NNS *)(NP *)(PP *)(NP *)(PP *)(NP *)(PP *)(VP *)(NP *)(S *)(VP *)(PP *)(NP *)(NNP *)) |BT| (LP-head (NNS *)(NP *)(PP *)(NP *)(PP *)(NP *)(PP *)(VP *)(NP *)(S opposed)(VP *)(PP *)(NP *)(NNP *)) |BT| (S (NP (VP (PP (NP (PP (NP (NP (PP (NP (NNS people))))))))))(VP (VBN opposed)(PP (TO to)(NP (DT the)(NNS sanctions)))(PP (IN from)(NP (NP (NNP Russia))(, ,)(NP (NNP Egypt)))))) |BT| (S (ROOT (S (S (NP (VP (PP (NP (PP (NP (NP (PP (NP (E-PER (NNS people)))))))))))(VP (VBN opposed)(PP (TO to)(NP (DT the)(NNS sanctions)))(PP (IN from)(NP (NP (E-GPE (NNP Russia)))(, ,)(NP (E-GPE (NNP Egypt)))(, ,)(NP (E-GPE (NNP Turkey)))(CC and)(PRN (, ,)(PP (IN for)(NP (DT the)(JJ first)(NN time)))(, ,))(NP (DT the)(E-GPE (NNP Ukraine)))))))(. .)))(ROOT (S (S (NP (CD Three)(E-VEH (NNS planes)))(VP (VBD arrived)))(CC and)(S (NP (NP (E-VEH (CD two)))(VP (VBN departed)(PP (IN by)(NP (NP (DT the)(NN end))(PP (IN of)(NP (NP (DT the)(NN day))(, ,)(NP (NP (VBG carrying)(NNS delegations))(PP (IN of)(NP (E-PER (NNS people)))))))))))(VP (VBN opposed)(PP (TO to)(NP (DT the)(NNS sanctions)))(PP (IN from)(NP (NP (E-GPE (NNP Russia)))(, ,)(NP (E-GPE (NNP Egypt)))))))))) |ET| 10:118 11:566 12:5 13:4511 14:33 16:34 17:6 18:143 21:9 22:324 23:934 24:12 25:118 26:118 27:7595 28:13 29:187 30:13 31:7583 32:508 33:936 34:18 37:937 38:20 40:187 41:7583 42:532 43:7595 44:2005 45:7583 46:508 47:508 48:532 49:447  |EV| 
0.07002250128235884552019285820279  |BT| (S (NP (VP (PP (NP (PP (NP (NP (PP (NP (NNS people))))))))))(VP (VBN opposed)(PP (TO to)(NP (DT the)(NNS sanctions)))(PP (IN from)(NP (NP (NNP Russia))(, ,)(NP (NNP Egypt))(, ,)(NP (NNP Turkey)))))) |BT| (BOW (opposed *)(to *)(the *)(sanctions *)(from *)(Russia *)(, *)) |BT| (BOH (opposed *)(sanctions *)(from *)(Russia *)(Egypt *)) |BT| (BOH-NPs (sanctions *)(Russia *)(Egypt *)) |BT| (LP (NNS *)(NP *)(PP *)(NP *)(PP *)(NP *)(PP *)(VP *)(NP *)(S *)(VP *)(PP *)(NP *)(NNP *)) |BT| (LP-head (NNS *)(NP *)(PP *)(NP *)(PP *)(NP *)(PP *)(VP *)(NP *)(S opposed)(VP *)(PP *)(NP *)(NNP *)) |BT| (S (NP (VP (PP (NP (PP (NP (NP (PP (NP (NNS people))))))))))(VP (VBN opposed)(PP (TO to)(NP (DT the)(NNS sanctions)))(PP (IN from)(NP (NP (NNP Russia))(, ,)(NP (NNP Egypt))(, ,)(NP (NNP Turkey)))))) |BT| (S (ROOT (S (S (NP (VP (PP (NP (PP (NP (NP (PP (NP (E-PER (NNS people)))))))))))(VP (VBN opposed)(PP (TO to)(NP (DT the)(NNS sanctions)))(PP (IN from)(NP (NP (E-GPE (NNP Russia)))(, ,)(NP (E-GPE (NNP Egypt)))(, ,)(NP (E-GPE (NNP Turkey)))(CC and)(PRN (, ,)(PP (IN for)(NP (DT the)(JJ first)(NN time)))(, ,))(NP (DT the)(E-GPE (NNP Ukraine)))))))(. .)))(ROOT (S (S (NP (CD Three)(E-VEH (NNS planes)))(VP (VBD arrived)))(CC and)(S (NP (NP (E-VEH (CD two)))(VP (VBN departed)(PP (IN by)(NP (NP (DT the)(NN end))(PP (IN of)(NP (NP (DT the)(NN day))(, ,)(NP (NP (VBG carrying)(NNS delegations))(PP (IN of)(NP (E-PER (NNS people)))))))))))(VP (VBN opposed)(PP (TO to)(NP (DT the)(NNS sanctions)))(PP (IN from)(NP (NP (E-GPE (NNP Russia)))(, ,)(NP (E-GPE (NNP Egypt)))(, ,)(NP (E-GPE (NNP Turkey)))))))))) |ET| 10:118 11:7586 12:5 13:4511 14:33 16:92 17:25 18:143 21:9 22:324 23:934 24:7587 25:118 26:118 27:7595 28:13 29:187 30:13 31:7583 32:20 33:936 34:7588 37:937 38:7589 40:187 41:7583 42:532 43:7595 44:2005 45:7583 46:20 47:20 48:508 49:508  |EV| 
0.12499999999996855293282749244099  |BT| (NP (NP (NNS residents))(PP (IN of)(NP (DT the)(NN district)))) |BT| (BOW ) |BT| (BOH (of *)) |BT| (BOH-NPs ) |BT| (LP (NNS *)(NP *)(PP *)(NP *)(NN *)) |BT| (LP-head (NNS *)(NP residents)(PP *)(NP *)(NN *)) |BT| (NP (NP (NNS residents))(PP (IN of)(NP (DT the)(NN district)))) |BT| (NP (ROOT (S (VP (VP (PP (NP (NP (E-PER (NNS residents)))(PP (IN of)(NP (DT the)(E-LOC (NN district))))))(SBAR (IN because)(S (NP (NP (JJ many))(PP (IN of)(NP (E-PER (PRP them)))))(VP (VBP spend)(NP (NP (JJS most))(PP (IN of)(NP (NP (DT the)(NN year))(VP (VBG traveling))))))))))(. .)))(ROOT (S (NP (E-PER (PRP$ Their))(NN eligibility)(S (VP (TO to)(VP (VB vote)))))(VP (VBD was)(VP (VBN challenged)(PP (IN by)(NP (NP (JJ other)(E-PER (NNS residents)))(PP (IN of)(NP (DT the)(E-LOC (NN district))))))))))) |ET| 2:19 11:7106 12:2763 13:7171 14:7172 16:25 17:7 18:152 19:159 21:9 22:339 23:7158 24:7007 25:118 26:118 27:187 28:105 29:545 30:105 31:460 32:187 33:7162 34:7010 37:7164 38:6870 40:545 41:7175 42:21 43:187 44:21 45:460 46:21 47:187 48:22 49:22  |EV| 
0.08344778352388901310199287308933  |BT| (NP (JJ Japanese)(NNS makers)) |BT| (BOW ) |BT| (BOH ) |BT| (BOH-NPs ) |BT| (LP (JJ *)(NP *)(NNS *)) |BT| (LP-head (JJ *)(NP makers)(NNS *)) |BT| (NP (JJ Japanese)(NNS makers)) |BT| (NP (ROOT (S (VP (VP (NP (E-GPE (JJ Japanese))(E-ORG (NNS makers)))))(. .)('' '')))(ROOT (S (NP (E-PER (NNP Joe)))(VP (VBD did)(RB not)(VP (VB shun)(NP (DT the)(E-GPE (JJ Japanese))(E-ORG (NNS makers)))))))) |ET| 11:13375 12:13376 13:8258 14:5 16:7 17:7 18:26 21:165 22:166 23:8259 24:10221 25:1 26:1 27:31 28:31 29:105 30:8265 31:13373 32:105 33:8260 34:10223 35:19 36:19 37:10224 38:10224 39:19 40:8265 41:13352 42:21 43:21 44:21 45:13373 46:21 47:21 48:22 49:22  |EV| 
-0.086604828253854293507174588739872  |BT| (NP (NP (NNP Norway)(POS 's))(NNP Foreign)(NNP Minister)(ROOT (S (NP (NP (NP (NP (NNP Norway)(POS 's))(NNP Foreign)(NNP Minister)(NNP Thorbjoern)(NNP Jagland))))))) |BT| (BOW ('s *)) |BT| (BOH ) |BT| (BOH-NPs (Thorbjoern *)) |BT| (LP (NNP *)(NP *)(NNP *)) |BT| (LP-head (NNP *)(NP Jagland)(NNP *)) |BT| (NP (NP (NNP Norway)(POS 's))(NNP Foreign)(NNP Minister)(ROOT (S (NP (NP (NP (NP (NNP Norway)(POS 's))(NNP Foreign)(NNP Minister)(NNP Thorbjoern)(NNP Jagland))))))) |BT| (NP (ROOT (S (NP (NP (NP (NP (E-GPE (NNP Norway))(POS 's))(NNP Foreign)(E-PER (NNP Minister))(E-PER (NNP Thorbjoern)(NNP Jagland)))(CC and)(NP (E-PER (NNP Mladjan)(NNP Dinkic))))(, ,)(NP (NP (DT the)(E-PER (NN head)))(PP (IN of)(NP (NP (DT an)(JJ influential)(E-PER (NN group)))(PP (IN of)(NP (E-PER (NNS economists)))))))(, ,))(VP (VBD demanded)(NP-TMP (NNP Sunday))(SBAR (IN that)(S (NP (E-PER (NNP Milosevic)))(VP (VB be)(VP (VBN punished)(PP (IN for)(NP (NN vote-rigging))))))))(. .)))(NNP Foreign)(NNP Minister)(ROOT (S (NP (NP (NP (NP (E-GPE (NNP Norway))(POS 's))(NNP Foreign)(E-PER (NNP Minister))(E-PER (NNP Thorbjoern)(NNP Jagland)))))))) |ET| 9:118 11:3176 12:3177 13:3169 14:45 16:47 17:6 18:35 21:9 22:10 23:3170 24:3178 25:1 26:1 27:58 28:206 29:14 30:206 31:3171 32:200 33:3172 34:3179 35:19 37:3173 38:3174 40:21 41:21 42:3175 43:21 44:21 45:21 46:3175 47:21 48:22 49:22  |EV| 
-0.014619697980904840933780164391464  |BT| (S (S (NP (ADJP (JJ suspect)))(VP (VBD died)(ADVP (RB later))(NP-TMP (DT the)(JJ same)(NN night))))(, ,)(NP (NN hospital))) |BT| (BOW (died *)(later *)(the *)(same *)) |BT| (BOH (died *)(later *)(night *)) |BT| (BOH-NPs (night *)) |BT| (LP (JJ *)(ADJP *)(NP *)(S *)(NP *)(NN *)) |BT| (LP-head (JJ *)(ADJP *)(NP *)(S died)(NP *)(NN *)) |BT| (S (S (NP (ADJP (JJ suspect)))(VP (VBD died)(ADVP (RB later))(NP-TMP (DT the)(JJ same)(NN night))))(, ,)(NP (NN hospital))) |BT| (S (ROOT (S (S (NP (ADJP (E-PER (JJ suspect))))(VP (VBD died)(ADVP (RB later))(NP-TMP (DT the)(JJ same)(NN night))))(, ,)(NP (E-ORG (NN hospital))(E-PER (NN spokeswoman))(E-PER (NNP Rebecca)(NNP O'Grady)))(VP (VBD said)(NP-TMP (NNP Thursday)))(. .)))(, ,)(ROOT (S (S (NP (DT The)(ADJP (E-PER (JJ suspect))))(VP (VBD died)(ADVP (RB later))(NP-TMP (DT the)(JJ same)(NN night))))(, ,)(NP (E-ORG (NN hospital)))))) |ET| 5:19 11:3612 12:24 13:3613 14:2066 16:70 17:7 18:301 19:434 21:165 22:217 23:3526 24:3614 25:118 26:118 27:909 28:13 29:220 30:13 31:14 32:1878 33:3528 34:3615 37:944 38:3616 40:21 41:21 42:1878 43:909 44:21 45:21 46:1878 47:1878 48:22 49:3608  |EV| 
0.12499999999996855293282749244099  |BT| (NP (NP (NNS people))(PP (IN of)(NP (NNP Serbia)))) |BT| (BOW ) |BT| (BOH (of *)) |BT| (BOH-NPs ) |BT| (LP (NNS *)(NP *)(PP *)(NP *)(NNP *)) |BT| (LP-head (NNS *)(NP people)(PP *)(NP *)(NNP *)) |BT| (NP (NP (NNS people))(PP (IN of)(NP (NNP Serbia)))) |BT| (NP (ROOT (S (S (VP (PP (NP (NP (NP (E-PER (NNS people)))(PP (IN of)(NP (E-GPE (NNP Serbia))))(SBAR (WHNP (E-PER (WP who)))(S (VP (VBP have)(VP (VBN suffered)(PP (IN under)(NP (NP (DT the)(E-ORG (NN regime))(POS 's))(JJ brutal)(NNS policies))))))))))))(, ,)('' '')(NP (DT the)(E-PER (NN president)))(VP (VBD said))(. .)))(ROOT (S (`` ``)(S (NP (PRP$ Our)(NN disagreement))(VP (VBD was)(PP (IN with)(NP (NP (DT the)(E-PER (NNP Milosevic))(E-ORG (NN regime)))(, ,)(NP (NP (RB not)(DT the)(E-PER (NNS people)))(PP (IN of)(NP (E-GPE (NNP Serbia)))))))))))) |ET| 10:118 11:2873 12:5 13:3771 14:3772 16:6 17:7 18:143 21:9 22:324 23:934 24:2753 25:118 26:118 27:187 28:187 29:105 30:187 31:2589 32:937 33:936 34:2755 37:937 38:2756 40:3710 41:3710 42:21 43:187 44:1721 45:1721 46:21 47:187 48:22 49:22  |EV| 
0.12499999999996855293282749244099  |BT| (NP (NP (NNS people))(PP (IN of)(NP (NNP Serbia)))) |BT| (BOW ) |BT| (BOH (of *)) |BT| (BOH-NPs ) |BT| (LP (NNS *)(NP *)(PP *)(NP *)(NNP *)) |BT| (LP-head (NNS *)(NP people)(PP *)(NP *)(NNP *)) |BT| (NP (NP (NNS people))(PP (IN of)(NP (NNP Serbia)))) |BT| (NP (ROOT (S (S (VP (PP (NP (NP (NP (E-PER (NNS people)))(PP (IN of)(NP (E-GPE (NNP Serbia))))(SBAR (WHNP (E-PER (WP who)))(S (VP (VBP have)(VP (VBN suffered)(PP (IN under)(NP (NP (DT the)(E-ORG (NN regime))(POS 's))(JJ brutal)(NNS policies))))))))))))(, ,)('' '')(NP (DT the)(E-PER (NN president)))(VP (VBD said))(. .)))(ROOT (S (`` ``)(S (NP (PRP$ Our)(NN disagreement))(VP (VBD was)(PP (IN with)(NP (NP (DT the)(E-PER (NNP Milosevic))(E-ORG (NN regime)))(, ,)(NP (NP (RB not)(DT the)(E-PER (NNS people)))(PP (IN of)(NP (E-GPE (NNP Serbia)))))))))))) |ET| 10:118 11:2873 12:5 13:3771 14:3772 16:6 17:7 18:143 21:9 22:324 23:934 24:2753 25:118 26:118 27:187 28:187 29:105 30:187 31:2589 32:937 33:936 34:2755 37:937 38:2756 40:3710 41:3710 42:21 43:187 44:1721 45:1721 46:21 47:187 48:22 49:22  |EV| 
