SVM-light Version V5.01-TK-1.2
5 # kernel type
3 # kernel parameter -d 
1 # kernel parameter -g 
1 # kernel parameter -s 
1 # kernel parameter -r 
empty# kernel parameter -u 
0.4 # kernel parameter -L 
1 # kernel parameter -T 
T # kernel parameter -C 
1 # kernel parameter -F 
1 # kernel parameter -S 
1.000000 # kernel parameter -D 
3 # kernel parameter -N 
S # kernel parameter -V 
S # kernel parameter -W 
49 # highest feature index 
16237 # number of training documents 
1035 # number of support vectors plus 1 
-1.057405 # threshold b, each following line is a SV (starting with alpha*y)
-0.12499999999996855293282749244099  |BT| (NP (NNP CAIRO)(, ,)(NNP Egypt)) |BT| (BOW ) |BT| (BOH ) |BT| (BOH-NPs ) |BT| (LP (NNP *)(NP *)(NNP *)) |BT| (LP-head (NNP *)(NP Egypt)(NNP *)) |BT| (NP (NNP CAIRO)(, ,)(NNP Egypt)) |BT| (NP (ROOT (S (NP (NP (E-GPE (NNP CAIRO))(, ,)(E-GPE (NNP Egypt)))(PRN (-LRB- -LRB-)(NP (NNP AP))(-RRB- -RRB-)))(PP (NP (CD _))(IN In)(NP (NP (E-PER (PRP$ his))(JJ foreign)(NN policy)(NN debut))(PP (IN as)(NP (NP (E-GPE (NNP Syria))(POS 's))(E-PER (NN president))))))(, ,)(NP (E-PER (NNP Bashar)(NNP Assad)))(VP (VBD met)(NP-TMP (NNP Sunday))(PP (IN with)(NP (NP (NP (E-GPE (NNP Egyptian))(E-PER (NNP President))(E-PER (NNP Hosni)(NNP Mubarak)))(PP (IN in)(NP (NP (NNS talks))(PP (IN on)(NP (E-LOC (JJ Mideast))(NN peace))))))(CC and)(NP (NP (DT the)(VBG escalating)(NN violence))(PP (IN in)(NP (DT the)(E-GPE (JJ Palestinian))(E-GPE (NNS territories))))))))(. .)))(, ,)(ROOT (S (NP (NP (E-GPE (NNP CAIRO))(, ,)(E-GPE (NNP Egypt))))))) |ET| 10:1 11:2 12:3 13:4 14:5 16:6 17:7 18:8 21:9 22:10 23:11 24:12 25:1 26:1 27:13 28:13 29:14 30:13 31:15 32:16 33:17 34:18 35:19 37:20 38:20 39:19 40:21 41:21 42:21 43:21 44:21 45:21 46:21 47:21 48:22 49:22  |EV| 
-0.12499999999996855293282749244099  |BT| (NP (NP (NNP Syria)(POS 's))(ROOT (S (NP (NP (NNP CAIRO)(, ,)(NNP Egypt))(PRN (-LRB- -LRB-)(NP (NNP AP))(-RRB- -RRB-)))(PP (NP (CD _))(IN In)(NP (NP (PRP$ his)(JJ foreign)(NN policy)(NN debut))(PP (IN as)(NP (NP (NNP Syria)(POS 's))(NN president)))))))) |BT| (BOW ) |BT| (BOH ) |BT| (BOH-NPs ) |BT| (LP (NNP *)(NP *)(NN *)) |BT| (LP-head (NNP *)(NP president)(NN *)) |BT| (NP (NP (NNP Syria)(POS 's))(ROOT (S (NP (NP (NNP CAIRO)(, ,)(NNP Egypt))(PRN (-LRB- -LRB-)(NP (NNP AP))(-RRB- -RRB-)))(PP (NP (CD _))(IN In)(NP (NP (PRP$ his)(JJ foreign)(NN policy)(NN debut))(PP (IN as)(NP (NP (NNP Syria)(POS 's))(NN president)))))))) |BT| (NP (ROOT (S (PP (NP (PP (NP (NP (E-GPE (NNP Syria))(POS 's))(E-PER (NN president))))))(, ,)(NP (E-PER (NNP Bashar)(NNP Assad)))(VP (VBD met)(NP-TMP (NNP Sunday))(PP (IN with)(NP (NP (NP (E-GPE (NNP Egyptian))(E-PER (NNP President))(E-PER (NNP Hosni)(NNP Mubarak)))(PP (IN in)(NP (NP (NNS talks))(PP (IN on)(NP (E-LOC (JJ Mideast))(NN peace))))))(CC and)(NP (NP (DT the)(VBG escalating)(NN violence))(PP (IN in)(NP (DT the)(E-GPE (JJ Palestinian))(E-GPE (NNS territories))))))))(. .)))(ROOT (S (NP (NP (E-GPE (NNP CAIRO))(, ,)(E-GPE (NNP Egypt)))(PRN (-LRB- -LRB-)(NP (NNP AP))(-RRB- -RRB-)))(PP (NP (CD _))(IN In)(NP (NP (E-PER (PRP$ his))(JJ foreign)(NN policy)(NN debut))(PP (IN as)(NP (NP (E-GPE (NNP Syria))(POS 's))(E-PER (NN president))))))))) |ET| 1:19 9:118 11:52 12:53 13:44 14:45 16:6 17:7 18:35 21:9 22:56 23:48 24:57 25:1 26:1 27:58 28:58 29:49 30:58 31:42 32:51 33:50 34:59 35:19 37:51 38:60 40:49 41:42 42:21 43:21 44:147 45:42 46:21 47:21 48:22 49:22  |EV| 
-0.12499999999996855293282749244099  |BT| (NP (NNP Egyptian)(NNP President)) |BT| (BOW ) |BT| (BOH ) |BT| (BOH-NPs ) |BT| (LP (NNP *)(NP *)(NNP *)) |BT| (LP-head (NNP *)(NP Mubarak)(NNP *)) |BT| (NP (NNP Egyptian)(NNP President)) |BT| (NP (ROOT (S (VP (PP (NP (NP (NP (E-GPE (NNP Egyptian))(E-PER (NNP President))(E-PER (NNP Hosni)(NNP Mubarak)))(PP (IN in)(NP (NP (NNS talks))(PP (IN on)(NP (E-LOC (JJ Mideast))(NN peace))))))(CC and)(NP (NP (DT the)(VBG escalating)(NN violence))(PP (IN in)(NP (DT the)(E-GPE (JJ Palestinian))(E-GPE (NNS territories))))))))(. .)))(ROOT (S (NP (NP (E-GPE (NNP CAIRO))(, ,)(E-GPE (NNP Egypt)))(PRN (-LRB- -LRB-)(NP (NNP AP))(-RRB- -RRB-)))(PP (NP (CD _))(IN In)(NP (NP (E-PER (PRP$ his))(JJ foreign)(NN policy)(NN debut))(PP (IN as)(NP (NP (E-GPE (NNP Syria))(POS 's))(E-PER (NN president))))))(, ,)(NP (E-PER (NNP Bashar)(NNP Assad)))(VP (VBD met)(NP-TMP (NNP Sunday))(PP (IN with)(NP (NP (NP (E-GPE (NNP Egyptian))(E-PER (NNP President)))))))))) |ET| 1:19 11:76 12:33 13:68 14:5 16:7 17:7 18:35 21:9 22:10 23:71 24:78 25:1 26:1 27:31 28:31 29:72 30:79 31:73 32:72 33:74 34:80 35:19 36:19 37:75 38:75 39:19 40:72 41:73 42:21 43:21 44:67 45:73 46:21 47:21 48:22 49:22  |EV| 
-0.12499999999996855293282749244099  |BT| (NP (NP (NNP Assad))(, ,)(PP (IN on)(NP (NP (PRP$ his)(JJ first)(NN trip))(ADVP (RB abroad))))) |BT| (BOW (, *)(on *)(his *)) |BT| (BOH (on *)(trip *)) |BT| (BOH-NPs (trip *)) |BT| (LP (NNP *)(NP *)(PP *)(NP *)(ADVP *)(RB *)) |BT| (LP-head (NNP *)(NP Assad)(PP *)(NP *)(ADVP *)(RB *)) |BT| (NP (NP (NNP Assad))(, ,)(PP (IN on)(NP (NP (PRP$ his)(JJ first)(NN trip))(ADVP (RB abroad))))) |BT| (NP (ROOT (S (S (NP (NP (E-PER (NNP Assad)))(, ,)(PP (IN on)(NP (NP (E-PER (PRP$ his))(JJ first)(NN trip))(ADVP (E-LOC (RB abroad))(PP (IN since)(S (VP (VBG becoming)(NP (E-PER (NN president)))(PP (IN in)(NP (NNP July)))))))))(, ,))(ADVP (RB also))(VP (VBD dealt)(PP (IN with)(NP (NP (DT the)(NN issue))(PP (IN of)(NP (E-GPE (NNP Iraq))))))(PP (IN in)(NP (NP (DT the)(NNS talks))(PP (IN with)(NP (E-PER (NNP Mubarak))))))))(, ,)(NP (E-GPE (NNP Egyptian))(NNP Foreign)(E-PER (NNP Minister))(E-PER (NNP Amr)(NNP Mussa)))(VP (VBD said))(. .)))(, ,)(ROOT (S (S (NP (NP (E-PER (NNP Assad)))(, ,)(PP (IN on)(NP (NP (E-PER (PRP$ his))(JJ first)(NN trip))(ADVP (E-LOC (RB abroad)))))))))) |ET| 11:174 12:175 13:167 14:168 16:64 17:6 18:152 21:176 22:177 23:169 24:178 25:118 26:118 27:13 28:173 29:14 30:173 31:170 32:179 33:171 34:180 37:67 38:181 40:21 41:21 42:173 43:97 44:21 45:21 46:173 47:173 48:22 49:97  |EV| 
-0.12499999999996855293282749244099  |BT| (NP (NNP Egyptian)(NNP Foreign)(NNP Minister)) |BT| (BOW ) |BT| (BOH ) |BT| (BOH-NPs (Amr *)) |BT| (LP (NNP *)(NP *)(NNP *)) |BT| (LP-head (NNP *)(NP Mussa)(NNP *)) |BT| (NP (NNP Egyptian)(NNP Foreign)(NNP Minister)) |BT| (NP (ROOT (S (NP (E-GPE (NNP Egyptian))(NNP Foreign)(E-PER (NNP Minister))(E-PER (NNP Amr)(NNP Mussa)))(VP (VBD said))(. .)))(NNP Foreign)(ROOT (S (S (NP (NP (E-PER (NNP Assad)))(, ,)(PP (IN on)(NP (NP (E-PER (PRP$ his))(JJ first)(NN trip))(ADVP (E-LOC (RB abroad))(PP (IN since)(S (VP (VBG becoming)(NP (E-PER (NN president)))(PP (IN in)(NP (NNP July)))))))))(, ,))(ADVP (RB also))(VP (VBD dealt)(PP (IN with)(NP (NP (DT the)(NN issue))(PP (IN of)(NP (E-GPE (NNP Iraq))))))(PP (IN in)(NP (NP (DT the)(NNS talks))(PP (IN with)(NP (E-PER (NNP Mubarak))))))))(, ,)(NP (E-GPE (NNP Egyptian))(NNP Foreign)(E-PER (NNP Minister)))))) |ET| 1:19 11:197 12:33 13:68 14:5 16:6 17:7 18:35 21:9 22:10 23:71 24:199 25:1 26:1 27:200 28:200 29:13 30:200 31:75 32:79 33:74 34:201 35:19 37:196 38:196 39:19 40:75 41:75 42:202 43:21 44:98 45:72 46:202 47:21 48:22 49:22  |EV| 
0.038038134442868493101386206944881  |BT| (NP (NP (NNP CAIRO)(, ,)(NNP Egypt))(PRN (-LRB- -LRB-)(NP (NNP AP)))) |BT| (BOW ) |BT| (BOH ) |BT| (BOH-NPs ) |BT| (LP (NNP *)(NP *)(PRN *)(NP *)(NNP *)) |BT| (LP-head (NNP *)(NP Egypt)(PRN *)(NP *)(NNP *)) |BT| (NP (NP (NNP CAIRO)(, ,)(NNP Egypt))(PRN (-LRB- -LRB-)(NP (NNP AP)))) |BT| (NP (ROOT (S (NP (NP (E-GPE (NNP CAIRO))(, ,)(E-GPE (NNP Egypt)))(PRN (-LRB- -LRB-)(NP (NNP AP))(-RRB- -RRB-)))(PP (NP (CD _))(IN In)(NP (NP (E-PER (PRP$ his))(JJ foreign)(NN policy)(NN debut))(PP (IN as)(NP (NP (E-GPE (NNP Syria))(POS 's))(E-PER (NN president))))))(, ,)(NP (E-PER (NNP Bashar)(NNP Assad)))(VP (VBD met)(NP-TMP (NNP Sunday))(PP (IN with)(NP (NP (NP (E-GPE (NNP Egyptian))(E-PER (NNP President))(E-PER (NNP Hosni)(NNP Mubarak)))(PP (IN in)(NP (NP (NNS talks))(PP (IN on)(NP (E-LOC (JJ Mideast))(NN peace))))))(CC and)(NP (NP (DT the)(VBG escalating)(NN violence))(PP (IN in)(NP (DT the)(E-GPE (JJ Palestinian))(E-GPE (NNS territories))))))))(. .)))(ROOT (S (NP (NP (E-GPE (NNP CAIRO))(, ,)(E-GPE (NNP Egypt)))(PRN (-LRB- -LRB-)(NP (NNP AP))))))) |ET| 11:23 12:24 13:4 14:5 16:25 17:6 18:26 21:27 22:28 23:11 24:29 25:1 26:1 27:13 28:20 29:14 30:20 31:15 32:13 33:17 34:30 35:19 37:20 38:31 40:21 41:21 42:21 43:21 44:21 45:21 46:21 47:21 48:22 49:22  |EV| 
0.022235143778742839926199081901359  |BT| (S (NP (NN court))(VP (VBD dismissed)(NP (JJ other)(NN corruption)(NNS charges))(PP (IN against)(NP (PRP$ his)(JJ 79-year-old)(NN father))))) |BT| (BOW (dismissed *)(other *)(corruption *)(charges *)(against *)) |BT| (BOH (dismissed *)(charges *)(against *)) |BT| (BOH-NPs (charges *)) |BT| (LP (NN *)(NP *)(S *)(VP *)(PP *)(NP *)(NN *)) |BT| (LP-head (NN *)(NP *)(S dismissed)(VP *)(PP *)(NP *)(NN *)) |BT| (S (NP (NN court))(VP (VBD dismissed)(NP (JJ other)(NN corruption)(NNS charges))(PP (IN against)(NP (PRP$ his)(JJ 79-year-old)(NN father))))) |BT| (S (ROOT (S (VP (SBAR (S (NP (E-ORG (NN court)))(VP (VBD dismissed)(NP (JJ other)(NN corruption)(NNS charges))(PP (IN against)(NP (E-PER (PRP$ his))(JJ 79-year-old)(E-PER (NN father))))(PP (IN on)(NP (NP (NNS grounds))(PP (IN of)(NP (JJ ill)(NN health)))))(, ,)(S (VP (VP (VBG enraging)(NP (JJ pro-democracy)(E-PER (NNS activists))))(CC and)(VP (VBG triggering)(NP (JJ violent)(NNS demonstrations)))))))))(. .)))(ROOT (S (NP (NP (DT The)(NN delay))(PP (IN of)(NP (NP (E-PER (NNP Tommy))(POS 's))(NN arrest))))(VP (VBZ comes)(SBAR (NP (RB just)(NNS days))(IN after)(S (NP (DT another)(E-ORG (NN court)))(VP (VBD dismissed)(NP (JJ other)(NN corruption)(NNS charges))(PP (IN against)(NP (E-PER (PRP$ his))(JJ 79-year-old)(E-PER (NN father))))))))))) |ET| 5:19 11:782 12:783 13:773 14:774 16:34 17:6 18:126 19:338 21:9 22:311 23:672 24:278 25:117 26:117 27:794 28:784 29:776 30:784 31:318 32:279 33:674 34:280 37:675 38:274 40:779 41:779 42:781 43:794 44:778 45:780 46:781 47:594 48:22 49:781  |EV| 
0.064540990423063743230969180331158  |BT| (NNP ABC) |BT| (BOW ) |BT| (BOH ) |BT| (BOH-NPs (Peter *)) |BT| (LP (NNP *)(NP *)(NNP *)) |BT| (LP-head (NNP *)(NP Jennings)(NNP *)) |BT| (NNP ABC) |BT| (NP (ROOT (FRAG (NP (NP (E-ORG (NNP ABC))(E-PER (NN anchorman))(E-PER (NNP Peter)(NNP Jennings)))(, ,)(SBAR (WHNP (E-PER (WP who)))(S (VP (VBD noted)(SBAR (IN that)(S (`` ``)(NP (NP (NN bottom))(PP (IN of)(NP (DT the)(NN ticket))))('' '')(VP (VBZ does)(RB n't)(ADVP (RB necessarily))(VP (VB have)(NP (NP (DT that)(JJ much)(NN affect))(PP (IN on)(NP (E-PER (NN voter))(NNS decisions))))))))))))(. .)))(NN anchorman)(ROOT (FRAG (NP (NP (E-ORG (NNP ABC))(E-PER (NN anchorman))(E-PER (NNP Peter)(NNP Jennings))))))) |ET| 5:19 11:1465 12:1466 13:1460 14:24 16:6 17:7 18:126 21:9 22:10 23:1425 24:1467 25:117 26:117 27:1468 28:1468 29:14 30:1468 31:1462 32:1427 33:1428 34:1469 35:19 37:1464 38:1464 39:19 40:21 41:21 42:1470 43:21 44:21 45:21 46:1470 47:21 48:22 49:22  |EV| 
0.018735365787628244227391860476928  |BT| (S (NP (NP (NNP CAIRO)(, ,)(NNP Egypt))(PRN (-LRB- -LRB-)(NP (NNP AP))(-RRB- -RRB-)))(PP (NP (CD _))(IN In)(NP (NP (PRP$ his)(JJ foreign)(NN policy)(NN debut))(PP (IN as)(NP (NP (NNP Syria)(POS 's))(NN president)))))) |BT| (BOW (, *)(Egypt *)(-LRB- *)(AP *)(-RRB- *)(_ *)(In *)(his *)(foreign *)(policy *)(debut *)(as *)) |BT| (BOH (AP *)(In *)(debut *)(as *)(Syria *)) |BT| (BOH-NPs (AP *)(debut *)(Syria *)) |BT| (LP (NNP *)(NP *)(S *)(PP *)(NP *)(PP *)(NP *)(NN *)) |BT| (LP-head (NNP *)(NP *)(S met)(PP *)(NP *)(PP *)(NP *)(NN *)) |BT| (S (NP (NP (NNP CAIRO)(, ,)(NNP Egypt))(PRN (-LRB- -LRB-)(NP (NNP AP))(-RRB- -RRB-)))(PP (NP (CD _))(IN In)(NP (NP (PRP$ his)(JJ foreign)(NN policy)(NN debut))(PP (IN as)(NP (NP (NNP Syria)(POS 's))(NN president)))))) |BT| (S (ROOT (S (NP (NP (E-GPE (NNP CAIRO))(, ,)(E-GPE (NNP Egypt)))(PRN (-LRB- -LRB-)(NP (NNP AP))(-RRB- -RRB-)))(PP (NP (CD _))(IN In)(NP (NP (E-PER (PRP$ his))(JJ foreign)(NN policy)(NN debut))(PP (IN as)(NP (NP (E-GPE (NNP Syria))(POS 's))(E-PER (NN president))))))(, ,)(NP (E-PER (NNP Bashar)(NNP Assad)))(VP (VBD met)(NP-TMP (NNP Sunday))(PP (IN with)(NP (NP (NP (E-GPE (NNP Egyptian))(E-PER (NNP President))(E-PER (NNP Hosni)(NNP Mubarak)))(PP (IN in)(NP (NP (NNS talks))(PP (IN on)(NP (E-LOC (JJ Mideast))(NN peace))))))(CC and)(NP (NP (DT the)(VBG escalating)(NN violence))(PP (IN in)(NP (DT the)(E-GPE (JJ Palestinian))(E-GPE (NNS territories))))))))(. .)))(ROOT (S (NP (NP (E-GPE (NNP CAIRO))(, ,)(E-GPE (NNP Egypt)))(PRN (-LRB- -LRB-)(NP (NNP AP))(-RRB- -RRB-)))(PP (NP (CD _))(IN In)(NP (NP (E-PER (PRP$ his))(JJ foreign)(NN policy)(NN debut))(PP (IN as)(NP (NP (E-GPE (NNP Syria))(POS 's))(E-PER (NN president))))))))) |ET| 1:19 11:52 12:53 13:4 14:5 16:54 17:55 18:35 21:9 22:56 23:11 24:57 25:1 26:1 27:13 28:58 29:14 30:58 31:15 32:51 33:17 34:59 37:20 38:60 40:21 41:21 42:43 43:43 44:21 45:21 46:51 47:51 48:42 49:49  |EV| 
0.010361195754102919125427817448326  |BT| (S (NP (VP (SBAR (S (NP (PRP$ his)(NN father))(VP (VBD was)(ADVP (RB still))(PP (IN in)(NP (NN power)))))))(, ,))(VP (VBD had)(VP (VBN cost)(NP (DT the)(JJ Indonesian)(NN state))))) |BT| (BOW (father *)(was *)(still *)(in *)(power *)(, *)(had *)(cost *)) |BT| (BOH (was *)(still *)(in *)(power *)(had *)(cost *)) |BT| (BOH-NPs (power *)) |BT| (LP (PRP$ *)(NP *)(S *)(SBAR *)(VP *)(NP *)(S *)(VP *)(NP *)(NN *)) |BT| (LP-head (PRP$ *)(NP *)(S *)(SBAR *)(VP *)(NP *)(S had)(VP *)(NP *)(NN *)) |BT| (S (NP (VP (SBAR (S (NP (PRP$ his)(NN father))(VP (VBD was)(ADVP (RB still))(PP (IN in)(NP (NN power)))))))(, ,))(VP (VBD had)(VP (VBN cost)(NP (DT the)(JJ Indonesian)(NN state))))) |BT| (S (ROOT (S (VP (SBAR (S (NP (VP (SBAR (S (NP (E-PER (PRP$ his))(E-PER (NN father)))(VP (VBD was)(ADVP (RB still))(PP (IN in)(NP (NN power)))))))(, ,))(VP (VBD had)(VP (VBN cost)(NP (DT the)(E-GPE (JJ Indonesian))(E-GPE (NN state)))(NP ($ $)(QP (CD 10.8)(CD million))))))))(. .)))(ROOT (S (NP (E-PER (NNS Prosecutors)))(VP (VBD said)(SBAR (S (NP (NP (DT the)(CD 1997)(NN deal))(, ,)(VP (VBN made)(SBAR (WHADVP (WRB when))(S (NP (E-PER (PRP$ his))(E-PER (NN father)))(VP (VBD was)(ADVP (RB still))(PP (IN in)(NP (NN power)))))))(, ,))(VP (VBD had)(VP (VBN cost)(NP (DT the)(E-GPE (JJ Indonesian))(E-GPE (NN state))))))))))) |ET| 11:715 12:716 13:32 14:33 16:103 17:6 18:143 21:144 22:149 23:683 24:694 25:118 26:118 27:274 28:717 29:503 30:717 31:708 32:105 33:688 34:695 37:274 38:268 40:503 41:696 42:272 43:718 44:710 45:708 46:272 47:713 48:22 49:362  |EV| 
-0.12499999999996855293282749244099  |BT| (NP (NP (NN group))(PP (IN of)(NP (NP (JJ undecided)(NNS voters))(VP (VBN recruited)(PP (IN by)(NP (NP (NNP NBC))(PP (IN in)(NP (NP (NNP Tampa)))))))))) |BT| (BOW (of *)(undecided *)(voters *)(recruited *)(by *)) |BT| (BOH (of *)(voters *)(recruited *)(by *)(NBC *)(in *)) |BT| (BOH-NPs (voters *)(NBC *)) |BT| (LP (NN *)(NP *)(PP *)(NP *)(VP *)(PP *)(NP *)(PP *)(NP *)(NNP *)) |BT| (LP-head (NN *)(NP group)(PP *)(NP *)(VP *)(PP *)(NP *)(PP *)(NP *)(NNP *)) |BT| (NP (NP (NN group))(PP (IN of)(NP (NP (JJ undecided)(NNS voters))(VP (VBN recruited)(PP (IN by)(NP (NP (NNP NBC))(PP (IN in)(NP (NP (NNP Tampa)))))))))) |BT| (NP (ROOT (S (S (NP (NP (E-PER (NN group)))(PP (IN of)(NP (NP (JJ undecided)(E-PER (NNS voters)))(VP (VBN recruited)(PP (IN by)(NP (NP (E-ORG (NNP NBC)))(PP (IN in)(NP (NP (E-GPE (NNP Tampa)))(, ,)(NP (E-GPE (NNP Fla))(. .))(, ,)))))))))(VP (VBD were)(VP (VBN impressed)(PP (IN with)(NP (DT both)(E-PER (NNS candidates))(NN _))))))(CC and)(, ,)(S (PP (IN with)(NP (NP (DT a)(NN non-show))(PP (IN of)(NP (NNS hands)))))(, ,)(NP (DT all))(VP (VBD indicated)(SBAR (S (NP (E-PER (PRP they)))(VP (VBD remained)(PP (IN on)(NP (DT the)(NN fence))))))))(. .)))(ROOT (S (S (NP (NP (DT A)(E-PER (NN group)))(PP (IN of)(NP (NP (JJ undecided)(E-PER (NNS voters)))(VP (VBN recruited)(PP (IN by)(NP (NP (E-ORG (NNP NBC)))(PP (IN in)(NP (NP (E-GPE (NNP Tampa))))))))))))))) |ET| 1:19 11:1507 12:1508 13:1495 14:1496 16:34 17:25 18:143 21:9 22:157 23:1497 24:1509 25:118 26:118 27:187 28:106 29:818 30:106 31:14 32:1484 33:1500 34:1510 37:1502 38:1511 40:21 41:21 42:1503 43:187 44:21 45:21 46:1484 47:106 48:1503 49:1484  |EV| 
-0.12499999999996855293282749244099  |BT| (VP (PP (NP (PP (NP (NNP Conyers)))))(, ,)(PP (IN about)(NP (NP (CD 25)(NNS miles))(PP (ADVP (RB east))(IN of)(NP (NP (NNP Atlanta))))))) |BT| (BOW (, *)(about *)(25 *)(miles *)) |BT| (BOH (about *)(miles *)(east *)(of *)) |BT| (BOH-NPs (miles *)) |BT| (LP (NNP *)(NP *)(PP *)(NP *)(PP *)(VP *)(PP *)(NP *)(PP *)(NP *)(NNP *)) |BT| (LP-head (NNP *)(NP *)(PP *)(NP *)(PP *)(VP opened)(PP *)(NP *)(PP *)(NP *)(NNP *)) |BT| (VP (PP (NP (PP (NP (NNP Conyers)))))(, ,)(PP (IN about)(NP (NP (CD 25)(NNS miles))(PP (ADVP (RB east))(IN of)(NP (NP (NNP Atlanta))))))) |BT| (VP (ROOT (S (VP (PP (NP (PP (NP (E-GPE (NNP Conyers))))))(, ,)(PP (IN about)(NP (NP (CD 25)(NNS miles))(PP (ADVP (RB east))(IN of)(NP (NP (E-GPE (NNP Atlanta)))(, ,)(NP (CD one)(NN month))))))(PP (IN after)(NP (NP (DT the)(E-FAC (NNP Columbine)(NNP High))(NN massacre))(PP (IN in)(NP (E-GPE (NNP Colorado)))))))(. .)))(, ,)(ROOT (S (NP (NP (E-PER (NNP Solomon)))(, ,)(NP (RB then)(CD 15))(, ,))(VP (VBD opened)(NP (NN fire))(PP (IN with)(NP (NP (DT a)(JJ sawed-off)(E-WEA (NN rifle)))(PP (IN on)(NP (NP (NNS hundreds))(PP (IN of)(NP (NP (E-PER (NNS students)))(PP (IN in)(NP (DT a)(JJ common)(E-FAC (NN area))))))))))(PP (IN at)(NP (NP (E-FAC (NNP Heritage)(NNP High)(NNP School)))(PP (IN in)(NP (E-GPE (NNP Conyers))))))(, ,)(PP (IN about)(NP (NP (CD 25)(NNS miles))(PP (ADVP (RB east))(IN of)(NP (NP (E-GPE (NNP Atlanta))))))))))) |ET| 11:1076 12:1077 13:1072 14:5 16:70 17:7 18:8 21:9 22:10 23:1073 24:1078 25:1 26:1 27:13 28:187 29:106 30:187 31:1071 32:1079 33:1074 34:1080 37:1075 38:1081 40:106 41:1071 42:1082 43:1095 44:1087 45:1071 46:1082 47:187 48:22 49:1079  |EV| 
-0.12499999999996855293282749244099  |BT| (NP (NP (CD one))(PP (IN of)(NP (NP (NNP Milosevic)(POS 's))(JJS closest)(NNS cronies)))) |BT| (BOW (of *)(Milosevic *)) |BT| (BOH (of *)(cronies *)) |BT| (BOH-NPs (cronies *)) |BT| (LP (CD *)(NP *)(PP *)(NP *)(NNS *)) |BT| (LP-head (CD *)(NP None)(PP *)(NP *)(NNS *)) |BT| (NP (NP (CD one))(PP (IN of)(NP (NP (NNP Milosevic)(POS 's))(JJS closest)(NNS cronies)))) |BT| (NP (ROOT (S (VP (NP (NP (E-PER (CD one)))(PP (IN of)(NP (NP (E-PER (NNP Milosevic))(POS 's))(JJS closest)(E-PER (NNS cronies))))))(. .)))(ROOT (S (NP (NP (NP (DT The)(E-PER (NN president)))(PP (IN of)(NP (E-GPE (NNP Serbia)))))(, ,)(NP (E-PER (NNP Milan)(NNP Milutinovic)))(, ,))(VP (VBZ is)(NP (NP (E-PER (CD one)))(PP (IN of)(NP (NP (E-PER (NNP Milosevic))(POS 's))(JJS closest)(E-PER (NNS cronies))))))))) |ET| 4:19 6:19 11:2883 12:2884 13:2881 14:2882 16:55 17:6 18:148 19:338 21:2107 22:2890 23:2095 24:2885 25:118 26:118 27:187 28:2886 29:396 30:2886 31:13 32:58 33:2097 34:2887 37:31 38:1721 40:396 41:2880 42:2888 43:187 44:2889 45:2880 46:2888 47:2888 48:22 49:187  |EV| 
0.033983904080625702837092916297479  |BT| (NNP Minister) |BT| (BOW ) |BT| (BOH ) |BT| (BOH-NPs ) |BT| (LP (NNP *)(NP *)(NNP *)) |BT| (LP-head (NNP *)(NP Mussa)(NNP *)) |BT| (NNP Minister) |BT| (NP (ROOT (S (NP (E-PER (NNP Minister))(E-PER (NNP Amr)(NNP Mussa)))(VP (VBD said))(. .)))(ROOT (S (S (NP (NP (E-PER (NNP Assad)))(, ,)(PP (IN on)(NP (NP (E-PER (PRP$ his))(JJ first)(NN trip))(ADVP (E-LOC (RB abroad))(PP (IN since)(S (VP (VBG becoming)(NP (E-PER (NN president)))(PP (IN in)(NP (NNP July)))))))))(, ,))(ADVP (RB also))(VP (VBD dealt)(PP (IN with)(NP (NP (DT the)(NN issue))(PP (IN of)(NP (E-GPE (NNP Iraq))))))(PP (IN in)(NP (NP (DT the)(NNS talks))(PP (IN with)(NP (E-PER (NNP Mubarak))))))))(, ,)(NP (E-GPE (NNP Egyptian))(NNP Foreign)(E-PER (NNP Minister))(E-PER (NNP Amr)(NNP Mussa)))))) |ET| 1:19 11:203 12:204 13:197 14:33 16:7 17:7 18:148 21:9 22:10 23:199 24:205 25:118 26:118 27:31 28:31 29:200 30:206 31:79 32:200 33:201 34:207 35:19 36:19 37:196 38:196 39:19 40:202 41:202 42:21 43:21 44:206 45:206 46:21 47:21 48:22 49:22  |EV| 
0.00074899767315462269928749705627524  |BT| (NP (VP (SBAR (S (VP (SBAR (S (VP (VP (VP (PP (NP (NP (NP (NNP Minister)(NNP Ehud)(NNP Barak)(POS 's))(JJ precarious)(NN situation))))(PP (IN as)(NP (NN leader))))))))))))(PP (IN of)(NP (DT a)(NN minority)(NN government)))) |BT| (BOW (Ehud *)(Barak *)('s *)(precarious *)(situation *)(as *)(leader *)(of *)) |BT| (BOH (situation *)(as *)(leader *)(of *)) |BT| (BOH-NPs (Ehud *)(situation *)(leader *)(minority *)) |BT| (LP (NNP *)(NP *)(PP *)(VP *)(S *)(SBAR *)(VP *)(S *)(SBAR *)(VP *)(NP *)(PP *)(NP *)(NN *)) |BT| (LP-head (NNP *)(NP *)(PP *)(VP *)(S *)(SBAR *)(VP *)(S *)(SBAR *)(VP *)(NP government)(PP *)(NP *)(NN *)) |BT| (NP (VP (SBAR (S (VP (SBAR (S (VP (VP (VP (PP (NP (NP (NP (NNP Minister)(NNP Ehud)(NNP Barak)(POS 's))(JJ precarious)(NN situation))))(PP (IN as)(NP (NN leader))))))))))))(PP (IN of)(NP (DT a)(NN minority)(NN government)))) |BT| (NP (ROOT (NP (VP (SBAR (S (VP (SBAR (S (VP (VP (VP (PP (NP (NP (NP (E-PER (NNP Minister))(E-PER (NNP Ehud)(NNP Barak))(POS 's))(JJ precarious)(NN situation))))(PP (IN as)(NP (E-PER (NN leader)))))))))))))(PP (IN of)(NP (DT a)(NN minority)(E-ORG (NN government))))(. .)))(ROOT (NP (NP (NP (E-GPE (NNP Syria))(POS 's))(E-GPE (NN government)))(: -)(VP (VBN run)(SBAR (S (NP (E-ORG (NNS media)))(VP (VBD said)(NP-TMP (JJ last)(NN week))(SBAR (IN that)(S (NP (DT no)(NN progress))(VP (MD could)(VP (VB be)(VP (VBN expected)(PP (ADVP (RB now))(IN because)(IN of)(NP (NP (DT the)(E-GPE (NNP U.S.))(NNS elections))(CC and)(NP (NP (E-GPE (JJ Israeli))(NNP Prime)(E-PER (NNP Minister))(E-PER (NNP Ehud)(NNP Barak))(POS 's))(JJ precarious)(NN situation))))(PP (IN as)(NP (E-PER (NN leader)))))))))))))(PP (IN of)(NP (DT a)(NN minority)(E-ORG (NN government))))))) |ET| 5:19 11:427 12:428 13:197 14:33 16:103 17:6 18:301 21:9 22:56 23:199 24:399 25:118 26:118 27:419 28:429 29:417 30:429 31:418 32:430 33:201 34:401 37:416 38:400 40:419 41:419 42:419 43:426 44:206 45:206 46:429 47:187 48:224 49:224  |EV| 
0.077801959770961909290676317141333  |BT| (NP (NP (PRP$ his)(JJ first)(NN trip))(ADVP (RB abroad))) |BT| (BOW ) |BT| (BOH ) |BT| (BOH-NPs ) |BT| (LP (PRP$ *)(NP *)(ADVP *)(RB *)) |BT| (LP-head (PRP$ *)(NP trip)(ADVP *)(RB *)) |BT| (NP (NP (PRP$ his)(JJ first)(NN trip))(ADVP (RB abroad))) |BT| (NP (ROOT (S (S (NP (PP (NP (NP (E-PER (PRP$ his))(JJ first)(NN trip))(ADVP (E-LOC (RB abroad))(PP (IN since)(S (VP (VBG becoming)(NP (E-PER (NN president)))(PP (IN in)(NP (NNP July)))))))))(, ,))(ADVP (RB also))(VP (VBD dealt)(PP (IN with)(NP (NP (DT the)(NN issue))(PP (IN of)(NP (E-GPE (NNP Iraq))))))(PP (IN in)(NP (NP (DT the)(NNS talks))(PP (IN with)(NP (E-PER (NNP Mubarak))))))))(, ,)(NP (E-GPE (NNP Egyptian))(NNP Foreign)(E-PER (NNP Minister))(E-PER (NNP Amr)(NNP Mussa)))(VP (VBD said))(. .)))(ROOT (S (S (NP (NP (E-PER (NNP Assad)))(, ,)(PP (IN on)(NP (NP (E-PER (PRP$ his))(JJ first)(NN trip))(ADVP (E-LOC (RB abroad)))))))))) |ET| 11:174 12:175 13:32 14:33 16:25 17:7 18:152 21:208 22:209 23:65 24:178 25:118 26:118 27:179 28:173 29:97 30:173 31:13 32:179 33:172 34:180 35:19 37:173 38:181 40:97 41:67 42:21 43:21 44:21 45:67 46:21 47:21 48:22 49:22  |EV| 
-0.12499999999996855293282749244099  |BT| (NP (PRP$ his)(NN father)) |BT| (BOW ) |BT| (BOH ) |BT| (BOH-NPs ) |BT| (LP (PRP$ *)(NP *)(NN *)) |BT| (LP-head (PRP$ *)(NP father)(NN *)) |BT| (NP (PRP$ his)(NN father)) |BT| (NP (ROOT (S (VP (PP (NP (PP (NP (E-PER (PRP$ his))(E-PER (NN father))))))(, ,)(SBAR (IN so)(S (NP (PRP it))(VP (VBD was)(ADJP (RB only)(JJ normal)(PP (IN for)(NP (DT the)(NNS discussions))))(S (VP (TO to)(VP (VB have)(NP (DT a)(JJ general)(NN tone)))))))))(: ...)))(ROOT (S (`` ``)(NP (DT This))(VP (VBD was)(NP (NP (DT the)(JJ first)(NN meeting))(PP (IN of)(NP (NP (DT the)(JJ first)(NN visit))(PP (IN of)(NP (E-PER (NNP President))(E-PER (NNP Bashar)(NNP Assad)))))))(PP (IN after)(NP (NP (DT the)(NN funeral))(PP (IN of)(NP (E-PER (PRP$ his))(E-PER (NN father)))))))))) |ET| 2:19 3:19 6:19 7:19 8:19 11:319 12:320 13:32 14:33 16:7 17:7 18:148 21:144 22:149 23:65 24:278 25:118 26:118 27:31 28:31 29:187 30:279 31:317 32:187 33:172 34:280 35:19 36:19 37:274 38:274 39:19 40:187 41:317 42:21 43:21 44:67 45:317 46:21 47:21 48:22 49:22  |EV| 
-0.12499999999996855293282749244099  |BT| (NP (PRP$ his)(NNS friends)) |BT| (BOW ) |BT| (BOH ) |BT| (BOH-NPs ) |BT| (LP (PRP$ *)(NP *)(NNS *)) |BT| (LP-head (PRP$ *)(NP friends)(NNS *)) |BT| (NP (PRP$ his)(NNS friends)) |BT| (NP (ROOT (SINV (NP (NP (SBAR (S (VP (PP (NP (E-PER (PRP$ his))(E-PER (NNS friends)))))))))(. .)))(ROOT (SINV (`` ``)(S (NP (PRP We))(VP (VBD did)(NP (PRP it))(SBAR (IN so)(S (NP (DT the)(E-PER (NNPS Jews)))(ADVP (RB never))(VP (VBP come)(ADVP (RB back)))))))(, ,)('' '')(VP (VBD said))(NP (NP (E-PER (NNP Haitham)(NNP Najid)(NNP Kabee)))(, ,)(NP (NP (CD 14))(, ,)(SBAR (WHNP (E-PER (WP who)))(S (VP (VBD vandalized)(NP (DT the)(E-FAC (NN tomb)))(PP (IN with)(NP (E-PER (PRP$ his))(E-PER (NNS friends)))))))))))) |ET| 4:19 6:19 7:19 8:19 11:2354 12:320 13:32 14:33 16:7 17:7 18:148 21:144 22:156 23:2352 24:2355 25:118 26:118 27:31 28:31 29:72 30:279 31:2227 32:72 33:2353 34:2356 35:19 36:19 37:2337 38:2337 39:19 40:72 41:2227 42:21 43:21 44:2347 45:2227 46:21 47:21 48:22 49:22  |EV| 
-0.12499999999996855293282749244099  |BT| (NP (PRP$ his)(NN nation)) |BT| (BOW ) |BT| (BOH ) |BT| (BOH-NPs ) |BT| (LP (PRP$ *)(NP *)(NN *)) |BT| (LP-head (PRP$ *)(NP nation)(NN *)) |BT| (NP (PRP$ his)(NN nation)) |BT| (NP (ROOT (S (VP (VP (S (VP (VP (VP (NP (NP (E-PER (PRP$ his))(E-GPE (NN nation))(POS 's))(E-ORG (NN bureaucracy))))(CC and)(VP (VB revive)(NP (E-GPE (PRP$ its))(JJ stagnant)(NN economy))))))))(. .)))(ROOT (S (NP (E-PER (PRP He)))(VP (VBZ has)(VP (VBN taken)(NP (NNS steps))(S (VP (TO to)(VP (VP (VB modernize)(NP (NP (E-PER (PRP$ his))(E-GPE (NN nation))))))))))))) |ET| 11:294 12:295 13:32 14:33 16:7 17:7 18:143 21:144 22:149 23:65 24:297 25:118 26:118 27:31 28:31 29:289 30:279 31:291 32:289 33:172 34:298 35:19 36:19 37:292 38:292 39:19 40:289 41:293 42:21 43:21 44:21 45:293 46:21 47:21 48:22 49:22  |EV| 
0.068438144581362228557885885038559  |BT| (NP (NP (NN group))(PP (IN of)(NP (NP (JJ undecided)(NNS voters))(VP (VBN recruited)(PP (IN by)(NP (NP (NNP NBC))(PP (IN in)(NP (NP (NNP Tampa))(, ,)(NP (NNP Fla)))))))))) |BT| (BOW (of *)(undecided *)(voters *)(recruited *)(by *)(NBC *)(in *)) |BT| (BOH (of *)(voters *)(recruited *)(by *)(NBC *)(in *)(Tampa *)) |BT| (BOH-NPs (voters *)(NBC *)(Tampa *)) |BT| (LP (NN *)(NP *)(PP *)(NP *)(VP *)(PP *)(NP *)(PP *)(NP *)(NNP *)) |BT| (LP-head (NN *)(NP group)(PP *)(NP *)(VP *)(PP *)(NP *)(PP *)(NP *)(NNP *)) |BT| (NP (NP (NN group))(PP (IN of)(NP (NP (JJ undecided)(NNS voters))(VP (VBN recruited)(PP (IN by)(NP (NP (NNP NBC))(PP (IN in)(NP (NP (NNP Tampa))(, ,)(NP (NNP Fla)))))))))) |BT| (NP (ROOT (S (S (NP (NP (E-PER (NN group)))(PP (IN of)(NP (NP (JJ undecided)(E-PER (NNS voters)))(VP (VBN recruited)(PP (IN by)(NP (NP (E-ORG (NNP NBC)))(PP (IN in)(NP (NP (E-GPE (NNP Tampa)))(, ,)(NP (E-GPE (NNP Fla))(. .))(, ,)))))))))(VP (VBD were)(VP (VBN impressed)(PP (IN with)(NP (DT both)(E-PER (NNS candidates))(NN _))))))(CC and)(, ,)(S (PP (IN with)(NP (NP (DT a)(NN non-show))(PP (IN of)(NP (NNS hands)))))(, ,)(NP (DT all))(VP (VBD indicated)(SBAR (S (NP (E-PER (PRP they)))(VP (VBD remained)(PP (IN on)(NP (DT the)(NN fence))))))))(. .)))(ROOT (S (S (NP (NP (DT A)(E-PER (NN group)))(PP (IN of)(NP (NP (JJ undecided)(E-PER (NNS voters)))(VP (VBN recruited)(PP (IN by)(NP (NP (E-ORG (NNP NBC)))(PP (IN in)(NP (NP (E-GPE (NNP Tampa)))(, ,)(NP (E-GPE (NNP Fla))))))))))))))) |ET| 1:19 11:1512 12:5 13:1495 14:1496 16:92 17:47 18:143 21:9 22:157 23:1497 24:1513 25:118 26:118 27:187 28:13 29:818 30:13 31:14 32:1511 33:1500 34:1514 37:1502 38:1515 40:21 41:21 42:1503 43:187 44:21 45:21 46:1511 47:1511 48:1484 49:106  |EV| 
0.050997288603436309595284825491035  |BT| (NP (NP (NN government))(PP (IN of)(NP (NP (JJ Milosevic)(NNS cronies))(PP (VBG including)(NP (NP (NNP Serbian))))))) |BT| (BOW (of *)(Milosevic *)) |BT| (BOH (of *)(cronies *)) |BT| (BOH-NPs (cronies *)) |BT| (LP (NN *)(NP *)(PP *)(NP *)(PP *)(NP *)(NNP *)) |BT| (LP-head (NN *)(NP government)(PP *)(NP *)(PP *)(NP *)(NNP *)) |BT| (NP (NP (NN government))(PP (IN of)(NP (NP (JJ Milosevic)(NNS cronies))(PP (VBG including)(NP (NP (NNP Serbian))))))) |BT| (NP (ROOT (S (VP (VP (PP (NP (NP (E-ORG (NN government)))(PP (IN of)(NP (NP (E-PER (JJ Milosevic))(NNS cronies))(PP (VBG including)(NP (NP (E-GPE (NNP Serbian))(E-PER (NNP President))(E-PER (NNP Milan)(NNP Milutinovic)))(VP (VBD __)(NP (NN N))(PP (IN like)(NP (E-PER (NNP Milosevic)))))(, ,)(VP (VBN indicted)(PP (IN by)(NP (DT the)(E-ORG (NN tribunal)))))))))))))(. .)))(ROOT (S (CC And)(NP (NP (E-GPE (NNP Serbia)))(, ,)(NP (DT the)(JJ main)(E-GPE (JJ Yugoslav))(E-GPE (NN republic)))(, ,))(ADVP (RB still))(VP (VBZ is)(VP (VBN run)(PP (IN by)(NP (NP (DT a)(E-ORG (NN government)))(PP (IN of)(NP (NP (E-PER (JJ Milosevic))(NNS cronies))(PP (VBG including)(NP (NP (E-GPE (NNP Serbian)))))))))))))) |ET| 11:2900 12:5 13:3091 14:3092 16:55 17:6 18:130 21:9 22:157 23:399 24:2901 25:117 26:117 27:187 28:2096 29:430 30:2096 31:460 32:2888 33:401 34:2903 37:400 38:2880 40:460 41:2861 42:2888 43:187 44:2756 45:404 46:2888 47:2888 48:22 49:187  |EV| 
0.095680848645766231053144679208344  |BT| (NNP Egyptian) |BT| (BOW ) |BT| (BOH ) |BT| (BOH-NPs (Amr *)) |BT| (LP (NNP *)(NP *)(NNP *)) |BT| (LP-head (NNP *)(NP Mussa)(NNP *)) |BT| (NNP Egyptian) |BT| (NP (ROOT (S (NP (E-GPE (NNP Egyptian))(NNP Foreign)(E-PER (NNP Minister))(E-PER (NNP Amr)(NNP Mussa)))(VP (VBD said))(. .)))(NNP Foreign)(NNP Minister)(ROOT (S (S (NP (NP (E-PER (NNP Assad)))(, ,)(PP (IN on)(NP (NP (E-PER (PRP$ his))(JJ first)(NN trip))(ADVP (E-LOC (RB abroad))(PP (IN since)(S (VP (VBG becoming)(NP (E-PER (NN president)))(PP (IN in)(NP (NNP July)))))))))(, ,))(ADVP (RB also))(VP (VBD dealt)(PP (IN with)(NP (NP (DT the)(NN issue))(PP (IN of)(NP (E-GPE (NNP Iraq))))))(PP (IN in)(NP (NP (DT the)(NNS talks))(PP (IN with)(NP (E-PER (NNP Mubarak))))))))(, ,)(NP (E-GPE (NNP Egyptian))(NNP Foreign)(E-PER (NNP Minister))(E-PER (NNP Amr)(NNP Mussa)))))) |ET| 11:203 12:204 13:68 14:5 16:25 17:6 18:35 21:9 22:10 23:71 24:205 25:1 26:1 27:200 28:206 29:13 30:206 31:75 32:200 33:74 34:207 35:19 37:196 38:196 39:19 40:75 41:75 42:202 43:21 44:98 45:72 46:202 47:21 48:22 49:22  |EV| 
-0.12499999999996855293282749244099  |BT| (S (NP (NP (NNP Wouters))(, ,)(NP (CD 42))(, ,))(VP (VBD died)(ADVP (NP (DT an)(NN hour))(RB later))(PP (IN at)(NP (NNP St.)(NNP John)(NNP Macomb)(NNP Hospital))))) |BT| (BOW (, *)(42 *)(, *)(died *)(an *)(hour *)) |BT| (BOH (died *)(hour *)(later *)(at *)) |BT| (BOH-NPs (hour *)) |BT| (LP (NNP *)(NP *)(S *)(VP *)(PP *)(NP *)(NNP *)) |BT| (LP-head (NNP *)(NP *)(S died)(VP *)(PP *)(NP *)(NNP *)) |BT| (S (NP (NP (NNP Wouters))(, ,)(NP (CD 42))(, ,))(VP (VBD died)(ADVP (NP (DT an)(NN hour))(RB later))(PP (IN at)(NP (NNP St.)(NNP John)(NNP Macomb)(NNP Hospital))))) |BT| (S (ROOT (S (NP (NP (E-PER (NNP Wouters)))(, ,)(NP (CD 42))(, ,))(VP (VBD died)(ADVP (NP (DT an)(NN hour))(RB later))(PP (IN at)(NP (E-FAC (NNP St.)(NNP John)(NNP Macomb)(NNP Hospital)))))(. .)))(ROOT (S (NP (NP (E-PER (NNP Wouters)))(, ,)(NP (CD 42))(, ,))(VP (VBD died)(ADVP (NP (DT an)(NN hour))(RB later))(PP (IN at)(NP (E-FAC (NNP St.)(NNP John)(NNP Macomb)(NNP Hospital)))))))) |ET| 11:3601 12:3602 13:3603 14:3604 16:85 17:7 18:647 21:9 22:10 23:3605 24:3606 25:118 26:118 27:13 28:921 29:14 30:921 31:3607 32:3608 33:3609 34:3610 37:3563 38:3607 40:21 41:21 42:3611 43:909 44:21 45:21 46:3611 47:921 48:22 49:3608  |EV| 
-0.12499999999996855293282749244099  |BT| (S (NP (NNP Lieberman))(, ,)(PP (IN with)(NP (NN moderator)(NNP Bernie)(NNP Shaw)))(, ,)(VP (VBD met)(PP (IN at)(NP (NP (NNP Centre)(NNP College)))))) |BT| (BOW (, *)(with *)(moderator *)(Bernie *)(Shaw *)(, *)) |BT| (BOH (with *)(Shaw *)(met *)(at *)) |BT| (BOH-NPs (Shaw *)) |BT| (LP (NNP *)(NP *)(S *)(VP *)(PP *)(NP *)(NNP *)) |BT| (LP-head (NNP *)(NP *)(S met)(VP *)(PP *)(NP *)(NNP *)) |BT| (S (NP (NNP Lieberman))(, ,)(PP (IN with)(NP (NN moderator)(NNP Bernie)(NNP Shaw)))(, ,)(VP (VBD met)(PP (IN at)(NP (NP (NNP Centre)(NNP College)))))) |BT| (S (ROOT (S (NP (E-PER (NNP Lieberman)))(, ,)(PP (IN with)(NP (E-PER (NN moderator))(E-PER (NNP Bernie)(NNP Shaw))))(, ,)(VP (VBD met)(PP (IN at)(NP (NP (E-FAC (NNP Centre)(NNP College)))(PP (IN in)(NP (NP (E-GPE (NNP Danville)))(, ,)(NP (E-GPE (NNP Ky))(. .))(, ,)))))(PP (IN for)(NP (E-PER (PRP$ their))(JJ only)(NN debate))))(. .)))(, ,)(PP (IN with)(NP (NN moderator)(NNP Bernie)(NNP Shaw)))(, ,)(ROOT (S (NP (E-PER (NNP Cheney))(CC and)(E-PER (NNP Lieberman)))(, ,)(PP (IN with)(NP (E-PER (NN moderator))(E-PER (NNP Bernie)(NNP Shaw))))(, ,)(VP (VBD met)(PP (IN at)(NP (NP (E-FAC (NNP Centre)(NNP College))))))))) |ET| 11:1616 12:1617 13:1603 14:33 16:85 17:25 18:647 21:9 22:10 23:1535 24:1618 25:118 26:118 27:13 28:921 29:242 30:921 31:1216 32:161 33:1537 34:1619 37:1242 38:1620 40:1216 41:1216 42:1609 43:72 44:21 45:21 46:1609 47:921 48:22 49:161  |EV| 
-0.12499999999996855293282749244099  |BT| (S (NP (NNP Bush))(VP (VBD said)(NP-TMP (NNP Friday))(PP (IN in)(NP (NP (NNP Cedar)(NNP Rapids)))))) |BT| (BOW (said *)) |BT| (BOH (said *)(Friday *)(in *)) |BT| (BOH-NPs (Friday *)) |BT| (LP (NNP *)(NP *)(S *)(VP *)(PP *)(NP *)(NNP *)) |BT| (LP-head (NNP *)(NP *)(S leaves)(VP *)(PP *)(NP *)(NNP *)) |BT| (S (NP (NNP Bush))(VP (VBD said)(NP-TMP (NNP Friday))(PP (IN in)(NP (NP (NNP Cedar)(NNP Rapids)))))) |BT| (S (ROOT (S (NP (E-PER (NNP Bush)))(VP (VBD said)(NP-TMP (NNP Friday))(PP (IN in)(NP (NP (E-GPE (NNP Cedar)(NNP Rapids)))(, ,)(NP (E-GPE (NNP Iowa)))))(, ,)(S (VP (VBG repeating)(SBAR (WHNP (WP what))(S (NP (E-PER (PRP he)))(VP (VBD said)(PP (IN in)(NP (NP (NNP Tuesday)(POS 's))(JJ first)(E-PER (JJ presidential))(NN debate)))))))))(. .)))(ROOT (S (S (ADVP (RB finally))(VP (VBZ leaves)))(, ,)('' '')(NP (E-PER (NNP Bush)))(VP (VBD said)(NP-TMP (NNP Friday))(PP (IN in)(NP (NP (E-GPE (NNP Cedar)(NNP Rapids))))))))) |ET| 11:1730 12:1731 13:1411 14:33 16:47 17:7 18:143 21:9 22:10 23:1412 24:1732 25:118 26:118 27:170 28:106 29:264 30:106 31:13 32:1733 33:1413 34:1734 37:1312 38:1735 40:1736 41:21 42:1733 43:170 44:21 45:1737 46:1733 47:106 48:22 49:1733  |EV| 
0.12499999999996855293282749244099  |BT| (NP (PRP$ his)(NN MVP)) |BT| (BOW ) |BT| (BOH ) |BT| (BOH-NPs ) |BT| (LP (PRP$ *)(NP *)(NN *)) |BT| (LP-head (PRP$ *)(NP credentials)(NN *)) |BT| (NP (PRP$ his)(NN MVP)) |BT| (NP (ROOT (S (VP (PP (NP (E-PER (PRP$ his))(E-PER (NN MVP))(NNS credentials))))(. .)))(ROOT (S (NP (NP (RB So)(NP (E-PER (NNS Bonds))(POS '))(NN postseason)(NNS flops))(ADVP (RB never)))(VP (VBN counted)(PP (IN against)(NP (E-PER (PRP$ his))(E-PER (NN MVP)))))))) |ET| 8:19 11:15949 12:33 13:32 14:33 16:7 17:7 18:148 21:144 22:149 23:15772 24:15950 25:118 26:118 27:31 28:31 29:594 30:279 31:14072 32:594 33:15783 34:15951 35:19 36:19 37:15970 38:15970 39:19 40:594 41:15971 42:21 43:21 44:15826 45:14072 46:21 47:21 48:22 49:22  |EV| 
0.12499999999996855293282749244099  |BT| (NP (PRP$ his)(NN wife)) |BT| (BOW ) |BT| (BOH ) |BT| (BOH-NPs ) |BT| (LP (PRP$ *)(NP *)(NN *)) |BT| (LP-head (PRP$ *)(NP wife)(NN *)) |BT| (NP (PRP$ his)(NN wife)) |BT| (NP (ROOT (S (VP (SBAR (S (S (VP (VP (SBAR (S (VP (VP (VP (VP (PP (SBAR (S (NP (E-PER (PRP$ his))(E-PER (NN wife)))(VP (VBD mailed)(NP (PRP it))(PP (IN in)(NP (E-GPE (NNP Bellevue))))))))))))))))))))(. .)))(ROOT (S (NP (NP (DT The)(E-ORG (NNP Fyens)(NNP Stiftstidende)))(, ,)(NP (DT the)(JJ main)(JJ local)(E-ORG (NN newspaper)))(, ,))(VP (VBD said)(SBAR (S (S (NP (E-ORG (PRP it)))(VP (VBD contacted)(S (NP (E-PER (NNP Forrester)))(VP (TO to)(VP (VB tell)(NP (PRP him))(NP (NP (E-PER (PRP$ his))(NN ballot))(SBAR (S (VP (VBD had)(VP (VBN landed)(PP (IN in)(NP (E-GPE (NNP Denmark))))))))))))))(CC and)(S (NP (E-PER (PRP he)))(VP (VBD did)(RB not)(VP (VB understand)(SBAR (WHADVP (WRB how))(S (NP (PRP it))(VP (MD could)(VP (VB have)(VP (VBN been)(VP (VBN postmarked)(PP (IN in)(NP (E-GPE (NNP Shaw)(NNP Island))))(, ,)(PP (NP (CD 50)(NNS miles))(IN from)(SBAR (WHADVP (E-GPE (WRB where)))(S (NP (E-PER (PRP$ his))(E-PER (NN wife))))))))))))))))))))) |ET| 6:19 7:19 8:19 11:3919 12:320 13:32 14:33 16:7 17:7 18:148 21:144 22:149 23:9465 24:3920 25:118 26:118 27:31 28:31 29:1850 30:279 31:447 32:1850 33:9466 34:3921 35:19 36:19 37:3918 38:3918 39:19 40:1850 41:1082 42:21 43:21 44:9438 45:447 46:21 47:21 48:22 49:22  |EV| 
0.12499999999996855293282749244099  |BT| (NP (PRP$ his)(NN opponent)) |BT| (BOW ) |BT| (BOH ) |BT| (BOH-NPs ) |BT| (LP (PRP$ *)(NP *)(NN *)) |BT| (LP-head (PRP$ *)(NP opponent)(NN *)) |BT| (NP (PRP$ his)(NN opponent)) |BT| (NP (ROOT (S (VP (NP (NP (E-PER (PRP$ his))(E-PER (NN opponent))(POS 's))(NN statement)))(. .)))(ROOT (S (PP (IN On)(NP (NNP Friday)))(, ,)(NP (E-PER (NNP Bush)))(VP (VBD criticized)(NP (NP (E-PER (PRP$ his))(E-PER (NN opponent)))))))) |ET| 6:19 7:19 8:19 11:1825 12:497 13:32 14:33 16:7 17:7 18:148 21:144 22:149 23:1310 24:1826 25:118 26:118 27:31 28:31 29:1823 30:279 31:1312 32:1823 33:1743 34:1827 35:19 36:19 37:1824 38:1824 39:19 40:1823 41:1312 42:21 43:21 44:1733 45:1312 46:21 47:21 48:22 49:22  |EV| 
-0.12499999999996855293282749244099  |BT| (NP (PRP$ his)(NN boss)) |BT| (BOW ) |BT| (BOH ) |BT| (BOH-NPs ) |BT| (LP (PRP$ *)(NP *)(NN *)) |BT| (LP-head (PRP$ *)(NP boss)(NN *)) |BT| (NP (PRP$ his)(NN boss)) |BT| (NP (ROOT (S (VP (SBAR (S (NP (E-PER (PRP$ his))(E-PER (NN boss)))(VP (VBD was)(VP (VBG trying)(S (VP (TO to)(VP (VB get)(S (NP (E-GPE (NNP Moscow)))(VP (TO to)(VP (VB step)(PP (IN in)))))))))))))(. .)))(ROOT (S (NP (NP (NP (E-GPE (NNP WASHINGTON)))(PRN (-LRB- -LRB-)(NP (NNP AP))(-RRB- -RRB-)))(SBAR (S (NP (CD __)(E-PER (NNPS Republicans)))(VP (VBP give)(NP (E-PER (NNP George)(NNP W.)(NNP Bush)))(NP (NP (NN credit))(PP (IN for)(S (VP (VBG promoting)(NP (DT a)(E-GPE (JJ Russian))(NN role))(PP (IN in)(S (VP (VBG smoothing)(NP (DT the)(NN transition))(PP (IN from)(NP (E-PER (NN despot))))(PP (TO to)(NP (NP (E-PER (NN democrat)))(PP (IN in)(NP (E-GPE (NNP Yugoslavia)))))))))))))))))(VP (VBD _)(NP (NP (DT an)(NN idea))(VP (VBN dismissed)(PP (IN in)(NP (NN debate)))(PP (IN as)(ADJP (JJ risky)))(PP (IN by)(NP (E-PER (NNP Al)(NNP Gore))))))(SBAR (RB even)(IN as)(S (NP (E-PER (PRP$ his))(E-PER (NN boss))))))))) |ET| 6:19 7:19 8:19 11:1675 12:320 13:32 14:33 16:7 17:7 18:148 21:144 22:149 23:1671 24:1676 25:118 26:118 27:31 28:31 29:49 30:279 31:1672 32:49 33:1673 34:1677 35:19 36:19 37:1674 38:1674 39:19 40:1318 41:1318 42:21 43:21 44:1690 45:1690 46:21 47:21 48:22 49:22  |EV| 
-0.12499999999996855293282749244099  |BT| (NP (PRP$ his)(NN colleague)) |BT| (BOW ) |BT| (BOH ) |BT| (BOH-NPs ) |BT| (LP (PRP$ *)(NP *)(NN *)) |BT| (LP-head (PRP$ *)(NP colleague)(NN *)) |BT| (NP (PRP$ his)(NN colleague)) |BT| (NP (ROOT (SINV (NP (NP (E-PER (PRP$ his))(E-PER (NN colleague)))(, ,)(NP (E-PER (NNP Fred)(NNP Barnes))))(. .)))(ROOT (SINV (`` ``)(S (ADVP (RB Maybe))(NP (E-PER (NN somebody)))(VP (MD could)(VP (VP (VB have)(VP (VBN given)(NP (DT the)(E-PER (NNS candidates)))(NP (DT a)(JJ hot)(NN foot))))(CC or)(VP (VB put)(NP (DT a)(NN joy)(NN buzzer))(PP (IN on)(NP (E-PER (PRP$ their))(NN seat)))))))(, ,)('' '')(VP (VBD said))(NP (NP (E-PER (PRP$ his))(E-PER (NN colleague))))))) |ET| 6:19 7:19 8:19 11:1387 12:1388 13:32 14:33 16:7 17:7 18:148 21:144 22:149 23:1385 24:1288 25:118 26:118 27:31 28:31 29:170 30:279 31:264 32:170 33:1386 34:1292 35:19 36:19 37:1293 38:1293 39:19 40:170 41:1383 42:21 43:21 44:1381 45:1383 46:21 47:21 48:22 49:22  |EV| 
-0.12499999999996855293282749244099  |BT| (NP (PRP$ his)(NN father)) |BT| (BOW ) |BT| (BOH ) |BT| (BOH-NPs ) |BT| (LP (PRP$ *)(NP *)(NN *)) |BT| (LP-head (PRP$ *)(NP father)(NN *)) |BT| (NP (PRP$ his)(NN father)) |BT| (NP (ROOT (S (VP (VP (VP (SBAR (S (VP (PP (NP (E-PER (PRP$ his))(E-PER (NN father))))))))))(. .)))(ROOT (S (SBAR (IN If)(S (NP (E-PER (NNP Tommy)))(VP (VBZ opts)(PP (IN for)(NP (NP (DT a)(JJ judicial)(NN review))(PP (IN of)(NP (DT the)(NN case))))))))(, ,)(NP (E-PER (PRP$ his))(NN fate))(VP (MD will)(VP (VB be)(VP (VBN decided)(PP (IN by)(NP (DT the)(JJ same)(E-ORG (NN court))))(SBAR (E-ORG (IN that))(S (NP-TMP (JJ last)(NN week))(VP (VBD dismissed)(NP (NN graft)(NNS charges))(PP (IN against)(NP (E-PER (PRP$ his))(E-PER (NN father))))))))))))) |ET| 2:19 3:19 6:19 7:19 8:19 11:319 12:320 13:32 14:33 16:7 17:7 18:148 21:144 22:149 23:882 24:278 25:118 26:118 27:31 28:31 29:594 30:279 31:781 32:594 33:883 34:280 35:19 36:19 37:274 38:274 39:19 40:594 41:781 42:21 43:21 44:725 45:781 46:21 47:21 48:22 49:22  |EV| 
0.053843318819138445696648176408416  |BT| (S (NP (NNP Bush))(VP (VBD said)(NP-TMP (NNP Friday))(PP (IN in)(NP (NP (NNP Cedar)(NNP Rapids))(, ,)(NP (NNP Iowa)))))) |BT| (BOW (said *)(Friday *)(in *)(Cedar *)) |BT| (BOH (said *)(Friday *)(in *)(Rapids *)) |BT| (BOH-NPs (Friday *)(Rapids *)) |BT| (LP (NNP *)(NP *)(S *)(VP *)(PP *)(NP *)(NNP *)) |BT| (LP-head (NNP *)(NP *)(S leaves)(VP *)(PP *)(NP *)(NNP *)) |BT| (S (NP (NNP Bush))(VP (VBD said)(NP-TMP (NNP Friday))(PP (IN in)(NP (NP (NNP Cedar)(NNP Rapids))(, ,)(NP (NNP Iowa)))))) |BT| (S (ROOT (S (NP (E-PER (NNP Bush)))(VP (VBD said)(NP-TMP (NNP Friday))(PP (IN in)(NP (NP (E-GPE (NNP Cedar)(NNP Rapids)))(, ,)(NP (E-GPE (NNP Iowa)))))(, ,)(S (VP (VBG repeating)(SBAR (WHNP (WP what))(S (NP (E-PER (PRP he)))(VP (VBD said)(PP (IN in)(NP (NP (NNP Tuesday)(POS 's))(JJ first)(E-PER (JJ presidential))(NN debate)))))))))(. .)))(ROOT (S (S (ADVP (RB finally))(VP (VBZ leaves)))(, ,)('' '')(NP (E-PER (NNP Bush)))(VP (VBD said)(NP-TMP (NNP Friday))(PP (IN in)(NP (NP (E-GPE (NNP Cedar)(NNP Rapids)))(, ,)(NP (E-GPE (NNP Iowa))))))))) |ET| 11:1738 12:5 13:1411 14:33 16:70 17:6 18:143 21:9 22:10 23:1412 24:1739 25:118 26:118 27:170 28:13 29:264 30:13 31:13 32:1735 33:1413 34:1740 37:1312 38:1741 40:1736 41:21 42:1733 43:170 44:21 45:1737 46:1735 47:1735 48:1733 49:106  |EV| 
0.037684036992964464740651919782977  |BT| (NNP CBS) |BT| (BOW ) |BT| (BOH ) |BT| (BOH-NPs (Dan *)) |BT| (LP (NNP *)(NP *)(NNP *)) |BT| (LP-head (NNP *)(NP Rather)(NNP *)) |BT| (NNP CBS) |BT| (NP (ROOT (SINV (NP (E-ORG (NNP CBS))(E-PER (NN anchor))(E-PER (NNP Dan)(NNP Rather)))(. .)))(NN anchor)(ROOT (SINV (`` ``)(S (S (VP (VB Give)(NP (PRP it)(DT a))))(VP (VBP rave)))(, ,)('' '')(VP (VBD said))(NP (E-ORG (NNP CBS))(E-PER (NN anchor))(E-PER (NNP Dan)(NNP Rather)))))) |ET| 5:19 11:1278 12:1279 13:1270 14:24 16:6 17:7 18:126 21:9 22:10 23:1271 24:1280 25:117 26:117 27:1281 28:1281 29:170 30:1281 31:264 32:1273 33:1274 34:1282 35:19 37:1276 38:1276 39:19 40:170 41:21 42:1283 43:21 44:21 45:1277 46:1283 47:21 48:22 49:22  |EV| 
-0.12499999999996855293282749244099  |BT| (NP (NP (NN regime))(PP (IN of)(NP (NNP Yugoslav)(NNP President)(NNP Slobodan)(NNP Milosevic)))) |BT| (BOW (of *)) |BT| (BOH (of *)) |BT| (BOH-NPs (Slobodan *)) |BT| (LP (NN *)(NP *)(PP *)(NP *)(NNP *)) |BT| (LP-head (NN *)(NP regime)(PP *)(NP *)(NNP *)) |BT| (NP (NP (NN regime))(PP (IN of)(NP (NNP Yugoslav)(NNP President)(NNP Slobodan)(NNP Milosevic)))) |BT| (NP (ROOT (S (VP (NP (SBAR (S (VP (VP (S (VP (VP (NP (NP (E-ORG (NN regime)))(PP (IN of)(NP (E-GPE (NNP Yugoslav))(E-PER (NNP President))(E-PER (NNP Slobodan)(NNP Milosevic))))))))))))))(. .)))(ROOT (S (NP (E-PER (NNP Clinton)))(VP (VBD announced)(NP (NP (DT the)(JJ immediate)(NN ending))(PP (IN of)(NP (NP (DT the)(NN oil)(NN embargo))(CC and)(NP (NN flight)(NN ban))))(SBAR (WHNP (WDT that))(S (VP (VBD were)(VP (VBN imposed)(PP (IN in)(NP (CD 1998)))(S (VP (TO to)(VP (VB punish)(CC and)(VB isolate)(NP (NP (DT the)(E-ORG (NN regime)))(PP (IN of)(NP (E-GPE (NNP Yugoslav))(E-PER (NNP President))(E-PER (NNP Slobodan)(NNP Milosevic))))))))))))))))) |ET| 5:19 11:3714 12:3715 13:3705 14:3706 16:47 17:25 18:126 21:9 22:157 23:3707 24:1760 25:117 26:117 27:187 28:87 29:105 30:87 31:3274 32:3135 33:3709 34:1761 37:3710 38:1721 40:3274 41:3712 42:1774 43:187 44:3716 45:3717 46:1774 47:187 48:22 49:22  |EV| 
-0.12499999999996855293282749244099  |BT| (S (NP (NN officer))(VP (VBZ has)(VP (VBN been)(VP (VBN killed)(PP (IN in)(NP (NP (DT the)(NN line))(PP (IN of)(NP (NN duty)))))(PP (IN in)(NP (NP (NNP Warren)))))))) |BT| (BOW (has *)(been *)(killed *)(in *)(the *)(line *)(of *)) |BT| (BOH (has *)(been *)(killed *)(in *)(line *)(of *)(duty *)(in *)) |BT| (BOH-NPs (line *)(duty *)) |BT| (LP (NN *)(NP *)(S *)(VP *)(PP *)(NP *)(NNP *)) |BT| (LP-head (NN *)(NP *)(S has)(VP *)(PP *)(NP *)(NNP *)) |BT| (S (NP (NN officer))(VP (VBZ has)(VP (VBN been)(VP (VBN killed)(PP (IN in)(NP (NP (DT the)(NN line))(PP (IN of)(NP (NN duty)))))(PP (IN in)(NP (NP (NNP Warren)))))))) |BT| (S (ROOT (S (VP (SBAR (S (NP (E-PER (NN officer)))(VP (VBZ has)(VP (VBN been)(VP (VBN killed)(PP (IN in)(NP (NP (DT the)(NN line))(PP (IN of)(NP (NN duty)))))(PP (IN in)(NP (NP (E-GPE (NNP Warren)))(, ,)(NP (DT a)(JJ large)(JJ blue-collar)(E-GPE (NNP Detroit))(E-GPE (NN suburb)))))))))))(. .)))(ROOT (S (NP (PRP It))(VP (VBD was)(NP (NP (DT the)(JJ first)(NN time))(PP (IN since)(NP (CD 1969))))(SBAR (IN that)(S (NP (DT an)(E-PER (NN officer)))(VP (VBZ has)(VP (VBN been)(VP (VBN killed)(PP (IN in)(NP (NP (DT the)(NN line))(PP (IN of)(NP (NN duty)))))(PP (IN in)(NP (NP (E-GPE (NNP Warren)))))))))))))) |ET| 1:19 11:3648 12:3649 13:3650 14:3651 16:92 17:7 18:143 21:9 22:157 23:3530 24:3569 25:118 26:118 27:275 28:106 29:369 30:106 31:887 32:3652 33:3531 34:3570 37:3532 38:3572 40:184 41:2501 42:3653 43:275 44:21 45:2501 46:3652 47:106 48:3653 49:3652  |EV| 
-0.12499999999996855293282749244099  |BT| (S (X (NP (NP (NN son))(PP (IN of)(NP (NN ex-dictator)))))(NP (NNP Suharto))) |BT| (BOW ) |BT| (BOH (of *)(ex-dictator *)) |BT| (BOH-NPs (ex-dictator *)) |BT| (LP (NN *)(NP *)(X *)(S *)(NP *)(NNP *)) |BT| (LP-head (NN *)(NP *)(X *)(S disobeyed)(NP *)(NNP *)) |BT| (S (X (NP (NP (NN son))(PP (IN of)(NP (NN ex-dictator)))))(NP (NNP Suharto))) |BT| (S (ROOT (S (X (NP (NP (E-PER (NN son)))(PP (IN of)(NP (E-PER (NN ex-dictator))))))(NP (E-PER (NNP Suharto)))(VP (VBD disobeyed)(NP (DT a)(NN summons)(S (VP (TO to)(VP (VP (VB surrender)(NP (E-PER (PRP himself)))(PP (TO to)(NP (E-PER (NNS prosecutors))))(NP-TMP (NNP Monday)))(CC and)(VP (VB be)(VP (VBN imprisoned)(PP (IN for)(NP (NN corruption))))))))))(. .)))(ROOT (S (NP (E-GPE (NNP JAKARTA)))(, ,)(X (NP (NP (E-GPE (NNP Indonesia)))(NP (E-ORG (-LRB- -LRB-)(NNP AP))(-RRB- -RRB-)))(NP (CD _))(NP (NP (DT The)(JJS youngest)(E-PER (NN son)))(PP (IN of)(NP (E-PER (NN ex-dictator))))))(NP (E-PER (NNP Suharto)))))) |ET| 6:19 11:626 12:33 13:616 14:617 16:25 17:6 18:148 21:9 22:157 23:618 24:627 25:118 26:118 27:187 28:625 29:619 30:625 31:220 32:187 33:620 34:628 37:621 38:629 40:43 41:43 42:625 43:187 44:615 45:615 46:625 47:625 48:22 49:187  |EV| 
0.12499999999996855293282749244099  |BT| (NP (PRP$ his)(NN republic)) |BT| (BOW ) |BT| (BOH ) |BT| (BOH-NPs ) |BT| (LP (PRP$ *)(NP *)(NN *)) |BT| (LP-head (PRP$ *)(NP republic)(NN *)) |BT| (NP (PRP$ his)(NN republic)) |BT| (NP (ROOT (NP (NP (PP (NP (NP (E-PER (PRP$ his))(E-GPE (NN republic)))(CC and)(PRN (, ,)(ADVP (RB indirectly))(, ,))(NP (NP (RB much))(PP (IN of)(NP (NP (DT the)(NN republic)(POS 's))(NN economy)))))))(. .)))(ROOT (NP (NP (E-PER (JJ Milutinovic))(NNS controls))(NP (NP (QP (RB approximately)(CD 100,000))(E-PER (NNS policemen)))(PP (IN in)(NP (NP (E-PER (PRP$ his))(E-GPE (NN republic))))))))) |ET| 11:3148 12:3149 13:32 14:33 16:7 17:7 18:143 21:144 22:149 23:2753 24:2858 25:118 26:118 27:31 28:31 29:106 30:279 31:3147 32:106 33:2756 34:2860 35:19 36:19 37:2861 38:2861 39:19 40:106 41:3147 42:21 43:21 44:2952 45:3147 46:21 47:21 48:22 49:22  |EV| 
0.079940507709378147427337069075293  |BT| (NP (PRP$ his)(NN country)) |BT| (BOW ) |BT| (BOH ) |BT| (BOH-NPs ) |BT| (LP (PRP$ *)(NP *)(NN *)) |BT| (LP-head (PRP$ *)(NP southwest)(NN *)) |BT| (NP (PRP$ his)(NN country)) |BT| (NP (ROOT (S (VP (PP (NP (NP (E-PER (PRP$ his))(E-LOC (NN country))(E-FAC (NN house))(NN southwest))(PP (IN of)(NP (E-GPE (NNP Santiago)))))))(. .)))(ROOT (S (NP (E-PER (NNP Pinochet)))(, ,)(ADVP (RB meanwhile))(, ,)(VP (VBD remained)(PP (IN at)(NP (NP (E-PER (PRP$ his))(E-LOC (NN country))))))))) |ET| 11:12171 12:90 13:32 14:33 16:7 17:7 18:152 21:144 22:149 23:2800 24:1986 25:118 26:118 27:31 28:31 29:921 30:279 31:9483 32:921 33:2801 34:1988 35:19 36:19 37:12169 38:12169 39:19 40:921 41:12110 42:21 43:21 44:21 45:9483 46:21 47:21 48:22 49:22  |EV| 
0.0041899900640228193715586257894756  |BT| (S (NP (NP (NP (NNP Rosalinda)(NNP Arebalo))(PP (IN of)(NP (VBG neighboring)(NNP Matamoros))))(, ,)(NP (NNP Mexico))(, ,))(VP (VBD said)(ADVP (RB flatly))(PP (IN of)(NP (NP (NNP Fox)))))) |BT| (BOW (of *)(neighboring *)(Matamoros *)(, *)(Mexico *)(, *)(said *)) |BT| (BOH (of *)(Matamoros *)(Mexico *)(said *)(flatly *)(of *)) |BT| (BOH-NPs (Matamoros *)(Mexico *)) |BT| (LP (NNP *)(NP *)(S *)(VP *)(PP *)(NP *)(NNP *)) |BT| (LP-head (NNP *)(NP *)(S will)(VP *)(PP *)(NP *)(NNP *)) |BT| (S (NP (NP (NP (NNP Rosalinda)(NNP Arebalo))(PP (IN of)(NP (VBG neighboring)(NNP Matamoros))))(, ,)(NP (NNP Mexico))(, ,))(VP (VBD said)(ADVP (RB flatly))(PP (IN of)(NP (NP (NNP Fox)))))) |BT| (S (ROOT (S (NP (NP (NP (E-PER (NNP Rosalinda)(NNP Arebalo)))(PP (IN of)(NP (VBG neighboring)(E-GPE (NNP Matamoros)))))(, ,)(NP (E-GPE (NNP Mexico)))(, ,))(VP (VBD said)(ADVP (RB flatly))(PP (IN of)(NP (NP (E-PER (NNP Fox))(POS 's))(NN dream))))(. .)))(ROOT (S (`` ``)(S (NP (PRP It))(VP (MD will)(ADVP (RB never))(VP (VB happen))))(, ,)('' '')(NP (NP (NP (E-PER (NNP Rosalinda)(NNP Arebalo)))(PP (IN of)(NP (VBG neighboring)(E-GPE (NNP Matamoros)))))(, ,)(NP (E-GPE (NNP Mexico)))(, ,))(VP (VBD said)(ADVP (RB flatly))(PP (IN of)(NP (NP (E-PER (NNP Fox))))))))) |ET| 11:11592 12:742 13:11583 14:11584 16:92 17:25 18:148 21:9 22:10 23:11585 24:6568 25:118 26:118 27:187 28:187 29:264 30:187 31:13 32:11593 33:11587 34:6570 37:11589 38:6505 40:11591 41:21 42:11590 43:187 44:21 45:2357 46:2127 47:187 48:11590 49:11593  |EV| 
-0.12499999999996855293282749244099  |BT| (NP (PRP$ his)(NN father)) |BT| (BOW ) |BT| (BOH ) |BT| (BOH-NPs ) |BT| (LP (PRP$ *)(NP *)(NN *)) |BT| (LP-head (PRP$ *)(NP father)(NN *)) |BT| (NP (PRP$ his)(NN father)) |BT| (NP (ROOT (S (VP (SBAR (S (NP (VP (SBAR (S (NP (E-PER (PRP$ his))(E-PER (NN father)))(VP (VBD was)(ADVP (RB still))(PP (IN in)(NP (NN power)))))))(, ,))(VP (VBD had)(VP (VBN cost)(NP (DT the)(E-GPE (JJ Indonesian))(E-GPE (NN state)))(NP ($ $)(QP (CD 10.8)(CD million))))))))(. .)))(ROOT (S (NP (E-PER (NNS Prosecutors)))(VP (VBD said)(SBAR (S (NP (NP (DT the)(CD 1997)(NN deal))(, ,)(VP (VBN made)(SBAR (WHADVP (WRB when))(S (NP (E-PER (PRP$ his))(E-PER (NN father))))))))))))) |ET| 2:19 3:19 6:19 7:19 8:19 11:319 12:320 13:32 14:33 16:7 17:7 18:148 21:144 22:149 23:683 24:278 25:118 26:118 27:31 28:31 29:503 30:279 31:708 32:503 33:688 34:280 35:19 36:19 37:274 38:274 39:19 40:503 41:696 42:21 43:21 44:710 45:708 46:21 47:21 48:22 49:22  |EV| 
-0.12499999999996855293282749244099  |BT| (NP (PRP$ his)(NN father)) |BT| (BOW ) |BT| (BOH ) |BT| (BOH-NPs ) |BT| (LP (PRP$ *)(NP *)(NN *)) |BT| (LP-head (PRP$ *)(NP father)(NN *)) |BT| (NP (PRP$ his)(NN father)) |BT| (NP (ROOT (S (VP (VP (S (SBAR (S (VP (S (VP (VP (NP (NP (E-PER (PRP$ his))(E-PER (NN father))(POS 's))(NN course))(PP (IN in)(NP (DT any)(NNS negotiations)))(PP (IN with)(NP (E-GPE (NNP Israel)))))))))))))(. .)))(ROOT (S (NP (E-PER (NNP Assad)))(VP (VBZ has)(VP (VBN made)(S (NP (PRP it))(ADJP (JJ clear))(SBAR (S (NP (E-PER (PRP he)))(VP (VBZ intends)(S (VP (TO to)(VP (VB follow)(NP (NP (E-PER (PRP$ his))(E-PER (NN father)))))))))))))))) |ET| 2:19 3:19 6:19 7:19 8:19 11:496 12:497 13:32 14:33 16:7 17:7 18:148 21:144 22:149 23:65 24:278 25:118 26:118 27:31 28:31 29:494 30:279 31:291 32:494 33:172 34:280 35:19 36:19 37:274 38:274 39:19 40:494 41:67 42:21 43:21 44:21 45:495 46:21 47:21 48:22 49:22  |EV| 
0.12499999999996855293282749244099  |BT| (S (NP (NN officer))(VP (VBZ has)(VP (VBN been)(VP (VBN killed)(PP (IN in)(NP (NP (DT the)(NN line))(PP (IN of)(NP (NN duty)))))(PP (IN in)(NP (NP (NNP Warren)))))))) |BT| (BOW (has *)(been *)(killed *)(in *)(the *)(line *)(of *)) |BT| (BOH (has *)(been *)(killed *)(in *)(line *)(of *)(duty *)(in *)) |BT| (BOH-NPs (line *)(duty *)) |BT| (LP (NN *)(NP *)(S *)(VP *)(PP *)(NP *)(NNP *)) |BT| (LP-head (NN *)(NP *)(S has)(VP *)(PP *)(NP *)(NNP *)) |BT| (S (NP (NN officer))(VP (VBZ has)(VP (VBN been)(VP (VBN killed)(PP (IN in)(NP (NP (DT the)(NN line))(PP (IN of)(NP (NN duty)))))(PP (IN in)(NP (NP (NNP Warren)))))))) |BT| (S (ROOT (S (VP (SBAR (S (NP (E-PER (NN officer)))(VP (VBZ has)(VP (VBN been)(VP (VBN killed)(PP (IN in)(NP (NP (DT the)(NN line))(PP (IN of)(NP (NN duty)))))(PP (IN in)(NP (NP (E-GPE (NNP Warren)))(, ,)(NP (DT a)(JJ large)(JJ blue-collar)(E-GPE (NNP Detroit))(E-GPE (NN suburb)))))))))))(. .)))(ROOT (S (NP (PRP It))(VP (VBD was)(NP (NP (DT the)(JJ first)(NN time))(PP (IN since)(NP (CD 1969))))(SBAR (IN that)(S (NP (DT an)(E-PER (NN officer)))(VP (VBZ has)(VP (VBN been)(VP (VBN killed)(PP (IN in)(NP (NP (DT the)(NN line))(PP (IN of)(NP (NN duty)))))(PP (IN in)(NP (NP (E-GPE (NNP Warren)))))))))))))) |ET| 1:19 11:3648 12:3649 13:3650 14:3651 16:92 17:7 18:143 21:9 22:157 23:3530 24:3569 25:118 26:118 27:275 28:106 29:369 30:106 31:887 32:3652 33:3531 34:3570 37:3532 38:3572 40:184 41:2501 42:3653 43:275 44:21 45:2501 46:3652 47:106 48:3653 49:3652  |EV| 
0.049365160470089375355229321939987  |BT| (S (NP (NNP Lieberman))(, ,)(PP (IN with)(NP (NN moderator)(NNP Bernie)(NNP Shaw)))(, ,)(VP (VBD met)(PP (IN at)(NP (NP (NNP Centre)(NNP College))(PP (IN in)(NP (NP (NNP Danville)))))))) |BT| (BOW (, *)(with *)(moderator *)(Bernie *)(Shaw *)(, *)(met *)(at *)(Centre *)) |BT| (BOH (with *)(Shaw *)(met *)(at *)(College *)(in *)) |BT| (BOH-NPs (Shaw *)(College *)) |BT| (LP (NNP *)(NP *)(S *)(VP *)(PP *)(NP *)(PP *)(NP *)(NNP *)) |BT| (LP-head (NNP *)(NP *)(S met)(VP *)(PP *)(NP *)(PP *)(NP *)(NNP *)) |BT| (S (NP (NNP Lieberman))(, ,)(PP (IN with)(NP (NN moderator)(NNP Bernie)(NNP Shaw)))(, ,)(VP (VBD met)(PP (IN at)(NP (NP (NNP Centre)(NNP College))(PP (IN in)(NP (NP (NNP Danville)))))))) |BT| (S (ROOT (S (NP (E-PER (NNP Lieberman)))(, ,)(PP (IN with)(NP (E-PER (NN moderator))(E-PER (NNP Bernie)(NNP Shaw))))(, ,)(VP (VBD met)(PP (IN at)(NP (NP (E-FAC (NNP Centre)(NNP College)))(PP (IN in)(NP (NP (E-GPE (NNP Danville)))(, ,)(NP (E-GPE (NNP Ky))(. .))(, ,)))))(PP (IN for)(NP (E-PER (PRP$ their))(JJ only)(NN debate))))(. .)))(, ,)(PP (IN with)(NP (NN moderator)(NNP Bernie)(NNP Shaw)))(, ,)(ROOT (S (NP (E-PER (NNP Cheney))(CC and)(E-PER (NNP Lieberman)))(, ,)(PP (IN with)(NP (E-PER (NN moderator))(E-PER (NNP Bernie)(NNP Shaw))))(, ,)(VP (VBD met)(PP (IN at)(NP (NP (E-FAC (NNP Centre)(NNP College)))(PP (IN in)(NP (NP (E-GPE (NNP Danville))))))))))) |ET| 11:1621 12:1622 13:1603 14:33 16:112 17:47 18:143 21:9 22:10 23:1535 24:1623 25:118 26:118 27:13 28:106 29:242 30:106 31:1216 32:1620 33:1537 34:1624 37:1242 38:1625 40:1216 41:1216 42:1609 43:72 44:21 45:21 46:1620 47:106 48:1609 49:1620  |EV| 
0.12407874086052764206478116193466  |BT| (NP (NP (NNS backers))(PP (IN of)(NP (JJ former)(NN leader)(NNP Slobodan)(NNP Milosevic)))) |BT| (BOW (of *)) |BT| (BOH (of *)) |BT| (BOH-NPs (Slobodan *)) |BT| (LP (NNS *)(NP *)(PP *)(NP *)(NNP *)) |BT| (LP-head (NNS *)(NP backers)(PP *)(NP *)(NNP *)) |BT| (NP (NP (NNS backers))(PP (IN of)(NP (JJ former)(NN leader)(NNP Slobodan)(NNP Milosevic)))) |BT| (NP (ROOT (NP (NP (PP (NP (PP (NP (PP (NP (NP (PP (NP (VP (PP (NP (PP (S (VP (NP (SBAR (S (VP (S (VP (VP (NP (NP (E-PER (NNS backers)))(PP (IN of)(NP (JJ former)(E-PER (NN leader))(E-PER (NNP Slobodan)(NNP Milosevic))))))))))))))))))))))))))))(. .)))(ROOT (NP (NP (NP (E-GPE (NNP BELGRADE))(, ,)(E-GPE (NNP Yugoslavia)))(PRN (-LRB- -LRB-)(NP (NNP AP))(-RRB- -RRB-)))(NP (NP (CD __)(NN N))(PP (IN With)(NP (NP (E-PER (NNP Vojislav)(NNP Kostunica)))(PP (IN in)(NP (NP (NN office))(PP (IN as)(NP (NP (E-PER (NN president)))(, ,)(NP (NP (E-PER (NNS backers)))(PP (IN of)(NP (NP (DT the)(JJ pro-democracy)(E-PER (NN leader)))(VP (VBN embarked)(NP-TMP (NNP Sunday))(PP (IN on)(NP (NP (DT the)(ADJP (RB potentially)(JJ volatile))(NN task))(PP (IN of)(S (VP (VBG forming)(NP (NP (DT a)(E-ORG (NN government)))(SBAR (WHNP (E-ORG (WDT that)))(S (VP (VBZ tries)(S (VP (TO to)(VP (VB exclude)(NP (NP (E-PER (NNS backers)))(PP (IN of)(NP (JJ former)(E-PER (NN leader))(E-PER (NNP Slobodan)(NNP Milosevic))))))))))))))))))))))))))))))) |ET| 11:3064 12:3065 13:3052 14:797 16:47 17:6 18:148 21:9 22:324 23:3053 24:1760 25:118 26:118 27:187 28:224 29:3062 30:224 31:291 32:2098 33:3054 34:1761 37:3055 38:1721 40:3062 41:400 42:1774 43:187 44:3061 45:3063 46:1774 47:187 48:22 49:22  |EV| 
-0.12499999999996855293282749244099  |BT| (NP (NP (NNP Carnegie)(NNP Hero)(NNP Fund)(NNP Commission))(, ,)(VP (VBN established)(PP (IN in)(NP (CD 1904)))(PP (IN by)(NP (NNP Andrew)(NNP Carnegie))))) |BT| (BOW (, *)(established *)(in *)) |BT| (BOH (established *)(in *)(by *)) |BT| (BOH-NPs (Fund *)) |BT| (LP (NNP *)(NP *)(VP *)(PP *)(NP *)(NNP *)) |BT| (LP-head (NNP *)(NP Commission)(VP *)(PP *)(NP *)(NNP *)) |BT| (NP (NP (NNP Carnegie)(NNP Hero)(NNP Fund)(NNP Commission))(, ,)(VP (VBN established)(PP (IN in)(NP (CD 1904)))(PP (IN by)(NP (NNP Andrew)(NNP Carnegie))))) |BT| (NP (ROOT (S (VP (VP (PP (NP (NP (E-ORG (NNP Carnegie)(NNP Hero)(NNP Fund)(NNP Commission)))(, ,)(VP (VBN established)(PP (IN in)(NP (CD 1904)))(PP (IN by)(NP (E-PER (NNP Andrew)(NNP Carnegie))))(S (VP (TO to)(VP (VB recognize)(NP (NP (NNS acts))(PP (IN of)(NP (NN heroism))))))))))))(. .)))(, ,)(ROOT (S (NP (NP (E-PER (NNP Cecil)(NNP Brinkley)))(, ,)(NP (DT the)(NN assistant)(E-PER (NN principal)))(, ,))(VP (VBD was)(VP (VBN honored)(NP-TMP (JJ last)(NN week))(PP (IN by)(NP (DT the)(E-GPE (NNP Pittsburgh))))(: -)(PP (VBN based)(NP (NP (E-ORG (NNP Carnegie)(NNP Hero)(NNP Fund)(NNP Commission)))(, ,)(VP (VBN established)(PP (IN in)(NP (CD 1904)))(PP (IN by)(NP (E-PER (NNP Andrew)(NNP Carnegie)))))))))))) |ET| 5:19 11:1197 12:1198 13:1191 14:1192 16:64 17:7 18:126 21:9 22:10 23:1193 24:1199 25:117 26:117 27:13 28:460 29:1194 30:460 31:405 32:1200 33:1195 34:1201 37:1196 38:1202 40:1190 41:1190 42:1203 43:1204 44:432 45:460 46:1203 47:460 48:22 49:106  |EV| 
-0.12499999999996855293282749244099  |BT| (S (NP (PRP they))(VP (VBP are)(VP (VBN allied)(PP (IN with)(NP (DT the)(JJ ultranationalist)(NNP Radical)(NNP Party)))))) |BT| (BOW (are *)(allied *)(with *)) |BT| (BOH (are *)(allied *)(with *)) |BT| (BOH-NPs (Radical *)) |BT| (LP (PRP *)(NP *)(S *)(VP *)(PP *)(NP *)(NNP *)) |BT| (LP-head (PRP *)(NP *)(S are)(VP *)(PP *)(NP *)(NNP *)) |BT| (S (NP (PRP they))(VP (VBP are)(VP (VBN allied)(PP (IN with)(NP (DT the)(JJ ultranationalist)(NNP Radical)(NNP Party)))))) |BT| (S (ROOT (S (VP (NP (PP (NP (PP (NP (SBAR (S (NP (E-ORG (PRP they)))(VP (VBP are)(VP (VBN allied)(PP (IN with)(NP (DT the)(JJ ultranationalist)(E-ORG (NNP Radical)(NNP Party))))))))))))))(. .)))(ROOT (S (PP (IN Despite)(NP (NP (JJ massive))(SBAR (S (VP (VBZ defeats)(PP (IN in)(NP (NP (DT the)(JJ presidential)(NN ballot))(CC and)(NP (JJ local)(E-ORG (NN council))(NNS elections)))))))))(, ,)(NP (DT the)(E-ORG (NNPS Socialists)))(ADVP (RB still))(VP (VBP have)(NP (NP (DT a)(NN majority))(PP (IN in)(NP (NP (DT the)(NN state)(E-ORG (NN legislature)))(PP (IN of)(NP (NP (E-GPE (NNP Serbia)))(, ,)(NP (NP (E-GPE (NNP Yugoslavia))(POS 's))(JJ dominant)(E-GPE (NN republic)))(, ,)(SBAR (WHADVP (E-ORG (WRB where)))(S (NP (E-ORG (PRP they)))(VP (VBP are)(VP (VBN allied)(PP (IN with)(NP (DT the)(JJ ultranationalist)(E-ORG (NNP Radical)(NNP Party))))))))))))))))) |ET| 11:2864 12:2865 13:574 14:24 16:64 17:7 18:435 21:144 22:380 23:2862 24:2866 25:117 26:117 27:579 28:2867 29:1850 30:2867 31:13 32:105 33:2863 34:2868 37:2845 38:2662 40:1850 41:2861 42:2869 43:579 44:1668 45:2861 46:2869 47:72 48:22 49:2870  |EV| 
-0.12499999999996855293282749244099  |BT| (NP (NP (NNS backers))(PP (IN of)(NP (NP (DT the)(JJ pro-democracy)(NN leader))))) |BT| (BOW (of *)) |BT| (BOH (of *)) |BT| (BOH-NPs ) |BT| (LP (NNS *)(NP *)(PP *)(NP *)(NN *)) |BT| (LP-head (NNS *)(NP backers)(PP *)(NP *)(NN *)) |BT| (NP (NP (NNS backers))(PP (IN of)(NP (NP (DT the)(JJ pro-democracy)(NN leader))))) |BT| (NP (ROOT (NP (NP (PP (NP (PP (NP (PP (NP (NP (NP (E-PER (NNS backers)))(PP (IN of)(NP (NP (DT the)(JJ pro-democracy)(E-PER (NN leader)))(VP (VBN embarked)(NP-TMP (NNP Sunday))(PP (IN on)(NP (NP (DT the)(ADJP (RB potentially)(JJ volatile))(NN task))(PP (IN of)(S (VP (VBG forming)(NP (NP (DT a)(E-ORG (NN government)))(SBAR (WHNP (E-ORG (WDT that)))(S (VP (VBZ tries)(S (VP (TO to)(VP (VB exclude)(NP (NP (E-PER (NNS backers)))(PP (IN of)(NP (JJ former)(E-PER (NN leader))(E-PER (NNP Slobodan)(NNP Milosevic))))))))))))))))))))))))))))(. .)))(ROOT (NP (NP (NP (E-GPE (NNP BELGRADE))(, ,)(E-GPE (NNP Yugoslavia)))(PRN (-LRB- -LRB-)(NP (NNP AP))(-RRB- -RRB-)))(NP (NP (CD __)(NN N))(PP (IN With)(NP (NP (E-PER (NNP Vojislav)(NNP Kostunica)))(PP (IN in)(NP (NP (NN office))(PP (IN as)(NP (NP (E-PER (NN president)))(, ,)(NP (NP (E-PER (NNS backers)))(PP (IN of)(NP (NP (DT the)(JJ pro-democracy)(E-PER (NN leader)))))))))))))))) |ET| 2:19 11:3056 12:3057 13:3052 14:797 16:47 17:7 18:148 19:381 21:9 22:339 23:3053 24:219 25:118 26:118 27:187 28:788 29:13 30:788 31:60 32:105 33:3054 34:223 37:3055 38:224 40:60 41:60 42:21 43:187 44:3051 45:49 46:21 47:187 48:22 49:22  |EV| 
0.12499999999996855293282749244099  |BT| (NP (NP (PRP$ his)(NN nation)(POS 's))(ROOT (S (NP (PRP He))(VP (VBZ has)(VP (VBN taken)(NP (NNS steps))(S (VP (TO to)(VP (VP (VB modernize)(NP (NP (PRP$ his)(NN nation)(POS 's))(NN bureaucracy))))))))))) |BT| (BOW ) |BT| (BOH ) |BT| (BOH-NPs ) |BT| (LP (PRP$ *)(NP *)(NN *)) |BT| (LP-head (PRP$ *)(NP bureaucracy)(NN *)) |BT| (NP (NP (PRP$ his)(NN nation)(POS 's))(ROOT (S (NP (PRP He))(VP (VBZ has)(VP (VBN taken)(NP (NNS steps))(S (VP (TO to)(VP (VP (VB modernize)(NP (NP (PRP$ his)(NN nation)(POS 's))(NN bureaucracy))))))))))) |BT| (NP (ROOT (S (VP (VP (S (VP (VP (VP (NP (NP (E-PER (PRP$ his))(E-GPE (NN nation))(POS 's))(E-ORG (NN bureaucracy))))(CC and)(VP (VB revive)(NP (E-GPE (PRP$ its))(JJ stagnant)(NN economy))))))))(. .)))(ROOT (S (NP (E-PER (PRP He)))(VP (VBZ has)(VP (VBN taken)(NP (NNS steps))(S (VP (TO to)(VP (VP (VB modernize)(NP (NP (E-PER (PRP$ his))(E-GPE (NN nation))(POS 's))(E-ORG (NN bureaucracy)))))))))))) |ET| 5:19 11:299 12:300 13:32 14:33 16:25 17:7 18:301 21:144 22:149 23:65 24:302 25:118 26:118 27:292 28:58 29:289 30:58 31:291 32:292 33:172 34:303 35:19 37:292 38:304 40:289 41:293 42:21 43:21 44:21 45:293 46:21 47:21 48:22 49:22  |EV| 
0.11299717459738783942313489205844  |BT| (NP (PRP$ our)(NN organization)) |BT| (BOW ) |BT| (BOH ) |BT| (BOH-NPs ) |BT| (LP (PRP$ *)(NP *)(NN *)) |BT| (LP-head (PRP$ *)(NP organization)(NN *)) |BT| (NP (PRP$ our)(NN organization)) |BT| (NP (ROOT (S (S (VP (NP (S (VP (VP (PP (NP (NP (E-ORG (PRP$ our))(E-ORG (NN organization)))(CC and)(NP (NP (DT the)(NN direction))(SBAR (S (NP (E-ORG (PRP we)))(VP (VBP 're)(VP (VBG going))))))))))))(, ,)(S (VP (VB answer)(NP (DT any)(NNS questions))(SBAR (S (NP (E-PER (PRP they)))(VP (MD might)(VP (VB have)(PP (IN about)(NP (E-ORG (PRP us))))))))))))(, ,)('' '')(NP (E-PER (NNP Melvin)))(VP (VBD said))(. .)))(ROOT (S (`` ``)(S (NP (DT This))(VP (VBZ gives)(NP (E-ORG (PRP us)))(NP (DT a)(NN chance)(S (VP (TO to)(VP (VB tell)(NP (E-PER (PRP him)))(PP (IN about)(NP (NP (E-ORG (PRP$ our))(E-ORG (NN organization)))))))))))))) |ET| 7:19 11:10683 12:10684 13:2387 14:24 16:7 17:7 18:435 21:144 22:149 23:10681 24:4361 25:117 26:117 27:31 28:31 29:1095 30:2395 31:690 32:1095 33:10682 34:4363 35:19 36:19 37:4364 38:4364 39:19 40:1095 41:4512 42:21 43:21 44:21 45:690 46:21 47:21 48:22 49:22  |EV| 
0.11748151727320431392254107549888  |BT| (NP (PRP$ its)(NN population)) |BT| (BOW ) |BT| (BOH ) |BT| (BOH-NPs ) |BT| (LP (PRP$ *)(NP *)(NN *)) |BT| (LP-head (PRP$ *)(NP swollen)(NN *)) |BT| (NP (PRP$ its)(NN population)) |BT| (NP (ROOT (S (NP (NP (NP (E-GPE (PRP$ its))(E-GPE (NN population))(JJ swollen))(PP (TO to)(NP (QP (CD 82)(E-GPE (CD million))))(PP (IN by)(NP (NN reunification)))))(, ,))(VP (VBZ wants)(SBAR (S (NP (E-GPE (PRP$ its))(NN voting)(NN weight))(VP (VBD increased)(S (VP (TO to)(VP (VB reflect)(NP (E-GPE (PRP$ its))(NN position))(PP (IN as)(NP (NP (DT the)(E-GPE (NNP EU))(POS 's))(JJS biggest)(E-GPE (NN nation)))))))))))(. .)))(ROOT (S (NP (NP (E-GPE (NNP Germany)))(, ,)(NP (NP (E-GPE (PRP$ its))(E-GPE (NN population)))))))) |ET| 11:13146 12:13147 13:305 14:5 16:7 17:7 18:8 21:144 22:149 23:5937 24:9281 25:1 26:1 27:31 28:31 29:13 30:2667 31:5942 32:13 33:5942 34:9282 35:19 36:19 37:13145 38:13145 39:19 40:5942 41:5942 42:21 43:21 44:21 45:21 46:21 47:21 48:22 49:22  |EV| 
-0.12499999999996855293282749244099  |BT| (NP (PRP$ my)(NN party)) |BT| (BOW ) |BT| (BOH ) |BT| (BOH-NPs ) |BT| (LP (PRP$ *)(NP *)(NN *)) |BT| (LP-head (PRP$ *)(NP force)(NN *)) |BT| (NP (PRP$ my)(NN party)) |BT| (NP (ROOT (S (S (VP (VP (S (VP (VP (VP (S (VP (VP (NP (E-PER (PRP$ my))(E-ORG (NN party))(NN gain)(NN force))))))))))(CC and)(VP (VBP contribute)(PP (TO to)(NP (JJ future)(NN prosperity))))))(, ,)('' '')(NP (E-PER (PRP he)))(VP (VBD said))(. .)))(ROOT (S (`` ``)(S (NP (PRP I))(VP (VP (VBP intend)(S (VP (TO to)(VP (VP (VB rest)(NP (DT a)(JJ little)))(CC and)(VP (VB spend)(NP (NP (DT some)(JJR more)(NN time))(PP (PP (IN with)(NP (E-PER (PRP$ my))(E-PER (NN family))))(CC and)(ADVP (RB especially))(PP (IN with)(NP (NP (E-PER (PRP$ my))(E-PER (NN grandson)))(, ,)(NP (E-PER (NNP Marko)))(, ,)))(CC and)(PP (IN after)(NP (DT that)))))(S (VP (TO to)(VP (VB help)(NP (E-PER (PRP$ my))(E-ORG (NN party)))))))))))))))) |ET| 5:19 6:19 7:19 11:2818 12:24 13:1130 14:33 16:7 17:7 18:301 21:144 22:149 23:2802 24:2819 25:118 26:118 27:31 28:31 29:2816 30:1138 31:291 32:2816 33:2804 34:2820 35:19 36:19 37:2817 38:2817 39:19 40:2816 41:2815 42:21 43:21 44:2807 45:318 46:21 47:21 48:22 49:22  |EV| 
-0.12499999999996855293282749244099  |BT| (NP (PRP$ my)(NN grandson)) |BT| (BOW ) |BT| (BOH ) |BT| (BOH-NPs ) |BT| (LP (PRP$ *)(NP *)(NN *)) |BT| (LP-head (PRP$ *)(NP grandson)(NN *)) |BT| (NP (PRP$ my)(NN grandson)) |BT| (NP (ROOT (S (S (VP (VP (S (VP (VP (VP (NP (PP (PP (NP (NP (E-PER (PRP$ my))(E-PER (NN grandson)))(, ,)(NP (E-PER (NNP Marko)))(, ,)))(CC and)(PP (IN after)(NP (DT that)))))(S (VP (TO to)(VP (VB help)(NP (E-PER (PRP$ my))(E-ORG (NN party))(NN gain)(NN force))))))))))(CC and)(VP (VBP contribute)(PP (TO to)(NP (JJ future)(NN prosperity))))))(, ,)('' '')(NP (E-PER (PRP he)))(VP (VBD said))(. .)))(ROOT (S (`` ``)(S (NP (PRP I))(VP (VP (VBP intend)(S (VP (TO to)(VP (VP (VB rest)(NP (DT a)(JJ little)))(CC and)(VP (VB spend)(NP (NP (DT some)(JJR more)(NN time))(PP (PP (IN with)(NP (E-PER (PRP$ my))(E-PER (NN family))))(CC and)(ADVP (RB especially))(PP (IN with)(NP (NP (E-PER (PRP$ my))(E-PER (NN grandson))))))))))))))))) |ET| 6:19 7:19 8:19 11:2808 12:2809 13:1130 14:33 16:7 17:7 18:148 21:144 22:149 23:2802 24:2810 25:118 26:118 27:31 28:31 29:72 30:1138 31:2806 32:72 33:2804 34:2811 35:19 36:19 37:2807 38:2807 39:19 40:72 41:747 42:21 43:21 44:2501 45:2806 46:21 47:21 48:22 49:22  |EV| 
-0.12499999999996855293282749244099  |BT| (NP (PRP$ my)(NN family)) |BT| (BOW ) |BT| (BOH ) |BT| (BOH-NPs ) |BT| (LP (PRP$ *)(NP *)(NN *)) |BT| (LP-head (PRP$ *)(NP family)(NN *)) |BT| (NP (PRP$ my)(NN family)) |BT| (NP (ROOT (S (S (VP (VP (S (VP (VP (VP (NP (PP (PP (NP (E-PER (PRP$ my))(E-PER (NN family))))(CC and)(ADVP (RB especially))(PP (IN with)(NP (NP (E-PER (PRP$ my))(E-PER (NN grandson)))(, ,)(NP (E-PER (NNP Marko)))(, ,)))(CC and)(PP (IN after)(NP (DT that)))))(S (VP (TO to)(VP (VB help)(NP (E-PER (PRP$ my))(E-ORG (NN party))(NN gain)(NN force))))))))))(CC and)(VP (VBP contribute)(PP (TO to)(NP (JJ future)(NN prosperity))))))(, ,)('' '')(NP (E-PER (PRP he)))(VP (VBD said))(. .)))(ROOT (S (`` ``)(S (NP (PRP I))(VP (VP (VBP intend)(S (VP (TO to)(VP (VP (VB rest)(NP (DT a)(JJ little)))(CC and)(VP (VB spend)(NP (NP (DT some)(JJR more)(NN time))(PP (PP (IN with)(NP (E-PER (PRP$ my))(E-PER (NN family)))))))))))))))) |ET| 6:19 7:19 8:19 11:2805 12:1136 13:1130 14:33 16:7 17:7 18:148 21:144 22:149 23:2802 24:745 25:118 26:118 27:31 28:31 29:72 30:1138 31:2501 32:72 33:2804 34:746 35:19 36:19 37:747 38:747 39:19 40:72 41:2501 42:21 43:21 44:21 45:2501 46:21 47:21 48:22 49:22  |EV| 
0.01781345178248065763693119833988  |BT| (NP (NP (NN head))(PP (IN of)(NP (DT the)(JJ liberal)(NNP Yabloko)))) |BT| (BOW (of *)) |BT| (BOH (of *)) |BT| (BOH-NPs (Yabloko *)) |BT| (LP (NN *)(NP *)(PP *)(NP *)(NNP *)) |BT| (LP-head (NN *)(NP head)(PP *)(NP *)(NNP *)) |BT| (NP (NP (NN head))(PP (IN of)(NP (DT the)(JJ liberal)(NNP Yabloko)))) |BT| (NP (ROOT (SINV (NP (NP (NP (E-PER (NN head)))(PP (IN of)(NP (DT the)(JJ liberal)(E-ORG (NNP Yabloko))(E-ORG (NN faction))))))(. .)))(ROOT (SINV (`` ``)(S (NP (PRP We))(ADVP (RB strongly))(VP (VBP protest)(PP (IN against)(NP (NP (DT the)(JJ Stalinist)(NN anthem))(, ,)(SBAR (WHNP (WDT which))(S (VP (VBZ is)(VP (VBN stained)(PP (IN by)(NP (NP (DT the)(NN blood))(PP (IN of)(NP (NP (NNS millions))(PP (IN of)(NP (E-PER (NNS victims))))))))))))))))(, ,)('' '')(VP (VBD said))(NP (NP (E-PER (NNP Grigory)(NNP Yavlinsky)))(, ,)(NP (NP (DT the)(E-PER (NN head)))(PP (IN of)(NP (DT the)(JJ liberal)(E-ORG (NNP Yabloko))))))))) |ET| 1:19 5:19 11:12680 12:24 13:12679 14:1802 16:47 17:7 18:301 21:9 22:157 23:2777 24:12681 25:118 26:118 27:187 28:9803 29:105 30:9803 31:13 32:105 33:2778 34:12682 37:2779 38:12672 40:12678 41:12678 42:12683 43:187 44:12688 45:12688 46:12683 47:187 48:22 49:22  |EV| 
0.039931268721844020985756174013659  |BT| (NP (NP (NNS residents))(PP (IN of)(NP (DT a)(JJ recreational)(NN vehicle)))) |BT| (BOW (of *)) |BT| (BOH (of *)) |BT| (BOH-NPs (vehicle *)) |BT| (LP (NNS *)(NP *)(PP *)(NP *)(NN *)) |BT| (LP-head (NNS *)(NP residents)(PP *)(NP *)(NN *)) |BT| (NP (NP (NNS residents))(PP (IN of)(NP (DT a)(JJ recreational)(NN vehicle)))) |BT| (NP (ROOT (S (NP (PP (PP (NP (NP (E-PER (NNS residents)))(PP (IN of)(NP (DT a)(JJ recreational)(E-VEH (NN vehicle))(E-FAC (NN park))))))))(VP (MD could)(VP (VB be)(ADJP (JJ pivotal))))(. .)))(ROOT (S (NP (NP (DT The)(NNS votes))(PP (IN of)(PP (IN about)(NP (NP (CD 9,000)(E-PER (NNS residents)))(PP (IN of)(NP (DT a)(JJ recreational)(E-VEH (NN vehicle))))))))))) |ET| 11:7155 12:519 13:7156 14:7157 16:47 17:7 18:520 19:434 21:9 22:339 23:7158 24:7159 25:118 26:118 27:187 28:7160 29:7161 30:7160 31:1095 32:430 33:7162 34:7163 37:7164 38:7165 40:1095 41:5401 42:7166 43:187 44:21 45:187 46:7166 47:187 48:22 49:22  |EV| 
-0.12499999999996855293282749244099  |BT| (NP (VP (SBAR (S (VP (SBAR (S (VP (VP (VP (PP (NP (NN leader))))))))))))(PP (IN of)(NP (DT a)(NN minority)(NN government)))) |BT| (BOW (of *)) |BT| (BOH (of *)) |BT| (BOH-NPs (minority *)) |BT| (LP (NN *)(NP *)(PP *)(VP *)(S *)(SBAR *)(VP *)(S *)(SBAR *)(VP *)(NP *)(PP *)(NP *)(NN *)) |BT| (LP-head (NN *)(NP *)(PP *)(VP *)(S *)(SBAR *)(VP *)(S *)(SBAR *)(VP *)(NP government)(PP *)(NP *)(NN *)) |BT| (NP (VP (SBAR (S (VP (SBAR (S (VP (VP (VP (PP (NP (NN leader))))))))))))(PP (IN of)(NP (DT a)(NN minority)(NN government)))) |BT| (NP (ROOT (NP (VP (SBAR (S (VP (SBAR (S (VP (VP (VP (PP (NP (E-PER (NN leader)))))))))))))(PP (IN of)(NP (DT a)(NN minority)(E-ORG (NN government))))(. .)))(ROOT (NP (NP (NP (E-GPE (NNP Syria))(POS 's))(E-GPE (NN government)))(: -)(VP (VBN run)(SBAR (S (NP (E-ORG (NNS media)))(VP (VBD said)(NP-TMP (JJ last)(NN week))(SBAR (IN that)(S (NP (DT no)(NN progress))(VP (MD could)(VP (VB be)(VP (VBN expected)(PP (ADVP (RB now))(IN because)(IN of)(NP (NP (DT the)(E-GPE (NNP U.S.))(NNS elections))(CC and)(NP (NP (E-GPE (JJ Israeli))(NNP Prime)(E-PER (NNP Minister))(E-PER (NNP Ehud)(NNP Barak))(POS 's))(JJ precarious)(NN situation))))(PP (IN as)(NP (E-PER (NN leader)))))))))))))(PP (IN of)(NP (DT a)(NN minority)(E-ORG (NN government))))))) |ET| 5:19 11:427 12:428 13:424 14:33 16:47 17:7 18:301 19:338 21:9 22:311 23:219 24:399 25:118 26:118 27:187 28:429 29:49 30:429 31:426 32:430 33:223 34:401 37:224 38:400 40:49 41:426 42:429 43:187 44:416 45:426 46:429 47:187 48:22 49:22  |EV| 
-0.12499999999996855293282749244099  |BT| (NP (NP (NN chief))(PP (IN of)(NP (NNP South)(NNP Jakarta)(NNP Prosecution)(NNP Office)))) |BT| (BOW (of *)(South *)) |BT| (BOH (of *)) |BT| (BOH-NPs (Prosecution *)) |BT| (LP (NN *)(NP *)(PP *)(NP *)(NNP *)) |BT| (LP-head (NN *)(NP chief)(PP *)(NP *)(NNP *)) |BT| (NP (NP (NN chief))(PP (IN of)(NP (NNP South)(NNP Jakarta)(NNP Prosecution)(NNP Office)))) |BT| (NP (ROOT (S (NP (NP (NP (E-PER (NN chief)))(PP (IN of)(NP (NNP South)(E-GPE (NNP Jakarta))(NNP Prosecution)(E-ORG (NNP Office)))))(, ,))(VP (VBD said)(SBAR (S (NP (E-PER (NNP Tommy)))(VP (MD would)(ADVP (RB again))(VP (VB be)(VP (VBN summoned)(S (VP (TO to)(VP (VB meet)(NP (E-PER (NNS prosecutors)))(PP (IN on)(NP (NNP Wednesday))))))))))))(. .)))(ROOT (S (NP (NP (E-PER (NNP Antasari)(NNP Ashar)))(, ,)(NP (NP (E-PER (NN chief)))(PP (IN of)(NP (NNP South)(E-GPE (NNP Jakarta))(NNP Prosecution)(E-ORG (NNP Office))))))))) |ET| 1:19 5:19 11:861 12:862 13:845 14:797 16:55 17:6 18:301 21:9 22:157 23:849 24:863 25:118 26:118 27:187 28:860 29:13 30:860 31:851 32:864 33:853 34:865 37:854 38:859 40:851 41:851 42:860 43:187 44:868 45:868 46:860 47:187 48:22 49:22  |EV| 
-0.12499999999996855293282749244099  |BT| (NP (NP (DT some))(PP (IN of)(NP (NP (NP (DT the)(NN country)(POS 's))(ADJP (RBS most)(JJ senior))(NNS politicians))(CC and)(NP (NN underworld)(NNS figures))))) |BT| (BOW (of *)(the *)) |BT| (BOH (of *)(country *)) |BT| (BOH-NPs (country *)) |BT| (LP (DT *)(NP *)(PP *)(NP *)(NNS *)) |BT| (LP-head (DT *)(NP None)(PP *)(NP *)(NNS *)) |BT| (NP (NP (DT some))(PP (IN of)(NP (NP (NP (DT the)(NN country)(POS 's))(ADJP (RBS most)(JJ senior))(NNS politicians))(CC and)(NP (NN underworld)(NNS figures))))) |BT| (NP (ROOT (S (VP (VP (PP (S (VP (NP (PP (NP (SBAR (S (NP (NP (E-PER (DT some)))(PP (IN of)(NP (NP (NP (DT the)(E-GPE (NN country))(POS 's))(ADJP (RBS most)(JJ senior))(NNS politicians))(CC and)(NP (NN underworld)(NNS figures)))))(VP (VBP have)(VP (VBN died)))))))))))))(. .)))(ROOT (S (NP (E-PER (DT Some)))(VP (VBP have)(VP (VBN accused)(NP (E-PER (PRP him)))(PP (IN of)(S (VP (VBG orchestrating)(NP (NP (DT a)(NN spate))(PP (IN of)(NP (NP (NNS assassinations))(SBAR (WHPP (IN in)(WHNP (WDT which)))(S (NP (NP (E-PER (DT some)))(PP (IN of)(NP (NP (NP (DT the)(E-GPE (NN country))(POS 's))(ADJP (RBS most)(JJ senior))(NNS politicians))(CC and)(NP (NN underworld)(NNS figures)))))))))))))))))) |ET| 11:3012 12:3013 13:3002 14:797 16:55 17:6 18:148 21:3014 22:3015 23:3005 24:3016 25:118 26:118 27:187 28:58 29:668 30:58 31:106 32:1989 33:3006 34:3017 37:31 38:3018 40:668 41:3007 42:1989 43:187 44:3008 45:3007 46:1989 47:1989 48:22 49:187  |EV| 
0.041960241770792265636469409173515  |BT| (PP (PP (NP (PRP$ my)(NN family)))(CC and)(ADVP (RB especially))(PP (IN with)(NP (NP (PRP$ my)(NN grandson))))) |BT| (BOW (family *)(and *)(especially *)) |BT| (BOH (especially *)(with *)) |BT| (BOH-NPs ) |BT| (LP (PRP$ *)(NP *)(PP *)(PP *)(NP *)(NN *)) |BT| (LP-head (PRP$ *)(NP *)(PP with)(PP *)(NP *)(NN *)) |BT| (PP (PP (NP (PRP$ my)(NN family)))(CC and)(ADVP (RB especially))(PP (IN with)(NP (NP (PRP$ my)(NN grandson))))) |BT| (PP (ROOT (S (S (VP (VP (S (VP (VP (VP (NP (PP (PP (NP (E-PER (PRP$ my))(E-PER (NN family))))(CC and)(ADVP (RB especially))(PP (IN with)(NP (NP (E-PER (PRP$ my))(E-PER (NN grandson)))(, ,)(NP (E-PER (NNP Marko)))(, ,)))(CC and)(PP (IN after)(NP (DT that)))))(S (VP (TO to)(VP (VB help)(NP (E-PER (PRP$ my))(E-ORG (NN party))(NN gain)(NN force))))))))))(CC and)(VP (VBP contribute)(PP (TO to)(NP (JJ future)(NN prosperity))))))(, ,)('' '')(NP (E-PER (PRP he)))(VP (VBD said))(. .)))(CC and)(ADVP (RB especially))(ROOT (S (`` ``)(S (NP (PRP I))(VP (VP (VBP intend)(S (VP (TO to)(VP (VP (VB rest)(NP (DT a)(JJ little)))(CC and)(VP (VB spend)(NP (NP (DT some)(JJR more)(NN time))(PP (PP (IN with)(NP (E-PER (PRP$ my))(E-PER (NN family))))(CC and)(ADVP (RB especially))(PP (IN with)(NP (NP (E-PER (PRP$ my))(E-PER (NN grandson))))))))))))))))) |ET| 6:19 7:19 8:19 11:2808 12:2809 13:1130 14:33 16:64 17:6 18:148 21:144 22:149 23:2802 24:2810 25:118 26:118 27:747 28:1138 29:72 30:1138 31:2501 32:72 33:2804 34:2811 37:747 38:2807 40:72 41:2501 42:21 43:2806 44:21 45:2501 46:21 47:72 48:22 49:2806  |EV| 
0.026301462799400439351860114811643  |BT| (PP (PP (NP (NN family)))(CC and)(ADVP (RB especially))(PP (IN with)(NP (NP (PRP$ my)(NN grandson))))) |BT| (BOW (and *)(especially *)) |BT| (BOH (especially *)(with *)) |BT| (BOH-NPs ) |BT| (LP (NN *)(NP *)(PP *)(PP *)(NP *)(NN *)) |BT| (LP-head (NN *)(NP *)(PP with)(PP *)(NP *)(NN *)) |BT| (PP (PP (NP (NN family)))(CC and)(ADVP (RB especially))(PP (IN with)(NP (NP (PRP$ my)(NN grandson))))) |BT| (PP (ROOT (S (S (VP (VP (S (VP (VP (VP (NP (PP (PP (NP (E-PER (NN family))))(CC and)(ADVP (RB especially))(PP (IN with)(NP (NP (E-PER (PRP$ my))(E-PER (NN grandson)))(, ,)(NP (E-PER (NNP Marko)))(, ,)))(CC and)(PP (IN after)(NP (DT that)))))(S (VP (TO to)(VP (VB help)(NP (E-PER (PRP$ my))(E-ORG (NN party))(NN gain)(NN force))))))))))(CC and)(VP (VBP contribute)(PP (TO to)(NP (JJ future)(NN prosperity))))))(, ,)('' '')(NP (E-PER (PRP he)))(VP (VBD said))(. .)))(CC and)(ADVP (RB especially))(ROOT (S (`` ``)(S (NP (PRP I))(VP (VP (VBP intend)(S (VP (TO to)(VP (VP (VB rest)(NP (DT a)(JJ little)))(CC and)(VP (VB spend)(NP (NP (DT some)(JJR more)(NN time))(PP (PP (IN with)(NP (E-PER (PRP$ my))(E-PER (NN family))))(CC and)(ADVP (RB especially))(PP (IN with)(NP (NP (E-PER (PRP$ my))(E-PER (NN grandson))))))))))))))))) |ET| 6:19 11:2808 12:2809 13:2805 14:1136 16:55 17:6 18:148 19:338 21:9 22:311 23:745 24:2810 25:118 26:118 27:242 28:1138 29:1138 30:1138 31:72 32:72 33:746 34:2811 37:747 38:2807 40:72 41:2501 42:21 43:2806 44:21 45:2501 46:21 47:72 48:22 49:2806  |EV| 
0.033759997567129093609672452203085  |BT| (NP (NP (PRP$ my)(NN grandson))(, ,)(NP (NNP Marko))) |BT| (BOW ) |BT| (BOH ) |BT| (BOH-NPs ) |BT| (LP (PRP$ *)(NP *)(NP *)(NNP *)) |BT| (LP-head (PRP$ *)(NP grandson)(NP *)(NNP *)) |BT| (NP (NP (PRP$ my)(NN grandson))(, ,)(NP (NNP Marko))) |BT| (NP (ROOT (S (S (VP (VP (S (VP (VP (VP (NP (PP (PP (NP (NP (E-PER (PRP$ my))(E-PER (NN grandson)))(, ,)(NP (E-PER (NNP Marko)))(, ,)))(CC and)(PP (IN after)(NP (DT that)))))(S (VP (TO to)(VP (VB help)(NP (E-PER (PRP$ my))(E-ORG (NN party))(NN gain)(NN force))))))))))(CC and)(VP (VBP contribute)(PP (TO to)(NP (JJ future)(NN prosperity))))))(, ,)('' '')(NP (E-PER (PRP he)))(VP (VBD said))(. .)))(, ,)(ROOT (S (`` ``)(S (NP (PRP I))(VP (VP (VBP intend)(S (VP (TO to)(VP (VP (VB rest)(NP (DT a)(JJ little)))(CC and)(VP (VB spend)(NP (NP (DT some)(JJR more)(NN time))(PP (PP (IN with)(NP (E-PER (PRP$ my))(E-PER (NN family))))(CC and)(ADVP (RB especially))(PP (IN with)(NP (NP (E-PER (PRP$ my))(E-PER (NN grandson)))(, ,)(NP (E-PER (NNP Marko))))))))))))))))) |ET| 8:19 11:2812 12:33 13:1130 14:33 16:25 17:7 18:148 21:144 22:145 23:2802 24:2813 25:118 26:118 27:2807 28:13 29:72 30:13 31:2806 32:2807 33:2804 34:2814 35:19 37:2807 38:2815 40:72 41:747 42:21 43:21 44:2501 45:2806 46:21 47:21 48:22 49:22  |EV| 
0.011302490776792177562537489166061  |BT| (NP (NNP Illinois)(, ,)(NNP Indiana)) |BT| (BOW ) |BT| (BOH ) |BT| (BOH-NPs ) |BT| (LP (NNP *)(NP *)(NNP *)) |BT| (LP-head (NNP *)(NP Indiana)(NNP *)) |BT| (NP (NNP Illinois)(, ,)(NNP Indiana)) |BT| (NP (ROOT (S (VP (PP (NP (NP (PP (NP (E-GPE (NNP Illinois))(, ,)(E-GPE (NNP Indiana))(, ,))))(CC and)(NP (E-GPE (NNP Michigan))))))(. .)))(, ,)(ROOT (S (NP (NP (DT An)(NN area))(PP (IN of)(NP (NP (JJ low)(NN pressure)(NN area))(PP (IN over)(NP (DT the)(E-LOC (NNP Midwest)))))))(VP (VBD carried)(ADJP (JJ light)(PP (TO to)(NP (JJ moderate)(NN snow))))(PP (IN across)(NP (NP (NP (E-LOC (NNS parts)))(PP (IN of)(NP (E-GPE (NNP Nebraska))(, ,)(E-GPE (NNP Iowa))(, ,)(E-GPE (NNP Minnesota))(, ,)(E-GPE (NNP Wisconsin))(, ,)(JJ northern)(E-LOC (NNP Missouri))(, ,)(E-GPE (NNP Illinois))(, ,)(E-GPE (NNP Indiana))))))))))) |ET| 11:14394 12:14395 13:10922 14:5 16:6 17:7 18:8 21:9 22:10 23:10923 24:14396 25:1 26:1 27:13 28:13 29:13 30:13 31:4732 32:10926 33:10924 34:14397 35:19 37:14392 38:14392 39:19 40:10926 41:10926 42:21 43:21 44:4732 45:4732 46:21 47:21 48:22 49:22  |EV| 
-0.12499999999996855293282749244099  |BT| (NP (NP (NNP Danville))(, ,)(NP (NNP Ky))) |BT| (BOW ) |BT| (BOH ) |BT| (BOH-NPs ) |BT| (LP (NNP *)(NP *)(NP *)(NNP *)) |BT| (LP-head (NNP *)(NP Danville)(NP *)(NNP *)) |BT| (NP (NP (NNP Danville))(, ,)(NP (NNP Ky))) |BT| (NP (ROOT (S (VP (PP (NP (PP (NP (NP (E-GPE (NNP Danville)))(, ,)(NP (E-GPE (NNP Ky))(. .))(, ,)))))(PP (IN for)(NP (E-PER (PRP$ their))(JJ only)(NN debate))))(. .)))(, ,)(ROOT (S (NP (E-PER (NNP Cheney))(CC and)(E-PER (NNP Lieberman)))(, ,)(PP (IN with)(NP (E-PER (NN moderator))(E-PER (NNP Bernie)(NNP Shaw))))(, ,)(VP (VBD met)(PP (IN at)(NP (NP (E-FAC (NNP Centre)(NNP College)))(PP (IN in)(NP (NP (E-GPE (NNP Danville)))(, ,)(NP (E-GPE (NNP Ky))))))))))) |ET| 11:1626 12:5 13:1621 14:1622 16:6 17:7 18:8 21:9 22:10 23:1623 24:1627 25:1 26:1 27:13 28:13 29:106 30:13 31:1620 32:1625 33:1624 34:1628 35:19 37:1625 38:1629 40:106 41:1620 42:21 43:21 44:1632 45:1620 46:21 47:21 48:22 49:22  |EV| 
-0.12499999999996855293282749244099  |BT| (NP (NP (NNP CONYERS))(, ,)(NP (NNP Ga))) |BT| (BOW ) |BT| (BOH ) |BT| (BOH-NPs ) |BT| (LP (NNP *)(NP *)(NP *)(NNP *)) |BT| (LP-head (NNP *)(NP CONYERS)(NP *)(NNP *)) |BT| (NP (NP (NNP CONYERS))(, ,)(NP (NNP Ga))) |BT| (NP (ROOT (NP (NP (E-GPE (NNP CONYERS)))(, ,)(NP (E-GPE (NNP Ga)))(. .)))(, ,)(ROOT (NP (NP (E-GPE (NNP CONYERS)))(, ,)(NP (E-GPE (NNP Ga)))))) |ET| 11:964 12:5 13:965 14:966 16:6 17:7 18:8 21:9 22:10 23:967 24:968 25:1 26:1 27:13 28:13 29:14 30:13 31:969 32:970 33:971 34:972 35:19 37:970 38:969 40:21 41:21 42:21 43:21 44:21 45:21 46:21 47:21 48:22 49:22  |EV| 
-0.12499999999996855293282749244099  |BT| (NP (NP (NNP Tampa))(, ,)(NP (NNP Fla))) |BT| (BOW ) |BT| (BOH ) |BT| (BOH-NPs ) |BT| (LP (NNP *)(NP *)(NP *)(NNP *)) |BT| (LP-head (NNP *)(NP Tampa)(NP *)(NNP *)) |BT| (NP (NP (NNP Tampa))(, ,)(NP (NNP Fla))) |BT| (NP (ROOT (S (S (NP (PP (NP (VP (PP (NP (PP (NP (NP (E-GPE (NNP Tampa)))(, ,)(NP (E-GPE (NNP Fla))(. .))(, ,)))))))))(VP (VBD were)(VP (VBN impressed)(PP (IN with)(NP (DT both)(E-PER (NNS candidates))(NN _))))))(CC and)(, ,)(S (PP (IN with)(NP (NP (DT a)(NN non-show))(PP (IN of)(NP (NNS hands)))))(, ,)(NP (DT all))(VP (VBD indicated)(SBAR (S (NP (E-PER (PRP they)))(VP (VBD remained)(PP (IN on)(NP (DT the)(NN fence))))))))(. .)))(, ,)(ROOT (S (S (NP (NP (DT A)(E-PER (NN group)))(PP (IN of)(NP (NP (JJ undecided)(E-PER (NNS voters)))(VP (VBN recruited)(PP (IN by)(NP (NP (E-ORG (NNP NBC)))(PP (IN in)(NP (NP (E-GPE (NNP Tampa)))(, ,)(NP (E-GPE (NNP Fla))))))))))))))) |ET| 11:1512 12:5 13:1507 14:1508 16:6 17:7 18:8 21:9 22:10 23:1509 24:1513 25:1 26:1 27:13 28:13 29:106 30:13 31:1484 32:1511 33:1510 34:1514 35:19 37:1511 38:1515 40:106 41:1484 42:21 43:21 44:1503 45:1484 46:21 47:21 48:22 49:22  |EV| 
0.12499999999996855293282749244099  |BT| (NP (NP (NN chief))(PP (IN of)(NP (NNP South)(NNP Jakarta)))) |BT| (BOW ) |BT| (BOH (of *)) |BT| (BOH-NPs (Prosecution *)) |BT| (LP (NN *)(NP *)(PP *)(NP *)(NNP *)) |BT| (LP-head (NN *)(NP chief)(PP *)(NP *)(NNP *)) |BT| (NP (NP (NN chief))(PP (IN of)(NP (NNP South)(NNP Jakarta)))) |BT| (NP (ROOT (S (NP (NP (NP (E-PER (NN chief)))(PP (IN of)(NP (NNP South)(E-GPE (NNP Jakarta))(NNP Prosecution)(E-ORG (NNP Office)))))(, ,))(VP (VBD said)(SBAR (S (NP (E-PER (NNP Tommy)))(VP (MD would)(ADVP (RB again))(VP (VB be)(VP (VBN summoned)(S (VP (TO to)(VP (VB meet)(NP (E-PER (NNS prosecutors)))(PP (IN on)(NP (NNP Wednesday))))))))))))(. .)))(ROOT (S (NP (NP (E-PER (NNP Antasari)(NNP Ashar)))(, ,)(NP (NP (E-PER (NN chief)))(PP (IN of)(NP (NNP South)(E-GPE (NNP Jakarta))))))))) |ET| 1:19 11:855 12:5 13:845 14:797 16:25 17:7 18:143 21:9 22:157 23:849 24:856 25:118 26:118 27:187 28:857 29:13 30:857 31:851 32:187 33:853 34:858 37:854 38:859 40:851 41:851 42:860 43:187 44:868 45:868 46:860 47:187 48:22 49:22  |EV| 
0.026132853077203761771318824003174  |BT| (NP (NP (NN regime))(PP (IN of)(NP (NNP Yugoslav)(NNP President)))) |BT| (BOW ) |BT| (BOH (of *)) |BT| (BOH-NPs (Slobodan *)) |BT| (LP (NN *)(NP *)(PP *)(NP *)(NNP *)) |BT| (LP-head (NN *)(NP regime)(PP *)(NP *)(NNP *)) |BT| (NP (NP (NN regime))(PP (IN of)(NP (NNP Yugoslav)(NNP President)))) |BT| (NP (ROOT (S (VP (NP (SBAR (S (VP (VP (S (VP (VP (NP (NP (E-ORG (NN regime)))(PP (IN of)(NP (E-GPE (NNP Yugoslav))(E-PER (NNP President))(E-PER (NNP Slobodan)(NNP Milosevic))))))))))))))(. .)))(ROOT (S (NP (E-PER (NNP Clinton)))(VP (VBD announced)(NP (NP (DT the)(JJ immediate)(NN ending))(PP (IN of)(NP (NP (DT the)(NN oil)(NN embargo))(CC and)(NP (NN flight)(NN ban))))(SBAR (WHNP (WDT that))(S (VP (VBD were)(VP (VBN imposed)(PP (IN in)(NP (CD 1998)))(S (VP (TO to)(VP (VB punish)(CC and)(VB isolate)(NP (NP (DT the)(E-ORG (NN regime)))(PP (IN of)(NP (E-GPE (NNP Yugoslav))(E-PER (NNP President))))))))))))))))) |ET| 5:19 11:76 12:33 13:3705 14:3706 16:25 17:6 18:126 21:9 22:157 23:3707 24:78 25:117 26:117 27:187 28:3135 29:105 30:3135 31:3274 32:187 33:3709 34:80 37:3710 38:1721 40:3274 41:3712 42:1774 43:187 44:3716 45:3717 46:1774 47:187 48:22 49:22  |EV| 
0.016041096739654911451644636599667  |BT| (VP (NP (PRP him))(PP (IN of)(S (VP (VBG orchestrating)(NP (NP (DT a)(NN spate))(PP (IN of)(NP (NP (NNS assassinations))(SBAR (WHPP (IN in)(WHNP (WDT which)))(S (NP (NP (DT some))(PP (IN of)(NP (NP (NP (DT the)(NN country)(POS 's))(ADJP (RBS most)(JJ senior))(NNS politicians))(CC and)(NP (NN underworld)(NNS figures)))))))))))))) |BT| (BOW (of *)(orchestrating *)(a *)(spate *)(of *)(assassinations *)(in *)(which *)(some *)(of *)(the *)) |BT| (BOH (of *)(spate *)(of *)(assassinations *)(which *)(of *)(country *)) |BT| (BOH-NPs (spate *)(assassinations *)(country *)) |BT| (LP (PRP *)(NP *)(VP *)(PP *)(S *)(VP *)(NP *)(PP *)(NP *)(SBAR *)(S *)(NP *)(PP *)(NP *)(NNS *)) |BT| (LP-head (PRP *)(NP *)(VP accused)(PP *)(S *)(VP *)(NP *)(PP *)(NP *)(SBAR *)(S *)(NP *)(PP *)(NP *)(NNS *)) |BT| (VP (NP (PRP him))(PP (IN of)(S (VP (VBG orchestrating)(NP (NP (DT a)(NN spate))(PP (IN of)(NP (NP (NNS assassinations))(SBAR (WHPP (IN in)(WHNP (WDT which)))(S (NP (NP (DT some))(PP (IN of)(NP (NP (NP (DT the)(NN country)(POS 's))(ADJP (RBS most)(JJ senior))(NNS politicians))(CC and)(NP (NN underworld)(NNS figures)))))))))))))) |BT| (VP (ROOT (S (VP (VP (NP (E-PER (PRP him)))(PP (IN of)(S (VP (VBG orchestrating)(NP (NP (DT a)(NN spate))(PP (IN of)(NP (NP (NNS assassinations))(SBAR (WHPP (IN in)(WHNP (WDT which)))(S (NP (NP (E-PER (DT some)))(PP (IN of)(NP (NP (NP (DT the)(E-GPE (NN country))(POS 's))(ADJP (RBS most)(JJ senior))(NNS politicians))(CC and)(NP (NN underworld)(NNS figures)))))(VP (VBP have)(VP (VBN died)))))))))))))(. .)))(ROOT (S (NP (E-PER (DT Some)))(VP (VBP have)(VP (VBN accused)(NP (E-PER (PRP him)))(PP (IN of)(S (VP (VBG orchestrating)(NP (NP (DT a)(NN spate))(PP (IN of)(NP (NP (NNS assassinations))(SBAR (WHPP (IN in)(WHNP (WDT which)))(S (NP (NP (E-PER (DT some)))(PP (IN of)(NP (NP (NP (DT the)(E-GPE (NN country))(POS 's))(ADJP (RBS most)(JJ senior))(NNS politicians))(CC and)(NP (NN underworld)(NNS figures)))))))))))))))))) |ET| 11:3012 12:3013 13:680 14:33 16:150 17:25 18:148 21:208 22:3021 23:2999 24:3016 25:118 26:118 27:187 28:58 29:808 30:58 31:581 32:1989 33:3001 34:3017 37:690 38:3018 40:808 41:21 42:3008 43:187 44:21 45:581 46:1989 47:1989 48:3007 49:187  |EV| 
0.12499999999996855293282749244099  |BT| (NP (PRP$ his)(NN republic)) |BT| (BOW ) |BT| (BOH ) |BT| (BOH-NPs ) |BT| (LP (PRP$ *)(NP *)(NN *)) |BT| (LP-head (PRP$ *)(NP republic)(NN *)) |BT| (NP (PRP$ his)(NN republic)) |BT| (NP (ROOT (NP (NP (PP (NP (NP (E-PER (PRP$ his))(E-GPE (NN republic)))(CC and)(PRN (, ,)(ADVP (RB indirectly))(, ,))(NP (NP (RB much))(PP (IN of)(NP (NP (DT the)(NN republic)(POS 's))(NN economy)))))))(. .)))(ROOT (NP (NP (E-PER (JJ Milutinovic))(NNS controls))(NP (NP (QP (RB approximately)(CD 100,000))(E-PER (NNS policemen)))(PP (IN in)(NP (NP (E-PER (PRP$ his))(E-GPE (NN republic))))))))) |ET| 11:3148 12:3149 13:32 14:33 16:7 17:7 18:143 21:144 22:149 23:2753 24:2858 25:118 26:118 27:31 28:31 29:106 30:279 31:3147 32:106 33:2756 34:2860 35:19 36:19 37:2861 38:2861 39:19 40:106 41:3147 42:21 43:21 44:2952 45:3147 46:21 47:21 48:22 49:22  |EV| 
-0.12499999999996855293282749244099  |BT| (NP (NP (NN head))(PP (IN of)(NP (DT the)(NNP Democratic)(NNP Party)))) |BT| (BOW ) |BT| (BOH (of *)) |BT| (BOH-NPs (Democratic *)) |BT| (LP (NN *)(NP *)(PP *)(NP *)(NNP *)) |BT| (LP-head (NN *)(NP head)(PP *)(NP *)(NNP *)) |BT| (NP (NP (NN head))(PP (IN of)(NP (DT the)(NNP Democratic)(NNP Party)))) |BT| (NP (ROOT (S (VP (SBAR (S (VP (VP (PP (S (VP (NP (SBAR (S (VP (VP (S (VP (NP (NP (NP (NP (E-PER (NN head)))(PP (IN of)(NP (DT the)(E-ORG (NNP Democratic)(NNP Party)))))))))(, ,)(VP (VBD told)))(NP (NP (DT The)(NNP Associated))(NNP Press))))))))))))))(. .)))(ROOT (S (`` ``)(NP (PRP I))(VP (VBP think)(SBAR (S (NP (E-PER (PRP he)))(VP (VBZ is)(VP (VBG preparing)(NP (NP (NNS positions))(PP (IN for)(NP (NP (DT a)(NN stab))(PP (IN in)(NP (DT the)(NN back))))))(PP (IN by)(S (VP (VBG consolidating)(NP (NP (DT the)(E-ORG (NN police)))(SBAR (S (-LRB- -LRB-)(NP (CC and))(-RRB- -RRB-)(VP (VP (S (VP (VBG creating)(NP (NP (NN chaos))(, ,)('' '')(NP (NP (E-PER (NNP Zoran)(NNP Djindjic)))(, ,)(NP (NP (E-PER (NN head)))(PP (IN of)(NP (DT the)(E-ORG (NNP Democratic)(NNP Party))))))))))))))))))))))))) |ET| 1:19 5:19 6:19 11:2780 12:2781 13:2776 14:797 16:25 17:7 18:301 21:9 22:157 23:2777 24:2782 25:118 26:118 27:187 28:105 29:13 30:105 31:2774 32:187 33:2778 34:2783 37:2779 38:2662 40:2774 41:2774 42:2784 43:187 44:2790 45:2790 46:2784 47:187 48:22 49:22  |EV| 
-0.12499999999996855293282749244099  |BT| (NP (NP (NNS backers))(PP (IN of)(NP (JJ former)(NN leader)))) |BT| (BOW ) |BT| (BOH (of *)) |BT| (BOH-NPs (Slobodan *)) |BT| (LP (NNS *)(NP *)(PP *)(NP *)(NN *)) |BT| (LP-head (NNS *)(NP backers)(PP *)(NP *)(NN *)) |BT| (NP (NP (NNS backers))(PP (IN of)(NP (JJ former)(NN leader)))) |BT| (NP (ROOT (NP (NP (PP (NP (PP (NP (PP (NP (NP (PP (NP (VP (PP (NP (PP (S (VP (NP (SBAR (S (VP (S (VP (VP (NP (NP (E-PER (NNS backers)))(PP (IN of)(NP (JJ former)(E-PER (NN leader))(E-PER (NNP Slobodan)(NNP Milosevic))))))))))))))))))))))))))))(. .)))(ROOT (NP (NP (NP (E-GPE (NNP BELGRADE))(, ,)(E-GPE (NNP Yugoslavia)))(PRN (-LRB- -LRB-)(NP (NNP AP))(-RRB- -RRB-)))(NP (NP (CD __)(NN N))(PP (IN With)(NP (NP (E-PER (NNP Vojislav)(NNP Kostunica)))(PP (IN in)(NP (NP (NN office))(PP (IN as)(NP (NP (E-PER (NN president)))(, ,)(NP (NP (E-PER (NNS backers)))(PP (IN of)(NP (NP (DT the)(JJ pro-democracy)(E-PER (NN leader)))(VP (VBN embarked)(NP-TMP (NNP Sunday))(PP (IN on)(NP (NP (DT the)(ADJP (RB potentially)(JJ volatile))(NN task))(PP (IN of)(S (VP (VBG forming)(NP (NP (DT a)(E-ORG (NN government)))(SBAR (WHNP (E-ORG (WDT that)))(S (VP (VBZ tries)(S (VP (TO to)(VP (VB exclude)(NP (NP (E-PER (NNS backers)))(PP (IN of)(NP (JJ former)(E-PER (NN leader))))))))))))))))))))))))))))))) |ET| 2:19 11:424 12:33 13:3052 14:797 16:25 17:7 18:148 19:381 21:9 22:339 23:3053 24:219 25:118 26:118 27:187 28:2098 29:3062 30:2098 31:291 32:187 33:3054 34:223 37:3055 38:1721 40:3062 41:400 42:1774 43:187 44:3061 45:3063 46:1774 47:187 48:22 49:22  |EV| 
-0.12499999999996855293282749244099  |BT| (VP (PP (NP (NN square)))(PP (IN in)(NP (NP (NN front))(PP (IN of)(NP (DT the)(NN site)))))) |BT| (BOW (in *)(front *)) |BT| (BOH (in *)(front *)(of *)) |BT| (BOH-NPs (front *)) |BT| (LP (NN *)(NP *)(PP *)(VP *)(PP *)(NP *)(PP *)(NP *)(NN *)) |BT| (LP-head (NN *)(NP *)(PP *)(VP converged)(PP *)(NP *)(PP *)(NP *)(NN *)) |BT| (VP (PP (NP (NN square)))(PP (IN in)(NP (NP (NN front))(PP (IN of)(NP (DT the)(NN site)))))) |BT| (VP (ROOT (S (VP (VP (S (VP (SBAR (S (VP (PP (NP (E-FAC (NN square))))(PP (IN in)(NP (NP (NN front))(PP (IN of)(NP (DT the)(E-FAC (NN site))))))(, ,)(S (VP (VBG cheering)(NP (DT the)(NN withdrawal)))))))))))(. .)))(ROOT (S (NP (E-GPE (JJ Palestinian))(NN security)(E-PER (NNS officials)))(VP (VBD were)(VP (VBN left)(S (VP (VBG standing)(NP (NN guard))(SBAR (IN as)(S (NP (NP (NNS hundreds))(PP (IN of)(NP (E-PER (NNPS Palestinians)))))(VP (VBD converged)(PP (IN on)(NP (DT the)(E-FAC (NN square))))(PP (IN in)(NP (NP (NN front))(PP (IN of)(NP (DT the)(E-FAC (NN site)))))))))))))))) |ET| 11:2310 12:2219 13:2305 14:2219 16:55 17:7 18:1045 19:338 20:19 21:9 22:311 23:2306 24:2232 25:913 26:913 27:106 28:105 29:105 30:105 31:97 32:187 33:2307 34:2236 37:2308 38:2238 40:97 41:252 42:595 43:106 44:1060 45:2309 46:595 47:187 48:22 49:595  |EV| 
0.083646389074630164706114499040268  |BT| (NP (NP (NNP Alabama))(, ,)(NP (NNP Georgia))) |BT| (BOW ) |BT| (BOH ) |BT| (BOH-NPs ) |BT| (LP (NNP *)(NP *)(NP *)(NNP *)) |BT| (LP-head (NNP *)(NP Alabama)(NP *)(NNP *)) |BT| (NP (NP (NNP Alabama))(, ,)(NP (NNP Georgia))) |BT| (NP (ROOT (S (VP (VP (S (VP (VP (PP (NP (NP (E-GPE (NNP Alabama)))(, ,)(NP (E-GPE (NNP Georgia)))(, ,)(CC and)(NP (JJ northwestern)(E-LOC (NNP Florida)))))(PP (IN during)(NP (DT the)(NN night))))))))(. .)))(, ,)(ROOT (S (NP (DT Those)(NNS showers))(VP (VBD were)(VP (VBN expected)(S (VP (TO to)(VP (VB move)(ADVP (RB eastward))(PP (IN into)(NP (NP (E-GPE (NNP Alabama)))(, ,)(NP (E-GPE (NNP Georgia))))))))))))) |ET| 10:1 11:1155 12:5 13:14450 14:14451 16:6 17:7 18:8 21:9 22:10 23:11268 24:1156 25:1 26:1 27:13 28:13 29:757 30:13 31:14452 32:11246 33:11269 34:1157 35:19 37:11246 38:1162 40:757 41:14436 42:21 43:21 44:21 45:14452 46:21 47:21 48:22 49:22  |EV| 
0.022830117660220344139032633279385  |BT| (NP (NP (NNP Egypt))(, ,)(NP (NNP Turkey))) |BT| (BOW ) |BT| (BOH ) |BT| (BOH-NPs ) |BT| (LP (NNP *)(NP *)(NP *)(NNP *)) |BT| (LP-head (NNP *)(NP Russia)(NP *)(NNP *)) |BT| (NP (NP (NNP Egypt))(, ,)(NP (NNP Turkey))) |BT| (NP (ROOT (S (S (VP (PP (NP (NP (E-GPE (NNP Egypt)))(, ,)(NP (E-GPE (NNP Turkey)))(CC and)(PRN (, ,)(PP (IN for)(NP (DT the)(JJ first)(NN time)))(, ,))(NP (DT the)(E-GPE (NNP Ukraine)))))))(. .)))(, ,)(ROOT (S (S (NP (CD Three)(E-VEH (NNS planes)))(VP (VBD arrived)))(CC and)(S (NP (NP (E-VEH (CD two)))(VP (VBN departed)(PP (IN by)(NP (NP (DT the)(NN end))(PP (IN of)(NP (NP (DT the)(NN day))(, ,)(NP (NP (VBG carrying)(NNS delegations))(PP (IN of)(NP (E-PER (NNS people)))))))))))(VP (VBN opposed)(PP (TO to)(NP (DT the)(NNS sanctions)))(PP (IN from)(NP (NP (E-GPE (NNP Russia)))(, ,)(NP (E-GPE (NNP Egypt)))(, ,)(NP (E-GPE (NNP Turkey)))))))))) |ET| 9:1 10:1 11:7586 12:5 13:566 14:5 16:6 17:7 18:8 21:9 22:10 23:12 24:7587 25:1 26:1 27:13 28:13 29:13 30:13 31:508 32:20 33:18 34:7588 35:19 37:20 38:7589 40:508 41:508 42:21 43:21 44:532 45:447 46:21 47:21 48:22 49:22  |EV| 
0.064499597618618800809464630674483  |BT| (NP (NP (NNP Russia))(, ,)(NP (NNP Egypt))) |BT| (BOW ) |BT| (BOH ) |BT| (BOH-NPs ) |BT| (LP (NNP *)(NP *)(NP *)(NNP *)) |BT| (LP-head (NNP *)(NP Russia)(NP *)(NNP *)) |BT| (NP (NP (NNP Russia))(, ,)(NP (NNP Egypt))) |BT| (NP (ROOT (S (S (VP (PP (NP (NP (E-GPE (NNP Russia)))(, ,)(NP (E-GPE (NNP Egypt)))(, ,)(NP (E-GPE (NNP Turkey)))(CC and)(PRN (, ,)(PP (IN for)(NP (DT the)(JJ first)(NN time)))(, ,))(NP (DT the)(E-GPE (NNP Ukraine)))))))(. .)))(, ,)(ROOT (S (S (NP (CD Three)(E-VEH (NNS planes)))(VP (VBD arrived)))(CC and)(S (NP (NP (E-VEH (CD two)))(VP (VBN departed)(PP (IN by)(NP (NP (DT the)(NN end))(PP (IN of)(NP (NP (DT the)(NN day))(, ,)(NP (NP (VBG carrying)(NNS delegations))(PP (IN of)(NP (E-PER (NNS people)))))))))))(VP (VBN opposed)(PP (TO to)(NP (DT the)(NNS sanctions)))(PP (IN from)(NP (NP (E-GPE (NNP Russia)))(, ,)(NP (E-GPE (NNP Egypt)))))))))) |ET| 9:1 10:1 11:566 12:5 13:7584 14:7585 16:6 17:7 18:8 21:9 22:10 23:502 24:12 25:1 26:1 27:13 28:13 29:447 30:13 31:532 32:508 33:504 34:18 35:19 37:508 38:20 40:447 41:532 42:21 43:21 44:937 45:532 46:21 47:21 48:22 49:22  |EV| 
-0.12499999999996855293282749244099  |BT| (NP (NP (NNP Cedar)(NNP Rapids))(, ,)(NP (NNP Iowa))) |BT| (BOW ) |BT| (BOH ) |BT| (BOH-NPs ) |BT| (LP (NNP *)(NP *)(NP *)(NNP *)) |BT| (LP-head (NNP *)(NP Rapids)(NP *)(NNP *)) |BT| (NP (NP (NNP Cedar)(NNP Rapids))(, ,)(NP (NNP Iowa))) |BT| (NP (ROOT (S (VP (PP (NP (NP (E-GPE (NNP Cedar)(NNP Rapids)))(, ,)(NP (E-GPE (NNP Iowa)))))(, ,)(S (VP (VBG repeating)(SBAR (WHNP (WP what))(S (NP (E-PER (PRP he)))(VP (VBD said)(PP (IN in)(NP (NP (NNP Tuesday)(POS 's))(JJ first)(E-PER (JJ presidential))(NN debate)))))))))(. .)))(, ,)(ROOT (S (S (ADVP (RB finally))(VP (VBZ leaves)))(, ,)('' '')(NP (E-PER (NNP Bush)))(VP (VBD said)(NP-TMP (NNP Friday))(PP (IN in)(NP (NP (E-GPE (NNP Cedar)(NNP Rapids)))(, ,)(NP (E-GPE (NNP Iowa))))))))) |ET| 11:1738 12:5 13:1730 14:1731 16:6 17:7 18:8 21:9 22:10 23:1732 24:1739 25:1 26:1 27:13 28:13 29:106 30:13 31:1733 32:1735 33:1734 34:1740 35:19 37:1735 38:1741 40:106 41:1733 42:21 43:21 44:1312 45:1733 46:21 47:21 48:22 49:22  |EV| 
-0.12499999999996855293282749244099  |BT| (NP (NP (NNP NABLUS))(, ,)(NP (NP (NNP West)(NNP Bank)))) |BT| (BOW ) |BT| (BOH ) |BT| (BOH-NPs ) |BT| (LP (NNP *)(NP *)(NP *)(NNP *)) |BT| (LP-head (NNP *)(NP NABLUS)(NP *)(NNP *)) |BT| (NP (NP (NNP NABLUS))(, ,)(NP (NP (NNP West)(NNP Bank)))) |BT| (NP (ROOT (NP (NP (E-GPE (NNP NABLUS)))(, ,)(NP (NP (E-LOC (NNP West)(NNP Bank)))(PRN (-LRB- -LRB-)(NP (NNP AP))(-RRB- -RRB-))(SBAR (S (NP (NP (NP (CD _))(NP (NP (NNP Joseph)(POS 's))(NNP Tomb)))(, ,)(NP (NP (DT the)(E-FAC (NN flashpoint)))(PP (IN in)(NP (NP (DT a)(NN week))(PP (IN of)(NP (JJ bitter)(E-LOC (NNP West)(NNP Bank))(NNS clashes))))))(, ,))(VP (VBZ is)(ADVP (RB now))(NP (NP (DT a)(E-FAC (NN casualty)))(PP (IN of)(NP (NN war))))))))(. .)))(, ,)(ROOT (NP (NP (E-GPE (NNP NABLUS)))(, ,)(NP (NP (E-LOC (NNP West)(NNP Bank))))))) |ET| 11:2189 12:2190 13:2191 14:2192 16:6 17:7 18:93 21:9 22:10 23:2193 24:228 25:1 26:1 27:13 28:13 29:14 30:13 31:2194 32:2195 33:2196 34:229 35:19 37:2195 38:230 40:21 41:21 42:21 43:21 44:21 45:21 46:21 47:21 48:22 49:22  |EV| 
-0.12499999999996855293282749244099  |BT| (S (NP (NNP JAKARTA))(, ,)(X (NP (NP (NNP Indonesia))))) |BT| (BOW ) |BT| (BOH ) |BT| (BOH-NPs ) |BT| (LP (NNP *)(NP *)(S *)(X *)(NP *)(NNP *)) |BT| (LP-head (NNP *)(NP *)(S disobeyed)(X *)(NP *)(NNP *)) |BT| (S (NP (NNP JAKARTA))(, ,)(X (NP (NP (NNP Indonesia))))) |BT| (S (ROOT (S (NP (E-GPE (NNP JAKARTA)))(, ,)(X (NP (NP (E-GPE (NNP Indonesia)))(NP (E-ORG (-LRB- -LRB-)(NNP AP))(-RRB- -RRB-)))(NP (CD _))(NP (NP (DT The)(JJS youngest)(E-PER (NN son)))(PP (IN of)(NP (E-PER (NN ex-dictator))))))(NP (E-PER (NNP Suharto)))(VP (VBD disobeyed)(NP (DT a)(NN summons)(S (VP (TO to)(VP (VP (VB surrender)(NP (E-PER (PRP himself)))(PP (TO to)(NP (E-PER (NNS prosecutors))))(NP-TMP (NNP Monday)))(CC and)(VP (VB be)(VP (VBN imprisoned)(PP (IN for)(NP (NN corruption))))))))))(. .)))(, ,)(ROOT (S (NP (E-GPE (NNP JAKARTA)))(, ,)(X (NP (NP (E-GPE (NNP Indonesia)))))))) |ET| 10:1 11:606 12:607 13:608 14:5 16:6 17:7 18:8 21:9 22:10 23:609 24:610 25:1 26:1 27:13 28:13 29:14 30:13 31:611 32:612 33:613 34:614 35:19 37:612 38:615 40:21 41:21 42:21 43:21 44:21 45:21 46:21 47:21 48:22 49:22  |EV| 
