SVM-light Version V5.01-TK-1.2
5 # kernel type
3 # kernel parameter -d 
1 # kernel parameter -g 
1 # kernel parameter -s 
1 # kernel parameter -r 
empty# kernel parameter -u 
0.4 # kernel parameter -L 
1 # kernel parameter -T 
T # kernel parameter -C 
1 # kernel parameter -F 
1 # kernel parameter -S 
1.000000 # kernel parameter -D 
3 # kernel parameter -N 
S # kernel parameter -V 
S # kernel parameter -W 
49 # highest feature index 
16237 # number of training documents 
399 # number of support vectors plus 1 
0.95856105 # threshold b, each following line is a SV (starting with alpha*y)
-0.031743436027413182709544514636946  |BT| (NP (NP (NNP LOS)(NNP ANGELES))(PRN (-LRB- -LRB-)(NP (NNP AP)))) |BT| (BOW ) |BT| (BOH ) |BT| (BOH-NPs ) |BT| (LP (NNP *)(NP *)(PRN *)(NP *)(NNP *)) |BT| (LP-head (NNP *)(NP ANGELES)(PRN *)(NP *)(NNP *)) |BT| (NP (NP (NNP LOS)(NNP ANGELES))(PRN (-LRB- -LRB-)(NP (NNP AP)))) |BT| (NP (ROOT (NP (NP (NP (NP (E-GPE (NNP LOS)(NNP ANGELES)))(PRN (-LRB- -LRB-)(NP (NNP AP))(-RRB- -RRB-))(NP (CD _)))(NP (DT The)(E-PER (NNP Dick)(NNP Cheney))))(: -)(NP (NP (NNP Joe)(NNP Lieberman))(SBAR (S (NP (NN debate))(VP (VBD was)(VP (VP (VBN praised)(PP (IN by)(NP (DT some)(NN TV)(E-PER (NNS commentators))))(PP (IN as)(NP (NP (DT an)(NN exercise))(PP (IN in)(NP (JJ good)(NNS manners))))))(CC and)(VP (VBN condemned)(PP (IN by)(NP (NP (E-PER (NNS others)))(PP (IN as)(NP (JJ bad)(NNS politics)))))))))))(. .)))(ROOT (NP (NP (NP (NP (E-GPE (NNP LOS)(NNP ANGELES)))(PRN (-LRB- -LRB-)(NP (NNP AP)))))))) |ET| 11:23 12:24 13:1205 14:1206 16:7 17:7 18:26 21:27 22:28 23:1207 24:29 25:1 26:1 27:31 28:31 29:14 30:1208 31:1209 32:1210 33:1211 34:30 35:19 36:19 37:1208 38:31 40:21 41:21 42:21 43:21 44:21 45:21 46:21 47:21 48:22 49:22  |EV| 
-0.010717439308003690739967694867119  |BT| (NP (NP (NNS Critics))(PP (IN of)(NP (NP (NNP Indonesia)(POS 's))(JJ legal)(NN system)))) |BT| (BOW (of *)(Indonesia *)) |BT| (BOH (of *)(Indonesia *)) |BT| (BOH-NPs (Indonesia *)) |BT| (LP (NNS *)(NP *)(PP *)(NP *)(NN *)) |BT| (LP-head (NNS *)(NP Critics)(PP *)(NP *)(NN *)) |BT| (NP (NP (NNS Critics))(PP (IN of)(NP (NP (NNP Indonesia)(POS 's))(JJ legal)(NN system)))) |BT| (NP (ROOT (S (NP (NP (E-PER (NNS Critics)))(PP (IN of)(NP (NP (E-GPE (NNP Indonesia))(POS 's))(JJ legal)(E-GPE (NN system)))))(VP (VBP have)(VP (VBN accused)(NP (E-GPE (PRP it)))(PP (IN of)(S (VP (VBG going)(ADJP (JJ soft))(PP (IN on)(NP (DT the)(E-PER (NNP Suharto))(E-PER (NN clan)))))))))(. .)))(ROOT (S (NP (NP (E-PER (NNS Critics)))(PP (IN of)(NP (NP (E-GPE (NNP Indonesia))(POS 's))(JJ legal)(E-GPE (NN system)))))))) |ET| 11:802 12:803 13:796 14:797 16:55 17:6 18:143 21:9 22:339 23:798 24:804 25:118 26:118 27:187 28:765 29:14 30:765 31:799 32:58 33:801 34:805 37:800 38:806 40:21 41:21 42:615 43:187 44:21 45:21 46:615 47:615 48:22 49:187  |EV| 
0.11959761671799960802697881945278  |BT| (NP (JJ pro-Gore)(NNS demonstrators)) |BT| (BOW ) |BT| (BOH ) |BT| (BOH-NPs ) |BT| (LP (JJ *)(NP *)(NNS *)) |BT| (LP-head (JJ *)(NP demonstrators)(NNS *)) |BT| (NP (JJ pro-Gore)(NNS demonstrators)) |BT| (NP (ROOT (S (NP (E-PER (JJ pro-Gore))(E-PER (NNS demonstrators)))(VP (VBD began)(S (VP (TO to)(VP (VB congregate)(PP (IN outside)(NP (NP (DT the)(E-PER (NN governor))(POS 's))(E-FAC (NN mansion))))))))(. .)))(ROOT (S (PP (IN As)(NP (NP (NN news))(PP (IN of)(NP (NP (NNP Friday)(POS 's))(NN ruling)(NN spread)))))(, ,)(NP (E-PER (JJ pro-Gore))(E-PER (NNS demonstrators)))))) |ET| 4:19 11:12972 12:12973 13:12974 14:33 16:7 17:7 18:148 21:165 22:166 23:12975 24:2688 25:118 26:118 27:31 28:31 29:13 30:12976 31:10715 32:13 33:12977 34:2691 35:19 36:19 37:2692 38:2692 39:19 40:10715 41:10715 42:21 43:21 44:772 45:772 46:21 47:21 48:22 49:22  |EV| 
0.12499999999996855293282749244099  |BT| (NP (JJ Jewish)(JJ seminary)) |BT| (BOW ) |BT| (BOH ) |BT| (BOH-NPs ) |BT| (LP (JJ *)(NP *)(JJ *)) |BT| (LP-head (JJ *)(NP seminary)(JJ *)) |BT| (NP (JJ Jewish)(JJ seminary)) |BT| (NP (ROOT (S (VP (PP (NP (E-PER (JJ Jewish))(E-ORG (JJ seminary))))(, ,)(SBAR (WHADVP (E-ORG (WRB where)))(S (NP (QP (RB about)(CD 30))(E-PER (NNS students)))(VP (MD would)(VP (VB study)(PP (IN during)(NP (DT the)(NN day))))))))(. .)))(ROOT (S (NP (DT The)(E-FAC (NN compound)))(VP (VBD was)(ADVP (E-FAC (NN home)))(PP (TO to)(NP (DT a)(E-PER (JJ Jewish))(E-ORG (JJ seminary)))))))) |ET| 5:19 11:2262 12:2263 13:2257 14:33 16:7 17:7 18:301 21:163 22:164 23:2258 24:2265 25:118 26:118 27:31 28:31 29:430 30:2266 31:291 32:430 33:2259 34:2267 35:19 36:19 37:2260 38:2260 39:19 40:2266 41:2261 42:21 43:21 44:2254 45:718 46:21 47:21 48:22 49:22  |EV| 
0.12499999999996855293282749244099  |BT| (NP (NP (NNP Pinochet)(POS 's))(ROOT (S (NP (JJ Minor)(NNS scuffles))(VP (VBD broke)(PP (IN among)(NP (NP (NP (NNP Pinochet)(POS 's))(NNS supporters)(CC and)(NNS opponents)))))))) |BT| (BOW ) |BT| (BOH ) |BT| (BOH-NPs ) |BT| (LP (NNP *)(NP *)(NNS *)) |BT| (LP-head (NNP *)(NP opponents)(NNS *)) |BT| (NP (NP (NNP Pinochet)(POS 's))(ROOT (S (NP (JJ Minor)(NNS scuffles))(VP (VBD broke)(PP (IN among)(NP (NP (NP (NNP Pinochet)(POS 's))(NNS supporters)(CC and)(NNS opponents)))))))) |BT| (NP (ROOT (S (VP (PP (NP (NP (NP (E-PER (NNP Pinochet))(POS 's))(E-PER (NNS supporters)(CC and)(NNS opponents)))(PP (IN outside)(NP (DT the)(E-ORG (NN court))(E-FAC (NN building))))))(PP (IN during)(NP (DT the)(JJ 90-minute)(NN session))))(. .)))(ROOT (S (NP (JJ Minor)(NNS scuffles))(VP (VBD broke)(PP (IN among)(NP (NP (NP (E-PER (NNP Pinochet))(POS 's))(E-PER (NNS supporters)(CC and)(NNS opponents))))))))) |ET| 4:19 6:19 11:12176 12:33 13:12177 14:742 16:6 17:7 18:148 21:9 22:113 23:12108 24:12178 25:118 26:118 27:58 28:58 29:5241 30:58 31:439 32:12110 33:12124 34:12179 35:19 37:12110 38:5900 40:5241 41:12180 42:21 43:21 44:21 45:439 46:21 47:21 48:22 49:22  |EV| 
0.12499999999996855293282749244099  |BT| (NP (NNP Arab)(NN world)) |BT| (BOW ) |BT| (BOH ) |BT| (BOH-NPs ) |BT| (LP (NNP *)(NP *)(NN *)) |BT| (LP-head (NNP *)(NP world)(NN *)) |BT| (NP (NNP Arab)(NN world)) |BT| (NP (ROOT (S (PP (NP (PP (PP (NP (NP (E-PER (NNP Arab))(E-GPE (NN world))))))))(, ,)('' '')(NP (E-PER (NNP Moussa)))(VP (VBD said))(. .)))(ROOT (S (PP (IN in)(NP (NP (NN addition))(PP (PP (TO to)(NP (NP (JJ certain)(NNS specifics))(PP (IN of)(NP (JJ special)(NN importance)))))(PP (TO to)(NP (NP (DT both)(E-GPE (NNS countries)))(CC and)(NP (DT the)(E-PER (NNP Arab))(E-GPE (NN world))))))))))) |ET| 11:336 12:337 13:321 14:33 16:7 17:7 18:143 21:9 22:56 23:326 24:340 25:118 26:118 27:31 28:31 29:105 30:333 31:242 32:105 33:329 34:341 35:19 36:19 37:331 38:331 39:19 40:333 41:333 42:21 43:21 44:330 45:330 46:21 47:21 48:22 49:22  |EV| 
0.12499999999996855293282749244099  |BT| (NP (NNP Arab)(NNS countries)) |BT| (BOW ) |BT| (BOH ) |BT| (BOH-NPs ) |BT| (LP (NNP *)(NP *)(NNS *)) |BT| (LP-head (NNP *)(NP countries)(NNS *)) |BT| (NP (NNP Arab)(NNS countries)) |BT| (NP (ROOT (S (VP (VP (SBAR (S (NP (E-PER (NNP Arab))(E-GPE (NNS countries)))(VP (MD will)(VP (VB follow)(, ,)(PP (IN despite)(NP (E-GPE (NNP U.S.))(NNS complaints)))(, ,)(S (VP (VBG easing)(NP (E-GPE (PRP$ its))(NN isolation))))))))))(. .)))(ROOT (S (NP (E-GPE (NNP Iraq)))(VP (VBZ is)(VP (VBG hoping)(SBAR (S (NP (JJ other)(E-PER (NNP Arab))(E-GPE (NNS countries)))))))))) |ET| 4:19 11:548 12:549 13:321 14:33 16:7 17:7 18:143 21:9 22:113 23:326 24:325 25:118 26:118 27:31 28:31 29:545 30:333 31:547 32:545 33:329 34:328 35:19 36:19 37:330 38:330 39:19 40:333 41:333 42:21 43:21 44:190 45:545 46:21 47:21 48:22 49:22  |EV| 
0.049422837882047543356378582757316  |BT| (NP (NNP Arab)(NNS leaders)) |BT| (BOW ) |BT| (BOH ) |BT| (BOH-NPs ) |BT| (LP (NNP *)(NP *)(NNS *)) |BT| (LP-head (NNP *)(NP leaders)(NNS *)) |BT| (NP (NNP Arab)(NNS leaders)) |BT| (NP (ROOT (S (NP (S (VP (VP (S (NP (E-PER (NNP Arab))(E-PER (NNS leaders)))(VP (TO to)(VP (VB present)(NP (NP (DT a)(VBN unified)(NN front))(PP (IN against)(NP (E-GPE (NNP Israel))))))))))))(VP (VBD gained)(NP (JJ little)(NN ground)))(. .)))(ROOT (S (NP (NP (E-PER (NNP Hafez)(NNP Assad))(POS 's))(NNS attempts)(S (VP (TO to)(VP (VB rally)(S (NP (E-PER (NNP Arab))(E-PER (NNS leaders))))))))))) |ET| 4:19 11:590 12:591 13:321 14:33 16:7 17:7 18:148 21:9 22:113 23:326 24:592 25:118 26:118 27:31 28:31 29:586 30:333 31:291 32:586 33:329 34:593 35:19 36:19 37:588 38:588 39:19 40:586 41:589 42:21 43:21 44:67 45:589 46:21 47:21 48:22 49:22  |EV| 
0.12499999999996855293282749244099  |BT| (NP (NP (NNP Bush)(POS 's))(ROOT (S (NP (NP (NNP Bush)(POS 's))(NNS supporters))))) |BT| (BOW ) |BT| (BOH ) |BT| (BOH-NPs ) |BT| (LP (NNP *)(NP *)(NNS *)) |BT| (LP-head (NNP *)(NP supporters)(NNS *)) |BT| (NP (NP (NNP Bush)(POS 's))(ROOT (S (NP (NP (NNP Bush)(POS 's))(NNS supporters))))) |BT| (NP (ROOT (S (NP (NP (E-PER (NNP Bush))(POS 's))(E-PER (NNS supporters)))(VP (VBP say)(SBAR (IN that)(S (PP (IN despite)(NP (NP (E-PER (PRP$ his))(NN lack))(PP (IN of)(NP (NP (JJ direct)(JJ foreign)(NN policy)(NN experience))(, ,)(NP (NP (E-PER (PRP$ his))(NN record))(PP (IN as)(NP (E-GPE (NNP Texas))(E-PER (NN governor)))))))))(, ,)(PP (VBG including)(NP (NP (NNS dealings))(PP (IN with)(NP (E-GPE (NN neighbor))(E-GPE (NNP Mexico))))))(, ,)(VP (VBP show)(SBAR (S (NP (E-PER (PRP he)))(VP (MD 'll)(VP (VB inspire)(NP (NP (NP (DT the)(NN trust))(PP (IN of)(NP (E-GPE (NNS allies)))))(CC and)(NP (NP (DT the)(NN respect))(PP (IN of)(NP (E-GPE (NNS adversaries))))))))))))))(. .)))(ROOT (S (NP (NP (E-PER (NNP Bush))(POS 's))(E-PER (NNS supporters)))))) |ET| 4:19 6:19 11:2109 12:1563 13:2110 14:742 16:6 17:7 18:148 21:9 22:113 23:1412 24:943 25:118 26:118 27:58 28:58 29:14 30:58 31:2111 32:1312 33:1413 34:948 35:19 37:1312 38:949 40:21 41:21 42:21 43:21 44:21 45:21 46:21 47:21 48:22 49:22  |EV| 
-0.12499999999996855293282749244099  |BT| (NP (NNP Kostunica)(NNS supporters)) |BT| (BOW ) |BT| (BOH ) |BT| (BOH-NPs ) |BT| (LP (NNP *)(NP *)(NNS *)) |BT| (LP-head (NNP *)(NP supporters)(NNS *)) |BT| (NP (NNP Kostunica)(NNS supporters)) |BT| (NP (ROOT (S (PP (NP (SBAR (S (NP (E-PER (NNP Kostunica))(E-PER (NNS supporters)))(VP (VBD stormed)(S (NP (E-GPE (NNP Belgrade)))(VP (TO to)(VP (VB drive)(PRT (RP out))(NP (E-PER (NNP Milosevic)))))))))))(, ,)(NP (E-ORG (NNP Republican))(E-PER (NNP Dick)(NNP Cheney)))(VP (VBD said)(SBAR (S (NP (E-PER (NNP Gore)))(VP (VBD had)(VP (VBN been)(NP (`` ``)(NP (NN pooh-poohing))('' '')(NP (NP (DT the)(NN idea))(PP (IN of)(NP (E-GPE (JJ Russian))(NN involvement)))(SBAR (IN while)(S (NP (DT the)(E-ORG (NN administration)))(VP (VBD was)(VP (VBG doing)(ADVP (RB just))(PP (IN about)(SBAR (WHNP (WP what))(S (NP (E-PER (NNP Bush)))(VP (VBD had)(VP (VBN proposed)))))))))))))))))(. .)))(ROOT (S (PP (IN In)(NP (NP (NP (NNP Thursday)(NN night)(POS 's))(NN vice)(E-PER (JJ presidential))(NN debate))(, ,)(SBAR (IN as)(S (NP (E-PER (NNP Kostunica))(E-PER (NNS supporters)))))))))) |ET| 4:19 6:19 11:1879 12:1880 13:1877 14:33 16:7 17:7 18:148 21:9 22:113 23:1785 24:943 25:118 26:118 27:31 28:31 29:49 30:1764 31:13 32:49 33:1788 34:948 35:19 36:19 37:949 38:949 39:19 40:1230 41:1230 42:21 43:21 44:1336 45:1334 46:21 47:21 48:22 49:22  |EV| 
-0.12499999999996855293282749244099  |BT| (NP (NP (NNP Solomon)(POS 's))(ROOT (S (S (NP (NP (NNP Solomon)(POS 's))(NNS lawyers)))))) |BT| (BOW ) |BT| (BOH ) |BT| (BOH-NPs ) |BT| (LP (NNP *)(NP *)(NNS *)) |BT| (LP-head (NNP *)(NP lawyers)(NNS *)) |BT| (NP (NP (NNP Solomon)(POS 's))(ROOT (S (S (NP (NP (NNP Solomon)(POS 's))(NNS lawyers)))))) |BT| (NP (ROOT (S (S (NP (NP (E-PER (NNP Solomon))(POS 's))(E-PER (NNS lawyers)))(VP (VBD had)(VP (VBN argued)(SBAR (IN that)(S (NP (DT the)(E-PER (NN teen-ager)))(VP (MD should)(VP (VB be)(VP (VBN hospitalized)(PP (IN for)(NP (JJ mental)(NN illness)))))))))))(, ,)(CC but)(S (NP (DT a)(E-GPE (NNP Georgia))(NNS appeals)(E-ORG (NN court)))(VP (VBD ruled)(SBAR (IN that)(S (NP (E-PER (PRP he)))(VP (VBD was)(RB not)(ADJP (IN out)(PP (IN of)(NP (NN touch))))(PP (IN with)(NP (NN reality)))(PP (IN at)(NP (NP (DT the)(NN time))(PP (IN of)(NP (DT the)(NNS shootings))))))))))(. .)))(ROOT (S (S (NP (NP (E-PER (NNP Solomon))(POS 's))(E-PER (NNS lawyers))))))) |ET| 4:19 6:19 11:1146 12:1147 13:1148 14:742 16:6 17:7 18:148 21:9 22:113 23:1026 24:1149 25:118 26:118 27:58 28:58 29:14 30:58 31:1150 32:1006 33:1027 34:1151 35:19 37:1006 38:1152 40:21 41:21 42:21 43:21 44:21 45:21 46:21 47:21 48:22 49:22  |EV| 
-0.12499999999996855293282749244099  |BT| (NP (NP (NNP Kostunica)(POS 's))(JJ pro-democracy)(ROOT (S (NP (NP (NNP Kostunica)(POS 's))(JJ pro-democracy)(NNS forces))))) |BT| (BOW ) |BT| (BOH ) |BT| (BOH-NPs ) |BT| (LP (NNP *)(NP *)(NNS *)) |BT| (LP-head (NNP *)(NP forces)(NNS *)) |BT| (NP (NP (NNP Kostunica)(POS 's))(JJ pro-democracy)(ROOT (S (NP (NP (NNP Kostunica)(POS 's))(JJ pro-democracy)(NNS forces))))) |BT| (NP (ROOT (S (NP (NP (E-PER (NNP Kostunica))(POS 's))(JJ pro-democracy)(E-PER (NNS forces)))(VP (VBP have)(VP (VBN said)(SBAR (S (NP (E-PER (PRP they)))(VP (MD would)(VP (VB demand)(NP (JJ early)(NNS elections))(PP (IN for)(NP (NP (JJ new)(E-GPE (JJ Serbian))(NN parliament))(CC and)(NP (NN president))))))))))(. .)))(JJ pro-democracy)(ROOT (S (NP (NP (E-PER (NNP Kostunica))(POS 's))(JJ pro-democracy)(E-PER (NNS forces)))))) |ET| 4:19 11:3151 12:3152 13:2742 14:742 16:25 17:7 18:148 21:9 22:113 23:1785 24:3153 25:118 26:118 27:58 28:788 29:14 30:788 31:60 32:58 33:1788 34:3154 35:19 37:1764 38:3155 40:21 41:21 42:21 43:21 44:21 45:21 46:21 47:21 48:22 49:22  |EV| 
0.12499999999996855293282749244099  |BT| (S (NP (NNP Taliban))(VP (VBP are)(ADVP (RB predominantly))(NP (NNP Sunni)(JJ Muslim)))) |BT| (BOW (are *)) |BT| (BOH (are *)(predominantly *)) |BT| (BOH-NPs (Sunni *)) |BT| (LP (NNP *)(NP *)(S *)(VP *)(NP *)(JJ *)) |BT| (LP-head (NNP *)(NP *)(S are)(VP *)(NP *)(JJ *)) |BT| (S (NP (NNP Taliban))(VP (VBP are)(ADVP (RB predominantly))(NP (NNP Sunni)(JJ Muslim)))) |BT| (S (ROOT (S (NP (E-ORG (NNP Taliban)))(VP (VBP are)(ADVP (RB predominantly))(NP (E-PER (NNP Sunni))(E-PER (JJ Muslim)))(, ,)(SBAR (WHNP (E-PER (WDT which)))(S (VP (VBZ is)(NP (NP (DT the)(NN majority)(E-PER (JJ Islamic))(E-PER (NN sect)))(PP (IN in)(NP (DT the)(E-GPE (NN country)))))))))(. .)))(ROOT (S (NP (DT The)(E-ORG (NNP Taliban)))(VP (VBP are)(ADVP (RB predominantly))(NP (E-PER (NNP Sunni))(E-PER (JJ Muslim))))))) |ET| 5:19 11:7825 12:33 13:10050 14:4850 16:47 17:6 18:126 21:94 22:95 23:9962 24:7826 25:117 26:117 27:579 28:10054 29:220 30:10054 31:14 32:10052 33:9963 34:7827 37:9965 38:7830 40:21 41:21 42:10054 43:579 44:21 45:21 46:10054 47:10052 48:22 49:579  |EV| 
-0.00071781675858276737522967181348577  |BT| (S (NP (NN compound))(VP (VBD was)(ADVP (NN home))(PP (TO to)(NP (DT a)(JJ Jewish)(JJ seminary))))) |BT| (BOW (was *)(home *)(to *)) |BT| (BOH (was *)) |BT| (BOH-NPs (home *)) |BT| (LP (NN *)(NP *)(S *)(VP *)(PP *)(NP *)(JJ *)) |BT| (LP-head (NN *)(NP *)(S was)(VP *)(PP *)(NP *)(JJ *)) |BT| (S (NP (NN compound))(VP (VBD was)(ADVP (NN home))(PP (TO to)(NP (DT a)(JJ Jewish)(JJ seminary))))) |BT| (S (ROOT (S (NP (E-FAC (NN compound)))(VP (VBD was)(ADVP (E-FAC (NN home)))(PP (TO to)(NP (DT a)(E-PER (JJ Jewish))(E-ORG (JJ seminary))))(, ,)(SBAR (WHADVP (E-ORG (WRB where)))(S (NP (QP (RB about)(CD 30))(E-PER (NNS students)))(VP (MD would)(VP (VB study)(PP (IN during)(NP (DT the)(NN day))))))))(. .)))(ROOT (S (NP (DT The)(E-FAC (NN compound)))(VP (VBD was)(ADVP (E-FAC (NN home)))(PP (TO to)(NP (DT a)(E-PER (JJ Jewish))(E-ORG (JJ seminary)))))))) |ET| 11:2262 12:2263 13:2250 14:2251 16:64 17:25 18:2264 19:1556 21:94 22:158 23:2252 24:2265 25:913 26:913 27:718 28:2266 29:220 30:2266 31:14 32:430 33:2255 34:2267 37:2254 38:2260 40:21 41:21 42:2261 43:718 44:21 45:21 46:2261 47:718 48:22 49:22  |EV| 
0.12499999999996855293282749244099  |BT| (S (NP (NNP Big)(NNP East))(S (VP (VB Coach)))) |BT| (BOW ) |BT| (BOH ) |BT| (BOH-NPs ) |BT| (LP (NNP *)(NP *)(S *)(S *)(VP *)(VB *)) |BT| (LP-head (NNP *)(NP *)(S Coach)(S *)(VP *)(VB *)) |BT| (S (NP (NNP Big)(NNP East))(S (VP (VB Coach)))) |BT| (S (ROOT (S (VP (ADJP (S (VP (VP (S (NP (E-ORG (NNP Big)(NNP East)))(S (VP (E-PER (VB Coach))(PP (IN of)(NP (DT the)(NN Year)))))))))))(. .)))(ROOT (S (NP (NP (E-PER (PRP$ His))(CD five)(NNS wins))(PP (IN in)(NP (NP (CD 1998))(PP (IN after)(S (VP (VBG going)(ADJP (JJ winless))(NP-TMP (DT the)(NN year))(PP (IN before))))))))(VP (VBD were)(ADJP (RB enough)(S (VP (TO to)(VP (VB earn)(S (NP (E-PER (PRP him)))(NP (E-ORG (NNP Big)(NNP East)))(S (VP (E-PER (VB Coach))))))))))))) |ET| 1:19 5:19 11:8492 12:8493 13:8488 14:8489 16:7 17:7 18:126 21:8501 22:8502 23:8490 24:8496 25:117 26:117 27:31 28:31 29:690 30:3971 31:8486 32:8497 33:8491 34:8498 35:19 36:19 37:3971 38:8499 40:690 41:1166 42:21 43:21 44:8455 45:8486 46:21 47:21 48:22 49:22  |EV| 
-0.10239501000287155874080013973071  |BT| (NP (NP (NNS countries))(CC and)(NP (DT the)(NNP Arab)(NN world))) |BT| (BOW (and *)) |BT| (BOH ) |BT| (BOH-NPs (Arab *)) |BT| (LP (NNS *)(NP *)(NP *)(NN *)) |BT| (LP-head (NNS *)(NP countries)(NP *)(NN *)) |BT| (NP (NP (NNS countries))(CC and)(NP (DT the)(NNP Arab)(NN world))) |BT| (NP (ROOT (S (PP (NP (PP (PP (NP (NP (E-GPE (NNS countries)))(CC and)(NP (DT the)(E-PER (NNP Arab))(E-GPE (NN world))))))))(, ,)('' '')(NP (E-PER (NNP Moussa)))(VP (VBD said))(. .)))(CC and)(ROOT (S (PP (IN in)(NP (NP (NN addition))(PP (PP (TO to)(NP (NP (JJ certain)(NNS specifics))(PP (IN of)(NP (JJ special)(NN importance)))))(PP (TO to)(NP (NP (DT both)(E-GPE (NNS countries)))(CC and)(NP (DT the)(E-PER (NNP Arab))(E-GPE (NN world))))))))))) |ET| 11:336 12:337 13:322 14:323 16:47 17:6 18:8 19:338 20:19 21:9 22:339 23:325 24:340 25:1 26:1 27:242 28:333 29:327 30:333 31:291 32:105 33:328 34:341 35:19 37:330 38:331 40:332 41:332 42:333 43:21 44:334 45:335 46:333 47:21 48:22 49:22  |EV| 
0.12499999999996855293282749244099  |BT| (NP (NNP Arab)(NN world)) |BT| (BOW ) |BT| (BOH ) |BT| (BOH-NPs ) |BT| (LP (NNP *)(NP *)(NN *)) |BT| (LP-head (NNP *)(NP world)(NN *)) |BT| (NP (NNP Arab)(NN world)) |BT| (NP (ROOT (S (VP (PP (NP (PP (NP (E-PER (NNP Arab))(E-GPE (NN world)))))))(. .)))(ROOT (S (NP (NP (DT The)(NN status))(PP (IN of)(NP (E-PER (NNS women)))))(VP (VBZ varies)(PP (IN among)(NP (NP (E-GPE (NNS countries)))(PP (IN in)(NP (DT the)(E-PER (NNP Arab))(E-GPE (NN world)))))))))) |ET| 11:9775 12:9776 13:321 14:33 16:7 17:7 18:143 21:9 22:56 23:326 24:340 25:118 26:118 27:31 28:31 29:105 30:333 31:106 32:105 33:329 34:341 35:19 36:19 37:331 38:331 39:19 40:333 41:333 42:21 43:21 44:330 45:106 46:21 47:21 48:22 49:22  |EV| 
0.093324261356940302336582249154162  |BT| (S (NP (NNP Taliban))(VP (VBP are)(ADVP (RB predominantly))(NP (NNP Sunni)(JJ Muslim)))) |BT| (BOW (are *)) |BT| (BOH (are *)(predominantly *)) |BT| (BOH-NPs (Sunni *)) |BT| (LP (NNP *)(NP *)(S *)(VP *)(NP *)(JJ *)) |BT| (LP-head (NNP *)(NP *)(S are)(VP *)(NP *)(JJ *)) |BT| (S (NP (NNP Taliban))(VP (VBP are)(ADVP (RB predominantly))(NP (NNP Sunni)(JJ Muslim)))) |BT| (S (ROOT (S (NP (E-ORG (NNP Taliban)))(VP (VBP are)(ADVP (RB predominantly))(NP (E-PER (NNP Sunni))(E-PER (JJ Muslim)))(, ,)(SBAR (WHNP (E-PER (WDT which)))(S (VP (VBZ is)(NP (NP (DT the)(NN majority)(E-PER (JJ Islamic))(E-PER (NN sect)))(PP (IN in)(NP (DT the)(E-GPE (NN country)))))))))(. .)))(ROOT (S (NP (DT The)(E-ORG (NNP Taliban)))(VP (VBP are)(ADVP (RB predominantly))(NP (E-PER (NNP Sunni))(E-PER (JJ Muslim))))))) |ET| 5:19 11:7825 12:33 13:10050 14:4850 16:47 17:6 18:126 21:94 22:95 23:9962 24:7826 25:117 26:117 27:579 28:10054 29:220 30:10054 31:14 32:10052 33:9963 34:7827 37:9965 38:7830 40:21 41:21 42:10054 43:579 44:21 45:21 46:10054 47:10052 48:22 49:579  |EV| 
-0.06371735656521118618123011856369  |BT| (NP (NNP Bush)(NN campaign)) |BT| (BOW ) |BT| (BOH ) |BT| (BOH-NPs ) |BT| (LP (NNP *)(NP *)(NN *)) |BT| (LP-head (NNP *)(NP campaign)(NN *)) |BT| (NP (NNP Bush)(NN campaign)) |BT| (NP (ROOT (SINV (VP (SBAR (S (NP (E-PER (NNP Bush))(E-ORG (NN campaign)))(VP (VBD failed)(S (VP (TO to)(VP (VB do))))))))(SBAR (WHNP (WP what))(S (NP (E-ORG (PRP it)))(VP (VBD had)(S (VP (TO to)(VP (VB do)))))))(: ...)))(ROOT (SINV (NP (JJ Conservative)(E-PER (NN commentator))(E-PER (NNP Bill)(NNP Kristol)))(VP (, ,)(PP (ADVP (RB also))(IN on)(NP (E-ORG (NNP FNC))))(, ,)(VBD said)(`` ``)(SBAR (S (NP (DT the)(E-PER (NNP Bush))(E-ORG (NN campaign))))))))) |ET| 5:19 11:1415 12:1416 13:1411 14:33 16:7 17:7 18:301 21:9 22:56 23:1412 24:1417 25:118 26:118 27:31 28:31 29:105 30:1312 31:1323 32:105 33:1413 34:1418 35:19 36:19 37:1414 38:1414 39:19 40:1312 41:1312 42:21 43:21 44:1410 45:170 46:21 47:21 48:22 49:22  |EV| 
-0.088046545573578452459351240122487  |BT| (NP (NNP Golan)(NN land)) |BT| (BOW ) |BT| (BOH ) |BT| (BOH-NPs ) |BT| (LP (NNP *)(NP *)(NN *)) |BT| (LP-head (NNP *)(NP land)(NN *)) |BT| (NP (NNP Golan)(NN land)) |BT| (NP (ROOT (S (VP (PP (S (VP (S (VP (VP (SBAR (S (VP (SBAR (S (VP (VP (PP (S (VP (NP (E-LOC (NNP Golan))(E-LOC (NN land))))))))))))))))))))(. .)))(ROOT (S (NP (E-GPE (NNP Israel)))(VP (VBZ insists)(PP (IN on)(S (VP (VBG waiting)(S (VP (TO to)(VP (VB settle)(NP (E-LOC (NNS borders)))(SBAR (IN until)(S (NP (E-GPE (PRP it)))(VP (VBZ knows)(SBAR (WHNP (WP what))(S (NP (E-GPE (PRP it)))(VP (MD will)(VP (VB gain)(PP (IN by)(S (VP (VBG returning)(NP (E-LOC (NNP Golan))(E-LOC (NN land))))))))))))))))))))))) |ET| 11:484 12:485 13:478 14:90 16:7 17:7 18:254 21:9 22:56 23:479 24:486 25:122 26:122 27:31 28:31 29:480 30:450 31:460 32:480 33:481 34:487 35:19 36:19 37:472 38:472 39:19 40:460 41:474 42:21 43:21 44:463 45:483 46:21 47:21 48:22 49:22  |EV| 
-0.087253549939386415568165489275998  |BT| (NP (NNP Texas)(NN governor)) |BT| (BOW ) |BT| (BOH ) |BT| (BOH-NPs ) |BT| (LP (NNP *)(NP *)(NN *)) |BT| (LP-head (NNP *)(NP governor)(NN *)) |BT| (NP (NNP Texas)(NN governor)) |BT| (NP (ROOT (S (VP (SBAR (S (PP (NP (PP (NP (NP (PP (NP (E-GPE (NNP Texas))(E-PER (NN governor)))))))))(, ,)(PP (VBG including)(NP (NP (NNS dealings))(PP (IN with)(NP (E-GPE (NN neighbor))(E-GPE (NNP Mexico))))))(, ,)(VP (VBP show)(SBAR (S (NP (E-PER (PRP he)))(VP (MD 'll)(VP (VB inspire)(NP (NP (NP (DT the)(NN trust))(PP (IN of)(NP (E-GPE (NNS allies)))))(CC and)(NP (NP (DT the)(NN respect))(PP (IN of)(NP (E-GPE (NNS adversaries))))))))))))))(. .)))(ROOT (S (NP (NP (E-PER (NNP Bush))(POS 's))(E-PER (NNS supporters)))(VP (VBP say)(SBAR (IN that)(S (PP (IN despite)(NP (NP (E-PER (PRP$ his))(NN lack))(PP (IN of)(NP (NP (JJ direct)(JJ foreign)(NN policy)(NN experience))(, ,)(NP (NP (E-PER (PRP$ his))(NN record))(PP (IN as)(NP (E-GPE (NNP Texas))(E-PER (NN governor))))))))))))))) |ET| 1:19 11:2118 12:2119 13:2114 14:5 16:7 17:7 18:35 21:9 22:56 23:2115 24:2120 25:1 26:1 27:31 28:31 29:49 30:2121 31:1584 32:49 33:2116 34:2122 35:19 36:19 37:2117 38:2117 39:19 40:49 41:1584 42:21 43:21 44:1698 45:1584 46:21 47:21 48:22 49:22  |EV| 
0.12499999999996855293282749244099  |BT| (NP (NP (JJ many))(PP (IN in)(NP (DT the)(NNP Kostunica)(NN camp)))) |BT| (BOW (in *)) |BT| (BOH (in *)) |BT| (BOH-NPs (Kostunica *)) |BT| (LP (JJ *)(NP *)(PP *)(NP *)(NN *)) |BT| (LP-head (JJ *)(NP many)(PP *)(NP *)(NN *)) |BT| (NP (NP (JJ many))(PP (IN in)(NP (DT the)(NNP Kostunica)(NN camp)))) |BT| (NP (ROOT (S (NP (SBAR (S (VP (PP (NP (NP (E-PER (JJ many)))(PP (IN in)(NP (DT the)(E-PER (NNP Kostunica))(E-PER (NN camp)))))))))(, ,))(VP (VBZ has)(NP (NP (JJ little)(NN chance))(PP (IN of)(S (VP (VBG being)(VP (VBN formed)))))))(. .)))(ROOT (S (SBAR (IN With)(S (NP (DT the)(E-ORG (NN opposition)))(VP (VBD outnumbered)(PP (IN in)(NP (E-ORG (NN parliament)))))))(, ,)(NP (NP (DT a)(JJ nonpartisan)(E-ORG (NN government)))(PP (IN of)(NP (E-PER (NNS experts))))(, ,)(SBAR (IN as)(S (VP (VBN favored)(PP (IN by)(NP (NP (E-PER (JJ many)))(PP (IN in)(NP (DT the)(E-PER (NNP Kostunica))(E-PER (NN camp))))))))))))) |ET| 11:3421 12:3422 13:3416 14:1059 16:47 17:6 18:148 21:165 22:217 23:3417 24:3423 25:118 26:118 27:106 28:1764 29:460 30:1764 31:3418 32:105 33:3419 34:3424 37:1247 38:3420 40:460 41:3415 42:1764 43:106 44:400 45:3418 46:1764 47:106 48:22 49:22  |EV| 
0.12489712827825968921580113146774  |BT| (VP (VP (PP (NP (NP (NNS supporters))(PP (IN of)(NP (NNP Bush))))))(CC and)(VP (VBG running)(NP (NN mate)(NNP Dick)(NNP Cheney)))) |BT| (BOW (of *)(Bush *)(and *)) |BT| (BOH (of *)(Bush *)) |BT| (BOH-NPs (Bush *)(Dick *)) |BT| (LP (NNS *)(NP *)(PP *)(VP *)(VP *)(NP *)(NNP *)) |BT| (LP-head (NNS *)(NP *)(PP *)(VP matched)(VP *)(NP *)(NNP *)) |BT| (VP (VP (PP (NP (NP (NNS supporters))(PP (IN of)(NP (NNP Bush))))))(CC and)(VP (VBG running)(NP (NN mate)(NNP Dick)(NNP Cheney)))) |BT| (VP (ROOT (S (VP (VP (VP (PP (NP (NP (E-PER (NNS supporters)))(PP (IN of)(NP (E-PER (NNP Bush)))))))(CC and)(VP (VBG running)(NP (E-PER (NN mate))(E-PER (NNP Dick)(NNP Cheney))))))(. .)))(CC and)(ROOT (S (NP (E-PER (PRP They)))(VP (VBD were)(ADVP (RB then))(VP (VP (VBN matched)(PP (IN by)(NP (NP (E-PER (NNS supporters)))(PP (IN of)(NP (E-PER (NNP Bush)))))))(CC and)(VP (VBG running)(NP (E-PER (NN mate))(E-PER (NNP Dick)(NNP Cheney))))))))) |ET| 6:19 11:12990 12:12991 13:12983 14:797 16:64 17:25 18:148 21:9 22:324 23:943 24:1214 25:118 26:118 27:187 28:12992 29:460 30:12992 31:12985 32:7477 33:948 34:1215 37:949 38:1216 40:460 41:21 42:1312 43:187 44:21 45:12985 46:1217 47:1312 48:1312 49:187  |EV| 
0.10926778129402410499881881378315  |BT| (NP (NNP Arab)(NNS diplomats)) |BT| (BOW ) |BT| (BOH ) |BT| (BOH-NPs ) |BT| (LP (NNP *)(NP *)(NNS *)) |BT| (LP-head (NNP *)(NP diplomats)(NNS *)) |BT| (NP (NNP Arab)(NNS diplomats)) |BT| (NP (ROOT (S (S (NP (E-PER (NNP Arab))(E-PER (NNS diplomats)))(VP (VBD said)(SBAR (S (NP (DT a)(NN meeting))(VP (VBZ is)(ADJP (JJ likely)(S (VP (TO to)(VP (VB be)(VP (VBN held)(NP-TMP (RB early)(JJ next)(NN week))))))))))))(. .)))(ROOT (S (S (NP (E-PER (NNP Spokeswoman))(E-PER (NNP Sue)(NNP Markham)))(VP (VBD said)(SBAR (S (NP (E-ORG (NNP General)(NNP Assembly))(E-PER (NNP President))(E-PER (NNP Harri)(NNP Holkeri)))(VP (MD will)(VP (VB consult)(PP (IN with)(NP (NP (JJ other)(E-GPE (NN member))(E-GPE (NNS states)))(PP (IN on)(NP (DT the)(NN request)))))))))))(CC and)(S (NP (E-PER (NNP Arab))(E-PER (NNS diplomats))))))) |ET| 4:19 11:4061 12:591 13:321 14:33 16:7 17:7 18:148 21:9 22:113 23:326 24:4062 25:118 26:118 27:31 28:31 29:242 30:333 31:4059 32:242 33:329 34:4063 35:19 36:19 37:4060 38:4060 39:19 40:4059 41:4059 42:21 43:21 44:4012 45:97 46:21 47:21 48:22 49:22  |EV| 
-0.042879351002312195151322526953663  |BT| (NP (NP (JJ many))(PP (IN in)(NP (DT the)(NNP Kostunica)))) |BT| (BOW ) |BT| (BOH (in *)) |BT| (BOH-NPs (Kostunica *)) |BT| (LP (JJ *)(NP *)(PP *)(NP *)(NNP *)) |BT| (LP-head (JJ *)(NP many)(PP *)(NP *)(NNP *)) |BT| (NP (NP (JJ many))(PP (IN in)(NP (DT the)(NNP Kostunica)))) |BT| (NP (ROOT (S (NP (SBAR (S (VP (PP (NP (NP (E-PER (JJ many)))(PP (IN in)(NP (DT the)(E-PER (NNP Kostunica))(E-PER (NN camp)))))))))(, ,))(VP (VBZ has)(NP (NP (JJ little)(NN chance))(PP (IN of)(S (VP (VBG being)(VP (VBN formed)))))))(. .)))(ROOT (S (SBAR (IN With)(S (NP (DT the)(E-ORG (NN opposition)))(VP (VBD outnumbered)(PP (IN in)(NP (E-ORG (NN parliament)))))))(, ,)(NP (NP (DT a)(JJ nonpartisan)(E-ORG (NN government)))(PP (IN of)(NP (E-PER (NNS experts))))(, ,)(SBAR (IN as)(S (VP (VBN favored)(PP (IN by)(NP (NP (E-PER (JJ many)))(PP (IN in)(NP (DT the)(E-PER (NNP Kostunica))))))))))))) |ET| 11:1877 12:33 13:3416 14:1059 16:25 17:7 18:148 21:165 22:227 23:3417 24:1785 25:118 26:118 27:106 28:105 29:460 30:105 31:3418 32:106 33:3419 34:1788 37:1247 38:3420 40:460 41:3415 42:1764 43:106 44:400 45:3418 46:1764 47:106 48:22 49:22  |EV| 
-0.019257581023451840473992291435934  |BT| (ADJP (ADJP (SBAR (S (VP (NP (NP (JJ presidential)(NN campaign))(PP (IN between)(NP (NP (CD two)(NNS candidates))(SBAR (WHNP (WP who))(S (VP (VBP have)(NP (NP (ADJP (RB sharply)(JJ different))(NNS views))(PP (IN of)(NP (NP (NNP America)(POS 's))(NN role))))))))))))))(PP (IN in)(NP (NP (DT the)(NN world))))) |BT| (BOW (campaign *)(between *)(two *)(candidates *)(who *)(have *)(sharply *)(different *)(views *)(of *)(America *)('s *)(role *)) |BT| (BOH (between *)(candidates *)(who *)(have *)(different *)(views *)(of *)(America *)(role *)(in *)) |BT| (BOH-NPs (candidates *)(views *)(America *)(role *)) |BT| (LP (JJ *)(NP *)(VP *)(S *)(SBAR *)(ADJP *)(PP *)(NP *)(NN *)) |BT| (LP-head (JJ *)(NP *)(VP *)(S *)(SBAR *)(ADJP None)(PP *)(NP *)(NN *)) |BT| (ADJP (ADJP (SBAR (S (VP (NP (NP (JJ presidential)(NN campaign))(PP (IN between)(NP (NP (CD two)(NNS candidates))(SBAR (WHNP (WP who))(S (VP (VBP have)(NP (NP (ADJP (RB sharply)(JJ different))(NNS views))(PP (IN of)(NP (NP (NNP America)(POS 's))(NN role))))))))))))))(PP (IN in)(NP (NP (DT the)(NN world))))) |BT| (ADJP (ROOT (S (VP (NP (PP (NP (ADJP (ADJP (SBAR (S (VP (NP (NP (E-PER (JJ presidential))(NN campaign))(PP (IN between)(NP (NP (CD two)(E-PER (NNS candidates)))(SBAR (WHNP (E-PER (WP who)))(S (VP (VBP have)(NP (NP (ADJP (RB sharply)(JJ different))(NNS views))(PP (IN of)(NP (NP (E-GPE (NNP America))(POS 's))(NN role))))))))))))))(PP (IN in)(NP (NP (DT the)(E-LOC (NN world)))(CC and)(NP (DT a)(JJ wide)(NN gap))))(PP (IN in)(NP (JJ foreign)(NN policy))))(NN experience)))))(. .)))(ROOT (S (NP (PRP It))(VP (VBZ 's)(NP (NP (DT the)(JJ first)(JJ foreign)(NN policy)(NN spat))(PP (IN of)(NP (DT an)(ADJP (ADJP (ADJP (RB otherwise)(RB domestically))(SBAR (S (VP (VBD focused)(NP (NP (E-PER (JJ presidential))(NN campaign))(PP (IN between)(NP (NP (CD two)(E-PER (NNS candidates)))(SBAR (WHNP (E-PER (WP who)))(S (VP (VBP have)(NP (NP (ADJP (RB sharply)(JJ different))(NNS views))(PP (IN of)(NP (NP (E-GPE (NNP America))(POS 's))(NN role))))))))))))))(PP (IN in)(NP (NP (DT the)(E-LOC (NN world))))))))))))) |ET| 11:1705 12:1706 13:1693 14:33 16:151 17:47 18:152 21:165 22:217 23:1694 24:340 25:118 26:118 27:1414 28:105 29:1695 30:105 31:1696 32:106 33:1697 34:341 37:1414 38:331 40:1695 41:1698 42:1340 43:260 44:1699 45:1698 46:1654 47:106 48:1704 49:1654  |EV| 
0.12499999999996855293282749244099  |BT| (NP (NNP Shiite)(NNPS Muslims)) |BT| (BOW ) |BT| (BOH ) |BT| (BOH-NPs ) |BT| (LP (NNP *)(NP *)(NNPS *)) |BT| (LP-head (NNP *)(NP Muslims)(NNPS *)) |BT| (NP (NNP Shiite)(NNPS Muslims)) |BT| (NP (ROOT (S (VP (VP (VP (PP (NP (PP (S (VP (NP (NP (NP (E-PER (NNP Shiite))(E-PER (NNPS Muslims))))(, ,)(NP (NP (DT a)(NN charge))(SBAR (S (NP (E-ORG (PRP they)))(VP (VBP reject))))))))))))))(. .)))(ROOT (S (NP (DT The)(E-ORG (NNP Taliban)))(VP (VBP have)(VP (VBN been)(VP (VBN accused)(PP (IN by)(NP (NP (JJ international)(E-PER (JJ human))(NNS rights)(E-ORG (NNS groups)))(PP (IN of)(S (VP (VBG mistreating)(NP (NP (NP (DT the)(NN minority))(NP (E-PER (NNP Shiite))(E-PER (NNPS Muslims)))))))))))))))) |ET| 11:10065 12:10066 13:9970 14:33 16:7 17:7 18:148 21:9 22:255 23:9971 24:10001 25:118 26:118 27:31 28:31 29:429 30:9976 31:105 32:429 33:9974 34:10003 35:19 36:19 37:10004 38:10004 39:19 40:429 41:429 42:21 43:21 44:1548 45:187 46:21 47:21 48:22 49:22  |EV| 
0.12499999999996855293282749244099  |BT| (NP (NN Labor)(NN government)) |BT| (BOW ) |BT| (BOH ) |BT| (BOH-NPs ) |BT| (LP (NN *)(NP *)(NN *)) |BT| (LP-head (NN *)(NP government)(NN *)) |BT| (NP (NN Labor)(NN government)) |BT| (NP (ROOT (S (NP (SBAR (S (VP (PP (NP (PP (NP (NP (E-ORG (NN Labor))(E-ORG (NN government)))))))))))(VP (VBD resorted)(PP (TO to)(NP (NP (ADJP (RB rarely)(VBN used))(NNS powers))(NP-TMP (NNP Thursday))))(S (VP (TO to)(VP (VB pass)(NP (NN legislation))(S (VP (VBG lowering)(NP (NP (DT the)(NN age))(PP (IN of)(NP (NP (NN consent))(PP (IN for)(NP (E-PER (NNS homosexuals)))))))(PP (IN from)(NP (QP (CD 18)(TO to)(CD 16))))))))))(. .)))(ROOT (S (NP (NP (E-GPE (NNP LONDON)))(PRN (-LRB- -LRB-)(NP (NNP AP))(-RRB- -RRB-))(SBAR (WHNP (NP (CD __))(PP (IN After)(NP (CD three))))(S (VP (VBZ defeats)(PP (IN in)(NP (NP (DT the)(NNP House))(PP (IN of)(NP (NP (NNPS Lords))(, ,)(NP (NP (E-GPE (NNP Britain))(POS 's))(E-ORG (NN Labor))(E-ORG (NN government)))))))))))))) |ET| 11:10981 12:10982 13:10978 14:24 16:7 17:7 18:435 21:9 22:311 23:10979 24:399 25:117 26:117 27:31 28:31 29:58 30:5228 31:8608 32:58 33:10980 34:401 35:19 36:19 37:400 38:400 39:19 40:8608 41:8608 42:21 43:21 44:10977 45:10977 46:21 47:21 48:22 49:22  |EV| 
0.12499999999996855293282749244099  |BT| (NP (NN Labor)(NN government)) |BT| (BOW ) |BT| (BOH ) |BT| (BOH-NPs ) |BT| (LP (NN *)(NP *)(NN *)) |BT| (LP-head (NN *)(NP government)(NN *)) |BT| (NP (NN Labor)(NN government)) |BT| (NP (ROOT (S (NP (SBAR (S (VP (PP (NP (PP (NP (NP (E-ORG (NN Labor))(E-ORG (NN government)))))))))))(VP (VBD resorted)(PP (TO to)(NP (NP (ADJP (RB rarely)(VBN used))(NNS powers))(NP-TMP (NNP Thursday))))(S (VP (TO to)(VP (VB pass)(NP (NN legislation))(S (VP (VBG lowering)(NP (NP (DT the)(NN age))(PP (IN of)(NP (NP (NN consent))(PP (IN for)(NP (E-PER (NNS homosexuals)))))))(PP (IN from)(NP (QP (CD 18)(TO to)(CD 16))))))))))(. .)))(ROOT (S (NP (NP (E-GPE (NNP LONDON)))(PRN (-LRB- -LRB-)(NP (NNP AP))(-RRB- -RRB-))(SBAR (WHNP (NP (CD __))(PP (IN After)(NP (CD three))))(S (VP (VBZ defeats)(PP (IN in)(NP (NP (DT the)(NNP House))(PP (IN of)(NP (NP (NNPS Lords))(, ,)(NP (NP (E-GPE (NNP Britain))(POS 's))(E-ORG (NN Labor))(E-ORG (NN government)))))))))))))) |ET| 11:10981 12:10982 13:10978 14:24 16:7 17:7 18:435 21:9 22:311 23:10979 24:399 25:117 26:117 27:31 28:31 29:58 30:5228 31:8608 32:58 33:10980 34:401 35:19 36:19 37:400 38:400 39:19 40:8608 41:8608 42:21 43:21 44:10977 45:10977 46:21 47:21 48:22 49:22  |EV| 
-0.12499999999996855293282749244099  |BT| (NP (JJ Many)(JJ suspect)(NNS supporters)) |BT| (BOW ) |BT| (BOH ) |BT| (BOH-NPs ) |BT| (LP (JJ *)(NP *)(NNS *)) |BT| (LP-head (JJ *)(NP supporters)(NNS *)) |BT| (NP (JJ Many)(JJ suspect)(NNS supporters)) |BT| (NP (ROOT (S (NP (NP (E-PER (JJ Many))(JJ suspect)(E-PER (NNS supporters)))(PP (IN of)(NP (E-PER (NNP Suharto))))(, ,)(SBAR (WHNP (E-PER (WP who)))(S (VP (VBD ruled)(PP (IN for)(NP (CD 32)(NNS years)))(PP (IN until)(NP (NP (E-PER (PRP$ his))(NN ouster))(PP (IN in)(NP (CD 1998))))))))(, ,))(VP (VBD were)(PP (IN behind)(NP (DT the)(NNS attacks))))(. .)))(JJ suspect)(ROOT (S (NP (NP (E-PER (JJ Many))(JJ suspect)(E-PER (NNS supporters))))))) |ET| 4:19 6:19 11:939 12:940 13:941 14:33 16:6 17:7 18:148 21:165 22:166 23:942 24:943 25:118 26:118 27:944 28:944 29:14 30:944 31:945 32:946 33:947 34:948 35:19 37:949 38:949 39:19 40:21 41:21 42:21 43:21 44:21 45:21 46:21 47:21 48:22 49:22  |EV| 
-0.12499999999996855293282749244099  |BT| (NP (JJ Western)(NNS governments)) |BT| (BOW ) |BT| (BOH ) |BT| (BOH-NPs ) |BT| (LP (JJ *)(NP *)(NNS *)) |BT| (LP-head (JJ *)(NP governments)(NNS *)) |BT| (NP (JJ Western)(NNS governments)) |BT| (NP (ROOT (S (VP (VP (PP (NP (SBAR (S (VP (NP (E-LOC (JJ Western))(E-ORG (NNS governments)))(S (VP (TO to)(VP (VP (VB impose)(NP (NNS sanctions)))(CC and)(VP (VB isolate)(NP (NP (DT the)(E-ORG (NN government)))(PP (IN in)(NP (E-GPE (NNP Belgrade))))))))))))))))(. .)))(ROOT (S (NP (DT Those)(NNS conflicts))(VP (VBD were)(VP (VBN marked)(PP (IN by)(NP (NP (JJ horrific)(NNS acts))(PP (IN of)(NP (NN violence)))))(PP (IN against)(NP (NP (E-PER (NNS civilians)))(, ,)(SBAR (WHNP (WDT which))(S (VP (VBD prompted)(NP (E-LOC (JJ Western))(E-ORG (NNS governments))))))))))))) |ET| 11:3267 12:3268 13:3111 14:90 16:7 17:7 18:2214 21:165 22:166 23:3112 24:3269 25:122 26:122 27:31 28:31 29:3262 30:3270 31:668 32:3262 33:3114 34:3271 35:19 36:19 37:3265 38:3265 39:19 40:3262 41:3264 42:21 43:21 44:108 45:668 46:21 47:21 48:22 49:22  |EV| 
-0.12499999999996855293282749244099  |BT| (NP (NN government)(NN spokesman)) |BT| (BOW ) |BT| (BOH ) |BT| (BOH-NPs ) |BT| (LP (NN *)(NP *)(NN *)) |BT| (LP-head (NN *)(NP Shai)(NN *)) |BT| (NP (NN government)(NN spokesman)) |BT| (NP (ROOT (SINV (NP (E-GPE (NN government))(E-PER (NN spokesman))(E-PER (NNP Nahman)(NNP Shai)))(. .)))(ROOT (SINV (`` ``)(S (NP (DT The)(E-PER (NNPS Palestinians)))(VP (VP (VBD betrayed)(NP (E-PER (PRP$ their))(NN commitment)))(CC and)(VP (VBP have)(VP (VBN let)(NP (DT this)(E-FAC (NN shrine))(NN fall))(PP (IN into)(NP (NP (DT the)(NNS hands))(PP (IN of)(NP (NP (DT the)(E-PER (NN mob)))(VP (VBG waiting)(ADVP (RB outside)))))))))))(, ,)('' '')(VP (VBD said)(NP (E-GPE (NNP Israeli))))(NP (E-GPE (NN government))(E-PER (NN spokesman)))))) |ET| 11:2544 12:33 13:2542 14:5 16:7 17:7 18:35 19:338 21:9 22:311 23:399 24:1902 25:1 26:1 27:31 28:31 29:418 30:400 31:170 32:418 33:401 34:1906 35:19 36:19 37:2543 38:2543 39:19 40:418 41:418 42:21 43:21 44:2540 45:170 46:21 47:21 48:22 49:22  |EV| 
0.12153105783701242947891785206593  |BT| (S (`` ``)(S (NP (PRP You))(VP (VBP belong)(PP (TO to)(NP (NP (DT the)(NNS people))))))) |BT| (BOW (belong *)) |BT| (BOH (You *)) |BT| (BOH-NPs (You *)) |BT| (LP (`` *)(S *)(S *)(VP *)(PP *)(NP *)(NNS *)) |BT| (LP-head (`` *)(S belong)(S *)(VP *)(PP *)(NP *)(NNS *)) |BT| (S (`` ``)(S (NP (PRP You))(VP (VBP belong)(PP (TO to)(NP (NP (DT the)(NNS people))))))) |BT| (S (ROOT (S (`` ``)))(ROOT (S (`` ``)(S (NP (PRP You))(VP (VBP belong)(PP (TO to)(NP (NP (DT the)(E-PER (NNS people)))))))))) |ET| 4:19 11:9898 12:9899 13:3940 14:33 16:47 17:7 18:148 21:1324 22:1450 23:3941 24:934 25:118 26:118 27:9900 28:105 29:14 30:105 31:1733 32:291 33:3944 34:936 37:9900 38:937 40:21 41:21 42:3947 43:3947 44:21 45:21 46:3947 47:3947 48:22 49:22  |EV| 
0.12499999999996855293282749244099  |BT| (NP (NN Labor)(NN government)) |BT| (BOW ) |BT| (BOH ) |BT| (BOH-NPs ) |BT| (LP (NN *)(NP *)(NN *)) |BT| (LP-head (NN *)(NP government)(NN *)) |BT| (NP (NN Labor)(NN government)) |BT| (NP (ROOT (S (NP (SBAR (S (VP (PP (NP (PP (NP (NP (E-ORG (NN Labor))(E-ORG (NN government)))))))))))(VP (VBD resorted)(PP (TO to)(NP (NP (ADJP (RB rarely)(VBN used))(NNS powers))(NP-TMP (NNP Thursday))))(S (VP (TO to)(VP (VB pass)(NP (NN legislation))(S (VP (VBG lowering)(NP (NP (DT the)(NN age))(PP (IN of)(NP (NP (NN consent))(PP (IN for)(NP (E-PER (NNS homosexuals)))))))(PP (IN from)(NP (QP (CD 18)(TO to)(CD 16))))))))))(. .)))(ROOT (S (NP (NP (E-GPE (NNP LONDON)))(PRN (-LRB- -LRB-)(NP (NNP AP))(-RRB- -RRB-))(SBAR (WHNP (NP (CD __))(PP (IN After)(NP (CD three))))(S (VP (VBZ defeats)(PP (IN in)(NP (NP (DT the)(NNP House))(PP (IN of)(NP (NP (NNPS Lords))(, ,)(NP (NP (E-GPE (NNP Britain))(POS 's))(E-ORG (NN Labor))(E-ORG (NN government)))))))))))))) |ET| 11:10981 12:10982 13:10978 14:24 16:7 17:7 18:435 21:9 22:311 23:10979 24:399 25:117 26:117 27:31 28:31 29:58 30:5228 31:8608 32:58 33:10980 34:401 35:19 36:19 37:400 38:400 39:19 40:8608 41:8608 42:21 43:21 44:10977 45:10977 46:21 47:21 48:22 49:22  |EV| 
0.047902234854959674370533662113303  |BT| (NP (JJ Muslim)(NNS youths)) |BT| (BOW ) |BT| (BOH ) |BT| (BOH-NPs ) |BT| (LP (JJ *)(NP *)(NNS *)) |BT| (LP-head (JJ *)(NP youths)(NNS *)) |BT| (NP (JJ Muslim)(NNS youths)) |BT| (NP (ROOT (S (NP (E-PER (JJ Muslim))(E-PER (NNS youths)))(ADVP (RB recently))(VP (VBD staged)(NP (DT a)(NN half)(NN dozen)(NNS rallies))(PP (IN in)(NP (NP (NN front))(PP (IN of)(NP (DT the)(E-FAC (NN embassy))))))(PP (TO to)(NP (NP (NP (NN protest)(E-GPE (NNP Washington))(POS 's))(VBN perceived)(NN bias))(PP (IN in)(NP (NP (NN favor))(PP (IN of)(NP (E-GPE (NNP Israel)))))))))(. .)))(ROOT (S (NP (E-PER (JJ Muslim))(E-PER (NNS youths)))))) |ET| 4:19 11:7893 12:7894 13:7825 14:33 16:7 17:7 18:148 21:165 22:166 23:7826 24:5848 25:118 26:118 27:31 28:31 29:14 30:7830 31:463 32:14 33:7827 34:5849 35:19 36:19 37:5850 38:5850 39:19 40:21 41:21 42:21 43:21 44:21 45:21 46:21 47:21 48:22 49:22  |EV| 
-0.059904824870631756539296475239098  |BT| (NP (NP (NNP Hafez)(NNP Assad)(POS 's))(NNS attempts)(S (VP (TO to)(VP (VB rally)(S (NP (NNP Arab)(NNS leaders))))))) |BT| (BOW ('s *)(attempts *)(to *)) |BT| (BOH (attempts *)(rally *)) |BT| (BOH-NPs (attempts *)(Arab *)) |BT| (LP (NNP *)(NP *)(S *)(VP *)(S *)(NP *)(NNS *)) |BT| (LP-head (NNP *)(NP attempts)(S *)(VP *)(S *)(NP *)(NNS *)) |BT| (NP (NP (NNP Hafez)(NNP Assad)(POS 's))(NNS attempts)(S (VP (TO to)(VP (VB rally)(S (NP (NNP Arab)(NNS leaders))))))) |BT| (NP (ROOT (S (NP (NP (E-PER (NNP Hafez)(NNP Assad))(POS 's))(NNS attempts)(S (VP (TO to)(VP (VB rally)(S (NP (E-PER (NNP Arab))(E-PER (NNS leaders)))(VP (TO to)(VP (VB present)(NP (NP (DT a)(VBN unified)(NN front))(PP (IN against)(NP (E-GPE (NNP Israel))))))))))))(VP (VBD gained)(NP (JJ little)(NN ground)))(. .)))(NNS attempts)(ROOT (S (NP (NP (E-PER (NNP Hafez)(NNP Assad))(POS 's))(NNS attempts)(S (VP (TO to)(VP (VB rally)(S (NP (E-PER (NNP Arab))(E-PER (NNS leaders))))))))))) |ET| 4:19 11:590 12:591 13:584 14:585 16:64 17:6 18:148 21:9 22:113 23:283 24:592 25:118 26:118 27:58 28:333 29:14 30:333 31:587 32:586 33:284 34:593 37:67 38:588 40:21 41:21 42:589 43:589 44:21 45:21 46:333 47:586 48:589 49:589  |EV| 
-0.027499610382246686413054703734815  |BT| (S (NP (NNP Arab)(NNS leaders))(VP (TO to)(VP (VB present)(NP (NP (DT a)(VBN unified)(NN front))(PP (IN against)(NP (NNP Israel))))))) |BT| (BOW (leaders *)(to *)(present *)(a *)(unified *)) |BT| (BOH (present *)(front *)(against *)) |BT| (BOH-NPs (front *)) |BT| (LP (NNP *)(NP *)(S *)(VP *)(NP *)(PP *)(NP *)(NNP *)) |BT| (LP-head (NNP *)(NP *)(S None)(VP *)(NP *)(PP *)(NP *)(NNP *)) |BT| (S (NP (NNP Arab)(NNS leaders))(VP (TO to)(VP (VB present)(NP (NP (DT a)(VBN unified)(NN front))(PP (IN against)(NP (NNP Israel))))))) |BT| (S (ROOT (S (NP (S (VP (VP (S (NP (E-PER (NNP Arab))(E-PER (NNS leaders)))(VP (TO to)(VP (VB present)(NP (NP (DT a)(VBN unified)(NN front))(PP (IN against)(NP (E-GPE (NNP Israel))))))))))))(VP (VBD gained)(NP (JJ little)(NN ground)))(. .)))(ROOT (S (NP (NP (E-PER (NNP Hafez)(NNP Assad))(POS 's))(NNS attempts)(S (VP (TO to)(VP (VB rally)(S (NP (E-PER (NNP Arab))(E-PER (NNS leaders)))(VP (TO to)(VP (VB present)(NP (NP (DT a)(VBN unified)(NN front))(PP (IN against)(NP (E-GPE (NNP Israel))))))))))))))) |ET| 10:118 11:458 12:5 13:321 14:33 16:34 17:7 18:143 21:9 22:10 23:326 24:459 25:118 26:118 27:588 28:594 29:586 30:594 31:291 32:595 33:329 34:462 37:588 38:463 40:586 41:589 42:595 43:596 44:67 45:589 46:595 47:594 48:22 49:595  |EV| 
-0.005268143958434416337932582052872  |BT| (S (NP (NNP Arab)(NNS countries))(VP (MD will)(VP (VB follow)(, ,)(PP (IN despite)(NP (NNP U.S.)(NNS complaints)))(, ,)(S (VP (VBG easing)(NP (PRP$ its))))))) |BT| (BOW (countries *)(will *)(follow *)(, *)(despite *)(U.S. *)(complaints *)) |BT| (BOH (will *)(follow *)(despite *)(complaints *)) |BT| (BOH-NPs (complaints *)) |BT| (LP (NNP *)(NP *)(S *)(VP *)(S *)(VP *)(NP *)(PRP$ *)) |BT| (LP-head (NNP *)(NP *)(S will)(VP *)(S *)(VP *)(NP *)(PRP$ *)) |BT| (S (NP (NNP Arab)(NNS countries))(VP (MD will)(VP (VB follow)(, ,)(PP (IN despite)(NP (NNP U.S.)(NNS complaints)))(, ,)(S (VP (VBG easing)(NP (PRP$ its))))))) |BT| (S (ROOT (S (VP (VP (SBAR (S (NP (E-PER (NNP Arab))(E-GPE (NNS countries)))(VP (MD will)(VP (VB follow)(, ,)(PP (IN despite)(NP (E-GPE (NNP U.S.))(NNS complaints)))(, ,)(S (VP (VBG easing)(NP (E-GPE (PRP$ its))(NN isolation))))))))))(. .)))(ROOT (S (NP (E-GPE (NNP Iraq)))(VP (VBZ is)(VP (VBG hoping)(SBAR (S (NP (JJ other)(E-PER (NNP Arab))(E-GPE (NNS countries)))(VP (MD will)(VP (VB follow)(, ,)(PP (IN despite)(NP (E-GPE (NNP U.S.))(NNS complaints)))(, ,)(S (VP (VBG easing)(NP (E-GPE (PRP$ its)))))))))))))) |ET| 11:305 12:5 13:321 14:33 16:92 17:6 18:143 21:36 22:37 23:326 24:186 25:118 26:118 27:330 28:552 29:545 30:552 31:547 32:13 33:329 34:190 37:330 38:546 40:333 41:333 42:551 43:492 44:190 45:545 46:551 47:551 48:22 49:550  |EV| 
-0.044146688159291160025166078639813  |BT| (NP (PRP$ their)(NNS campaigns)) |BT| (BOW ) |BT| (BOH ) |BT| (BOH-NPs ) |BT| (LP (PRP$ *)(NP *)(NNS *)) |BT| (LP-head (PRP$ *)(NP campaigns)(NNS *)) |BT| (NP (PRP$ their)(NNS campaigns)) |BT| (NP (ROOT (S (S (VP (NP (PP (NP (E-PER (PRP$ their))(E-ORG (NNS campaigns)))))(ADVP (ADVP (ADVP (RBR more)(RB effectively))(PP (IN than)(NP (NP (DT the)(NN top))(PP (IN of)(NP (E-PER (PRP$ their))(NN ticket))))))(SBAR (WHADVP (WRB when))(S (NP (E-PER (PRP they)))(VP (VBD met)(PP (IN in)(NP (E-GPE (NNP Boston))))))))))(, ,)('' '')(NP (E-PER (NNP Tom)(NNP Brokaw)))(VP (VBD said))(. .)))(ROOT (S (`` ``)(S (ADJP (RB Highly)(JJ civilized))(, ,)(X (IN in)(NP (JJ many)(NNS ways)))(NP (E-PER (PRP they)))(VP (VBD articulated)(NP (NP (DT the)(NNS positions))(PP (IN of)(NP (E-PER (PRP$ their))(E-ORG (NNS campaigns)))))))))) |ET| 4:19 5:19 11:1251 12:1252 13:580 14:33 16:7 17:7 18:301 21:144 22:156 23:1244 24:1253 25:118 26:118 27:31 28:31 29:187 30:1254 31:1248 32:187 33:1249 34:1255 35:19 36:19 37:1250 38:1250 39:19 40:187 41:1248 42:21 43:21 44:1246 45:1248 46:21 47:21 48:22 49:22  |EV| 
0.12499999999996855293282749244099  |BT| (VP (VP (PP (NP (NP (NNS supporters))(PP (IN of)(NP (NNP Bush))))))(CC and)(VP (VBG running)(NP (NN mate)(NNP Dick)(NNP Cheney)))) |BT| (BOW (of *)(Bush *)(and *)) |BT| (BOH (of *)(Bush *)) |BT| (BOH-NPs (Bush *)(Dick *)) |BT| (LP (NNS *)(NP *)(PP *)(VP *)(VP *)(NP *)(NNP *)) |BT| (LP-head (NNS *)(NP *)(PP *)(VP matched)(VP *)(NP *)(NNP *)) |BT| (VP (VP (PP (NP (NP (NNS supporters))(PP (IN of)(NP (NNP Bush))))))(CC and)(VP (VBG running)(NP (NN mate)(NNP Dick)(NNP Cheney)))) |BT| (VP (ROOT (S (VP (VP (VP (PP (NP (NP (E-PER (NNS supporters)))(PP (IN of)(NP (E-PER (NNP Bush)))))))(CC and)(VP (VBG running)(NP (E-PER (NN mate))(E-PER (NNP Dick)(NNP Cheney))))))(. .)))(CC and)(ROOT (S (NP (E-PER (PRP They)))(VP (VBD were)(ADVP (RB then))(VP (VP (VBN matched)(PP (IN by)(NP (NP (E-PER (NNS supporters)))(PP (IN of)(NP (E-PER (NNP Bush)))))))(CC and)(VP (VBG running)(NP (E-PER (NN mate))(E-PER (NNP Dick)(NNP Cheney))))))))) |ET| 6:19 11:12990 12:12991 13:12983 14:797 16:64 17:25 18:148 21:9 22:324 23:943 24:1214 25:118 26:118 27:187 28:12992 29:460 30:12992 31:12985 32:7477 33:948 34:1215 37:949 38:1216 40:460 41:21 42:1312 43:187 44:21 45:12985 46:1217 47:1312 48:1312 49:187  |EV| 
0.010887836203267718324094737170071  |BT| (NP (JJ non-Muslim)(NNS families)) |BT| (BOW ) |BT| (BOH ) |BT| (BOH-NPs ) |BT| (LP (JJ *)(NP *)(NNS *)) |BT| (LP-head (JJ *)(NP families)(NNS *)) |BT| (NP (JJ non-Muslim)(NNS families)) |BT| (NP (ROOT (SINV (S (VP (PP (NP (NP (PP (NP (S (VP (VP (PP (NP (PP (NP (E-PER (JJ non-Muslim))(E-PER (NNS families))))))(ADVP (IN as)(RB far)(SBAR (IN as)(S (NP (NP (NNS issues))(PP (JJ such)(IN as)(NP (NP (NN blood)(NN money))(CC and)(NP (NP (DT the)(NNS verdicts))(PP (IN of)(NP (DT the)(E-ORG (NNS courts))))))))(VP (VBP are)(ADJP (VBN concerned))))))))))))))))(, ,)('' '')(VP (VBD said))(NP (NP (E-PER (NNP Maurice)(NNP Motamed)))(, ,)(NP (NP (DT the)(JJ sole)(E-PER (JJ Jewish))(E-PER (NN representative)))(PP (IN in)(NP (NP (E-GPE (NNP Iran))(POS 's))(JJ 290-seat)(E-ORG (NN parliament))))))(. .)))(ROOT (SINV (`` ``)(S (NP (PRP I))(VP (VBP call)(PP (IN on)(NP (NP (DT the)(E-PER (JJ Muslim))(JJ religious)(E-PER (NNS leaders)))(CC and)(NP (NP (DT the)(E-PER (NNS officials)))(PP (IN of)(NP (DT the)(E-ORG (NN judiciary))(S (VP (TO to)(VP (VB pay)(NP (JJR more)(NN attention))(PP (TO to)(NP (NP (DT the)(NNS rights))(PP (IN of)(NP (E-PER (JJ non-Muslim))(E-PER (NNS families))))))))))))))))))) |ET| 4:19 6:19 11:15169 12:15170 13:15165 14:33 16:7 17:7 18:148 21:165 22:166 23:15166 24:5275 25:118 26:118 27:31 28:31 29:187 30:15171 31:3209 32:187 33:15167 34:5279 35:19 36:19 37:5280 38:5280 39:19 40:187 41:3209 42:21 43:21 44:15168 45:3209 46:21 47:21 48:22 49:22  |EV| 
-0.11948117943809861973836206061605  |BT| (NP (NN opposition)(NN block)) |BT| (BOW ) |BT| (BOH ) |BT| (BOH-NPs ) |BT| (LP (NN *)(NP *)(NN *)) |BT| (LP-head (NN *)(NP block)(NN *)) |BT| (NP (NN opposition)(NN block)) |BT| (NP (ROOT (S (PP (NP (NP (E-ORG (NN opposition))(E-ORG (NN block)))(PP (ADVP (JJ short))(IN of)(NP (DT an)(JJ absolute)(NN majority)))))(, ,)(NP (E-ORG (PRP it)))(VP (VBZ appears)(VP (VBN compelled)(S (VP (TO to)(VP (VB deal)(PP (IN with)(NP (NP (NP (DT the)(NNP Socialist)(NNPS People)(POS 's))(NNP Party))(PP (IN of)(NP (NP (E-GPE (NNP Montenegro)))(, ,)(NP (DT the)(JJR smaller)(E-GPE (JJ Yugoslav))(E-GPE (NN republic))))))))))))(. .)))(ROOT (S (CC And)(PP (IN with)(NP (NP (NP (E-PER (NNP Kostunica))(POS 's))(JJ 18-party)(E-ORG (NN opposition))(E-ORG (NN block)))))))) |ET| 11:3353 12:3354 13:3094 14:24 16:7 17:7 18:435 19:338 21:9 22:311 23:3095 24:3355 25:117 26:117 27:31 28:31 29:3352 30:1762 31:58 32:3352 33:3096 34:3356 35:19 36:19 37:2744 38:2744 39:19 40:1762 41:1762 42:21 43:21 44:1764 45:3352 46:21 47:21 48:22 49:22  |EV| 
-0.12499999999996855293282749244099  |BT| (NP (NN hospital)(NN spokeswoman)) |BT| (BOW ) |BT| (BOH ) |BT| (BOH-NPs ) |BT| (LP (NN *)(NP *)(NN *)) |BT| (LP-head (NN *)(NP O'Grady)(NN *)) |BT| (NP (NN hospital)(NN spokeswoman)) |BT| (NP (ROOT (S (NP (E-ORG (NN hospital))(E-PER (NN spokeswoman))(E-PER (NNP Rebecca)(NNP O'Grady)))(VP (VBD said)(NP-TMP (NNP Thursday)))(. .)))(ROOT (S (S (NP (DT The)(ADJP (E-PER (JJ suspect))))(VP (VBD died)(ADVP (RB later))(NP-TMP (DT the)(JJ same)(NN night))))(, ,)(NP (E-ORG (NN hospital))(E-PER (NN spokeswoman)))))) |ET| 5:19 11:3617 12:33 13:3612 14:24 16:7 17:7 18:126 19:434 21:9 22:311 23:3614 24:3618 25:117 26:117 27:31 28:31 29:13 30:3619 31:1878 32:13 33:3615 34:3620 35:19 36:19 37:3616 38:3616 39:19 40:1878 41:1878 42:21 43:21 44:21 45:3608 46:21 47:21 48:22 49:22  |EV| 
-0.10111139934937629636380052033928  |BT| (NP (NN police)(NN headquarters)) |BT| (BOW ) |BT| (BOH ) |BT| (BOH-NPs ) |BT| (LP (NN *)(NP *)(NN *)) |BT| (LP-head (NN *)(NP headquarters)(NN *)) |BT| (NP (NN police)(NN headquarters)) |BT| (NP (ROOT (S (VP (VP (SBAR (S (VP (VP (PP (NP (E-ORG (NN police))(E-FAC (NN headquarters))))))))))(. .)))(ROOT (S (NP (NP (E-GPE (NN WARREN)))(, ,)(NP (NP (NP (E-GPE (NNP Mich.)))(PRN (-LRB- -LRB-)(NP (NNP AP))(-RRB- -RRB-))(NP (CD _)))(NP (NP (DT A)(E-PER (NN detective)))(CC and)(NP (DT a)(NN drug)(E-PER (NN suspect))))))(VP (VBD were)(ADVP (RB fatally))(VP (VBN wounded)(PP (IN during)(NP (DT a)(NN struggle)))(SBAR (IN while)(S (NP (DT the)(E-PER (NN officer)))(VP (VBD was)(VP (VBG booking)(NP (E-PER (PRP him)))(PP (IN at)(NP (E-ORG (NN police))(E-FAC (NN headquarters))))))))))))) |ET| 11:3538 12:3539 13:3537 14:24 16:7 17:7 18:2216 19:338 21:9 22:311 23:2759 24:3540 25:117 26:117 27:31 28:31 29:921 30:2761 31:690 32:921 33:2760 34:3541 35:19 36:19 37:3513 38:3513 39:19 40:921 41:3532 42:21 43:21 44:3533 45:690 46:21 47:21 48:22 49:22  |EV| 
0.12499999999996855293282749244099  |BT| (S (NP (NP (NP (NP (NNS backers))(PP (IN of)(NP (NNP Pinochet))))))(VP (VBP want)(NP (NP (NNP Guzman))(VP (VBN ousted)(PP (IN from)(NP (DT the)(NN case)))))(, ,)(S (VP (VBG claiming)(SBAR (S (NP (PRP he))(VP (VBZ has)(VP (VBN acted)(PP (IN in)(NP (NP (DT an)(ADJP (JJ arbitrary)(CC and)(JJ irregular))(NN manner))(SBAR (WHNP (IN that))(S (VP (VBZ violates)(NP (NP (NNP Pinochet)))))))))))))))) |BT| (BOW (of *)(Pinochet *)(want *)(Guzman *)(ousted *)(from *)(the *)(case *)(, *)(claiming *)(he *)(has *)(acted *)(in *)(an *)(arbitrary *)(and *)(irregular *)(manner *)) |BT| (BOH (of *)(want *)(Guzman *)(ousted *)(from *)(case *)(he *)(has *)(acted *)(in *)(manner *)(irregular *)(manner *)(violates *)) |BT| (BOH-NPs (Guzman *)(case *)(he *)(manner *)(manner *)) |BT| (LP (NNS *)(NP *)(S *)(VP *)(S *)(VP *)(SBAR *)(S *)(VP *)(PP *)(NP *)(SBAR *)(S *)(VP *)(NP *)(NNP *)) |BT| (LP-head (NNS *)(NP *)(S want)(VP *)(S *)(VP *)(SBAR *)(S *)(VP *)(PP *)(NP *)(SBAR *)(S *)(VP *)(NP *)(NNP *)) |BT| (S (NP (NP (NP (NP (NNS backers))(PP (IN of)(NP (NNP Pinochet))))))(VP (VBP want)(NP (NP (NNP Guzman))(VP (VBN ousted)(PP (IN from)(NP (DT the)(NN case)))))(, ,)(S (VP (VBG claiming)(SBAR (S (NP (PRP he))(VP (VBZ has)(VP (VBN acted)(PP (IN in)(NP (NP (DT an)(ADJP (JJ arbitrary)(CC and)(JJ irregular))(NN manner))(SBAR (WHNP (IN that))(S (VP (VBZ violates)(NP (NP (NNP Pinochet)))))))))))))))) |BT| (S (ROOT (S (NP (NP (NP (NP (E-PER (NNS backers)))(PP (IN of)(NP (E-PER (NNP Pinochet)))))))(VP (VBP want)(NP (NP (E-PER (NNP Guzman)))(VP (VBN ousted)(PP (IN from)(NP (DT the)(NN case)))))(, ,)(S (VP (VBG claiming)(SBAR (S (NP (E-PER (PRP he)))(VP (VBZ has)(VP (VBN acted)(PP (IN in)(NP (NP (DT an)(ADJP (JJ arbitrary)(CC and)(JJ irregular))(NN manner))(SBAR (WHNP (IN that))(S (VP (VBZ violates)(NP (NP (E-PER (NNP Pinochet))(POS 's))(NNS rights))))))))))))))(. .)))(ROOT (S (NP (NP (NP (JJ Right-wing)(E-PER (NNS members)))(PP (IN of)(NP (E-ORG (NN congress)))))(, ,)(NP (NN defense)(E-PER (NNS lawyers)))(, ,)(NP (NP (VBN retired)(E-ORG (NN army))(E-PER (NNS generals)))(CC and)(NP (NP (JJ other)(E-PER (NNS backers)))(PP (IN of)(NP (E-PER (NNP Pinochet)))))))(VP (VBP want)(NP (NP (E-PER (NNP Guzman)))(VP (VBN ousted)(PP (IN from)(NP (DT the)(NN case)))))(, ,)(S (VP (VBG claiming)(SBAR (S (NP (E-PER (PRP he)))(VP (VBZ has)(VP (VBN acted)(PP (IN in)(NP (NP (DT an)(ADJP (JJ arbitrary)(CC and)(JJ irregular))(NN manner))(SBAR (WHNP (IN that))(S (VP (VBZ violates)(NP (NP (E-PER (NNP Pinochet))))))))))))))))))) |ET| 11:12177 12:742 13:12226 14:7172 16:69 17:47 18:148 21:9 22:324 23:3053 24:12108 25:118 26:118 27:187 28:12232 29:545 30:12232 31:242 32:887 33:3054 34:12124 37:3055 38:12110 40:545 41:12221 42:12128 43:187 44:2276 45:12221 46:11122 47:12232 48:11122 49:11122  |EV| 
0.11792809372194798522848202537716  |BT| (NP (JJ non-Muslim)(NNS families)) |BT| (BOW ) |BT| (BOH ) |BT| (BOH-NPs ) |BT| (LP (JJ *)(NP *)(NNS *)) |BT| (LP-head (JJ *)(NP families)(NNS *)) |BT| (NP (JJ non-Muslim)(NNS families)) |BT| (NP (ROOT (SINV (S (VP (PP (NP (NP (PP (NP (S (VP (VP (PP (NP (PP (NP (E-PER (JJ non-Muslim))(E-PER (NNS families))))))(ADVP (IN as)(RB far)(SBAR (IN as)(S (NP (NP (NNS issues))(PP (JJ such)(IN as)(NP (NP (NN blood)(NN money))(CC and)(NP (NP (DT the)(NNS verdicts))(PP (IN of)(NP (DT the)(E-ORG (NNS courts))))))))(VP (VBP are)(ADJP (VBN concerned))))))))))))))))(, ,)('' '')(VP (VBD said))(NP (NP (E-PER (NNP Maurice)(NNP Motamed)))(, ,)(NP (NP (DT the)(JJ sole)(E-PER (JJ Jewish))(E-PER (NN representative)))(PP (IN in)(NP (NP (E-GPE (NNP Iran))(POS 's))(JJ 290-seat)(E-ORG (NN parliament))))))(. .)))(ROOT (SINV (`` ``)(S (NP (PRP I))(VP (VBP call)(PP (IN on)(NP (NP (DT the)(E-PER (JJ Muslim))(JJ religious)(E-PER (NNS leaders)))(CC and)(NP (NP (DT the)(E-PER (NNS officials)))(PP (IN of)(NP (DT the)(E-ORG (NN judiciary))(S (VP (TO to)(VP (VB pay)(NP (JJR more)(NN attention))(PP (TO to)(NP (NP (DT the)(NNS rights))(PP (IN of)(NP (E-PER (JJ non-Muslim))(E-PER (NNS families))))))))))))))))))) |ET| 4:19 6:19 11:15169 12:15170 13:15165 14:33 16:7 17:7 18:148 21:165 22:166 23:15166 24:5275 25:118 26:118 27:31 28:31 29:187 30:15171 31:3209 32:187 33:15167 34:5279 35:19 36:19 37:5280 38:5280 39:19 40:187 41:3209 42:21 43:21 44:15168 45:3209 46:21 47:21 48:22 49:22  |EV| 
-0.019844510057238962802417248099118  |BT| (NP (NP (NNS supporters))(PP (IN of)(NP (NNP Suharto)))(, ,)(SBAR (WHNP (WP who)))) |BT| (BOW (of *)) |BT| (BOH (of *)(Suharto *)) |BT| (BOH-NPs (Suharto *)) |BT| (LP (NNS *)(NP *)(SBAR *)(WHNP *)(WP *)) |BT| (LP-head (NNS *)(NP supporters)(SBAR *)(WHNP *)(WP *)) |BT| (NP (NP (NNS supporters))(PP (IN of)(NP (NNP Suharto)))(, ,)(SBAR (WHNP (WP who)))) |BT| (NP (ROOT (S (NP (NP (E-PER (NNS supporters)))(PP (IN of)(NP (E-PER (NNP Suharto))))(, ,)(SBAR (WHNP (E-PER (WP who)))(S (VP (VBD ruled)(PP (IN for)(NP (CD 32)(NNS years)))(PP (IN until)(NP (NP (E-PER (PRP$ his))(NN ouster))(PP (IN in)(NP (CD 1998))))))))(, ,))(VP (VBD were)(PP (IN behind)(NP (DT the)(NNS attacks))))(. .)))(PP (IN of)(NP (NNP Suharto)))(, ,)(ROOT (S (NP (NP (E-PER (JJ Many))(JJ suspect)(E-PER (NNS supporters)))(PP (IN of)(NP (E-PER (NNP Suharto))))(, ,)(SBAR (WHNP (E-PER (WP who)))))))) |ET| 6:19 11:950 12:33 13:939 14:940 16:47 17:6 18:148 21:661 22:959 23:943 24:953 25:118 26:118 27:187 28:13 29:944 30:13 31:946 32:629 33:948 34:954 37:949 38:955 40:944 41:21 42:629 43:187 44:21 45:946 46:629 47:629 48:22 49:187  |EV| 
-0.12499999999996855293282749244099  |BT| (NP (NP (NNS supporters))(PP (IN of)(NP (NNP Suharto)))) |BT| (BOW ) |BT| (BOH (of *)) |BT| (BOH-NPs ) |BT| (LP (NNS *)(NP *)(PP *)(NP *)(NNP *)) |BT| (LP-head (NNS *)(NP supporters)(PP *)(NP *)(NNP *)) |BT| (NP (NP (NNS supporters))(PP (IN of)(NP (NNP Suharto)))) |BT| (NP (ROOT (S (NP (NP (E-PER (NNS supporters)))(PP (IN of)(NP (E-PER (NNP Suharto))))(, ,)(SBAR (WHNP (E-PER (WP who)))(S (VP (VBD ruled)(PP (IN for)(NP (CD 32)(NNS years)))(PP (IN until)(NP (NP (E-PER (PRP$ his))(NN ouster))(PP (IN in)(NP (CD 1998))))))))(, ,))(VP (VBD were)(PP (IN behind)(NP (DT the)(NNS attacks))))(. .)))(ROOT (S (NP (NP (E-PER (JJ Many))(JJ suspect)(E-PER (NNS supporters)))(PP (IN of)(NP (E-PER (NNP Suharto)))))))) |ET| 6:19 11:626 12:33 13:939 14:940 16:6 17:7 18:148 21:9 22:324 23:943 24:627 25:118 26:118 27:187 28:187 29:944 30:187 31:946 32:949 33:948 34:628 37:949 38:629 40:944 41:21 42:21 43:187 44:21 45:946 46:21 47:187 48:22 49:22  |EV| 
-0.12499999999996855293282749244099  |BT| (NP (NP (NNS backers))(PP (IN of)(NP (JJ former)(NN leader)(NNP Slobodan)(NNP Milosevic)))) |BT| (BOW (of *)) |BT| (BOH (of *)) |BT| (BOH-NPs (Slobodan *)) |BT| (LP (NNS *)(NP *)(PP *)(NP *)(NNP *)) |BT| (LP-head (NNS *)(NP backers)(PP *)(NP *)(NNP *)) |BT| (NP (NP (NNS backers))(PP (IN of)(NP (JJ former)(NN leader)(NNP Slobodan)(NNP Milosevic)))) |BT| (NP (ROOT (NP (NP (PP (NP (PP (NP (PP (NP (NP (PP (NP (VP (PP (NP (PP (S (VP (NP (SBAR (S (VP (S (VP (VP (NP (NP (E-PER (NNS backers)))(PP (IN of)(NP (JJ former)(E-PER (NN leader))(E-PER (NNP Slobodan)(NNP Milosevic))))))))))))))))))))))))))))(. .)))(ROOT (NP (NP (NP (E-GPE (NNP BELGRADE))(, ,)(E-GPE (NNP Yugoslavia)))(PRN (-LRB- -LRB-)(NP (NNP AP))(-RRB- -RRB-)))(NP (NP (CD __)(NN N))(PP (IN With)(NP (NP (E-PER (NNP Vojislav)(NNP Kostunica)))(PP (IN in)(NP (NP (NN office))(PP (IN as)(NP (NP (E-PER (NN president)))(, ,)(NP (NP (E-PER (NNS backers)))(PP (IN of)(NP (NP (DT the)(JJ pro-democracy)(E-PER (NN leader)))(VP (VBN embarked)(NP-TMP (NNP Sunday))(PP (IN on)(NP (NP (DT the)(ADJP (RB potentially)(JJ volatile))(NN task))(PP (IN of)(S (VP (VBG forming)(NP (NP (DT a)(E-ORG (NN government)))(SBAR (WHNP (E-ORG (WDT that)))(S (VP (VBZ tries)(S (VP (TO to)(VP (VB exclude)(NP (NP (E-PER (NNS backers)))(PP (IN of)(NP (JJ former)(E-PER (NN leader))(E-PER (NNP Slobodan)(NNP Milosevic))))))))))))))))))))))))))))))) |ET| 11:3064 12:3065 13:3052 14:797 16:47 17:6 18:148 21:9 22:324 23:3053 24:1760 25:118 26:118 27:187 28:224 29:3062 30:224 31:291 32:2098 33:3054 34:1761 37:3055 38:1721 40:3062 41:400 42:1774 43:187 44:3061 45:3063 46:1774 47:187 48:22 49:22  |EV| 
0.12499999999996855293282749244099  |BT| (NP (PRP$ His)(JJ leftist)(NN coalition)) |BT| (BOW ) |BT| (BOH ) |BT| (BOH-NPs (coalition *)) |BT| (LP (PRP$ *)(NP *)(NN *)) |BT| (LP-head (PRP$ *)(NP controls)(NN *)) |BT| (NP (PRP$ His)(JJ leftist)(NN coalition)) |BT| (NP (ROOT (NP (NP (E-PER (PRP$ His))(JJ leftist)(E-ORG (NN coalition))(NNS controls))(NP (NP (CD 46))(PP (IN of)(NP (NP (CD 178)(NNS seats))(PP (IN in)(NP (DT the)(JJ federal)(E-ORG (NN parliament)))))))(. .)))(JJ leftist)(ROOT (NP (NP (E-PER (PRP$ His))(JJ leftist)(E-ORG (NN coalition)))))) |ET| 5:19 11:2950 12:24 13:1286 14:33 16:6 17:7 18:301 21:144 22:149 23:1724 24:2648 25:118 26:118 27:2951 28:2951 29:14 30:2951 31:2699 32:1289 33:1721 34:2650 35:19 37:2952 38:2952 39:19 40:21 41:21 42:2636 43:21 44:21 45:21 46:2636 47:21 48:22 49:22  |EV| 
0.12499999999996855293282749244099  |BT| (S (NP (S (VP (VP (PP (NP (NN communist)))))))(ADJP (NNP East))) |BT| (BOW ) |BT| (BOH ) |BT| (BOH-NPs ) |BT| (LP (NN *)(NP *)(PP *)(VP *)(S *)(NP *)(S *)(ADJP *)(NNP *)) |BT| (LP-head (NN *)(NP *)(PP *)(VP *)(S *)(NP *)(S None)(ADJP *)(NNP *)) |BT| (S (NP (S (VP (VP (PP (NP (NN communist)))))))(ADJP (NNP East))) |BT| (S (ROOT (S (VP (VP (S (VP (VP (NP (PP (SBAR (S (VP (VP (S (NP (S (VP (VP (PP (NP (E-ORG (NN communist))))))))(ADJP (E-GPE (NNP East)))))))))))))))(. .)))(ROOT (S (NP (E-PER (NNP Chirac)))(VP (VBD was)(VP (VBG fighting)(S (VP (TO to)(VP (VB break)(NP (NP (DT a)(NN deadlock))(PP (IN over)(SBAR (WHADVP (WRB how))(S (VP (TO to)(VP (VB modify)(S (NP (DT the)(NP (E-GPE (JJ 15-nation))(E-GPE (NNP EU))(POS 's))(JJ decision-making)(NNS mechanisms)(S (VP (TO to)(VP (VB cope)(PP (IN with)(NP (E-GPE (PRP$ its))(JJ planned)(NN expansion)))(PP (IN into)(NP (DT the)(JJ former)(E-ORG (NN communist))))))))(ADJP (E-GPE (NNP East)))))))))))))))))) |ET| 11:13048 12:13049 13:13043 14:13044 16:7 17:7 18:130 21:9 22:157 23:13045 24:11970 25:117 26:117 27:31 28:31 29:2098 30:13047 31:105 32:2098 33:13046 34:11973 35:19 36:19 37:13047 38:31 40:2098 41:13042 42:21 43:21 44:13037 45:757 46:21 47:21 48:22 49:22  |EV| 
0.12499999999996855293282749244099  |BT| (S (NP (S (VP (VP (PP (NP (NN communist)))))))(ADJP (NNP East))) |BT| (BOW ) |BT| (BOH ) |BT| (BOH-NPs ) |BT| (LP (NN *)(NP *)(PP *)(VP *)(S *)(NP *)(S *)(ADJP *)(NNP *)) |BT| (LP-head (NN *)(NP *)(PP *)(VP *)(S *)(NP *)(S None)(ADJP *)(NNP *)) |BT| (S (NP (S (VP (VP (PP (NP (NN communist)))))))(ADJP (NNP East))) |BT| (S (ROOT (S (VP (VP (S (VP (VP (NP (PP (SBAR (S (VP (VP (S (NP (S (VP (VP (PP (NP (E-ORG (NN communist))))))))(ADJP (E-GPE (NNP East)))))))))))))))(. .)))(ROOT (S (NP (E-PER (NNP Chirac)))(VP (VBD was)(VP (VBG fighting)(S (VP (TO to)(VP (VB break)(NP (NP (DT a)(NN deadlock))(PP (IN over)(SBAR (WHADVP (WRB how))(S (VP (TO to)(VP (VB modify)(S (NP (DT the)(NP (E-GPE (JJ 15-nation))(E-GPE (NNP EU))(POS 's))(JJ decision-making)(NNS mechanisms)(S (VP (TO to)(VP (VB cope)(PP (IN with)(NP (E-GPE (PRP$ its))(JJ planned)(NN expansion)))(PP (IN into)(NP (DT the)(JJ former)(E-ORG (NN communist))))))))(ADJP (E-GPE (NNP East)))))))))))))))))) |ET| 11:13048 12:13049 13:13043 14:13044 16:7 17:7 18:130 21:9 22:157 23:13045 24:11970 25:117 26:117 27:31 28:31 29:2098 30:13047 31:105 32:2098 33:13046 34:11973 35:19 36:19 37:13047 38:31 40:2098 41:13042 42:21 43:21 44:13037 45:757 46:21 47:21 48:22 49:22  |EV| 
-0.12499999999996855293282749244099  |BT| (NP (JJ Palestinian)(NNS gunmen)) |BT| (BOW ) |BT| (BOH ) |BT| (BOH-NPs ) |BT| (LP (JJ *)(NP *)(NNS *)) |BT| (LP-head (JJ *)(NP gunmen)(NNS *)) |BT| (NP (JJ Palestinian)(NNS gunmen)) |BT| (NP (ROOT (S (PP (NP (PP (NP (PP (NP (E-GPE (JJ Palestinian))(E-PER (NNS gunmen))))))))(, ,)(NP (DT the)(NN celebration))(VP (VBD degenerated)(PP (IN into)(NP (NP (DT a)(NN trashing))(PP (IN of)(NP (DT the)(E-FAC (NN compound))))))(, ,)(PP (IN with)(S (NP (E-PER (NNS crowds)))(VP (VP (VBG vandalizing)(NP (DT the)(E-FAC (NN tomb))))(, ,)(VP (VBG setting)(NP (NNS fires)))(CC and)(VP (VBG hammering)(ADVP (RB away))(PP (IN at)(NP (DT the)(NN stone)(E-FAC (NNS buildings)))))))))(. .)))(ROOT (S (PP (IN With)(NP (NP (DT the)(NN arrival))(PP (IN of)(NP (NP (NNS dozens))(PP (IN of)(NP (E-GPE (JJ Palestinian))(E-PER (NNS gunmen))))))))))) |ET| 11:2311 12:2312 13:101 14:5 16:7 17:7 18:35 21:165 22:166 23:104 24:2313 25:1 26:1 27:31 28:31 29:187 30:115 31:911 32:187 33:107 34:2314 35:19 36:19 37:2315 38:2315 39:19 40:187 41:911 42:21 43:21 44:2316 45:911 46:21 47:21 48:22 49:22  |EV| 
-0.12499999999996855293282749244099  |BT| (NP (JJ Israeli)(NNS officials)) |BT| (BOW ) |BT| (BOH ) |BT| (BOH-NPs ) |BT| (LP (JJ *)(NP *)(NNS *)) |BT| (LP-head (JJ *)(NP officials)(NNS *)) |BT| (NP (JJ Israeli)(NNS officials)) |BT| (NP (ROOT (S (NP (E-GPE (JJ Israeli))(E-PER (NNS officials)))(VP (VBD were)(ADJP (JJ furious)))(. .)))(ROOT (S (CC But)(PP (IN after)(NP (NP (DT the)(NN destruction))(SBAR (WHNP (WDT that))(S (VP (VBD followed)(NP (DT the)(NN withdrawal)))))))(, ,)(NP (E-GPE (JJ Israeli))(E-PER (NNS officials)))))) |ET| 11:2522 12:2523 13:390 14:5 16:7 17:7 18:35 21:165 22:166 23:414 24:1926 25:1 26:1 27:31 28:31 29:13 30:418 31:451 32:13 33:415 34:1927 35:19 36:19 37:1923 38:1923 39:19 40:451 41:451 42:21 43:21 44:2524 45:2525 46:21 47:21 48:22 49:22  |EV| 
-0.12499999999996855293282749244099  |BT| (NP (JJ American)(NNS people)) |BT| (BOW ) |BT| (BOH ) |BT| (BOH-NPs ) |BT| (LP (JJ *)(NP *)(NNS *)) |BT| (LP-head (JJ *)(NP people)(NNS *)) |BT| (NP (JJ American)(NNS people)) |BT| (NP (ROOT (S (S (S (VP (VP (ADJP (S (VP (VP (SBAR (FRAG (PP (NP (E-GPE (JJ American))(E-GPE (NNS people))))))))))))))(, ,)('' '')(NP (E-PER (NNP Bush)))(VP (VBD said)(PP (IN in)(NP (E-GPE (NNP Florida))))(, ,)(SBAR (WHADVP (E-GPE (WRB where)))(S (NP (E-PER (PRP he)))(VP (VBD was)(NP (NN campaigning))))))(. .)))(ROOT (S (`` ``)(S (CC Either)(S (NP (E-PER (PRP he)))(VP (VBD did)(RB n't)(VP (VB know)(SBAR (WHNP (WP what))(S (NP (DT the)(E-PER (NN president)))(VP (VBD was)(VP (VBG doing))))))))(CC or)(S (NP (E-PER (PRP he)))(VP (VP (VBD did)(VP (VB know)(SBAR (WHNP (WP what))(S (NP (DT the)(E-PER (NN president)))(VP (VBD was)(VP (VBG doing)))))))(CC and)(VP (VBD was)(RB n't)(ADJP (JJ willing)(S (VP (TO to)(VP (VB share)(SBAR (IN that)(FRAG (PP (IN with)(NP (DT the)(E-GPE (JJ American))(E-GPE (NNS people))))))))))))))))) |ET| 11:1838 12:1839 13:1834 14:5 16:7 17:7 18:8 21:165 22:166 23:1835 24:934 25:1 26:1 27:31 28:31 29:105 30:1840 31:72 32:105 33:1836 34:936 35:19 36:19 37:937 38:937 39:19 40:1840 41:60 42:21 43:21 44:21 45:72 46:21 47:21 48:22 49:22  |EV| 
0.12499999999996855293282749244099  |BT| (NP (NP (NNS centers))(PP (IN of)(NP (NP (NNP Milosevic))))) |BT| (BOW ) |BT| (BOH (of *)) |BT| (BOH-NPs ) |BT| (LP (NNS *)(NP *)(PP *)(NP *)(NNP *)) |BT| (LP-head (NNS *)(NP centers)(PP *)(NP *)(NNP *)) |BT| (NP (NP (NNS centers))(PP (IN of)(NP (NP (NNP Milosevic))))) |BT| (NP (ROOT (S (VP (VP (VP (PP (NP (SBAR (S (VP (NP (NP (NP (E-FAC (NNS centers)))(PP (IN of)(NP (NP (E-PER (NNP Milosevic))(POS 's))(NN power)))))))))))))(. .)))(ROOT (S (NP (E-ORG (NNP Party))(NNS activities))(VP (VBP have)(VP (VBN been)(VP (VBN suspended)(PP (IN since)(NP (NP (NNP Thursday))(, ,)(SBAR (WHADVP (WRB when))(S (NP (JJ pro-democracy)(E-PER (NNS demonstrators)))(VP (VBD stormed)(NP (NP (JJ federal)(E-FAC (NN parliament)))(, ,)(NP (DT the)(NN state)(NN television)(E-FAC (NN building)))(CC and)(NP (NP (JJ other)(E-FAC (NNS centers)))(PP (IN of)(NP (NP (E-PER (NNP Milosevic)))))))))))))))))) |ET| 11:2708 12:742 13:2703 14:2704 16:6 17:7 18:912 21:9 22:324 23:2705 24:1724 25:913 26:913 27:187 28:187 29:545 30:187 31:242 32:2707 33:2706 34:1726 37:2707 38:1721 40:545 41:931 42:21 43:187 44:2702 45:931 46:21 47:187 48:22 49:22  |EV| 
0.12499999999996855293282749244099  |BT| (NP (NP (NNS backers))(PP (IN of)(NP (NP (DT the)(JJ pro-democracy)(NN leader))))) |BT| (BOW (of *)) |BT| (BOH (of *)) |BT| (BOH-NPs ) |BT| (LP (NNS *)(NP *)(PP *)(NP *)(NN *)) |BT| (LP-head (NNS *)(NP backers)(PP *)(NP *)(NN *)) |BT| (NP (NP (NNS backers))(PP (IN of)(NP (NP (DT the)(JJ pro-democracy)(NN leader))))) |BT| (NP (ROOT (NP (NP (PP (NP (PP (NP (PP (NP (NP (NP (E-PER (NNS backers)))(PP (IN of)(NP (NP (DT the)(JJ pro-democracy)(E-PER (NN leader)))(VP (VBN embarked)(NP-TMP (NNP Sunday))(PP (IN on)(NP (NP (DT the)(ADJP (RB potentially)(JJ volatile))(NN task))(PP (IN of)(S (VP (VBG forming)(NP (NP (DT a)(E-ORG (NN government)))(SBAR (WHNP (E-ORG (WDT that)))(S (VP (VBZ tries)(S (VP (TO to)(VP (VB exclude)(NP (NP (E-PER (NNS backers)))(PP (IN of)(NP (JJ former)(E-PER (NN leader))(E-PER (NNP Slobodan)(NNP Milosevic))))))))))))))))))))))))))))(. .)))(ROOT (NP (NP (NP (E-GPE (NNP BELGRADE))(, ,)(E-GPE (NNP Yugoslavia)))(PRN (-LRB- -LRB-)(NP (NNP AP))(-RRB- -RRB-)))(NP (NP (CD __)(NN N))(PP (IN With)(NP (NP (E-PER (NNP Vojislav)(NNP Kostunica)))(PP (IN in)(NP (NP (NN office))(PP (IN as)(NP (NP (E-PER (NN president)))(, ,)(NP (NP (E-PER (NNS backers)))(PP (IN of)(NP (NP (DT the)(JJ pro-democracy)(E-PER (NN leader)))))))))))))))) |ET| 2:19 11:3056 12:3057 13:3052 14:797 16:47 17:7 18:148 19:381 21:9 22:339 23:3053 24:219 25:118 26:118 27:187 28:788 29:13 30:788 31:60 32:105 33:3054 34:223 37:3055 38:224 40:60 41:60 42:21 43:187 44:3051 45:49 46:21 47:187 48:22 49:22  |EV| 
0.12499999999996855293282749244099  |BT| (NP (NP (NNS backers))(PP (IN of)(NP (JJ former)(NN leader)))) |BT| (BOW ) |BT| (BOH (of *)) |BT| (BOH-NPs (Slobodan *)) |BT| (LP (NNS *)(NP *)(PP *)(NP *)(NN *)) |BT| (LP-head (NNS *)(NP backers)(PP *)(NP *)(NN *)) |BT| (NP (NP (NNS backers))(PP (IN of)(NP (JJ former)(NN leader)))) |BT| (NP (ROOT (NP (NP (PP (NP (PP (NP (PP (NP (NP (PP (NP (VP (PP (NP (PP (S (VP (NP (SBAR (S (VP (S (VP (VP (NP (NP (E-PER (NNS backers)))(PP (IN of)(NP (JJ former)(E-PER (NN leader))(E-PER (NNP Slobodan)(NNP Milosevic))))))))))))))))))))))))))))(. .)))(ROOT (NP (NP (NP (E-GPE (NNP BELGRADE))(, ,)(E-GPE (NNP Yugoslavia)))(PRN (-LRB- -LRB-)(NP (NNP AP))(-RRB- -RRB-)))(NP (NP (CD __)(NN N))(PP (IN With)(NP (NP (E-PER (NNP Vojislav)(NNP Kostunica)))(PP (IN in)(NP (NP (NN office))(PP (IN as)(NP (NP (E-PER (NN president)))(, ,)(NP (NP (E-PER (NNS backers)))(PP (IN of)(NP (NP (DT the)(JJ pro-democracy)(E-PER (NN leader)))(VP (VBN embarked)(NP-TMP (NNP Sunday))(PP (IN on)(NP (NP (DT the)(ADJP (RB potentially)(JJ volatile))(NN task))(PP (IN of)(S (VP (VBG forming)(NP (NP (DT a)(E-ORG (NN government)))(SBAR (WHNP (E-ORG (WDT that)))(S (VP (VBZ tries)(S (VP (TO to)(VP (VB exclude)(NP (NP (E-PER (NNS backers)))(PP (IN of)(NP (JJ former)(E-PER (NN leader))))))))))))))))))))))))))))))) |ET| 2:19 11:424 12:33 13:3052 14:797 16:25 17:7 18:148 19:381 21:9 22:339 23:3053 24:219 25:118 26:118 27:187 28:2098 29:3062 30:2098 31:291 32:187 33:3054 34:223 37:3055 38:1721 40:3062 41:400 42:1774 43:187 44:3061 45:3063 46:1774 47:187 48:22 49:22  |EV| 
-0.016426867144181723362494906837128  |BT| (NP (VP (SBAR (S (VP (SBAR (S (VP (VP (VP (PP (NP (NN leader))))))))))))(PP (IN of)(NP (DT a)(NN minority)(NN government)))) |BT| (BOW (of *)) |BT| (BOH (of *)) |BT| (BOH-NPs (minority *)) |BT| (LP (NN *)(NP *)(PP *)(VP *)(S *)(SBAR *)(VP *)(S *)(SBAR *)(VP *)(NP *)(PP *)(NP *)(NN *)) |BT| (LP-head (NN *)(NP *)(PP *)(VP *)(S *)(SBAR *)(VP *)(S *)(SBAR *)(VP *)(NP government)(PP *)(NP *)(NN *)) |BT| (NP (VP (SBAR (S (VP (SBAR (S (VP (VP (VP (PP (NP (NN leader))))))))))))(PP (IN of)(NP (DT a)(NN minority)(NN government)))) |BT| (NP (ROOT (NP (VP (SBAR (S (VP (SBAR (S (VP (VP (VP (PP (NP (E-PER (NN leader)))))))))))))(PP (IN of)(NP (DT a)(NN minority)(E-ORG (NN government))))(. .)))(ROOT (NP (NP (NP (E-GPE (NNP Syria))(POS 's))(E-GPE (NN government)))(: -)(VP (VBN run)(SBAR (S (NP (E-ORG (NNS media)))(VP (VBD said)(NP-TMP (JJ last)(NN week))(SBAR (IN that)(S (NP (DT no)(NN progress))(VP (MD could)(VP (VB be)(VP (VBN expected)(PP (ADVP (RB now))(IN because)(IN of)(NP (NP (DT the)(E-GPE (NNP U.S.))(NNS elections))(CC and)(NP (NP (E-GPE (JJ Israeli))(NNP Prime)(E-PER (NNP Minister))(E-PER (NNP Ehud)(NNP Barak))(POS 's))(JJ precarious)(NN situation))))(PP (IN as)(NP (E-PER (NN leader)))))))))))))(PP (IN of)(NP (DT a)(NN minority)(E-ORG (NN government))))))) |ET| 5:19 11:427 12:428 13:424 14:33 16:47 17:7 18:301 19:338 21:9 22:311 23:219 24:399 25:118 26:118 27:187 28:429 29:49 30:429 31:426 32:430 33:223 34:401 37:224 38:400 40:49 41:426 42:429 43:187 44:416 45:426 46:429 47:187 48:22 49:22  |EV| 
-0.094325257876644405530264236858784  |BT| (NP (NP (NN government))(PP (IN of)(NP (NP (JJ Milosevic))))) |BT| (BOW ) |BT| (BOH (of *)) |BT| (BOH-NPs ) |BT| (LP (NN *)(NP *)(PP *)(NP *)(JJ *)) |BT| (LP-head (NN *)(NP government)(PP *)(NP *)(JJ *)) |BT| (NP (NP (NN government))(PP (IN of)(NP (NP (JJ Milosevic))))) |BT| (NP (ROOT (S (VP (VP (PP (NP (NP (E-ORG (NN government)))(PP (IN of)(NP (NP (E-PER (JJ Milosevic))(NNS cronies))(PP (VBG including)(NP (NP (E-GPE (NNP Serbian))(E-PER (NNP President))(E-PER (NNP Milan)(NNP Milutinovic)))(VP (VBD __)(NP (NN N))(PP (IN like)(NP (E-PER (NNP Milosevic)))))(, ,)(VP (VBN indicted)(PP (IN by)(NP (DT the)(E-ORG (NN tribunal)))))))))))))(. .)))(ROOT (S (CC And)(NP (NP (E-GPE (NNP Serbia)))(, ,)(NP (DT the)(JJ main)(E-GPE (JJ Yugoslav))(E-GPE (NN republic)))(, ,))(ADVP (RB still))(VP (VBZ is)(VP (VBN run)(PP (IN by)(NP (NP (DT a)(E-ORG (NN government)))(PP (IN of)(NP (NP (E-PER (JJ Milosevic)))))))))))) |ET| 5:19 11:1871 12:33 13:3091 14:3092 16:6 17:7 18:126 21:94 22:158 23:399 24:1724 25:117 26:117 27:187 28:187 29:430 30:187 31:460 32:400 33:401 34:1726 37:400 38:2888 40:460 41:2861 42:21 43:187 44:2756 45:404 46:21 47:187 48:22 49:22  |EV| 
-0.01247898578314550997736542825578  |BT| (NP (NP (NNS backers))(PP (IN of)(NP (NP (DT the)(JJ pro-democracy)(NN leader))(VP (VBN embarked)(NP-TMP (NNP Sunday))(PP (IN on)(NP (NP (DT the)(ADJP (RB potentially)(JJ volatile))(NN task))(PP (IN of)(S (VP (VBG forming)(NP (NP (DT a)(NN government)))))))))))) |BT| (BOW (of *)(the *)(pro-democracy *)(leader *)(embarked *)(Sunday *)(on *)(the *)(potentially *)(volatile *)(task *)(of *)) |BT| (BOH (of *)(leader *)(embarked *)(Sunday *)(on *)(task *)(task *)(of *)) |BT| (BOH-NPs (leader *)(Sunday *)(task *)(task *)) |BT| (LP (NNS *)(NP *)(PP *)(NP *)(VP *)(PP *)(NP *)(PP *)(S *)(VP *)(NP *)(NN *)) |BT| (LP-head (NNS *)(NP backers)(PP *)(NP *)(VP *)(PP *)(NP *)(PP *)(S *)(VP *)(NP *)(NN *)) |BT| (NP (NP (NNS backers))(PP (IN of)(NP (NP (DT the)(JJ pro-democracy)(NN leader))(VP (VBN embarked)(NP-TMP (NNP Sunday))(PP (IN on)(NP (NP (DT the)(ADJP (RB potentially)(JJ volatile))(NN task))(PP (IN of)(S (VP (VBG forming)(NP (NP (DT a)(NN government)))))))))))) |BT| (NP (ROOT (NP (NP (PP (NP (PP (NP (PP (NP (NP (NP (E-PER (NNS backers)))(PP (IN of)(NP (NP (DT the)(JJ pro-democracy)(E-PER (NN leader)))(VP (VBN embarked)(NP-TMP (NNP Sunday))(PP (IN on)(NP (NP (DT the)(ADJP (RB potentially)(JJ volatile))(NN task))(PP (IN of)(S (VP (VBG forming)(NP (NP (DT a)(E-ORG (NN government)))(SBAR (WHNP (E-ORG (WDT that)))(S (VP (VBZ tries)(S (VP (TO to)(VP (VB exclude)(NP (NP (E-PER (NNS backers)))(PP (IN of)(NP (JJ former)(E-PER (NN leader))(E-PER (NNP Slobodan)(NNP Milosevic))))))))))))))))))))))))))))(. .)))(ROOT (NP (NP (NP (E-GPE (NNP BELGRADE))(, ,)(E-GPE (NNP Yugoslavia)))(PRN (-LRB- -LRB-)(NP (NNP AP))(-RRB- -RRB-)))(NP (NP (CD __)(NN N))(PP (IN With)(NP (NP (E-PER (NNP Vojislav)(NNP Kostunica)))(PP (IN in)(NP (NP (NN office))(PP (IN as)(NP (NP (E-PER (NN president)))(, ,)(NP (NP (E-PER (NNS backers)))(PP (IN of)(NP (NP (DT the)(JJ pro-democracy)(E-PER (NN leader)))(VP (VBN embarked)(NP-TMP (NNP Sunday))(PP (IN on)(NP (NP (DT the)(ADJP (RB potentially)(JJ volatile))(NN task))(PP (IN of)(S (VP (VBG forming)(NP (NP (DT a)(E-ORG (NN government))))))))))))))))))))))) |ET| 5:19 11:3058 12:3059 13:3052 14:797 16:54 17:6 18:301 19:338 21:9 22:339 23:3053 24:399 25:118 26:118 27:187 28:430 29:13 30:430 31:60 32:3060 33:3054 34:401 37:3055 38:400 40:60 41:60 42:224 43:187 44:3051 45:49 46:3061 47:187 48:3061 49:3061  |EV| 
0.11272869199640628279368570474617  |BT| (NP (JJ pro-Indonesian)(NNS militias)) |BT| (BOW ) |BT| (BOH ) |BT| (BOH-NPs ) |BT| (LP (JJ *)(NP *)(NNS *)) |BT| (LP-head (JJ *)(NP militias)(NNS *)) |BT| (NP (JJ pro-Indonesian)(NNS militias)) |BT| (NP (ROOT (S (S (NP (E-GPE (JJ pro-Indonesian))(E-PER (NNS militias)))(VP (VBP continue)(S (VP (TO to)(VP (VB attack)(NP (E-PER (NNS peacekeepers)))(PP (IN in)(NP (NP (E-GPE (NNP East)(NNP Timor)))(, ,)(NP (NP (DT the)(E-GPE (NN territory)))(SBAR (WHNP (E-GPE (WDT that)))(S (VP (VBD gained)(NP (NN independence))(PP (IN from)(NP (E-GPE (NNP Indonesia))))(NP-TMP (JJ last)(NN year)))))))))))))(. .)))(ROOT (S (S (NP (JJ Sectarian)(NN fighting))(ADVP (RB regularly))(VP (VBZ claims)(NP (NP (NNS lives))(PP (IN in)(NP (JJ several)(E-GPE (JJ Indonesian))(E-LOC (NNS regions)))))))(CC and)(S (NP (E-GPE (JJ pro-Indonesian))(E-PER (NNS militias))))))) |ET| 11:7949 12:7950 13:7945 14:5 16:7 17:7 18:35 21:165 22:166 23:7946 24:7951 25:1 26:1 27:31 28:31 29:242 30:7952 31:7943 32:242 33:7947 34:7953 35:19 36:19 37:7948 38:7948 39:19 40:7943 41:7943 42:21 43:21 44:4020 45:717 46:21 47:21 48:22 49:22  |EV| 
-0.055427969618100418613959590175  |BT| (VP (VP (S (VP (VP (PP (NP (NNP Yugoslavia)))))))(CC and)(VP (VBD urged)(NP (NNS lawmakers)))) |BT| (BOW ) |BT| (BOH (urged *)) |BT| (BOH-NPs ) |BT| (LP (NNP *)(NP *)(PP *)(VP *)(S *)(VP *)(VP *)(NP *)(NNS *)) |BT| (LP-head (NNP *)(NP *)(PP *)(VP *)(S *)(VP pledged)(VP *)(NP *)(NNS *)) |BT| (VP (VP (S (VP (VP (PP (NP (NNP Yugoslavia)))))))(CC and)(VP (VBD urged)(NP (NNS lawmakers)))) |BT| (VP (ROOT (S (VP (VP (S (VP (VP (PP (NP (E-GPE (NNP Yugoslavia))))))))(CC and)(VP (VBD urged)(NP (E-PER (NNS lawmakers)))(S (VP (TO to)(VP (VB bury)(NP (NP (JJ past)(NNS enmities))(SBAR (WHNP (WDT that))(S (VP (VBD led)(PP (TO to)(NP (NN bloodshed)(CC and)(NN chaos))))))))))))(. .)))(CC and)(ROOT (S (NP (E-PER (NNP Kostunica)))(VP (VP (VBD pledged)(S (VP (TO to)(VP (VB follow)(NP (E-PER (PRP$ his))(NN conscience))(PP (IN in)(NP (VBG leading)(E-GPE (NNP Yugoslavia))))))))(CC and)(VP (VBD urged)(NP (E-PER (NNS lawmakers)))))))) |ET| 11:3325 12:33 13:3323 14:3324 16:25 17:7 18:35 21:9 22:113 23:1666 24:3326 25:1 26:1 27:242 28:1951 29:2224 30:1951 31:106 32:242 33:1667 34:3327 37:1668 38:3328 40:106 41:3322 42:21 43:1951 44:1764 45:3322 46:21 47:1951 48:22 49:22  |EV| 
-0.00028639045118861259503484362198833  |BT| (S (NP (NNPS Republicans))(VP (VBP give)(NP (NNP George)(NNP W.)(NNP Bush))(NP (NP (NN credit))(PP (IN for)(S (VP (VBG promoting)(NP (DT a)(JJ Russian)(NN role))(PP (IN in)(S (VP (VBG smoothing)(NP (DT the)(NN transition))(PP (IN from)(NP (NN despot)))))))))))) |BT| (BOW (give *)(George *)(W. *)(Bush *)(credit *)(for *)(promoting *)(a *)(Russian *)(role *)(in *)(smoothing *)(the *)) |BT| (BOH (give *)(Bush *)(credit *)(for *)(role *)(in *)(transition *)(from *)) |BT| (BOH-NPs (Bush *)(credit *)(role *)(transition *)) |BT| (LP (NNPS *)(NP *)(S *)(VP *)(NP *)(PP *)(S *)(VP *)(PP *)(S *)(VP *)(PP *)(NP *)(NN *)) |BT| (LP-head (NNPS *)(NP *)(S give)(VP *)(NP *)(PP *)(S *)(VP *)(PP *)(S *)(VP *)(PP *)(NP *)(NN *)) |BT| (S (NP (NNPS Republicans))(VP (VBP give)(NP (NNP George)(NNP W.)(NNP Bush))(NP (NP (NN credit))(PP (IN for)(S (VP (VBG promoting)(NP (DT a)(JJ Russian)(NN role))(PP (IN in)(S (VP (VBG smoothing)(NP (DT the)(NN transition))(PP (IN from)(NP (NN despot)))))))))))) |BT| (S (ROOT (S (NP (SBAR (S (NP (E-PER (NNPS Republicans)))(VP (VBP give)(NP (E-PER (NNP George)(NNP W.)(NNP Bush)))(NP (NP (NN credit))(PP (IN for)(S (VP (VBG promoting)(NP (DT a)(E-GPE (JJ Russian))(NN role))(PP (IN in)(S (VP (VBG smoothing)(NP (DT the)(NN transition))(PP (IN from)(NP (E-PER (NN despot))))(PP (TO to)(NP (NP (E-PER (NN democrat)))(PP (IN in)(NP (E-GPE (NNP Yugoslavia)))))))))))))))))(VP (VBD _)(NP (NP (DT an)(NN idea))(VP (VBN dismissed)(PP (IN in)(NP (NN debate)))(PP (IN as)(ADJP (JJ risky)))(PP (IN by)(NP (E-PER (NNP Al)(NNP Gore))))))(SBAR (RB even)(IN as)(S (NP (E-PER (PRP$ his))(E-PER (NN boss)))(VP (VBD was)(VP (VBG trying)(S (VP (TO to)(VP (VB get)(S (NP (E-GPE (NNP Moscow)))(VP (TO to)(VP (VB step)(PP (IN in)))))))))))))(. .)))(ROOT (S (NP (NP (NP (E-GPE (NNP WASHINGTON)))(PRN (-LRB- -LRB-)(NP (NNP AP))(-RRB- -RRB-)))(SBAR (S (NP (CD __)(E-PER (NNPS Republicans)))(VP (VBP give)(NP (E-PER (NNP George)(NNP W.)(NNP Bush)))(NP (NP (NN credit))(PP (IN for)(S (VP (VBG promoting)(NP (DT a)(E-GPE (JJ Russian))(NN role))(PP (IN in)(S (VP (VBG smoothing)(NP (DT the)(NN transition))(PP (IN from)(NP (E-PER (NN despot)))))))))))))))))) |ET| 11:1656 12:33 13:1641 14:1642 16:151 17:25 18:148 21:9 22:1687 23:1643 24:1657 25:118 26:118 27:1649 28:447 29:1644 30:447 31:129 32:1658 33:1645 34:1659 37:1646 38:1660 40:43 41:43 42:1312 43:1649 44:1639 45:1639 46:1658 47:447 48:1654 49:1658  |EV| 
-0.12499999999996855293282749244099  |BT| (NP (NNP Gore)(NN campaign)(NNS aides)) |BT| (BOW ) |BT| (BOH ) |BT| (BOH-NPs (campaign *)) |BT| (LP (NNP *)(NP *)(NNS *)) |BT| (LP-head (NNP *)(NP aides)(NNS *)) |BT| (NP (NNP Gore)(NN campaign)(NNS aides)) |BT| (NP (ROOT (S (NP (E-PER (NNP Gore))(NN campaign)(E-PER (NNS aides)))(VP (VBD insisted)(SBAR (S (NP (E-PER (PRP he)))(VP (VBD was)(ADJP (JJ aware)(PP (IN of)(NP (E-ORG (NN administration))(NNS efforts))))(S (VP (TO to)(VP (VB persuade)(S (NP (DT the)(E-GPE (NNPS Russians)))(VP (TO to)(VP (VB convince)(S (NP (E-PER (NNP Milosevic)))(VP (TO to)(VP (VB go))))))))))))))(. .)))(NN campaign)(ROOT (S (NP (E-PER (NNP Gore))(NN campaign)(E-PER (NNS aides)))))) |ET| 4:19 6:19 11:1858 12:1859 13:1369 14:33 16:6 17:7 18:148 21:9 22:113 23:1370 24:1860 25:118 26:118 27:1414 28:1414 29:14 30:1414 31:1036 32:1318 33:1371 34:1861 35:19 37:1862 38:1862 39:19 40:21 41:21 42:1414 43:21 44:21 45:21 46:1414 47:21 48:22 49:22  |EV| 
0.12499999999996855293282749244099  |BT| (VP (PP (ADVP (NP (NN source))(RB close)))(PP (TO to)(NP (DT the)(NN school)))) |BT| (BOW (close *)) |BT| (BOH (close *)) |BT| (BOH-NPs ) |BT| (LP (NN *)(NP *)(ADVP *)(PP *)(VP *)(PP *)(NP *)(NN *)) |BT| (LP-head (NN *)(NP *)(ADVP *)(PP *)(VP step)(PP *)(NP *)(NN *)) |BT| (VP (PP (ADVP (NP (NN source))(RB close)))(PP (TO to)(NP (DT the)(NN school)))) |BT| (VP (ROOT (S (NP (SBAR (S (VP (VP (PP (ADVP (NP (E-PER (NN source)))(RB close)))(PP (TO to)(NP (DT the)(E-ORG (NN school)))))))))(VP (VBD told)(NP (DT The)(E-ORG (NNP Associated)(NNP Press)))(NP-TMP (NNP Friday)))(. .)))(ROOT (S (LST (E-ORG (-LRB- -LRB-)(NN AP))(-RRB- -RRB-))(NP (NP (CD __)(NN N))(SBAR (S (NP (NP (E-PER (NNP Terry)(NNP Shea)))(, ,)(SBAR (WHNP (E-PER (WP who)))(S (VP (VBD failed)(S (VP (TO to)(VP (VB produce)(NP (NP (DT a)(VBG winning)(NN season))(PP (IN in)(NP (NP (CD four-plus)(NNS years))(PP (IN at)(NP (E-ORG (NNP Rutgers)))))))))))))(, ,))(VP (MD will)(VP (VB step)(PRT (RP down))(PP (IN as)(NP (NP (E-PER (NN coach)))(PP (IN at)(NP (NP (DT the)(NN end))(PP (IN of)(NP (DT this)(NN season))))))(, ,)(ADVP (NP (DT a)(E-PER (NN source)))(RB close)))(PP (TO to)(NP (DT the)(E-ORG (NN school)))))))))))) |ET| 5:19 11:8354 12:1895 13:8350 14:3909 16:47 17:7 18:301 19:338 21:9 22:311 23:8351 24:982 25:118 26:118 27:6439 28:105 29:430 30:105 31:13 32:291 33:8352 34:984 37:8353 38:986 40:6795 41:6795 42:21 43:6439 44:3026 45:187 46:21 47:6439 48:22 49:22  |EV| 
0.12499999999996855293282749244099  |BT| (NP (JJ pro-Indonesian)(NNS militias)) |BT| (BOW ) |BT| (BOH ) |BT| (BOH-NPs ) |BT| (LP (JJ *)(NP *)(NNS *)) |BT| (LP-head (JJ *)(NP militias)(NNS *)) |BT| (NP (JJ pro-Indonesian)(NNS militias)) |BT| (NP (ROOT (S (S (NP (E-GPE (JJ pro-Indonesian))(E-PER (NNS militias)))(VP (VBP continue)(S (VP (TO to)(VP (VB attack)(NP (E-PER (NNS peacekeepers)))(PP (IN in)(NP (NP (E-GPE (NNP East)(NNP Timor)))(, ,)(NP (NP (DT the)(E-GPE (NN territory)))(SBAR (WHNP (E-GPE (WDT that)))(S (VP (VBD gained)(NP (NN independence))(PP (IN from)(NP (E-GPE (NNP Indonesia))))(NP-TMP (JJ last)(NN year)))))))))))))(. .)))(ROOT (S (S (NP (JJ Sectarian)(NN fighting))(ADVP (RB regularly))(VP (VBZ claims)(NP (NP (NNS lives))(PP (IN in)(NP (JJ several)(E-GPE (JJ Indonesian))(E-LOC (NNS regions)))))))(CC and)(S (NP (E-GPE (JJ pro-Indonesian))(E-PER (NNS militias))))))) |ET| 11:7949 12:7950 13:7945 14:5 16:7 17:7 18:35 21:165 22:166 23:7946 24:7951 25:1 26:1 27:31 28:31 29:242 30:7952 31:7943 32:242 33:7947 34:7953 35:19 36:19 37:7948 38:7948 39:19 40:7943 41:7943 42:21 43:21 44:4020 45:717 46:21 47:21 48:22 49:22  |EV| 
-0.033944420327222772637565384457048  |BT| (NP (NP (NNS students))(PP (IN in)(NP (DT a)(JJ common)(NN area)))) |BT| (BOW (in *)) |BT| (BOH (in *)) |BT| (BOH-NPs ) |BT| (LP (NNS *)(NP *)(PP *)(NP *)(NN *)) |BT| (LP-head (NNS *)(NP students)(PP *)(NP *)(NN *)) |BT| (NP (NP (NNS students))(PP (IN in)(NP (DT a)(JJ common)(NN area)))) |BT| (NP (ROOT (S (VP (PP (NP (PP (NP (PP (NP (NP (E-PER (NNS students)))(PP (IN in)(NP (DT a)(JJ common)(E-FAC (NN area))))))))))(PP (IN at)(NP (NP (E-FAC (NNP Heritage)(NNP High)(NNP School)))(PP (IN in)(NP (E-GPE (NNP Conyers))))))(, ,)(PP (IN about)(NP (NP (CD 25)(NNS miles))(PP (ADVP (RB east))(IN of)(NP (NP (E-GPE (NNP Atlanta)))(, ,)(NP (CD one)(NN month))))))(PP (IN after)(NP (NP (DT the)(E-FAC (NNP Columbine)(NNP High))(NN massacre))(PP (IN in)(NP (E-GPE (NNP Colorado)))))))(. .)))(ROOT (S (NP (NP (E-PER (NNP Solomon)))(, ,)(NP (RB then)(CD 15))(, ,))(VP (VBD opened)(NP (NN fire))(PP (IN with)(NP (NP (DT a)(JJ sawed-off)(E-WEA (NN rifle)))(PP (IN on)(NP (NP (NNS hundreds))(PP (IN of)(NP (NP (E-PER (NNS students)))(PP (IN in)(NP (DT a)(JJ common)(E-FAC (NN area)))))))))))))) |ET| 11:1061 12:1062 13:1058 14:1059 16:47 17:7 18:647 19:159 21:9 22:339 23:989 24:1063 25:118 26:118 27:106 28:1064 29:187 30:1064 31:1060 32:430 33:992 34:1065 37:993 38:1066 40:187 41:1060 42:21 43:106 44:1055 45:1060 46:21 47:106 48:22 49:22  |EV| 
-0.092008566487430151759063789995707  |BT| (NP (NP (NNS troops))(PP (IN from)(NP (DT the)(NN tomb)))) |BT| (BOW ) |BT| (BOH (from *)) |BT| (BOH-NPs ) |BT| (LP (NNS *)(NP *)(PP *)(NP *)(NN *)) |BT| (LP-head (NNS *)(NP troops)(PP *)(NP *)(NN *)) |BT| (NP (NP (NNS troops))(PP (IN from)(NP (DT the)(NN tomb)))) |BT| (NP (ROOT (S (NP (PP (NP (NP (E-PER (NNS troops)))(PP (IN from)(NP (DT the)(E-FAC (NN tomb)))))))(VP (VBD marked)(NP (NP (DT the)(JJ first)(NN time))(SBAR (S (NP (E-GPE (NNP Israel)))(VP (VBZ has)(VP (VBN relinquished)(NP (E-LOC (NN territory)))(PP (IN as)(NP (NP (DT a)(JJ direct)(NN result))(PP (IN of)(NP (E-GPE (JJ Palestinian))(NN violence)))))))))))(. .)))(ROOT (S (NP (NP (DT The)(NN withdrawal))(PP (IN of)(NP (NP (E-PER (NNS troops)))(PP (IN from)(NP (DT the)(E-FAC (NN tomb)))))))))) |ET| 11:2218 12:2219 13:2496 14:2497 16:25 17:7 18:647 19:338 21:9 22:339 23:2498 24:2223 25:118 26:118 27:447 28:105 29:187 30:105 31:451 32:447 33:2499 34:2226 37:2500 38:2227 40:187 41:451 42:21 43:447 44:21 45:451 46:21 47:447 48:22 49:22  |EV| 
-0.055795341368088516298406887017336  |BT| (VP (PP (NP (NN despot)))(PP (TO to)(NP (NP (NN democrat))))) |BT| (BOW ) |BT| (BOH ) |BT| (BOH-NPs ) |BT| (LP (NN *)(NP *)(PP *)(VP *)(PP *)(NP *)(NN *)) |BT| (LP-head (NN *)(NP *)(PP *)(VP None)(PP *)(NP *)(NN *)) |BT| (VP (PP (NP (NN despot)))(PP (TO to)(NP (NP (NN democrat))))) |BT| (VP (ROOT (S (NP (SBAR (S (VP (NP (PP (S (VP (PP (S (VP (PP (NP (E-PER (NN despot))))(PP (TO to)(NP (NP (E-PER (NN democrat)))(PP (IN in)(NP (E-GPE (NNP Yugoslavia)))))))))))))))))(VP (VBD _)(NP (NP (DT an)(NN idea))(VP (VBN dismissed)(PP (IN in)(NP (NN debate)))(PP (IN as)(ADJP (JJ risky)))(PP (IN by)(NP (E-PER (NNP Al)(NNP Gore))))))(SBAR (RB even)(IN as)(S (NP (E-PER (PRP$ his))(E-PER (NN boss)))(VP (VBD was)(VP (VBG trying)(S (VP (TO to)(VP (VB get)(S (NP (E-GPE (NNP Moscow)))(VP (TO to)(VP (VB step)(PP (IN in)))))))))))))(. .)))(ROOT (S (NP (NP (NP (E-GPE (NNP WASHINGTON)))(PRN (-LRB- -LRB-)(NP (NNP AP))(-RRB- -RRB-)))(SBAR (S (NP (CD __)(E-PER (NNPS Republicans)))(VP (VBP give)(NP (E-PER (NNP George)(NNP W.)(NNP Bush)))(NP (NP (NN credit))(PP (IN for)(S (VP (VBG promoting)(NP (DT a)(E-GPE (JJ Russian))(NN role))(PP (IN in)(S (VP (VBG smoothing)(NP (DT the)(NN transition))(PP (IN from)(NP (E-PER (NN despot))))(PP (TO to)(NP (NP (E-PER (NN democrat))))))))))))))))))) |ET| 2:19 11:1661 12:1059 13:1656 14:33 16:6 17:7 18:148 19:381 21:9 22:311 23:1657 24:1662 25:118 26:118 27:291 28:291 29:447 30:291 31:1658 32:1660 33:1659 34:1663 35:19 37:1660 38:1664 40:447 41:1658 42:21 43:21 44:1654 45:1658 46:21 47:21 48:22 49:22  |EV| 
0.12343381319058824296952536769822  |BT| (NP (NP (NNP Georgia)(POS 's))(JJS biggest)(ROOT (S (NP (PRP He))(VP (VBZ has)(VP (VBN failed)(, ,)(ADVP (RB however))(, ,)(PP (IN against)(NP (NP (NNP Georgia)(POS 's))(JJS biggest)(NNS rivals)))))))) |BT| (BOW ) |BT| (BOH (rivals *)) |BT| (BOH-NPs (rivals *)) |BT| (LP (NNP *)(NP *)(NNS *)) |BT| (LP-head (NNP *)(NP Georgia)(NNS *)) |BT| (NP (NP (NNP Georgia)(POS 's))(JJS biggest)(ROOT (S (NP (PRP He))(VP (VBZ has)(VP (VBN failed)(, ,)(ADVP (RB however))(, ,)(PP (IN against)(NP (NP (NNP Georgia)(POS 's))(JJS biggest)(NNS rivals)))))))) |BT| (NP (ROOT (S (VP (VP (PP (NP (NP (E-ORG (NNP Georgia))(POS 's))(JJS biggest)(E-ORG (NNS rivals))))(, ,)(S (VP (VBG going)(NP (CD 6-14))(PP (IN against)(NP (E-ORG (NNP Georgia)(NNP Tech))(, ,)(E-ORG (NNP Florida))(, ,)(E-ORG (NNP Auburn))(CC and)(E-ORG (NNP Tennessee))))))))(. .)))(JJS biggest)(ROOT (S (NP (E-PER (PRP He)))(VP (VBZ has)(VP (VBN failed)(, ,)(ADVP (RB however))(, ,)(PP (IN against)(NP (NP (E-ORG (NNP Georgia))(POS 's))(JJS biggest)(E-ORG (NNS rivals))))))))) |ET| 9:117 11:12046 12:12047 13:12045 14:1424 16:25 17:7 18:435 21:9 22:113 23:1156 24:8684 25:117 26:117 27:58 28:10528 29:594 30:10528 31:13 32:58 33:1157 34:8685 37:1162 38:1162 39:19 40:594 41:21 42:8686 43:8686 44:21 45:355 46:8686 47:8686 48:22 49:22  |EV| 
0.12499999999996855293282749244099  |BT| (VP (PP (ADVP (NP (NN source))(RB close)))(PP (TO to)(NP (DT the)(NN school)))) |BT| (BOW (close *)) |BT| (BOH (close *)) |BT| (BOH-NPs ) |BT| (LP (NN *)(NP *)(ADVP *)(PP *)(VP *)(PP *)(NP *)(NN *)) |BT| (LP-head (NN *)(NP *)(ADVP *)(PP *)(VP step)(PP *)(NP *)(NN *)) |BT| (VP (PP (ADVP (NP (NN source))(RB close)))(PP (TO to)(NP (DT the)(NN school)))) |BT| (VP (ROOT (S (NP (SBAR (S (VP (VP (PP (ADVP (NP (E-PER (NN source)))(RB close)))(PP (TO to)(NP (DT the)(E-ORG (NN school)))))))))(VP (VBD told)(NP (DT The)(E-ORG (NNP Associated)(NNP Press)))(NP-TMP (NNP Friday)))(. .)))(ROOT (S (LST (E-ORG (-LRB- -LRB-)(NN AP))(-RRB- -RRB-))(NP (NP (CD __)(NN N))(SBAR (S (NP (NP (E-PER (NNP Terry)(NNP Shea)))(, ,)(SBAR (WHNP (E-PER (WP who)))(S (VP (VBD failed)(S (VP (TO to)(VP (VB produce)(NP (NP (DT a)(VBG winning)(NN season))(PP (IN in)(NP (NP (CD four-plus)(NNS years))(PP (IN at)(NP (E-ORG (NNP Rutgers)))))))))))))(, ,))(VP (MD will)(VP (VB step)(PRT (RP down))(PP (IN as)(NP (NP (E-PER (NN coach)))(PP (IN at)(NP (NP (DT the)(NN end))(PP (IN of)(NP (DT this)(NN season))))))(, ,)(ADVP (NP (DT a)(E-PER (NN source)))(RB close)))(PP (TO to)(NP (DT the)(E-ORG (NN school)))))))))))) |ET| 5:19 11:8354 12:1895 13:8350 14:3909 16:47 17:7 18:301 19:338 21:9 22:311 23:8351 24:982 25:118 26:118 27:6439 28:105 29:430 30:105 31:13 32:291 33:8352 34:984 37:8353 38:986 40:6795 41:6795 42:21 43:6439 44:3026 45:187 46:21 47:6439 48:22 49:22  |EV| 
-0.070230857876029173514353942664457  |BT| (VP (ADVP (RB here))(ADVP (RB together))) |BT| (BOW ) |BT| (BOH ) |BT| (BOH-NPs ) |BT| (LP (RB *)(ADVP *)(VP *)(ADVP *)(RB *)) |BT| (LP-head (RB *)(ADVP *)(VP stop)(ADVP *)(RB *)) |BT| (VP (ADVP (RB here))(ADVP (RB together))) |BT| (VP (ROOT (S (VP (VP (VP (ADVP (E-FAC (RB here)))(ADVP (E-PER (RB together))))(CC and)(VP (VB prevent)(NP (DT any)(E-PER (NNPS Jews)))(PP (IN from)(S (VP (VBG coming)(ADVP (RB back))(PP (TO to)(NP (DT this)(E-FAC (NN place))))))))))(. .)('' '')))(ROOT (S (`` ``)(NP (PRP We))(VP (MD will)(VP (VP (VB stop)(ADVP (E-FAC (RB here)))(ADVP (E-PER (RB together))))))))) |ET| 11:2417 12:33 13:2413 14:644 16:7 17:7 18:912 21:2426 22:2427 23:2414 24:2418 25:913 26:913 27:31 28:31 29:2373 30:2416 31:492 32:2373 33:2415 34:2419 35:19 36:19 37:2416 38:2420 40:2373 41:21 42:21 43:21 44:21 45:492 46:21 47:21 48:22 49:22  |EV| 
-0.053935802897496921970432737225565  |BT| (NP (PRP$ our)(NNS martyrs)) |BT| (BOW ) |BT| (BOH ) |BT| (BOH-NPs ) |BT| (LP (PRP$ *)(NP *)(NNS *)) |BT| (LP-head (PRP$ *)(NP martyrs)(NNS *)) |BT| (NP (PRP$ our)(NNS martyrs)) |BT| (NP (ROOT (SINV (S (VP (VP (NP (PP (NP (E-PER (PRP$ our))(E-PER (NNS martyrs))))(SBAR (WHNP (E-PER (WP who)))(S (VP (VBD were)(VP (VBN killed)(S (VP (VBG defending)(NP (E-FAC (PRP it)))))))))))))(, ,)('' '')(VP (VBD said))(NP (NP (E-PER (NNP Aloul)))(, ,)(SBAR (WHNP (E-PER (WP$ whose))(E-PER (NN son)))(S (VP (VBD was)(VP (VBN killed)(PP (IN in)(NP (NNS clashes)))(NP-TMP (JJ last)(NN week)))))))(. .)))(ROOT (SINV (`` ``)(S (NP (PRP We))(VP (MD should)(VP (VP (VB protect)(NP (DT this)(E-FAC (NN building))))(CC and)(VP (VB make)(NP (E-FAC (PRP it))))(NP (NP (DT a)(NN symbol))(PP (IN for)(NP (E-PER (PRP$ our))(E-PER (NNS martyrs))))))))))) |ET| 4:19 8:19 11:2392 12:2393 13:2387 14:33 16:7 17:7 18:148 21:144 22:156 23:2388 24:2394 25:118 26:118 27:31 28:31 29:605 30:2395 31:2389 32:605 33:2390 34:2396 35:19 36:19 37:2391 38:2391 39:19 40:605 41:2389 42:21 43:21 44:931 45:2389 46:21 47:21 48:22 49:22  |EV| 
-0.10761588109662029166813113079115  |BT| (NP (NP (JJ Milutinovic)(NNS controls))(NP (NP (QP (RB approximately)(CD 100,000))(NNS policemen)))) |BT| (BOW (controls *)) |BT| (BOH ) |BT| (BOH-NPs ) |BT| (LP (JJ *)(NP *)(NP *)(NNS *)) |BT| (LP-head (JJ *)(NP controls)(NP *)(NNS *)) |BT| (NP (NP (JJ Milutinovic)(NNS controls))(NP (NP (QP (RB approximately)(CD 100,000))(NNS policemen)))) |BT| (NP (ROOT (NP (NP (E-PER (JJ Milutinovic))(NNS controls))(NP (NP (QP (RB approximately)(CD 100,000))(E-PER (NNS policemen)))(PP (IN in)(NP (NP (E-PER (PRP$ his))(E-GPE (NN republic)))(CC and)(PRN (, ,)(ADVP (RB indirectly))(, ,))(NP (NP (RB much))(PP (IN of)(NP (NP (DT the)(NN republic)(POS 's))(NN economy)))))))(. .)))(ROOT (NP (NP (E-PER (JJ Milutinovic))(NNS controls))(NP (NP (QP (RB approximately)(CD 100,000))(E-PER (NNS policemen))))))) |ET| 4:19 11:3139 12:3140 13:2923 14:33 16:47 17:7 18:148 21:165 22:166 23:3141 24:3142 25:118 26:118 27:2952 28:3143 29:14 30:3143 31:290 32:3144 33:3145 34:3146 35:19 37:2952 38:3147 40:21 41:21 42:21 43:21 44:21 45:21 46:21 47:21 48:22 49:22  |EV| 
0.12499999999996855293282749244099  |BT| (NP (NP (NNS supporters))(PP (IN of)(NP (NNP Pinochet)))) |BT| (BOW ) |BT| (BOH (of *)) |BT| (BOH-NPs ) |BT| (LP (NNS *)(NP *)(PP *)(NP *)(NNP *)) |BT| (LP-head (NNS *)(NP supporters)(PP *)(NP *)(NNP *)) |BT| (NP (NP (NNS supporters))(PP (IN of)(NP (NNP Pinochet)))) |BT| (NP (ROOT (S (NP (NP (E-PER (NNS supporters)))(PP (IN of)(NP (E-PER (NNP Pinochet)))))(VP (VBD intensified)(NP (E-PER (PRP$ their))(NN campaign)(S (VP (TO to)(VP (VB have)(S (NP (NP (E-PER (NNP Judge))(E-PER (NNP Juan)(NNP Guzman)))(, ,)(SBAR (WHNP (E-PER (WP who)))(S (VP (VBD issued)(NP (DT the)(NN indictment))(NP-TMP (NNP Friday)))))(, ,))(VP (VBD removed)(PP (IN from)(NP (DT the)(NN case))))))))))(. .)))(ROOT (S (ADVP (RB Meanwhile))(, ,)(NP (NP (JJ angry)(E-PER (NNS supporters)))(PP (IN of)(NP (E-PER (NNP Pinochet)))))))) |ET| 6:19 11:12120 12:33 13:12121 14:12122 16:6 17:7 18:148 21:9 22:324 23:943 24:12108 25:118 26:118 27:187 28:187 29:12123 30:187 31:13 32:949 33:948 34:12124 37:949 38:12110 40:12123 41:21 42:21 43:187 44:21 45:7704 46:21 47:187 48:22 49:22  |EV| 
0.12499999999996855293282749244099  |BT| (NP (NP (NNS supporters))(PP (IN of)(NP (NNP Pinochet)))) |BT| (BOW ) |BT| (BOH (of *)) |BT| (BOH-NPs ) |BT| (LP (NNS *)(NP *)(PP *)(NP *)(NNP *)) |BT| (LP-head (NNS *)(NP supporters)(PP *)(NP *)(NNP *)) |BT| (NP (NP (NNS supporters))(PP (IN of)(NP (NNP Pinochet)))) |BT| (NP (ROOT (S (NP (NP (E-PER (NNS supporters)))(PP (IN of)(NP (E-PER (NNP Pinochet)))))(VP (VBD intensified)(NP (E-PER (PRP$ their))(NN campaign)(S (VP (TO to)(VP (VB have)(S (NP (NP (E-PER (NNP Judge))(E-PER (NNP Juan)(NNP Guzman)))(, ,)(SBAR (WHNP (E-PER (WP who)))(S (VP (VBD issued)(NP (DT the)(NN indictment))(NP-TMP (NNP Friday)))))(, ,))(VP (VBD removed)(PP (IN from)(NP (DT the)(NN case))))))))))(. .)))(ROOT (S (ADVP (RB Meanwhile))(, ,)(NP (NP (JJ angry)(E-PER (NNS supporters)))(PP (IN of)(NP (E-PER (NNP Pinochet)))))))) |ET| 6:19 11:12120 12:33 13:12121 14:12122 16:6 17:7 18:148 21:9 22:324 23:943 24:12108 25:118 26:118 27:187 28:187 29:12123 30:187 31:13 32:949 33:948 34:12124 37:949 38:12110 40:12123 41:21 42:21 43:187 44:21 45:7704 46:21 47:187 48:22 49:22  |EV| 
-0.12499999999996855293282749244099  |BT| (NP (NP (NNS members))(PP (IN of)(NP (NP (NNP Congress))))) |BT| (BOW ) |BT| (BOH (of *)) |BT| (BOH-NPs ) |BT| (LP (NNS *)(NP *)(PP *)(NP *)(NNP *)) |BT| (LP-head (NNS *)(NP members)(PP *)(NP *)(NNP *)) |BT| (NP (NP (NNS members))(PP (IN of)(NP (NP (NNP Congress))))) |BT| (NP (ROOT (S (VP (SBAR (S (VP (NP (NP (E-PER (NNS members)))(PP (IN of)(NP (NP (E-ORG (NNP Congress)))(PP (IN in)(NP (DT a)(NN briefing))))))(NP-TMP (NNP Wednesday))(SBAR (IN that)(S (NP (E-PER (NNP Clinton)))(VP (VP (VBD sent)(NP (DT a)(NN letter))(PP (TO to)(NP (NP (E-GPE (NNP Russian))(E-PER (NNP President))(E-PER (NNP Vladimir)(NNP Putin)))(ADVP (NP (CD three)(NNS weeks))(IN ago))))(`` ``)(NP (SBAR (S (VP (VBG asking)(S (NP (E-PER (PRP him)))(VP (TO to)(VP (VP (VB step)(PP (IN in)))(CC and)(VP (VB do)(SBAR (WHADJP (RB exactly)(WP what))(S (NP (E-PER (NNP Bush)))(VP (VBD suggested))))))))))))('' ''))(CC and)(VP (PP (IN on)(NP (NNP Saturday)))(ADVP (RB personally))(VBD urged)(NP (E-PER (NN Putin)))(PP (IN by)(NP (NN phone)))(S (VP (TO to)(VP (VB intervene))))))))))))(. .)))(ROOT (S (NP (NP (E-PER (NNP Marc)(NNP Thiessen)))(, ,)(NP (NP (NP (E-PER (NN spokesman)))(PP (IN for)(NP (DT the)(E-ORG (NNP GOP)))))(: -)(S (VP (JJ controlled)(NP (E-ORG (NNP Senate))(E-ORG (NNP Foreign)(NNP Relations)(NNP Committee))))))(, ,))(VP (VBD said)(SBAR (S (NP (E-ORG (NN administration))(E-PER (NNS officials)))(VP (VBD told)(NP (NP (E-PER (NNS members)))(PP (IN of)(NP (NP (E-ORG (NNP Congress))))))))))))) |ET| 5:19 11:1932 12:1505 13:1928 14:797 16:6 17:7 18:301 21:9 22:324 23:1929 24:1933 25:118 26:118 27:187 28:187 29:1551 30:187 31:1923 32:1931 33:1930 34:1934 37:1931 38:1935 40:1551 41:1923 42:21 43:187 44:1876 45:1923 46:21 47:187 48:22 49:22  |EV| 
-0.12499999999996855293282749244099  |BT| (NP (NP (NNS Critics))(PP (IN of)(NP (NP (NNP Indonesia))))) |BT| (BOW ) |BT| (BOH (of *)) |BT| (BOH-NPs ) |BT| (LP (NNS *)(NP *)(PP *)(NP *)(NNP *)) |BT| (LP-head (NNS *)(NP Critics)(PP *)(NP *)(NNP *)) |BT| (NP (NP (NNS Critics))(PP (IN of)(NP (NP (NNP Indonesia))))) |BT| (NP (ROOT (S (NP (NP (E-PER (NNS Critics)))(PP (IN of)(NP (NP (E-GPE (NNP Indonesia))(POS 's))(JJ legal)(E-GPE (NN system)))))(VP (VBP have)(VP (VBN accused)(NP (E-GPE (PRP it)))(PP (IN of)(S (VP (VBG going)(ADJP (JJ soft))(PP (IN on)(NP (DT the)(E-PER (NNP Suharto))(E-PER (NN clan)))))))))(. .)))(ROOT (S (NP (NP (E-PER (NNS Critics)))(PP (IN of)(NP (NP (E-GPE (NNP Indonesia))))))))) |ET| 10:118 11:795 12:45 13:796 14:797 16:6 17:7 18:143 21:9 22:324 23:798 24:610 25:118 26:118 27:187 28:187 29:14 30:187 31:799 32:800 33:801 34:614 37:800 38:615 40:21 41:21 42:21 43:187 44:21 45:21 46:21 47:187 48:22 49:22  |EV| 
-0.12499999999996855293282749244099  |BT| (NP (NP (NNS parts))(PP (IN of)(NP (NNP Yugoslavia)))) |BT| (BOW ) |BT| (BOH (of *)) |BT| (BOH-NPs ) |BT| (LP (NNS *)(NP *)(PP *)(NP *)(NNP *)) |BT| (LP-head (NNS *)(NP parts)(PP *)(NP *)(NNP *)) |BT| (NP (NP (NNS parts))(PP (IN of)(NP (NNP Yugoslavia)))) |BT| (NP (ROOT (S (VP (VP (PP (S (VP (VP (NP (SBAR (S (VP (SBAR (S (NP (NP (E-GPE (NNS parts)))(PP (IN of)(NP (E-GPE (NNP Yugoslavia)))))(VP (VBD began)(S (VP (TO to)(VP (VB seek)(NP (NN independence))))))))))))))))))(. .)))(ROOT (S (NP (E-PER (NNP Milosevic)))(VP (VBZ is)(VP (VBN blamed)(PP (IN by)(NP (DT the)(E-LOC (NNP West))))(PP (IN for)(S (VP (VP (VBG starting)(NP (CD __)(NN N)))(CC and)(ADVP (RB then))(VP (VBG losing)(NP (NP (QP (CD __)(CD four))(E-LOC (NNP Balkan))(NNS wars))(SBAR (WHNP (WDT that))(S (VP (VBD broke)(PRT (RP out))(PP (IN in)(NP (DT the)(JJ last)(NN decade)))(SBAR (WHADVP (WRB when))(S (NP (NP (E-GPE (NNS parts)))(PP (IN of)(NP (E-GPE (NNP Yugoslavia)))))))))))))))))))) |ET| 11:1665 12:5 13:3254 14:3255 16:6 17:7 18:8 21:9 22:324 23:3256 24:1666 25:1 26:1 27:187 28:187 29:503 30:187 31:3242 32:3258 33:3257 34:1667 37:3258 38:1668 40:503 41:3242 42:21 43:187 44:3253 45:3242 46:21 47:187 48:22 49:22  |EV| 
0.12499999999996855293282749244099  |BT| (NP (JJ Democratic)(NN region)) |BT| (BOW ) |BT| (BOH ) |BT| (BOH-NPs ) |BT| (LP (JJ *)(NP *)(NN *)) |BT| (LP-head (JJ *)(NP region)(NN *)) |BT| (NP (JJ Democratic)(NN region)) |BT| (NP (ROOT (S (NP (PP (NP (E-ORG (JJ Democratic))(E-LOC (NN region)))))(VP (VBZ is)(VP (VBG being)(VP (VBN vacated)(PP (IN by)(NP (E-ORG (NNP Republican))(E-PER (NNP Sen)))))))(. .)))(ROOT (S (NP (NP (DT The)(E-ORG (NNP Senate))(NN seat))(PP (IN in)(NP (DT the)(RB traditionally)(E-ORG (JJ Democratic))(E-LOC (NN region)))))))) |ET| 11:7049 12:7050 13:4793 14:24 16:7 17:7 18:137 21:165 22:217 23:4796 24:3691 25:117 26:117 27:31 28:31 29:7048 30:2784 31:105 32:7048 33:4799 34:3695 35:19 36:19 37:3697 38:3697 39:19 40:2784 41:1383 42:21 43:21 44:1920 45:106 46:21 47:21 48:22 49:22  |EV| 
