SVM-light Version V5.01-TK-1.2
5 # kernel type
3 # kernel parameter -d 
1 # kernel parameter -g 
1 # kernel parameter -s 
1 # kernel parameter -r 
empty# kernel parameter -u 
0.4 # kernel parameter -L 
1 # kernel parameter -T 
T # kernel parameter -C 
1 # kernel parameter -F 
1 # kernel parameter -S 
1.000000 # kernel parameter -D 
3 # kernel parameter -N 
S # kernel parameter -V 
S # kernel parameter -W 
49 # highest feature index 
16237 # number of training documents 
529 # number of support vectors plus 1 
0.94812392 # threshold b, each following line is a SV (starting with alpha*y)
0.096812669734513703834188902419555  |BT| (NP (PRP$ his)(NN doctor)) |BT| (BOW ) |BT| (BOH ) |BT| (BOH-NPs ) |BT| (LP (PRP$ *)(NP *)(NN *)) |BT| (LP-head (PRP$ *)(NP doctor)(NN *)) |BT| (NP (PRP$ his)(NN doctor)) |BT| (NP (ROOT (S (S (VP (PP (NP (E-PER (PRP$ his))(E-PER (NN doctor))(S (VP (TO to)(VP (VB be)(VP (VBG recovering)(ADVP (RB well))(PP (IN from)(NP (DT a)(JJ mild)(NN heart)(NN attack)))))))))))(, ,)(VP (VBD was)(VP (VBG being)(VP (VBN released)(PP (IN from)(NP (DT the)(E-FAC (NN hospital))))(NP-TMP (NNP Friday)))))(. .)))(ROOT (S (NP (NP (NP (E-GPE (NNP WASHINGTON)))(PRN (-LRB- -LRB-)(NP (NNP AP))(-RRB- -RRB-))(NP (CD _)(E-ORG (JJ Republican))(NN vice)))(NP (JJ presidential)(E-PER (NN candidate))(E-PER (NNP Dick)(NNP Cheney))))(, ,)(S (VP (VBD said)(PP (IN by)(NP (E-PER (PRP$ his))(E-PER (NN doctor))))))))) |ET| 2:19 3:19 6:19 7:19 8:19 11:10107 12:10108 13:32 14:33 16:7 17:7 18:148 21:144 22:149 23:2800 24:367 25:118 26:118 27:31 28:31 29:460 30:279 31:170 32:460 33:2801 34:370 35:19 36:19 37:371 38:371 39:19 40:460 41:1216 42:21 43:21 44:1217 45:170 46:21 47:21 48:22 49:22  |EV| 
0.10260350331478090835091165899939  |BT| (VP (NP (PP (NP (NP (DT a)(NN mother))(CC and)(NP (NN daughter)))))(PP (IN in)(NP (DT another)))) |BT| (BOW ) |BT| (BOH (daughter *)(in *)) |BT| (BOH-NPs (daughter *)) |BT| (LP (DT *)(NP *)(PP *)(NP *)(VP *)(PP *)(NP *)(DT *)) |BT| (LP-head (DT *)(NP *)(PP *)(NP *)(VP __)(PP *)(NP *)(DT *)) |BT| (VP (NP (PP (NP (NP (DT a)(NN mother))(CC and)(NP (NN daughter)))))(PP (IN in)(NP (DT another)))) |BT| (VP (ROOT (S (VP (NP (PP (NP (NP (DT a)(NN mother))(CC and)(NP (NN daughter)))))(PP (IN in)(NP (E-PER (DT another)))))(. .)))(ROOT (S (PP (IN Among)(NP (E-PER (PRP them))))(, ,)(NP (NP (JJ double)(E-PER (NNS losses)))(PP (IN for)(NP (CD two)(E-PER (NNS families)))))(VP (VBP __)(NP (NP (E-PER (DT a)(NN father)(CC and)(NN son)))(PP (IN in)(NP (NP (E-PER (CD one)))(, ,)(NP (DT a)(NN mother))(CC and)(NP (NN daughter)))))(PP (IN in)(NP (E-PER (DT another)))))))) |ET| 6:19 11:6356 12:33 13:6352 14:33 16:6 17:7 18:148 21:3003 22:3004 23:6353 24:6357 25:118 26:118 27:106 28:106 29:13 30:106 31:904 32:6358 33:6354 34:6359 37:6355 38:31 40:106 41:621 42:6358 43:6358 44:274 45:621 46:6358 47:106 48:22 49:6358  |EV| 
0.12499999999996855293282749244099  |BT| (NP (NP (NNP Herblock)(POS 's))(ROOT (S (NP (NP (NNP Jean)(NNP Rickard))(, ,)(NP (NP (NP (NNP Herblock)(POS 's))(NN assistant))))))) |BT| (BOW ) |BT| (BOH ) |BT| (BOH-NPs ) |BT| (LP (NNP *)(NP *)(NN *)) |BT| (LP-head (NNP *)(NP assistant)(NN *)) |BT| (NP (NP (NNP Herblock)(POS 's))(ROOT (S (NP (NP (NNP Jean)(NNP Rickard))(, ,)(NP (NP (NP (NNP Herblock)(POS 's))(NN assistant))))))) |BT| (NP (ROOT (S (NP (NP (NP (NP (E-PER (NNP Herblock))(POS 's))(E-PER (NN assistant)))(PP (IN for)(NP (CD 43)(NNS years))))(, ,))(VP (VBD said)(SBAR (S (NP (DT the)(E-PER (NN cartoonist)))(VP (VBZ goes)(PP (TO to)(NP (NP (DT the)(E-ORG (NN office)))(ADVP (RB daily))))(S (VP (TO to)(VP (VP (VB keep)(ADJP (JJ close)(PP (TO to)(NP (DT the)(NN news)))))(CC and)(VP (VB check)(NP (E-PER (PRP$ his))(NNS facts))))))))))(. .)))(ROOT (S (NP (NP (E-PER (NNP Jean)(NNP Rickard)))(, ,)(NP (NP (NP (E-PER (NNP Herblock))(POS 's))(E-PER (NN assistant)))))))) |ET| 1:19 2:19 6:19 11:4626 12:4627 13:4567 14:742 16:6 17:7 18:148 21:9 22:56 23:4395 24:4628 25:118 26:118 27:58 28:58 29:13 30:58 31:4624 32:4406 33:4396 34:4629 35:19 37:4406 38:1121 40:4624 41:4624 42:21 43:21 44:4642 45:4642 46:21 47:21 48:22 49:22  |EV| 
0.12499999999996855293282749244099  |BT| (NP (PRP$ his)(NN boss)) |BT| (BOW ) |BT| (BOH ) |BT| (BOH-NPs ) |BT| (LP (PRP$ *)(NP *)(NN *)) |BT| (LP-head (PRP$ *)(NP boss)(NN *)) |BT| (NP (PRP$ his)(NN boss)) |BT| (NP (ROOT (S (VP (SBAR (S (NP (E-PER (PRP$ his))(E-PER (NN boss)))(VP (VBD was)(VP (VBG trying)(S (VP (TO to)(VP (VB get)(S (NP (E-GPE (NNP Moscow)))(VP (TO to)(VP (VB step)(PP (IN in)))))))))))))(. .)))(ROOT (S (NP (NP (NP (E-GPE (NNP WASHINGTON)))(PRN (-LRB- -LRB-)(NP (NNP AP))(-RRB- -RRB-)))(SBAR (S (NP (CD __)(E-PER (NNPS Republicans)))(VP (VBP give)(NP (E-PER (NNP George)(NNP W.)(NNP Bush)))(NP (NP (NN credit))(PP (IN for)(S (VP (VBG promoting)(NP (DT a)(E-GPE (JJ Russian))(NN role))(PP (IN in)(S (VP (VBG smoothing)(NP (DT the)(NN transition))(PP (IN from)(NP (E-PER (NN despot))))(PP (TO to)(NP (NP (E-PER (NN democrat)))(PP (IN in)(NP (E-GPE (NNP Yugoslavia)))))))))))))))))(VP (VBD _)(NP (NP (DT an)(NN idea))(VP (VBN dismissed)(PP (IN in)(NP (NN debate)))(PP (IN as)(ADJP (JJ risky)))(PP (IN by)(NP (E-PER (NNP Al)(NNP Gore))))))(SBAR (RB even)(IN as)(S (NP (E-PER (PRP$ his))(E-PER (NN boss))))))))) |ET| 6:19 7:19 8:19 11:1675 12:320 13:32 14:33 16:7 17:7 18:148 21:144 22:149 23:1671 24:1676 25:118 26:118 27:31 28:31 29:49 30:279 31:1672 32:49 33:1673 34:1677 35:19 36:19 37:1674 38:1674 39:19 40:1318 41:1318 42:21 43:21 44:1690 45:1690 46:21 47:21 48:22 49:22  |EV| 
0.068877421771753710721952757012332  |BT| (NP (PRP$ his)(NNS aides)) |BT| (BOW ) |BT| (BOH ) |BT| (BOH-NPs ) |BT| (LP (PRP$ *)(NP *)(NNS *)) |BT| (LP-head (PRP$ *)(NP aides)(NNS *)) |BT| (NP (PRP$ his)(NNS aides)) |BT| (NP (ROOT (S (SBAR (S (NP (E-PER (PRP$ his))(E-PER (NNS aides)))(VP (VBD were)(VP (VBG finalizing)(NP (NP (NNS plans))(PP (IN for)(NP (E-PER (PRP$ their))(NN assault))))))))(, ,)(NP (E-PER (NNP Gore)))(VP (VBD discussed)(NP (E-PER (PRP$ his))(NN education)(NNS proposals))(PP (IN on)(NP (NNP Sunday)(NN afternoon)))(PP (IN with)(NP (E-PER (NNS teachers))(, ,)(E-PER (NNS students))(CC and)(E-PER (NNS parents))))(PP (IN during)(NP (NP (DT a)(NN photo)(NN opportunity))(PP (IN at)(NP (NP (E-PER (PRP$ his))(E-FAC (NN residence)))(PP (IN in)(NP (E-GPE (NNP Washington)))))))))(. .)))(ROOT (S (ADVP (RB Indeed))(, ,)(SBAR (RB even)(IN as)(S (NP (E-PER (PRP$ his))(E-PER (NNS aides)))))))) |ET| 4:19 6:19 7:19 8:19 11:16140 12:320 13:32 14:33 16:7 17:7 18:148 21:144 22:156 23:1370 24:1860 25:118 26:118 27:31 28:31 29:49 30:279 31:1672 32:49 33:1318 34:1861 35:19 36:19 37:1862 38:1862 39:19 40:16142 41:21 42:21 43:21 44:21 45:21 46:21 47:21 48:22 49:22  |EV| 
0.03663522727159843062061383989203  |BT| (NP (PRP$ his)(NN father)) |BT| (BOW ) |BT| (BOH ) |BT| (BOH-NPs ) |BT| (LP (PRP$ *)(NP *)(NN *)) |BT| (LP-head (PRP$ *)(NP father)(NN *)) |BT| (NP (PRP$ his)(NN father)) |BT| (NP (ROOT (S (VP (VP (SBAR (S (NP (NP (E-PER (PRP$ his))(E-PER (NN father)))(, ,)(NP (E-PER (NNP Hafez)(NNP Assad)))(, ,))(VP (VBD died)(PP (IN in)(NP (NNP June)))(PP (IN after)(NP (NP (CD 30)(NNS years))(PP (IN in)(NP (NN power))))))))))(. .)))(ROOT (S (NP (NP (E-PER (NNP Assad)))(, ,)(NP (CD 35))(, ,))(VP (VBZ has)(VP (VBN focused)(PP (IN on)(NP (JJ domestic)(NNS issues)))(SBAR (IN since)(S (NP (NP (E-PER (PRP$ his))(E-PER (NN father))))))))))) |ET| 2:19 3:19 6:19 7:19 8:19 11:276 12:277 13:32 14:33 16:7 17:7 18:148 21:144 22:149 23:65 24:278 25:118 26:118 27:31 28:31 29:184 30:279 31:273 32:184 33:172 34:280 35:19 36:19 37:274 38:274 39:19 40:273 41:273 42:21 43:21 44:67 45:285 46:21 47:21 48:22 49:22  |EV| 
0.075818450758246586085320473102911  |BT| (NP (PRP$ his)(NN father)) |BT| (BOW ) |BT| (BOH ) |BT| (BOH-NPs ) |BT| (LP (PRP$ *)(NP *)(NN *)) |BT| (LP-head (PRP$ *)(NP father)(NN *)) |BT| (NP (PRP$ his)(NN father)) |BT| (NP (ROOT (S (VP (PP (NP (PP (NP (E-PER (PRP$ his))(E-PER (NN father))))))(, ,)(SBAR (IN so)(S (NP (PRP it))(VP (VBD was)(ADJP (RB only)(JJ normal)(PP (IN for)(NP (DT the)(NNS discussions))))(S (VP (TO to)(VP (VB have)(NP (DT a)(JJ general)(NN tone)))))))))(: ...)))(ROOT (S (`` ``)(NP (DT This))(VP (VBD was)(NP (NP (DT the)(JJ first)(NN meeting))(PP (IN of)(NP (NP (DT the)(JJ first)(NN visit))(PP (IN of)(NP (E-PER (NNP President))(E-PER (NNP Bashar)(NNP Assad)))))))(PP (IN after)(NP (NP (DT the)(NN funeral))(PP (IN of)(NP (E-PER (PRP$ his))(E-PER (NN father)))))))))) |ET| 2:19 3:19 6:19 7:19 8:19 11:319 12:320 13:32 14:33 16:7 17:7 18:148 21:144 22:149 23:65 24:278 25:118 26:118 27:31 28:31 29:187 30:279 31:317 32:187 33:172 34:280 35:19 36:19 37:274 38:274 39:19 40:187 41:317 42:21 43:21 44:67 45:317 46:21 47:21 48:22 49:22  |EV| 
-0.0015955009177403838178943562553513  |BT| (S (NP (SBAR (S (VP (NP (PP (S (VP (PP (S (VP (PP (NP (PP (NP (NNP Yugoslavia))))))))))))))))(VP (VBD _)(NP (NP (DT an)(NN idea))(VP (VBN dismissed)(PP (IN in)(NP (NN debate)))(PP (IN as)(ADJP (JJ risky)))(PP (IN by)(NP (NNP Al)(NNP Gore)))))(SBAR (RB even)(IN as)(S (NP (PRP$ his)(NN boss))(VP (VBD was)(VP (VBG trying)(S (VP (TO to)(VP (VB get)(S (NP (NNP Moscow)))))))))))) |BT| (BOW (_ *)(an *)(idea *)(dismissed *)(in *)(debate *)(as *)(risky *)(by *)(Al *)(Gore *)(even *)(as *)(his *)(boss *)(was *)(trying *)) |BT| (BOH (_ *)(idea *)(dismissed *)(in *)(debate *)(as *)(risky *)(by *)(Gore *)(boss *)(was *)(get *)) |BT| (BOH-NPs (idea *)(debate *)(Gore *)(boss *)) |BT| (LP (NNP *)(NP *)(PP *)(NP *)(PP *)(VP *)(S *)(PP *)(VP *)(S *)(PP *)(NP *)(VP *)(S *)(SBAR *)(NP *)(S *)(VP *)(SBAR *)(S *)(VP *)(S *)(VP *)(S *)(NP *)(NNP *)) |BT| (LP-head (NNP *)(NP *)(PP *)(NP *)(PP *)(VP *)(S *)(PP *)(VP *)(S *)(PP *)(NP *)(VP *)(S *)(SBAR *)(NP *)(S _)(VP *)(SBAR *)(S *)(VP *)(S *)(VP *)(S *)(NP *)(NNP *)) |BT| (S (NP (SBAR (S (VP (NP (PP (S (VP (PP (S (VP (PP (NP (PP (NP (NNP Yugoslavia))))))))))))))))(VP (VBD _)(NP (NP (DT an)(NN idea))(VP (VBN dismissed)(PP (IN in)(NP (NN debate)))(PP (IN as)(ADJP (JJ risky)))(PP (IN by)(NP (NNP Al)(NNP Gore)))))(SBAR (RB even)(IN as)(S (NP (PRP$ his)(NN boss))(VP (VBD was)(VP (VBG trying)(S (VP (TO to)(VP (VB get)(S (NP (NNP Moscow)))))))))))) |BT| (S (ROOT (S (NP (SBAR (S (VP (NP (PP (S (VP (PP (S (VP (PP (NP (PP (NP (E-GPE (NNP Yugoslavia)))))))))))))))))(VP (VBD _)(NP (NP (DT an)(NN idea))(VP (VBN dismissed)(PP (IN in)(NP (NN debate)))(PP (IN as)(ADJP (JJ risky)))(PP (IN by)(NP (E-PER (NNP Al)(NNP Gore))))))(SBAR (RB even)(IN as)(S (NP (E-PER (PRP$ his))(E-PER (NN boss)))(VP (VBD was)(VP (VBG trying)(S (VP (TO to)(VP (VB get)(S (NP (E-GPE (NNP Moscow)))(VP (TO to)(VP (VB step)(PP (IN in)))))))))))))(. .)))(ROOT (S (NP (NP (NP (E-GPE (NNP WASHINGTON)))(PRN (-LRB- -LRB-)(NP (NNP AP))(-RRB- -RRB-)))(SBAR (S (NP (CD __)(E-PER (NNPS Republicans)))(VP (VBP give)(NP (E-PER (NNP George)(NNP W.)(NNP Bush)))(NP (NP (NN credit))(PP (IN for)(S (VP (VBG promoting)(NP (DT a)(E-GPE (JJ Russian))(NN role))(PP (IN in)(S (VP (VBG smoothing)(NP (DT the)(NN transition))(PP (IN from)(NP (E-PER (NN despot))))(PP (TO to)(NP (NP (E-PER (NN democrat)))(PP (IN in)(NP (E-GPE (NNP Yugoslavia)))))))))))))))))(VP (VBD _)(NP (NP (DT an)(NN idea))(VP (VBN dismissed)(PP (IN in)(NP (NN debate)))(PP (IN as)(ADJP (JJ risky)))(PP (IN by)(NP (E-PER (NNP Al)(NNP Gore))))))(SBAR (RB even)(IN as)(S (NP (E-PER (PRP$ his))(E-PER (NN boss)))(VP (VBD was)(VP (VBG trying)(S (VP (TO to)(VP (VB get)(S (NP (E-GPE (NNP Moscow))))))))))))))) |ET| 11:1678 12:5 13:1665 14:5 16:120 17:47 18:8 21:9 22:10 23:1666 24:1680 25:1 26:1 27:40 28:1681 29:106 30:1681 31:1664 32:291 33:1667 34:1682 37:1668 38:1683 40:106 41:1664 42:1670 43:40 44:1660 45:1664 46:1674 47:1681 48:1318 49:718  |EV| 
0.12499999999996855293282749244099  |BT| (S (X (NP (NP (NN son))(PP (IN of)(NP (NN ex-dictator)))))(NP (NNP Suharto))) |BT| (BOW ) |BT| (BOH (of *)(ex-dictator *)) |BT| (BOH-NPs (ex-dictator *)) |BT| (LP (NN *)(NP *)(X *)(S *)(NP *)(NNP *)) |BT| (LP-head (NN *)(NP *)(X *)(S disobeyed)(NP *)(NNP *)) |BT| (S (X (NP (NP (NN son))(PP (IN of)(NP (NN ex-dictator)))))(NP (NNP Suharto))) |BT| (S (ROOT (S (X (NP (NP (E-PER (NN son)))(PP (IN of)(NP (E-PER (NN ex-dictator))))))(NP (E-PER (NNP Suharto)))(VP (VBD disobeyed)(NP (DT a)(NN summons)(S (VP (TO to)(VP (VP (VB surrender)(NP (E-PER (PRP himself)))(PP (TO to)(NP (E-PER (NNS prosecutors))))(NP-TMP (NNP Monday)))(CC and)(VP (VB be)(VP (VBN imprisoned)(PP (IN for)(NP (NN corruption))))))))))(. .)))(ROOT (S (NP (E-GPE (NNP JAKARTA)))(, ,)(X (NP (NP (E-GPE (NNP Indonesia)))(NP (E-ORG (-LRB- -LRB-)(NNP AP))(-RRB- -RRB-)))(NP (CD _))(NP (NP (DT The)(JJS youngest)(E-PER (NN son)))(PP (IN of)(NP (E-PER (NN ex-dictator))))))(NP (E-PER (NNP Suharto)))))) |ET| 6:19 11:626 12:33 13:616 14:617 16:25 17:6 18:148 21:9 22:157 23:618 24:627 25:118 26:118 27:187 28:625 29:619 30:625 31:220 32:187 33:620 34:628 37:621 38:629 40:43 41:43 42:625 43:187 44:615 45:615 46:625 47:625 48:22 49:187  |EV| 
0.086974563517337621920688661703025  |BT| (NP (NP (NN bodyguard))(PP (IN of)(NP (NP (DT the)(NN secretary-general))))) |BT| (BOW ) |BT| (BOH (of *)) |BT| (BOH-NPs ) |BT| (LP (NN *)(NP *)(PP *)(NP *)(NN *)) |BT| (LP-head (NN *)(NP bodyguard)(PP *)(NP *)(NN *)) |BT| (NP (NP (NN bodyguard))(PP (IN of)(NP (NP (DT the)(NN secretary-general))))) |BT| (NP (ROOT (S (S (VP (PP (NP (SBAR (S (VP (NP (NP (E-PER (NN bodyguard)))(PP (IN of)(NP (NP (DT the)(E-PER (NN secretary-general)))(PP (IN of)(NP (DT the)(E-ORG (NNS organizations))))))))))))))(. .)('' '')))(ROOT (S (`` ``)(S (PP (IN In)(NP (DT the)(NN beginning)))(, ,)(NP (E-PER (PRP I)))(VP (VBD was)(VP (VBG doing)(NP (E-ORG (JJ military))(NNS operations)))))(, ,)(CC and)(S (ADVP (RB then))(NP (E-PER (PRP I)))(VP (VBD went)(PP (TO to)(NP (NP (NN security))(, ,)(SBAR (WHPP (IN after)(WHNP (WDT which)))(S (NP (E-PER (PRP I)))(VP (VBD was)(NP (NP (DT the)(JJ special)(E-PER (NN bodyguard)))(PP (IN of)(NP (NP (DT the)(E-PER (NN secretary-general)))))))))))))))) |ET| 2:19 11:9091 12:3186 13:9086 14:9087 16:25 17:7 18:148 21:9 22:311 23:9088 24:9092 25:118 26:118 27:187 28:105 29:335 30:105 31:105 32:187 33:9089 34:9093 37:9090 38:9094 40:335 41:2063 42:21 43:187 44:9085 45:718 46:21 47:187 48:22 49:22  |EV| 
-0.12499999999996855293282749244099  |BT| (NP (PRP$ his)(NN opponent)) |BT| (BOW ) |BT| (BOH ) |BT| (BOH-NPs ) |BT| (LP (PRP$ *)(NP *)(NN *)) |BT| (LP-head (PRP$ *)(NP opponent)(NN *)) |BT| (NP (PRP$ his)(NN opponent)) |BT| (NP (ROOT (S (VP (NP (NP (E-PER (PRP$ his))(E-PER (NN opponent))(POS 's))(NN statement)))(. .)))(ROOT (S (PP (IN On)(NP (NNP Friday)))(, ,)(NP (E-PER (NNP Bush)))(VP (VBD criticized)(NP (NP (E-PER (PRP$ his))(E-PER (NN opponent)))))))) |ET| 6:19 7:19 8:19 11:1825 12:497 13:32 14:33 16:7 17:7 18:148 21:144 22:149 23:1310 24:1826 25:118 26:118 27:31 28:31 29:1823 30:279 31:1312 32:1823 33:1743 34:1827 35:19 36:19 37:1824 38:1824 39:19 40:1823 41:1312 42:21 43:21 44:1733 45:1312 46:21 47:21 48:22 49:22  |EV| 
-0.12499999999996855293282749244099  |BT| (NP (PRP$ his)(NN nation)) |BT| (BOW ) |BT| (BOH ) |BT| (BOH-NPs ) |BT| (LP (PRP$ *)(NP *)(NN *)) |BT| (LP-head (PRP$ *)(NP nation)(NN *)) |BT| (NP (PRP$ his)(NN nation)) |BT| (NP (ROOT (S (VP (VP (S (VP (VP (VP (NP (NP (E-PER (PRP$ his))(E-GPE (NN nation))(POS 's))(E-ORG (NN bureaucracy))))(CC and)(VP (VB revive)(NP (E-GPE (PRP$ its))(JJ stagnant)(NN economy))))))))(. .)))(ROOT (S (NP (E-PER (PRP He)))(VP (VBZ has)(VP (VBN taken)(NP (NNS steps))(S (VP (TO to)(VP (VP (VB modernize)(NP (NP (E-PER (PRP$ his))(E-GPE (NN nation))))))))))))) |ET| 11:294 12:295 13:32 14:33 16:7 17:7 18:143 21:144 22:149 23:65 24:297 25:118 26:118 27:31 28:31 29:289 30:279 31:291 32:289 33:172 34:298 35:19 36:19 37:292 38:292 39:19 40:289 41:293 42:21 43:21 44:21 45:293 46:21 47:21 48:22 49:22  |EV| 
-0.12499999999996855293282749244099  |BT| (NP (PRP$ his)(NN republic)) |BT| (BOW ) |BT| (BOH ) |BT| (BOH-NPs ) |BT| (LP (PRP$ *)(NP *)(NN *)) |BT| (LP-head (PRP$ *)(NP republic)(NN *)) |BT| (NP (PRP$ his)(NN republic)) |BT| (NP (ROOT (NP (NP (PP (NP (NP (E-PER (PRP$ his))(E-GPE (NN republic)))(CC and)(PRN (, ,)(ADVP (RB indirectly))(, ,))(NP (NP (RB much))(PP (IN of)(NP (NP (DT the)(NN republic)(POS 's))(NN economy)))))))(. .)))(ROOT (NP (NP (E-PER (JJ Milutinovic))(NNS controls))(NP (NP (QP (RB approximately)(CD 100,000))(E-PER (NNS policemen)))(PP (IN in)(NP (NP (E-PER (PRP$ his))(E-GPE (NN republic))))))))) |ET| 11:3148 12:3149 13:32 14:33 16:7 17:7 18:143 21:144 22:149 23:2753 24:2858 25:118 26:118 27:31 28:31 29:106 30:279 31:3147 32:106 33:2756 34:2860 35:19 36:19 37:2861 38:2861 39:19 40:106 41:3147 42:21 43:21 44:2952 45:3147 46:21 47:21 48:22 49:22  |EV| 
0.12499999999996855293282749244099  |BT| (S (NP (NP (NNP Carnahan))(, ,)(NP (NP (DT a)(NNP Democrat))(SBAR (WHNP (WP who))(S (VP (VBD was)(VP (VBG running)(PP (IN for)(NP (DT the)(NNP Senate))))))))(, ,))(VP (VBD campaigned)(PP (IN with)(NP (NNP Gore))))) |BT| (BOW (, *)(a *)(Democrat *)(who *)(was *)(running *)(for *)(the *)(Senate *)(, *)) |BT| (BOH (Democrat *)(who *)(was *)(for *)(Senate *)(campaigned *)(with *)) |BT| (BOH-NPs (Democrat *)(Senate *)) |BT| (LP (NNP *)(NP *)(S *)(VP *)(PP *)(NP *)(NNP *)) |BT| (LP-head (NNP *)(NP *)(S campaigned)(VP *)(PP *)(NP *)(NNP *)) |BT| (S (NP (NP (NNP Carnahan))(, ,)(NP (NP (DT a)(NNP Democrat))(SBAR (WHNP (WP who))(S (VP (VBD was)(VP (VBG running)(PP (IN for)(NP (DT the)(NNP Senate))))))))(, ,))(VP (VBD campaigned)(PP (IN with)(NP (NNP Gore))))) |BT| (S (ROOT (S (NP (NP (E-PER (NNP Carnahan)))(, ,)(NP (NP (DT a)(E-PER (NNP Democrat)))(SBAR (WHNP (E-PER (WP who)))(S (VP (VBD was)(VP (VBG running)(PP (IN for)(NP (DT the)(E-ORG (NNP Senate)))))))))(, ,))(VP (VBD campaigned)(PP (IN with)(NP (E-PER (NNP Gore))))(SBAR (WHADVP (WRB whenever))(S (NP (DT the)(NN vice)(E-PER (NN president)))(VP (VP (VBD was)(PP (IN in)(NP (E-GPE (NNP Missouri)))))(CC and)(VP (MD would)(VP (VB have)(VP (VBN accompanied)(NP (NP (E-PER (NNP Gore)))(PP (IN aboard)(NP (E-VEH (NNP Air)(NNP Force)(NNP II)))))(PP (TO to)(NP (DT a)(E-GPE (NNP Kansas)(NNP City))(NN rally)))(PP (IN on)(NP (NNP Wednesday))))))))))(. .)))(ROOT (S (NP (NP (E-PER (NNP Carnahan)))(, ,)(NP (NP (DT a)(E-PER (NNP Democrat)))(SBAR (WHNP (E-PER (WP who)))(S (VP (VBD was)(VP (VBG running)(PP (IN for)(NP (DT the)(E-ORG (NNP Senate)))))))))(, ,))(VP (VBD campaigned)(PP (IN with)(NP (E-PER (NNP Gore)))))))) |ET| 11:1369 12:33 13:4765 14:4766 16:46 17:47 18:148 21:9 22:10 23:4767 24:1370 25:118 26:118 27:13 28:72 29:14 30:72 31:850 32:4769 33:4768 34:1371 37:4744 38:1318 40:21 41:21 42:2172 43:2172 44:21 45:21 46:1920 47:72 48:2172 49:4769  |EV| 
-0.033960934288032713912475202278074  |BT| (S (NP (NNS firefighters))(VP (VBD had)(VP (VBN put)(PRT (RP out))(NP (NP (CD three)(NNS fires))(PP (IN in)(NP (DT the)(NN compound))))))) |BT| (BOW (had *)(put *)(out *)(three *)(fires *)) |BT| (BOH (had *)(put *)(fires *)(in *)) |BT| (BOH-NPs (fires *)) |BT| (LP (NNS *)(NP *)(S *)(VP *)(NP *)(PP *)(NP *)(NN *)) |BT| (LP-head (NNS *)(NP *)(S had)(VP *)(NP *)(PP *)(NP *)(NN *)) |BT| (S (NP (NNS firefighters))(VP (VBD had)(VP (VBN put)(PRT (RP out))(NP (NP (CD three)(NNS fires))(PP (IN in)(NP (DT the)(NN compound))))))) |BT| (S (ROOT (S (NP (E-PER (NNS firefighters)))(VP (VBD had)(VP (VBN put)(PRT (RP out))(NP (NP (CD three)(NNS fires))(PP (IN in)(NP (DT the)(E-FAC (NN compound)))))))(. .)))(ROOT (S (PP (IN By)(NP (JJ late)(NN afternoon)))(, ,)(NP (E-PER (NNS firefighters)))(VP (VBD had)(VP (VBN put)(PRT (RP out))(NP (NP (CD three)(NNS fires))(PP (IN in)(NP (DT the)(E-FAC (NN compound)))))))))) |ET| 11:2317 12:2219 13:2456 14:33 16:34 17:7 18:647 19:338 21:9 22:339 23:2457 24:2252 25:118 26:118 27:362 28:105 29:13 30:105 31:2458 32:106 33:2459 34:2255 37:2460 38:2254 40:2458 41:2458 42:2330 43:362 44:21 45:344 46:2330 47:106 48:22 49:2330  |EV| 
-0.0017370641909045855116877632440264  |BT| (S (X (NP (NP (NN son))(PP (IN of)(NP (NN ex-dictator)))))(NP (NNP Suharto))(VP (VBD disobeyed)(NP (DT a)(NN summons)(S (VP (TO to)(VP (VP (VB surrender)(NP (PRP himself))(PP (TO to)(NP (NNS prosecutors)))))))))) |BT| (BOW (of *)(ex-dictator *)(Suharto *)(disobeyed *)(a *)(summons *)(to *)(surrender *)) |BT| (BOH (of *)(ex-dictator *)(Suharto *)(disobeyed *)(summons *)(surrender *)(himself *)) |BT| (BOH-NPs (ex-dictator *)(Suharto *)(summons *)(himself *)) |BT| (LP (NN *)(NP *)(X *)(S *)(VP *)(NP *)(S *)(VP *)(PP *)(NP *)(NNS *)) |BT| (LP-head (NN *)(NP *)(X *)(S disobeyed)(VP *)(NP *)(S *)(VP *)(PP *)(NP *)(NNS *)) |BT| (S (X (NP (NP (NN son))(PP (IN of)(NP (NN ex-dictator)))))(NP (NNP Suharto))(VP (VBD disobeyed)(NP (DT a)(NN summons)(S (VP (TO to)(VP (VP (VB surrender)(NP (PRP himself))(PP (TO to)(NP (NNS prosecutors)))))))))) |BT| (S (ROOT (S (X (NP (NP (E-PER (NN son)))(PP (IN of)(NP (E-PER (NN ex-dictator))))))(NP (E-PER (NNP Suharto)))(VP (VBD disobeyed)(NP (DT a)(NN summons)(S (VP (TO to)(VP (VP (VB surrender)(NP (E-PER (PRP himself)))(PP (TO to)(NP (E-PER (NNS prosecutors))))(NP-TMP (NNP Monday)))(CC and)(VP (VB be)(VP (VBN imprisoned)(PP (IN for)(NP (NN corruption))))))))))(. .)))(NP (NNP Suharto))(ROOT (S (NP (E-GPE (NNP JAKARTA)))(, ,)(X (NP (NP (E-GPE (NNP Indonesia)))(NP (E-ORG (-LRB- -LRB-)(NNP AP))(-RRB- -RRB-)))(NP (CD _))(NP (NP (DT The)(JJS youngest)(E-PER (NN son)))(PP (IN of)(NP (E-PER (NN ex-dictator))))))(NP (E-PER (NNP Suharto)))(VP (VBD disobeyed)(NP (DT a)(NN summons)(S (VP (TO to)(VP (VP (VB surrender)(NP (E-PER (PRP himself)))(PP (TO to)(NP (E-PER (NNS prosecutors))))))))))))) |ET| 4:19 6:19 11:635 12:33 13:616 14:617 16:103 17:47 18:148 19:381 21:9 22:160 23:618 24:636 25:118 26:118 27:187 28:291 29:619 30:291 31:220 32:637 33:620 34:638 37:621 38:639 40:43 41:43 42:625 43:187 44:615 45:615 46:637 47:637 48:634 49:632  |EV| 
-0.024598704164839536867592784119552  |BT| (VP (NP (PP (NP (PP (NP (NNP President)(NNP Bashar)(NNP Assad))))))(PP (IN after)(NP (NP (DT the)(NN funeral))(PP (IN of)(NP (PRP$ his)(NN father)))))) |BT| (BOW (Bashar *)(Assad *)(after *)(the *)(funeral *)) |BT| (BOH (after *)(funeral *)(of *)) |BT| (BOH-NPs (Bashar *)(funeral *)) |BT| (LP (NNP *)(NP *)(PP *)(NP *)(PP *)(NP *)(VP *)(PP *)(NP *)(PP *)(NP *)(NN *)) |BT| (LP-head (NNP *)(NP *)(PP *)(NP *)(PP *)(NP *)(VP was)(PP *)(NP *)(PP *)(NP *)(NN *)) |BT| (VP (NP (PP (NP (PP (NP (NNP President)(NNP Bashar)(NNP Assad))))))(PP (IN after)(NP (NP (DT the)(NN funeral))(PP (IN of)(NP (PRP$ his)(NN father)))))) |BT| (VP (ROOT (S (VP (NP (PP (NP (PP (NP (E-PER (NNP President))(E-PER (NNP Bashar)(NNP Assad)))))))(PP (IN after)(NP (NP (DT the)(NN funeral))(PP (IN of)(NP (E-PER (PRP$ his))(E-PER (NN father))))))(, ,)(SBAR (IN so)(S (NP (PRP it))(VP (VBD was)(ADJP (RB only)(JJ normal)(PP (IN for)(NP (DT the)(NNS discussions))))(S (VP (TO to)(VP (VB have)(NP (DT a)(JJ general)(NN tone)))))))))(: ...)))(ROOT (S (`` ``)(NP (DT This))(VP (VBD was)(NP (NP (DT the)(JJ first)(NN meeting))(PP (IN of)(NP (NP (DT the)(JJ first)(NN visit))(PP (IN of)(NP (E-PER (NNP President))(E-PER (NNP Bashar)(NNP Assad)))))))(PP (IN after)(NP (NP (DT the)(NN funeral))(PP (IN of)(NP (E-PER (PRP$ his))(E-PER (NN father)))))))))) |ET| 1:19 2:19 6:19 11:319 12:320 13:76 14:33 16:34 17:6 18:148 21:9 22:56 23:78 24:278 25:118 26:118 27:316 28:279 29:187 30:279 31:231 32:187 33:80 34:280 37:67 38:274 40:187 41:231 42:316 43:318 44:315 45:231 46:317 47:187 48:316 49:317  |EV| 
0.11144364898849834499827693434781  |BT| (NP (PRP$ her)(NN husband)) |BT| (BOW ) |BT| (BOH ) |BT| (BOH-NPs ) |BT| (LP (PRP$ *)(NP *)(NN *)) |BT| (LP-head (PRP$ *)(NP husband)(NN *)) |BT| (NP (PRP$ her)(NN husband)) |BT| (NP (ROOT (S (VP (SBAR (SBAR (S (VP (VP (PP (S (VP (NP (PP (NP (NP (E-PER (PRP$ her))(E-PER (NN husband))(POS 's))(NN death)))))))))))))(. .)))(ROOT (S (PP (IN In)(NP (NP (DT a)(ADJP (RB somewhat)(JJ rambling))(NN apology))(PP (TO to)(NP (NP (E-PER (NNP Lennon))(POS 's))(E-PER (NN widow))))))(, ,)(NP (NP (E-PER (NNP Yoko)(NNP Ono)))(, ,)(NP (NP (E-PER (NNP Chapman)))(, ,)(NP (CD 45)))(, ,))(VP (VBD said)(ADVP (RB first))(SBAR (SBAR (IN that)(S (NP (E-PER (PRP he)))(VP (MD could)(RB not)(VP (VB imagine)(NP (E-PER (PRP$ her))(NN pain))))))(, ,)(CC and)(ADVP (RB later))(SBAR (IN that)(S (NP (E-PER (PRP he)))(VP (VBD had)(VP (VBN felt)(NP (PRP it))(PP (IN for)(NP (DT the)(JJ first)(NN time)))(PP (IN after)(S (VP (VBG reading)(NP (NP (NP (DT a)(JJ recent)(E-ORG (NNP Newsweek))(NN article))(SBAR (WHPP (IN in)(WHNP (WDT which)))(S (NP (E-PER (PRP she)))(VP (VBD said)(SBAR (S (NP (E-PER (PRP she)))(VP (VBD had)(VP (VBN been)(VP (VBG shaking)(ADVP (RB uncontrollably))(NP-TMP (DT the)(NN night)))))))))))(PP (IN of)(NP (NP (E-PER (PRP$ her))(E-PER (NN husband)))))))))))))))))) |ET| 6:19 7:19 8:19 11:16423 12:16424 13:6679 14:33 16:7 17:7 18:148 21:144 22:149 23:16416 24:6685 25:118 26:118 27:31 28:31 29:187 30:6686 31:1878 32:187 33:16417 34:6687 35:19 36:19 37:6682 38:6682 39:19 40:187 41:1878 42:21 43:21 44:16421 45:1878 46:21 47:21 48:22 49:22  |EV| 
0.12499999999996855293282749244099  |BT| (S (NP (NP (NNP Carnahan))(, ,)(NP (NP (DT a)(NNP Democrat))(SBAR (WHNP (WP who))(S (VP (VBD was)(VP (VBG running)(PP (IN for)(NP (DT the)(NNP Senate))))))))(, ,))(VP (VBD campaigned)(PP (IN with)(NP (NNP Gore))))) |BT| (BOW (, *)(a *)(Democrat *)(who *)(was *)(running *)(for *)(the *)(Senate *)(, *)) |BT| (BOH (Democrat *)(who *)(was *)(for *)(Senate *)(campaigned *)(with *)) |BT| (BOH-NPs (Democrat *)(Senate *)) |BT| (LP (NNP *)(NP *)(S *)(VP *)(PP *)(NP *)(NNP *)) |BT| (LP-head (NNP *)(NP *)(S campaigned)(VP *)(PP *)(NP *)(NNP *)) |BT| (S (NP (NP (NNP Carnahan))(, ,)(NP (NP (DT a)(NNP Democrat))(SBAR (WHNP (WP who))(S (VP (VBD was)(VP (VBG running)(PP (IN for)(NP (DT the)(NNP Senate))))))))(, ,))(VP (VBD campaigned)(PP (IN with)(NP (NNP Gore))))) |BT| (S (ROOT (S (NP (NP (E-PER (NNP Carnahan)))(, ,)(NP (NP (DT a)(E-PER (NNP Democrat)))(SBAR (WHNP (E-PER (WP who)))(S (VP (VBD was)(VP (VBG running)(PP (IN for)(NP (DT the)(E-ORG (NNP Senate)))))))))(, ,))(VP (VBD campaigned)(PP (IN with)(NP (E-PER (NNP Gore))))(SBAR (WHADVP (WRB whenever))(S (NP (DT the)(NN vice)(E-PER (NN president)))(VP (VP (VBD was)(PP (IN in)(NP (E-GPE (NNP Missouri)))))(CC and)(VP (MD would)(VP (VB have)(VP (VBN accompanied)(NP (NP (E-PER (NNP Gore)))(PP (IN aboard)(NP (E-VEH (NNP Air)(NNP Force)(NNP II)))))(PP (TO to)(NP (DT a)(E-GPE (NNP Kansas)(NNP City))(NN rally)))(PP (IN on)(NP (NNP Wednesday))))))))))(. .)))(ROOT (S (NP (NP (E-PER (NNP Carnahan)))(, ,)(NP (NP (DT a)(E-PER (NNP Democrat)))(SBAR (WHNP (E-PER (WP who)))(S (VP (VBD was)(VP (VBG running)(PP (IN for)(NP (DT the)(E-ORG (NNP Senate)))))))))(, ,))(VP (VBD campaigned)(PP (IN with)(NP (E-PER (NNP Gore)))))))) |ET| 11:1369 12:33 13:4765 14:4766 16:46 17:47 18:148 21:9 22:10 23:4767 24:1370 25:118 26:118 27:13 28:72 29:14 30:72 31:850 32:4769 33:4768 34:1371 37:4744 38:1318 40:21 41:21 42:2172 43:2172 44:21 45:21 46:1920 47:72 48:2172 49:4769  |EV| 
-0.11435396280284025605222808508188  |BT| (NP (NP (PRP$ his)(NN father))(, ,)(NP (NNP Hafez)(NNP Assad))) |BT| (BOW ) |BT| (BOH ) |BT| (BOH-NPs ) |BT| (LP (PRP$ *)(NP *)(NP *)(NNP *)) |BT| (LP-head (PRP$ *)(NP father)(NP *)(NNP *)) |BT| (NP (NP (PRP$ his)(NN father))(, ,)(NP (NNP Hafez)(NNP Assad))) |BT| (NP (ROOT (S (VP (VP (SBAR (S (NP (NP (E-PER (PRP$ his))(E-PER (NN father)))(, ,)(NP (E-PER (NNP Hafez)(NNP Assad)))(, ,))(VP (VBD died)(PP (IN in)(NP (NNP June)))(PP (IN after)(NP (NP (CD 30)(NNS years))(PP (IN in)(NP (NN power))))))))))(. .)))(, ,)(ROOT (S (NP (NP (E-PER (NNP Assad)))(, ,)(NP (CD 35))(, ,))(VP (VBZ has)(VP (VBN focused)(PP (IN on)(NP (JJ domestic)(NNS issues)))(SBAR (IN since)(S (NP (NP (E-PER (PRP$ his))(E-PER (NN father)))(, ,)(NP (E-PER (NNP Hafez)(NNP Assad))))))))))) |ET| 8:19 11:281 12:282 13:32 14:33 16:25 17:7 18:148 21:144 22:145 23:65 24:283 25:118 26:118 27:274 28:13 29:184 30:13 31:273 32:274 33:172 34:284 35:19 37:274 38:67 40:273 41:273 42:21 43:21 44:67 45:285 46:21 47:21 48:22 49:22  |EV| 
-0.12499999999996855293282749244099  |BT| (NP (PRP$ my)(NN party)) |BT| (BOW ) |BT| (BOH ) |BT| (BOH-NPs ) |BT| (LP (PRP$ *)(NP *)(NN *)) |BT| (LP-head (PRP$ *)(NP force)(NN *)) |BT| (NP (PRP$ my)(NN party)) |BT| (NP (ROOT (S (S (VP (VP (S (VP (VP (VP (S (VP (VP (NP (E-PER (PRP$ my))(E-ORG (NN party))(NN gain)(NN force))))))))))(CC and)(VP (VBP contribute)(PP (TO to)(NP (JJ future)(NN prosperity))))))(, ,)('' '')(NP (E-PER (PRP he)))(VP (VBD said))(. .)))(ROOT (S (`` ``)(S (NP (PRP I))(VP (VP (VBP intend)(S (VP (TO to)(VP (VP (VB rest)(NP (DT a)(JJ little)))(CC and)(VP (VB spend)(NP (NP (DT some)(JJR more)(NN time))(PP (PP (IN with)(NP (E-PER (PRP$ my))(E-PER (NN family))))(CC and)(ADVP (RB especially))(PP (IN with)(NP (NP (E-PER (PRP$ my))(E-PER (NN grandson)))(, ,)(NP (E-PER (NNP Marko)))(, ,)))(CC and)(PP (IN after)(NP (DT that)))))(S (VP (TO to)(VP (VB help)(NP (E-PER (PRP$ my))(E-ORG (NN party)))))))))))))))) |ET| 5:19 6:19 7:19 11:2818 12:24 13:1130 14:33 16:7 17:7 18:301 21:144 22:149 23:2802 24:2819 25:118 26:118 27:31 28:31 29:2816 30:1138 31:291 32:2816 33:2804 34:2820 35:19 36:19 37:2817 38:2817 39:19 40:2816 41:2815 42:21 43:21 44:2807 45:318 46:21 47:21 48:22 49:22  |EV| 
-0.12499999999996855293282749244099  |BT| (NP (PRP$ his)(ADJP (RB badly)(VBN shaken))(NN party)) |BT| (BOW ) |BT| (BOH ) |BT| (BOH-NPs ) |BT| (LP (PRP$ *)(NP *)(NN *)) |BT| (LP-head (PRP$ *)(NP party)(NN *)) |BT| (NP (PRP$ his)(ADJP (RB badly)(VBN shaken))(NN party)) |BT| (NP (ROOT (S (VP (VP (PP (NP (S (VP (VP (NP (E-PER (PRP$ his))(ADJP (RB badly)(VBN shaken))(E-ORG (NN party))))))))))(. .)))(ADJP (RB badly)(VBN shaken))(ROOT (S (ADVP (RB Ultimately))(, ,)(ADVP (RB however))(, ,)(NP (NP (E-PER (NNP Milosevic))(POS 's))(NN ability)(S (VP (TO to)(VP (VB play)(NP (DT any)(JJ political)(NN role))))))(VP (MD will)(VP (VB depend)(PP (IN on)(NP (E-PER (PRP$ his))(NN ability)(S (VP (TO to)(VP (VB rally)(NP (E-PER (PRP$ his))(ADJP (RB badly)(VBN shaken))(E-ORG (NN party))))))))))))) |ET| 5:19 6:19 7:19 11:2975 12:2976 13:32 14:33 16:25 17:7 18:301 21:144 22:149 23:1724 24:2819 25:118 26:118 27:2977 28:2793 29:586 30:2793 31:291 32:2977 33:1721 34:2820 35:19 37:2824 38:2824 39:19 40:586 41:2972 42:21 43:21 44:1654 45:2972 46:21 47:21 48:22 49:22  |EV| 
0.12499999999996855293282749244099  |BT| (S (NP (NNP Duane)(NNP Roelands))(VP (MD would)(VP (VB prefer)(S (VP (TO to)(VP (VB dash)(PRT (RP off))(NP (JJ short)(NN instant)(NN text)(NNS messages))(PP (TO to)(NP (NNS co-workers))))))))) |BT| (BOW (would *)(prefer *)(to *)(dash *)(off *)(short *)(instant *)(text *)) |BT| (BOH (would *)(prefer *)(dash *)(messages *)) |BT| (BOH-NPs (messages *)) |BT| (LP (NNP *)(NP *)(S *)(VP *)(S *)(VP *)(PP *)(NP *)(NNS *)) |BT| (LP-head (NNP *)(NP *)(S None)(VP *)(S *)(VP *)(PP *)(NP *)(NNS *)) |BT| (S (NP (NNP Duane)(NNP Roelands))(VP (MD would)(VP (VB prefer)(S (VP (TO to)(VP (VB dash)(PRT (RP off))(NP (JJ short)(NN instant)(NN text)(NNS messages))(PP (TO to)(NP (NNS co-workers))))))))) |BT| (S (ROOT (S (NP (E-PER (NNP Duane)(NNP Roelands)))(VP (MD would)(VP (VB prefer)(S (VP (TO to)(VP (VB dash)(PRT (RP off))(NP (JJ short)(NN instant)(NN text)(NNS messages))(PP (TO to)(NP (E-PER (NNS co-workers))(CC and)(E-PER (NNS friends)))))))(SBAR (IN with)(S (NP (NP (DT the)(NN service))(VP (VBN offered)(PP (IN by)(NP (E-ORG (NNP Microsoft))))))(VP (VBD _)(NP (NP (DT the)(NN one))(SBAR (S (NP (E-PER (PRP he)))(VP (VBZ finds)(S (NP (JJS easiest))(VP (TO to)(VP (VB use)))))))))))))(. .)))(ROOT (S (NP (NP (E-GPE (NNP WASHINGTON)))(PRN (-LRB- -LRB-)(NP (NNP AP))(-RRB- -RRB-))(NP (CD __))(DT All))(S (ADVP (RB else))(VP (VBG being)(ADJP (JJ equal))))(, ,)(NP (E-PER (NNP Duane)(NNP Roelands)))(VP (MD would)(VP (VB prefer)(S (VP (TO to)(VP (VB dash)(PRT (RP off))(NP (JJ short)(NN instant)(NN text)(NNS messages))(PP (TO to)(NP (E-PER (NNS co-workers)))))))))))) |ET| 4:19 6:19 11:15251 12:15252 13:15245 14:15246 16:103 17:7 18:148 21:9 22:113 23:15247 24:15253 25:118 26:118 27:562 28:291 29:13 30:291 31:11089 32:15254 33:15248 34:15255 37:15249 38:2337 40:11089 41:43 42:15254 43:562 44:1639 45:15250 46:15254 47:15254 48:22 49:15256  |EV| 
0.12462404856418754506286461491982  |BT| (S (NP (NNP Duane)(NNP Roelands))(VP (MD would)(VP (VB prefer)(S (VP (TO to)(VP (VB dash)(PRT (RP off))(NP (JJ short)(NN instant)(NN text)(NNS messages))(PP (TO to)(NP (NNS co-workers)(CC and)(NNS friends))))))))) |BT| (BOW (would *)(prefer *)(to *)(dash *)(off *)(short *)(instant *)(text *)(messages *)(to *)) |BT| (BOH (would *)(prefer *)(dash *)(messages *)(co-workers *)) |BT| (BOH-NPs (messages *)(co-workers *)) |BT| (LP (NNP *)(NP *)(S *)(VP *)(S *)(VP *)(PP *)(NP *)(NNS *)) |BT| (LP-head (NNP *)(NP *)(S None)(VP *)(S *)(VP *)(PP *)(NP *)(NNS *)) |BT| (S (NP (NNP Duane)(NNP Roelands))(VP (MD would)(VP (VB prefer)(S (VP (TO to)(VP (VB dash)(PRT (RP off))(NP (JJ short)(NN instant)(NN text)(NNS messages))(PP (TO to)(NP (NNS co-workers)(CC and)(NNS friends))))))))) |BT| (S (ROOT (S (NP (E-PER (NNP Duane)(NNP Roelands)))(VP (MD would)(VP (VB prefer)(S (VP (TO to)(VP (VB dash)(PRT (RP off))(NP (JJ short)(NN instant)(NN text)(NNS messages))(PP (TO to)(NP (E-PER (NNS co-workers))(CC and)(E-PER (NNS friends)))))))(SBAR (IN with)(S (NP (NP (DT the)(NN service))(VP (VBN offered)(PP (IN by)(NP (E-ORG (NNP Microsoft))))))(VP (VBD _)(NP (NP (DT the)(NN one))(SBAR (S (NP (E-PER (PRP he)))(VP (VBZ finds)(S (NP (JJS easiest))(VP (TO to)(VP (VB use)))))))))))))(. .)))(ROOT (S (NP (NP (E-GPE (NNP WASHINGTON)))(PRN (-LRB- -LRB-)(NP (NNP AP))(-RRB- -RRB-))(NP (CD __))(DT All))(S (ADVP (RB else))(VP (VBG being)(ADJP (JJ equal))))(, ,)(NP (E-PER (NNP Duane)(NNP Roelands)))(VP (MD would)(VP (VB prefer)(S (VP (TO to)(VP (VB dash)(PRT (RP off))(NP (JJ short)(NN instant)(NN text)(NNS messages))(PP (TO to)(NP (E-PER (NNS co-workers))(CC and)(E-PER (NNS friends)))))))))))) |ET| 4:19 6:19 11:15257 12:33 13:15245 14:15246 16:46 17:6 18:148 21:9 22:113 23:15247 24:2355 25:118 26:118 27:562 28:242 29:13 30:242 31:11089 32:15258 33:15248 34:2356 37:15249 38:2337 40:11089 41:43 42:15254 43:562 44:1639 45:15250 46:15258 47:15258 48:15254 49:15254  |EV| 
0.12499999999996855293282749244099  |BT| (NP (PRP$ their)(NN candidate)) |BT| (BOW ) |BT| (BOH ) |BT| (BOH-NPs ) |BT| (LP (PRP$ *)(NP *)(NN *)) |BT| (LP-head (PRP$ *)(NP candidate)(NN *)) |BT| (NP (PRP$ their)(NN candidate)) |BT| (NP (ROOT (S (VP (S (ADJP (PP (NP (SBAR (S (VP (VP (ADJP (PP (NP (NP (E-PER (PRP$ their))(E-PER (NN candidate))(POS 's))(NN pledge)))))))))))))(. .)))(ROOT (S (CC And)(NP (NP (NP (E-PER (NNP Gore))(POS 's))(NN press)(E-PER (NN secretary)))(, ,)(NP (E-PER (NNP Chris)(NNP Lehane)))(, ,))(VP (VBD made)(S (NP (PRP it))(ADJP (JJ clear)(PP (IN in)(NP (NP (DT an)(NN interview))(SBAR (WHNP (WDT that))(S (NP (E-PER (NNP Gore))(E-PER (NNS aides)))(VP (VBP do)(RB not)(VP (VB feel)(ADJP (VBN bound)(PP (IN by)(NP (NP (E-PER (PRP$ their))(E-PER (NN candidate)))))))))))))))))) |ET| 8:19 11:16194 12:16195 13:580 14:33 16:7 17:7 18:148 21:144 22:149 23:16143 24:2156 25:118 26:118 27:31 28:31 29:460 30:1254 31:9134 32:460 33:16144 34:2157 35:19 36:19 37:2161 38:2161 39:19 40:460 41:1862 42:21 43:21 44:1318 45:10604 46:21 47:21 48:22 49:22  |EV| 
-0.083702692910350012800435592907888  |BT| (S (NP (NNP Mahmoud)(NNP Aloul))(VP (VBD came)(PP (TO to)(NP (DT the)(NN square)))(S (VP (TO to)(VP (VB plead)(PP (IN with)(NP (DT the)(NNS vandals)))))))) |BT| (BOW (came *)(to *)(the *)(square *)(to *)(plead *)) |BT| (BOH (came *)(square *)(plead *)(with *)) |BT| (BOH-NPs (square *)) |BT| (LP (NNP *)(NP *)(S *)(VP *)(S *)(VP *)(PP *)(NP *)(NNS *)) |BT| (LP-head (NNP *)(NP *)(S came)(VP *)(S *)(VP *)(PP *)(NP *)(NNS *)) |BT| (S (NP (NNP Mahmoud)(NNP Aloul))(VP (VBD came)(PP (TO to)(NP (DT the)(NN square)))(S (VP (TO to)(VP (VB plead)(PP (IN with)(NP (DT the)(NNS vandals)))))))) |BT| (S (ROOT (S (NP (E-PER (NNP Mahmoud)(NNP Aloul)))(VP (VBD came)(PP (TO to)(NP (DT the)(E-FAC (NN square))))(S (VP (TO to)(VP (VB plead)(PP (IN with)(NP (DT the)(E-PER (NNS vandals))))(S (VP (TO to)(VP (VB stop))))))))(. .)))(ROOT (S (NP (E-PER (NNP Mahmoud)(NNP Aloul)))(VP (VBD came)(PP (TO to)(NP (DT the)(E-FAC (NN square))))(S (VP (TO to)(VP (VB plead)(PP (IN with)(NP (DT the)(E-PER (NNS vandals))))))))))) |ET| 4:19 11:2376 12:554 13:2370 14:2371 16:85 17:6 18:148 21:9 22:113 23:2372 24:2377 25:118 26:118 27:2011 28:105 29:14 30:105 31:2373 32:72 33:2374 34:2378 37:2375 38:2379 40:21 41:21 42:2308 43:2011 44:21 45:21 46:2308 47:72 48:22 49:2380  |EV| 
-0.022956818679791584497662526587192  |BT| (NP (PP (NP (PRP$ our)(NNS martyrs)))(SBAR (WHNP (WP who)))) |BT| (BOW ) |BT| (BOH ) |BT| (BOH-NPs ) |BT| (LP (PRP$ *)(NP *)(PP *)(NP *)(SBAR *)(WHNP *)(WP *)) |BT| (LP-head (PRP$ *)(NP *)(PP *)(NP symbol)(SBAR *)(WHNP *)(WP *)) |BT| (NP (PP (NP (PRP$ our)(NNS martyrs)))(SBAR (WHNP (WP who)))) |BT| (NP (ROOT (SINV (S (VP (VP (NP (PP (NP (E-PER (PRP$ our))(E-PER (NNS martyrs))))(SBAR (WHNP (E-PER (WP who)))(S (VP (VBD were)(VP (VBN killed)(S (VP (VBG defending)(NP (E-FAC (PRP it)))))))))))))(, ,)('' '')(VP (VBD said))(NP (NP (E-PER (NNP Aloul)))(, ,)(SBAR (WHNP (E-PER (WP$ whose))(E-PER (NN son)))(S (VP (VBD was)(VP (VBN killed)(PP (IN in)(NP (NNS clashes)))(NP-TMP (JJ last)(NN week)))))))(. .)))(ROOT (SINV (`` ``)(S (NP (PRP We))(VP (MD should)(VP (VP (VB protect)(NP (DT this)(E-FAC (NN building))))(CC and)(VP (VB make)(NP (E-FAC (PRP it))))(NP (NP (DT a)(NN symbol))(PP (IN for)(NP (E-PER (PRP$ our))(E-PER (NNS martyrs))))(SBAR (WHNP (E-PER (WP who))))))))))) |ET| 8:19 11:950 12:33 13:2387 14:33 16:6 17:7 18:148 21:1846 22:2409 23:2388 24:953 25:118 26:118 27:2391 28:2391 29:605 30:2391 31:2389 32:2395 33:2390 34:954 35:19 37:2391 38:955 40:605 41:2389 42:21 43:21 44:931 45:2389 46:21 47:21 48:22 49:22  |EV| 
-0.0019155008708210703033403277117941  |BT| (S (`` ``)(NP (PRP I))(VP (VBP think)(SBAR (S (NP (PRP he))(VP (VBZ is)(VP (VBG preparing)(NP (NP (NNS positions))(PP (IN for)(NP (NP (DT a)(NN stab))(PP (IN in)(NP (DT the)(NN back))))))(PP (IN by)(S (VP (VBG consolidating)(NP (NP (DT the)(NN police))(SBAR (S (-LRB- -LRB-)(NP (CC and))(-RRB- -RRB-)(VP (VP (S (VP (VBG creating)(NP (NP (NN chaos))(, ,)('' '')(NP (NP (NNP Zoran)(NNP Djindjic))(, ,)(NP (NP (NN head))))))))))))))))))))) |BT| (BOW (think *)(he *)(is *)(preparing *)(positions *)(for *)(a *)(stab *)(in *)(the *)(back *)(by *)(consolidating *)(the *)(police *)(-LRB- *)(and *)(-RRB- *)(creating *)(chaos *)(, *)('' *)(Zoran *)) |BT| (BOH (I *)(he *)(is *)(positions *)(for *)(stab *)(in *)(back *)(by *)(police *)(chaos *)(Djindjic *)) |BT| (BOH-NPs (I *)(he *)(positions *)(stab *)(back *)(police *)(chaos *)(Djindjic *)) |BT| (LP (`` *)(S *)(VP *)(SBAR *)(S *)(VP *)(PP *)(S *)(VP *)(NP *)(SBAR *)(S *)(VP *)(S *)(VP *)(NP *)(NN *)) |BT| (LP-head (`` *)(S think)(VP *)(SBAR *)(S *)(VP *)(PP *)(S *)(VP *)(NP *)(SBAR *)(S *)(VP *)(S *)(VP *)(NP *)(NN *)) |BT| (S (`` ``)(NP (PRP I))(VP (VBP think)(SBAR (S (NP (PRP he))(VP (VBZ is)(VP (VBG preparing)(NP (NP (NNS positions))(PP (IN for)(NP (NP (DT a)(NN stab))(PP (IN in)(NP (DT the)(NN back))))))(PP (IN by)(S (VP (VBG consolidating)(NP (NP (DT the)(NN police))(SBAR (S (-LRB- -LRB-)(NP (CC and))(-RRB- -RRB-)(VP (VP (S (VP (VBG creating)(NP (NP (NN chaos))(, ,)('' '')(NP (NP (NNP Zoran)(NNP Djindjic))(, ,)(NP (NP (NN head))))))))))))))))))))) |BT| (S (ROOT (S (`` ``)(NP (PRP I))))(NP (PRP I))(ROOT (S (`` ``)(NP (PRP I))(VP (VBP think)(SBAR (S (NP (E-PER (PRP he)))(VP (VBZ is)(VP (VBG preparing)(NP (NP (NNS positions))(PP (IN for)(NP (NP (DT a)(NN stab))(PP (IN in)(NP (DT the)(NN back))))))(PP (IN by)(S (VP (VBG consolidating)(NP (NP (DT the)(E-ORG (NN police)))(SBAR (S (-LRB- -LRB-)(NP (CC and))(-RRB- -RRB-)(VP (VP (S (VP (VBG creating)(NP (NP (NN chaos))(, ,)('' '')(NP (NP (E-PER (NNP Zoran)(NNP Djindjic)))(, ,)(NP (NP (E-PER (NN head)))))))))))))))))))))))) |ET| 2:19 11:2776 12:797 13:1140 14:33 16:195 17:47 18:148 21:1324 22:1803 23:1452 24:2777 25:118 26:118 27:1454 28:13 29:14 30:13 31:2765 32:2774 33:1455 34:2778 37:1454 38:2779 40:21 41:21 42:1457 43:1457 44:21 45:21 46:2774 47:2774 48:2775 49:2775  |EV| 
0.12499999999996855293282749244099  |BT| (NP (PRP$ my)(NN grandson)) |BT| (BOW ) |BT| (BOH ) |BT| (BOH-NPs ) |BT| (LP (PRP$ *)(NP *)(NN *)) |BT| (LP-head (PRP$ *)(NP grandson)(NN *)) |BT| (NP (PRP$ my)(NN grandson)) |BT| (NP (ROOT (S (S (VP (VP (S (VP (VP (VP (NP (PP (PP (NP (NP (E-PER (PRP$ my))(E-PER (NN grandson)))(, ,)(NP (E-PER (NNP Marko)))(, ,)))(CC and)(PP (IN after)(NP (DT that)))))(S (VP (TO to)(VP (VB help)(NP (E-PER (PRP$ my))(E-ORG (NN party))(NN gain)(NN force))))))))))(CC and)(VP (VBP contribute)(PP (TO to)(NP (JJ future)(NN prosperity))))))(, ,)('' '')(NP (E-PER (PRP he)))(VP (VBD said))(. .)))(ROOT (S (`` ``)(S (NP (PRP I))(VP (VP (VBP intend)(S (VP (TO to)(VP (VP (VB rest)(NP (DT a)(JJ little)))(CC and)(VP (VB spend)(NP (NP (DT some)(JJR more)(NN time))(PP (PP (IN with)(NP (E-PER (PRP$ my))(E-PER (NN family))))(CC and)(ADVP (RB especially))(PP (IN with)(NP (NP (E-PER (PRP$ my))(E-PER (NN grandson))))))))))))))))) |ET| 6:19 7:19 8:19 11:2808 12:2809 13:1130 14:33 16:7 17:7 18:148 21:144 22:149 23:2802 24:2810 25:118 26:118 27:31 28:31 29:72 30:1138 31:2806 32:72 33:2804 34:2811 35:19 36:19 37:2807 38:2807 39:19 40:72 41:747 42:21 43:21 44:2501 45:2806 46:21 47:21 48:22 49:22  |EV| 
0.12499999999996855293282749244099  |BT| (NP (NP (PRP$ his))(NP (NN brother))) |BT| (BOW ) |BT| (BOH ) |BT| (BOH-NPs ) |BT| (LP (PRP$ *)(NP *)(NP *)(NN *)) |BT| (LP-head (PRP$ *)(NP parents)(NP *)(NN *)) |BT| (NP (NP (PRP$ his))(NP (NN brother))) |BT| (NP (ROOT (S (NP (VP (PP (NP (NP (E-PER (PRP$ his))(NNS parents))(, ,)(NP (NN sister))(CC and)(NP (NN brother)))))(, ,))(VP (VBD stood)(SBAR (IN with)(S (NP (E-PER (PRP$ his))(NNS hands))(VP (VBD clasped)(PP (IN behind)(NP (E-PER (PRP$ his))(NN back)))(PP (IN during)(NP (DT a)(JJ brief)(E-ORG (NN court))(NN appearance)))))))(. .)))(ROOT (S (NP (NP (DT The)(JJ somber)(E-ORG (NNP Colorado)(NN Avalanche))(E-PER (NN goalie)))(, ,)(VP (VBN accompanied)(PP (IN by)(NP (NP (E-PER (PRP$ his))(NNS parents))(, ,)(NP (NN sister))(CC and)(NP (NN brother))))))))) |ET| 4:19 6:19 7:19 8:19 11:6730 12:33 13:32 14:33 16:7 17:7 18:148 21:144 22:156 23:6728 24:6731 25:118 26:118 27:31 28:31 29:460 30:279 31:4773 32:460 33:6729 34:6732 35:19 36:19 37:5773 38:5773 39:19 40:460 41:6675 42:21 43:21 44:6726 45:4773 46:21 47:21 48:22 49:22  |EV| 
-0.12499999999996855293282749244099  |BT| (NP (PRP$ his)(NN republic)) |BT| (BOW ) |BT| (BOH ) |BT| (BOH-NPs ) |BT| (LP (PRP$ *)(NP *)(NN *)) |BT| (LP-head (PRP$ *)(NP republic)(NN *)) |BT| (NP (PRP$ his)(NN republic)) |BT| (NP (ROOT (NP (NP (PP (NP (NP (E-PER (PRP$ his))(E-GPE (NN republic)))(CC and)(PRN (, ,)(ADVP (RB indirectly))(, ,))(NP (NP (RB much))(PP (IN of)(NP (NP (DT the)(NN republic)(POS 's))(NN economy)))))))(. .)))(ROOT (NP (NP (E-PER (JJ Milutinovic))(NNS controls))(NP (NP (QP (RB approximately)(CD 100,000))(E-PER (NNS policemen)))(PP (IN in)(NP (NP (E-PER (PRP$ his))(E-GPE (NN republic))))))))) |ET| 11:3148 12:3149 13:32 14:33 16:7 17:7 18:143 21:144 22:149 23:2753 24:2858 25:118 26:118 27:31 28:31 29:106 30:279 31:3147 32:106 33:2756 34:2860 35:19 36:19 37:2861 38:2861 39:19 40:106 41:3147 42:21 43:21 44:2952 45:3147 46:21 47:21 48:22 49:22  |EV| 
-0.12499999999996855293282749244099  |BT| (NP (NP (PRP$ his)(NN nation)(POS 's))(ROOT (S (NP (PRP He))(VP (VBZ has)(VP (VBN taken)(NP (NNS steps))(S (VP (TO to)(VP (VP (VB modernize)(NP (NP (PRP$ his)(NN nation)(POS 's))(NN bureaucracy))))))))))) |BT| (BOW ) |BT| (BOH ) |BT| (BOH-NPs ) |BT| (LP (PRP$ *)(NP *)(NN *)) |BT| (LP-head (PRP$ *)(NP bureaucracy)(NN *)) |BT| (NP (NP (PRP$ his)(NN nation)(POS 's))(ROOT (S (NP (PRP He))(VP (VBZ has)(VP (VBN taken)(NP (NNS steps))(S (VP (TO to)(VP (VP (VB modernize)(NP (NP (PRP$ his)(NN nation)(POS 's))(NN bureaucracy))))))))))) |BT| (NP (ROOT (S (VP (VP (S (VP (VP (VP (NP (NP (E-PER (PRP$ his))(E-GPE (NN nation))(POS 's))(E-ORG (NN bureaucracy))))(CC and)(VP (VB revive)(NP (E-GPE (PRP$ its))(JJ stagnant)(NN economy))))))))(. .)))(ROOT (S (NP (E-PER (PRP He)))(VP (VBZ has)(VP (VBN taken)(NP (NNS steps))(S (VP (TO to)(VP (VP (VB modernize)(NP (NP (E-PER (PRP$ his))(E-GPE (NN nation))(POS 's))(E-ORG (NN bureaucracy)))))))))))) |ET| 5:19 11:299 12:300 13:32 14:33 16:25 17:7 18:301 21:144 22:149 23:65 24:302 25:118 26:118 27:292 28:58 29:289 30:58 31:291 32:292 33:172 34:303 35:19 37:292 38:304 40:289 41:293 42:21 43:21 44:21 45:293 46:21 47:21 48:22 49:22  |EV| 
0.087677992419831374260041911838925  |BT| (NP (NP (NN wife))(PP (IN of)(NP (JJ Egyptian)(NNP President)(NNP Hosni)(NNP Mubarak)))) |BT| (BOW (of *)) |BT| (BOH (of *)) |BT| (BOH-NPs (Hosni *)) |BT| (LP (NN *)(NP *)(PP *)(NP *)(NNP *)) |BT| (LP-head (NN *)(NP wife)(PP *)(NP *)(NNP *)) |BT| (NP (NP (NN wife))(PP (IN of)(NP (JJ Egyptian)(NNP President)(NNP Hosni)(NNP Mubarak)))) |BT| (NP (ROOT (S (NP (NP (NP (NP (E-PER (NN wife)))(PP (IN of)(NP (E-GPE (JJ Egyptian))(E-PER (NNP President))(E-PER (NNP Hosni)(NNP Mubarak)))))(CC and)(NP (NP (E-PER (CD one)))(PP (IN of)(NP (DT the)(NN conference)(E-PER (NNS organizers))))))(, ,))(VP (VBD said)(SBAR (S (NP (E-PER (PRP they)))(VP (MD must)(VP (VB find)(S (NP (NNS ways))(VP (TO to)(VP (VB respect)(NP (NP (DT the)(JJ social)(NNS differences))(SBAR (WHNP (WDT that))(S (VP (VBP distinguish)(NP (E-PER (JJ Arab))(E-GPE (NNS countries)))(SBAR (IN while)(S (ADVP (RB still))(VP (VP (VBG cooperating)(S (VP (TO to)(VP (VB attain)(NP (NP (DT the)(NN summit)(POS 's))(JJ main)(NN goal))))))(: :)(VP (VBG creating)(NP (NP (DT a)(JJR better)(NN life))(PP (IN for)(NP (E-PER (NNP Arab))(E-PER (NNS women)))))))))))))))))))))(. .)))(ROOT (S (NP (NP (E-PER (NNP Mubarak)))(, ,)(NP (NP (NP (E-PER (NN wife)))(PP (IN of)(NP (E-GPE (JJ Egyptian))(E-PER (NNP President))(E-PER (NNP Hosni)(NNP Mubarak)))))))))) |ET| 6:19 11:9760 12:9761 13:9756 14:9757 16:47 17:25 18:148 21:9 22:157 23:3920 24:86 25:118 26:118 27:187 28:87 29:13 30:87 31:75 32:79 33:3921 34:88 37:3918 38:75 40:75 41:75 42:81 43:187 44:21 45:21 46:81 47:187 48:22 49:22  |EV| 
0.12499999999996855293282749244099  |BT| (NP (NP (PRP$ his))(NP (NN brother))) |BT| (BOW ) |BT| (BOH ) |BT| (BOH-NPs ) |BT| (LP (PRP$ *)(NP *)(NP *)(NN *)) |BT| (LP-head (PRP$ *)(NP parents)(NP *)(NN *)) |BT| (NP (NP (PRP$ his))(NP (NN brother))) |BT| (NP (ROOT (S (NP (VP (PP (NP (NP (E-PER (PRP$ his))(NNS parents))(, ,)(NP (NN sister))(CC and)(NP (NN brother)))))(, ,))(VP (VBD stood)(SBAR (IN with)(S (NP (E-PER (PRP$ his))(NNS hands))(VP (VBD clasped)(PP (IN behind)(NP (E-PER (PRP$ his))(NN back)))(PP (IN during)(NP (DT a)(JJ brief)(E-ORG (NN court))(NN appearance)))))))(. .)))(ROOT (S (NP (NP (DT The)(JJ somber)(E-ORG (NNP Colorado)(NN Avalanche))(E-PER (NN goalie)))(, ,)(VP (VBN accompanied)(PP (IN by)(NP (NP (E-PER (PRP$ his))(NNS parents))(, ,)(NP (NN sister))(CC and)(NP (NN brother))))))))) |ET| 4:19 6:19 7:19 8:19 11:6730 12:33 13:32 14:33 16:7 17:7 18:148 21:144 22:156 23:6728 24:6731 25:118 26:118 27:31 28:31 29:460 30:279 31:4773 32:460 33:6729 34:6732 35:19 36:19 37:5773 38:5773 39:19 40:460 41:6675 42:21 43:21 44:6726 45:4773 46:21 47:21 48:22 49:22  |EV| 
-0.12499999999996855293282749244099  |BT| (NP (NP (NN chief))(PP (IN of)(NP (NNP South)(NNP Jakarta)))) |BT| (BOW ) |BT| (BOH (of *)) |BT| (BOH-NPs (Prosecution *)) |BT| (LP (NN *)(NP *)(PP *)(NP *)(NNP *)) |BT| (LP-head (NN *)(NP chief)(PP *)(NP *)(NNP *)) |BT| (NP (NP (NN chief))(PP (IN of)(NP (NNP South)(NNP Jakarta)))) |BT| (NP (ROOT (S (NP (NP (NP (E-PER (NN chief)))(PP (IN of)(NP (NNP South)(E-GPE (NNP Jakarta))(NNP Prosecution)(E-ORG (NNP Office)))))(, ,))(VP (VBD said)(SBAR (S (NP (E-PER (NNP Tommy)))(VP (MD would)(ADVP (RB again))(VP (VB be)(VP (VBN summoned)(S (VP (TO to)(VP (VB meet)(NP (E-PER (NNS prosecutors)))(PP (IN on)(NP (NNP Wednesday))))))))))))(. .)))(ROOT (S (NP (NP (E-PER (NNP Antasari)(NNP Ashar)))(, ,)(NP (NP (E-PER (NN chief)))(PP (IN of)(NP (NNP South)(E-GPE (NNP Jakarta))))))))) |ET| 1:19 11:855 12:5 13:845 14:797 16:25 17:7 18:143 21:9 22:157 23:849 24:856 25:118 26:118 27:187 28:857 29:13 30:857 31:851 32:187 33:853 34:858 37:854 38:859 40:851 41:851 42:860 43:187 44:868 45:868 46:860 47:187 48:22 49:22  |EV| 
-0.12499999999996855293282749244099  |BT| (NP (NP (NN head))(PP (IN of)(NP (DT the)(NNP Democratic)(NNP Party)))) |BT| (BOW ) |BT| (BOH (of *)) |BT| (BOH-NPs (Democratic *)) |BT| (LP (NN *)(NP *)(PP *)(NP *)(NNP *)) |BT| (LP-head (NN *)(NP head)(PP *)(NP *)(NNP *)) |BT| (NP (NP (NN head))(PP (IN of)(NP (DT the)(NNP Democratic)(NNP Party)))) |BT| (NP (ROOT (S (VP (SBAR (S (VP (VP (PP (S (VP (NP (SBAR (S (VP (VP (S (VP (NP (NP (NP (NP (E-PER (NN head)))(PP (IN of)(NP (DT the)(E-ORG (NNP Democratic)(NNP Party)))))))))(, ,)(VP (VBD told)))(NP (NP (DT The)(NNP Associated))(NNP Press))))))))))))))(. .)))(ROOT (S (`` ``)(NP (PRP I))(VP (VBP think)(SBAR (S (NP (E-PER (PRP he)))(VP (VBZ is)(VP (VBG preparing)(NP (NP (NNS positions))(PP (IN for)(NP (NP (DT a)(NN stab))(PP (IN in)(NP (DT the)(NN back))))))(PP (IN by)(S (VP (VBG consolidating)(NP (NP (DT the)(E-ORG (NN police)))(SBAR (S (-LRB- -LRB-)(NP (CC and))(-RRB- -RRB-)(VP (VP (S (VP (VBG creating)(NP (NP (NN chaos))(, ,)('' '')(NP (NP (E-PER (NNP Zoran)(NNP Djindjic)))(, ,)(NP (NP (E-PER (NN head)))(PP (IN of)(NP (DT the)(E-ORG (NNP Democratic)(NNP Party))))))))))))))))))))))))) |ET| 1:19 5:19 6:19 11:2780 12:2781 13:2776 14:797 16:25 17:7 18:301 21:9 22:157 23:2777 24:2782 25:118 26:118 27:187 28:105 29:13 30:105 31:2774 32:187 33:2778 34:2783 37:2779 38:2662 40:2774 41:2774 42:2784 43:187 44:2790 45:2790 46:2784 47:187 48:22 49:22  |EV| 
-0.041938677538393705213071172011041  |BT| (NP (NP (NN regime))(PP (IN of)(NP (NNP Yugoslav)(NNP President)))) |BT| (BOW ) |BT| (BOH (of *)) |BT| (BOH-NPs (Slobodan *)) |BT| (LP (NN *)(NP *)(PP *)(NP *)(NNP *)) |BT| (LP-head (NN *)(NP regime)(PP *)(NP *)(NNP *)) |BT| (NP (NP (NN regime))(PP (IN of)(NP (NNP Yugoslav)(NNP President)))) |BT| (NP (ROOT (S (VP (NP (SBAR (S (VP (VP (S (VP (VP (NP (NP (E-ORG (NN regime)))(PP (IN of)(NP (E-GPE (NNP Yugoslav))(E-PER (NNP President))(E-PER (NNP Slobodan)(NNP Milosevic))))))))))))))(. .)))(ROOT (S (NP (E-PER (NNP Clinton)))(VP (VBD announced)(NP (NP (DT the)(JJ immediate)(NN ending))(PP (IN of)(NP (NP (DT the)(NN oil)(NN embargo))(CC and)(NP (NN flight)(NN ban))))(SBAR (WHNP (WDT that))(S (VP (VBD were)(VP (VBN imposed)(PP (IN in)(NP (CD 1998)))(S (VP (TO to)(VP (VB punish)(CC and)(VB isolate)(NP (NP (DT the)(E-ORG (NN regime)))(PP (IN of)(NP (E-GPE (NNP Yugoslav))(E-PER (NNP President))))))))))))))))) |ET| 5:19 11:76 12:33 13:3705 14:3706 16:25 17:6 18:126 21:9 22:157 23:3707 24:78 25:117 26:117 27:187 28:3135 29:105 30:3135 31:3274 32:187 33:3709 34:80 37:3710 38:1721 40:3274 41:3712 42:1774 43:187 44:3716 45:3717 46:1774 47:187 48:22 49:22  |EV| 
0.11358833527552525399784144610749  |BT| (S (NP (NNS People))(VP (MD can)(VP (VB communicate)(PP (IN with)(NP (JJ international)(NNS friends)))))) |BT| (BOW (can *)(communicate *)) |BT| (BOH (can *)(communicate *)(with *)) |BT| (BOH-NPs ) |BT| (LP (NNS *)(NP *)(S *)(VP *)(PP *)(NP *)(NNS *)) |BT| (LP-head (NNS *)(NP *)(S can)(VP *)(PP *)(NP *)(NNS *)) |BT| (S (NP (NNS People))(VP (MD can)(VP (VB communicate)(PP (IN with)(NP (JJ international)(NNS friends)))))) |BT| (S (ROOT (S (NP (E-PER (NNS People)))(VP (MD can)(VP (VB communicate)(PP (IN with)(NP (JJ international)(E-PER (NNS friends))))(PP (IN without)(NP (DT the)(JJ hefty)(NN phone)(NNS bills)))))(. .)))(ROOT (S (NP (E-PER (NNS People)))(VP (MD can)(VP (VB communicate)(PP (IN with)(NP (JJ international)(E-PER (NNS friends))))))))) |ET| 4:19 6:19 11:15346 12:15347 13:2463 14:33 16:55 17:7 18:148 21:9 22:1028 23:2464 24:2355 25:118 26:118 27:2731 28:3798 29:14 30:3798 31:15348 32:72 33:2468 34:2356 37:2470 38:2337 40:21 41:21 42:21 43:2731 44:21 45:21 46:21 47:72 48:22 49:15349  |EV| 
0.12499999999996855293282749244099  |BT| (NP (NP (NN wife))(PP (IN of)(NP (JJ Egyptian)(NNP President)(NNP Hosni)(NNP Mubarak)))) |BT| (BOW (of *)) |BT| (BOH (of *)) |BT| (BOH-NPs (Hosni *)) |BT| (LP (NN *)(NP *)(PP *)(NP *)(NNP *)) |BT| (LP-head (NN *)(NP wife)(PP *)(NP *)(NNP *)) |BT| (NP (NP (NN wife))(PP (IN of)(NP (JJ Egyptian)(NNP President)(NNP Hosni)(NNP Mubarak)))) |BT| (NP (ROOT (S (NP (NP (NP (NP (E-PER (NN wife)))(PP (IN of)(NP (E-GPE (JJ Egyptian))(E-PER (NNP President))(E-PER (NNP Hosni)(NNP Mubarak)))))(CC and)(NP (NP (E-PER (CD one)))(PP (IN of)(NP (DT the)(NN conference)(E-PER (NNS organizers))))))(, ,))(VP (VBD said)(SBAR (S (NP (E-PER (PRP they)))(VP (MD must)(VP (VB find)(S (NP (NNS ways))(VP (TO to)(VP (VB respect)(NP (NP (DT the)(JJ social)(NNS differences))(SBAR (WHNP (WDT that))(S (VP (VBP distinguish)(NP (E-PER (JJ Arab))(E-GPE (NNS countries)))(SBAR (IN while)(S (ADVP (RB still))(VP (VP (VBG cooperating)(S (VP (TO to)(VP (VB attain)(NP (NP (DT the)(NN summit)(POS 's))(JJ main)(NN goal))))))(: :)(VP (VBG creating)(NP (NP (DT a)(JJR better)(NN life))(PP (IN for)(NP (E-PER (NNP Arab))(E-PER (NNS women)))))))))))))))))))))(. .)))(ROOT (S (NP (NP (E-PER (NNP Mubarak)))(, ,)(NP (NP (NP (E-PER (NN wife)))(PP (IN of)(NP (E-GPE (JJ Egyptian))(E-PER (NNP President))(E-PER (NNP Hosni)(NNP Mubarak)))))))))) |ET| 6:19 11:9760 12:9761 13:9756 14:9757 16:47 17:25 18:148 21:9 22:157 23:3920 24:86 25:118 26:118 27:187 28:87 29:13 30:87 31:75 32:79 33:3921 34:88 37:3918 38:75 40:75 41:75 42:81 43:187 44:21 45:21 46:81 47:187 48:22 49:22  |EV| 
-0.040319780360761885151799077675605  |BT| (S (NP (PRP he))(VP (VBZ intends)(S (VP (TO to)(VP (VB follow)(NP (NP (PRP$ his)(NN father)))))))) |BT| (BOW (intends *)(to *)) |BT| (BOH (intends *)(follow *)) |BT| (BOH-NPs ) |BT| (LP (PRP *)(NP *)(S *)(VP *)(S *)(VP *)(NP *)(NN *)) |BT| (LP-head (PRP *)(NP *)(S intends)(VP *)(S *)(VP *)(NP *)(NN *)) |BT| (S (NP (PRP he))(VP (VBZ intends)(S (VP (TO to)(VP (VB follow)(NP (NP (PRP$ his)(NN father)))))))) |BT| (S (ROOT (S (VP (VP (S (SBAR (S (NP (E-PER (PRP he)))(VP (VBZ intends)(S (VP (TO to)(VP (VB follow)(NP (NP (E-PER (PRP$ his))(E-PER (NN father))(POS 's))(NN course))(PP (IN in)(NP (DT any)(NNS negotiations)))(PP (IN with)(NP (E-GPE (NNP Israel)))))))))))))(. .)))(ROOT (S (NP (E-PER (NNP Assad)))(VP (VBZ has)(VP (VBN made)(S (NP (PRP it))(ADJP (JJ clear))(SBAR (S (NP (E-PER (PRP he)))(VP (VBZ intends)(S (VP (TO to)(VP (VB follow)(NP (NP (E-PER (PRP$ his))(E-PER (NN father)))))))))))))))) |ET| 2:19 6:19 11:496 12:497 13:351 14:33 16:55 17:6 18:148 21:144 22:296 23:65 24:278 25:118 26:118 27:495 28:279 29:493 30:279 31:482 32:494 33:172 34:280 37:67 38:274 40:493 41:67 42:21 43:495 44:21 45:482 46:21 47:494 48:22 49:495  |EV| 
-0.070316717285226093547834125274676  |BT| (NP (NP (JJ Serbian))(NP (NN president))) |BT| (BOW ) |BT| (BOH ) |BT| (BOH-NPs ) |BT| (LP (JJ *)(NP *)(NP *)(NN *)) |BT| (LP-head (JJ *)(NP parliament)(NP *)(NN *)) |BT| (NP (NP (JJ Serbian))(NP (NN president))) |BT| (NP (ROOT (S (VP (VP (SBAR (S (VP (VP (PP (NP (NP (E-GPE (JJ Serbian))(NN parliament))(CC and)(NP (NN president))))))))))(. .)))(ROOT (S (NP (NP (E-PER (NNP Kostunica))(POS 's))(JJ pro-democracy)(E-PER (NNS forces)))(VP (VBP have)(VP (VBN said)(SBAR (S (NP (E-PER (PRP they)))(VP (MD would)(VP (VB demand)(NP (JJ early)(NNS elections))(PP (IN for)(NP (NP (JJ new)(E-GPE (JJ Serbian))(NN parliament))(CC and)(NP (NN president))))))))))))) |ET| 11:182 12:33 13:2900 14:5 16:7 17:7 18:35 21:165 22:217 23:2901 24:3159 25:1 26:1 27:31 28:31 29:3158 30:2904 31:605 32:3158 33:2903 34:3160 35:19 36:19 37:2699 38:2699 39:19 40:2904 41:411 42:21 43:21 44:3155 45:3158 46:21 47:21 48:22 49:22  |EV| 
-0.12499999999996855293282749244099  |BT| (S (S (VP (NP (NN criminal))))(, ,)(CC and)(S (NP (PRP$ his)))) |BT| (BOW ) |BT| (BOH ) |BT| (BOH-NPs ) |BT| (LP (NN *)(NP *)(VP *)(S *)(S *)(NP *)(PRP$ *)) |BT| (LP-head (NN *)(NP *)(VP *)(S is)(S *)(NP *)(PRP$ *)) |BT| (S (S (VP (NP (NN criminal))))(, ,)(CC and)(S (NP (PRP$ his)))) |BT| (S (ROOT (S (S (VP (NP (E-PER (NN criminal)))))(, ,)(CC and)(S (NP (E-PER (PRP$ his))(NN fate))(VP (VBZ depends)(PP (IN on)(NP (NP (E-PER (NNP Milosevic))(POS 's))(JJ own)(JJ political)(NN survival)))))(. .)))(, ,)(CC and)(ROOT (S (S (NP (E-PER (PRP He)))(VP (VBZ is)(ADVP (RB also))(NP (DT an)(VBN indicted)(NN war)(E-PER (NN criminal)))))(, ,)(CC and)(S (NP (E-PER (PRP$ his))))))) |ET| 11:32 12:33 13:2891 14:2892 16:25 17:7 18:148 21:36 22:312 23:2894 24:2893 25:118 26:118 27:13 28:242 29:2194 30:242 31:2718 32:13 33:2897 34:2896 35:19 37:2898 38:871 40:2194 41:2194 42:21 43:21 44:21 45:1333 46:21 47:21 48:22 49:22  |EV| 
0.12499999999996855293282749244099  |BT| (NP (NP (NNP Milosevic)(POS 's))(JJS closest)(ROOT (S (NP (NP (NP (DT The)(NN president))(PP (IN of)(NP (NNP Serbia))))(, ,)(NP (NNP Milan)(NNP Milutinovic))(, ,))(VP (VBZ is)(NP (NP (CD one))(PP (IN of)(NP (NP (NNP Milosevic)(POS 's))(JJS closest)(NNS cronies)))))))) |BT| (BOW ) |BT| (BOH (cronies *)) |BT| (BOH-NPs (cronies *)) |BT| (LP (NNP *)(NP *)(NNS *)) |BT| (LP-head (NNP *)(NP Milosevic)(NNS *)) |BT| (NP (NP (NNP Milosevic)(POS 's))(JJS closest)(ROOT (S (NP (NP (NP (DT The)(NN president))(PP (IN of)(NP (NNP Serbia))))(, ,)(NP (NNP Milan)(NNP Milutinovic))(, ,))(VP (VBZ is)(NP (NP (CD one))(PP (IN of)(NP (NP (NNP Milosevic)(POS 's))(JJS closest)(NNS cronies)))))))) |BT| (NP (ROOT (S (VP (NP (PP (NP (NP (E-PER (NNP Milosevic))(POS 's))(JJS closest)(E-PER (NNS cronies))))))(. .)))(JJS closest)(ROOT (S (NP (NP (NP (DT The)(E-PER (NN president)))(PP (IN of)(NP (E-GPE (NNP Serbia)))))(, ,)(NP (E-PER (NNP Milan)(NNP Milutinovic)))(, ,))(VP (VBZ is)(NP (NP (E-PER (CD one)))(PP (IN of)(NP (NP (E-PER (NNP Milosevic))(POS 's))(JJS closest)(E-PER (NNS cronies))))))))) |ET| 4:19 6:19 11:2883 12:2884 13:2708 14:742 16:25 17:7 18:148 21:9 22:113 23:1724 24:2885 25:118 26:118 27:58 28:2886 29:187 30:2886 31:904 32:58 33:1726 34:2887 37:1721 38:1721 39:19 40:187 41:2880 42:2888 43:2888 44:2889 45:396 46:2888 47:2888 48:22 49:22  |EV| 
0.12499999999996855293282749244099  |BT| (NP (NP (NN wife))(PP (IN of)(NP (NNP Patrick)(NNP Roy)))) |BT| (BOW ) |BT| (BOH (of *)) |BT| (BOH-NPs ) |BT| (LP (NN *)(NP *)(PP *)(NP *)(NNP *)) |BT| (LP-head (NN *)(NP wife)(PP *)(NP *)(NNP *)) |BT| (NP (NP (NN wife))(PP (IN of)(NP (NNP Patrick)(NNP Roy)))) |BT| (NP (ROOT (S (NP (ADJP (NP (NP (NP (E-PER (NN wife)))(PP (IN of)(NP (E-PER (NNP Patrick)(NNP Roy)))))(, ,)(NP (NP (NP (DT the)(E-ORG (NNP NHL))(POS 's))(JJ winningest)(E-PER (NN goalie)))(, ,)(VP (VBN called)(NP (CD 911))(SBAR (IN because)(S (NP (E-PER (PRP she)))(VP (VBD was)(ADJP (JJ afraid)(PP (IN of)(SBAR (WHNP (WP what))(S (NP (E-PER (PRP$ her))(E-PER (NN husband)))(VP (MD would)(VP (VB do)(SBAR (IN as)(S (NP (E-PER (PRP they)))(VP (VBD argued)(PP (IN about)(NP (E-PER (NNS in-laws))))(, ,)(PP (VBG according)(PP (TO to)(NP (DT a)(E-ORG (NN police))(NN report)))))))))))))))))))))(VP (VBN released)(NP-TMP (NNP Monday)))(. .)))(ROOT (S (NP (NP (E-ORG (-LRB- -LRB-)(NN AP))(-RRB- -RRB-))(ADJP (NP (CD _))(NP (NP (NP (DT The)(E-PER (NN wife)))(PP (IN of)(NP (E-PER (NNP Patrick)(NNP Roy))))))))))) |ET| 6:19 11:6661 12:6662 13:6657 14:6658 16:6 17:7 18:148 21:9 22:157 23:3920 24:6663 25:118 26:118 27:187 28:187 29:220 30:187 31:40 32:3918 33:3921 34:6664 37:3918 38:6665 40:43 41:43 42:21 43:187 44:21 45:21 46:21 47:187 48:22 49:22  |EV| 
-0.12499999999996855293282749244099  |BT| (NP (NP (CD one))(PP (IN of)(NP (NP (NNP Milosevic)(POS 's))(JJS closest)(NNS cronies)))) |BT| (BOW (of *)(Milosevic *)) |BT| (BOH (of *)(cronies *)) |BT| (BOH-NPs (cronies *)) |BT| (LP (CD *)(NP *)(PP *)(NP *)(NNS *)) |BT| (LP-head (CD *)(NP None)(PP *)(NP *)(NNS *)) |BT| (NP (NP (CD one))(PP (IN of)(NP (NP (NNP Milosevic)(POS 's))(JJS closest)(NNS cronies)))) |BT| (NP (ROOT (S (VP (NP (NP (E-PER (CD one)))(PP (IN of)(NP (NP (E-PER (NNP Milosevic))(POS 's))(JJS closest)(E-PER (NNS cronies))))))(. .)))(ROOT (S (NP (NP (NP (DT The)(E-PER (NN president)))(PP (IN of)(NP (E-GPE (NNP Serbia)))))(, ,)(NP (E-PER (NNP Milan)(NNP Milutinovic)))(, ,))(VP (VBZ is)(NP (NP (E-PER (CD one)))(PP (IN of)(NP (NP (E-PER (NNP Milosevic))(POS 's))(JJS closest)(E-PER (NNS cronies))))))))) |ET| 4:19 6:19 11:2883 12:2884 13:2881 14:2882 16:55 17:6 18:148 19:338 21:2107 22:2890 23:2095 24:2885 25:118 26:118 27:187 28:2886 29:396 30:2886 31:13 32:58 33:2097 34:2887 37:31 38:1721 40:396 41:2880 42:2888 43:187 44:2889 45:2880 46:2888 47:2888 48:22 49:187  |EV| 
-0.12499999999996855293282749244099  |BT| (NP (NP (NN place))(PP (IN of)(NP (DT the)(JJ biblical)(NN patriarch)))) |BT| (BOW (of *)) |BT| (BOH (of *)) |BT| (BOH-NPs ) |BT| (LP (NN *)(NP *)(PP *)(NP *)(NN *)) |BT| (LP-head (NN *)(NP place)(PP *)(NP *)(NN *)) |BT| (NP (NP (NN place))(PP (IN of)(NP (DT the)(JJ biblical)(NN patriarch)))) |BT| (NP (ROOT (S (VP (NP (VP (PP (NP (VP (PP (NP (PP (NP (NP (E-FAC (NN place)))(PP (IN of)(NP (DT the)(JJ biblical)(E-PER (NN patriarch))))))))))))))(. .)))(ROOT (S (CC But)(NP (DT the)(NN stone)(NN sarcophagus))(VP (VBZ is)(ADJP (JJ untouched))(, ,)(ADVP (RB perhaps))(NP (NP (DT the)(CD one)(NN object))(VP (ADVP (RB still))(VBN respected)(PP (IN at)(NP (NP (DT this)(JJ holy)(E-FAC (NN site)))(, ,)(VP (VBN revered)(PP (IN by)(NP (NP (DT some))(PP (IN as)(NP (NP (DT the)(NN burial)(E-FAC (NN place)))(PP (IN of)(NP (DT the)(JJ biblical)(E-PER (NN patriarch))))))))))))))))) |ET| 11:2243 12:2244 13:2228 14:2229 16:47 17:7 18:912 19:159 21:9 22:311 23:2233 24:2245 25:913 26:913 27:187 28:2246 29:2234 30:2246 31:105 32:105 33:2237 34:2247 37:2239 38:2248 40:2234 41:2234 42:21 43:187 44:2238 45:49 46:21 47:187 48:22 49:22  |EV| 
-0.0059564432562647130764421632420635  |BT| (S (NP (NP (NNP Milan)(NNP Milutinovic))(, ,))(VP (VBZ is)(NP (NP (CD one))(PP (IN of)(NP (NP (NNP Milosevic)(POS 's))(JJS closest)(NNS cronies)))))) |BT| (BOW (, *)(is *)(one *)(of *)(Milosevic *)) |BT| (BOH (is *)(of *)(cronies *)) |BT| (BOH-NPs (cronies *)) |BT| (LP (NNP *)(NP *)(S *)(VP *)(NP *)(PP *)(NP *)(NNS *)) |BT| (LP-head (NNP *)(NP *)(S is)(VP *)(NP *)(PP *)(NP *)(NNS *)) |BT| (S (NP (NP (NNP Milan)(NNP Milutinovic))(, ,))(VP (VBZ is)(NP (NP (CD one))(PP (IN of)(NP (NP (NNP Milosevic)(POS 's))(JJS closest)(NNS cronies)))))) |BT| (S (ROOT (S (NP (NP (E-PER (NNP Milan)(NNP Milutinovic)))(, ,))(VP (VBZ is)(NP (NP (E-PER (CD one)))(PP (IN of)(NP (NP (E-PER (NNP Milosevic))(POS 's))(JJS closest)(E-PER (NNS cronies))))))(. .)))(ROOT (S (NP (NP (NP (DT The)(E-PER (NN president)))(PP (IN of)(NP (E-GPE (NNP Serbia)))))(, ,)(NP (E-PER (NNP Milan)(NNP Milutinovic)))(, ,))(VP (VBZ is)(NP (NP (E-PER (CD one)))(PP (IN of)(NP (NP (E-PER (NNP Milosevic))(POS 's))(JJS closest)(E-PER (NNS cronies))))))))) |ET| 4:19 6:19 11:2883 12:2884 13:2876 14:2877 16:34 17:25 18:148 21:9 22:113 23:2878 24:2885 25:118 26:118 27:13 28:2886 29:13 30:2886 31:2756 32:58 33:2879 34:2887 37:2880 38:1721 40:2756 41:2756 42:2888 43:396 44:60 45:187 46:2888 47:2888 48:22 49:187  |EV| 
0.12499999999996855293282749244099  |BT| (S (PP (NP (NP (NP (NP (NN everyone)(RB else))))))(NP (PRP he))) |BT| (BOW ) |BT| (BOH ) |BT| (BOH-NPs ) |BT| (LP (NN *)(NP *)(PP *)(S *)(NP *)(PRP *)) |BT| (LP-head (NN *)(NP *)(PP *)(S knows)(NP *)(PRP *)) |BT| (S (PP (NP (NP (NP (NP (NN everyone)(RB else))))))(NP (PRP he))) |BT| (S (ROOT (S (PP (NP (NP (NP (NP (E-PER (NN everyone))(RB else))))))(NP (E-PER (PRP he)))(VP (VBZ knows)(NP (NP (NN use)(E-ORG (NNP America)(NNP Online))(POS 's))(NN messaging)(NN system)))(. .)))(ROOT (S (CC But)(PP (IN for)(NP (NP (E-PER (NNS Roelands)))(, ,)(NP (NP (NP (DT all)(JJ else))(SBAR (S (VP (VBZ is)(RB not)(ADJP (JJ equal))))))(: :)(NP (NP (E-PER (PRP$ His))(E-ORG (NN office)))(, ,)(NP (E-PER (NNS clients)))(CC and)(NP (RB nearly)(E-PER (NN everyone))(RB else))))))(NP (E-PER (PRP he)))))) |ET| 11:351 12:33 13:15274 14:15275 16:6 17:7 18:148 21:36 22:641 23:8618 24:15247 25:118 26:118 27:15250 28:15250 29:15276 30:15250 31:242 32:8619 33:8621 34:15263 35:19 37:8619 38:15249 40:15273 41:15273 42:21 43:21 44:3051 45:3051 46:21 47:21 48:22 49:22  |EV| 
0.12499999999996855293282749244099  |BT| (NP (NP (NN wife))(PP (IN of)(NP (NNP Patrick)(NNP Roy)))) |BT| (BOW ) |BT| (BOH (of *)) |BT| (BOH-NPs ) |BT| (LP (NN *)(NP *)(PP *)(NP *)(NNP *)) |BT| (LP-head (NN *)(NP wife)(PP *)(NP *)(NNP *)) |BT| (NP (NP (NN wife))(PP (IN of)(NP (NNP Patrick)(NNP Roy)))) |BT| (NP (ROOT (S (NP (ADJP (NP (NP (NP (E-PER (NN wife)))(PP (IN of)(NP (E-PER (NNP Patrick)(NNP Roy)))))(, ,)(NP (NP (NP (DT the)(E-ORG (NNP NHL))(POS 's))(JJ winningest)(E-PER (NN goalie)))(, ,)(VP (VBN called)(NP (CD 911))(SBAR (IN because)(S (NP (E-PER (PRP she)))(VP (VBD was)(ADJP (JJ afraid)(PP (IN of)(SBAR (WHNP (WP what))(S (NP (E-PER (PRP$ her))(E-PER (NN husband)))(VP (MD would)(VP (VB do)(SBAR (IN as)(S (NP (E-PER (PRP they)))(VP (VBD argued)(PP (IN about)(NP (E-PER (NNS in-laws))))(, ,)(PP (VBG according)(PP (TO to)(NP (DT a)(E-ORG (NN police))(NN report)))))))))))))))))))))(VP (VBN released)(NP-TMP (NNP Monday)))(. .)))(ROOT (S (NP (NP (E-ORG (-LRB- -LRB-)(NN AP))(-RRB- -RRB-))(ADJP (NP (CD _))(NP (NP (NP (DT The)(E-PER (NN wife)))(PP (IN of)(NP (E-PER (NNP Patrick)(NNP Roy))))))))))) |ET| 6:19 11:6661 12:6662 13:6657 14:6658 16:6 17:7 18:148 21:9 22:157 23:3920 24:6663 25:118 26:118 27:187 28:187 29:220 30:187 31:40 32:3918 33:3921 34:6664 37:3918 38:6665 40:43 41:43 42:21 43:187 44:21 45:21 46:21 47:187 48:22 49:22  |EV| 
0.12499999999996855293282749244099  |BT| (S (PP (NP (NP (NP (NP (NN everyone)(RB else))))))(NP (PRP he))) |BT| (BOW ) |BT| (BOH ) |BT| (BOH-NPs ) |BT| (LP (NN *)(NP *)(PP *)(S *)(NP *)(PRP *)) |BT| (LP-head (NN *)(NP *)(PP *)(S knows)(NP *)(PRP *)) |BT| (S (PP (NP (NP (NP (NP (NN everyone)(RB else))))))(NP (PRP he))) |BT| (S (ROOT (S (PP (NP (NP (NP (NP (E-PER (NN everyone))(RB else))))))(NP (E-PER (PRP he)))(VP (VBZ knows)(NP (NP (NN use)(E-ORG (NNP America)(NNP Online))(POS 's))(NN messaging)(NN system)))(. .)))(ROOT (S (CC But)(PP (IN for)(NP (NP (E-PER (NNS Roelands)))(, ,)(NP (NP (NP (DT all)(JJ else))(SBAR (S (VP (VBZ is)(RB not)(ADJP (JJ equal))))))(: :)(NP (NP (E-PER (PRP$ His))(E-ORG (NN office)))(, ,)(NP (E-PER (NNS clients)))(CC and)(NP (RB nearly)(E-PER (NN everyone))(RB else))))))(NP (E-PER (PRP he)))))) |ET| 11:351 12:33 13:15274 14:15275 16:6 17:7 18:148 21:36 22:641 23:8618 24:15247 25:118 26:118 27:15250 28:15250 29:15276 30:15250 31:242 32:8619 33:8621 34:15263 35:19 37:8619 38:15249 40:15273 41:15273 42:21 43:21 44:3051 45:3051 46:21 47:21 48:22 49:22  |EV| 
-0.12499999999996855293282749244099  |BT| (NP (NNP Kostunica)(NNS supporters)) |BT| (BOW ) |BT| (BOH ) |BT| (BOH-NPs ) |BT| (LP (NNP *)(NP *)(NNS *)) |BT| (LP-head (NNP *)(NP supporters)(NNS *)) |BT| (NP (NNP Kostunica)(NNS supporters)) |BT| (NP (ROOT (S (PP (NP (SBAR (S (NP (E-PER (NNP Kostunica))(E-PER (NNS supporters)))(VP (VBD stormed)(S (NP (E-GPE (NNP Belgrade)))(VP (TO to)(VP (VB drive)(PRT (RP out))(NP (E-PER (NNP Milosevic)))))))))))(, ,)(NP (E-ORG (NNP Republican))(E-PER (NNP Dick)(NNP Cheney)))(VP (VBD said)(SBAR (S (NP (E-PER (NNP Gore)))(VP (VBD had)(VP (VBN been)(NP (`` ``)(NP (NN pooh-poohing))('' '')(NP (NP (DT the)(NN idea))(PP (IN of)(NP (E-GPE (JJ Russian))(NN involvement)))(SBAR (IN while)(S (NP (DT the)(E-ORG (NN administration)))(VP (VBD was)(VP (VBG doing)(ADVP (RB just))(PP (IN about)(SBAR (WHNP (WP what))(S (NP (E-PER (NNP Bush)))(VP (VBD had)(VP (VBN proposed)))))))))))))))))(. .)))(ROOT (S (PP (IN In)(NP (NP (NP (NNP Thursday)(NN night)(POS 's))(NN vice)(E-PER (JJ presidential))(NN debate))(, ,)(SBAR (IN as)(S (NP (E-PER (NNP Kostunica))(E-PER (NNS supporters)))))))))) |ET| 4:19 6:19 11:1879 12:1880 13:1877 14:33 16:7 17:7 18:148 21:9 22:113 23:1785 24:943 25:118 26:118 27:31 28:31 29:49 30:1764 31:13 32:49 33:1788 34:948 35:19 36:19 37:949 38:949 39:19 40:1230 41:1230 42:21 43:21 44:1336 45:1334 46:21 47:21 48:22 49:22  |EV| 
-0.12499999999996855293282749244099  |BT| (NP (NNP Arab)(NNS leaders)) |BT| (BOW ) |BT| (BOH ) |BT| (BOH-NPs ) |BT| (LP (NNP *)(NP *)(NNS *)) |BT| (LP-head (NNP *)(NP leaders)(NNS *)) |BT| (NP (NNP Arab)(NNS leaders)) |BT| (NP (ROOT (S (NP (S (VP (VP (S (NP (E-PER (NNP Arab))(E-PER (NNS leaders)))(VP (TO to)(VP (VB present)(NP (NP (DT a)(VBN unified)(NN front))(PP (IN against)(NP (E-GPE (NNP Israel))))))))))))(VP (VBD gained)(NP (JJ little)(NN ground)))(. .)))(ROOT (S (NP (NP (E-PER (NNP Hafez)(NNP Assad))(POS 's))(NNS attempts)(S (VP (TO to)(VP (VB rally)(S (NP (E-PER (NNP Arab))(E-PER (NNS leaders))))))))))) |ET| 4:19 11:590 12:591 13:321 14:33 16:7 17:7 18:148 21:9 22:113 23:326 24:592 25:118 26:118 27:31 28:31 29:586 30:333 31:291 32:586 33:329 34:593 35:19 36:19 37:588 38:588 39:19 40:586 41:589 42:21 43:21 44:67 45:589 46:21 47:21 48:22 49:22  |EV| 
-0.09366136066338438814771194529385  |BT| (NP (NP (NNS people))(SBAR (WHNP (WP who)))) |BT| (BOW ) |BT| (BOH ) |BT| (BOH-NPs ) |BT| (LP (NNS *)(NP *)(SBAR *)(WHNP *)(WP *)) |BT| (LP-head (NNS *)(NP people)(SBAR *)(WHNP *)(WP *)) |BT| (NP (NP (NNS people))(SBAR (WHNP (WP who)))) |BT| (NP (ROOT (NP (S (S (VP (ADJP (PP (NP (NP (E-PER (NNS people)))(SBAR (WHNP (E-PER (WP who)))(S (VP (VP (VBD watched)(NP (DT the)(JJ first)(NN duel))(PP (IN between)(NP (NP (E-PER (NNP President))(E-PER (NNP Clinton)))(CC and)(NP (E-PER (NNP Bob)(NNP Dole))))(ADVP (NP (CD four)(NNS years))(RB ago))))(, ,)(CC but)(VP (VBD fell)(ADVP (RB short))(PP (IN of)(NP (DT the)(JJ all-time)(NN record))))))))))))(: :)(S (NP (QP (CD 80)(CD million))(E-PER (NNS people)))(VP (VBD watched)(S (NP (NP (E-PER (NNP President))(E-PER (NNP Carter)))(CC and)(NP (E-PER (NNP Ronald)(NNP Reagan))))(VP (VB square)(PRT (RP off))(PP (IN in)(NP (CD 1980))))))))(. .)))(ROOT (NP (NP (DT That)(E-PER (NNP Gore)))(: -)(S (S (NP (NNP Bush)(E-PER (NN audience)))(VP (VBD was)(ADJP (JJ comparable)(PP (TO to)(NP (NP (DT the)(QP (CD 46.1)(CD million))(E-PER (NNS people)))(SBAR (WHNP (E-PER (WP who))))))))))))) |ET| 11:950 12:33 13:1567 14:1568 16:7 17:7 18:148 21:661 22:959 23:934 24:953 25:118 26:118 27:31 28:31 29:707 30:937 31:1569 32:707 33:936 34:954 35:19 36:19 37:937 38:955 40:1570 41:1566 42:21 43:21 44:1312 45:718 46:21 47:21 48:22 49:22  |EV| 
0.12499999999996855293282749244099  |BT| (NP (NP (NN adviser))(PP (TO to)(NP (NP (NP (NNP Wahid)(POS 's))(NN predecessor))))) |BT| (BOW (to *)) |BT| (BOH (Wahid *)) |BT| (BOH-NPs (Wahid *)) |BT| (LP (NN *)(NP *)(PP *)(NP *)(NN *)) |BT| (LP-head (NN *)(NP adviser)(PP *)(NP *)(NN *)) |BT| (NP (NP (NN adviser))(PP (TO to)(NP (NP (NP (NNP Wahid)(POS 's))(NN predecessor))))) |BT| (NP (ROOT (SINV (NP (NP (NP (E-PER (NN adviser)))(PP (TO to)(NP (NP (NP (E-PER (NNP Wahid))(POS 's))(E-PER (NN predecessor)))(, ,)(NP (E-PER (NNP B.J.)(NNP Habibie)))))))(. .)))(ROOT (SINV (S (NP (DT The)(E-GPE (NNP United)(NNPS States)))(VP (VBZ is)(VP (VBN seen)(PP (IN as)(NP (NP (DT the)(VBG driving)(E-GPE (NN force)))(PP (IN behind)(NP (NP (JJ international)(NN pressure))(PP (IN on)(NP (NP (E-GPE (NNP Indonesia)))(PP (IN in)(NP (NP (DT the)(NN wake))(PP (IN of)(NP (DT those)(NNS deaths))))))))))))))(, ,)(VP (VBD said))(NP (NP (E-PER (NNP Dewi)(NNP Fortuna)(NNP Anwar)))(, ,)(NP (NP (DT an)(E-PER (NN adviser)))(PP (TO to)(NP (NP (NP (E-PER (NNP Wahid))(POS 's))(E-PER (NN predecessor)))))))))) |ET| 11:8111 12:8112 13:8103 14:8104 16:47 17:6 18:148 19:381 21:9 22:311 23:8105 24:8113 25:118 26:118 27:291 28:58 29:369 30:58 31:13 32:839 33:8106 34:8114 37:8107 38:8115 40:8100 41:8100 42:839 43:839 44:8121 45:8121 46:839 47:839 48:22 49:22  |EV| 
0.046038776298940646547475097349889  |BT| (NP (PRP$ his)(NN staff)) |BT| (BOW ) |BT| (BOH ) |BT| (BOH-NPs ) |BT| (LP (PRP$ *)(NP *)(NN *)) |BT| (LP-head (PRP$ *)(NP staff)(NN *)) |BT| (NP (PRP$ his)(NN staff)) |BT| (NP (ROOT (S (VP (PP (NP (PP (NP (PP (NP (NP (E-PER (PRP$ his))(E-PER (NN staff)))(CC and)(NP (E-PER (PRP$ his))(E-ORG (NNP Secret)(NNP Service))(E-PER (NN detail)))))))(NP-TMP (NNP Friday))))(NP-TMP (NN evening)))(. .)))(ROOT (S (NP (E-PER (NNP Bush)))(VP (VBD went)(PP (IN on)(IN with)(NP (NP (DT a)(NN party))(PP (IN at)(NP (NP (NP (DT the)(E-PER (NN governor))(POS 's))(E-FAC (NN mansion)))(PP (IN for)(NP (NP (E-PER (PRP$ his))(E-PER (NN staff))))))))))))) |ET| 2:19 3:19 8:19 11:12942 12:12943 13:32 14:33 16:7 17:7 18:148 21:144 22:149 23:1412 24:12944 25:118 26:118 27:31 28:31 29:605 30:279 31:12941 32:605 33:1312 34:12945 35:19 36:19 37:10118 38:10118 39:19 40:605 41:12941 42:21 43:21 44:2117 45:12941 46:21 47:21 48:22 49:22  |EV| 
-0.12499999999996855293282749244099  |BT| (NP (NP (NN member))(PP (IN of)(NP (NP (NNP Suharto))))) |BT| (BOW ) |BT| (BOH (of *)) |BT| (BOH-NPs ) |BT| (LP (NN *)(NP *)(PP *)(NP *)(NNP *)) |BT| (LP-head (NN *)(NP member)(PP *)(NP *)(NNP *)) |BT| (NP (NP (NN member))(PP (IN of)(NP (NP (NNP Suharto))))) |BT| (NP (ROOT (S (VP (NP (NP (E-PER (NN member)))(PP (IN of)(NP (NP (E-PER (NNP Suharto))(POS 's))(E-PER (NN family))(S (VP (TO to)(VP (VB be)(VP (VBN convicted)(PP (IN of)(NP (NN graft)))))))))))(. .)))(ROOT (S (NP (NP (E-PER (NNP Tommy)))(, ,)(NP (NP (DT a)(E-PER (JJ multimillionaire)))(PP (IN with)(NP (NP (DT a)(JJ playboy)(NN image)(CC and)(NN love))(PP (IN of)(NP (JJ fast)(E-VEH (NNS cars)))))))(, ,))(VP (VBZ is)(NP (NP (DT the)(JJ first)(E-PER (NN member)))(PP (IN of)(NP (NP (E-PER (NNP Suharto)))))))))) |ET| 11:741 12:742 13:736 14:737 16:6 17:7 18:148 21:9 22:157 23:738 24:627 25:118 26:118 27:187 28:187 29:179 30:187 31:105 32:740 33:739 34:628 37:740 38:629 40:179 41:734 42:21 43:187 44:735 45:396 46:21 47:187 48:22 49:22  |EV| 
-0.12499999999996855293282749244099  |BT| (NP (NP (NN head))(PP (IN of)(NP (NP (DT an)(JJ influential)(NN group))))) |BT| (BOW (of *)) |BT| (BOH (of *)) |BT| (BOH-NPs ) |BT| (LP (NN *)(NP *)(PP *)(NP *)(NN *)) |BT| (LP-head (NN *)(NP head)(PP *)(NP *)(NN *)) |BT| (NP (NP (NN head))(PP (IN of)(NP (NP (DT an)(JJ influential)(NN group))))) |BT| (NP (ROOT (S (NP (NP (NP (E-PER (NN head)))(PP (IN of)(NP (NP (DT an)(JJ influential)(E-PER (NN group)))(PP (IN of)(NP (E-PER (NNS economists)))))))(, ,))(VP (VBD demanded)(NP-TMP (NNP Sunday))(SBAR (IN that)(S (NP (E-PER (NNP Milosevic)))(VP (VB be)(VP (VBN punished)(PP (IN for)(NP (NN vote-rigging))))))))(. .)))(ROOT (S (NP (NP (NP (NP (E-GPE (NNP Norway))(POS 's))(NNP Foreign)(E-PER (NNP Minister))(E-PER (NNP Thorbjoern)(NNP Jagland)))(CC and)(NP (E-PER (NNP Mladjan)(NNP Dinkic))))(, ,)(NP (NP (DT the)(E-PER (NN head)))(PP (IN of)(NP (NP (DT an)(JJ influential)(E-PER (NN group)))))))))) |ET| 2:19 6:19 11:3187 12:3188 13:3185 14:3186 16:47 17:7 18:148 19:338 21:9 22:311 23:2777 24:1497 25:118 26:118 27:187 28:3189 29:105 30:3189 31:13 32:369 33:2778 34:1500 37:2779 38:1502 40:3184 41:3184 42:21 43:187 44:3195 45:3195 46:21 47:187 48:22 49:22  |EV| 
-0.12499999999996855293282749244099  |BT| (NP (NP (NN member))(PP (IN of)(NP (NP (NNP Suharto)(POS 's))(NN family)))) |BT| (BOW (of *)) |BT| (BOH (of *)(Suharto *)) |BT| (BOH-NPs (Suharto *)) |BT| (LP (NN *)(NP *)(PP *)(NP *)(NN *)) |BT| (LP-head (NN *)(NP member)(PP *)(NP *)(NN *)) |BT| (NP (NP (NN member))(PP (IN of)(NP (NP (NNP Suharto)(POS 's))(NN family)))) |BT| (NP (ROOT (S (VP (NP (NP (E-PER (NN member)))(PP (IN of)(NP (NP (E-PER (NNP Suharto))(POS 's))(E-PER (NN family))(S (VP (TO to)(VP (VB be)(VP (VBN convicted)(PP (IN of)(NP (NN graft)))))))))))(. .)))(ROOT (S (NP (NP (E-PER (NNP Tommy)))(, ,)(NP (NP (DT a)(E-PER (JJ multimillionaire)))(PP (IN with)(NP (NP (DT a)(JJ playboy)(NN image)(CC and)(NN love))(PP (IN of)(NP (JJ fast)(E-VEH (NNS cars)))))))(, ,))(VP (VBZ is)(NP (NP (DT the)(JJ first)(E-PER (NN member)))(PP (IN of)(NP (NP (E-PER (NNP Suharto))(POS 's))(E-PER (NN family))))))))) |ET| 6:19 11:743 12:744 13:736 14:737 16:47 17:6 18:148 19:338 20:19 21:9 22:311 23:738 24:745 25:118 26:118 27:187 28:58 29:179 30:58 31:105 32:629 33:739 34:746 37:740 38:747 40:179 41:734 42:629 43:187 44:735 45:396 46:629 47:629 48:22 49:187  |EV| 
0.021206969494853483704233099160774  |BT| (NP (NNP Gore)(NNS surrogates)) |BT| (BOW ) |BT| (BOH ) |BT| (BOH-NPs ) |BT| (LP (NNP *)(NP *)(NNS *)) |BT| (LP-head (NNP *)(NP surrogates)(NNS *)) |BT| (NP (NNP Gore)(NNS surrogates)) |BT| (NP (ROOT (S (S (NP (E-PER (NNP Gore))(E-PER (NNS surrogates)))(VP (VBP are)(ADVP (RB also))(VP (VBN expected)(S (VP (TO to)(VP (VB discuss)(NP (NP (NP (E-PER (NNP Bush))(POS 's))(NN approval))(PP (IN of)(NP (NN legislation))))(S (VP (VBG permitting)(NP (NP (DT the)(NN carrying))(PP (IN of)(NP (NP (VBN concealed)(E-WEA (NNS weapons)))(PP (IN in)(NP (NP (E-FAC (NNS churches))(, ,)(E-FAC (NNS hospitals)))(CC and)(NP (NN nursing)(E-FAC (NNS homes))))))))))))))))(, ,)(NP (E-PER (NNP Gore))(E-PER (NNS aides)))(VP (VBD said))(. .)))(ROOT (S (S (PP (IN In)(NP (NP (NN addition))(PP (TO to)(S (VP (VBG drawing)(NP (NN attention))(PP (TO to)(NP (NP (E-PER (NNP Bush))(POS 's))(NN record)))(PP (IN on)(NP (NP (NN health)(NN care))(CC and)(NP (DT the)(NN environment)))))))))(, ,)(NP (DT the)(E-PER (NNP Gore))(E-PER (NNS surrogates))))))) |ET| 4:19 11:16312 12:16313 13:1369 14:33 16:7 17:7 18:148 21:9 22:113 23:1370 24:16130 25:118 26:118 27:31 28:31 29:105 30:1318 31:13 32:105 33:1371 34:16131 35:19 36:19 37:16127 38:16127 39:19 40:1318 41:1318 42:21 43:21 44:5344 45:5344 46:21 47:21 48:22 49:22  |EV| 
0.08038644796597424480033566851489  |BT| (NP (NNP Gore)(NNS surrogates)) |BT| (BOW ) |BT| (BOH ) |BT| (BOH-NPs ) |BT| (LP (NNP *)(NP *)(NNS *)) |BT| (LP-head (NNP *)(NP surrogates)(NNS *)) |BT| (NP (NNP Gore)(NNS surrogates)) |BT| (NP (ROOT (S (S (NP (E-PER (NNP Gore))(E-PER (NNS surrogates)))(VP (VBP are)(ADVP (RB also))(VP (VBN expected)(S (VP (TO to)(VP (VB discuss)(NP (NP (NP (E-PER (NNP Bush))(POS 's))(NN approval))(PP (IN of)(NP (NN legislation))))(S (VP (VBG permitting)(NP (NP (DT the)(NN carrying))(PP (IN of)(NP (NP (VBN concealed)(E-WEA (NNS weapons)))(PP (IN in)(NP (NP (E-FAC (NNS churches))(, ,)(E-FAC (NNS hospitals)))(CC and)(NP (NN nursing)(E-FAC (NNS homes))))))))))))))))(, ,)(NP (E-PER (NNP Gore))(E-PER (NNS aides)))(VP (VBD said))(. .)))(ROOT (S (S (PP (IN In)(NP (NP (NN addition))(PP (TO to)(S (VP (VBG drawing)(NP (NN attention))(PP (TO to)(NP (NP (E-PER (NNP Bush))(POS 's))(NN record)))(PP (IN on)(NP (NP (NN health)(NN care))(CC and)(NP (DT the)(NN environment)))))))))(, ,)(NP (DT the)(E-PER (NNP Gore))(E-PER (NNS surrogates))))))) |ET| 4:19 11:16312 12:16313 13:1369 14:33 16:7 17:7 18:148 21:9 22:113 23:1370 24:16130 25:118 26:118 27:31 28:31 29:105 30:1318 31:13 32:105 33:1371 34:16131 35:19 36:19 37:16127 38:16127 39:19 40:1318 41:1318 42:21 43:21 44:5344 45:5344 46:21 47:21 48:22 49:22  |EV| 
-0.12499999999996855293282749244099  |BT| (PRP$ his) |BT| (BOW ) |BT| (BOH ) |BT| (BOH-NPs (Committee *)) |BT| (LP (PRP$ *)(NP *)(NNP *)) |BT| (LP-head (PRP$ *)(NP membership)(NNP *)) |BT| (PRP$ his) |BT| (NP (ROOT (S (VP (NP (PP (NP (NP (PP (NP (E-PER (PRP$ his))(E-ORG (NNP Senate))(E-ORG (NNP Armed)(NNPS Services)(NNP Committee))(NN membership))))(CC and)(NP (NP (NN involvement))(PP (IN on)(NP (NP (DT a)(NN range))(PP (IN of)(NP (JJ international)(NNS issues)))))))))(PP (IN during)(NP (NP (E-PER (PRP$ his))(NN dozen)(NNS years))(PP (IN in)(NP (DT the)(E-ORG (NNP Senate)))))))(. .)))(NNP Senate)(ROOT (S (NP (E-ORG (NNP Democrat))(E-PER (NNP Joseph)(NNP Lieberman)))(VP (VBZ matches)(NP (NP (DT some))(PP (IN of)(NP (NP (NP (NP (E-PER (NNP Cheney))(POS 's))(JJ foreign)(NN policy)(NN experience))(PP (IN with)(NP (E-PER (PRP$ his))(E-ORG (NNP Senate))(E-ORG (NNP Armed)(NNPS Services)(NNP Committee)))))))))))) |ET| 5:19 11:2181 12:24 13:32 14:33 16:6 17:7 18:301 21:144 22:145 23:2178 24:2182 25:118 26:118 27:1920 28:1920 29:72 30:1920 31:1698 32:279 33:2179 34:2183 35:19 37:2180 38:2180 39:19 40:72 41:1698 42:1916 43:21 44:147 45:1698 46:1916 47:21 48:22 49:22  |EV| 
-0.12499999999996855293282749244099  |BT| (NP (PRP$ His)(JJ leftist)(NN coalition)) |BT| (BOW ) |BT| (BOH ) |BT| (BOH-NPs (coalition *)) |BT| (LP (PRP$ *)(NP *)(NN *)) |BT| (LP-head (PRP$ *)(NP controls)(NN *)) |BT| (NP (PRP$ His)(JJ leftist)(NN coalition)) |BT| (NP (ROOT (NP (NP (E-PER (PRP$ His))(JJ leftist)(E-ORG (NN coalition))(NNS controls))(NP (NP (CD 46))(PP (IN of)(NP (NP (CD 178)(NNS seats))(PP (IN in)(NP (DT the)(JJ federal)(E-ORG (NN parliament)))))))(. .)))(JJ leftist)(ROOT (NP (NP (E-PER (PRP$ His))(JJ leftist)(E-ORG (NN coalition)))))) |ET| 5:19 11:2950 12:24 13:1286 14:33 16:6 17:7 18:301 21:144 22:149 23:1724 24:2648 25:118 26:118 27:2951 28:2951 29:14 30:2951 31:2699 32:1289 33:1721 34:2650 35:19 37:2952 38:2952 39:19 40:21 41:21 42:2636 43:21 44:21 45:21 46:2636 47:21 48:22 49:22  |EV| 
-0.013395724157039320262319037624366  |BT| (NP (NP (NN school)(NN shooting))(SBAR (WHNP (WDT that))(S (VP (VBD left)(NP (NP (CD six)(JJ fellow)(NNS students))))))) |BT| (BOW (shooting *)(that *)(left *)) |BT| (BOH (that *)(left *)) |BT| (BOH-NPs ) |BT| (LP (NN *)(NP *)(SBAR *)(S *)(VP *)(NP *)(NNS *)) |BT| (LP-head (NN *)(NP shooting)(SBAR *)(S *)(VP *)(NP *)(NNS *)) |BT| (NP (NP (NN school)(NN shooting))(SBAR (WHNP (WDT that))(S (VP (VBD left)(NP (NP (CD six)(JJ fellow)(NNS students))))))) |BT| (NP (ROOT (S (VP (PP (NP (NP (E-ORG (NN school))(NN shooting))(SBAR (WHNP (WDT that))(S (VP (VBD left)(NP (NP (CD six)(JJ fellow)(E-PER (NNS students)))(VP (VBN wounded)))))))))(. .)))(ROOT (S (NP (NP (NP (E-ORG (-LRB- -LRB-)(NN AP))(-RRB- -RRB-))(NP (CD _)))(NP (DT A)(E-PER (NN teen-ager))))(VP (VBD entered)(NP (NP (JJ dual)(NNS pleas))(PP (IN of)(NP (ADJP (ADJP (JJ guilty)(CC and)(JJ guilty))(CC but)(ADJP (RB mentally)(JJ ill)))(NNP Monday))))(PP (IN in)(NP (NP (DT a)(CD 1999)(E-ORG (NN school))(NN shooting))(SBAR (WHNP (WDT that))(S (VP (VBD left)(NP (NP (CD six)(JJ fellow)(E-PER (NNS students))))))))))))) |ET| 5:19 11:987 12:988 13:981 14:24 16:64 17:7 18:126 19:338 21:9 22:160 23:982 24:989 25:117 26:117 27:985 28:990 29:983 30:990 31:430 32:991 33:984 34:992 37:985 38:993 40:986 41:986 42:21 43:887 44:556 45:106 46:21 47:994 48:22 49:887  |EV| 
0.095894400071732471824148547057121  |BT| (NP (NP (NN member))(PP (IN of)(NP (NP (NNP Pinochet)(POS 's))(JJ legal)(NN team)))) |BT| (BOW (of *)(Pinochet *)) |BT| (BOH (of *)(Pinochet *)) |BT| (BOH-NPs (Pinochet *)) |BT| (LP (NN *)(NP *)(PP *)(NP *)(NN *)) |BT| (LP-head (NN *)(NP member)(PP *)(NP *)(NN *)) |BT| (NP (NP (NN member))(PP (IN of)(NP (NP (NNP Pinochet)(POS 's))(JJ legal)(NN team)))) |BT| (NP (ROOT (S (NP (NP (NP (E-PER (NN member)))(PP (IN of)(NP (NP (E-PER (NNP Pinochet))(POS 's))(JJ legal)(E-PER (NN team)))))(, ,))(VP (VBD said)(SBAR (S (NP (NP (NNS complaints))(PP (IN against)(NP (E-PER (NNP Guzman)))))(VP (MD will)(VP (VB be)(VP (VBN brought)(PP (TO to)(NP (DT the)(E-ORG (NNP Supreme)(NNP Court))))))))))(. .)))(ROOT (S (NP (NP (E-PER (NNP Ambrosio)(NNP Rodriguez)))(, ,)(NP (NP (DT a)(JJ key)(E-PER (NN member)))(PP (IN of)(NP (NP (E-PER (NNP Pinochet))(POS 's))(JJ legal)(E-PER (NN team))))))))) |ET| 6:19 11:12239 12:12240 13:12233 14:12234 16:55 17:6 18:148 19:338 20:19 21:9 22:311 23:738 24:763 25:118 26:118 27:187 28:765 29:2090 30:765 31:430 32:58 33:739 34:767 37:740 38:768 40:2090 41:10536 42:12110 43:187 44:12241 45:10536 46:12110 47:12110 48:22 49:187  |EV| 
0.12499999999996855293282749244099  |BT| (NP (NP (NN member))(PP (IN of)(NP (NP (NNP Pinochet)(POS 's))(JJ legal)(NN team)))) |BT| (BOW (of *)(Pinochet *)) |BT| (BOH (of *)(Pinochet *)) |BT| (BOH-NPs (Pinochet *)) |BT| (LP (NN *)(NP *)(PP *)(NP *)(NN *)) |BT| (LP-head (NN *)(NP member)(PP *)(NP *)(NN *)) |BT| (NP (NP (NN member))(PP (IN of)(NP (NP (NNP Pinochet)(POS 's))(JJ legal)(NN team)))) |BT| (NP (ROOT (S (NP (NP (NP (E-PER (NN member)))(PP (IN of)(NP (NP (E-PER (NNP Pinochet))(POS 's))(JJ legal)(E-PER (NN team)))))(, ,))(VP (VBD said)(SBAR (S (NP (NP (NNS complaints))(PP (IN against)(NP (E-PER (NNP Guzman)))))(VP (MD will)(VP (VB be)(VP (VBN brought)(PP (TO to)(NP (DT the)(E-ORG (NNP Supreme)(NNP Court))))))))))(. .)))(ROOT (S (NP (NP (E-PER (NNP Ambrosio)(NNP Rodriguez)))(, ,)(NP (NP (DT a)(JJ key)(E-PER (NN member)))(PP (IN of)(NP (NP (E-PER (NNP Pinochet))(POS 's))(JJ legal)(E-PER (NN team))))))))) |ET| 6:19 11:12239 12:12240 13:12233 14:12234 16:55 17:6 18:148 19:338 20:19 21:9 22:311 23:738 24:763 25:118 26:118 27:187 28:765 29:2090 30:765 31:430 32:58 33:739 34:767 37:740 38:768 40:2090 41:10536 42:12110 43:187 44:12241 45:10536 46:12110 47:12110 48:22 49:187  |EV| 
-0.068123925765986220737246981116186  |BT| (PP (PP (NP (PRP$ my)(NN family)))(CC and)(ADVP (RB especially))(PP (IN with)(NP (NP (PRP$ my)(NN grandson))))) |BT| (BOW (family *)(and *)(especially *)) |BT| (BOH (especially *)(with *)) |BT| (BOH-NPs ) |BT| (LP (PRP$ *)(NP *)(PP *)(PP *)(NP *)(NN *)) |BT| (LP-head (PRP$ *)(NP *)(PP with)(PP *)(NP *)(NN *)) |BT| (PP (PP (NP (PRP$ my)(NN family)))(CC and)(ADVP (RB especially))(PP (IN with)(NP (NP (PRP$ my)(NN grandson))))) |BT| (PP (ROOT (S (S (VP (VP (S (VP (VP (VP (NP (PP (PP (NP (E-PER (PRP$ my))(E-PER (NN family))))(CC and)(ADVP (RB especially))(PP (IN with)(NP (NP (E-PER (PRP$ my))(E-PER (NN grandson)))(, ,)(NP (E-PER (NNP Marko)))(, ,)))(CC and)(PP (IN after)(NP (DT that)))))(S (VP (TO to)(VP (VB help)(NP (E-PER (PRP$ my))(E-ORG (NN party))(NN gain)(NN force))))))))))(CC and)(VP (VBP contribute)(PP (TO to)(NP (JJ future)(NN prosperity))))))(, ,)('' '')(NP (E-PER (PRP he)))(VP (VBD said))(. .)))(CC and)(ADVP (RB especially))(ROOT (S (`` ``)(S (NP (PRP I))(VP (VP (VBP intend)(S (VP (TO to)(VP (VP (VB rest)(NP (DT a)(JJ little)))(CC and)(VP (VB spend)(NP (NP (DT some)(JJR more)(NN time))(PP (PP (IN with)(NP (E-PER (PRP$ my))(E-PER (NN family))))(CC and)(ADVP (RB especially))(PP (IN with)(NP (NP (E-PER (PRP$ my))(E-PER (NN grandson))))))))))))))))) |ET| 6:19 7:19 8:19 11:2808 12:2809 13:1130 14:33 16:64 17:6 18:148 21:144 22:149 23:2802 24:2810 25:118 26:118 27:747 28:1138 29:72 30:1138 31:2501 32:72 33:2804 34:2811 37:747 38:2807 40:72 41:2501 42:21 43:2806 44:21 45:2501 46:21 47:72 48:22 49:2806  |EV| 
-0.0038486158649953580018765464387798  |BT| (PP (PP (NP (NN family)))(CC and)(ADVP (RB especially))(PP (IN with)(NP (NP (PRP$ my)(NN grandson))))) |BT| (BOW (and *)(especially *)) |BT| (BOH (especially *)(with *)) |BT| (BOH-NPs ) |BT| (LP (NN *)(NP *)(PP *)(PP *)(NP *)(NN *)) |BT| (LP-head (NN *)(NP *)(PP with)(PP *)(NP *)(NN *)) |BT| (PP (PP (NP (NN family)))(CC and)(ADVP (RB especially))(PP (IN with)(NP (NP (PRP$ my)(NN grandson))))) |BT| (PP (ROOT (S (S (VP (VP (S (VP (VP (VP (NP (PP (PP (NP (E-PER (NN family))))(CC and)(ADVP (RB especially))(PP (IN with)(NP (NP (E-PER (PRP$ my))(E-PER (NN grandson)))(, ,)(NP (E-PER (NNP Marko)))(, ,)))(CC and)(PP (IN after)(NP (DT that)))))(S (VP (TO to)(VP (VB help)(NP (E-PER (PRP$ my))(E-ORG (NN party))(NN gain)(NN force))))))))))(CC and)(VP (VBP contribute)(PP (TO to)(NP (JJ future)(NN prosperity))))))(, ,)('' '')(NP (E-PER (PRP he)))(VP (VBD said))(. .)))(CC and)(ADVP (RB especially))(ROOT (S (`` ``)(S (NP (PRP I))(VP (VP (VBP intend)(S (VP (TO to)(VP (VP (VB rest)(NP (DT a)(JJ little)))(CC and)(VP (VB spend)(NP (NP (DT some)(JJR more)(NN time))(PP (PP (IN with)(NP (E-PER (PRP$ my))(E-PER (NN family))))(CC and)(ADVP (RB especially))(PP (IN with)(NP (NP (E-PER (PRP$ my))(E-PER (NN grandson))))))))))))))))) |ET| 6:19 11:2808 12:2809 13:2805 14:1136 16:55 17:6 18:148 19:338 21:9 22:311 23:745 24:2810 25:118 26:118 27:242 28:1138 29:1138 30:1138 31:72 32:72 33:746 34:2811 37:747 38:2807 40:72 41:2501 42:21 43:2806 44:21 45:2501 46:21 47:72 48:22 49:2806  |EV| 
-0.12499999999996855293282749244099  |BT| (VP (PP (NP (NN despot)))(PP (TO to)(NP (NP (NN democrat))))) |BT| (BOW ) |BT| (BOH ) |BT| (BOH-NPs ) |BT| (LP (NN *)(NP *)(PP *)(VP *)(PP *)(NP *)(NN *)) |BT| (LP-head (NN *)(NP *)(PP *)(VP None)(PP *)(NP *)(NN *)) |BT| (VP (PP (NP (NN despot)))(PP (TO to)(NP (NP (NN democrat))))) |BT| (VP (ROOT (S (NP (SBAR (S (VP (NP (PP (S (VP (PP (S (VP (PP (NP (E-PER (NN despot))))(PP (TO to)(NP (NP (E-PER (NN democrat)))(PP (IN in)(NP (E-GPE (NNP Yugoslavia)))))))))))))))))(VP (VBD _)(NP (NP (DT an)(NN idea))(VP (VBN dismissed)(PP (IN in)(NP (NN debate)))(PP (IN as)(ADJP (JJ risky)))(PP (IN by)(NP (E-PER (NNP Al)(NNP Gore))))))(SBAR (RB even)(IN as)(S (NP (E-PER (PRP$ his))(E-PER (NN boss)))(VP (VBD was)(VP (VBG trying)(S (VP (TO to)(VP (VB get)(S (NP (E-GPE (NNP Moscow)))(VP (TO to)(VP (VB step)(PP (IN in)))))))))))))(. .)))(ROOT (S (NP (NP (NP (E-GPE (NNP WASHINGTON)))(PRN (-LRB- -LRB-)(NP (NNP AP))(-RRB- -RRB-)))(SBAR (S (NP (CD __)(E-PER (NNPS Republicans)))(VP (VBP give)(NP (E-PER (NNP George)(NNP W.)(NNP Bush)))(NP (NP (NN credit))(PP (IN for)(S (VP (VBG promoting)(NP (DT a)(E-GPE (JJ Russian))(NN role))(PP (IN in)(S (VP (VBG smoothing)(NP (DT the)(NN transition))(PP (IN from)(NP (E-PER (NN despot))))(PP (TO to)(NP (NP (E-PER (NN democrat))))))))))))))))))) |ET| 2:19 11:1661 12:1059 13:1656 14:33 16:6 17:7 18:148 19:381 21:9 22:311 23:1657 24:1662 25:118 26:118 27:291 28:291 29:447 30:291 31:1658 32:1660 33:1659 34:1663 35:19 37:1660 38:1664 40:447 41:1658 42:21 43:21 44:1654 45:1658 46:21 47:21 48:22 49:22  |EV| 
0.12061908450012734372869260823791  |BT| (SBAR (WHNP (WP who))(S (VP (VBZ has)(NP (ADJP (RB close)(JJ personal))(NNS ties))(PP (TO to)(NP (NP (DT the)(NN chief)(NN justice))))))) |BT| (BOW (has *)(close *)(personal *)(ties *)(to *)) |BT| (BOH (has *)(personal *)(ties *)) |BT| (BOH-NPs (ties *)(chief *)) |BT| (LP (WP *)(WHNP *)(SBAR *)(S *)(VP *)(PP *)(NP *)(NN *)) |BT| (LP-head (WP *)(WHNP *)(SBAR who)(S *)(VP *)(PP *)(NP *)(NN *)) |BT| (SBAR (WHNP (WP who))(S (VP (VBZ has)(NP (ADJP (RB close)(JJ personal))(NNS ties))(PP (TO to)(NP (NP (DT the)(NN chief)(NN justice))))))) |BT| (SBAR (ROOT (S (NP (SBAR (S (VP (S (VP (SBAR (SBAR (WHNP (E-PER (WP who)))(S (VP (VBZ has)(NP (ADJP (RB close)(JJ personal))(NNS ties))(PP (TO to)(NP (NP (DT the)(NN chief)(E-PER (NN justice)))(PP (IN of)(NP (DT the)(E-ORG (NNP Supreme)(NNP Court)))))))))))))))(, ,))(VP (VBZ is)(ADVP (RB widely))(VP (VBN expected)(S (VP (TO to)(VP (VB win))))))(. .)))(ROOT (S (NP (NP (E-ORG (NN Junta))(E-PER (NN leader))(E-PER (NNP Gen.))(E-PER (NNP Robert)(NNP Guei)))(, ,)(SBAR (WHNP (E-PER (WP who)))(S (VP (VBD took)(NP (NN control))(PP (IN during)(NP (DT a)(NNP December)(NN coup)))(S (VP (VBG promising)(SBAR (SBAR (S (NP (E-PER (PRP he)))(VP (MD would)(ADVP (RB quickly))(VP (VB give)(PRT (RP up))(NP (NN power))))))(, ,)(CC and)(SBAR (WHNP (E-PER (WP who)))(S (VP (VBZ has)(NP (ADJP (RB close)(JJ personal))(NNS ties))(PP (TO to)(NP (NP (DT the)(NN chief)(E-PER (NN justice)))))))))))))))))) |ET| 2:19 11:5705 12:5706 13:950 14:33 16:34 17:7 18:148 21:677 22:1477 23:953 24:5707 25:118 26:118 27:275 28:854 29:242 30:854 31:13 32:105 33:954 34:5708 37:955 38:3033 40:272 41:272 42:5709 43:275 44:5703 45:1649 46:854 47:5709 48:5709 49:5710  |EV| 
0.066397561226401044520706307139335  |BT| (NP (NNP Gore)(NNS surrogates)) |BT| (BOW ) |BT| (BOH ) |BT| (BOH-NPs ) |BT| (LP (NNP *)(NP *)(NNS *)) |BT| (LP-head (NNP *)(NP surrogates)(NNS *)) |BT| (NP (NNP Gore)(NNS surrogates)) |BT| (NP (ROOT (S (S (NP (E-PER (NNP Gore))(E-PER (NNS surrogates)))(VP (VBP are)(ADVP (RB also))(VP (VBN expected)(S (VP (TO to)(VP (VB discuss)(NP (NP (NP (E-PER (NNP Bush))(POS 's))(NN approval))(PP (IN of)(NP (NN legislation))))(S (VP (VBG permitting)(NP (NP (DT the)(NN carrying))(PP (IN of)(NP (NP (VBN concealed)(E-WEA (NNS weapons)))(PP (IN in)(NP (NP (E-FAC (NNS churches))(, ,)(E-FAC (NNS hospitals)))(CC and)(NP (NN nursing)(E-FAC (NNS homes))))))))))))))))(, ,)(NP (E-PER (NNP Gore))(E-PER (NNS aides)))(VP (VBD said))(. .)))(ROOT (S (S (PP (IN In)(NP (NP (NN addition))(PP (TO to)(S (VP (VBG drawing)(NP (NN attention))(PP (TO to)(NP (NP (E-PER (NNP Bush))(POS 's))(NN record)))(PP (IN on)(NP (NP (NN health)(NN care))(CC and)(NP (DT the)(NN environment)))))))))(, ,)(NP (DT the)(E-PER (NNP Gore))(E-PER (NNS surrogates))))))) |ET| 4:19 11:16312 12:16313 13:1369 14:33 16:7 17:7 18:148 21:9 22:113 23:1370 24:16130 25:118 26:118 27:31 28:31 29:105 30:1318 31:13 32:105 33:1371 34:16131 35:19 36:19 37:16127 38:16127 39:19 40:1318 41:1318 42:21 43:21 44:5344 45:5344 46:21 47:21 48:22 49:22  |EV| 
0.12499999999996855293282749244099  |BT| (S (NP (NNS People))(VP (MD can)(VP (VB communicate)(PP (IN with)(NP (JJ international)(NNS friends)))))) |BT| (BOW (can *)(communicate *)) |BT| (BOH (can *)(communicate *)(with *)) |BT| (BOH-NPs ) |BT| (LP (NNS *)(NP *)(S *)(VP *)(PP *)(NP *)(NNS *)) |BT| (LP-head (NNS *)(NP *)(S can)(VP *)(PP *)(NP *)(NNS *)) |BT| (S (NP (NNS People))(VP (MD can)(VP (VB communicate)(PP (IN with)(NP (JJ international)(NNS friends)))))) |BT| (S (ROOT (S (NP (E-PER (NNS People)))(VP (MD can)(VP (VB communicate)(PP (IN with)(NP (JJ international)(E-PER (NNS friends))))(PP (IN without)(NP (DT the)(JJ hefty)(NN phone)(NNS bills)))))(. .)))(ROOT (S (NP (E-PER (NNS People)))(VP (MD can)(VP (VB communicate)(PP (IN with)(NP (JJ international)(E-PER (NNS friends))))))))) |ET| 4:19 6:19 11:15346 12:15347 13:2463 14:33 16:55 17:7 18:148 21:9 22:1028 23:2464 24:2355 25:118 26:118 27:2731 28:3798 29:14 30:3798 31:15348 32:72 33:2468 34:2356 37:2470 38:2337 40:21 41:21 42:21 43:2731 44:21 45:21 46:21 47:72 48:22 49:15349  |EV| 
-0.033230317023176747515122997356229  |BT| (NP (NP (NNS Critics))(PP (IN of)(NP (NP (NNP Indonesia)(POS 's))(JJ legal)(NN system)))) |BT| (BOW (of *)(Indonesia *)) |BT| (BOH (of *)(Indonesia *)) |BT| (BOH-NPs (Indonesia *)) |BT| (LP (NNS *)(NP *)(PP *)(NP *)(NN *)) |BT| (LP-head (NNS *)(NP Critics)(PP *)(NP *)(NN *)) |BT| (NP (NP (NNS Critics))(PP (IN of)(NP (NP (NNP Indonesia)(POS 's))(JJ legal)(NN system)))) |BT| (NP (ROOT (S (NP (NP (E-PER (NNS Critics)))(PP (IN of)(NP (NP (E-GPE (NNP Indonesia))(POS 's))(JJ legal)(E-GPE (NN system)))))(VP (VBP have)(VP (VBN accused)(NP (E-GPE (PRP it)))(PP (IN of)(S (VP (VBG going)(ADJP (JJ soft))(PP (IN on)(NP (DT the)(E-PER (NNP Suharto))(E-PER (NN clan)))))))))(. .)))(ROOT (S (NP (NP (E-PER (NNS Critics)))(PP (IN of)(NP (NP (E-GPE (NNP Indonesia))(POS 's))(JJ legal)(E-GPE (NN system)))))))) |ET| 11:802 12:803 13:796 14:797 16:55 17:6 18:143 21:9 22:339 23:798 24:804 25:118 26:118 27:187 28:765 29:14 30:765 31:799 32:58 33:801 34:805 37:800 38:806 40:21 41:21 42:615 43:187 44:21 45:21 46:615 47:615 48:22 49:187  |EV| 
-0.0050127140470710542310972535062774  |BT| (S (NP (NNP Gore)(NN campaign)(NNS aides))(VP (VBD insisted)(SBAR (S (NP (PRP he))(VP (VBD was)(ADJP (JJ aware)(PP (IN of)(NP (NN administration))))))))) |BT| (BOW (campaign *)(aides *)(insisted *)(he *)(was *)) |BT| (BOH (insisted *)(he *)(was *)(aware *)(of *)) |BT| (BOH-NPs (campaign *)(he *)) |BT| (LP (NNP *)(NP *)(S *)(VP *)(SBAR *)(S *)(VP *)(ADJP *)(PP *)(NP *)(NN *)) |BT| (LP-head (NNP *)(NP *)(S insisted)(VP *)(SBAR *)(S *)(VP *)(ADJP *)(PP *)(NP *)(NN *)) |BT| (S (NP (NNP Gore)(NN campaign)(NNS aides))(VP (VBD insisted)(SBAR (S (NP (PRP he))(VP (VBD was)(ADJP (JJ aware)(PP (IN of)(NP (NN administration))))))))) |BT| (S (ROOT (S (NP (E-PER (NNP Gore))(NN campaign)(E-PER (NNS aides)))(VP (VBD insisted)(SBAR (S (NP (E-PER (PRP he)))(VP (VBD was)(ADJP (JJ aware)(PP (IN of)(NP (E-ORG (NN administration))(NNS efforts))))(S (VP (TO to)(VP (VB persuade)(S (NP (DT the)(E-GPE (NNPS Russians)))(VP (TO to)(VP (VB convince)(S (NP (E-PER (NNP Milosevic)))(VP (TO to)(VP (VB go))))))))))))))(. .)))(ROOT (S (NP (E-PER (NNP Gore))(NN campaign)(E-PER (NNS aides)))(VP (VBD insisted)(SBAR (S (NP (E-PER (PRP he)))(VP (VBD was)(ADJP (JJ aware)(PP (IN of)(NP (E-ORG (NN administration)))))))))))) |ET| 5:19 11:1864 12:24 13:1369 14:33 16:34 17:25 18:301 21:9 22:56 23:1370 24:1865 25:118 26:118 27:1414 28:187 29:14 30:187 31:1036 32:1866 33:1371 34:1867 37:1862 38:1868 40:21 41:21 42:1414 43:1863 44:21 45:21 46:364 47:187 48:1414 49:1866  |EV| 
0.029244706749841115067667374205485  |BT| (NP (PRP$ his)(NNS colleagues)) |BT| (BOW ) |BT| (BOH ) |BT| (BOH-NPs ) |BT| (LP (PRP$ *)(NP *)(NNS *)) |BT| (LP-head (PRP$ *)(NP colleagues)(NNS *)) |BT| (NP (PRP$ his)(NNS colleagues)) |BT| (NP (ROOT (S (VP (SBAR (S (NP (NP (E-PER (PRP$ his))(E-PER (NNS colleagues))))(VP (VBD had)(VP (VBN declared)(SBAR (IN that)(S (NP (NP (DT an)(NN act))(PP (IN of)(NP (E-ORG (NNP Congress)))))(VP (VBD violated)(NP (DT the)(NNP Constitution))))))))))(. .)))(ROOT (S (S (VP (VBG Moving)(S (VP (TO to)(VP (VB refashion)(NP (DT the)(E-ORG (NN court))(S (VP (TO to)(VP (VB suit)(NP (E-PER (PRP$ their))(JJ own)(NNS views)))))))))))(, ,)(NP (NP (NP (E-PER (NNP Jefferson))(POS 's))(E-PER (NNS friends)))(PP (IN in)(NP (E-ORG (NNP Congress)))))(VP (VBD impeached)(NP (NP (E-PER (NNP Justice))(E-PER (NNP Samuel)(NNP Chase)))(PP (IN in)(NP (CD 1804))))(, ,)(SBAR (NP (RB just)(NNS months))(IN after)(S (NP (NP (E-PER (PRP he)))(CC and)(NP (E-PER (PRP$ his))(E-PER (NNS colleagues)))))))))) |ET| 4:19 6:19 7:19 8:19 11:14221 12:320 13:32 14:33 16:7 17:7 18:148 21:144 22:156 23:14165 24:14222 25:118 26:118 27:31 28:31 29:242 30:279 31:364 32:242 33:14147 34:14223 35:19 36:19 37:14220 38:14220 39:19 40:364 41:651 42:21 43:21 44:14212 45:651 46:21 47:21 48:22 49:22  |EV| 
-0.0049673176569143048103560644790377  |BT| (SINV (S (VP (VP (VP (VP (NP (NNS candidates))(NP (DT a)(JJ hot)(NN foot))))(CC or)(VP (VB put)(NP (DT a)(NN joy)(NN buzzer))(PP (IN on)(NP (PRP$ their)(NN seat)))))))(, ,)('' '')(VP (VBD said))(NP (NP (PRP$ his)))) |BT| (BOW (a *)(hot *)(foot *)(or *)(put *)(a *)(joy *)(buzzer *)(on *)(their *)(seat *)(, *)) |BT| (BOH (foot *)(put *)(buzzer *)(on *)(seat *)(said *)) |BT| (BOH-NPs (foot *)(buzzer *)(seat *)) |BT| (LP (NNS *)(NP *)(VP *)(S *)(SINV *)(NP *)(PRP$ *)) |BT| (LP-head (NNS *)(NP *)(VP *)(S *)(SINV could)(NP *)(PRP$ *)) |BT| (SINV (S (VP (VP (VP (VP (NP (NNS candidates))(NP (DT a)(JJ hot)(NN foot))))(CC or)(VP (VB put)(NP (DT a)(NN joy)(NN buzzer))(PP (IN on)(NP (PRP$ their)(NN seat)))))))(, ,)('' '')(VP (VBD said))(NP (NP (PRP$ his)))) |BT| (SINV (ROOT (SINV (S (VP (VP (VP (VP (NP (E-PER (NNS candidates)))(NP (DT a)(JJ hot)(NN foot))))(CC or)(VP (VB put)(NP (DT a)(NN joy)(NN buzzer))(PP (IN on)(NP (E-PER (PRP$ their))(NN seat)))))))(, ,)('' '')(VP (VBD said))(NP (NP (E-PER (PRP$ his))(E-PER (NN colleague)))(, ,)(NP (E-PER (NNP Fred)(NNP Barnes))))(. .)))(, ,)('' '')(VP (VBD said))(ROOT (SINV (`` ``)(S (ADVP (RB Maybe))(NP (E-PER (NN somebody)))(VP (MD could)(VP (VP (VB have)(VP (VBN given)(NP (DT the)(E-PER (NNS candidates)))(NP (DT a)(JJ hot)(NN foot))))(CC or)(VP (VB put)(NP (DT a)(NN joy)(NN buzzer))(PP (IN on)(NP (E-PER (PRP$ their))(NN seat)))))))(, ,)('' '')(VP (VBD said))(NP (NP (E-PER (PRP$ his))))))) |ET| 11:32 12:33 13:1373 14:554 16:54 17:6 18:148 21:36 22:543 23:1332 24:1385 25:118 26:118 27:430 28:170 29:105 30:170 31:1377 32:264 33:1338 34:1386 37:1340 38:1293 40:1377 41:1379 42:1384 43:1384 44:21 45:581 46:1383 47:170 48:1381 49:1383  |EV| 
-0.12499999999996855293282749244099  |BT| (NP (PRP$ their)(NNS campaigns)) |BT| (BOW ) |BT| (BOH ) |BT| (BOH-NPs ) |BT| (LP (PRP$ *)(NP *)(NNS *)) |BT| (LP-head (PRP$ *)(NP campaigns)(NNS *)) |BT| (NP (PRP$ their)(NNS campaigns)) |BT| (NP (ROOT (S (S (VP (NP (PP (NP (E-PER (PRP$ their))(E-ORG (NNS campaigns)))))(ADVP (ADVP (ADVP (RBR more)(RB effectively))(PP (IN than)(NP (NP (DT the)(NN top))(PP (IN of)(NP (E-PER (PRP$ their))(NN ticket))))))(SBAR (WHADVP (WRB when))(S (NP (E-PER (PRP they)))(VP (VBD met)(PP (IN in)(NP (E-GPE (NNP Boston))))))))))(, ,)('' '')(NP (E-PER (NNP Tom)(NNP Brokaw)))(VP (VBD said))(. .)))(ROOT (S (`` ``)(S (ADJP (RB Highly)(JJ civilized))(, ,)(X (IN in)(NP (JJ many)(NNS ways)))(NP (E-PER (PRP they)))(VP (VBD articulated)(NP (NP (DT the)(NNS positions))(PP (IN of)(NP (E-PER (PRP$ their))(E-ORG (NNS campaigns)))))))))) |ET| 4:19 5:19 11:1251 12:1252 13:580 14:33 16:7 17:7 18:301 21:144 22:156 23:1244 24:1253 25:118 26:118 27:31 28:31 29:187 30:1254 31:1248 32:187 33:1249 34:1255 35:19 36:19 37:1250 38:1250 39:19 40:187 41:1248 42:21 43:21 44:1246 45:1248 46:21 47:21 48:22 49:22  |EV| 
